29 128
1 -0.086790 -0.227170 -0.033608 -0.021414 -0.050679 -0.102439 0.159285 0.006705 0.115463 0.008703 -0.031498 0.155910 0.005079 -0.161779 0.030553 -0.110788 -0.095788 -0.202660 -0.085548 -0.069536 0.127174 0.072276 0.135334 0.039456 0.021713 -0.043238 -0.012452 -0.069735 0.021865 0.120504 -0.052834 0.089722 -0.089732 -0.004398 -0.088166 -0.155767 0.110499 0.048737 -0.158967 -0.204010 -0.227734 -0.049164 0.093546 0.119807 -0.165865 0.086086 0.102204 -0.003635 0.031741 0.039220 -0.213600 0.221317 -0.079118 0.068015 -0.101116 -0.135314 -0.074081 0.031723 0.008159 -0.030967 0.180433 -0.092259 -0.058707 0.096408 -0.152580 -0.074445 0.044668 0.131545 -0.107680 -0.146878 -0.011784 0.046080 0.024243 0.022737 0.156058 -0.021283 0.063854 0.029747 -0.007823 -0.141752 -0.069426 -0.079231 0.005072 -0.154869 -0.108654 0.042363 -0.005615 -0.036194 0.014840 -0.058197 0.183011 0.110654 0.196316 -0.009775 -0.117146 0.168907 0.037275 -0.165613 0.155441 0.060806 -0.212890 -0.058819 -0.240879 -0.023762 -0.014174 0.052466 0.149199 0.220046 -0.020294 -0.055123 -0.004748 0.028924 0.102456 0.058522 -0.082936 0.047943 -0.012411 0.196814 -0.084664 -0.067956 -0.053683 -0.036327 0.033395 -0.177142 -0.125781 0.109131 -0.046257 0.209749
33 -0.135488 -0.230063 -0.004463 -0.012812 -0.011356 -0.088815 0.129772 -0.042344 0.034195 0.005611 -0.049409 0.111735 -0.038726 -0.178021 -0.005171 -0.167254 -0.089096 -0.171221 -0.117106 -0.028247 0.151953 0.107481 0.192530 0.036608 -0.060142 -0.043669 -0.078088 -0.020410 -0.007849 0.156458 -0.078730 0.116160 -0.074083 -0.017212 -0.164439 -0.179065 0.138454 0.111927 -0.172168 -0.190612 -0.315399 0.008934 0.084587 0.083849 -0.115107 0.177212 0.073007 -0.052384 -0.136487 0.021270 -0.114997 0.250785 -0.099620 0.028244 -0.124175 -0.124755 -0.139882 0.014301 -0.016651 0.055058 0.155421 -0.133977 -0.076280 0.137599 -0.036320 -0.199214 0.067497 0.112160 -0.078686 -0.082759 0.097810 0.044598 0.073905 0.020822 0.049845 -0.093528 0.119808 0.062714 -0.006375 -0.005342 0.008958 -0.104462 -0.030266 -0.253120 -0.071542 0.175652 -0.058362 -0.023863 -0.085579 -0.075238 0.096052 0.114598 0.156113 -0.011866 -0.042321 0.186377 -0.048738 -0.006573 0.145650 -0.070453 -0.198516 -0.024532 -0.193377 -0.014471 0.088874 0.065951 0.139948 0.146047 0.013721 -0.089125 -0.016626 -0.047322 0.030848 -0.051099 0.013944 0.042981 -0.075566 0.166021 -0.075104 -0.026754 -0.078548 -0.129072 -0.046895 -0.178146 -0.015977 0.164531 -0.117419 0.105119
3 -0.111905 -0.214195 -0.014007 -0.016128 -0.029282 -0.087974 0.140864 -0.024005 0.060565 0.004702 -0.038960 0.122274 -0.024159 -0.166640 0.007023 -0.140720 -0.085744 -0.184065 -0.100764 -0.048000 0.128374 0.091539 0.156053 0.043091 -0.015295 -0.042564 -0.043862 -0.038774 0.008163 0.138310 -0.067970 0.095673 -0.080786 -0.009428 -0.117617 -0.158720 0.123509 0.082528 -0.154051 -0.183598 -0.257176 -0.021701 0.081711 0.100269 -0.130123 0.125350 0.087558 -0.029605 -0.063430 0.029904 -0.147744 0.221798 -0.092283 0.045437 -0.107145 -0.128554 -0.107668 0.019295 -0.008937 0.016206 0.152834 -0.104771 -0.063645 0.117532 -0.086853 -0.139756 0.057384 0.121075 -0.085853 -0.112934 0.045979 0.047453 0.042635 0.022904 0.099002 -0.061425 0.093904 0.045670 -0.003965 -0.063570 -0.026744 -0.085741 -0.014839 -0.206487 -0.084337 0.115173 -0.033370 -0.024874 -0.044545 -0.067230 0.128617 0.110775 0.169903 -0.009305 -0.081065 0.176936 -0.011918 -0.069369 0.147582 -0.009047 -0.205555 -0.037869 -0.219674 -0.022113 0.040538 0.066034 0.138428 0.174914 0.000846 -0.074925 -0.006947 -0.012402 0.060072 0.000715 -0.028537 0.045543 -0.047263 0.178022 -0.066731 -0.037101 -0.069670 -0.089374 -0.013627 -0.175120 -0.067373 0.138784 -0.081018 0.154549
2 -0.100466 -0.231570 -0.025497 -0.023134 -0.041293 -0.097578 0.156695 -0.012039 0.083540 0.006241 -0.040227 0.151905 -0.008570 -0.177351 0.019111 -0.138196 -0.102055 -0.194453 -0.096926 -0.057901 0.135145 0.089864 0.155140 0.042493 -0.008074 -0.042924 -0.033486 -0.055553 0.015923 0.135762 -0.058278 0.097150 -0.093400 -0.002289 -0.111686 -0.159214 0.123884 0.065786 -0.160815 -0.202363 -0.251291 -0.028107 0.093150 0.110120 -0.154886 0.112449 0.092567 -0.019983 -0.017809 0.028122 -0.177268 0.215671 -0.082147 0.059663 -0.105916 -0.130290 -0.086641 0.028052 -0.006233 -0.004609 0.161285 -0.097314 -0.060696 0.102179 -0.117530 -0.103717 0.048733 0.118971 -0.100281 -0.130481 0.017476 0.045648 0.038487 0.021473 0.123097 -0.038007 0.080038 0.036954 -0.007323 -0.098266 -0.048190 -0.085045 -0.010060 -0.179442 -0.090181 0.084865 -0.021398 -0.029547 -0.009965 -0.066252 0.154483 0.113216 0.177981 -0.015938 -0.101023 0.169446 0.007117 -0.112650 0.139044 0.026542 -0.196602 -0.049864 -0.217381 -0.027798 0.011063 0.052201 0.143358 0.196478 -0.014672 -0.064401 -0.010777 0.009019 0.077117 0.023922 -0.055216 0.044842 -0.029716 0.180839 -0.076375 -0.048396 -0.060616 -0.066422 0.008970 -0.174247 -0.084880 0.120135 -0.056829 0.170205
32 -0.126174 -0.225030 -0.016107 -0.015213 -0.021680 -0.082388 0.137170 -0.039171 0.044503 0.008104 -0.047402 0.117297 -0.032589 -0.167087 -0.003255 -0.155182 -0.084924 -0.176731 -0.113316 -0.032197 0.141639 0.103474 0.172090 0.037645 -0.045626 -0.045890 -0.066390 -0.024736 -0.006066 0.142991 -0.074713 0.105629 -0.066931 -0.016809 -0.144336 -0.162817 0.132965 0.102825 -0.158022 -0.188498 -0.289067 0.003519 0.079147 0.086840 -0.120253 0.151398 0.077051 -0.036843 -0.103049 0.017477 -0.121459 0.235814 -0.092553 0.036935 -0.113818 -0.125832 -0.124794 0.010815 -0.015405 0.036705 0.148782 -0.117237 -0.069403 0.127070 -0.058728 -0.173338 0.054808 0.117273 -0.082522 -0.099118 0.071776 0.047447 0.064131 0.015047 0.063001 -0.081717 0.103836 0.056245 -0.010688 -0.023945 -0.007410 -0.097978 -0.020656 -0.226591 -0.078177 0.150671 -0.047749 -0.021326 -0.067037 -0.073316 0.106564 0.110490 0.161571 -0.012499 -0.053389 0.174747 -0.029645 -0.030385 0.136723 -0.049901 -0.193017 -0.029799 -0.202690 -0.024181 0.071984 0.068879 0.144902 0.153018 -0.000115 -0.080178 -0.011868 -0.038909 0.041087 -0.028594 -0.001747 0.043517 -0.064253 0.170278 -0.064662 -0.027830 -0.074170 -0.112215 -0.033585 -0.167042 -0.029103 0.146849 -0.100725 0.123894
24 -0.130480 -0.211949 -0.002524 -0.008762 -0.010045 -0.077200 0.122643 -0.047708 0.025212 0.006557 -0.045352 0.094323 -0.037970 -0.166317 -0.014031 -0.166816 -0.079321 -0.166928 -0.112434 -0.024029 0.145566 0.107304 0.182967 0.044241 -0.056054 -0.043780 -0.078824 -0.017613 -0.016028 0.152045 -0.083848 0.106847 -0.066536 -0.024645 -0.154825 -0.164590 0.134651 0.109858 -0.154377 -0.181461 -0.296819 0.017473 0.072679 0.078195 -0.100358 0.171301 0.062807 -0.044072 -0.138969 0.016602 -0.093742 0.245380 -0.101741 0.029662 -0.115369 -0.121032 -0.135983 0.007119 -0.022033 0.057091 0.143751 -0.126916 -0.069583 0.136698 -0.033703 -0.202973 0.061235 0.115427 -0.076246 -0.076470 0.101051 0.045814 0.070653 0.016478 0.039046 -0.104199 0.113238 0.059395 -0.007820 0.010388 0.013085 -0.097638 -0.029046 -0.245878 -0.070572 0.171862 -0.064324 -0.015587 -0.091014 -0.073113 0.081778 0.108300 0.151657 -0.010950 -0.036209 0.181291 -0.046188 0.006079 0.143060 -0.076762 -0.199872 -0.015556 -0.189946 -0.018483 0.093441 0.075023 0.141858 0.138617 0.013510 -0.086008 -0.012495 -0.059061 0.024539 -0.053738 0.012267 0.040965 -0.077425 0.163174 -0.061885 -0.015666 -0.079146 -0.133350 -0.052778 -0.175577 -0.006415 0.168513 -0.116204 0.104241
7 -0.075313 -0.234161 -0.047071 -0.019999 -0.064292 -0.101893 0.173343 0.014180 0.135277 0.010404 -0.028786 0.173347 0.010166 -0.168401 0.043131 -0.101600 -0.103903 -0.215140 -0.095605 -0.078634 0.129429 0.069694 0.136277 0.039535 0.036553 -0.049999 -0.011869 -0.087273 0.021266 0.123707 -0.043572 0.094646 -0.096601 -0.008634 -0.080109 -0.155202 0.113828 0.039633 -0.171660 -0.209252 -0.227064 -0.053515 0.099754 0.128582 -0.180468 0.080745 0.115973 0.002492 0.055555 0.041471 -0.234644 0.225942 -0.075842 0.074419 -0.099170 -0.140941 -0.068431 0.029053 0.020243 -0.044763 0.192429 -0.086612 -0.054362 0.094288 -0.173534 -0.061052 0.046408 0.141938 -0.114068 -0.167487 -0.027606 0.056398 0.011783 0.025802 0.184292 -0.008151 0.054616 0.032350 -0.014095 -0.166624 -0.079938 -0.074194 0.008470 -0.142003 -0.121956 0.030732 -0.000766 -0.037562 0.023354 -0.057864 0.211354 0.118967 0.219140 -0.008839 -0.133439 0.183190 0.058253 -0.202662 0.162345 0.080789 -0.228573 -0.071663 -0.271784 -0.025473 -0.034009 0.043567 0.156323 0.244895 -0.020464 -0.055539 -0.001821 0.048424 0.116073 0.069900 -0.099512 0.053823 -0.009109 0.208745 -0.092975 -0.074846 -0.054992 -0.025201 0.055779 -0.188094 -0.151882 0.108389 -0.036501 0.241605
6 -0.069057 -0.229632 -0.046768 -0.015220 -0.065756 -0.103827 0.176131 0.023642 0.141691 0.011677 -0.021268 0.173648 0.013725 -0.161396 0.048415 -0.090776 -0.105202 -0.217241 -0.086567 -0.085873 0.120412 0.062747 0.124248 0.032372 0.048822 -0.049305 0.001952 -0.096131 0.027716 0.121371 -0.039939 0.083132 -0.092212 -0.004804 -0.061444 -0.145658 0.109566 0.035411 -0.168516 -0.202442 -0.203388 -0.058635 0.099959 0.123595 -0.186139 0.063282 0.119543 0.006357 0.078735 0.044974 -0.238474 0.213305 -0.072737 0.074386 -0.087419 -0.142126 -0.056486 0.030314 0.025350 -0.062891 0.191518 -0.074282 -0.049460 0.083333 -0.184399 -0.047608 0.041269 0.138847 -0.118105 -0.173077 -0.037775 0.052928 0.003777 0.028970 0.197609 0.000938 0.047193 0.028488 -0.015434 -0.179280 -0.091537 -0.069803 0.014924 -0.131940 -0.121637 0.013121 0.011988 -0.039654 0.035895 -0.057194 0.222861 0.121399 0.223094 -0.004926 -0.142417 0.180868 0.069250 -0.225427 0.169024 0.096092 -0.226659 -0.080538 -0.275926 -0.023746 -0.049743 0.045323 0.158147 0.257294 -0.023372 -0.054107 0.001017 0.059388 0.126254 0.088749 -0.109584 0.059010 0.002922 0.209601 -0.088465 -0.084318 -0.047144 -0.015691 0.067719 -0.189838 -0.166794 0.102511 -0.025045 0.245656
9 -0.107162 -0.220918 -0.024493 -0.018305 -0.033498 -0.089868 0.143770 -0.018629 0.076066 0.007327 -0.038977 0.133776 -0.016609 -0.168129 0.011438 -0.136672 -0.092895 -0.183573 -0.103371 -0.047022 0.131893 0.093105 0.162710 0.034780 -0.018233 -0.041855 -0.045634 -0.050397 0.003569 0.137793 -0.062041 0.102112 -0.080456 -0.016056 -0.113496 -0.159980 0.124932 0.078211 -0.161796 -0.185929 -0.260895 -0.021901 0.084896 0.101672 -0.138481 0.123119 0.086416 -0.026331 -0.051069 0.024777 -0.159626 0.228635 -0.089119 0.048161 -0.102058 -0.129707 -0.104334 0.019226 -0.004154 0.006174 0.160416 -0.105848 -0.064576 0.114327 -0.092198 -0.134458 0.055465 0.120671 -0.092165 -0.117020 0.041322 0.050312 0.047960 0.017930 0.107748 -0.059940 0.083296 0.049366 -0.013748 -0.069910 -0.029321 -0.088840 -0.015620 -0.201541 -0.091894 0.106007 -0.030123 -0.026676 -0.037455 -0.064006 0.141046 0.109014 0.179298 -0.006215 -0.081033 0.171079 0.000118 -0.086396 0.147899 -0.002269 -0.206463 -0.045365 -0.222888 -0.020502 0.034854 0.058963 0.143201 0.185993 -0.008593 -0.075285 -0.006291 -0.007059 0.068320 0.004728 -0.035638 0.043274 -0.046246 0.181130 -0.074696 -0.040937 -0.066797 -0.082638 -0.005424 -0.173413 -0.073470 0.138503 -0.076078 0.159969
30 -0.121852 -0.219842 -0.010727 -0.010801 -0.019344 -0.076492 0.129579 -0.043888 0.033491 0.007691 -0.051699 0.103496 -0.036740 -0.166335 -0.008758 -0.161510 -0.080311 -0.167219 -0.113212 -0.024701 0.142070 0.100890 0.181040 0.035063 -0.048659 -0.046195 -0.067324 -0.021336 -0.014958 0.146135 -0.076137 0.102071 -0.066748 -0.022647 -0.147187 -0.158647 0.126634 0.106867 -0.152819 -0.181952 -0.287631 0.008541 0.078199 0.084750 -0.107429 0.159845 0.068995 -0.047521 -0.119324 0.021154 -0.106775 0.236678 -0.091442 0.026007 -0.107868 -0.120227 -0.132987 0.010223 -0.014069 0.047202 0.142498 -0.121030 -0.062909 0.127888 -0.035866 -0.183674 0.057888 0.108298 -0.074382 -0.088100 0.088348 0.044253 0.067024 0.015014 0.050204 -0.095643 0.107467 0.061669 -0.010520 -0.004378 -0.002613 -0.097852 -0.031702 -0.233027 -0.071227 0.159513 -0.056883 -0.017577 -0.081756 -0.067534 0.096253 0.102054 0.151759 -0.007819 -0.042360 0.172616 -0.041539 -0.008442 0.138232 -0.062793 -0.183042 -0.021853 -0.188707 -0.024836 0.078604 0.065612 0.140757 0.145788 0.003509 -0.085957 -0.016637 -0.049135 0.027823 -0.044503 0.011163 0.039940 -0.070692 0.159556 -0.068015 -0.016667 -0.077533 -0.115669 -0.040279 -0.163890 -0.018741 0.156108 -0.098319 0.107330
25 -0.132175 -0.211587 -0.006942 -0.014906 -0.015634 -0.080670 0.120545 -0.050475 0.028509 0.005610 -0.049599 0.093919 -0.037186 -0.160755 -0.012467 -0.164442 -0.076946 -0.168047 -0.108476 -0.022857 0.147144 0.103805 0.181851 0.044198 -0.054194 -0.047896 -0.071173 -0.017730 -0.016227 0.150174 -0.076223 0.105036 -0.063848 -0.025256 -0.155188 -0.158847 0.127915 0.109938 -0.154765 -0.181495 -0.293141 0.013858 0.068785 0.073574 -0.098204 0.169470 0.067627 -0.039345 -0.128841 0.020055 -0.102674 0.239805 -0.095476 0.030159 -0.120508 -0.121453 -0.127466 0.005475 -0.023209 0.057643 0.139452 -0.119998 -0.067679 0.129145 -0.039576 -0.192823 0.058152 0.111212 -0.076758 -0.076708 0.091386 0.040456 0.069600 0.020493 0.042605 -0.099467 0.107313 0.059708 -0.003098 0.000375 0.007147 -0.097911 -0.026698 -0.241694 -0.067687 0.166818 -0.059730 -0.023449 -0.088546 -0.076564 0.079717 0.103006 0.149143 -0.012736 -0.038614 0.174106 -0.045429 0.003826 0.135321 -0.069031 -0.190362 -0.016403 -0.184991 -0.015547 0.089711 0.068893 0.135731 0.134329 0.015755 -0.082397 -0.016479 -0.052336 0.025354 -0.047931 0.008741 0.036658 -0.069185 0.153098 -0.058007 -0.020366 -0.073958 -0.119060 -0.051816 -0.166801 -0.008301 0.160526 -0.113683 0.095974
14 -0.110806 -0.220975 -0.013584 -0.022145 -0.028369 -0.091126 0.139816 -0.023802 0.065374 0.008367 -0.043057 0.133008 -0.019661 -0.166751 0.011062 -0.137105 -0.089844 -0.183403 -0.097745 -0.051219 0.135665 0.094213 0.156118 0.042303 -0.019952 -0.039011 -0.038702 -0.038866 0.004806 0.137486 -0.062596 0.099538 -0.081903 -0.006402 -0.114507 -0.159559 0.121829 0.077387 -0.157260 -0.189184 -0.260212 -0.020292 0.084478 0.100728 -0.134075 0.125739 0.086469 -0.024051 -0.052721 0.031837 -0.155267 0.219759 -0.087893 0.048433 -0.105409 -0.126235 -0.103386 0.024946 -0.010996 0.007969 0.156205 -0.108689 -0.062311 0.107465 -0.094199 -0.126910 0.054455 0.112389 -0.088347 -0.113026 0.036187 0.046486 0.040763 0.024052 0.104567 -0.052507 0.089666 0.041762 -0.007227 -0.072153 -0.031666 -0.085347 -0.009916 -0.192575 -0.087078 0.109461 -0.031480 -0.028965 -0.031532 -0.066663 0.129654 0.106634 0.167292 -0.010876 -0.081167 0.173012 -0.009904 -0.074481 0.144404 -0.002647 -0.200706 -0.039598 -0.210315 -0.018002 0.031003 0.061710 0.140263 0.177862 -0.007061 -0.070045 -0.012608 -0.011259 0.059580 0.006905 -0.029743 0.042340 -0.045839 0.173616 -0.071252 -0.040336 -0.064500 -0.083363 -0.010253 -0.173119 -0.063647 0.129955 -0.079488 0.150260
28 -0.122028 -0.215331 -0.006930 -0.017153 -0.020307 -0.076824 0.128776 -0.035631 0.042697 0.006056 -0.042348 0.112709 -0.028263 -0.157849 -0.004108 -0.147995 -0.082701 -0.169464 -0.101129 -0.032116 0.132853 0.095942 0.166454 0.036752 -0.042740 -0.039516 -0.063985 -0.025922 -0.001271 0.136255 -0.069627 0.104182 -0.066750 -0.013506 -0.135727 -0.162963 0.125791 0.095214 -0.150208 -0.178415 -0.277436 -0.005141 0.079697 0.088790 -0.118429 0.144213 0.067750 -0.037655 -0.097702 0.018410 -0.125044 0.227286 -0.086234 0.032967 -0.105982 -0.120594 -0.120832 0.008903 -0.018108 0.036862 0.144307 -0.113989 -0.062153 0.121129 -0.054621 -0.161639 0.055052 0.112874 -0.082573 -0.095793 0.067861 0.045731 0.056889 0.012344 0.063947 -0.077393 0.097341 0.055387 -0.013708 -0.025548 -0.009048 -0.095349 -0.020184 -0.215395 -0.077077 0.140924 -0.045347 -0.020612 -0.062088 -0.064812 0.106483 0.103972 0.151914 -0.013564 -0.051708 0.165396 -0.027476 -0.030017 0.135651 -0.043316 -0.189102 -0.024212 -0.194883 -0.020237 0.067931 0.065216 0.139746 0.153763 0.003728 -0.081767 -0.009933 -0.031303 0.038064 -0.027296 -0.006405 0.037955 -0.062243 0.162650 -0.069782 -0.030452 -0.069554 -0.105800 -0.028933 -0.162203 -0.039129 0.141576 -0.092086 0.122838
26 -0.128933 -0.213112 -0.004404 -0.016484 -0.010562 -0.084853 0.126583 -0.049721 0.022578 0.004004 -0.048060 0.098176 -0.032773 -0.168095 -0.012195 -0.160117 -0.080380 -0.166624 -0.111510 -0.024828 0.149434 0.106554 0.182971 0.042901 -0.059720 -0.045262 -0.075564 -0.019094 -0.011097 0.150557 -0.075656 0.105976 -0.065503 -0.021809 -0.158415 -0.168465 0.135608 0.107271 -0.157001 -0.185070 -0.295688 0.005778 0.069565 0.077987 -0.107610 0.172382 0.063193 -0.044073 -0.132241 0.020879 -0.102810 0.242472 -0.098771 0.025424 -0.120352 -0.124003 -0.129764 0.011320 -0.026646 0.054930 0.147612 -0.125992 -0.071974 0.136008 -0.039530 -0.190030 0.060948 0.106550 -0.074516 -0.078369 0.091065 0.043359 0.067974 0.015858 0.049061 -0.096783 0.108476 0.057653 -0.006520 -0.003837 0.001597 -0.096682 -0.026083 -0.240882 -0.067009 0.169978 -0.061669 -0.022445 -0.082364 -0.075384 0.088022 0.106888 0.152322 -0.008213 -0.037793 0.172444 -0.047472 0.001953 0.140262 -0.068594 -0.189679 -0.020965 -0.185493 -0.013898 0.089872 0.071378 0.140843 0.137406 0.014438 -0.078998 -0.018206 -0.053269 0.028365 -0.042558 0.011255 0.038938 -0.070392 0.156923 -0.057536 -0.025951 -0.075077 -0.126296 -0.051376 -0.169815 -0.008605 0.160340 -0.113450 0.095675
29 -0.119352 -0.220003 -0.015786 -0.016737 -0.021166 -0.089671 0.135125 -0.034739 0.052261 0.008387 -0.042304 0.120644 -0.029100 -0.167301 0.002302 -0.151119 -0.089921 -0.181027 -0.104296 -0.038894 0.143222 0.094698 0.167333 0.037975 -0.038450 -0.046137 -0.058365 -0.034938 0.000062 0.146224 -0.067305 0.101462 -0.071312 -0.017837 -0.140312 -0.163204 0.132425 0.094865 -0.159963 -0.192820 -0.277105 -0.002490 0.076715 0.086174 -0.119508 0.152566 0.078077 -0.035150 -0.091172 0.026214 -0.133418 0.233223 -0.095161 0.039117 -0.116781 -0.121563 -0.113708 0.019162 -0.009112 0.031524 0.156187 -0.119127 -0.070593 0.121647 -0.070399 -0.164435 0.053138 0.114564 -0.081465 -0.094706 0.062273 0.044357 0.054256 0.022322 0.078257 -0.071754 0.103397 0.052247 -0.006278 -0.039464 -0.016742 -0.090747 -0.016165 -0.222632 -0.079248 0.137919 -0.040337 -0.029756 -0.059013 -0.074240 0.114418 0.106229 0.163563 -0.008257 -0.058164 0.180922 -0.025917 -0.042059 0.143511 -0.038697 -0.199202 -0.029046 -0.202865 -0.017055 0.061109 0.063408 0.137467 0.157520 0.005073 -0.074670 -0.009570 -0.027676 0.045059 -0.021464 -0.015885 0.039735 -0.059352 0.168447 -0.066954 -0.036004 -0.071195 -0.102034 -0.028482 -0.175647 -0.039529 0.149868 -0.096313 0.126719
17 -0.068341 -0.235680 -0.051515 -0.015633 -0.073864 -0.110194 0.181836 0.027926 0.155776 0.015213 -0.020197 0.186588 0.019644 -0.159364 0.047910 -0.086089 -0.107540 -0.223524 -0.090090 -0.082926 0.121722 0.059217 0.127909 0.030831 0.053552 -0.045154 0.001557 -0.099250 0.031375 0.120829 -0.037968 0.086767 -0.093789 -0.005063 -0.062771 -0.151601 0.112589 0.031364 -0.170330 -0.202178 -0.203108 -0.067894 0.097849 0.133116 -0.191712 0.056779 0.121986 0.014398 0.086334 0.043895 -0.251132 0.211551 -0.068055 0.072917 -0.086319 -0.143031 -0.057207 0.037277 0.029628 -0.070318 0.194775 -0.077857 -0.047669 0.081121 -0.192396 -0.036137 0.041505 0.141595 -0.118950 -0.175132 -0.049188 0.054056 0.005036 0.022762 0.207102 0.010318 0.039337 0.022905 -0.015175 -0.193534 -0.092243 -0.072095 0.019003 -0.123308 -0.131915 0.006788 0.017583 -0.041350 0.048244 -0.056887 0.225922 0.119433 0.224616 -0.003351 -0.147496 0.178388 0.078491 -0.232745 0.169447 0.107687 -0.227602 -0.082217 -0.281118 -0.022858 -0.053829 0.039214 0.159860 0.257003 -0.031057 -0.047680 0.000270 0.064444 0.137448 0.094874 -0.117170 0.056193 0.003138 0.219848 -0.093467 -0.091714 -0.043746 -0.005216 0.074171 -0.185988 -0.176564 0.097406 -0.024373 0.262041
20 -0.099580 -0.216269 -0.022776 -0.018027 -0.039382 -0.094217 0.145496 -0.014686 0.073613 0.005925 -0.039394 0.132001 -0.008279 -0.161225 0.014477 -0.128587 -0.093624 -0.182670 -0.094765 -0.054501 0.130920 0.081930 0.150146 0.039190 -0.006879 -0.038234 -0.029825 -0.049741 0.011221 0.125246 -0.061173 0.092035 -0.080122 -0.009536 -0.104890 -0.151271 0.121105 0.066936 -0.156597 -0.193757 -0.248138 -0.028166 0.080429 0.102290 -0.137107 0.113824 0.091347 -0.019350 -0.029264 0.026843 -0.170811 0.217235 -0.080929 0.046957 -0.102427 -0.124819 -0.091263 0.018462 -0.006688 0.001687 0.162646 -0.097519 -0.058664 0.106615 -0.105641 -0.113745 0.047575 0.119560 -0.092859 -0.115812 0.022080 0.047263 0.034430 0.020335 0.113622 -0.042208 0.080583 0.039731 -0.005689 -0.081562 -0.039131 -0.084920 -0.007945 -0.183451 -0.085920 0.091999 -0.026348 -0.028009 -0.024112 -0.060849 0.143289 0.104876 0.171628 -0.011663 -0.084686 0.165112 0.006071 -0.097081 0.137414 0.014737 -0.198780 -0.046262 -0.217584 -0.017620 0.020588 0.059025 0.136085 0.182541 -0.004867 -0.061645 -0.009354 0.003249 0.069915 0.019334 -0.046503 0.041330 -0.033592 0.176701 -0.071830 -0.044476 -0.061954 -0.065257 0.002226 -0.171456 -0.077461 0.125370 -0.069965 0.163897
31 -0.123512 -0.223845 -0.007679 -0.014776 -0.021975 -0.089828 0.134541 -0.041703 0.043036 0.007003 -0.044159 0.123516 -0.028022 -0.174075 -0.002261 -0.161773 -0.092595 -0.176566 -0.105928 -0.034914 0.143221 0.099088 0.173126 0.043257 -0.041083 -0.041125 -0.059226 -0.025146 -0.003198 0.145591 -0.076975 0.109767 -0.078276 -0.013379 -0.140358 -0.163960 0.130466 0.097455 -0.156427 -0.195271 -0.287682 -0.001413 0.081872 0.090092 -0.120496 0.153554 0.074179 -0.042739 -0.101640 0.024601 -0.131415 0.237108 -0.094421 0.034147 -0.111538 -0.125556 -0.120946 0.013637 -0.019369 0.032494 0.154349 -0.120851 -0.072067 0.122078 -0.061820 -0.170091 0.053313 0.112338 -0.084290 -0.095080 0.071910 0.042132 0.061639 0.018076 0.071616 -0.080064 0.109427 0.054024 -0.004187 -0.026316 -0.008140 -0.097420 -0.024314 -0.229129 -0.075590 0.144820 -0.049701 -0.026481 -0.064521 -0.073852 0.102468 0.110528 0.162096 -0.011310 -0.060789 0.175362 -0.033924 -0.030598 0.139621 -0.040700 -0.198332 -0.026854 -0.197317 -0.024001 0.064993 0.066967 0.139475 0.157779 0.005171 -0.079382 -0.015280 -0.038437 0.038610 -0.030393 -0.003892 0.043757 -0.065817 0.172844 -0.073604 -0.025821 -0.075961 -0.110808 -0.036620 -0.174405 -0.034936 0.151745 -0.101855 0.123057
5 -0.095183 -0.229892 -0.032651 -0.018885 -0.040584 -0.095226 0.158050 -0.009729 0.099026 0.005921 -0.031170 0.152726 -0.010505 -0.163226 0.025658 -0.125269 -0.098747 -0.196012 -0.096373 -0.057840 0.129929 0.084230 0.140948 0.040532 0.004216 -0.045275 -0.028598 -0.062476 0.013089 0.125563 -0.058098 0.093293 -0.086723 -0.004619 -0.095657 -0.156913 0.117678 0.063620 -0.159209 -0.191260 -0.235268 -0.033995 0.088716 0.108980 -0.154153 0.101815 0.096243 -0.016249 -0.007212 0.029394 -0.183146 0.217603 -0.074442 0.051510 -0.094874 -0.131188 -0.084583 0.022859 0.006744 -0.019064 0.164410 -0.097658 -0.055406 0.102200 -0.124780 -0.098815 0.052328 0.122566 -0.096784 -0.137329 0.010236 0.048314 0.030005 0.017285 0.133312 -0.037722 0.072210 0.034902 -0.015302 -0.110561 -0.053069 -0.082473 -0.005688 -0.172610 -0.102466 0.071111 -0.013555 -0.026780 -0.006903 -0.061471 0.166862 0.110953 0.187098 -0.008645 -0.104372 0.173088 0.016144 -0.131841 0.152510 0.035403 -0.210104 -0.053494 -0.234213 -0.028412 0.001482 0.050460 0.147219 0.203243 -0.017386 -0.066890 -0.009091 0.014339 0.084775 0.028584 -0.060724 0.051890 -0.025347 0.189419 -0.077213 -0.053699 -0.059402 -0.056394 0.019394 -0.177593 -0.104327 0.120500 -0.059941 0.189777
22 -0.091764 -0.221794 -0.027609 -0.018946 -0.042447 -0.096955 0.149183 -0.009785 0.087068 0.006402 -0.036929 0.146017 -0.005910 -0.165681 0.024616 -0.124441 -0.097975 -0.192697 -0.088941 -0.054912 0.130140 0.080020 0.147675 0.038998 -0.000934 -0.038624 -0.029037 -0.062054 0.016187 0.130528 -0.056007 0.090275 -0.088205 -0.007256 -0.101754 -0.156201 0.116053 0.061073 -0.160092 -0.197080 -0.235486 -0.036144 0.084695 0.110280 -0.146282 0.108530 0.091635 -0.013099 -0.007553 0.030957 -0.182702 0.212923 -0.085323 0.054183 -0.095811 -0.127193 -0.082790 0.028726 0.003944 -0.015308 0.166979 -0.094625 -0.056770 0.105244 -0.121205 -0.100358 0.044179 0.124296 -0.093019 -0.127233 0.011763 0.048624 0.031031 0.021114 0.133889 -0.034025 0.072846 0.039499 -0.005322 -0.104168 -0.051989 -0.080832 -0.000944 -0.175788 -0.094287 0.072426 -0.013629 -0.033756 -0.007341 -0.062128 0.157889 0.107233 0.180117 -0.013010 -0.098688 0.169620 0.014693 -0.119817 0.146960 0.024975 -0.200885 -0.048942 -0.221547 -0.019735 0.008126 0.056212 0.138224 0.197380 -0.010952 -0.061182 -0.003836 0.013294 0.081848 0.033364 -0.057416 0.046021 -0.030601 0.180467 -0.077711 -0.052856 -0.056924 -0.060658 0.014966 -0.174331 -0.092891 0.118191 -0.056349 0.177424
10 -0.112797 -0.216381 -0.016054 -0.016552 -0.024169 -0.082662 0.136149 -0.028123 0.060735 0.004123 -0.039585 0.123863 -0.024880 -0.160269 0.002598 -0.139661 -0.084840 -0.170791 -0.101565 -0.038713 0.136461 0.090643 0.162404 0.042086 -0.031847 -0.041895 -0.050241 -0.037568 0.000063 0.133360 -0.068769 0.096761 -0.073061 -0.010515 -0.132141 -0.160033 0.125964 0.081966 -0.157968 -0.188636 -0.270459 -0.011552 0.084055 0.095289 -0.120767 0.141099 0.081789 -0.031989 -0.068675 0.021016 -0.135477 0.221432 -0.082703 0.038464 -0.107511 -0.116914 -0.105696 0.013210 -0.014706 0.025417 0.150139 -0.108479 -0.067560 0.113745 -0.071798 -0.142764 0.050677 0.108471 -0.086868 -0.101783 0.056767 0.039111 0.055817 0.018215 0.084685 -0.063473 0.091574 0.045629 -0.010591 -0.047160 -0.021744 -0.090823 -0.016175 -0.200178 -0.082363 0.121741 -0.040935 -0.028740 -0.047767 -0.067699 0.118219 0.104803 0.161515 -0.007562 -0.064256 0.168507 -0.017608 -0.056776 0.136534 -0.020374 -0.190155 -0.033584 -0.195630 -0.017232 0.048052 0.057690 0.137797 0.163031 -0.002476 -0.069774 -0.006957 -0.024746 0.052195 -0.013334 -0.017947 0.040471 -0.050467 0.168733 -0.071116 -0.038487 -0.065836 -0.092516 -0.019556 -0.163994 -0.044612 0.134471 -0.086891 0.132727
21 -0.118262 -0.213427 -0.014886 -0.019569 -0.029110 -0.084857 0.134140 -0.033082 0.055078 0.009507 -0.042920 0.120913 -0.024823 -0.168746 0.002663 -0.146152 -0.087365 -0.175572 -0.100478 -0.036320 0.136994 0.093255 0.162281 0.041007 -0.030853 -0.043481 -0.053974 -0.033916 -0.000204 0.136814 -0.066023 0.099960 -0.074269 -0.012366 -0.134777 -0.161707 0.123192 0.092046 -0.151529 -0.184377 -0.273600 -0.003510 0.078392 0.089388 -0.125984 0.139363 0.077779 -0.032442 -0.076416 0.021941 -0.129923 0.226262 -0.085313 0.036412 -0.107705 -0.119950 -0.111756 0.012083 -0.014773 0.028536 0.146928 -0.111133 -0.062625 0.121022 -0.065191 -0.152195 0.054061 0.111071 -0.085139 -0.104452 0.062443 0.039660 0.055504 0.019649 0.079722 -0.069529 0.093620 0.047517 -0.005691 -0.039308 -0.017253 -0.087991 -0.019455 -0.211233 -0.079637 0.122507 -0.042342 -0.024587 -0.047861 -0.068940 0.115898 0.106480 0.153949 -0.007130 -0.063690 0.164563 -0.022862 -0.045880 0.135623 -0.028174 -0.188693 -0.032556 -0.196651 -0.019207 0.056942 0.062540 0.132217 0.153957 -0.000743 -0.076136 -0.007433 -0.020762 0.045920 -0.015184 -0.017886 0.045979 -0.056901 0.164981 -0.067239 -0.026640 -0.068905 -0.097406 -0.022868 -0.170403 -0.042941 0.138934 -0.082967 0.128373
23 -0.118488 -0.216624 -0.016901 -0.014402 -0.022921 -0.081702 0.133761 -0.030966 0.050698 0.004412 -0.045589 0.118323 -0.028271 -0.169145 -0.001718 -0.148583 -0.087954 -0.172849 -0.104151 -0.032316 0.137279 0.095765 0.166177 0.041191 -0.036337 -0.044277 -0.063209 -0.035030 -0.006280 0.144089 -0.071142 0.103896 -0.074140 -0.015975 -0.140251 -0.165036 0.129271 0.091629 -0.160641 -0.186303 -0.279810 -0.003590 0.082284 0.091268 -0.118569 0.145632 0.075096 -0.034366 -0.094549 0.022605 -0.128641 0.231313 -0.089371 0.033397 -0.110578 -0.127897 -0.120872 0.014511 -0.012456 0.027733 0.152440 -0.117973 -0.063643 0.124017 -0.060520 -0.163585 0.059223 0.118222 -0.081544 -0.095494 0.067966 0.045516 0.061870 0.018820 0.070579 -0.076092 0.104102 0.054521 -0.004982 -0.032971 -0.008779 -0.095053 -0.017574 -0.220831 -0.079154 0.140683 -0.046019 -0.022486 -0.062710 -0.071260 0.112604 0.109338 0.157177 -0.009936 -0.064155 0.171903 -0.025060 -0.041422 0.139418 -0.034035 -0.194730 -0.031385 -0.196400 -0.024585 0.060248 0.059991 0.134566 0.155999 0.005045 -0.077088 -0.015818 -0.031853 0.042910 -0.026540 -0.011219 0.042845 -0.061758 0.171311 -0.069402 -0.030326 -0.070652 -0.102169 -0.030461 -0.175074 -0.038899 0.144511 -0.094197 0.128270
13 -0.101860 -0.225699 -0.022189 -0.020729 -0.038431 -0.093489 0.150623 -0.018387 0.080881 0.011148 -0.041422 0.134600 -0.012146 -0.170268 0.016680 -0.134174 -0.096202 -0.191461 -0.102593 -0.055927 0.139844 0.087936 0.154100 0.040420 -0.014361 -0.044618 -0.036348 -0.048009 0.007406 0.135735 -0.064322 0.101169 -0.082226 -0.014451 -0.113257 -0.161185 0.125776 0.077662 -0.160755 -0.193901 -0.255829 -0.021730 0.086591 0.104425 -0.141705 0.124270 0.092291 -0.020770 -0.038365 0.032189 -0.166979 0.227496 -0.081763 0.052826 -0.106695 -0.130702 -0.100988 0.017622 0.000404 0.000144 0.164265 -0.101733 -0.062855 0.105243 -0.099018 -0.125203 0.049377 0.118222 -0.090767 -0.124601 0.028607 0.045289 0.040419 0.018150 0.113130 -0.053945 0.080862 0.040729 -0.013587 -0.084106 -0.036315 -0.088719 -0.010651 -0.190401 -0.096339 0.097075 -0.024714 -0.028864 -0.030643 -0.059933 0.148220 0.108105 0.174691 -0.012796 -0.085144 0.171269 0.004322 -0.101558 0.143668 0.006845 -0.199848 -0.044870 -0.221942 -0.020973 0.024140 0.052821 0.146830 0.184381 -0.007304 -0.072200 -0.004747 -0.001713 0.068589 0.015796 -0.045227 0.042418 -0.041352 0.182195 -0.073606 -0.048455 -0.061831 -0.069482 0.006323 -0.171810 -0.079579 0.131821 -0.068858 0.166766
16 -0.120761 -0.221100 -0.012639 -0.015285 -0.023646 -0.085599 0.139039 -0.034097 0.052317 0.007490 -0.047135 0.121685 -0.031262 -0.165725 0.004071 -0.154777 -0.091339 -0.181589 -0.111553 -0.039968 0.138386 0.099911 0.173635 0.037215 -0.034804 -0.043315 -0.059174 -0.032525 -0.005123 0.139465 -0.074513 0.106721 -0.074965 -0.020394 -0.134473 -0.161387 0.131300 0.091479 -0.160496 -0.189894 -0.282498 -0.000052 0.084422 0.090363 -0.119971 0.144222 0.079988 -0.034723 -0.094117 0.027040 -0.123941 0.230637 -0.090584 0.038944 -0.106221 -0.122284 -0.118449 0.015875 -0.010692 0.026567 0.151126 -0.119261 -0.067106 0.117473 -0.060684 -0.163251 0.057750 0.117502 -0.084455 -0.101821 0.070722 0.040760 0.059561 0.015746 0.075896 -0.078674 0.104068 0.050390 -0.011522 -0.032910 -0.007531 -0.094417 -0.020528 -0.220570 -0.077634 0.140189 -0.043305 -0.018812 -0.058078 -0.067983 0.107534 0.109559 0.156877 -0.007145 -0.060118 0.175935 -0.021888 -0.042870 0.139185 -0.041384 -0.190241 -0.028481 -0.196118 -0.024474 0.058135 0.060639 0.136318 0.157982 0.004243 -0.077239 -0.013407 -0.025908 0.041100 -0.021381 -0.007477 0.046066 -0.059769 0.172254 -0.068894 -0.031969 -0.072449 -0.101820 -0.029896 -0.172444 -0.037863 0.148147 -0.092508 0.131632
19 -0.119766 -0.216341 -0.005382 -0.017279 -0.018358 -0.078862 0.126905 -0.041329 0.040602 0.006292 -0.050024 0.111334 -0.034670 -0.164044 -0.005441 -0.154475 -0.086616 -0.170972 -0.104217 -0.027043 0.138338 0.096872 0.172385 0.039554 -0.045402 -0.038944 -0.066857 -0.023826 -0.008909 0.140153 -0.072831 0.105048 -0.068015 -0.021838 -0.141615 -0.159772 0.122117 0.100944 -0.149874 -0.177673 -0.280779 0.003345 0.077464 0.081482 -0.107212 0.152972 0.072556 -0.043932 -0.109619 0.021802 -0.111488 0.225173 -0.094376 0.030063 -0.104055 -0.115421 -0.125474 0.014007 -0.012060 0.039361 0.140019 -0.118631 -0.062060 0.124664 -0.046104 -0.175144 0.061073 0.108048 -0.079132 -0.090053 0.080191 0.042304 0.063719 0.017454 0.054308 -0.088414 0.107680 0.057248 -0.011826 -0.018390 -0.002513 -0.092336 -0.024540 -0.227764 -0.072919 0.148333 -0.046968 -0.017877 -0.073042 -0.069761 0.095509 0.107272 0.152713 -0.007102 -0.051435 0.171672 -0.035658 -0.017851 0.134654 -0.055438 -0.181972 -0.021903 -0.188532 -0.023243 0.071221 0.064375 0.131805 0.143974 0.004926 -0.081705 -0.015498 -0.038443 0.033208 -0.037719 0.005659 0.043409 -0.060534 0.161494 -0.067852 -0.018986 -0.073351 -0.112343 -0.039788 -0.166525 -0.027799 0.148072 -0.100234 0.106831
12 -0.099032 -0.227861 -0.029101 -0.020906 -0.045241 -0.096541 0.152097 -0.010789 0.091644 0.011373 -0.030705 0.149154 -0.008206 -0.161197 0.023318 -0.119805 -0.098700 -0.194429 -0.094826 -0.064287 0.132120 0.085810 0.148573 0.035613 -0.000110 -0.046425 -0.026099 -0.059076 0.012955 0.129145 -0.054902 0.095338 -0.087270 -0.008238 -0.096510 -0.150554 0.116639 0.065460 -0.159150 -0.189896 -0.237912 -0.033141 0.089430 0.106854 -0.151479 0.107033 0.097631 -0.014255 -0.012070 0.031540 -0.183900 0.221229 -0.081020 0.052254 -0.102796 -0.135030 -0.086706 0.024682 0.004297 -0.012657 0.170330 -0.094029 -0.060563 0.103515 -0.126030 -0.101008 0.051704 0.124076 -0.093925 -0.129177 0.015993 0.050755 0.032397 0.021863 0.133559 -0.037959 0.076259 0.040808 -0.010998 -0.103045 -0.051594 -0.081548 -0.007040 -0.177084 -0.103538 0.079986 -0.017691 -0.031294 -0.013679 -0.065385 0.163858 0.114886 0.187422 -0.010470 -0.098993 0.172835 0.022300 -0.133138 0.155582 0.029888 -0.215977 -0.057297 -0.237609 -0.022337 0.007597 0.050799 0.150855 0.205839 -0.009097 -0.069422 -0.010525 0.012400 0.084597 0.034972 -0.058627 0.051115 -0.030150 0.192934 -0.081415 -0.059764 -0.061140 -0.060163 0.019651 -0.174082 -0.101982 0.123590 -0.064227 0.187235
27 -0.110538 -0.213821 -0.014764 -0.016529 -0.020428 -0.077588 0.128447 -0.028041 0.043554 0.008054 -0.045910 0.106021 -0.029857 -0.154256 0.000446 -0.145994 -0.076971 -0.167635 -0.103758 -0.037802 0.136867 0.094266 0.167115 0.038458 -0.035670 -0.045949 -0.062649 -0.025166 -0.009304 0.137676 -0.067094 0.096154 -0.069296 -0.021890 -0.127470 -0.156152 0.116493 0.091089 -0.152445 -0.176527 -0.271007 -0.000819 0.075685 0.083691 -0.109929 0.145345 0.077235 -0.038319 -0.092276 0.026258 -0.116204 0.226416 -0.089907 0.036164 -0.104368 -0.120850 -0.118621 0.013837 -0.004856 0.034207 0.141734 -0.107260 -0.064668 0.117136 -0.052533 -0.160265 0.053735 0.111472 -0.078020 -0.092507 0.065809 0.046399 0.057462 0.013230 0.063629 -0.081790 0.099975 0.050373 -0.011978 -0.026644 -0.011160 -0.090254 -0.022479 -0.208940 -0.079071 0.136074 -0.040385 -0.023011 -0.068239 -0.063373 0.101742 0.098970 0.155244 -0.006562 -0.056882 0.168368 -0.024397 -0.038984 0.140281 -0.044605 -0.189376 -0.028427 -0.187934 -0.022696 0.063779 0.061820 0.136523 0.146473 0.001110 -0.074769 -0.010376 -0.030794 0.038696 -0.028237 -0.002128 0.039630 -0.058467 0.160525 -0.071560 -0.027949 -0.071655 -0.096155 -0.024437 -0.165681 -0.040344 0.145071 -0.089620 0.118638
15 -0.127411 -0.221230 -0.007962 -0.018000 -0.018544 -0.081042 0.133277 -0.041159 0.043761 0.004949 -0.044046 0.113044 -0.031571 -0.164524 -0.001023 -0.156432 -0.088834 -0.174791 -0.111040 -0.036018 0.143694 0.101793 0.174202 0.039279 -0.045945 -0.042951 -0.065576 -0.026838 -0.004996 0.141096 -0.075984 0.107108 -0.068256 -0.017560 -0.140842 -0.162984 0.126733 0.098802 -0.153481 -0.182345 -0.286626 0.000195 0.077838 0.086188 -0.112720 0.155347 0.070592 -0.040652 -0.106156 0.020606 -0.122805 0.235044 -0.093483 0.035049 -0.115245 -0.127746 -0.128269 0.010418 -0.013587 0.040405 0.153203 -0.116806 -0.067979 0.122317 -0.053479 -0.169328 0.060341 0.112784 -0.077735 -0.089730 0.078080 0.041591 0.065370 0.014240 0.062719 -0.084121 0.107748 0.055048 -0.011432 -0.027481 -0.005230 -0.093924 -0.023472 -0.232538 -0.078953 0.145600 -0.049575 -0.026501 -0.067744 -0.068869 0.105156 0.110547 0.160585 -0.011820 -0.058286 0.177106 -0.031049 -0.024405 0.142973 -0.043405 -0.191746 -0.028425 -0.200133 -0.019187 0.072237 0.062027 0.140944 0.153897 0.004473 -0.084810 -0.013811 -0.037222 0.038051 -0.034023 -0.004810 0.045953 -0.061319 0.171733 -0.071732 -0.024852 -0.070264 -0.112484 -0.031554 -0.167196 -0.035428 0.150900 -0.098253 0.121440
