321 12
8 0.62669635 -0.63645005 0.34027183 -0.4554654 0.35302228 -0.29295045 -0.22511277 -0.68033427 1.0576756 -0.5950895 -0.80764914 -0.39586645
11 -0.39637622 -1.7478923 -0.61224276 -0.48394704 -0.04692937 0.35041794 0.4011382 -0.9569447 0.6832199 -0.75903 -1.0511998 0.019647067
20 0.47900343 -1.1386082 -0.28964528 -0.51431745 0.2809646 -0.25893983 0.13409919 -0.7173365 0.44482926 -0.6308443 -0.9969343 -0.75998276
30 0.4031897 -0.6042639 0.5622648 0.20800127 0.33116043 -0.17683241 0.6238313 -1.3830585 0.810364 -0.8073728 -0.9821986 -0.35725343
63 0.24114661 -0.46785024 1.1265291 0.6749204 0.6532226 0.73148465 -0.30140564 -1.1171062 0.85068274 -0.57359385 -1.0669976 -0.704056
4 0.07136974 -1.1793121 0.21981308 -0.63614684 0.91591954 -0.779957 0.03968191 -1.4244667 -0.059508253 -0.78500956 0.420715 0.26898333
18 0.17839128 -0.8551007 0.4561818 -0.39861196 1.1443224 -1.0317149 -1.0205299 -1.865003 -0.45876423 0.15252195 -0.20590578 0.84555036
33 -0.42427543 -0.62542015 1.1783601 -0.02729634 0.45777476 -0.5097081 -1.9272144 -1.6104181 -0.6620336 -0.06569341 -0.5643293 0.41130087
28 0.90879655 -0.9182358 0.25918722 -0.7698874 -0.14198466 0.053380933 -0.6829255 -0.16717483 -0.1291185 -1.3008735 -1.1926861 -0.6217959
35 -0.3124648 -0.84490645 0.7466948 0.0008132266 0.24132058 -0.5346271 -1.3323314 -1.9745139 -0.1273982 0.34497645 -0.5050258 1.2172675
23 0.67985237 -0.79047716 -0.3193367 -0.50941926 -0.04051224 -0.49718484 -0.66991967 -0.69561684 0.71447724 -0.60648656 -1.0148637 -0.9606931
17 0.4714385 -1.0698655 0.317062 -0.17420931 0.55597883 -0.8673133 0.18742399 -1.0395339 0.8837092 -0.7193695 -0.55520576 0.5871207
100 0.03709971 -0.3634255 1.0591815 0.29671547 0.97719806 0.83964473 -0.7550774 -1.1455953 1.0898411 -0.37679192 -0.86015165 -0.847999
7 0.33564606 -0.99639994 0.19494304 -0.6297885 0.4156952 -0.49904454 0.43410456 -1.0402765 0.56658125 -0.8882448 -0.36194852 -0.1109491
99 0.5685203 -0.83150345 0.7598681 0.34984213 1.1496052 0.85460174 -0.489544 -0.761319 1.141117 -0.31433615 -0.85333216 -0.67473525
13 0.639884 -1.161769 -0.15220821 -0.689884 -0.0052142045 -0.30271852 -0.19026989 -0.42985982 0.29576322 -1.0855325 -1.2145559 -0.60552835
21 0.998785 -0.87181926 -0.27977672 -0.56006867 -0.30266276 -0.12154101 -0.62948906 -0.32175526 0.4157952 -0.9646016 -1.2977134 -0.6406538
15 0.5917463 -1.6307675 0.106430665 -1.3297856 -0.40071908 0.16303205 -0.7537456 -0.8653087 -0.2836392 -1.9648955 0.17723899 0.9060848
93 -0.31506062 -0.59539235 1.4339285 -0.074064575 0.6374567 -0.18655474 -2.1147726 -1.605532 -0.39440987 -0.09264914 -0.4616054 0.1259303
1677 -0.18977246 0.8105957 -0.42211863 0.5529733 -1.6790807 1.1830746 -1.2502459 -2.3865533 0.5969307 -3.1238167 -1.4016886 1.5374345
318 0.2619278 -0.023737125 0.58626467 0.27413243 1.5503976 2.7977595 -0.88852876 -1.861084 -0.0376124 -2.090421 -0.44455603 2.4117038
97 0.09391454 -0.49758276 1.1287886 -0.2536128 0.2890403 0.11679913 -0.975128 -0.83816814 0.83823156 -0.23824596 -1.2263478 -0.6986816
6 0.34813604 -1.2928859 -0.07350494 -0.45025524 0.36583525 -0.110639006 0.3400873 -0.7786469 0.9336225 -0.82806104 -0.51389736 -0.07766141
27 0.92623883 -1.2334418 -0.6474117 -0.32452548 0.11383866 -0.48015127 -0.7320974 0.03391147 0.13576339 -1.1252402 -1.494641 -0.42194507
59 -0.57558453 -1.9953144 -0.8177274 -0.46764928 0.06542382 0.7109578 0.27750206 -1.0391319 0.7135806 -0.7459865 -1.3588314 0.34822896
25 -0.5577432 -1.9618132 -0.6877853 -0.31992504 -0.17953683 0.8240651 0.4094842 -1.137826 0.83000904 -0.8322731 -1.4088529 0.40359774
56 -0.40639988 -0.8320135 1.3622177 0.31026247 0.38288516 -0.41568223 -1.8387071 -1.6686655 -0.4219605 0.09495921 -0.6893091 0.25404415
19 -0.1118461 -1.1291612 0.23932816 -0.7464391 1.1018848 -0.7625449 -0.057213385 -1.7320733 0.13263032 -1.1186678 0.6199149 0.057628658
14 0.77596605 -1.3367501 -0.378038 -1.1150868 -0.19775297 -0.08687159 -0.630738 -0.163532 0.04342821 -1.1357503 -1.196315 -0.2963407
37 0.13065141 -0.53936887 0.45049646 -0.35207805 -0.12019634 -0.25972888 -0.9673144 -0.9491654 1.23689 -0.46686187 -0.98111683 -1.0543059
22 0.32484737 -0.7558921 0.21437632 -0.42056614 -0.3495602 -0.6070681 -1.0582124 -0.81748575 1.3508663 -1.0596104 -1.0005426 -0.8197202
190 -1.7610155 -0.050971303 0.7488461 -1.1251861 1.0153964 1.4034246 -1.3571236 -1.8499917 0.36022583 -0.4978419 -1.0809824 -0.615216
53 -0.38040403 -0.68483734 0.33411077 0.16573402 0.21177588 -0.73597217 -1.1968696 -2.202715 -0.15768605 0.2981058 -0.603667 1.4589385
303 1.2936794 -0.63027567 -0.55638385 -0.6434253 -0.5644796 0.036976248 -0.97483945 -1.0995585 0.800325 -0.6422101 -0.6069188 -1.1192394
76 0.5178217 -0.95473397 -1.0966265 0.06744187 0.32048672 -0.69270134 -1.2878745 0.07084749 -0.25793386 -1.5541328 -1.3806034 -0.73309773
65 0.4020127 -0.6194367 0.9847568 0.94048834 0.8098082 0.9895205 -0.53022593 -1.027054 1.1787895 -0.6536463 -0.89338464 -0.58727366
9 0.4209556 -1.1526393 0.28562713 -0.33253077 0.15582746 -0.1623385 0.7588041 -1.1923698 0.5111014 -0.7772026 -0.7243953 0.3004673
111 0.563871 -1.2029855 -0.6595149 -0.1899307 0.44402465 -0.6911167 -0.23601325 -0.72528607 0.5193329 -0.7441185 -1.1053921 -1.2380621
82 0.5412029 -0.53572977 0.83133423 -0.81396955 0.024454875 0.433409 -0.6172243 -0.39926487 -0.21672611 -1.4741187 -1.7576737 -0.8391138
16 -0.040474508 -1.1118417 0.031142237 -0.61055577 1.016566 -0.9911748 0.027540777 -1.3685735 0.026987078 -1.2117256 0.38142738 -0.27377918
730 0.23937517 -0.894206 -0.3537862 -0.15255809 0.8208116 0.53968924 -1.3190421 -2.5536423 0.21929403 -1.5276309 -1.3007127 0.32704264
1627 1.3729072 -1.4679283 -2.9288714 1.4563824 1.476361 0.930973 -1.2819109 -1.784668 1.3536451 -0.601448 -0.77566004 1.722495
866 0.41746467 -1.0367538 -0.3887858 -0.13932396 0.8650437 0.4470339 -1.4091455 -2.41858 0.23139197 -1.6425748 -1.2715414 0.26263326
741 2.0500047 0.9131906 0.3942885 0.23900643 1.6403255 1.1459367 -0.4483787 -2.7025058 -2.3741438 -1.6574244 -1.6934752 0.45705572
1293 -1.6074561 -1.9226238 -0.6195973 1.830003 2.522651 1.2127554 -0.56898975 -1.8138293 -1.3769921 -1.3023677 -1.1732785 0.33925575
1438 0.41285294 -0.59103376 -0.48833135 0.071331576 1.4312185 0.7416301 -0.91626364 -2.7494948 -0.2230274 -0.9811432 -1.0959392 0.23337558
72 0.5321604 -1.8904958 0.09724606 -1.0630355 -0.43835628 0.61323476 -1.3103799 -0.9789724 -0.26711658 -2.3737798 0.56024015 1.2692268
324 -0.084061086 0.62863225 -1.3407705 -0.6445909 1.813831 1.9058897 -0.52601975 -3.7415133 0.6080468 0.21678941 -0.49991703 1.1420283
34 -0.10354954 -0.6523438 -0.031931996 -0.14633209 1.0877329 -1.1475235 -1.0412112 -2.1884935 -0.5722916 0.18550594 -0.3026107 1.1459407
48 0.5937428 -0.17124146 0.13639212 0.6275537 -0.14523393 -0.22596064 0.9583926 -2.0547614 0.5861175 -1.2932099 -1.0558906 -0.2946667
105 0.42229688 -1.9177513 -0.033317767 -1.0185344 -0.3824806 0.6156107 -1.2736673 -0.9370591 -0.12477142 -2.1853213 0.51316017 1.2302022
98 0.56553656 -0.42977443 0.6448906 0.62592363 0.7196832 0.35354146 0.031086048 -1.1264693 1.1510764 -0.46290064 -1.132478 -0.66007286
54 -0.29669186 -1.0373753 0.49102765 0.39394236 0.076715894 -0.8311773 -0.9313099 -2.1185777 -0.005170041 0.10373616 -0.7090135 1.4395716
75 -0.09635722 -1.2756866 0.24745351 -0.63633364 1.1243075 -0.81280565 -0.08552136 -1.7695578 0.09063686 -1.0458851 0.72786796 0.0157686
71 0.68096167 -1.3115304 -0.116177164 -1.9356729 -0.131958 0.33910102 -1.1194751 -0.46756536 -0.41918942 -2.0022109 -0.48445797 0.64683086
88 -0.56870896 -1.921229 -0.69697255 -0.53944606 0.060240995 0.73527426 0.45042145 -1.0967863 0.720293 -0.6910156 -1.2613413 0.4832593
78 0.8960887 -1.0932032 -0.63122696 -0.35019353 0.3647658 -0.6764123 -0.19248295 -0.66745377 0.54307795 -0.6942634 -1.1869494 -0.9442113
31 0.52073956 -1.455529 0.5245596 0.0038245467 0.67312217 -0.8290066 0.1658688 -1.1371775 0.5399047 -0.45150763 -0.73460025 1.1052089
112 0.8251912 -0.84737843 -0.6166888 -0.3370757 0.7202341 -0.4340393 -0.18248339 -0.751086 0.7169389 -0.31947488 -1.4488477 -0.9985364
5 0.5507903 -1.268506 0.4114245 -0.7754818 0.35380775 -0.112749696 0.4145846 -0.9179788 0.58739805 -0.99555117 -0.3489126 -0.056989234
24 0.5951706 -0.067079335 -0.09635428 -0.9919406 0.8448985 -0.35295093 -0.3230641 -0.82264215 1.7814789 -1.123262 -1.2886952 0.090838425
42 0.49060407 0.024960808 -0.113595255 -0.939221 0.88225055 -0.36879334 -0.40024456 -0.8404822 1.846875 -1.0432665 -1.4339193 0.09933615
109 -0.1557759 -1.4321208 0.33598873 -0.61211157 1.0900478 -0.7511423 0.027009489 -1.775353 0.085368894 -0.9407379 0.5744008 -0.020212384
73 0.05261924 -0.93909395 -0.102959864 -0.7845033 1.3277564 -0.8032332 0.15795948 -1.520553 -0.043759346 -1.2365596 0.6446678 0.17465633
45 -0.5622977 -1.8748417 -0.9338824 -0.6379542 -0.06394772 0.82227755 0.28141722 -1.1410142 0.8989586 -0.6313198 -1.3430525 0.31113517
49 0.4168456 -0.34980854 0.2582709 0.4862845 -0.07581812 -0.21953681 1.0041535 -1.9562385 0.7102394 -1.2213335 -1.0935793 -0.0663667
94 -0.43458763 -0.9829531 1.313655 0.0923416 0.54885924 -0.48316884 -2.4354594 -1.6275626 -0.70025027 -0.15443806 -0.5064892 0.29268858
40 0.46030414 0.0052345293 -0.10450167 -0.8723184 1.0084894 -0.25993118 -0.29738146 -0.7506191 1.7271081 -1.1825645 -1.2192189 0.14348975
151 -1.1729902 -0.18890649 1.3008789 -0.15020224 0.44990847 0.126768 -1.8405654 -1.7990112 -0.6448083 -0.36734274 -0.6997237 0.21594141
2 0.23950352 -1.5469078 -0.3177077 -1.0201621 -0.2987839 -0.18296288 -0.11010482 -0.5277177 0.12963833 -1.2689955 -0.66725963 -0.27946168
39 0.238386 -0.7224881 0.52001303 -0.2759771 -0.33157438 -0.68197715 -1.4249735 -1.0942955 1.4201158 -1.0466975 -1.0011348 -1.058781
1631 -1.7047065 0.6032437 -1.3599194 1.1058009 1.3354883 0.10857196 -1.7552146 -2.2990603 1.5235077 -2.4457445 0.06377068 0.0459501
69 0.511723 -2.0095935 -0.042602476 -1.0455308 -0.5147576 0.49924052 -1.2453455 -0.9330288 -0.15339506 -2.2137332 0.5010792 1.1175054
87 0.3371235 -0.6763185 0.30160564 -0.25919172 -0.4712855 -0.52559423 -1.3980912 -1.144267 1.542199 -1.0627526 -0.66827476 -0.94521475
95 -0.2870653 -0.91814864 1.4094359 0.03174282 0.586837 -0.5724757 -2.1537912 -1.5232414 -0.5860832 -0.17219265 -0.5961656 0.22439928
669 -0.16798398 -0.58331746 0.7137426 0.9255645 0.93904597 1.0997299 -0.49155375 -1.2073994 1.079256 -0.45857733 -0.98510736 -1.0060617
386 0.7367737 -0.8381394 -0.17407565 0.16155788 0.25957757 -0.24547242 -0.83183426 -0.11110869 -0.6091742 -1.6906333 -1.1168835 -1.0859301
102 0.6970891 -1.186656 -0.1324004 -2.2036977 -0.08479115 0.26925176 -1.240074 -0.5198456 -0.43289348 -1.9150534 -0.600757 0.604654
590 0.11533403 -0.78862786 -0.52166736 0.0830873 0.7742273 0.5982067 -1.2618895 -2.1467214 0.09436097 -1.5566154 -1.00221 0.29327065
588 0.07183049 -0.85288197 -0.51403344 0.095902525 0.7798418 0.57027495 -1.2188758 -2.1912184 0.10228982 -1.6540766 -0.9954403 0.33734155
117 -0.26442844 -0.47491217 1.1967552 -0.41321465 0.96557856 0.8064726 -0.97936016 -1.3609669 0.8567883 0.07618418 -0.82786113 -0.85037833
46 -0.5825345 -1.9549712 -0.8766278 -0.5753345 -0.056343213 0.6163196 0.24905525 -1.129641 0.84856844 -0.72681683 -1.1778721 0.4099893
103 0.6584376 -1.2120762 -0.05254612 -1.4730626 -0.19709484 0.12422026 -0.9736705 -0.1695619 -0.372235 -1.7659479 -0.7600696 0.11602948
1632 -1.7718579 0.52039963 -1.3713671 1.1163653 1.3120695 0.09672052 -1.7254288 -2.3421786 1.4473394 -2.5212605 0.01559569 0.0018903682
55 -0.22642724 -0.96046984 0.35928836 0.16728504 -0.07359111 -0.6658327 -1.4995064 -2.2070181 -0.027608305 0.3240957 -0.6297013 1.6147704
586 1.6487305 -0.74031115 -2.1280992 -0.6682445 1.4272398 0.039149396 -0.0010376979 -2.058585 -0.30447167 0.104035504 -2.0813384 -0.6902302
152 0.23458333 -0.94211173 0.13178562 -0.5621696 0.7174165 -1.2137539 -1.2673383 -2.2109613 -0.50453293 0.3926066 -0.3959875 1.0294678
180 -0.25843677 -1.3129784 0.32021472 -0.6271616 1.0568413 -0.7489227 0.014051119 -1.8091623 0.06967287 -1.10257 0.71091586 0.08637982
176 0.8073807 -1.2648201 0.30195242 -0.19307499 0.8854623 0.5769384 -0.020845242 -0.6093465 1.3388752 -0.8294488 -0.3779564 -0.55126274
115 0.60680485 -0.36756745 -0.11505403 -0.34459826 -0.49894118 -0.3435228 -0.95370555 -1.1627516 1.4171778 -0.7393486 -0.5234172 -0.7377253
89 0.7061767 -0.5422567 0.5058659 0.35261622 -0.014669881 -0.12278455 0.97888386 -1.8020627 0.5897425 -1.1912787 -1.2596433 -0.10045902
44 0.47904772 0.10982209 -0.20572317 -1.0360643 0.8999989 -0.34598783 -0.53410983 -0.87795115 1.9840369 -1.3500043 -1.319152 0.12201765
57 -0.6423285 -2.0377927 -0.660317 -0.51487136 -0.07310402 0.60963106 0.18640599 -0.956103 0.6861655 -0.79517287 -1.2232616 0.4928227
47 -0.6245056 -2.029958 -0.5985264 -0.518267 -0.036487494 0.726902 0.34180927 -0.99882793 0.69542587 -0.861989 -1.0972437 0.37023947
587 1.727393 -0.53564894 -2.1631231 -0.5518849 1.4956552 0.06440027 -0.12745067 -2.0790815 -0.4120292 0.11918141 -2.1737356 -0.7481184
41 0.53930384 0.116349556 -0.17209594 -1.0277166 1.0485309 -0.21757482 -0.63539857 -0.7094933 2.0128837 -1.2422639 -1.405121 0.4037479
58 -0.5889039 -1.9492694 -0.7871523 -0.41042012 -0.04887339 0.8222185 0.27708435 -0.87190855 0.84627575 -0.85923016 -1.3750685 0.2735532
81 0.64537656 -0.7912262 0.1648276 -0.47226655 0.10715221 0.01791095 -0.6667271 -0.37749004 -0.6827123 -1.8686614 -1.3852127 -1.338785
101 0.17932594 -0.6601427 0.9510185 0.69583225 0.83339465 1.0603782 -0.6184158 -1.0756347 1.0714598 -0.49025917 -0.9187669 -0.8591743
43 0.4539087 0.024157492 -0.21111692 -1.0528508 1.0816905 -0.37916973 -0.5482023 -0.7903262 1.9150182 -1.0891275 -1.4701315 0.22498646
517 -0.6362149 0.28402308 1.3906338 -0.24717069 0.44703513 -0.37320265 -1.9101571 -1.9489588 -0.6946216 -0.5752038 -0.78455806 0.41260573
50 0.42447 -0.7432076 0.4527416 0.1649981 -0.13075884 -0.085695475 1.007376 -1.7569357 0.58283144 -0.88900775 -1.3152868 0.08082886
66 0.5142355 -0.32662627 0.90498006 1.0753021 0.6963851 0.9615026 -0.46967882 -1.165881 1.3574904 -0.74777055 -1.0850054 -0.44413236
3 0.3369953 -0.31502697 0.9627902 0.9714659 0.79656154 0.7014425 -0.36146364 -1.0520074 1.3313516 -0.7728925 -1.1272082 -0.36092776
516 -0.10908822 0.71547925 -1.3721828 -0.57717395 1.8781779 1.7996054 -0.53798753 -3.6762667 0.6509628 0.24552208 -0.5056599 1.0647194
513 -0.0859734 0.72775 -1.2745366 -0.6640475 1.8842978 1.8886222 -0.51796305 -3.7519913 0.56838036 0.24078937 -0.58830756 1.0618197
86 0.4703131 -0.7569567 0.39278862 -0.23627064 -0.46483827 -0.8233582 -1.5174803 -1.0248417 1.3513404 -1.3587636 -0.91505355 -0.91488403
107 0.48415062 -1.8550496 0.20684983 -1.1105917 -0.6035512 0.48155487 -1.1802841 -0.9556951 0.020502185 -2.221376 0.39866802 1.2390554
366 0.33515882 -0.41240954 0.8724069 0.581601 1.1369501 0.5854357 -0.41451323 -0.99885225 1.0228645 -0.56893665 -1.0806257 -0.8761824
38 0.49726477 -0.79795784 0.48536542 -0.05111124 -0.58835626 -0.7257611 -1.6367487 -0.9432995 1.5725942 -1.583765 -1.0189553 -0.79887635
32 -0.332897 -0.52774763 -0.14973715 -0.3175531 1.3244427 -1.4254609 -0.9419599 -2.2404182 -0.6268868 0.18303746 -0.5383672 1.0754167
253 0.3457808 -1.0502372 -0.4845454 -0.13527685 0.93765527 0.4944374 -1.2263991 -2.507676 0.28860876 -1.4732535 -1.2855103 0.33080098
114 0.39169937 -0.51397645 -0.1661935 -0.008924011 -0.8137237 -0.45304137 -1.3130709 -1.3958845 1.9489855 -1.3107853 -0.7858488 -0.71156275
70 0.75804234 -1.3022945 -0.10938094 -1.8035522 -0.19020025 0.069231525 -1.2049963 -0.4892491 -0.4222309 -1.8996851 -0.30874494 0.62170935
515 -0.05732613 0.60125643 -1.343677 -0.629116 1.8299212 1.8497621 -0.5606596 -3.6228766 0.6422419 0.21425909 -0.4771569 1.0612392
1 0.29751697 -1.5070144 0.10302826 -1.1866874 0.0046973564 -0.2421754 0.1186586 -0.94561183 -0.061757248 -1.2697672 0.05645409 0.32724112
77 1.4483124 -1.0961559 -0.2309005 -0.46070912 -0.099905506 -0.17884015 -0.92977023 0.01961019 -0.01210022 -1.1650747 -1.548838 -0.2619143
1267 0.20085803 -0.3482768 -2.442116 -1.1344407 0.97343606 0.91965646 -3.550155 -1.8289576 -0.85531443 0.025732707 -0.44304886 0.47374073
656 0.12133599 -0.30797648 -2.4556484 -1.1528177 0.952408 0.9000032 -3.480559 -1.8863341 -0.87759566 0.031038197 -0.41110334 0.41427904
401 -0.40568167 0.42759967 -0.6934079 1.2972897 0.8126743 2.0714235 -0.8251401 -2.441906 -1.2191939 -0.3758545 -3.2106807 0.8632342
1871 0.91539747 0.88817173 -0.68421626 1.4880731 0.97643155 1.2851624 -2.543425 -2.848681 -1.0394716 -1.6465989 0.4505207 -1.4308975
1295 1.8765419 0.2603946 -2.3779447 -0.76051533 0.95925325 1.4448488 -0.6029714 -1.4548105 -0.5761079 -2.3166232 -1.659229 2.1272752
375 -0.42228925 0.41543272 -0.6989849 1.356778 0.8576654 2.091641 -0.8497616 -2.5224583 -1.1883719 -0.37227184 -3.1580188 0.85489583
2149 1.47838 -0.9717216 -1.6883988 0.16576228 -1.6916248 1.0382882 -1.5954405 -2.7103765 -1.8373792 -0.6979505 -1.3553491 1.2737771
593 0.799243 -2.1715071 -1.8164873 -0.31637666 2.5655274 1.974352 -1.3485857 -1.6364777 -1.749491 -0.87384605 0.08717908 -1.042574
524 0.35401744 -0.83875877 -1.4746709 1.3279343 2.099616 0.96218365 -2.4335148 -0.64074755 -0.9921771 -2.9081116 0.20671882 1.4124844
911 0.4597809 -0.704854 -0.508291 0.0055552544 0.84441984 0.38326827 -1.3091946 -2.09858 -0.082413465 -1.5893971 -1.1709888 0.26585615
786 0.44887745 -0.75178945 -0.20472682 -0.15648682 1.1347307 0.7057315 -1.0406108 -2.3079185 -0.12813988 -1.6034415 -1.0622548 0.36522764
246 0.6331781 0.27897206 -2.8847468 0.7913098 0.27226597 -1.1857258 -1.4224867 -2.8796928 -0.995148 -2.377729 -0.036931064 0.99056923
604 0.305687 -0.11214958 0.19872393 0.56519085 -0.551609 2.8247514 -3.4432588 -1.5401405 -1.5495815 -2.2230358 -0.8577476 0.5528071
457 0.40831754 -1.0643404 -0.3563113 -0.22036083 0.8051631 0.57282484 -1.4145306 -2.383092 0.013865741 -1.675533 -1.2137138 0.23677997
1630 -0.7255197 -1.6590962 -1.6099001 -0.16066323 0.64622504 3.4277055 -2.0700006 -1.5870574 0.57012796 -1.6853343 0.5620164 -0.2136089
856 0.5565358 -0.70430416 -0.24456379 -0.19441676 0.78030676 0.6027516 -1.1807113 -2.44025 0.052958705 -1.1992694 -1.1942277 0.2448843
1639 0.5362327 -1.2904023 -0.42270467 -0.12572509 0.89889807 0.40985715 -1.3919835 -2.554511 0.4007418 -1.7776455 -1.4124548 0.3445499
1880 0.32852188 -1.0195078 -0.30143607 -0.11362988 0.84105664 0.47221908 -1.3638873 -2.3960204 0.107341535 -1.7325628 -1.2606934 0.3634757
522 0.40519872 -0.8089973 -1.5177222 1.3867754 2.0597947 1.0051447 -2.4776602 -0.6124218 -1.0291172 -2.893573 0.22569966 1.4262466
1608 0.55960333 -1.3055332 -0.44139874 -0.12837559 0.92648417 0.40569127 -1.390205 -2.5630345 0.4150649 -1.785752 -1.4245062 0.33721527
564 0.7798943 -2.0765543 -1.8701042 -0.29378328 2.5628316 1.9544623 -1.3793948 -1.6315156 -1.6919794 -0.8799816 0.1556501 -1.073532
528 -0.018657664 -0.5182738 -0.62735105 -0.09141205 1.2955137 0.78944147 -0.8385248 -2.126109 -0.18268047 -1.237534 -1.4680332 0.44553205
229 0.48768854 -1.2501392 -0.4044363 0.2117156 0.87740767 0.30138353 -1.5677935 -2.4722087 0.038429134 -1.3717544 -1.1418644 0.2504097
227 0.49529377 -1.2273952 -0.44568914 0.20002651 0.93226135 0.32470354 -1.515334 -2.4832056 0.068286285 -1.320475 -1.1632335 0.30684945
1622 -0.18580374 -0.6604585 -1.9706042 1.6875257 2.2980375 0.78508914 -1.8284887 -3.5054646 0.43663114 0.8765896 -0.9503599 -1.3676441
1481 0.45058182 -1.0497339 -0.30988958 -0.19434749 0.78735304 0.51060957 -1.4573406 -2.4014418 -0.06531455 -1.6309783 -1.2609514 0.22399247
2100 0.59322834 -1.2709152 -0.38535523 -0.20363416 0.96775 0.50299835 -1.5486492 -2.892659 0.19499168 -2.0040777 -1.7061554 0.05222367
526 -0.06470053 -0.5178177 -0.5924549 -0.09675365 1.2537438 0.77118856 -0.82730126 -2.15659 -0.22163643 -1.2265131 -1.4398669 0.41813573
606 0.25103173 -0.1403594 0.22775167 0.5786693 -0.5295586 2.8187284 -3.434989 -1.5057576 -1.4280562 -2.161657 -0.84119225 0.5204737
748 0.4760149 -0.7143463 -0.47342953 0.010114261 0.7965577 0.44009855 -1.2708071 -2.1490145 -0.100725524 -1.5490074 -1.138377 0.25345114
1898 0.9121047 0.7877577 -0.72481537 1.4572452 0.91565347 1.3192831 -2.4735508 -2.8484635 -1.0495187 -1.6985565 0.39836746 -1.4504141
234 0.6364506 0.2774369 -2.8371987 0.8598304 0.24047764 -1.2412589 -1.4564681 -2.8020475 -1.0125684 -2.4065921 -0.012595492 0.9877464
2136 -1.7681481 -0.303326 -2.2497349 -0.82942 0.9319602 1.0311031 -0.7399406 -2.35301 -1.3356444 -2.0117495 -0.74798256 2.0731902
2134 -1.7195412 -0.33693132 -2.2124023 -0.8023684 1.0315697 1.0923953 -0.702466 -2.302503 -1.3570777 -1.9898033 -0.8064828 2.1432786
2502 -0.7418987 -1.6340566 -1.6511439 -0.2396482 0.715225 3.415771 -2.0166063 -1.5606942 0.5335192 -1.6972162 0.5134504 -0.20593485
1294 1.9189292 0.37205297 -2.3228965 -0.7834998 0.9012705 1.416369 -0.57860816 -1.3926673 -0.54917836 -2.2456107 -1.6672645 2.1331806
205 0.60423845 -0.7157719 -0.26245567 -0.13392535 0.7511682 0.5311099 -1.2227678 -2.4373612 0.03908535 -1.194138 -1.1854135 0.24982321
239 0.015069251 -1.7546055 -1.5550388 2.481355 -0.06908546 0.98780817 -1.9277714 -2.9648666 -0.7690963 -0.80644464 0.65696114 0.33916163
485 -0.045332633 -1.7772415 -1.5450414 2.4475439 -0.12854853 1.0147791 -1.8986641 -2.9487038 -0.67353445 -0.82359993 0.6569226 0.42475635
1884 0.54171383 -1.2446369 -0.3711001 -0.17545679 0.9346433 0.43518966 -1.4443362 -2.797409 0.15693873 -1.9732983 -1.6513442 0.044512082
1881 0.371809 -1.0366831 -0.2655062 -0.092850834 0.81428766 0.49385408 -1.3651326 -2.4112358 0.17508778 -1.7358097 -1.2752224 0.3673313
1285 0.43123907 -1.1561462 -0.33325574 -0.16281193 0.743341 0.603683 -1.3621002 -2.5232124 0.31929886 -1.6579039 -1.3176553 0.2975855
1286 0.4591587 -1.1082127 -0.35116696 -0.2094548 0.7793419 0.61717147 -1.38639 -2.5091941 0.2934091 -1.681772 -1.2687 0.28673372
1047 1.3497341 0.7204674 -2.4728491 0.9697743 -0.17208993 2.4223726 -2.398027 -1.7735907 0.73059064 -1.4526292 -1.3924067 0.045277726
1282 0.32627758 -1.2369643 -0.34944504 -0.20849007 0.87372184 0.49258453 -1.4231542 -2.4990249 0.24237671 -1.7896667 -1.3030072 0.1926062
1049 1.2395039 0.69919133 -2.4813972 0.9194364 -0.16850227 2.421282 -2.3691893 -1.735576 0.7133289 -1.457678 -1.4325149 0.024887616
1619 -0.16885385 -0.67215425 -1.9223417 1.6427637 2.393675 0.77109134 -1.8468237 -3.515191 0.3361659 0.8669944 -1.0333765 -1.3736103
943 0.30540362 -1.202052 -0.39378533 -0.2062207 0.8569911 0.48838165 -1.3773198 -2.4412732 0.22431983 -1.8004332 -1.3302982 0.20600128
1767 0.41924956 -0.7885717 -0.23981284 -0.07898962 1.1649588 0.68971026 -1.0532782 -2.2736962 -0.09568283 -1.5967122 -1.0342642 0.39422733
1966 1.4337293 -1.0415533 -1.7561066 0.18136103 -1.5929124 0.96851206 -1.5501202 -2.6711872 -1.8361083 -0.73502797 -1.3247882 1.2741547
251 0.27010405 -1.080843 -0.50799304 -0.22004215 0.95139766 0.4947751 -1.1975425 -2.5318303 0.34921342 -1.3918842 -1.2566361 0.31287697
252 0.34752226 -1.035946 -0.44526157 -0.1498384 0.9119108 0.49360347 -1.2517762 -2.415146 0.28452548 -1.4358248 -1.2255851 0.35220045
122 0.55786014 -1.9947082 0.09744137 -0.84919 -0.4517629 0.45225576 -1.4226136 -1.0100771 -0.07227881 -2.5116215 0.63623124 1.2659693
116 -0.18411727 -0.53018606 1.3003801 -0.00032952105 0.23292881 -0.30954716 -1.4255764 -1.2141877 -0.0064520636 0.057338256 -0.8559041 -0.19330537
96 -0.21375293 -0.93303967 1.3101603 0.28227776 0.6263351 -0.5463132 -2.0692685 -1.558835 -0.7122578 -0.0591928 -0.58252895 0.2126402
80 0.3013211 -0.47689614 0.9723859 -0.8082262 0.20597285 0.15235811 -0.70786875 -0.26720163 0.22498144 -0.86386615 -1.3806599 -0.5319367
79 0.58668447 -0.77950203 0.21517679 -0.7351338 -0.121662036 0.18157719 -0.50055003 -0.20923276 -0.34526768 -1.5279626 -1.4624891 -0.8863571
455 0.69851434 -0.8841962 0.023379581 -0.6557493 -0.28895223 -0.36588883 -0.86449814 -0.41680273 0.5119072 -1.1684325 -1.1805837 -0.8010222
541 0.9867846 -1.5242306 -0.4008993 0.7581944 -0.17536202 0.13064118 -0.9468781 -0.49682018 -1.3482091 -1.917186 -0.93772113 -1.0233752
294 0.6943006 -0.37797105 0.6184064 0.38741332 0.22532766 -0.13705128 0.9216801 -1.7827836 0.64626765 -1.3147492 -1.2658056 -0.33620507
110 0.029190239 -1.3052127 0.5066013 -0.5315815 1.0501257 -0.8114025 -0.062227562 -1.7080251 -0.050961904 -1.2590623 0.6689713 0.050187297
169 0.6221972 -1.4859467 0.36455104 0.55381066 0.7621416 -1.0925001 -0.019324884 -1.1178652 0.95750624 -0.7333417 -0.5821169 1.0040492
106 0.53894544 -1.9115406 0.054894365 -0.95465326 -0.51382285 0.51059985 -1.3478174 -0.99924356 -0.053908966 -2.2874575 0.6027901 1.2312932
1687 -0.060071904 -0.8496964 -1.4216957 -0.018791875 0.57188845 -1.0328733 -1.4571006 -0.09318468 -0.7376368 -1.6927584 -1.8685925 -0.5030716
391 1.6266538 -0.5821283 -0.7541527 -0.87241614 -0.7132785 0.34922707 -1.2314448 -1.5107425 1.00679 -0.74173087 -0.42648685 -1.2047448
62 -0.25326687 -0.8861675 0.5178794 0.42281777 0.09812889 -0.69893694 -1.0673816 -2.240237 -0.17551789 0.1939483 -0.6257246 1.3980775
182 0.5741695 -0.90229785 -0.42793885 -0.54752064 0.59672385 -0.5043744 -0.18430412 -0.6554185 0.8407289 -0.56357056 -1.0640674 -0.87933487
36 0.48541462 -0.9978243 0.41587692 -0.92703676 0.98969525 -1.3590711 -1.1509362 -2.1380036 -0.71835333 0.090766005 -0.37868515 0.84969044
689 -0.49704748 0.8381934 1.1936747 -0.22772346 0.30261636 -0.37055174 -2.5701647 -1.8981389 -0.992321 -1.2219847 -1.2747986 0.70676726
156 0.14800061 -0.4104614 0.53391886 0.6645014 0.01415617 0.0071682627 1.0572488 -1.9959716 0.5016402 -1.2080134 -0.9683957 -0.20434177
158 0.4973005 0.04973996 -0.48227936 0.70992166 -0.10670552 -0.37204045 0.96385944 -2.5952713 0.9903972 -1.2098753 -1.0976659 0.094072476
74 -0.08724874 -0.98269475 0.05857677 -0.6801522 1.1741117 -0.7761516 0.12997578 -1.4275521 0.031209009 -1.075522 0.40984976 -0.022571718
64 0.38829863 -0.31596595 0.97269726 0.91083515 0.6922303 0.7257435 -0.335148 -1.1116714 1.3689352 -0.78452045 -1.216079 -0.431466
308 0.2816286 -0.44861245 1.106445 0.434884 0.92543864 0.73814195 -0.50507766 -1.250029 1.0766323 -0.47261366 -0.924189 -0.86750656
602 1.7705078 -0.5518421 -2.2088008 -0.520782 1.3673408 0.16320716 -0.05042368 -2.1635263 -0.40971363 0.18211707 -2.0533304 -0.63258153
600 1.7462627 -0.4449216 -2.1461527 -0.5277621 1.4761573 0.16003314 -0.13322149 -2.184711 -0.42045602 0.17978907 -2.1590307 -0.68389213
538 1.6225992 -0.6837007 -1.5840468 -0.55906343 1.4937861 -0.0050485926 -0.033424884 -1.6455578 0.16560389 0.0998327 -1.9242811 -0.8494098
67 0.2556851 -0.36339638 0.72532475 0.6844743 0.6193277 0.40011692 0.073008694 -1.1161245 1.0867455 -0.6589703 -1.0773649 -0.47363332
1015 -1.8975688 -0.52336866 1.1217628 -0.57035166 0.49097762 0.8168654 -1.7818283 -1.9477696 -0.69286 -0.40714282 -0.84840965 0.010075613
589 0.09903376 -0.7589919 -0.5130088 0.046279397 0.75678515 0.576861 -1.1966968 -2.1541803 0.10542141 -1.5183822 -1.046198 0.33011
1634 -1.6113577 0.5958556 -1.3779458 1.0786368 1.3293021 0.10284593 -1.6928263 -2.328491 1.4614099 -2.4234257 0.072577864 0.003762152
591 0.06780243 -0.7673522 -0.55235845 0.055110656 0.74267954 0.573245 -1.1877364 -2.1654925 0.11185471 -1.5906695 -0.9794532 0.31476533
1580 0.42638522 -0.5796822 -0.46169353 0.05760237 1.2972031 0.74173146 -0.94238174 -2.6529686 -0.1336071 -1.0128664 -1.0075349 0.24622543
867 0.34598833 -0.99347365 -0.4012856 -0.11217215 0.7800039 0.45887017 -1.3635217 -2.313509 0.22835271 -1.617755 -1.1832588 0.2150431
518 -0.8067055 -0.074443065 1.6376399 -0.08279947 0.5189127 -0.19154401 -1.8667208 -1.8718138 -0.5182923 -0.52813774 -0.65314263 0.32083818
1640 1.3489592 -1.4128422 -2.8733845 1.4926134 1.4803652 0.928395 -1.1662987 -1.7559602 1.3319197 -0.56783575 -0.69443876 1.6551135
1606 -1.5302126 -1.833823 -0.6383281 1.7675914 2.3270009 1.206394 -0.56024927 -1.7729836 -1.3273169 -1.2254634 -1.1081388 0.27917194
470 -0.07930623 -0.3986731 1.6032742 -0.44788685 0.9537139 0.3011918 -2.3340623 -1.6770386 0.50833684 0.15946159 -0.15333125 -0.38888118
909 1.9967346 0.93215114 0.41083625 0.31880283 1.4814787 1.0956608 -0.47958955 -2.5983717 -2.2834206 -1.5759059 -1.5954968 0.4222
1629 -1.8792276 -0.043976955 0.45939398 -1.2065655 1.185613 1.7976855 -1.280763 -1.9956857 0.11805886 -0.78660685 -0.9188413 -0.64013404
1633 -1.6326609 0.6150416 -1.3921512 1.1240803 1.3558135 0.05663407 -1.6894441 -2.2742035 1.4955695 -2.4334662 0.107444555 -0.019551124
1312 0.24178092 -0.87133867 -0.33293495 -0.12090406 0.817389 0.50221556 -1.2746912 -2.4521704 0.21789992 -1.4879044 -1.2797446 0.28709534
84 0.22851989 -1.1036836 0.570812 0.0844691 0.67803544 -1.122729 -0.34402132 -1.5407013 -0.067794405 -0.11238934 -0.858583 1.2703474
353 0.6980315 -0.90029323 -0.5962874 0.28536415 0.51652896 -0.7278802 -0.7364979 -0.26195654 -0.30484325 -1.4369534 -1.0920105 -1.3022964
85 0.5802836 -1.4108722 0.19334649 0.19177477 0.7971532 -1.1314423 0.06465554 -1.1751591 0.72933364 -0.75857323 -0.4789362 0.87716454
410 0.2820489 -0.96802646 -0.31176385 -0.0899988 0.79693025 0.5008262 -1.3400611 -2.3835049 0.22023755 -1.5115757 -1.2474194 0.28436035
51 -0.1487083 -0.6086366 0.093254566 -0.2417532 1.3487325 -1.3644118 -1.0736284 -2.1841185 -0.60631573 0.121675834 -0.4082072 1.0041267
415 2.0516117 0.9283158 0.4518868 0.20645453 1.4240518 1.1095148 -0.45678005 -2.5895 -2.2806895 -1.5801283 -1.5926301 0.45636022
179 0.6161737 -1.0165906 -0.24477053 -2.295538 -0.104469724 0.22019325 -1.4086955 -0.5232478 -0.4088224 -1.8575174 -0.6499781 0.86858165
60 -0.35050616 -0.97934973 0.40211868 0.43424073 0.16267866 -0.5770431 -1.1146953 -2.2580986 -0.18801267 0.26147547 -0.7008959 1.6805257
1290 -1.5124446 -1.8238091 -0.66009814 1.7663423 2.3477874 1.1191965 -0.51741576 -1.794803 -1.3795183 -1.1744815 -1.0789282 0.26210603
1641 1.255919 -1.3048645 -2.7672076 1.4502839 1.4835296 0.8738269 -1.1263752 -1.715081 1.2835878 -0.6004308 -0.65879697 1.6146251
104 0.66940033 -1.0120932 -0.3234247 -2.3856487 -0.077100284 0.1660495 -1.3551672 -0.58918864 -0.46354058 -1.9506432 -0.6649963 0.7583469
868 0.36644453 -0.90083903 -0.3799636 -0.059514046 0.7372946 0.44180375 -1.3436589 -2.1923485 0.1281695 -1.5510918 -1.1133964 0.2632459
1581 0.345478 -0.52916133 -0.41479558 0.04324009 1.2205242 0.72679263 -0.9395672 -2.509266 -0.14606391 -1.0224777 -1.0137153 0.23928696
208 0.450625 -0.9327306 0.42451844 -0.8339816 1.0698721 -1.4282317 -1.0852567 -2.1479118 -0.7916917 -0.0742174 -0.33123383 0.7122026
370 0.26011232 -0.017618092 0.52698475 0.32065636 1.4419 2.7079678 -0.89018464 -1.7398311 -0.12317534 -1.9180479 -0.39382312 2.3090954
92 0.10137229 -0.97537374 0.546158 0.17910792 -0.22606939 -0.5073171 -1.6765141 -2.194091 -0.007834723 0.5049777 -0.767379 1.5265896
480 1.122197 -1.2948537 -0.0038913898 -0.25058648 0.8128091 0.19802389 -0.009919308 -0.8054668 1.7486303 -1.3982848 -0.1792363 -0.5473975
153 0.52380586 -0.8860923 0.548841 -0.804848 1.0570271 -1.3142283 -1.1197785 -2.064218 -0.9374886 0.016053269 -0.45022973 0.90065163
10 0.89658195 -1.6401035 0.36925134 -0.39206773 0.28893682 -0.13603309 0.49016973 -1.2367401 0.8769386 -1.2081548 -0.22445866 -0.34643048
91 0.12036168 -0.97824967 0.62718046 0.176027 -0.12621292 -0.543197 -1.6913112 -2.2097127 -0.11306145 0.4682715 -0.72276056 1.4640749
1284 -0.43351883 1.0904524 1.0704529 -0.33192477 0.2755995 -0.18669334 -2.8652585 -1.9168781 -1.0912844 -1.3844236 -1.4617022 0.7559021
364 1.6850526 -0.7040622 -0.725621 -0.93215406 -0.87414724 0.32218462 -1.024182 -1.614037 1.0832973 -0.7446413 -0.42707255 -1.0786768
1722 -0.034660663 -0.96320134 0.0615208 -0.89386046 1.2608818 -0.7416258 0.09681883 -1.4450755 0.18748236 -1.0667237 0.49326253 0.3114345
558 0.67264295 -0.4010343 0.44468462 -0.7782616 0.33588353 0.33728537 -0.668079 -0.538739 -0.6259069 -1.785884 -1.5829409 -1.3926264
1679 -0.0986654 0.7292787 -0.40213457 0.538884 -1.5708828 1.1795129 -1.1635461 -2.2513564 0.61376655 -2.9425814 -1.4091345 1.5245646
236 -0.091416076 0.77362704 -0.44534755 0.5515804 -1.5335709 1.1463041 -1.1948535 -2.243975 0.6029621 -2.9167268 -1.3389461 1.5010252
365 1.6532452 -0.61573553 -0.9373537 -0.9269486 -0.69462883 0.3126573 -1.3293222 -1.2979542 1.0261437 -0.7742268 -0.5104636 -1.1113611
369 0.27131197 0.03088362 0.4580939 0.29254138 1.4241935 2.7055562 -0.82843995 -1.7200047 -0.118814826 -1.909095 -0.40660137 2.236389
1678 -0.094661556 0.73999685 -0.432038 0.5840969 -1.5700144 1.1527534 -1.1724659 -2.151227 0.58048856 -2.8544178 -1.3428955 1.5045422
507 -0.44216675 -0.8367839 -1.3982725 0.080447584 1.1480067 -0.9888 -1.5128802 -0.20311251 -1.1097604 -1.894033 -2.3237526 -0.19911583
690 -0.2960007 1.1142673 1.1160315 -0.33309445 0.23961218 -0.34113312 -2.8271604 -1.8455762 -1.1087894 -1.3492709 -1.3890806 0.7099382
90 0.62255025 -0.46564898 0.56645536 0.48686185 -0.04155192 -0.21638446 0.9212406 -2.0118175 0.66381353 -1.1596804 -1.2993054 -0.060709536
460 0.28487068 -0.063870385 0.44639897 0.42917508 1.4211881 2.6590445 -0.8497267 -1.7373735 -0.1169397 -1.8728888 -0.3291856 2.2399979
456 0.5853299 -0.16441266 0.7282237 -0.99852943 -0.022498738 0.841129 -0.6365708 -0.50263524 -0.2365482 -1.7645175 -2.1948614 -0.89366853
1366 -1.7820282 -0.053496085 0.5376296 -1.1051989 1.2199416 1.6237173 -1.2929397 -1.9545428 0.12097151 -0.6513802 -0.9050068 -0.63595283
469 -1.8990752 -0.27057883 0.7958991 -0.8647014 0.7579961 1.0540237 -1.5954424 -1.7843242 -0.47907573 -0.2899677 -0.94757646 -0.24898517
270 0.44423535 -0.74421656 0.33576155 0.22169282 -1.0462581 -0.57577825 -1.7539078 -1.0337602 1.8651229 -1.6303827 -1.2344501 -0.50452197
1491 0.43003744 -1.3429075 -0.36919513 -0.65967554 0.18394272 -0.6100422 -0.08589054 -1.1600678 0.7125781 -0.56715465 -1.059918 -1.2519829
459 0.86750406 -1.5549736 0.39077833 1.1568295 1.0895922 -1.0135993 -0.32432353 -1.0572053 1.0408025 -1.0787427 -0.6459999 1.3033956
1289 0.44540346 -0.6576007 0.085035525 0.10987157 -1.136064 -0.21158306 -1.7409916 -1.1936462 2.0473154 -1.5921876 -0.9053636 -0.4852462
306 0.5848284 -1.0072738 -0.98753774 0.3338826 0.6692114 -0.8703051 -1.1753546 -0.0010694225 -0.13961369 -1.5157399 -1.5176543 -1.0194026
362 0.47086573 -0.69682807 0.92741644 0.45579225 1.0534214 0.91964656 -0.8337373 -0.8868676 1.06978 -0.16033193 -0.93127185 -0.7675426
293 0.6939852 -0.17249332 0.54974085 -1.132422 0.304498 1.035744 -0.6000103 -0.6433219 -0.16677783 -1.4228451 -1.9381193 -1.1560061
376 1.3049058 -0.77768224 -1.0601243 -0.44245005 1.1420429 -0.2952566 -0.10774091 -1.1490021 0.53439975 0.092851646 -1.5618948 -0.97870225
363 1.2900347 -0.7269602 -0.63132983 -0.8535702 -1.0130726 0.24719581 -1.7303096 -1.5528048 0.699246 -0.20596161 -0.7301852 -1.2620007
594 1.0345348 -1.5605861 -0.02204498 -0.027670933 0.8557791 0.7960103 -0.06952469 -0.87274075 1.9379007 -1.3269333 0.08102317 -0.5573412
133 -1.1485915 -0.24565259 0.94347155 -0.78706235 0.9229051 0.9788685 -1.0345415 -1.5018733 0.82920146 -0.16418628 -0.96420074 -0.8377028
83 0.52342033 -1.3575854 0.32697424 -0.17118002 0.6496243 -1.0303235 0.14248633 -1.3351667 1.0876983 -0.5065884 -0.5483219 0.77732646
231 1.1180328 -1.5021821 -0.057032082 -0.2530464 0.87099946 0.6704328 -0.04169968 -0.94757247 1.9423789 -1.4935962 0.029978361 -0.6626817
1670 1.4577562 -0.7260951 0.8100017 0.62598 1.4709731 1.1675161 -0.9715808 -0.9897431 1.1431426 -0.2830116 -0.5648944 -0.85740787
1479 0.50149244 0.19804831 -0.8429326 0.909475 0.002455951 -0.3552666 0.8827452 -2.8008666 0.96558857 -1.1392936 -1.1154091 0.31005192
61 -0.18230377 -0.84114146 0.5098272 0.37098438 0.15979622 -0.6726066 -1.4084705 -2.1810346 -0.058271457 0.36564565 -0.50555503 1.421994
453 0.56949586 0.2293372 -0.77823234 0.89947736 0.06673565 -0.48165527 0.85323083 -2.7646537 0.94478995 -1.1786357 -1.109557 0.40067497
1875 -0.2927698 -0.5591082 1.4119478 -0.48936296 0.9108869 0.4779259 -1.778029 -1.4741455 0.7332952 0.3231478 -0.51599884 -0.5824425
1204 0.4529321 -1.3017995 -0.35352704 -0.74187887 0.10194496 -0.66406214 -0.30804113 -1.0519059 0.8405796 -0.60193396 -1.064165 -1.17945
211 0.49271125 -0.032613523 -0.39838085 1.1634771 -0.028008327 -0.21072328 0.9617659 -2.3168669 0.4986457 -1.4856986 -1.1275349 -0.204609
806 1.1803446 -1.5822594 -0.5392527 1.0260334 -0.23709443 0.18851541 -1.0284152 -0.6665324 -1.5248053 -1.9489452 -0.9818166 -1.048727
802 1.20643 -1.5879036 -0.60491353 0.8881744 -0.19994104 0.24019997 -1.1386806 -0.7270538 -1.5587072 -1.9724164 -0.99590576 -1.0747722
862 0.62713796 -0.93771625 0.4436049 -0.0073697213 1.533681 -0.523125 -0.83746076 -1.8968866 -1.3602897 0.08735668 -0.21225171 1.0409819
108 0.20115674 -0.4425486 -0.4085222 -0.73495275 2.2932203 -0.64579964 0.3750372 -1.6454592 -0.23370662 -1.7832212 0.5398598 0.3122548
458 0.75061756 -1.031453 0.11829892 -0.09141951 1.8614507 -0.19234179 -0.87479246 -2.1789658 -1.8203826 0.14713378 -0.2138642 0.9967932
1682 -0.4931284 -1.7623132 -1.1197349 -0.5734488 0.13588302 0.2824171 0.63259983 -1.0470151 0.6811509 -1.0838119 -1.1974425 0.15099561
546 -0.9757487 -1.800921 -0.7059296 -0.63156956 -0.03522167 0.1984208 0.32285246 -0.93692625 0.63413084 -1.1510403 -1.2769095 -0.17580616
419 0.49980655 -0.44040874 1.0109226 1.1046425 0.83549947 1.0548213 -0.52054423 -1.1735834 1.305977 -0.72586566 -0.8856573 -0.50819045
138 1.0520126 -1.7032944 0.40514594 -0.5069649 0.6448072 0.13428867 0.2512119 -1.1151581 1.4122698 -1.5901297 -0.038444363 -0.5275705
26 -0.5279287 -1.8959634 -0.93418205 -0.5403633 0.045747016 0.31168646 0.551137 -1.0709043 0.5822745 -0.86911386 -1.1428181 0.1192807
113 0.91395 -1.2833539 -0.68498814 -0.16625735 0.5449642 -0.710441 -0.37354028 -0.64016 0.46403986 -0.76871413 -1.2698014 -1.1673961
514 -0.054244414 0.64095664 -1.1883864 -0.5937839 1.5318669 1.7476908 -0.45481527 -3.2445548 0.50434625 0.2614178 -0.46697393 0.99914414
1685 -0.7479644 -0.61493874 -1.4712453 0.13493183 1.2178377 -0.9568272 -1.4200319 -0.28892893 -1.1902677 -1.7780507 -2.1897583 -0.11754475
1761 -0.29460293 -0.8177438 -1.2544072 -0.068048835 0.90218806 -0.94254386 -1.4445318 -0.10916979 -0.85830104 -1.7112429 -1.9719057 -0.288989
468 -1.6466498 -0.12305553 0.5508341 -1.1348546 1.1387547 1.5425814 -1.2760206 -1.6740144 0.12395084 -0.4843811 -0.844456 -0.6459833
1668 0.94730484 -1.5796477 0.3058124 1.1294156 1.1847202 -0.9525288 -0.24351624 -1.0806298 1.1319424 -1.1163605 -0.58255327 1.4780567
921 -1.6862867 -0.12066977 0.4281337 -1.0902274 1.0514647 1.499547 -1.260104 -1.6376427 0.065448195 -0.60554886 -0.9184176 -0.47091097
598 -0.27826872 -0.60657144 1.4914519 -0.04743173 1.01218 0.52236086 -2.4619813 -1.7019725 0.5665153 0.0861671 0.031858258 -0.44938785
1192 0.5180491 -0.075029396 0.6972057 -1.0671167 0.108430214 0.9374147 -0.73545045 -0.5931715 -0.3944938 -1.653142 -2.269625 -1.0686493
1016 -1.8120223 -0.39083746 0.884143 -0.67989546 0.49830082 0.803657 -1.8257474 -1.9070693 -0.66383576 -0.41230822 -0.7048925 0.02428974
489 -0.38378298 -0.5529282 1.0806239 -0.13291556 0.57656735 -0.44196507 -1.944125 -1.5872309 -0.73562884 -0.109759755 -0.3856811 0.332134
887 1.2617986 -0.62316245 -0.6351042 -0.7902807 -1.046715 0.50415885 -1.7968643 -1.6330214 0.6161268 -0.15604231 -0.68551964 -1.2537931
52 0.09921438 -0.63710725 -0.20210974 -0.15693936 0.8979478 -1.1363834 -0.98060405 -2.193502 -0.4692149 0.24667764 -0.29181442 1.1587381
581 0.487755 -1.6344235 0.11855575 -0.98561686 -0.49831295 0.57359445 -1.3434975 -0.83629954 -0.10063592 -2.101061 0.40306288 1.3559235
68 0.4661709 -1.5824597 0.111744285 -1.3133229 -0.4446108 0.18191828 -0.84187484 -0.8711898 -0.27594006 -1.7746147 0.054000508 1.0995642
1362 0.27527866 -0.29835752 0.32434294 0.6797176 0.2350215 -0.054962654 1.1516805 -1.9837033 0.26622432 -1.1816014 -1.2716296 -0.17189516
1288 0.29037896 -0.4530128 0.1120329 -0.08263335 -1.0169907 -0.32110482 -1.4856621 -1.4461421 1.8294352 -1.2590114 -0.50801206 -0.6203139
672 -0.0019047991 -0.42716923 0.76249343 1.0118356 1.1133432 1.3007936 -0.46848857 -1.3926591 1.1418502 -0.48200583 -0.7347596 -0.83053213
1278 0.33169514 -0.77929145 -0.0020924648 -0.3921245 0.8357908 -1.2014251 -1.1592091 -2.1943567 -0.5869648 0.40193596 -0.46505553 1.0603894
149 -0.12421719 -0.6283249 -0.1918666 -0.24259196 1.4046699 -1.0897902 -0.8759121 -2.1806726 -0.7813051 0.20596209 -0.4734787 1.1406624
2333 0.85938203 -1.3956416 -0.7292409 -0.4299114 0.25882864 -0.4600632 -0.84278125 0.015500564 0.08427133 -1.2577143 -1.2252598 -0.5900815
29 0.5486009 -1.5800468 -0.4569736 -1.2182891 -0.29457274 -0.23492934 -0.6351402 -0.27787018 -0.032392554 -1.3394516 -1.1061679 -0.38820904
1700 1.5241163 -0.5975154 0.62938863 0.76435894 1.4713507 1.1926398 -1.0621797 -1.118048 1.1841384 -0.30440977 -0.48124278 -0.86639947
286 0.49310535 -1.0597498 -0.98645186 -0.0046277484 0.6499416 -0.8421194 -1.3798362 0.06777186 -0.57213944 -1.7170836 -1.3896873 -0.7452597
124 0.2079891 -0.36249524 -0.4482328 -0.7034738 2.285194 -0.42990202 0.09009199 -1.571613 -0.2607393 -1.7134845 0.6802681 0.21505842
857 0.53788096 0.037739404 -0.52609235 1.1318773 -0.058886148 -0.064141564 0.947073 -2.338842 0.3859207 -1.5564955 -1.2019176 -0.19004487
12 0.13432224 -1.6515832 -0.38222992 -1.1226193 -0.27630663 -0.32935923 -0.052441232 -0.55707747 0.014291293 -1.4370555 -0.7843472 -0.08974573
1272 0.0035931119 -0.4414076 0.6920489 0.93786484 1.0432476 1.3768356 -0.5312473 -1.2191025 1.0308168 -0.5959341 -0.86386764 -0.9632902
358 0.7128596 -0.11731134 0.55107456 -1.1152493 0.31706294 1.1085999 -0.77128255 -0.785992 -0.3680674 -1.401451 -2.1167364 -1.2575403
679 0.4001501 -0.9756653 -0.9434035 -0.027928075 0.52768683 -0.7434407 -1.444598 0.053911805 -0.59603167 -1.4759665 -1.4556826 -0.8373623
254 0.5730289 -1.2699215 -0.124567606 -0.66501755 -0.1417846 -0.27946645 -0.22535978 -0.38470808 0.35132995 -1.4603322 -1.2793192 -0.5627683
1128 1.6425341 -1.0958773 -0.27550575 -0.68263084 -0.11257264 -0.11118405 -0.78192157 -0.20779607 0.11897294 -1.3035657 -1.6899644 -0.33201966
2679 -1.6923301 -0.021547038 0.16394813 -1.1943767 1.0986501 1.7736113 -1.0832442 -1.7568187 0.08880896 -0.72489184 -0.8879268 -0.5858328
559 0.5706103 -0.2827944 0.31947425 -0.87834513 0.43744975 0.67919415 -0.79139805 -0.40717897 -0.8837906 -1.7563019 -1.8535775 -1.2555906
2305 0.04087871 -0.38199383 1.2876642 -0.13290831 0.45709315 0.0009990926 -0.9335189 -0.9761033 0.8062263 -0.36605608 -1.1978805 -0.8229737
403 1.6337843 -0.65420127 -0.9506415 -0.8395514 -0.998162 0.54307693 -1.2774925 -1.6198868 0.92672235 -0.4589313 -0.3158456 -1.1184131
1698 -0.5174667 -1.6716838 -0.7932229 -0.5422939 0.056283563 0.3698665 0.5206528 -0.9688058 0.59223235 -0.78346634 -1.1515868 0.17426658
411 0.6714666 -0.4632842 0.38988483 0.46754113 0.41681448 -0.08767775 0.98764265 -1.7920574 0.48923412 -1.312257 -1.1057404 -0.23481381
570 0.72470284 -1.2593305 0.17744139 -0.04842905 0.8016573 0.73316044 -0.15010665 -0.67865133 1.6826684 -0.9201418 -0.28515577 -0.5449335
1628 -0.34848437 -0.39934894 1.0883285 -0.43745014 0.84903735 0.76087105 -1.1401513 -1.3242984 0.69157904 0.032444127 -0.8113313 -1.0078652
1684 0.9274906 -1.3334465 -0.6946911 0.7842529 -0.15646482 0.09628581 -1.0081048 -0.4200833 -1.3653036 -1.6840473 -1.000735 -0.88493246
568 0.75046813 -0.9414667 -0.17049547 -0.106049635 1.6775658 -0.26780048 -0.7038807 -2.1202555 -1.6752377 0.08729612 -0.12183787 1.0776389
320 0.541298 -0.41023073 0.66255206 0.78292906 0.62781906 0.21655707 0.07380529 -1.3483666 1.1308802 -0.31845623 -1.2754799 -0.45126024
349 -1.0102931 -1.7204554 -0.70978355 -0.74587786 0.079662815 0.16015787 0.46323735 -1.134158 0.51515585 -1.0432872 -1.2636069 -0.059492912
213 0.58941436 -1.2757823 0.2898609 -0.010512968 0.68613106 -0.8977685 0.21823551 -1.1903472 0.9610959 -0.71013415 -0.45901576 0.5320263
289 0.6527468 -0.8139323 0.2268739 -0.593763 0.20212765 0.30392104 -0.7576263 -0.24651332 -1.0371783 -1.8443016 -1.5297072 -1.1086494
