321 12
8 -0.4207069 -0.22084442 -0.19334562 0.6249122 0.76175815 -0.21760471 0.5009173 0.8224949 1.1528243 -0.2600135 -0.20241931 -0.31268284
11 -0.3109639 -0.87452066 -1.434236 0.2762813 0.32045922 -0.389081 0.47910556 1.6184242 0.7230472 0.21891734 0.40515703 0.4838252
30 0.25177762 0.19563587 -0.7287255 1.0679116 0.62501997 -0.80638546 0.9296362 0.5908749 0.9408097 -0.28648207 -0.5626224 0.29950717
63 0.13992481 0.45382386 -0.28487346 1.4252666 0.84548813 -1.0389425 0.97684604 0.41969037 1.1704671 -0.22533455 0.15080144 -0.7119663
20 -0.39738283 -0.64404726 -0.7493934 0.53354526 0.663163 0.0860735 0.8326866 1.1639254 0.65590954 -0.11376467 -0.674814 -0.08694856
4 0.16261175 -0.6712129 -0.9088584 -0.19683746 1.9470172 -0.6524244 0.5601629 0.20167342 0.39813226 -0.2491967 -0.21578023 0.72621036
18 -0.66444093 -0.88328505 -0.5414884 0.29182485 2.201526 -0.92969495 0.04013872 -0.4868127 -0.20091595 0.38478944 -0.0057774014 0.31287056
23 -0.7794361 -0.7093445 -0.6540405 0.6382686 0.7887745 0.32375678 0.43337032 0.9598463 0.8031002 -0.45422912 -0.688045 -0.29482418
28 -0.31111932 -0.591586 -0.3049515 0.6739236 0.7646422 0.17542286 0.06356971 1.6161581 0.13620892 -0.9883829 -0.1794346 -0.53355956
33 -1.027251 -0.062370975 0.4071357 0.7797428 2.181404 -0.84083444 0.50251675 -0.47228163 -0.22042069 0.36890677 0.38434517 -0.3819697
35 -1.0696641 -0.59213597 -0.027625423 1.1198254 1.9428365 -0.7279429 0.3279247 -0.74129236 -0.4781025 0.5712987 0.07886584 0.39047056
17 0.030755851 -0.62279034 -0.2337719 0.5847709 1.312927 -0.44830048 0.6444958 0.4599382 1.2774569 0.11206881 -0.25403458 0.8579625
7 -0.25099614 -0.50144744 -0.6754961 0.030272387 1.0852873 -0.6427463 0.97446626 0.74421793 1.079788 -0.40142027 -0.24450664 0.33119145
100 -0.008397898 0.14090453 -0.07349239 1.5403929 0.7315742 -0.8295217 0.743777 0.3913238 1.0981431 -0.01842984 0.5032134 -1.0644327
13 -0.34254292 -0.74727935 -0.6646436 0.51299506 0.64215505 0.09891388 0.24907851 1.5364729 0.58854693 -0.90028626 -0.16246486 -0.5356927
21 -0.518671 -0.53727454 -0.73364913 0.59826076 0.6467032 0.33871478 0.043287724 1.4825709 0.52236164 -1.0699486 -0.25914282 -0.45365828
99 -0.20749551 0.007942127 -0.22446021 1.202151 0.60540813 -0.70200884 0.51898426 0.54265654 1.4063218 -0.14537318 0.778213 -0.8988375
93 -1.2597997 0.0876285 0.48811248 1.0770183 2.3008437 -0.48858652 0.37006453 -0.5386389 -0.055106327 0.45551625 0.43772757 -0.65741336
1677 -0.9835917 1.2743167 -1.9830632 2.5351758 1.0390258 0.29202238 2.7198675 -0.04540635 -1.6255344 0.5465452 1.4881109 1.3055502
318 -2.179029 2.5037162 -1.4151555 1.4376465 2.276125 1.942708 -0.56088734 1.3393532 0.1195768 -0.022513226 1.4210871 -0.16191499
97 -0.39654282 -0.17464332 0.42624983 0.99091935 1.145159 -0.402313 0.30975032 0.2818629 0.7578427 -0.16066855 0.08302337 -0.9096958
15 0.07132346 -1.0693427 -1.192899 0.39318228 1.3428143 -0.65030414 -0.7225153 1.2129368 0.13509534 -1.6358424 0.62179154 0.66382664
6 -0.32328492 -1.0270723 -0.6130615 0.11960362 0.8578791 -0.42293808 0.8010133 0.6920747 1.0901486 0.014066789 0.1400336 0.21246634
190 -0.35743862 0.37609363 -1.138792 1.0315859 1.9806126 0.45722455 1.0142896 -0.7091267 0.5090218 0.6168085 1.7648298 -1.6726595
14 -0.46095523 -0.777639 -0.93042105 0.4191325 0.6264356 -0.10197703 -0.18736203 1.6033341 0.33217973 -0.9809784 -0.1564301 -0.5116704
56 -1.3731363 -0.378908 0.56987053 1.0829811 2.077617 -0.6560449 0.43081537 -0.42925307 -0.14174958 0.42267722 0.47415215 -0.62174
27 -1.038326 -0.38237378 -1.3137766 0.39337274 0.61877024 -0.24788326 0.108453356 1.5052277 0.2611069 -0.8772275 -0.6960354 -0.8676826
303 -0.5778049 -0.38733566 -1.3863578 0.982291 0.8757962 1.2027583 -0.031661026 0.6869473 1.1908143 -1.0700923 -0.12902679 -0.6588099
59 -0.42340377 -0.88501674 -1.9816091 0.24509928 0.33436364 -0.2638674 0.7717887 1.7634475 0.8291175 0.49700904 0.71933657 0.3785445
25 -0.518263 -0.9793289 -1.9619414 0.2065337 0.43025705 -0.22789314 0.5243822 1.8612543 0.8868014 0.7231699 0.66241497 0.2454249
22 -0.7901991 -0.8929088 -0.2648816 1.2400213 0.8501451 0.40241134 0.2698472 0.69823414 1.0354162 -0.8107485 -0.52621955 -0.334881
48 -0.088674024 0.5191127 -1.118409 1.2360897 0.5348186 -0.77557045 1.2281058 0.59879386 0.9908533 -0.41827515 -0.5661359 0.78451437
19 0.49245098 -0.19035697 -1.0545844 -0.3481872 2.3451066 -0.49486044 0.6599047 0.4729199 0.45525378 -0.27470514 -0.23666036 0.6254374
37 -0.8346031 -0.67151743 -0.121131204 1.0830016 0.863724 0.17852692 0.29217052 0.18642007 0.98735964 -0.66034067 -0.20085377 -0.5697746
53 -1.2757248 -0.78858507 -0.31480074 1.2832146 1.949356 -0.8483305 0.24759068 -0.5618333 -0.5336592 0.8933062 0.034592245 0.9240477
9 -0.13349327 -0.7462991 -0.70144767 0.5800945 0.45852667 -1.0121238 0.76916635 0.78561616 1.0100459 -0.12273998 0.06287246 0.64633995
98 0.1771034 0.2914397 -0.17195417 1.1782346 0.84329945 -0.5135349 0.99439865 0.78377604 1.2297481 -0.16980013 -0.19933411 -0.38862365
65 -0.009419136 0.5789721 -0.22402735 1.3641298 0.72659034 -1.0844796 0.9089985 0.5851159 0.9582652 -0.1476253 0.49843305 -1.0389138
82 -0.39724582 -0.48612723 0.50418884 0.59156615 1.2062435 0.19962949 0.11299219 1.9416971 0.049369764 -0.6614848 0.22455437 -0.69300854
111 -0.75380486 -0.37939274 -0.876183 0.67907727 0.8314167 0.2582286 0.82749414 1.3024584 0.48609945 -0.017056294 -1.1418146 -0.18535651
730 -0.8716619 -0.014356448 -1.3257834 1.7388169 2.0529792 -0.15482984 0.44614193 0.8476362 0.06280547 -0.19637522 0.901049 0.25418526
1627 -0.25462523 1.100564 -2.9231977 1.553753 1.9677031 1.081897 0.06036764 1.5167816 -0.7439146 2.5377405 1.1059939 1.0673048
866 0.268574 2.393943 -0.6743955 1.967349 2.4250858 -1.0558549 -0.093284525 1.280423 -0.068000175 1.0079273 2.6756983 1.4682626
741 0.048317306 -0.40601143 -0.6869331 1.5705594 1.8083435 -1.7905505 2.4403667 1.9283285 -2.2870462 0.76565015 1.4822772 0.1107372
1293 -1.026619 -0.2022825 -1.6765459 2.0163298 2.5167434 -0.2426413 0.7730499 1.2250004 0.20945331 -0.3593669 0.9341384 0.124843866
1438 -1.6778651 1.0169817 -2.3888025 1.1358068 2.0913808 0.5498784 0.093950935 0.58340585 -3.0559437 -0.11673111 1.8079066 -0.08830344
16 0.38201073 -0.35142484 -1.0778049 -0.34816185 2.0234072 -0.47228244 0.8295635 0.4946238 0.61636406 -0.22875693 -0.31533498 0.7074013
76 -1.3702486 -0.086083755 -1.2088213 0.69823927 0.78687036 -0.43735054 0.3781522 1.6181108 -0.8684514 -0.8456825 -1.0015188 -0.62276125
324 -2.926696 0.42300618 -0.64769113 2.027746 0.66998357 0.19973059 0.64962786 1.0941498 0.12318736 1.6523833 2.382416 0.6862205
24 -1.2386755 0.39018077 -0.10823496 0.6349203 1.3849475 -0.3358943 -0.0913992 1.4236294 1.9128981 -0.09872779 -0.06208293 0.10771898
34 -1.0609714 -0.7025324 -1.0136921 0.45519137 2.4010885 -0.8555574 -0.46126437 -0.45356816 -0.45135906 0.8245593 0.06437995 0.9364765
71 0.2855005 -0.92149526 -1.0242773 0.8371185 1.4768742 -0.5037103 -1.323529 1.8038365 0.059380572 -1.3501885 0.13909896 0.1290926
42 -1.4740065 0.5185818 -0.028281437 0.5332745 1.5427821 -0.26098228 -0.030375933 1.3390409 1.8459902 -0.09034435 -0.1862312 -0.020420728
78 -0.7325932 -0.54413825 -1.3023434 0.61560494 0.75900555 0.12884346 0.70985323 1.155001 0.573132 -0.1318758 -1.0671139 -0.54320556
54 -1.1521257 -0.81422675 -0.0830323 1.2459798 1.7772807 -1.036282 0.47666553 -0.4428786 -0.28273132 0.82310146 -0.017578524 1.0347424
112 -0.35982883 -0.39246407 -0.86179584 0.7362157 0.8982207 0.44950676 0.95383215 1.104328 0.6018526 0.3148619 -0.9446731 -0.49194917
49 0.15218373 0.42134744 -1.2941319 1.0843264 0.51677257 -0.8639373 1.1026716 0.73889303 1.004223 -0.46141502 -0.39969933 0.8217436
40 -1.3712994 0.37352088 -0.1450208 0.62584925 1.443452 -0.13050225 -0.15912467 1.3909403 1.6956745 0.08209899 -0.2237746 0.063238665
109 0.5987676 -0.24869582 -1.1477779 -0.4018961 2.3184242 -0.81598765 0.5947485 0.59037966 0.5281769 -0.1703978 -0.026680257 0.53373355
105 0.30002546 -1.1477818 -1.5761529 0.8448987 1.5282078 -0.5291067 -0.88128334 1.0730661 -0.044001184 -2.0059054 1.1883595 1.1407819
5 -0.22301398 -0.74751824 -0.62931937 0.114128776 0.89426154 -0.7332444 0.50993174 0.70311195 1.0504344 -0.65389097 0.100671075 0.41819862
72 0.22837919 -1.1545703 -1.6022774 0.77585083 1.514649 -0.6229986 -0.786674 1.0466323 -0.02486172 -1.9704925 1.1135856 1.2256385
31 -0.29984736 -1.1993413 -0.14927816 0.7265516 1.3366637 -0.9497055 0.7226342 0.42557457 0.8351349 0.43191904 -0.18507545 1.1396751
151 -0.9532503 0.25593323 0.16273542 0.93295074 2.6663811 -0.2486214 0.67034096 -0.7884785 -0.26702163 0.44473615 0.83822733 -0.61857134
386 -0.8379578 0.0031669203 -0.33908895 1.0555962 0.53766346 0.24206334 0.36595622 1.9578695 -0.84249985 -0.90961045 -0.6684304 -0.13509892
45 -0.3960081 -0.97087973 -1.9281702 0.2960532 0.43916753 -0.14388338 0.637522 1.9743394 0.63317245 0.63887227 0.62658864 0.38093603
81 -0.46525845 -0.113150954 -0.07070973 0.8052526 0.7824467 0.22762388 0.3392793 2.2726686 -0.12255771 -1.0869087 -0.268154 -0.04792098
73 0.26508772 -0.06694141 -0.8441075 -0.4347841 2.363394 -0.17102945 0.8463955 0.35396844 0.41815668 -0.46763226 -0.103202924 0.84812224
75 0.44009167 -0.28545848 -1.0883325 -0.37441528 2.3742542 -0.67980087 0.5253727 0.45704848 0.5772012 -0.0985159 -0.037931435 0.6208321
95 -1.3434854 -0.56773823 0.6915718 0.9552172 2.272128 -0.58603334 0.6349656 -0.37324253 -0.20113918 0.32690594 0.69786835 -0.51672363
94 -1.4266762 -0.41269377 0.5751399 0.8101089 2.5242658 -0.7091256 0.32404086 -0.43630794 -0.22900689 0.28289822 0.7494908 -0.5081434
39 -1.0933148 -0.9037786 -0.13769381 1.6915158 1.0370057 0.34763905 0.28112534 0.33868313 1.1690035 -1.0085377 -0.4756131 -0.4905415
89 0.18065931 0.37345347 -0.9563965 1.3825411 0.530109 -1.0143086 1.2482829 0.9506346 0.89594537 -0.3732315 -0.50001794 0.8564971
88 -0.51382214 -0.96853364 -1.921732 0.2159412 0.40611255 -0.09411787 0.71998745 1.802917 0.6998066 0.6032219 0.8062169 0.51350707
2 -0.2330958 -1.1711117 -1.1840758 -0.067593336 0.7657775 -0.2739168 0.050641827 1.5846089 0.5292293 -0.6580727 0.21472858 -0.14007023
117 -0.463114 -0.17453642 0.028541554 1.1447401 1.385959 -0.03323562 0.4773239 -0.026135249 0.8837977 0.21344988 0.5539145 -1.5318216
103 0.07013885 -0.754432 -0.8739996 0.66700023 1.0867672 -0.3712384 -0.7575025 1.7609255 0.22781956 -1.2600068 -0.06284623 -0.30498436
1632 -0.8694299 0.81750214 -1.8583955 2.2182257 2.00428 -0.5964512 0.017287781 -1.5045624 -0.08781138 -2.5376065 1.2783368 0.61226344
50 0.08337767 -0.109090656 -0.86251956 1.277813 0.36684674 -1.1340057 1.040845 0.9625936 0.93526155 -0.35451162 -0.33255318 0.69382536
101 0.09378453 0.062346056 -0.43556175 1.3476716 0.6136163 -0.99594665 0.7179928 0.48049933 1.0760013 -0.21251784 0.5974966 -1.1117588
102 0.3591337 -0.94471437 -1.2448123 1.0959969 1.6310978 -0.6087599 -1.4794377 2.0439475 0.2539982 -1.1271844 -0.16974778 -0.122863315
588 -1.1711318 -0.09143063 -1.3605903 1.8087827 2.1174037 -0.22220512 0.5412541 1.1258072 0.11571787 -0.6546737 0.9206292 0.20924753
1631 -0.91109115 0.88381296 -1.9074789 2.2570717 2.026806 -0.6095748 0.01094544 -1.5492665 -0.05647851 -2.5775356 1.3120329 0.6205098
590 -1.1501702 -0.038291078 -1.389088 1.8153074 2.1165078 -0.12302762 0.475895 1.09301 0.11763443 -0.5969612 0.902374 0.1523426
115 -0.7834561 -0.67896074 -0.6426643 1.1762316 0.8204391 0.6321594 0.17856513 0.2781092 1.4621934 -0.8658447 -0.15298851 -0.33614734
69 0.19972295 -1.0848895 -1.4783171 0.8152189 1.4206139 -0.43054953 -0.8167942 1.2630211 0.062549666 -2.098256 1.0826372 1.0280665
541 -0.4082189 -0.27907917 -0.86083674 1.7543148 0.6808264 0.50373274 0.92698157 2.0010562 -1.4224505 -1.4194305 -0.7139809 0.00073671225
44 -1.5785306 0.39941344 -0.12105277 0.6059405 1.613547 -0.29626775 -0.16905828 1.432792 1.9291551 -0.040254332 -0.2280861 0.13561049
55 -1.314049 -0.81080526 -0.14482412 1.3752404 1.9267119 -0.6250695 0.48738372 -0.6733711 -0.51777107 0.7904212 0.015311126 0.8959591
152 -0.91721827 -0.95610803 -0.6473244 0.4574641 2.443415 -0.9542941 -0.1916391 -0.43627152 -0.6976239 0.40612036 0.19962022 0.8252416
87 -1.0984728 -0.6793304 -0.18655705 1.6680081 1.0364534 0.46968216 0.23260045 0.12404342 1.3661098 -1.103588 -0.44359463 -0.39577717
43 -1.4792367 0.4030793 -0.12795757 0.59673697 1.5354923 -0.35867035 -0.19589029 1.4659984 1.9576354 -0.07308465 -0.12827957 0.11176789
41 -1.5395739 0.5388356 -0.23642975 0.5398118 1.734407 -0.17747414 -0.14635609 1.5903777 1.9005822 0.02360913 -0.28472567 0.3341924
46 -0.4437296 -1.0892006 -2.0375009 0.2029573 0.3963198 -0.11078944 0.6584978 1.6283202 0.6626831 0.6364243 0.67385167 0.49685544
669 0.46771634 0.15010436 -0.66809726 1.8995084 0.6378338 -1.130101 0.34923372 0.5675982 1.1737319 -0.31149137 0.4685404 -1.1243895
180 0.6763428 -0.3051498 -1.0943362 -0.26584965 2.2949119 -0.8341657 0.5366875 0.67993164 0.54931045 -0.033419337 -0.03341974 0.800119
176 -0.73629785 -0.45153937 -0.3658122 0.5363591 0.62466687 -0.47729063 1.0858842 0.8071558 1.6327114 -0.50007945 0.8122844 -0.48365793
3 0.032726716 0.6653846 -0.2760111 1.3746461 0.80852264 -1.0430391 1.2547282 0.91114974 1.0750259 -0.0031163176 0.3428928 -0.8761107
587 0.3197795 -1.0726602 -1.7494466 2.2236798 1.8017559 1.3846763 1.5283152 0.7176613 -0.55403405 1.0447216 -0.8052829 -0.6654924
66 -0.030237192 0.640827 -0.3519867 1.4905156 0.7443411 -1.1340747 1.2680897 0.87446517 1.1445267 -0.08279344 0.5399759 -1.1187985
515 -2.8859012 0.48792613 -0.6213453 2.012764 0.6937905 0.118894786 0.7728933 1.0953565 0.15385757 1.6564977 2.431167 0.75028867
58 -0.3664235 -1.0246643 -1.8516824 0.24690701 0.4366747 -0.2818142 0.6894068 1.9333433 0.80082995 0.65098363 0.5503093 0.34626576
586 0.26721844 -1.1351005 -1.8338438 2.1565473 1.7278033 1.3716925 1.5018097 0.8175644 -0.6723736 1.1270531 -0.7415933 -0.74672705
366 -0.11019403 0.094047435 -0.3877157 1.4716573 0.6380575 -0.91792977 0.67257553 0.54356915 1.255648 -0.05286118 0.09660943 -0.856375
516 -2.9020414 0.46144617 -0.6335284 1.9994304 0.71328425 0.13363661 0.6911474 1.1295941 0.1197948 1.6196649 2.3719137 0.70732296
116 -1.0234858 -0.063028924 0.6543779 0.83236784 1.6406207 -0.7057327 0.34414935 -0.100812085 0.033368796 0.07367609 0.04796376 -0.7002893
57 -0.49134785 -0.8584007 -1.8680705 0.026986077 0.41595843 -0.38473323 0.7227562 1.7111679 0.7135838 0.6395237 0.7299034 0.32556027
513 -2.9670792 0.47587773 -0.60923916 1.9565104 0.6527907 0.11811469 0.68661076 1.1338645 0.07796413 1.6679772 2.324366 0.7015885
156 0.21690431 0.3186736 -1.0769385 1.0896146 0.5548087 -0.64546806 1.4309146 0.6483109 1.0505229 -0.5284633 -0.37002712 0.57114893
253 -0.9193768 -0.12405283 -1.6303734 1.9569942 2.4163606 -0.23320833 0.7622098 1.1283714 0.30801386 -0.31028253 0.848291 0.12188279
79 -0.46064568 -0.37176576 -0.0713387 0.68277013 0.85757476 0.2192824 0.16217768 1.8573514 0.22327194 -0.93802994 -0.21253191 -0.3562818
47 -0.47615144 -0.89432544 -1.8326652 0.10080286 0.51890695 -0.24796365 0.4271813 1.7862588 0.8539394 0.5834802 0.67681676 0.36549032
32 -1.0537865 -0.77360153 -1.155282 0.29968652 2.5184264 -0.9463109 -0.56659746 -0.29545316 -0.09225777 0.94725037 -0.0011461598 0.5960064
252 -0.90860826 -0.13929719 -1.4708257 1.8578383 2.3289979 -0.24813351 0.6095604 1.1112863 0.26540366 -0.2909904 0.8581199 0.12774761
856 -0.99595135 -0.11050856 -1.4973125 1.9877669 2.6045244 -0.2944487 0.71270084 1.2626055 0.3988914 -0.22633341 0.9552676 0.04858827
1267 -0.76391774 -0.21236292 -1.5435694 1.7252669 2.2350688 -0.13248716 0.5158145 0.9692035 0.12515871 -0.21047294 0.8534114 0.0050985343
401 -1.0236034 -0.16852747 -1.4765618 1.992559 2.3746245 -0.20147337 0.77604836 1.1526642 0.1783987 -0.37870988 0.7844867 0.27138007
1295 -0.9155528 -0.26094797 -1.7426668 2.0405273 2.609321 -0.3627788 0.8506401 1.3095901 0.3327487 -0.396919 0.8139584 0.07425416
375 -1.0209802 -0.19498499 -1.4752707 1.9729437 2.409972 -0.19293858 0.7130742 1.1900774 0.14244422 -0.38773304 0.79829013 0.3138301
2149 -0.83380485 -0.22301015 -1.595103 1.8676105 2.3297856 -0.25203347 0.5394673 1.0446156 0.13809423 -0.42006448 0.8054067 0.20433037
593 -1.006635 1.1017463 -0.99355835 2.6792002 0.15071969 -0.51505333 0.7603531 1.4445546 -1.1319638 -1.9565864 2.8815308 0.084057845
1481 -0.89741564 -0.2730649 -1.5757258 1.9773574 2.4621365 -0.34825745 0.69606483 1.1662439 0.27057183 -0.45917907 0.8040737 0.09139951
524 -1.0576874 -0.25686508 -1.8350524 2.2535613 2.6948948 -0.36723554 0.80434775 1.3961812 0.44626585 -0.5655119 0.9056904 0.10969404
526 -0.9137629 -0.28880778 -1.559685 1.954064 2.3901172 -0.423903 0.84272075 1.2717034 0.19493654 -0.3128375 0.7629554 0.1962968
522 -0.99760205 -0.24094787 -1.7331562 2.1653402 2.5894973 -0.3675671 0.7646974 1.3293307 0.47635153 -0.59631974 0.87362325 0.098563544
911 -0.851402 0.708965 -1.9148539 3.4687173 0.9518977 0.1872344 -1.0789012 0.10390817 -0.90555984 -0.43666625 1.4744337 2.4724588
1630 -1.1075108 -0.003472244 -1.2093902 1.6830444 2.1681204 -0.18359435 1.008253 0.8913656 -0.061720163 0.40853056 1.480985 0.21717763
786 -0.1918542 0.16763663 0.316617 1.3192323 2.135291 -0.61212367 1.1072237 1.8611115 -1.0869375 -1.3119007 2.9578094 2.2897785
246 -0.87279105 0.1947641 -1.0318928 2.0427334 2.1638553 -0.6655484 0.63326544 1.1058266 -0.10873558 -0.08279147 1.2142656 0.34349644
604 -0.9398846 -0.1813542 -1.4967577 1.9148824 2.2938578 -0.37908807 0.58732337 1.2474681 0.26850107 -0.42546102 0.8339507 0.0877838
457 -0.932122 -0.2652215 -1.5693201 1.916825 2.4318624 -0.2959168 0.7051693 1.2245886 0.29935637 -0.46145296 0.86827683 0.10105196
1871 -0.7601735 -0.1055837 -1.2992326 1.6543142 2.184207 -0.32339257 0.5283032 0.9978109 0.12295909 -0.41148457 1.0980161 0.26293725
1639 -0.7044433 -0.27946472 -1.6299418 1.9137927 2.280938 -0.16647711 0.675917 1.1655284 0.23348989 -0.35561004 0.8366208 0.4043978
1880 -0.9349819 -0.07156433 -1.3724738 1.9240117 2.3360052 -0.28291366 0.6401069 1.1580361 0.24118607 -0.4583341 0.9028249 0.29291427
564 -1.0717689 1.168611 -0.98011863 2.6471117 0.17912583 -0.56333804 0.7703904 1.4535015 -1.0990198 -1.93735 2.8525996 0.07413622
528 -0.903033 -0.20176959 -1.5327721 1.9149306 2.380142 -0.3451653 0.8130442 1.2744235 0.18072811 -0.31907615 0.75813943 0.22729318
229 0.71190286 -0.8157915 -1.2015157 2.9220126 1.6730734 -0.6475479 -0.014283576 -0.34893477 -0.29695603 0.89599955 3.348876 0.86624163
227 0.75443316 -0.8034041 -1.2574593 2.8651664 1.7014774 -0.617316 -0.089524865 -0.35837236 -0.18856958 0.9408058 3.3018754 0.9037626
1622 -0.058638614 -1.6695516 -2.5703783 2.6865258 1.7039276 1.6925461 -0.77276033 -0.33857718 -1.4069213 -0.33685815 1.5815424 -0.04858737
2100 0.92092216 2.2194726 -1.1885701 2.5816884 2.4466631 0.091321535 0.911008 1.8293735 -1.6938331 1.022389 0.6302801 -1.1483539
656 -0.7864575 -0.2726902 -1.6124198 1.7869036 2.2265549 -0.15894808 0.53851 1.0139256 0.18043818 -0.20520115 0.8716385 -0.040186804
606 -0.9990412 -0.20352447 -1.5722826 2.0589514 2.4317143 -0.42045695 0.64021236 1.3243549 0.35711688 -0.41841418 0.87845224 0.06998257
748 -0.7941254 0.7255009 -1.9404614 3.5026376 0.9388371 0.1439696 -1.1087915 0.23510006 -0.99786776 -0.5047121 1.3220254 2.437229
1898 -0.76693285 -0.16434054 -1.3041983 1.6461089 2.2350082 -0.3549103 0.48827603 0.96513903 0.10126741 -0.3756476 1.1169606 0.21937406
239 -0.72890615 0.052217532 -1.3956587 1.8146895 1.9274046 -0.63930243 1.018475 0.90721595 -0.39139667 -0.11568505 1.0091097 0.062449943
234 -0.84180725 0.21020395 -1.0389891 2.0371897 2.2039905 -0.6396143 0.67709005 1.1017544 -0.11198949 -0.046193987 1.2281271 0.33479932
2136 -0.6377324 -0.42616847 -2.301406 1.9061608 2.2860966 -0.08355896 1.8596692 0.23443055 0.23191704 -0.7919891 0.76572585 0.5330938
2134 -0.70551383 -0.40346563 -2.2996244 1.8945178 2.228897 -0.1691317 1.8278868 0.2682214 0.21586055 -0.7682138 0.79097074 0.57072604
1966 -0.84453785 -0.26000673 -1.6149583 1.8904316 2.36738 -0.25656423 0.5405656 0.9970018 0.15166238 -0.40797094 0.79792917 0.18186066
2502 -1.0956426 0.0015521601 -1.2273644 1.6957392 2.1824028 -0.23796093 0.9463002 0.8905562 -0.023903007 0.36339724 1.4349167 0.20206736
1294 -0.93056595 -0.24314415 -1.8045558 2.0744834 2.6383066 -0.36057508 0.8475091 1.3388779 0.32838914 -0.4157837 0.84508145 0.114184454
205 -0.9871066 -0.14312811 -1.4922906 2.0014615 2.510654 -0.35059056 0.58693296 1.2741671 0.36970127 -0.2750887 0.96646225 0.10157987
485 -0.7581278 0.05822594 -1.4135696 1.7977298 1.8911079 -0.5891989 0.987682 0.9147615 -0.42733747 -0.03221801 0.9983202 0.08626407
1884 0.915018 2.2682703 -1.2681655 2.6052492 2.4965737 0.09387839 0.95965105 1.8233895 -1.6534969 0.96962994 0.65753484 -1.1228427
1881 -0.9015751 -0.059278715 -1.3505242 1.9098784 2.2565677 -0.24646923 0.6593563 1.1476599 0.23824018 -0.43486926 0.89795417 0.2930215
1285 0.32651982 0.34175286 -0.27913305 3.0946655 1.3530184 2.417136 0.36157265 1.3812697 -0.032406904 -0.55533636 2.023017 1.06111
1608 -0.69116366 -0.25404233 -1.6244466 1.875866 2.2718096 -0.143802 0.64713347 1.1266862 0.21521206 -0.32349116 0.8489232 0.39384842
1286 0.23033215 0.33293226 -0.271143 3.0929677 1.4179987 2.3979566 0.30799907 1.3397704 -0.031134892 -0.5054602 2.0126975 1.0478462
1047 -0.05414645 -0.8335155 -1.6646638 1.8245574 1.6256971 -0.85991794 -1.2086861 2.2861075 -2.3173199 0.77569985 2.4106176 0.27081347
1282 -1.368024 -0.1967878 -1.1845925 -0.16102815 2.7027755 1.5651809 -0.1606346 1.1190829 -0.5043944 -0.561199 3.1275213 1.4501063
1049 0.0038238317 -0.8280672 -1.7005119 1.8866378 1.5283322 -0.936049 -1.1841986 2.2251794 -2.3258405 0.6708972 2.5163248 0.17470475
1619 -0.11855085 -1.6708418 -2.558215 2.6822336 1.6598257 1.7091265 -0.6927977 -0.33347604 -1.400739 -0.3593194 1.5565658 -0.014459484
943 -1.3182732 -0.1924674 -1.1757889 -0.11699432 2.6716197 1.5340354 -0.18978572 1.0595717 -0.5058723 -0.5034585 3.1432047 1.476517
1767 -0.30185574 0.17283988 0.32294175 1.3289052 2.145537 -0.6197142 1.0253259 1.7859341 -1.0870233 -1.3082616 2.978972 2.4021652
80 -0.33043164 -0.21446249 0.34771568 0.5073185 1.1173017 -0.07637326 0.22501372 1.2599868 0.51561403 -0.4217565 0.024670614 -0.86914474
391 -0.7417361 -0.057919133 -2.0608463 0.9989968 1.1705446 1.649145 -0.09157574 0.64206773 1.2410253 -1.311607 -0.033936262 -0.7077229
77 -0.5226971 -0.3811147 -1.025371 0.47014856 0.8680877 -0.13553452 0.10970192 1.3657409 0.27820992 -1.1780918 -0.50265 -1.0247797
517 -0.96478844 0.82545125 0.37356564 1.0480958 2.712207 -0.32335195 0.61198485 -0.6874254 -0.41884035 0.23294869 0.5793248 -0.43257627
86 -1.000851 -0.95399773 -0.22594959 1.9846052 1.1657275 0.38390616 0.39868557 0.4120163 1.1516757 -1.1634779 -0.87277204 -0.3864314
96 -1.5498977 -0.46680322 0.7765292 0.8889577 2.3228261 -0.5901651 0.40396333 -0.2648291 -0.29422948 0.16042012 0.6146152 -0.53741467
251 -0.97146267 -0.1339311 -1.5619556 1.8382537 2.3743658 -0.2344939 0.66053104 1.0589831 0.3166104 -0.26504105 0.8764832 0.11422966
38 -1.224182 -0.7307788 -0.14824936 1.8630278 1.1971061 0.43961143 0.30441377 0.34026638 1.2146388 -1.3845321 -0.7537353 -0.26540467
455 -0.623064 -0.95001435 -0.39621866 1.0986456 0.65891516 0.4155327 0.09048335 1.2656213 0.638354 -0.832484 -0.5055358 -0.43434078
107 0.09923086 -1.3071983 -1.8351238 0.6528422 1.4289272 -0.7341428 -0.69683564 0.9675682 -0.20654313 -1.9602574 0.9268889 0.96922165
294 -0.2776706 0.33449006 -0.91164994 0.9722131 0.62136745 -1.0130739 1.5552597 0.61782736 0.8865441 -0.21924767 -0.49727833 0.68963957
122 0.3029531 -1.1344657 -1.8232932 0.8407223 1.4282258 -0.47161964 -0.75524443 1.0937777 -0.0663134 -2.1425886 1.2673607 1.238387
62 -1.2612151 -0.755013 -0.10202952 1.4916426 1.8827834 -1.110467 0.31783223 -0.6390637 -0.28130051 0.8118845 0.11895302 1.041933
1 -0.0672973 -1.0602026 -1.059025 -0.2327526 1.2043271 -0.58823526 0.009851731 0.87560636 0.58599174 -0.9795299 0.2197977 0.3133566
70 0.21469654 -0.93336016 -1.1205629 0.83464247 1.4548779 -0.45159474 -1.1880621 1.8489017 0.21858235 -1.483823 0.0789656 0.21188919
67 0.15619378 0.35252386 -0.33729854 1.3095766 0.7084268 -0.819262 1.1687971 0.71124345 1.2308508 -0.09481131 0.02861008 -0.41090316
1629 -0.15219888 0.3907979 -1.4845185 0.9849242 2.0602057 0.6845577 0.9851348 -0.51156443 0.38432148 0.51451904 1.9903978 -1.7642105
158 -0.24897131 0.7887362 -1.9086907 1.2275066 0.4792899 -0.7813497 1.0252469 0.2901593 1.3410478 -0.14465135 -0.27385688 1.0647904
114 -1.2743875 -0.49041536 -0.4487907 1.8407398 0.995131 0.54073167 0.23279446 -0.039275676 1.4941612 -1.3021312 -0.22713563 -0.41425878
106 0.269243 -1.2394559 -1.6924591 0.97072864 1.3625268 -0.46362224 -0.73967695 1.1103461 -0.04583968 -2.0874443 1.2311445 1.1388757
182 -0.4505012 -0.22229202 -0.6914976 0.7636675 0.8933798 0.041337647 0.8410481 1.0884479 0.82778573 0.13954107 -0.94081384 -0.46662647
110 0.64492536 -0.3508185 -1.0314677 -0.32941654 2.3757896 -0.80835396 0.6953941 0.65725344 0.6152149 -0.009699757 0.010195561 0.58265996
36 -0.56114256 -1.1938382 -0.64253086 0.35097095 2.6224015 -1.1476396 -0.085487396 -0.31900078 -0.6736496 0.55919427 0.08785506 0.2884961
169 0.07518482 -1.3438528 -0.04612428 0.867396 1.6059521 -0.5098159 0.7226047 0.42857373 1.1355281 0.3594209 -0.10215776 1.1173615
308 -0.06942234 0.13695514 -0.28209236 1.5555278 0.71240884 -0.8367138 0.5206947 0.7464794 1.4891511 -0.10115261 0.24591644 -0.96739286
1015 -0.9286507 0.27685633 -0.58090293 0.99309766 2.7187936 0.22090866 0.8393172 -1.2550391 -0.48253223 0.6754814 1.3514044 -1.0933666
589 -1.0896146 -0.028471762 -1.3597672 1.7503304 2.0488765 -0.14961591 0.5570462 1.0734749 0.11653929 -0.4864033 0.8757883 0.21123168
64 0.06655132 0.6485951 -0.33182216 1.4479132 0.7769119 -0.7720563 1.3035791 0.8988122 1.1085207 -0.1486134 0.37561306 -1.0936115
558 -0.35390148 -0.1371558 0.26745436 0.7959442 1.0892053 0.58371896 0.12510493 2.4839222 -0.24794114 -0.808021 0.04857905 -0.38731214
74 0.3618943 -0.2336937 -0.9823398 -0.36526585 2.2658238 -0.4112901 0.76975787 0.38157216 0.5203961 -0.3063576 -0.14725052 0.70765203
538 0.30776608 -1.0222301 -1.4480727 1.7077258 1.6677071 1.1276776 1.4613165 0.88865525 -0.119488634 0.7990438 -0.88136363 -0.7703229
602 0.29566678 -1.0937493 -1.806088 2.220448 1.7348675 1.2864099 1.5138912 0.7524806 -0.6671285 1.1050339 -0.6456448 -0.644573
518 -1.0752641 0.52060026 0.4007115 1.1091515 2.635494 -0.3803616 0.7501119 -0.72800523 -0.23820299 0.3045958 0.5947863 -0.51556224
1634 -0.8144025 0.88486296 -1.8705254 2.1648476 1.9926647 -0.56623507 0.016679185 -1.522138 -0.061391436 -2.4816341 1.2985951 0.5894829
1633 -0.82484424 0.8301886 -1.844858 2.2266293 1.987145 -0.60047054 -0.06531274 -1.4689466 -0.031148985 -2.5081608 1.2586153 0.57889384
470 -1.0345258 -0.053734176 0.5808573 1.7946236 1.9429218 -0.5158076 -0.03039554 -0.567325 0.5741202 0.26751694 0.9168902 -1.0532093
365 -0.57739925 -0.1847156 -1.9181155 0.95439476 1.0947858 1.2927668 -0.08782363 0.6239572 1.3107274 -1.4201671 -0.08019593 -0.7159913
1580 -1.5339565 0.94587207 -2.2419693 0.98014283 1.993081 0.5281183 0.17482544 0.6094914 -2.9414985 -0.11787609 1.7760334 -0.09733744
600 0.30738115 -1.0551347 -1.8800781 2.1156843 1.8404686 1.4227886 1.5650425 0.75615597 -0.6906675 1.1216736 -0.69743836 -0.61165637
591 -1.0598954 -0.013083524 -1.3275669 1.6494483 1.9544097 -0.13934202 0.47808987 0.943559 0.02314914 -0.48790878 0.9251172 0.20709512
1606 -0.90998733 -0.10717879 -1.49083 1.8524855 2.1977086 -0.20990798 0.7177276 1.0976515 0.16765955 -0.30642456 0.855943 0.14390217
60 -1.2289149 -0.80840045 -0.11445985 1.403583 1.8819506 -1.0556377 0.3476229 -0.40547684 -0.39999527 0.9869404 0.05960916 1.1464711
1687 -2.0723946 0.049464703 -1.3405532 1.0214553 0.49078262 -0.7645975 -0.040566765 1.7252367 -1.1342084 -0.38917074 -0.6837665 -0.62688047
410 -0.8029561 -0.066847146 -1.2573317 1.7032657 1.9868406 -0.12619632 0.39298818 0.8590021 0.008914807 -0.17585625 0.90498626 0.24059021
415 0.11939515 -0.34951085 -0.65206796 1.5029066 1.6148883 -1.731294 2.2733793 1.8472456 -2.2777703 0.78375924 1.4627253 0.10055129
868 0.24219948 2.3269014 -0.663542 1.9502847 2.2824197 -0.98366404 -0.1571401 1.2665554 -0.14928128 0.92508125 2.5660677 1.4271432
1641 -0.18402101 1.0154799 -2.7128916 1.4417822 1.9117177 1.0668916 0.0084929885 1.4701467 -0.72370803 2.4310083 1.0723213 1.0342052
1640 -0.15515271 1.0748042 -2.7205331 1.4201646 1.8724003 1.112739 0.09260036 1.4203556 -0.67765373 2.4786437 1.052281 1.1035855
90 0.013322201 0.20808181 -1.0647063 1.3597428 0.4184525 -0.9919296 1.2095543 0.79937124 0.86470944 -0.36708164 -0.5086654 0.99696916
867 0.21843919 2.3454125 -0.5856074 1.9826672 2.3117068 -1.0192057 -0.24413478 1.2876279 -0.12535593 0.94611126 2.5336988 1.4328129
909 -0.0058712764 -0.3144365 -0.6276192 1.5077503 1.6428266 -1.7924552 2.3299048 1.9184184 -2.2430937 0.81347364 1.4126992 0.12682763
85 -0.01685738 -1.1687512 -0.24482317 0.83634484 1.4635582 -0.57882774 0.7022778 0.36212003 1.224309 0.33486104 -0.14215793 0.9037276
1312 -0.85458213 -0.0058492674 -1.2397413 1.7193594 2.008856 -0.1607518 0.43780884 0.8250945 0.07472826 -0.16004449 0.86444765 0.23150319
51 -1.076635 -0.66855913 -1.0950292 0.29427066 2.629563 -1.0438586 -0.54351133 -0.33179045 -0.16430931 0.72140384 -0.061215315 0.61818564
1290 -0.92542326 -0.14240114 -1.5305297 1.8527132 2.2703216 -0.22783577 0.74417984 1.0787634 0.16939583 -0.26726663 0.8717757 0.1589289
364 -0.6910913 -0.19369188 -1.9700195 1.0754004 1.0702586 1.4600176 0.018806381 0.5879841 1.308213 -1.3520576 -0.034769252 -0.7904085
104 0.3456838 -0.8993914 -1.1139781 1.2194917 1.5955336 -0.7396043 -1.6604002 1.9672546 0.04149696 -1.0922698 -0.026681125 0.13212347
1581 -1.5990303 0.9210616 -2.1972015 1.0358126 1.9926382 0.5740465 0.122688845 0.6076051 -2.9285226 -0.059607174 1.7482284 -0.045478914
179 0.1993549 -0.7780457 -1.0329239 1.1029663 1.6395175 -0.6074328 -1.6556233 1.870903 0.17875142 -1.1193845 -0.12983309 0.09050877
689 -1.1347805 1.7643744 0.39002633 1.2342274 3.2421508 -0.46351495 0.38808057 -0.59993255 -0.86257 -0.1070919 0.8608224 0.05725258
1679 -0.8185368 1.308653 -1.7239511 2.3836708 0.9636053 0.26081887 2.5272572 0.09713939 -1.5594972 0.5778762 1.3901724 1.2960237
480 -1.0905825 -0.5721049 -0.5069459 0.1450202 1.0434383 -0.5278805 1.1513679 0.8430849 1.7578248 -0.9134008 0.54494476 -0.104357906
91 -1.2352923 -0.8380239 -0.19713503 1.5080202 1.8643614 -0.57434577 0.4263895 -0.8327447 -0.688996 0.8345364 0.05244702 0.5724076
236 -0.7890667 1.3251829 -1.8131938 2.348554 0.9945836 0.33645296 2.5299234 0.06352009 -1.5809785 0.5514015 1.4188582 1.2965795
369 -2.0014837 2.3407352 -1.2719216 1.2737999 2.0089264 1.8468859 -0.57735676 1.2428162 0.04998226 -0.07436142 1.364945 -0.14519668
353 -1.032567 -0.094931975 -0.5902106 0.898346 0.7646505 0.17723227 0.67327297 1.695142 -0.5654154 -0.56092536 -1.1039983 -0.17866954
460 -1.9898292 2.279244 -1.2555399 1.299049 1.9869186 1.8286655 -0.5215242 1.2376316 0.06335453 0.0050420463 1.360334 -0.17857994
92 -1.2775902 -0.9005345 -0.19599588 1.501065 1.8825886 -0.60555696 0.3627054 -0.77796245 -0.6493925 0.75704706 0.011569671 0.58530754
370 -1.9790058 2.3405068 -1.2747768 1.2518147 2.0149617 1.7889369 -0.53470314 1.1914619 0.0858336 -0.054835968 1.3211128 -0.11074784
10 -0.54447645 -0.77321917 -0.7298958 -0.019873828 1.1916003 -0.9652117 0.8989979 0.72232187 1.4421369 -0.94114506 0.13925147 0.10014934
84 -0.7310731 -1.3506852 -0.31843558 0.66840833 1.5234896 -1.1812097 0.33685905 0.006011089 0.42063063 0.67590004 -0.068518884 0.90072614
153 -0.48115236 -1.203356 -0.63903916 0.42419785 2.677341 -1.250243 -0.016971486 -0.24891043 -0.67600006 0.31904176 -0.1591145 0.20287433
208 -0.49469048 -1.1300724 -0.67829096 0.39051494 2.7605932 -1.2065684 -0.10147847 -0.28044865 -0.5996483 0.36100918 -0.2474213 0.076171435
1722 0.36308905 -0.12794033 -0.84263355 -0.27752206 2.218823 -0.6936463 0.531873 0.34608936 0.45613986 -0.20024484 -0.0733072 0.8414485
1366 -0.20700088 0.4880082 -1.3963555 0.9720652 2.0442147 0.6656457 1.0054405 -0.6613454 0.4317188 0.5040571 1.8463341 -1.6109076
1678 -0.69193244 1.2990744 -1.7808084 2.3988369 0.95868677 0.23816898 2.46117 0.10627213 -1.5655931 0.5881014 1.3947941 1.3216065
469 -0.5961176 0.3907345 -1.0572277 0.9035247 2.3351827 0.37803167 0.8925113 -1.1193419 0.036542982 0.71376896 1.5575529 -1.3572308
806 -0.25053978 -0.22267465 -0.90443206 2.015623 0.7331859 0.43906003 0.82225204 1.8591453 -1.6233532 -1.4667871 -0.6355992 0.12330681
458 -0.6258219 -0.9915341 -1.0542601 0.6684708 2.9321938 -0.60029596 -0.08599501 -0.56496906 -1.340364 -0.56596357 -0.51716757 -0.19117112
802 -0.2967106 -0.2920643 -0.96779853 2.0250576 0.7510527 0.41174826 0.8790598 1.7564288 -1.791708 -1.5038434 -0.6441748 0.2114614
456 -0.9018367 -0.5867942 0.43576717 0.73701143 1.5732756 0.54066867 -0.36537567 2.1946752 -0.18256857 -0.564683 0.74076384 -1.026438
363 -0.46135414 -0.25624517 -1.9463956 0.99351954 1.0567279 1.4213678 -0.2523323 0.5929484 1.3671331 -0.8329544 -0.17459469 -0.70895994
862 -0.64996034 -1.1407692 -0.93851715 0.46629572 2.5114853 -0.76294327 -0.14236626 -0.56570965 -0.87491673 -0.10930076 -0.42975113 -0.06719121
211 -0.53049016 1.1546018 -0.95415777 1.7524533 0.7262808 -0.75212735 1.2306241 0.5014962 0.9840987 -0.45680314 -0.81721944 1.1549687
1875 -0.7390183 -0.022768198 0.3564791 1.6326618 1.6279005 -0.33711872 0.4332306 -0.3584119 0.8498579 0.3285812 0.7549023 -1.3166708
293 -0.67332095 -0.28105822 0.6493517 0.62512904 1.6840498 0.13139471 0.02957866 2.2217865 0.012754032 -0.6494175 0.4686481 -1.0520486
507 -2.129889 -0.105950974 -1.8026557 1.1925111 0.42300642 -1.1538848 -0.19836989 1.7120197 -1.3528693 -0.5188772 -0.414007 -0.6777909
690 -1.1459217 1.9714177 0.3192593 1.1420163 3.2893832 -0.3976518 0.33470288 -0.38339767 -1.0258316 -0.38038638 0.9132656 0.32277146
376 -0.056654 -0.6258877 -0.94764775 1.1661335 1.2570169 0.6850634 1.2113595 1.1485224 0.4545478 0.72485965 -1.0756305 -0.72658443
1284 -1.1910281 1.9384468 0.51833284 1.2588056 3.2770946 -0.48583093 0.41398212 -0.43976286 -0.8925341 -0.2907906 0.9634789 0.24640395
546 -0.7732157 -0.6034735 -1.257268 0.50073916 0.0036664563 -0.6314424 0.8135082 2.2935667 0.48806316 0.5463246 0.687333 0.60678214
270 -1.633243 -0.6422636 -0.08993779 2.1453176 1.1290439 0.20053339 0.20115557 0.22354646 1.2881219 -1.5828196 -0.6287953 -0.03321951
453 -0.28836226 0.8550248 -2.3653815 1.5724453 0.37201065 -0.66590726 0.8147711 0.13178678 1.3516653 -0.14250943 -0.10375118 1.2267576
133 -0.4581866 0.20676653 -0.5487752 0.9492268 1.5449485 0.2620892 0.7159527 -0.30968824 0.7456754 0.37750027 1.2834482 -1.6740493
108 0.32335275 0.32666206 -1.0172758 -0.7011043 2.6233923 0.02426298 1.1404428 0.4086523 0.049634025 -0.60556287 0.4236824 0.9592646
61 -1.1932319 -0.66838294 -0.26344153 1.2011019 1.8911291 -0.87503797 0.29929882 -0.56190044 -0.5908531 0.84335995 0.15537502 0.7925288
1289 -1.5960722 -0.51863974 -0.18951397 2.1468112 1.1880412 0.30119812 0.21917179 -0.10470363 1.3562644 -1.7589369 -0.43974593 0.039318573
1479 -0.31638998 0.8106411 -2.3173926 1.491277 0.4280099 -0.60944057 0.7610985 0.1373989 1.3353155 -0.18999189 -0.13777514 1.2324315
113 -0.7680592 -0.35500532 -1.2776883 0.6623426 0.88663 0.35005376 0.8910205 1.232798 0.5325734 -0.22989932 -1.2598664 -0.39267868
1682 -0.54323435 -1.1046717 -1.6918672 0.34849036 0.33155897 -0.3404445 0.35036474 1.8481371 0.7143782 0.5468291 0.3151682 0.6858579
83 -0.18195464 -0.8494074 -0.2813487 0.9029958 1.3819702 -0.82024616 0.8420374 0.44629607 1.2449803 0.42372647 -0.23897052 1.044396
1204 -1.0130944 -1.0850257 -0.80880475 0.5571348 0.9223343 0.49815837 0.8311273 0.96644914 0.83493626 -0.12170216 -0.7597183 -0.19916831
306 -1.3025779 -0.13051012 -0.9860963 0.8541745 0.75107926 -0.18657824 0.5628818 1.7981321 -0.84100807 -0.41263267 -1.1430429 -0.5172804
138 -0.9630601 -0.69558233 -0.879333 0.060205657 1.2844927 -0.830359 1.1517483 0.57796293 1.9291259 -1.1254063 0.3049518 -0.015025242
26 -0.45454302 -1.0522537 -1.722122 0.5415473 0.28882372 -0.33897805 0.37550768 1.8955222 0.71302146 0.4137366 0.28065893 0.6687759
594 -1.0375326 -0.5704577 -0.59343725 0.47640628 0.7649874 -0.45025167 1.4830241 0.82531285 2.000038 -0.8201627 1.0721471 -0.3085996
231 -1.1583375 -0.45578057 -0.7747185 0.29888156 0.9087894 -0.5097349 1.427841 0.9054625 2.1848094 -1.0552531 1.0558795 -0.25965112
419 0.010119473 0.7405269 -0.37586835 1.4694179 0.73901916 -1.073718 1.1908315 0.8402324 1.0356643 -0.14169152 0.8624028 -1.1101987
1491 -0.9015656 -1.0615678 -0.85990715 0.5295405 0.8176663 0.26503783 1.0568913 1.080777 0.97716355 -0.039721105 -0.6759411 -0.15263489
362 -0.108075134 -0.069820285 -0.20054677 1.4205241 0.7800486 -0.7575231 0.7011334 0.64755106 1.408967 -0.04005983 0.6930326 -1.0792565
459 0.16526262 -1.6168834 0.079751655 1.3733938 1.3756441 -0.1300964 0.9833018 0.5780187 1.4201763 0.40713045 0.43889475 1.4652075
1670 0.05180497 0.10873773 -0.0753227 1.4897908 0.47313902 -0.91788167 0.3891052 0.92792404 1.5129555 -0.24795078 1.5033002 -0.6018713
514 -2.5600684 0.4294527 -0.5440844 1.7108026 0.6141013 0.09556538 0.5375426 0.94900787 0.06776286 1.486386 2.179196 0.6986365
921 -0.12262837 0.400238 -1.2971703 0.95650905 1.8692749 0.5122163 0.9779721 -0.6892129 0.526114 0.5533688 1.7320406 -1.581392
1192 -1.0407007 -0.29441634 0.5869943 1.0015345 1.6623915 0.662399 -0.53175586 2.1970444 -0.2371967 -0.59121656 0.64788055 -1.1640204
1684 -0.4700464 -0.26826206 -0.7288935 1.8840749 0.72846496 0.46959093 0.82011324 1.8862903 -1.7007909 -1.3668882 -0.47244376 -0.06595007
1362 0.044133592 0.5722212 -1.2227776 1.3079342 0.5697628 -0.46424806 1.4629223 0.486287 1.2158027 -0.56816554 -0.3591403 0.6968408
568 -0.5420269 -0.9177637 -1.3126556 0.62539357 2.9946668 -0.4315745 -0.16752686 -0.396926 -1.4659802 -0.4649135 -0.55343693 -0.2670144
1016 -0.840966 0.44456238 -0.5512212 0.96776205 2.496732 0.33340898 0.66657865 -1.1465975 -0.46276143 0.55686545 1.3469484 -1.1475469
2679 -0.10921913 0.39619753 -1.5978544 0.83182955 1.9152172 0.8166579 0.90637684 -0.55095667 0.264526 0.4627846 1.9412302 -1.4854803
857 -0.40491483 1.2875426 -1.1190468 1.7341179 0.6731905 -0.8185089 1.2057241 0.4930034 0.852669 -0.4529879 -0.58512634 1.2900604
559 -0.3081131 -0.2332862 0.1633912 0.93623877 1.2343 0.6389972 0.007588495 2.5921137 -0.36320767 -0.53045386 0.013535727 -0.3202305
403 -0.61618 -0.039205913 -2.0769649 0.90590614 1.3961036 1.6268868 -0.18543413 0.356785 1.0662848 -1.3682972 0.07261 -0.7307831
887 -0.5964957 -0.18419555 -1.9178478 0.8698114 1.1426526 1.4962405 -0.28069815 0.46881273 1.2009443 -0.86435205 -0.17809933 -0.53178376
411 -0.20634617 0.6809731 -1.0143254 1.275305 0.6236272 -0.7721575 1.6477836 0.48270857 0.89630795 -0.22017407 -0.5356118 0.7996204
1685 -2.0499287 -0.05674777 -1.7914573 1.1186078 0.4111677 -1.1589559 -0.19426031 1.5495479 -1.5011746 -0.54407805 -0.17808118 -0.47975555
289 -0.605004 -0.35507736 -0.014734096 0.681641 1.020456 0.31757498 0.17883368 2.2556643 -0.33618176 -0.9873273 -0.27451625 -0.079001084
52 -0.9970649 -0.7269503 -0.9429136 0.40907544 2.3123536 -0.84384245 -0.34932256 -0.40741745 -0.64558315 0.6670972 -0.07251436 0.76855487
468 -0.18158509 0.46414 -1.3226969 1.0132502 1.7502822 0.50297415 0.9260485 -0.6980981 0.37742114 0.47347197 1.6827804 -1.4613239
2333 -0.94497895 -0.37673062 -1.3139137 0.23688255 0.69960433 -0.33298364 0.14959447 1.5562191 0.030638656 -0.94030374 -0.73096037 -0.7405946
2305 -0.57091165 -0.11630952 0.33062693 0.9550756 1.2956203 -0.2774942 0.5110413 0.27312756 0.66525054 -0.13197224 -0.07083146 -1.0701073
68 0.099850565 -0.88205135 -1.2459334 0.51798445 1.3310351 -0.5072709 -1.0202138 1.0820278 0.054482378 -1.6450101 0.487748 0.7217446
213 0.080542125 -0.69416404 -0.1315742 0.781413 1.4502137 -0.5548946 0.81176215 0.35599634 1.3529997 0.10594791 -0.25239563 0.97074264
349 -0.7825166 -0.7020727 -1.4243026 0.5352168 0.025602302 -0.46900886 0.6766754 2.2024915 0.3301788 0.5438365 0.7725484 0.67257357
124 0.38191327 0.5285229 -1.0474846 -0.68654376 2.577231 0.095134586 1.1709299 0.28593713 -0.06970735 -0.5848775 0.558167 0.83098286
358 -0.8981965 -0.09452896 0.5660276 0.73257494 1.6512865 0.36443043 -0.122739755 2.397626 -0.19123901 -0.6240331 0.33257526 -0.9187998
1761 -1.9325604 -0.11476438 -1.4700031 1.078342 0.40013176 -1.0369633 0.11337478 1.6396962 -1.4423444 -0.49402332 -0.46007633 -0.4876723
581 0.18542926 -1.0991908 -1.6028457 0.8720594 1.3238698 -0.5498338 -0.88475955 0.9203101 -0.14719063 -1.8791602 1.0655993 1.0625836
254 -0.58717966 -0.58479077 -0.79290366 0.5248916 0.6487382 0.09987232 0.26768082 1.7107347 0.6403349 -0.9349755 -0.1930603 -0.6352814
286 -1.39581 -0.2879393 -1.2847171 0.72218454 0.62585074 -0.60910636 0.23430288 1.5760626 -0.81364703 -0.9065743 -0.8656809 -0.7219928
1628 -0.42960927 -0.038132936 0.069861695 1.1994463 1.4438219 -0.07612682 0.60670865 -0.13089646 0.76753545 0.13389334 0.856907 -1.6521517
598 -1.2011487 0.18449742 0.59075856 1.954481 1.9979231 -0.29636893 -0.12077723 -0.67256916 0.2829755 -0.041876215 1.0263666 -1.2336202
1128 -0.6721304 -0.45823014 -0.92482203 0.5418124 0.93599004 -0.1400207 0.39574605 1.4753339 0.115152456 -1.2475709 -0.51512307 -1.0207866
570 -0.64781183 -0.5941405 -0.32219037 0.6052026 0.653858 -0.3761498 1.2142045 0.9118727 1.6693274 -0.42531916 0.91899616 -0.53125805
489 -0.971922 -0.17600437 0.5202111 0.91748035 2.3479156 -0.73226786 0.45231777 -0.44187924 -0.35781404 0.37266025 0.6385938 -0.3796613
149 -0.94708043 -0.6779798 -1.2626653 0.22960544 2.3716114 -0.6950464 -0.667065 -0.25639212 -0.46330234 0.7077606 -0.055440232 0.5505036
12 -0.24665613 -1.2959777 -1.2811321 0.08752251 0.752131 -0.15024571 0.16484512 1.7671853 0.5865241 -0.69408363 0.22137718 -0.07761166
1278 -1.0143596 -0.82411814 -0.7084723 0.57356673 2.4739203 -0.77244616 -0.13767754 -0.4787589 -0.8992068 0.32615522 -0.11068043 0.56434596
1698 -0.5629662 -0.82900953 -1.552732 0.17621125 0.2691546 -0.28043815 0.43192062 1.9068507 0.55844 0.25892484 0.4849914 0.48266295
679 -1.4270177 -0.37482458 -1.2140896 0.85371226 0.6661056 -0.41263917 0.31538063 1.6288965 -0.99308866 -0.9665088 -0.7809905 -0.71515477
672 0.44758904 0.30199695 -0.5947529 1.8698181 0.6495682 -1.0494864 0.30383795 0.68950087 0.97412825 -0.20978773 0.83277816 -1.1899512
1288 -1.4957321 -0.5735473 -0.39623067 1.652595 1.2578697 0.52760804 0.04946578 -0.081619166 1.4775723 -1.4328464 -0.3603768 -0.25377283
320 0.1347893 0.4906787 -0.18857816 1.4100379 0.7539094 -0.65423954 1.0492148 0.8940693 1.1980144 -0.02684612 -0.075121276 -0.4826891
1272 0.3191466 0.279503 -0.52681214 1.8584595 0.6407026 -0.94422585 0.21620634 0.7250375 0.9227836 -0.23958477 0.58941483 -1.1755859
29 -0.63345045 -0.927984 -0.9434244 0.4814215 0.6089479 -0.055030387 -0.13065456 1.6288192 0.37018272 -0.94490767 -0.13574918 -0.69455475
1668 0.12807567 -1.5451531 -0.05928746 1.4378927 1.2300439 -0.050737884 0.92176586 0.3855527 1.4444855 0.34584197 0.64567494 1.5511057
1700 0.07518907 0.1905842 -0.062402893 1.5236918 0.41754904 -0.9596621 0.4764385 1.0632831 1.4348073 -0.1870205 1.5590554 -0.66850793
