34 128
34 -0.109373 -0.238088 0.185329 0.074897 0.108348 -0.158262 0.149080 -0.074771 -0.031740 0.053036 -0.059993 0.138067 0.073307 -0.129944 -0.043412 -0.088076 -0.103451 -0.079447 0.072696 0.043531 0.263896 -0.048100 0.217026 -0.022938 -0.115397 -0.024850 0.012349 -0.047778 0.028741 0.112206 0.004368 0.143677 -0.051241 0.061767 -0.098953 -0.059603 0.205061 0.105802 0.011032 -0.031844 -0.200000 0.139870 0.084102 0.039822 -0.047186 0.158639 0.042067 -0.143905 -0.031564 0.056573 -0.072215 0.233569 0.050299 -0.017435 -0.180269 -0.073355 -0.109224 -0.005715 -0.013703 0.029066 0.189709 -0.130628 -0.154905 0.178124 0.008484 -0.231279 -0.033063 -0.158909 0.075755 0.022861 0.048229 -0.036641 -0.085851 0.059219 0.028026 0.006813 0.044917 0.084397 -0.040473 0.064245 -0.104270 -0.137060 0.028312 -0.310001 -0.108945 0.213505 -0.047039 -0.027957 -0.080818 0.006054 0.088372 0.154747 0.118176 -0.013284 0.002396 0.258016 -0.105743 0.033418 0.099757 -0.104409 -0.215396 0.093161 -0.199163 0.026348 -0.021867 0.030124 0.242833 0.038758 0.009022 -0.045319 0.062661 -0.020253 -0.012435 0.025909 -0.036463 0.025254 -0.009398 0.201321 -0.167592 0.060266 -0.026262 -0.176242 0.098019 -0.137873 -0.056907 0.128449 -0.092072 -0.005259
1 -0.075689 -0.330114 0.139885 0.037902 0.082974 -0.174663 0.172976 0.041583 0.152129 0.050500 -0.035441 0.212728 0.059977 -0.149785 0.089798 -0.134775 -0.122640 -0.158828 0.013825 -0.047167 0.273103 -0.080887 0.163973 -0.005280 0.014824 -0.035791 0.001473 -0.032528 0.061289 0.063422 -0.010162 0.150718 -0.045776 0.058776 -0.072532 -0.137876 0.142155 0.088202 0.009377 -0.034356 -0.210527 0.080758 0.130986 0.085619 -0.150007 0.175693 0.078921 -0.159559 0.065607 0.119438 -0.184178 0.201956 0.053531 0.063382 -0.182918 -0.095720 -0.109712 0.009961 0.055427 -0.022695 0.222034 -0.146815 -0.100560 0.108491 -0.051833 -0.068184 0.008420 -0.102169 0.058153 -0.081783 -0.040805 -0.068625 -0.065558 -0.005429 0.114311 0.045428 0.093971 0.005016 -0.060023 -0.168169 -0.125101 -0.032412 0.008631 -0.158614 -0.175277 0.006732 0.084379 -0.059420 0.010034 0.053803 0.160615 0.081325 0.167617 0.011023 -0.122439 0.183322 -0.031590 -0.155967 0.133163 0.053937 -0.114504 0.043604 -0.213450 -0.009209 -0.067630 -0.056286 0.176489 0.035478 -0.013935 -0.086397 0.009143 0.071830 0.014374 0.004962 -0.108010 0.070722 0.055020 0.202714 -0.218510 -0.022896 -0.011044 -0.088302 0.211322 -0.145242 -0.232782 0.005700 -0.029305 0.071661
33 -0.101395 -0.241837 0.174139 0.069062 0.100195 -0.155272 0.144021 -0.055605 -0.007111 0.050165 -0.050833 0.145134 0.067755 -0.127884 -0.021185 -0.086728 -0.107654 -0.082028 0.056653 0.029643 0.254064 -0.048229 0.199486 -0.023744 -0.101561 -0.018479 0.007935 -0.039857 0.034919 0.098360 -0.003162 0.140451 -0.045002 0.064555 -0.097447 -0.070132 0.192261 0.098699 0.007056 -0.028765 -0.194245 0.125640 0.088187 0.042473 -0.057403 0.157834 0.041920 -0.140906 -0.027445 0.056850 -0.086864 0.220399 0.053471 -0.013622 -0.175324 -0.069709 -0.110073 -0.004022 -0.006580 0.022479 0.193323 -0.136215 -0.141587 0.163122 0.004999 -0.204052 -0.023017 -0.146125 0.067014 0.007624 0.040349 -0.040410 -0.074298 0.046754 0.036735 0.016353 0.054163 0.068580 -0.043657 0.034050 -0.094179 -0.126219 0.021689 -0.281622 -0.113425 0.188350 -0.030504 -0.031428 -0.061653 0.008424 0.098256 0.142620 0.114963 -0.012875 -0.006712 0.236248 -0.093749 0.005268 0.097759 -0.081560 -0.189890 0.074089 -0.191199 0.026729 -0.021974 0.014651 0.223150 0.039811 0.007211 -0.051857 0.048468 -0.009131 -0.008171 0.018082 -0.039417 0.032657 -0.005241 0.190290 -0.168566 0.039454 -0.021216 -0.159666 0.105953 -0.131580 -0.066828 0.103434 -0.085519 0.002228
3 -0.088910 -0.270322 0.156814 0.052880 0.089285 -0.159873 0.153890 -0.013732 0.058268 0.049799 -0.039037 0.169934 0.059644 -0.139598 0.028538 -0.110055 -0.108068 -0.116463 0.036412 -0.006696 0.249533 -0.059117 0.172556 -0.011313 -0.040466 -0.025523 0.006693 -0.032017 0.051130 0.084444 -0.006617 0.136994 -0.050750 0.065398 -0.082238 -0.100604 0.167452 0.095335 0.011727 -0.026700 -0.194315 0.099523 0.103437 0.064854 -0.098816 0.162276 0.059264 -0.149942 0.011458 0.086295 -0.126682 0.202821 0.048907 0.025387 -0.179206 -0.082952 -0.107646 0.001060 0.020884 0.002202 0.198353 -0.133428 -0.121693 0.136321 -0.020463 -0.138463 -0.006356 -0.121011 0.065354 -0.034650 0.002394 -0.049870 -0.072659 0.024737 0.075966 0.028695 0.073909 0.039668 -0.044767 -0.057672 -0.109028 -0.077824 0.013991 -0.224814 -0.138511 0.104285 0.024434 -0.045005 -0.031339 0.027776 0.122578 0.114302 0.136270 -0.004107 -0.066857 0.213540 -0.069988 -0.063575 0.114657 -0.019143 -0.159077 0.060376 -0.204702 0.009754 -0.043243 -0.014835 0.197235 0.035623 0.000119 -0.071406 0.034710 0.028488 0.003007 0.014369 -0.074710 0.055359 0.020203 0.203918 -0.192117 0.015316 -0.019427 -0.134699 0.156240 -0.141837 -0.149971 0.061921 -0.056623 0.037119
2 -0.071117 -0.306295 0.141691 0.044719 0.083742 -0.168056 0.166985 0.025437 0.111167 0.050054 -0.038669 0.200343 0.063594 -0.147350 0.069053 -0.127523 -0.122974 -0.133808 0.018453 -0.031720 0.263449 -0.071116 0.169661 -0.011523 -0.010549 -0.029263 0.002955 -0.033299 0.059051 0.070619 -0.005364 0.140950 -0.051411 0.065633 -0.075961 -0.115854 0.153718 0.083184 0.009904 -0.030880 -0.198153 0.093934 0.121052 0.074980 -0.130191 0.169497 0.068701 -0.156536 0.047349 0.101825 -0.162017 0.195424 0.057910 0.053021 -0.185767 -0.090043 -0.106113 0.009884 0.041437 -0.013231 0.214425 -0.140467 -0.110314 0.113857 -0.039047 -0.089666 0.000788 -0.114738 0.059207 -0.063003 -0.027148 -0.062111 -0.063391 0.003637 0.099637 0.046562 0.089305 0.016302 -0.054439 -0.126035 -0.120694 -0.053740 0.005739 -0.183417 -0.158262 0.051135 0.062445 -0.054233 -0.001725 0.042282 0.150778 0.097700 0.156563 -0.001172 -0.107074 0.197406 -0.049007 -0.127157 0.121873 0.029727 -0.127995 0.044802 -0.210980 -0.005770 -0.064215 -0.050031 0.193433 0.039541 -0.013731 -0.081105 0.013682 0.058524 0.011976 0.005664 -0.101293 0.066625 0.043966 0.213276 -0.220768 -0.008816 -0.016434 -0.116711 0.203773 -0.157406 -0.203071 0.031992 -0.038968 0.059528
32 -0.103102 -0.259053 0.168027 0.064138 0.097523 -0.157968 0.153434 -0.052918 0.008773 0.053491 -0.051341 0.158453 0.066755 -0.130295 -0.011793 -0.094868 -0.106013 -0.097576 0.051882 0.025992 0.258504 -0.048853 0.195492 -0.019052 -0.089090 -0.024580 0.004799 -0.037420 0.036945 0.097652 -0.001220 0.144180 -0.043456 0.063244 -0.095213 -0.078199 0.190014 0.104956 0.008734 -0.032312 -0.200498 0.121430 0.088501 0.048786 -0.073415 0.160463 0.049216 -0.139590 -0.015805 0.060942 -0.098196 0.219128 0.049695 -0.001287 -0.175508 -0.078288 -0.108342 -0.006236 -0.002304 0.015280 0.189956 -0.131328 -0.137151 0.160736 -0.008914 -0.189549 -0.023642 -0.136654 0.067250 -0.007519 0.023520 -0.037120 -0.076442 0.038696 0.045798 0.017700 0.052325 0.065446 -0.045486 0.011362 -0.102627 -0.113365 0.024905 -0.265025 -0.122369 0.168783 -0.015469 -0.033252 -0.056407 0.009337 0.102236 0.135650 0.127518 -0.012472 -0.021730 0.229222 -0.086138 -0.008885 0.099298 -0.070761 -0.185357 0.073903 -0.203399 0.017091 -0.024404 0.013914 0.223598 0.036031 0.001287 -0.054815 0.046672 -0.003407 -0.002901 0.020583 -0.045793 0.036757 -0.000548 0.193309 -0.164282 0.034291 -0.023218 -0.153537 0.112978 -0.127685 -0.084645 0.090086 -0.081302 0.015123
4 -0.071797 -0.282466 0.135479 0.040601 0.081494 -0.161355 0.150487 0.024137 0.107502 0.047162 -0.031962 0.188422 0.059917 -0.140581 0.064579 -0.119433 -0.113729 -0.134319 0.023895 -0.028074 0.253727 -0.069161 0.153670 -0.010145 -0.004381 -0.026319 0.003234 -0.027367 0.058308 0.065339 -0.008516 0.133172 -0.049735 0.060871 -0.072268 -0.116654 0.150242 0.087850 0.012899 -0.025785 -0.193135 0.084364 0.117472 0.078042 -0.119962 0.161940 0.068297 -0.154955 0.040483 0.099199 -0.153708 0.188999 0.054485 0.050554 -0.181698 -0.085390 -0.102763 0.005870 0.043154 -0.016803 0.211477 -0.139052 -0.105096 0.114452 -0.032929 -0.086908 -0.002197 -0.107599 0.060909 -0.062220 -0.024883 -0.057238 -0.062519 0.002482 0.100758 0.039781 0.090185 0.020580 -0.053576 -0.115012 -0.113501 -0.053496 0.006994 -0.176446 -0.152923 0.044896 0.065229 -0.055918 -0.002425 0.042492 0.138655 0.088848 0.143019 0.001291 -0.102633 0.189283 -0.051199 -0.120911 0.118515 0.024542 -0.130417 0.045357 -0.198214 0.002343 -0.063395 -0.040853 0.174524 0.033760 -0.012508 -0.081062 0.021301 0.054132 0.009147 0.009786 -0.096728 0.070182 0.038866 0.207348 -0.212169 -0.003462 -0.014198 -0.108455 0.187237 -0.153022 -0.200395 0.030599 -0.034330 0.058122
24 -0.104997 -0.262215 0.183405 0.075448 0.107074 -0.162330 0.158191 -0.061341 0.001554 0.053068 -0.052175 0.151598 0.075221 -0.135079 -0.026384 -0.097026 -0.104017 -0.094830 0.062354 0.034559 0.266428 -0.049528 0.212760 -0.014070 -0.099263 -0.025345 0.002720 -0.052856 0.028712 0.111305 -0.000405 0.146447 -0.046616 0.055920 -0.099954 -0.076389 0.200963 0.103122 0.005207 -0.038363 -0.201826 0.131116 0.087369 0.047545 -0.067670 0.168261 0.040586 -0.136141 -0.015663 0.058503 -0.087964 0.235349 0.046041 -0.005882 -0.172273 -0.072624 -0.104904 -0.005561 -0.009552 0.023139 0.192471 -0.135400 -0.139493 0.173839 -0.010002 -0.209432 -0.027483 -0.144544 0.065697 0.007526 0.034604 -0.033976 -0.089262 0.048387 0.038803 0.009714 0.035609 0.070967 -0.049510 0.031193 -0.105887 -0.118103 0.029512 -0.279300 -0.122856 0.180908 -0.034001 -0.025665 -0.065692 0.012041 0.102405 0.144381 0.136177 -0.011321 -0.004679 0.250877 -0.089896 0.007939 0.107738 -0.085116 -0.205766 0.093321 -0.208639 0.025880 -0.025739 0.024487 0.244686 0.045493 0.007047 -0.048658 0.057090 -0.012875 -0.004747 0.021874 -0.049537 0.024058 -0.000002 0.188138 -0.161420 0.043298 -0.020407 -0.164196 0.109557 -0.132650 -0.071619 0.108745 -0.086708 0.008729
14 -0.088029 -0.269698 0.156443 0.050394 0.090380 -0.154433 0.149466 -0.019403 0.054960 0.051389 -0.046776 0.170177 0.059759 -0.133543 0.023687 -0.103121 -0.105460 -0.111702 0.039358 -0.002728 0.253289 -0.055335 0.175153 -0.010852 -0.048679 -0.024501 0.008814 -0.032662 0.038381 0.085651 -0.001749 0.139271 -0.047353 0.061219 -0.079538 -0.095202 0.165166 0.092516 0.007658 -0.030060 -0.196396 0.103034 0.102548 0.063263 -0.092594 0.161026 0.058168 -0.140919 0.012033 0.084946 -0.123890 0.203653 0.049388 0.022033 -0.171213 -0.080917 -0.107792 0.003533 0.016155 -0.001013 0.194924 -0.135996 -0.116541 0.132110 -0.022779 -0.138357 -0.008208 -0.125199 0.062473 -0.032825 0.000578 -0.045390 -0.074239 0.028532 0.073424 0.027795 0.067182 0.041964 -0.048997 -0.052240 -0.107263 -0.079744 0.018331 -0.214532 -0.137622 0.109394 0.016426 -0.042879 -0.030436 0.024749 0.116930 0.109371 0.133483 -0.002804 -0.058633 0.210033 -0.067960 -0.055150 0.110129 -0.022465 -0.156926 0.060867 -0.196057 0.011197 -0.045878 -0.012102 0.198575 0.038870 -0.005810 -0.065330 0.028957 0.020624 -0.001144 0.014504 -0.064160 0.046610 0.015437 0.189205 -0.181860 0.018208 -0.018038 -0.127303 0.143221 -0.135399 -0.131674 0.059575 -0.059366 0.032483
9 -0.088124 -0.280917 0.151438 0.052656 0.089384 -0.160149 0.158896 -0.011482 0.071199 0.049873 -0.042515 0.179990 0.062803 -0.140157 0.029955 -0.110666 -0.114998 -0.117104 0.034149 -0.004766 0.256460 -0.059913 0.183764 -0.015462 -0.043646 -0.027125 0.002919 -0.043065 0.042558 0.084514 -0.002139 0.146298 -0.048160 0.055231 -0.076792 -0.100834 0.168480 0.093101 0.004213 -0.028118 -0.201307 0.099924 0.105813 0.065485 -0.102368 0.162222 0.061302 -0.148518 0.016199 0.081769 -0.131288 0.207589 0.048946 0.022887 -0.168085 -0.084278 -0.107865 -0.000887 0.023235 -0.003214 0.198834 -0.133481 -0.118981 0.135462 -0.020772 -0.136456 -0.006459 -0.121275 0.061909 -0.035261 0.001071 -0.046579 -0.069454 0.020019 0.077240 0.025635 0.065359 0.042612 -0.054258 -0.058010 -0.104510 -0.074205 0.012023 -0.214371 -0.139867 0.094442 0.024235 -0.041605 -0.031523 0.030582 0.123481 0.105568 0.140162 0.004112 -0.063348 0.198649 -0.057720 -0.067475 0.109801 -0.013223 -0.152316 0.055672 -0.200341 0.007124 -0.044343 -0.019172 0.189953 0.037819 -0.006207 -0.068698 0.032569 0.030186 0.004614 0.009161 -0.071136 0.048255 0.019273 0.194085 -0.185923 0.017092 -0.018741 -0.123439 0.152106 -0.133978 -0.147818 0.060011 -0.054296 0.037884
8 -0.084085 -0.300328 0.157026 0.053740 0.087945 -0.165657 0.167916 0.002192 0.085516 0.053958 -0.044340 0.188554 0.060811 -0.144526 0.048583 -0.121373 -0.114828 -0.128255 0.035245 -0.013710 0.263561 -0.068251 0.178281 -0.015964 -0.028015 -0.026469 0.004154 -0.034961 0.048177 0.081882 -0.006062 0.145892 -0.048700 0.063351 -0.080831 -0.109761 0.170135 0.092039 0.012327 -0.027705 -0.205280 0.101529 0.112172 0.073830 -0.112458 0.171921 0.064281 -0.155799 0.027130 0.097678 -0.145945 0.207257 0.057541 0.036782 -0.183570 -0.087809 -0.113704 0.001760 0.029750 -0.008566 0.208153 -0.143652 -0.117309 0.133829 -0.026805 -0.126898 -0.002478 -0.122565 0.064630 -0.050455 -0.012452 -0.056490 -0.075920 0.016300 0.085942 0.035369 0.075520 0.032223 -0.054636 -0.084999 -0.112626 -0.071285 0.010425 -0.205847 -0.153347 0.084471 0.041900 -0.045819 -0.020290 0.034075 0.136556 0.102930 0.146174 0.001590 -0.080619 0.203404 -0.058780 -0.094692 0.115660 -0.003860 -0.144857 0.054378 -0.213094 0.001121 -0.051085 -0.031934 0.199359 0.032576 -0.007247 -0.076102 0.024008 0.043581 0.006270 0.010127 -0.087194 0.060892 0.028371 0.203563 -0.204998 0.007813 -0.019786 -0.125191 0.178099 -0.144012 -0.169693 0.044679 -0.046382 0.043825
28 -0.101902 -0.245376 0.173532 0.067616 0.097262 -0.148028 0.146522 -0.061602 -0.010038 0.049300 -0.051694 0.145204 0.068470 -0.120671 -0.029604 -0.088793 -0.099939 -0.087364 0.060839 0.037100 0.246805 -0.046924 0.200185 -0.019007 -0.099476 -0.019792 0.003010 -0.041788 0.032007 0.101594 -0.000010 0.141050 -0.041256 0.060377 -0.093775 -0.071018 0.189298 0.099072 0.009214 -0.032657 -0.190611 0.117019 0.083911 0.047084 -0.062510 0.151841 0.035412 -0.133008 -0.024395 0.052939 -0.088302 0.216907 0.050368 -0.014257 -0.160722 -0.070453 -0.105410 -0.007526 -0.014522 0.021877 0.180469 -0.130027 -0.130719 0.163316 -0.002754 -0.199302 -0.026952 -0.137472 0.060924 0.002171 0.030853 -0.030857 -0.082057 0.041194 0.035489 0.011688 0.040540 0.073588 -0.047896 0.034977 -0.100261 -0.123344 0.026579 -0.267311 -0.112597 0.184807 -0.031414 -0.024341 -0.063392 0.009226 0.094925 0.135880 0.119344 -0.015007 -0.003179 0.229401 -0.090184 0.011928 0.098088 -0.083766 -0.193246 0.085396 -0.197960 0.019345 -0.020468 0.024175 0.231702 0.045188 0.005661 -0.050433 0.048870 -0.012403 -0.008554 0.019813 -0.038446 0.022103 -0.005964 0.180497 -0.157057 0.037962 -0.022071 -0.154569 0.098622 -0.120773 -0.068031 0.098761 -0.081981 0.007334
30 -0.101805 -0.249557 0.178576 0.077159 0.100324 -0.155566 0.153981 -0.069205 -0.021399 0.053655 -0.061791 0.143290 0.070438 -0.133080 -0.037959 -0.092777 -0.102407 -0.083290 0.061680 0.042538 0.261001 -0.049357 0.215307 -0.023833 -0.107019 -0.024115 0.011808 -0.045067 0.025678 0.110665 -0.000823 0.139425 -0.047608 0.059882 -0.102195 -0.063043 0.201850 0.105252 0.010025 -0.038695 -0.199075 0.132750 0.087392 0.048522 -0.054188 0.161239 0.041496 -0.144390 -0.029433 0.057741 -0.079962 0.230977 0.051119 -0.019660 -0.172116 -0.070841 -0.113838 -0.003005 -0.012151 0.026622 0.191194 -0.137443 -0.142955 0.175399 0.006215 -0.222599 -0.030999 -0.152984 0.071156 0.010059 0.044098 -0.034728 -0.083516 0.052849 0.033793 0.007326 0.047429 0.081499 -0.043572 0.052824 -0.107868 -0.134766 0.022273 -0.297062 -0.113411 0.207682 -0.044990 -0.025516 -0.075489 0.007230 0.098215 0.145903 0.123326 -0.010430 0.001821 0.251167 -0.102947 0.023739 0.102109 -0.096952 -0.203636 0.088616 -0.203776 0.019851 -0.023525 0.025929 0.243604 0.044130 0.003027 -0.048120 0.052462 -0.022515 -0.012047 0.020099 -0.033303 0.023719 -0.011336 0.192604 -0.164872 0.054283 -0.028997 -0.166638 0.097512 -0.130966 -0.054805 0.117606 -0.084886 0.000791
7 -0.065878 -0.367905 0.128979 0.040115 0.076538 -0.178331 0.197021 0.066770 0.208498 0.049125 -0.027370 0.242176 0.056224 -0.158954 0.130726 -0.146504 -0.136586 -0.188293 -0.008359 -0.070451 0.286926 -0.098257 0.164781 -0.001982 0.051821 -0.053729 -0.010700 -0.049819 0.061978 0.058500 -0.002206 0.162342 -0.043413 0.046959 -0.065528 -0.155650 0.134258 0.088540 -0.002944 -0.033938 -0.222427 0.077351 0.146635 0.092877 -0.182931 0.190271 0.098897 -0.168644 0.093215 0.138744 -0.213296 0.208035 0.056086 0.075247 -0.178651 -0.109357 -0.113117 0.003785 0.085734 -0.035631 0.236566 -0.145681 -0.083122 0.099093 -0.066765 -0.034738 0.019660 -0.091536 0.061554 -0.110702 -0.060049 -0.073118 -0.077374 -0.017102 0.141937 0.056365 0.096379 -0.006936 -0.074295 -0.227863 -0.131054 0.009322 0.006146 -0.113739 -0.192786 -0.051259 0.115819 -0.062911 0.023582 0.071312 0.184298 0.065876 0.190193 0.026360 -0.151663 0.171951 -0.001081 -0.205777 0.142171 0.096045 -0.087270 0.033299 -0.231141 -0.020158 -0.086896 -0.089284 0.157044 0.033490 -0.008262 -0.096104 0.000866 0.107614 0.017337 -0.009633 -0.127391 0.085922 0.073647 0.199508 -0.231758 -0.037631 -0.004598 -0.063458 0.257784 -0.146792 -0.291990 -0.022455 -0.008902 0.093846
6 -0.067607 -0.343136 0.131080 0.044864 0.079905 -0.169861 0.185213 0.054499 0.178237 0.047257 -0.024844 0.222984 0.052784 -0.148830 0.111926 -0.135947 -0.130905 -0.173668 0.003109 -0.060666 0.270949 -0.090376 0.157680 -0.008456 0.035501 -0.048312 -0.004308 -0.049040 0.059552 0.063166 -0.004955 0.147243 -0.038318 0.049046 -0.062584 -0.141015 0.135560 0.091786 -0.003485 -0.035107 -0.208557 0.079581 0.138437 0.080153 -0.166748 0.179345 0.091122 -0.163867 0.081064 0.127750 -0.192273 0.201584 0.049265 0.062978 -0.167663 -0.105428 -0.108032 0.003849 0.075625 -0.036065 0.226600 -0.136736 -0.086872 0.099622 -0.057744 -0.052266 0.010617 -0.095605 0.056429 -0.095747 -0.045214 -0.070523 -0.072304 -0.008287 0.127039 0.048353 0.092328 0.001594 -0.069982 -0.192834 -0.127857 -0.003906 0.009990 -0.128494 -0.174598 -0.030502 0.104264 -0.060967 0.016087 0.060545 0.169796 0.072920 0.176933 0.024646 -0.133672 0.171671 -0.011781 -0.181637 0.138477 0.074819 -0.090674 0.033123 -0.215847 -0.014657 -0.080435 -0.071162 0.159832 0.037023 -0.008929 -0.090378 0.007478 0.090713 0.016079 -0.002418 -0.114039 0.084139 0.067914 0.196364 -0.219284 -0.031099 -0.004049 -0.078150 0.237103 -0.148946 -0.265256 -0.004878 -0.016230 0.076392
25 -0.108788 -0.269352 0.173686 0.067222 0.097168 -0.162063 0.155585 -0.055831 0.021091 0.050643 -0.051178 0.156343 0.069152 -0.127320 -0.013549 -0.100310 -0.101893 -0.103897 0.057286 0.031005 0.265211 -0.054096 0.207410 -0.014784 -0.086562 -0.031282 0.003195 -0.047871 0.028970 0.105466 0.003412 0.148646 -0.040381 0.054713 -0.102249 -0.081593 0.189831 0.108726 0.003407 -0.035273 -0.207295 0.122277 0.089744 0.047397 -0.075979 0.170808 0.047504 -0.136412 -0.009094 0.065638 -0.105527 0.229455 0.052004 -0.003200 -0.174769 -0.079210 -0.104941 -0.009955 -0.005461 0.021346 0.190704 -0.133265 -0.130192 0.162272 -0.016241 -0.192984 -0.022665 -0.138261 0.061399 -0.006157 0.024684 -0.041458 -0.083134 0.043935 0.047660 0.011472 0.038252 0.068477 -0.048807 0.004339 -0.107066 -0.113131 0.026801 -0.269044 -0.128807 0.164545 -0.018822 -0.036541 -0.060512 0.009826 0.105566 0.135126 0.140962 -0.009787 -0.018248 0.238008 -0.082601 -0.008924 0.108759 -0.066201 -0.192210 0.083854 -0.213103 0.022746 -0.024160 0.011877 0.232991 0.044866 0.009093 -0.056553 0.044766 -0.001555 -0.000911 0.017049 -0.052808 0.028372 0.005771 0.181479 -0.161193 0.028253 -0.017240 -0.144426 0.112081 -0.125296 -0.089137 0.093869 -0.083255 0.013321
31 -0.087934 -0.260959 0.163298 0.058910 0.090283 -0.160518 0.151045 -0.032199 0.034088 0.052021 -0.043642 0.166731 0.067958 -0.137499 0.011903 -0.106843 -0.113921 -0.103314 0.046412 0.006048 0.255494 -0.058225 0.181578 -0.012550 -0.060108 -0.022635 0.010235 -0.034083 0.041378 0.087370 -0.005794 0.141661 -0.051696 0.062507 -0.082176 -0.083394 0.172220 0.092914 0.014076 -0.033965 -0.192856 0.113216 0.096349 0.053786 -0.083700 0.160136 0.050731 -0.147392 0.001816 0.076989 -0.114880 0.210241 0.051354 0.011080 -0.172344 -0.078421 -0.103542 -0.003442 0.008736 0.004159 0.196461 -0.132430 -0.128040 0.138587 -0.014671 -0.159722 -0.018050 -0.131933 0.061890 -0.020466 0.013493 -0.048986 -0.072144 0.030343 0.063867 0.022525 0.068288 0.048152 -0.043515 -0.023153 -0.102746 -0.093867 0.013430 -0.239817 -0.127170 0.127918 0.002407 -0.041072 -0.040475 0.018842 0.109337 0.122812 0.131719 -0.006228 -0.049957 0.216254 -0.076977 -0.041568 0.104448 -0.036561 -0.168319 0.064564 -0.194884 0.009657 -0.039454 -0.005642 0.204727 0.038401 0.001331 -0.061366 0.034768 0.013134 -0.004148 0.012162 -0.061253 0.048169 0.009671 0.196965 -0.183935 0.028819 -0.022865 -0.138516 0.133569 -0.140132 -0.117876 0.078382 -0.065893 0.023768
29 -0.091376 -0.258312 0.155830 0.055509 0.092231 -0.155605 0.148616 -0.033981 0.036372 0.049944 -0.044164 0.162496 0.061237 -0.130008 0.008101 -0.101142 -0.109265 -0.106194 0.046435 0.009050 0.251967 -0.056385 0.179696 -0.015404 -0.066787 -0.025819 0.005622 -0.040069 0.040839 0.089360 -0.000218 0.136229 -0.041984 0.057391 -0.088242 -0.084410 0.176182 0.095080 0.010002 -0.034590 -0.188909 0.110785 0.091018 0.050920 -0.079269 0.162178 0.050084 -0.139984 -0.000898 0.072465 -0.111437 0.206995 0.047660 0.009620 -0.172695 -0.072186 -0.100353 0.000551 0.010186 0.010105 0.192310 -0.134640 -0.125562 0.143510 -0.017491 -0.160488 -0.018696 -0.128740 0.063739 -0.015838 0.010709 -0.044111 -0.075952 0.032991 0.059658 0.024650 0.061501 0.050564 -0.046541 -0.022877 -0.105955 -0.090650 0.020516 -0.237810 -0.126342 0.130936 0.004375 -0.040332 -0.041277 0.016148 0.111161 0.115959 0.128449 -0.003632 -0.036393 0.216485 -0.075168 -0.033345 0.103155 -0.044408 -0.166639 0.068852 -0.194933 0.014861 -0.033804 -0.002556 0.201537 0.034840 0.001279 -0.057175 0.039270 0.013295 -0.004224 0.012877 -0.061792 0.037764 0.010109 0.184762 -0.170443 0.023487 -0.020260 -0.135687 0.127523 -0.133495 -0.108886 0.076708 -0.067701 0.020215
26 -0.100576 -0.254604 0.175798 0.067803 0.103378 -0.157729 0.154002 -0.060662 -0.000312 0.049005 -0.053643 0.146487 0.072870 -0.129801 -0.024567 -0.089245 -0.098416 -0.093746 0.057899 0.035792 0.260405 -0.048191 0.207524 -0.015232 -0.097654 -0.027252 -0.000671 -0.049185 0.027718 0.108316 0.003539 0.144645 -0.040299 0.053615 -0.101367 -0.079070 0.192252 0.101302 0.004469 -0.035440 -0.197425 0.117887 0.083620 0.045965 -0.069679 0.164929 0.037481 -0.134731 -0.018015 0.062056 -0.088613 0.226680 0.046051 -0.011136 -0.167239 -0.073969 -0.103761 -0.004413 -0.011377 0.021430 0.188147 -0.134027 -0.133070 0.169346 -0.008220 -0.198219 -0.022693 -0.143721 0.065332 0.002255 0.030287 -0.033968 -0.085988 0.043844 0.041841 0.008271 0.034665 0.071236 -0.049825 0.020773 -0.108160 -0.114694 0.029520 -0.268044 -0.118243 0.178108 -0.031086 -0.027871 -0.063093 0.010582 0.102515 0.138127 0.133935 -0.007027 -0.005349 0.236030 -0.089014 0.004692 0.108343 -0.081397 -0.193905 0.086312 -0.204397 0.024738 -0.022245 0.022100 0.238145 0.045225 0.009297 -0.047529 0.046907 -0.012036 -0.003355 0.023404 -0.041282 0.023734 0.001094 0.175126 -0.150071 0.031783 -0.019780 -0.153515 0.099859 -0.123782 -0.070844 0.099812 -0.083829 0.004329
20 -0.085941 -0.264490 0.151775 0.052897 0.085233 -0.158386 0.152250 -0.015436 0.049045 0.047614 -0.045941 0.163740 0.065522 -0.131483 0.021100 -0.104366 -0.111815 -0.107027 0.037126 -0.004604 0.252514 -0.059598 0.178962 -0.013711 -0.048799 -0.021557 0.010481 -0.035875 0.044445 0.077630 -0.006462 0.134595 -0.045160 0.058341 -0.078055 -0.088658 0.169791 0.087226 0.007189 -0.032988 -0.194216 0.102000 0.097112 0.059121 -0.087514 0.158430 0.059547 -0.141721 0.011840 0.075811 -0.122141 0.199649 0.053113 0.016447 -0.172055 -0.076800 -0.102202 -0.002444 0.013565 0.005008 0.196771 -0.129266 -0.117665 0.134367 -0.018718 -0.140476 -0.011558 -0.120716 0.059919 -0.025070 0.002412 -0.046438 -0.070536 0.023551 0.068324 0.029641 0.069867 0.040618 -0.046065 -0.042045 -0.103346 -0.085022 0.014745 -0.223101 -0.129610 0.113583 0.014172 -0.039941 -0.034137 0.026540 0.117468 0.110701 0.129783 -0.004494 -0.054048 0.204131 -0.064049 -0.056459 0.101883 -0.021567 -0.154596 0.056610 -0.194584 0.013318 -0.042115 -0.011310 0.193554 0.034764 0.000269 -0.060128 0.030069 0.025622 0.000546 0.015238 -0.069155 0.045663 0.020521 0.194823 -0.182278 0.018083 -0.019310 -0.125510 0.144765 -0.139071 -0.129660 0.065307 -0.061437 0.032049
5 -0.072102 -0.326577 0.128643 0.044021 0.081964 -0.165368 0.179673 0.032722 0.154451 0.043089 -0.026848 0.211198 0.051206 -0.139131 0.091924 -0.131256 -0.124885 -0.158420 0.004644 -0.043643 0.264396 -0.077315 0.159502 -0.002852 0.016972 -0.046048 -0.005121 -0.047538 0.051631 0.062609 -0.006386 0.145420 -0.041534 0.050597 -0.063660 -0.130734 0.139497 0.088912 -0.000490 -0.029805 -0.198673 0.081317 0.123310 0.075256 -0.149444 0.171626 0.081568 -0.154008 0.061691 0.111743 -0.174584 0.201079 0.055112 0.046941 -0.163050 -0.100807 -0.104419 0.001734 0.061921 -0.026737 0.210358 -0.136500 -0.088752 0.107631 -0.051635 -0.068011 0.012442 -0.100809 0.060227 -0.081524 -0.036402 -0.064263 -0.072280 -0.007878 0.111894 0.039843 0.080351 0.004295 -0.067780 -0.164366 -0.120528 -0.020522 0.007465 -0.146925 -0.168852 -0.001026 0.082396 -0.050069 0.006476 0.052794 0.157279 0.077995 0.167570 0.019637 -0.117654 0.175980 -0.025571 -0.151275 0.133110 0.059125 -0.109233 0.040830 -0.215310 -0.014961 -0.071717 -0.062905 0.170232 0.033799 -0.010471 -0.084281 0.006798 0.075154 0.013584 -0.005897 -0.104043 0.074579 0.058508 0.194018 -0.204137 -0.019196 -0.007935 -0.082730 0.213243 -0.141207 -0.234011 0.010100 -0.029976 0.072899
11 -0.066754 -0.341999 0.123858 0.038915 0.074163 -0.168506 0.177659 0.063730 0.190011 0.043438 -0.025084 0.224522 0.049109 -0.141069 0.121573 -0.139723 -0.128543 -0.172717 -0.004797 -0.066308 0.265384 -0.090026 0.153924 -0.003711 0.043122 -0.047743 -0.009511 -0.041482 0.056721 0.051762 -0.002777 0.146852 -0.035931 0.043118 -0.057207 -0.138797 0.129514 0.086651 0.000317 -0.024667 -0.198958 0.073429 0.136842 0.083413 -0.169046 0.176124 0.092233 -0.152533 0.079505 0.128284 -0.191979 0.187827 0.051964 0.066157 -0.162718 -0.105140 -0.103945 0.008501 0.071044 -0.034704 0.214400 -0.136658 -0.073374 0.091973 -0.062581 -0.032309 0.013098 -0.087597 0.058774 -0.103149 -0.053532 -0.070208 -0.069542 -0.019463 0.132664 0.052639 0.092059 -0.011281 -0.070008 -0.207628 -0.117814 0.007945 0.004608 -0.110358 -0.180317 -0.042036 0.113077 -0.058166 0.024822 0.062544 0.163830 0.058759 0.173516 0.027188 -0.138197 0.152511 -0.002438 -0.186964 0.131057 0.089848 -0.075748 0.032915 -0.212635 -0.018194 -0.078649 -0.080571 0.150280 0.025922 -0.008648 -0.092022 -0.002180 0.098660 0.013431 -0.009263 -0.115117 0.078570 0.063824 0.190278 -0.213209 -0.040037 -0.002905 -0.066368 0.237768 -0.140275 -0.266155 -0.022951 -0.014988 0.083320
22 -0.075911 -0.274059 0.141985 0.048726 0.084107 -0.156914 0.151093 -0.004815 0.072493 0.048055 -0.041356 0.174163 0.061801 -0.134981 0.040882 -0.110042 -0.111988 -0.117965 0.033805 -0.007965 0.251579 -0.062015 0.171705 -0.010858 -0.035007 -0.024188 0.003996 -0.039492 0.047070 0.079765 -0.004182 0.133737 -0.048542 0.057222 -0.075381 -0.101641 0.153625 0.085402 0.005494 -0.031838 -0.185660 0.093386 0.099197 0.065290 -0.099189 0.162251 0.056557 -0.140149 0.027133 0.084875 -0.134609 0.194872 0.047495 0.028964 -0.166094 -0.080729 -0.099634 0.003967 0.030482 -0.008170 0.196782 -0.128327 -0.110723 0.126788 -0.025303 -0.118854 -0.009724 -0.113468 0.065022 -0.035707 -0.009295 -0.048302 -0.067765 0.015174 0.081045 0.032187 0.067462 0.034666 -0.046087 -0.073246 -0.109905 -0.067355 0.015985 -0.201962 -0.139187 0.078986 0.035756 -0.047448 -0.021690 0.032230 0.126137 0.098902 0.137807 -0.004045 -0.072358 0.197068 -0.058173 -0.078630 0.113755 -0.008467 -0.143750 0.055669 -0.194378 0.006871 -0.047313 -0.022612 0.186028 0.035813 -0.005592 -0.067557 0.029377 0.034391 0.006027 0.012362 -0.078561 0.052437 0.023908 0.193331 -0.192330 0.008688 -0.015403 -0.120683 0.163437 -0.139469 -0.154606 0.051229 -0.048659 0.040773
18 -0.076337 -0.285751 0.140874 0.046376 0.086847 -0.161626 0.154979 0.006641 0.092002 0.054480 -0.040613 0.184934 0.064428 -0.138379 0.050675 -0.117635 -0.114772 -0.122955 0.023226 -0.015262 0.259917 -0.066129 0.173673 -0.010380 -0.021457 -0.025665 0.005416 -0.036063 0.050842 0.076505 -0.004813 0.141681 -0.045438 0.060446 -0.073641 -0.108583 0.153648 0.086696 0.008152 -0.027520 -0.196261 0.100074 0.105137 0.065538 -0.111472 0.167883 0.060857 -0.146411 0.034488 0.091236 -0.142820 0.195718 0.055141 0.041220 -0.175295 -0.080364 -0.103444 -0.000849 0.032843 -0.009028 0.205198 -0.137067 -0.112584 0.120474 -0.026117 -0.110239 -0.003286 -0.116769 0.065354 -0.042516 -0.016137 -0.055023 -0.064832 0.009312 0.088620 0.037150 0.078446 0.029901 -0.049877 -0.091658 -0.115407 -0.058666 0.014904 -0.196544 -0.150296 0.070917 0.045588 -0.048892 -0.020690 0.040036 0.134176 0.096535 0.148280 -0.002825 -0.085600 0.200396 -0.055302 -0.092316 0.118049 0.002182 -0.140219 0.055807 -0.202343 0.004380 -0.052825 -0.032664 0.186906 0.031482 -0.007490 -0.075469 0.022832 0.040013 0.003189 0.007332 -0.083361 0.053694 0.031908 0.192426 -0.193394 0.001639 -0.015911 -0.117092 0.172741 -0.140243 -0.167000 0.039617 -0.049318 0.043836
23 -0.099088 -0.239034 0.165785 0.065575 0.095592 -0.148545 0.145324 -0.053934 -0.000135 0.048967 -0.051572 0.147763 0.066375 -0.130553 -0.022980 -0.089189 -0.106658 -0.086553 0.059702 0.030988 0.250683 -0.050118 0.192370 -0.014920 -0.091334 -0.023831 0.003837 -0.045983 0.028382 0.101006 -0.000516 0.138681 -0.046472 0.056965 -0.094146 -0.070957 0.186715 0.096157 0.006706 -0.030764 -0.190914 0.122347 0.085873 0.044912 -0.057189 0.153552 0.042976 -0.133826 -0.022660 0.057511 -0.083530 0.213968 0.049456 -0.012245 -0.167225 -0.075324 -0.106159 -0.006152 -0.005133 0.016230 0.183694 -0.128108 -0.131344 0.159073 0.002032 -0.194896 -0.021934 -0.135533 0.065661 0.005897 0.035557 -0.037015 -0.071866 0.044986 0.036564 0.011939 0.052873 0.067453 -0.040301 0.030227 -0.092664 -0.114485 0.024335 -0.266717 -0.113404 0.173646 -0.028175 -0.029187 -0.063197 0.005735 0.093975 0.135046 0.113049 -0.007684 -0.017752 0.223225 -0.085701 0.003304 0.094571 -0.070901 -0.185336 0.073705 -0.185077 0.016791 -0.024479 0.012677 0.210519 0.035208 0.006993 -0.048930 0.045797 -0.009032 -0.009619 0.014218 -0.044188 0.032733 -0.005636 0.189584 -0.161383 0.044487 -0.021695 -0.151255 0.101794 -0.133152 -0.072099 0.099189 -0.078623 0.005526
21 -0.105906 -0.245172 0.177497 0.064409 0.096294 -0.157415 0.149989 -0.064741 -0.009551 0.056383 -0.054061 0.148286 0.070608 -0.133224 -0.027433 -0.092036 -0.107444 -0.088888 0.064648 0.032993 0.262381 -0.049976 0.204426 -0.017645 -0.100001 -0.023149 0.009789 -0.043581 0.032307 0.102862 0.002292 0.139434 -0.046760 0.060697 -0.098940 -0.071543 0.193615 0.105512 0.012665 -0.032816 -0.200325 0.130647 0.082555 0.042090 -0.060652 0.162128 0.044858 -0.140741 -0.020950 0.057092 -0.081548 0.226112 0.051977 -0.015522 -0.173666 -0.070136 -0.107638 -0.009132 -0.011471 0.026321 0.187408 -0.131452 -0.139827 0.170521 0.005206 -0.209975 -0.027310 -0.149933 0.064855 0.003378 0.041517 -0.041335 -0.079408 0.048852 0.039979 0.010510 0.048131 0.069726 -0.044295 0.041163 -0.104029 -0.123252 0.021530 -0.287571 -0.118082 0.185787 -0.034099 -0.031601 -0.063704 0.004888 0.099970 0.143591 0.118523 -0.006183 -0.008325 0.237938 -0.096316 0.011686 0.101557 -0.085878 -0.198608 0.079441 -0.198517 0.025985 -0.019269 0.022943 0.229877 0.036931 0.004212 -0.052584 0.056450 -0.007194 -0.009603 0.022060 -0.044507 0.035202 -0.007404 0.195806 -0.168233 0.050581 -0.025529 -0.163232 0.105189 -0.139346 -0.067893 0.111540 -0.080852 -0.000014
10 -0.090323 -0.264635 0.160099 0.059275 0.095093 -0.153653 0.154941 -0.028351 0.041092 0.047280 -0.044661 0.165608 0.062467 -0.131728 0.008802 -0.099530 -0.106418 -0.102108 0.042512 0.008509 0.256005 -0.056279 0.185654 -0.011485 -0.064351 -0.024365 0.007949 -0.040290 0.039827 0.086168 -0.007113 0.135945 -0.045567 0.063577 -0.088871 -0.088445 0.178350 0.090095 0.006968 -0.033650 -0.196233 0.107845 0.101098 0.061564 -0.080762 0.163479 0.055846 -0.143855 0.006360 0.071828 -0.112099 0.210433 0.053803 0.011786 -0.175130 -0.075157 -0.104930 -0.003940 0.006445 0.009116 0.196605 -0.134323 -0.129573 0.145905 -0.013662 -0.157547 -0.016561 -0.132024 0.060779 -0.023978 0.015274 -0.048149 -0.070488 0.030127 0.065500 0.024795 0.062156 0.048118 -0.051066 -0.026052 -0.108869 -0.096335 0.017854 -0.235632 -0.133539 0.131472 0.001296 -0.040461 -0.040473 0.020340 0.117003 0.120957 0.133687 -0.002995 -0.043793 0.219417 -0.075864 -0.044440 0.107920 -0.037895 -0.169725 0.066105 -0.200099 0.014684 -0.040050 -0.005334 0.212885 0.041794 -0.003840 -0.059767 0.041962 0.010549 0.000833 0.014868 -0.061128 0.044014 0.013306 0.199198 -0.182768 0.022207 -0.020364 -0.141814 0.137079 -0.136002 -0.113817 0.073994 -0.066926 0.026892
15 -0.099261 -0.270334 0.170488 0.058071 0.096858 -0.156880 0.157493 -0.039649 0.031992 0.050592 -0.046086 0.164673 0.066518 -0.133914 0.006069 -0.102670 -0.113366 -0.107777 0.045722 0.008880 0.264711 -0.054823 0.193216 -0.015734 -0.073982 -0.025463 0.004071 -0.040572 0.040698 0.091210 -0.003992 0.145675 -0.044214 0.060955 -0.090225 -0.087476 0.180573 0.099789 0.012934 -0.029838 -0.202971 0.115012 0.097526 0.056030 -0.080666 0.168889 0.049404 -0.147900 -0.002665 0.073006 -0.112621 0.218974 0.050845 0.009002 -0.180354 -0.083278 -0.113706 -0.005327 0.009885 0.013213 0.202814 -0.133375 -0.130866 0.149453 -0.011486 -0.167743 -0.015593 -0.137254 0.069631 -0.014040 0.019547 -0.047017 -0.075731 0.031458 0.057126 0.020379 0.062233 0.055998 -0.053146 -0.020316 -0.107609 -0.097054 0.019715 -0.253236 -0.134116 0.139166 -0.002590 -0.041889 -0.046279 0.021663 0.115429 0.129634 0.136174 -0.007929 -0.041673 0.228414 -0.077859 -0.029982 0.111462 -0.045441 -0.174192 0.070790 -0.208517 0.016953 -0.033732 -0.004194 0.220190 0.040867 0.000781 -0.065459 0.042055 0.010176 -0.003289 0.014086 -0.063037 0.047014 0.012529 0.205484 -0.188499 0.030794 -0.018152 -0.150637 0.140780 -0.136440 -0.120048 0.083653 -0.069312 0.024496
16 -0.090162 -0.257574 0.158597 0.058166 0.090137 -0.153519 0.153295 -0.031644 0.036740 0.049149 -0.047024 0.162379 0.061347 -0.126410 0.011314 -0.101683 -0.112160 -0.107957 0.040099 0.004974 0.251254 -0.054595 0.186540 -0.015705 -0.061695 -0.025252 0.006676 -0.041460 0.036817 0.084181 -0.005213 0.138595 -0.045868 0.052758 -0.081558 -0.082594 0.176184 0.090896 0.005465 -0.034178 -0.192918 0.112072 0.097315 0.054298 -0.079399 0.156654 0.055285 -0.137653 -0.001087 0.075591 -0.105029 0.207569 0.049605 0.009517 -0.164593 -0.077112 -0.103968 -0.001667 0.011618 0.003839 0.192670 -0.132429 -0.123198 0.139004 -0.011312 -0.158765 -0.015865 -0.124798 0.061584 -0.021692 0.017768 -0.047610 -0.071784 0.027548 0.062961 0.019194 0.062944 0.047677 -0.050702 -0.020479 -0.099459 -0.092006 0.018593 -0.235273 -0.125750 0.130962 0.003306 -0.033569 -0.040494 0.021425 0.106858 0.120131 0.125178 -0.001296 -0.041230 0.215380 -0.068524 -0.038351 0.103108 -0.043615 -0.160411 0.067865 -0.190191 0.010610 -0.039388 -0.006705 0.201349 0.036275 0.002706 -0.057480 0.037269 0.017103 -0.005790 0.015742 -0.057068 0.045028 0.010909 0.193461 -0.174072 0.023641 -0.019768 -0.134770 0.131529 -0.135981 -0.112322 0.078787 -0.064495 0.027454
27 -0.095747 -0.251577 0.164303 0.062504 0.096528 -0.150047 0.151250 -0.050164 0.001267 0.049904 -0.054327 0.145271 0.065334 -0.122778 -0.019091 -0.093801 -0.100134 -0.092481 0.054695 0.023485 0.255573 -0.048520 0.201002 -0.013148 -0.089059 -0.028620 0.001885 -0.043143 0.027112 0.099797 0.001532 0.135164 -0.044903 0.051178 -0.088733 -0.072795 0.181928 0.095831 0.004262 -0.036158 -0.194601 0.119966 0.083973 0.045381 -0.061413 0.158940 0.049278 -0.134872 -0.015396 0.061415 -0.084696 0.218457 0.044854 -0.005790 -0.164142 -0.074649 -0.103901 -0.004387 -0.000980 0.021964 0.179990 -0.122634 -0.132745 0.158282 -0.002811 -0.190694 -0.025497 -0.133566 0.062724 0.000693 0.028224 -0.033469 -0.077027 0.038793 0.038192 0.008218 0.048243 0.062963 -0.047319 0.023762 -0.101736 -0.110537 0.022567 -0.257749 -0.117643 0.167945 -0.022210 -0.029476 -0.065101 0.011643 0.093912 0.127704 0.122742 -0.005119 -0.015479 0.225329 -0.082100 -0.002578 0.101613 -0.074495 -0.187243 0.077610 -0.190022 0.015421 -0.022874 0.016391 0.221514 0.035530 0.002623 -0.046295 0.049159 -0.004888 -0.007812 0.015105 -0.041736 0.027403 -0.000058 0.184799 -0.162739 0.039449 -0.024675 -0.145457 0.108789 -0.130396 -0.078702 0.100531 -0.077218 0.008228
17 -0.070384 -0.349703 0.133371 0.045496 0.075890 -0.177294 0.189626 0.053464 0.182912 0.051722 -0.027611 0.231114 0.057350 -0.147024 0.107453 -0.136828 -0.132166 -0.177281 -0.000480 -0.055629 0.278326 -0.093840 0.168310 -0.007512 0.036155 -0.045130 -0.006087 -0.046782 0.059827 0.065186 -0.003816 0.154345 -0.039588 0.048102 -0.066028 -0.144954 0.141299 0.091735 -0.000988 -0.030890 -0.213133 0.077298 0.134056 0.086704 -0.166752 0.180238 0.092501 -0.160490 0.076516 0.128590 -0.195547 0.200850 0.054390 0.057666 -0.168691 -0.105904 -0.113023 0.008938 0.074981 -0.035626 0.225381 -0.142315 -0.085504 0.099903 -0.057528 -0.050266 0.012363 -0.098463 0.061153 -0.091623 -0.050576 -0.070651 -0.072423 -0.013854 0.129382 0.052589 0.089057 -0.003211 -0.068283 -0.196483 -0.124428 -0.006922 0.010797 -0.128871 -0.183317 -0.023948 0.103568 -0.060377 0.018300 0.060177 0.164549 0.070823 0.176730 0.026972 -0.135070 0.172072 -0.009724 -0.175438 0.139624 0.078268 -0.094708 0.036490 -0.222209 -0.014496 -0.078315 -0.075303 0.164084 0.030042 -0.012202 -0.085932 0.003551 0.090312 0.018538 -0.004025 -0.113710 0.078462 0.063908 0.201996 -0.220335 -0.032739 -0.003474 -0.071859 0.236409 -0.143180 -0.264992 -0.007171 -0.020915 0.082855
13 -0.077194 -0.279226 0.145542 0.045154 0.083521 -0.156875 0.156043 -0.003013 0.082835 0.051409 -0.042426 0.175859 0.060940 -0.136704 0.043898 -0.110422 -0.114416 -0.122892 0.027586 -0.016346 0.256670 -0.063531 0.166228 -0.010505 -0.033984 -0.028251 0.006973 -0.033211 0.046620 0.075598 -0.006638 0.139977 -0.045032 0.054431 -0.076181 -0.104535 0.159303 0.091749 0.007928 -0.029648 -0.190217 0.095664 0.105895 0.066728 -0.104703 0.164344 0.063372 -0.142465 0.024275 0.090593 -0.137901 0.198826 0.053503 0.033626 -0.172512 -0.084979 -0.107193 -0.000369 0.031978 -0.008764 0.200544 -0.132221 -0.112113 0.120779 -0.024237 -0.117804 -0.007068 -0.116666 0.063398 -0.047149 -0.011775 -0.053366 -0.066670 0.012149 0.081864 0.028570 0.070856 0.029292 -0.054905 -0.083016 -0.106704 -0.066562 0.012287 -0.194758 -0.145321 0.076455 0.039251 -0.045759 -0.022411 0.036102 0.129542 0.096467 0.135160 -0.001977 -0.073206 0.190177 -0.053424 -0.088067 0.107697 -0.000734 -0.133446 0.052439 -0.195638 0.003792 -0.050252 -0.031969 0.186481 0.031425 -0.006753 -0.072385 0.027282 0.036282 0.003762 0.011804 -0.080370 0.051549 0.025345 0.194198 -0.187423 0.003156 -0.014460 -0.110802 0.165577 -0.133142 -0.159113 0.046822 -0.046363 0.045130
19 -0.100741 -0.246762 0.180669 0.065562 0.100827 -0.153383 0.146614 -0.067584 -0.009663 0.052138 -0.057987 0.147143 0.068178 -0.128377 -0.031436 -0.088959 -0.106068 -0.089338 0.066108 0.038743 0.258623 -0.049923 0.203605 -0.015801 -0.102626 -0.018693 0.007529 -0.042641 0.028180 0.102562 -0.000761 0.142190 -0.045450 0.055263 -0.097224 -0.068506 0.188494 0.103676 0.012347 -0.032323 -0.195058 0.124872 0.084216 0.043509 -0.051704 0.160235 0.044012 -0.140537 -0.025803 0.058285 -0.084299 0.223523 0.044836 -0.013772 -0.168756 -0.068807 -0.109975 -0.004207 -0.006933 0.022235 0.186292 -0.133810 -0.137786 0.170054 0.000538 -0.210403 -0.023442 -0.144914 0.064099 0.006308 0.039800 -0.035238 -0.078062 0.049490 0.032825 0.004311 0.049204 0.075611 -0.047229 0.037884 -0.100684 -0.123504 0.024849 -0.283484 -0.115177 0.188070 -0.033008 -0.026882 -0.071031 0.005105 0.092621 0.143415 0.122618 -0.009220 -0.007060 0.240571 -0.096562 0.014672 0.101114 -0.090846 -0.198558 0.086170 -0.200104 0.021445 -0.023068 0.024063 0.230549 0.041265 0.004602 -0.050949 0.051525 -0.015806 -0.008129 0.019224 -0.036514 0.030956 -0.002348 0.194059 -0.165519 0.050511 -0.025646 -0.162926 0.096585 -0.133357 -0.067557 0.110609 -0.088994 0.000056
12 -0.080155 -0.310356 0.142911 0.043205 0.082426 -0.168147 0.165467 0.015321 0.113791 0.053271 -0.033557 0.202879 0.059445 -0.142172 0.067295 -0.121180 -0.124099 -0.140160 0.022978 -0.033257 0.267532 -0.070811 0.171456 -0.011376 -0.010892 -0.035331 0.004120 -0.036673 0.054207 0.071458 -0.003658 0.147376 -0.050915 0.058703 -0.071913 -0.116469 0.151539 0.092173 0.007245 -0.028950 -0.202824 0.091520 0.120874 0.073865 -0.129592 0.174524 0.074695 -0.156300 0.042253 0.103386 -0.162307 0.204963 0.053084 0.041963 -0.180927 -0.094784 -0.107755 0.004588 0.045597 -0.014237 0.215764 -0.137965 -0.110109 0.121063 -0.041009 -0.095762 0.003232 -0.112320 0.066209 -0.058699 -0.020655 -0.057479 -0.068678 0.006436 0.100820 0.039121 0.087008 0.023925 -0.056757 -0.118463 -0.119157 -0.046675 0.007511 -0.182099 -0.162456 0.047521 0.060447 -0.052825 -0.010709 0.041345 0.144921 0.095328 0.154299 0.005760 -0.098132 0.191086 -0.041810 -0.124948 0.126112 0.024916 -0.135219 0.046459 -0.211908 -0.002784 -0.061786 -0.048279 0.185508 0.034067 -0.005529 -0.082992 0.016013 0.056548 0.008661 0.008217 -0.094445 0.068931 0.040449 0.209608 -0.215708 -0.008158 -0.016330 -0.109532 0.197739 -0.144563 -0.204695 0.030818 -0.043852 0.058301
