5003 36
714 -0.374875 -0.0213164 0.239572 0.147022 -0.121563 -0.166223 0.0348835 0.202501 0.103502 0.0135512 -0.0906296 0.0226481 -0.154487 0.209916 0.0327452 -0.0309358 0.147281 0.0785827 0.296388 -0.0794139 0.0722386 0.0240292 0.0995407 -0.113307 0.295267 -0.166594 -0.185884 -0.334202 0.053841 0.132421 -0.149518 0.0172262 0.0268326 0.294664 -0.0646119 0.259145
2 0.152496 0.142716 0.511673 0.642426 -0.558785 0.908575 -0.165646 0.28863 -0.291883 -0.750378 0.042422 -0.216497 -0.339321 0.398667 0.295083 -0.0933445 -0.176884 -0.0427181 0.559267 -0.0922011 -0.250327 0.103786 0.0878071 -0.5079 0.523315 -0.222797 -0.104892 -0.704644 0.253343 0.660229 0.0985388 -0.569564 0.0825271 0.443306 0.00745808 0.753958
434 -0.552502 0.075044 0.642752 -0.161981 0.00840686 0.465898 0.385337 0.315016 -0.313036 -0.516481 -0.183812 0.242978 -0.264338 0.567831 -0.212805 -0.211341 0.165866 0.351694 0.183897 0.0320419 0.281884 -0.0231867 0.576944 -0.318514 0.607337 -0.588644 -0.237183 -0.562679 -0.03994 0.144894 -0.118673 0.224785 -0.20925 0.123125 -0.43572 0.753606
340 -0.442099 -0.0884813 0.663536 -0.258385 -0.0590659 0.844178 0.487717 0.431362 -0.2848 -0.611 -0.0639726 0.066998 -0.28921 0.45845 -0.0922592 -0.175851 0.0905551 0.390135 0.244665 -0.0299718 0.286846 -0.0387394 0.543113 -0.359094 0.592223 -0.85226 -0.390274 -0.636463 -0.200658 0.0723217 -0.0838199 0.236015 -0.357474 0.101738 -0.446466 0.789316
608 -0.631079 0.353474 0.299974 0.109813 -0.0507011 0.0184261 0.0154859 -0.0789845 -0.105107 -0.413797 -0.198222 0.359413 -0.403201 0.215658 0.0153397 0.0557536 0.104922 0.0863862 0.421446 -0.227329 0.156591 0.0115573 0.00997438 -0.10841 0.16817 -0.270891 -0.0558608 -0.611331 0.233438 0.131119 -0.155273 0.25011 0.0465324 0.321458 -0.242786 0.696067
815 -0.582568 0.389488 0.391194 0.146625 -0.0497466 0.0331977 0.0360795 0.000105948 -0.141844 -0.431741 -0.167908 0.35441 -0.417289 0.226584 0.0229633 0.0551039 0.100025 0.105749 0.386293 -0.146965 0.243683 0.0184365 -0.0150788 -0.130395 0.153464 -0.376985 -0.0802854 -0.549018 0.206849 0.0583338 -0.0755786 0.191956 0.00498492 0.353064 -0.253594 0.633708
134 -0.463489 0.607875 0.442963 0.425456 -0.0706827 0.29997 -0.149069 -0.0396588 -0.0655099 -0.716427 -0.164169 0.363596 -0.612511 -0.0023534 0.248791 0.277977 0.0150409 0.0720111 0.793649 -0.272054 0.203144 0.144056 -0.373552 -0.225735 0.0082108 -0.37919 -0.117784 -0.559757 0.23514 0.272217 0.0147156 0.13219 -0.103964 0.489243 -0.267791 0.792431
3486 -0.374971 -0.0987014 0.000624749 0.0918109 -0.197079 -0.428572 -0.131002 0.330243 0.334559 0.0814021 -0.070769 -0.116127 -0.140019 0.178175 0.0651267 -0.0206421 0.0975977 -0.00863275 0.227421 -0.200037 -0.109543 -0.00826359 -0.0663537 0.1343 0.189033 -0.183802 -0.173646 -0.472524 0.189483 0.0950317 -0.269269 -0.0319774 0.0563037 0.38032 -0.00722885 0.293733
53 -0.0149018 -0.414674 0.566301 0.52713 -0.288239 -0.259536 0.0220641 1.04721 0.555732 0.388115 -0.0580478 -0.594877 -0.0887281 -0.0137886 0.0950388 -0.355051 -0.421557 0.00928213 0.252005 0.0518613 0.0813574 -0.0827756 -0.326567 0.00733792 0.356066 -0.366157 -0.519425 -0.485537 -0.175815 0.182128 -0.00354867 -0.739902 0.059562 0.461434 0.334198 0.266909
52 -0.0330784 -0.398373 0.492228 0.589373 -0.302942 -0.284217 0.022208 0.956589 0.52559 0.423019 -0.0247078 -0.632827 -0.139545 0.0287818 0.0884711 -0.343767 -0.397525 0.0844774 0.257335 0.0487598 0.0351686 -0.0108535 -0.315805 -0.0680487 0.337855 -0.401789 -0.489428 -0.401127 -0.211314 0.176105 -0.0592406 -0.711056 0.0988956 0.491698 0.32053 0.218452
397 -0.100666 -0.390136 0.416132 0.42896 -0.218145 -0.108804 0.130548 1.02893 0.342343 0.329979 0.0293024 -0.366215 -0.186128 0.29102 0.165337 -0.0101116 0.20079 0.189651 0.41466 0.145486 0.170798 0.222316 -0.0677565 -0.26051 0.601748 -0.393335 -0.677079 -0.0645495 -0.283506 0.28658 -0.0377823 -0.295319 -0.351861 0.369027 -0.0530764 -0.0436905
150 -0.136605 -0.418251 0.421502 0.448282 -0.25749 -0.195481 0.181142 0.963625 0.36051 0.439541 0.0489751 -0.407877 -0.182631 0.181492 0.165448 -0.024776 0.123152 0.192914 0.41256 0.160556 0.255904 0.143717 -0.103457 -0.208441 0.526996 -0.460495 -0.643743 -0.072301 -0.264464 0.157806 0.00428014 -0.32491 -0.178083 0.436924 0.00159185 -0.0922248
55 0.0867934 -0.273693 0.600276 0.85191 -0.339084 0.0135139 0.286764 1.07416 0.163424 0.460465 0.0940615 -0.363461 -0.448508 0.0244036 0.262652 -0.157401 -0.102749 0.0511553 0.301088 -0.017973 0.322156 0.436662 -0.538802 -0.262689 0.493071 -0.530913 -0.888094 -0.260007 -0.301629 0.0708822 -0.0817271 -0.451015 0.00932987 0.454071 0.302449 -0.0581623
400 -0.12441 -0.290523 0.379368 0.382278 -0.25522 -0.172116 0.105993 0.776115 0.291654 0.243812 0.0222814 -0.314664 -0.122159 0.15969 0.162488 -0.00517622 0.17287 0.176155 0.430726 0.12294 0.155012 0.154997 -0.0358027 -0.196383 0.442924 -0.360833 -0.510902 -0.0394257 -0.184421 0.188578 0.0301766 -0.297617 -0.194149 0.409073 -0.0287983 -0.0270071
54 -7.62771e-05 -0.394806 0.633814 0.577608 -0.383012 0.0526087 0.302133 0.949381 0.326567 0.336389 0.120783 -0.523453 -0.207705 -0.0688527 0.276269 -0.276965 -0.128422 0.244008 0.508121 0.0241449 0.273736 0.174416 -0.346673 -0.220806 0.417583 -0.62746 -0.693551 -0.333324 -0.399455 0.0842761 0.0442452 -0.497502 -0.0170742 0.508386 0.249776 0.0179862
234 -0.403376 -0.308388 0.841507 0.0827766 -0.334781 0.179849 -0.0282392 -0.06505 0.591814 -0.328359 -0.241372 -0.411671 0.0611853 -0.279646 0.253466 -0.258006 -0.0999644 0.504221 1.07499 -0.050349 0.235955 -0.226671 -0.213845 -0.567896 0.243884 -0.475526 -0.0567754 -0.507621 -0.416496 0.0604843 0.217457 -0.624648 -0.232953 0.661781 0.193368 0.100587
430 -0.296154 -0.220036 0.520575 0.160368 -0.266437 0.0616927 0.103767 0.267698 0.299358 -0.0188588 -0.0433078 -0.249715 -0.0185579 0.0280018 0.185084 -0.125569 0.0892173 0.359933 0.714136 0.0514288 0.253976 -0.0612924 0.0704035 -0.364795 0.338114 -0.379479 -0.215343 -0.227228 -0.240889 0.142499 0.104856 -0.280088 -0.0896797 0.470003 -0.0049178 0.0740655
718 -0.303135 -0.285467 0.504809 0.138785 -0.337517 -0.0717991 0.0334355 0.350258 0.42929 -0.0219245 0.0127193 -0.366662 0.0416582 -0.0118277 0.265366 -0.110208 0.149594 0.430307 0.826072 0.0893633 0.241648 -0.082546 0.0359905 -0.389653 0.29461 -0.480196 -0.235115 -0.151518 -0.255753 0.0910131 0.214838 -0.411014 -0.132542 0.580231 0.0385601 -0.000799792
3273 -0.312615 -0.105902 0.325293 0.158228 -0.197841 -0.125579 0.0365737 0.274974 0.231478 -0.0515053 -0.0716389 -0.123127 -0.0909676 0.0902623 0.148064 -0.075204 0.124575 0.200071 0.483403 -0.0193649 0.125164 -0.016262 0.0687996 -0.193707 0.285954 -0.279326 -0.20161 -0.237718 -0.0480525 0.121654 0.00349233 -0.179938 -0.0535857 0.372499 -0.0238898 0.184243
1122 -0.439109 0.158124 0.258958 0.147498 -0.0994344 -0.123393 -0.00725858 0.201491 0.0307986 -0.254596 -0.118233 0.163908 -0.261158 0.186386 0.046286 0.0231804 0.131745 0.0690773 0.32563 -0.119525 0.110969 0.0473709 0.0369178 -0.0706189 0.19762 -0.267114 -0.147417 -0.388565 0.153965 0.0874286 -0.0925788 0.0582748 -0.0322089 0.322152 -0.14571 0.448475
71 -0.369055 0.620569 0.456791 0.384358 -0.0219383 0.406817 -0.316788 0.299386 -0.085688 -0.775349 -0.167145 0.387703 -0.713499 0.0499934 0.330371 0.435721 0.0828877 -0.0664348 0.747594 -0.140865 0.241361 0.118134 -0.46254 -0.0649095 -0.00467773 -0.477616 -0.247577 -0.632703 0.332616 0.26241 0.184799 0.096828 -0.450055 0.464628 -0.3534 0.762999
1382 -0.47062 0.122337 0.257245 0.130801 -0.141392 -0.142216 0.0164929 0.156878 0.0607383 -0.145802 -0.120993 0.123777 -0.26658 0.227074 0.0522271 -0.00199077 0.118527 0.0862206 0.345007 -0.132545 0.134517 0.0232593 0.0291624 -0.0919237 0.23391 -0.263273 -0.159345 -0.45203 0.130834 0.0905504 -0.147695 0.0732047 0.0399978 0.353621 -0.137189 0.403044
1381 -0.478831 0.138845 0.227192 0.147824 -0.0918958 -0.191516 -0.019677 0.153692 0.0849096 -0.166792 -0.131012 0.13646 -0.271741 0.203766 0.0360631 0.00797803 0.118354 0.0698976 0.338403 -0.149898 0.070092 0.0208077 0.0364865 -0.034497 0.230715 -0.235045 -0.132831 -0.45373 0.169971 0.11273 -0.175676 0.0668796 0.0170682 0.333035 -0.117078 0.43527
120 -0.627715 0.551773 0.474194 0.278348 -0.0281361 0.199715 -0.0105396 -0.0728418 -0.16614 -0.594034 -0.225731 0.451611 -0.566708 0.152724 0.105213 0.143795 0.0480931 0.0877013 0.590464 -0.235272 0.246716 0.0738683 -0.135524 -0.19685 0.113653 -0.346427 -0.0626542 -0.621672 0.257935 0.17941 -0.0659996 0.230898 -0.0252345 0.413573 -0.298026 0.781529
907 -0.517321 0.149697 0.243966 0.126698 -0.0995309 -0.152307 -0.000360362 0.154871 0.0581685 -0.145491 -0.128983 0.163309 -0.285934 0.238848 0.0155826 0.0270391 0.133481 0.0704725 0.318007 -0.134896 0.0859822 0.0371993 0.0582687 -0.0528883 0.236879 -0.258353 -0.154844 -0.479736 0.168575 0.0768729 -0.184778 0.121629 0.0349738 0.337164 -0.135544 0.468546
4831 -0.338374 -0.113732 0.10159 0.105585 -0.193021 -0.335578 -0.0689419 0.332704 0.268116 0.0916166 -0.0454243 -0.105796 -0.115391 0.158819 0.0687978 -0.0269195 0.0920939 0.0421964 0.278417 -0.106655 -0.0244168 -0.00972072 -0.00310068 0.0526024 0.212035 -0.217319 -0.181402 -0.359894 0.144679 0.0579739 -0.158921 -0.0800526 0.0327477 0.361784 -0.0123259 0.215764
211 -0.43886 -0.304086 -0.0828818 -0.0106819 -0.0735925 -1.11551 -0.451763 1.09224 0.831095 0.148089 -0.139303 -0.371425 0.0820538 0.246958 -0.00201618 -0.130492 0.120358 -0.0217887 0.132609 -0.116033 -0.438435 -0.216182 0.18296 0.44819 0.167597 -0.197337 -0.251256 -0.437488 0.354043 0.23849 -0.16965 -0.381983 -0.0735173 0.51235 0.0393438 0.617965
2185 -0.213331 -0.134381 0.214311 0.218372 -0.179523 -0.241168 -0.0539245 0.583177 0.268086 0.0606289 -0.00460204 -0.174012 -0.122337 0.183116 0.147908 0.0212319 0.149725 0.077422 0.331628 -0.000538519 0.0390536 0.0408066 0.0116556 -0.0427198 0.275427 -0.308905 -0.329801 -0.208019 0.0143484 0.124308 -0.0251277 -0.17059 -0.103193 0.362625 -0.0388306 0.156175
46 0.0731147 0.106881 0.5821 0.80853 -0.161165 0.233051 0.10277 1.07234 0.029358 -0.509408 -0.134307 -0.129905 -0.472284 -0.129116 0.526241 -0.143463 -0.186449 -0.0278394 0.340789 -0.286946 0.296864 0.278621 -0.54574 -0.441767 0.318668 -0.467716 -0.688342 -0.290755 -0.204596 0.394321 0.18751 -0.526133 -0.324909 0.267509 0.280047 0.447595
1 0.216085 0.293857 0.529964 0.733122 -0.551718 0.756693 -0.224354 0.224994 -0.171457 -0.678602 0.311918 -0.234325 -0.38092 0.601886 0.27676 -0.102642 -0.272794 -0.060555 0.510778 -0.0327406 -0.249148 0.00667449 0.0808116 -0.414967 0.409935 -0.466331 -0.246158 -0.72159 -0.0462699 0.582517 0.148512 -0.555752 -0.054349 0.347396 0.0232536 0.744269
1854 -0.351796 -0.109497 0.0883601 0.127036 -0.195874 -0.342119 -0.0906333 0.414772 0.309932 0.0563463 -0.0273143 -0.14097 -0.134194 0.17188 0.108393 0.0245559 0.14519 0.0318593 0.314097 -0.124368 -0.0232953 0.00624832 -0.0182715 0.0442957 0.219287 -0.255373 -0.244143 -0.389144 0.126413 0.0804211 -0.157459 -0.0871797 -0.00535975 0.397096 -0.00689052 0.255819
257 -0.353435 0.0687389 0.425778 0.0481484 -0.110132 0.10477 -0.0261869 0.137165 0.0385681 -0.450298 -0.196735 0.0648789 -0.161457 0.339452 -0.0511307 -0.185776 0.0652406 0.24682 0.330448 -0.0535937 -0.092117 -0.0374003 0.281292 -0.196272 0.360852 -0.221385 -0.0236536 -0.496822 0.0401596 0.276494 -0.150384 -0.0284023 -0.0992635 0.276682 -0.203477 0.590916
4111 -0.374012 -0.0280579 0.202701 0.0804035 -0.145749 -0.187851 0.0240767 0.236595 0.137444 -0.00576197 -0.0698703 -0.00645844 -0.172987 0.215302 0.0296114 -0.0566884 0.0863708 0.0831775 0.267694 -0.0854705 0.0539158 -0.0092382 0.0381194 -0.0492511 0.238101 -0.226769 -0.15965 -0.38224 0.0976497 0.0649668 -0.137143 0.0111682 0.00835699 0.320794 -0.0769503 0.284442
1198 -0.445586 0.023123 0.182839 0.0569525 -0.131821 -0.223114 0.019781 0.210654 0.0910632 -0.0881756 -0.0981797 0.0376517 -0.192544 0.281173 0.00618812 -0.0495228 0.112669 0.0922398 0.256715 -0.0963813 0.0760573 -0.00546994 0.0759842 -0.0376358 0.253993 -0.263975 -0.13501 -0.439327 0.162321 0.0579322 -0.173633 0.0323318 0.00889714 0.328303 -0.116587 0.35037
4112 -0.399958 -0.00458035 0.152852 0.0802677 -0.161202 -0.194898 0.0172667 0.202315 0.125438 -0.0286119 -0.0602831 0.00895575 -0.192307 0.214091 0.0367342 -0.030676 0.0898495 0.0641287 0.257627 -0.105285 0.0556132 0.0214972 0.025159 -0.0197693 0.218501 -0.239501 -0.157212 -0.41013 0.0974978 0.0575163 -0.177019 0.0331196 0.0497632 0.323246 -0.0784626 0.306196
30 -0.365979 0.344135 0.318707 -0.030858 -0.298343 0.0855723 -0.0926862 0.209136 -0.266535 -0.503177 0.167831 0.0530427 -0.386991 0.557098 0.141482 -0.124849 0.0920991 0.110978 0.141407 0.122963 0.379542 -0.133006 -0.147621 0.0254122 0.161465 -0.813213 0.00317256 -0.803017 0.489938 -0.372788 0.201289 0.0295152 -0.0930087 0.60921 -0.260179 0.300892
963 -0.621045 0.513683 0.467274 0.216342 -0.0403503 0.109137 -0.0140691 -0.0117794 -0.163886 -0.643363 -0.210648 0.411859 -0.47066 0.18241 0.085433 0.0944268 0.0973179 0.122227 0.531532 -0.216046 0.239105 0.0207267 -0.0109823 -0.157557 0.126619 -0.351173 -0.0576708 -0.569792 0.240175 0.156982 -0.0352363 0.188293 -0.0227109 0.407029 -0.305428 0.787816
2834 -0.34416 0.00555424 0.329488 0.139927 -0.139494 -0.0975597 0.0756048 0.278046 0.0880276 -0.114737 -0.101062 0.00622468 -0.182213 0.252568 0.0367228 -0.0823547 0.122595 0.170613 0.340048 -0.0372955 0.0997187 0.0602849 0.07066 -0.181799 0.335831 -0.267826 -0.182764 -0.297842 -0.00538086 0.157542 -0.100799 -0.0452005 -0.0617288 0.304701 -0.122109 0.310292
140 -0.173854 -0.130187 0.662533 0.356725 -0.129193 0.244472 0.238196 0.611365 0.0542452 -0.139466 -0.127111 -0.172807 -0.266167 0.312121 0.0263931 -0.169743 0.115769 0.348305 0.48061 0.156009 0.201698 0.270508 0.0228829 -0.469061 0.577354 -0.410153 -0.423114 -0.0508094 -0.333059 0.386359 0.0140862 -0.240935 -0.388375 0.27856 -0.294847 0.243629
61 -0.0923938 -0.199089 0.356028 0.200707 -0.319602 0.497498 0.191045 0.360037 -0.0885979 -0.324418 -0.180306 -0.512865 -0.51465 0.678311 -0.204784 -0.406919 -0.268361 0.138966 0.211368 0.0151018 -0.0352861 0.528025 -0.563215 -0.461264 0.716708 -0.388203 -0.325787 -0.529092 -0.176685 0.480244 -0.457129 -0.224239 -0.676801 0.255091 -0.434119 0.31724
1389 -0.442072 0.0359155 0.256001 0.149276 -0.142458 -0.141225 0.040021 0.227582 0.0694334 -0.109184 -0.103504 0.0293641 -0.215454 0.271867 0.0354838 -0.0456056 0.124303 0.11069 0.312817 -0.0778684 0.0986996 0.0433004 0.0781044 -0.140285 0.291909 -0.283573 -0.169134 -0.388027 0.0899449 0.122821 -0.144883 0.0113348 0.0105938 0.342974 -0.114705 0.347737
22 -0.344189 0.204811 0.689394 0.511752 -0.147488 0.0494253 0.100695 0.0884381 -0.0304259 -0.404339 -0.18394 0.235812 -0.181822 0.346221 0.121529 -0.118982 0.234585 0.247982 0.627826 -0.118871 0.045106 0.290985 0.363904 -0.61479 0.511268 -0.165764 -0.293896 -0.18484 -0.267657 0.510892 -0.0540291 -0.152363 -0.050544 0.192226 -0.056626 0.463684
114 -0.164341 -0.207958 0.335413 0.178831 -0.0838439 0.375177 -0.0437301 0.410533 0.214716 0.258435 -0.00954418 -0.286612 -0.251149 0.543573 -0.0222054 -0.0521409 -0.0423347 0.0346211 0.394572 0.144467 -0.170955 -0.154384 0.10533 -0.33457 0.543586 -0.0620042 -0.219183 -0.716075 -0.195756 0.572576 -0.273354 0.050601 -0.286916 0.142249 -0.0379299 0.181514
1936 -0.346846 -0.0135821 0.216726 0.110797 -0.143564 -0.151526 0.0110437 0.256156 0.118458 -0.0452081 -0.069939 0.00192839 -0.162302 0.199935 0.0456037 -0.0496601 0.0952322 0.106665 0.258791 -0.0545431 0.0799697 0.0428289 0.0292369 -0.0829399 0.240998 -0.235374 -0.156929 -0.304132 0.0772619 0.0980223 -0.118747 -0.0187084 -0.0060806 0.309814 -0.0813388 0.274001
162 -0.307405 -0.0495108 0.35627 0.204785 -0.150987 -0.0400519 0.0864256 0.299563 0.0988797 -0.136318 -0.107587 -0.0453942 -0.169418 0.301853 0.0332846 -0.0945578 0.115827 0.18512 0.375465 -0.00575619 0.0704043 0.131523 0.121012 -0.291705 0.379483 -0.282889 -0.227014 -0.214042 -0.064974 0.251451 -0.0885929 -0.0974771 -0.136939 0.271497 -0.128563 0.296568
1639 -0.34256 0.0366263 0.381509 0.167827 -0.116446 -0.0610924 0.118679 0.265817 0.018171 -0.136764 -0.116602 0.0459811 -0.185225 0.312468 -0.010646 -0.0981811 0.133223 0.182031 0.305281 -0.003642 0.105394 0.119238 0.149676 -0.236106 0.370691 -0.265404 -0.228632 -0.222694 -0.0234429 0.192451 -0.0799849 -0.0432415 -0.0944709 0.251984 -0.185828 0.342105
24 -0.0184461 0.106699 0.476211 0.861581 -0.386642 0.0939855 -0.0177122 0.10976 0.00187545 0.0921867 0.053898 0.168813 -0.298585 0.410085 0.161966 0.252711 0.405195 0.0278315 0.652722 -0.129428 -0.227695 0.716502 0.12622 -0.468806 0.650624 -0.184307 -0.582483 -0.168008 -0.230595 0.457155 -0.263446 -0.122861 -0.0513355 0.261157 0.0104035 0.0412536
25 -0.206841 0.0394999 0.576779 0.69956 -0.269558 0.182665 0.0725509 0.166844 0.0138351 0.0955408 -0.122762 0.261413 -0.24078 0.299858 0.152102 0.100984 0.449864 0.11561 0.732883 -0.151321 -0.10775 0.52902 0.406798 -0.623952 0.753057 0.19619 -0.534246 -0.205643 -0.353072 0.637921 -0.335234 -0.0597064 0.0349836 0.121919 0.0368142 0.0692618
486 -0.360903 -0.00371376 0.785689 0.624528 -0.147265 0.112305 0.112306 0.216319 0.135956 -0.00781028 -0.204021 0.170807 -0.131947 0.282131 0.120105 -0.053575 0.350622 0.290442 0.880817 0.0150857 0.0671076 0.283126 0.499523 -0.789917 0.716604 0.0460781 -0.434472 -0.0741446 -0.476212 0.691778 -0.0989487 -0.164215 -0.0141153 0.159511 -0.00876026 0.148033
2361 -0.373921 0.0478704 0.436116 0.283976 -0.163896 -0.0543662 0.0856583 0.136459 0.0534223 -0.0459471 -0.1087 0.0995973 -0.156703 0.245381 0.0414973 -0.0552459 0.190367 0.17047 0.480299 -0.0424368 0.119002 0.13944 0.196571 -0.301947 0.413753 -0.144353 -0.238658 -0.254982 -0.0853042 0.240983 -0.118715 -0.0578901 0.0405392 0.277039 -0.0533585 0.214653
252 -0.477685 0.125884 0.511495 0.465266 -0.156118 -0.0321222 0.184558 -0.0687842 -0.0691958 0.0626346 -0.147186 0.295503 -0.229383 0.368491 0.0642015 0.031941 0.329014 0.141066 0.579342 -0.0799595 0.115901 0.291426 0.374388 -0.473414 0.542323 -0.0553865 -0.325962 -0.229246 -0.227364 0.404469 -0.204113 0.105725 0.0433972 0.187093 -0.0902191 0.251703
1644 -0.424682 0.0235862 0.212868 0.123694 -0.117994 -0.248419 0.014403 0.220384 0.11212 -0.0569605 -0.101695 0.0515764 -0.180889 0.250626 0.0374279 -0.0360073 0.151262 0.081597 0.273518 -0.0869359 0.0666769 0.04268 0.114265 -0.0766021 0.27214 -0.235753 -0.191781 -0.35371 0.0898941 0.0923078 -0.140679 0.0310212 0.0179454 0.290658 -0.0942573 0.310821
1831 -0.408531 0.0748519 0.288419 0.0881229 -0.146915 -0.0992998 0.0390265 0.145443 0.00826732 -0.145631 -0.0743911 0.0762178 -0.196236 0.243342 0.00928128 -0.069223 0.108965 0.117084 0.24728 -0.0654388 0.125719 -0.00916462 0.0988975 -0.0986768 0.273305 -0.259584 -0.113208 -0.412525 0.128057 0.0362635 -0.104959 0.0189932 0.056789 0.314348 -0.103843 0.320583
1830 -0.43904 0.0615722 0.227303 0.0968293 -0.149388 -0.183241 0.0202167 0.145788 0.0642228 -0.15133 -0.0996334 0.0822389 -0.177853 0.254338 0.0157932 -0.0619805 0.112279 0.0872391 0.25095 -0.107482 0.0688239 -0.0145021 0.112485 -0.053786 0.240013 -0.256495 -0.12577 -0.435228 0.140851 0.0446731 -0.143937 0.0271769 0.0464728 0.326242 -0.104356 0.369951
256 -0.276757 -0.0228929 0.464354 0.144299 -0.19947 0.217511 -0.0909804 0.0357808 0.0759379 -0.423392 -0.101622 -0.0275406 -0.106419 0.340302 0.045741 -0.149861 0.0629774 0.289244 0.467482 -0.0498564 -0.153857 -0.055235 0.276106 -0.284645 0.354823 -0.229127 -0.0334912 -0.55936 -0.0847644 0.348509 -0.161317 -0.0807676 -0.101708 0.366131 -0.0974007 0.535083
1551 -0.278704 -0.0897129 0.442944 0.295605 -0.16156 -0.176058 0.0636648 0.393702 0.227049 0.000187428 -0.0959583 -0.0442388 -0.0871879 0.189721 0.0932694 -0.0834411 0.209717 0.222318 0.492795 0.0309355 0.0925828 0.0946764 0.214381 -0.315237 0.410757 -0.205517 -0.286938 -0.126869 -0.154228 0.29208 -0.0114396 -0.196167 -0.0507082 0.311049 -0.0333877 0.204595
1970 -0.33735 -0.172781 -0.104327 0.109307 -0.184551 -0.606573 -0.300332 0.549798 0.517374 0.0662534 -0.0766764 -0.21142 -0.0953351 0.184948 0.093416 0.000408066 0.0990999 -0.0606577 0.238499 -0.227 -0.321653 -0.00717336 -0.0567566 0.220907 0.166777 -0.165473 -0.222807 -0.467241 0.249717 0.193285 -0.293127 -0.173259 -0.03865 0.419334 0.031867 0.395826
1339 -0.284948 -0.23388 0.387515 0.22242 -0.305636 -0.123045 0.00641465 0.360285 0.358528 0.0235168 -0.0292152 -0.276804 -0.00846947 0.0419744 0.222057 -0.0577622 0.156233 0.27886 0.678985 0.0159408 0.122008 0.0226325 0.0483808 -0.303142 0.333686 -0.328887 -0.272732 -0.188815 -0.166446 0.169844 0.0712198 -0.31994 -0.104621 0.482334 0.0262539 0.0433639
426 -0.34393 -0.474691 0.574951 0.134545 -0.486681 0.259989 0.10528 -0.0327004 0.568657 0.053617 0.0099449 -0.600346 0.0104215 -0.290275 0.40155 -0.17963 -0.100799 0.487993 1.22152 -0.114099 0.25881 -0.17726 -0.267635 -0.522373 0.267617 -0.426924 -0.191005 -0.511908 -0.431356 0.132585 0.0534048 -0.43716 -0.0442418 0.724511 0.21081 -0.0772586
596 -0.271946 -0.0277007 0.165054 0.090156 -0.120195 -0.124267 0.0144956 0.129028 0.126505 -0.00487347 -0.0653477 -0.0135769 -0.0941606 0.112109 0.0318739 -0.0388684 0.0735915 0.0743121 0.239744 -0.0639624 0.0678363 0.00693145 0.034417 -0.0853455 0.196991 -0.178991 -0.109752 -0.235206 0.0256367 0.0604368 -0.0781973 -0.0276752 -0.00570819 0.245455 -0.0395085 0.176643
235 -0.405866 -0.324284 0.651558 0.0741581 -0.371056 0.0947436 0.0359932 0.0859489 0.525574 -0.169072 -0.0633764 -0.42915 0.0912016 -0.190911 0.352924 -0.208964 0.0026335 0.544278 1.11546 0.00325636 0.262038 -0.199674 -0.0144816 -0.531666 0.25825 -0.500709 -0.116214 -0.380216 -0.373785 0.0980436 0.265752 -0.503614 -0.11047 0.676435 0.144469 0.0438007
370 -0.347893 -0.355705 0.545825 0.161041 -0.387497 0.179639 0.113083 0.159687 0.436285 0.140809 0.0541262 -0.428368 -0.0480654 -0.0903465 0.289592 -0.0898933 0.0828552 0.464388 0.990336 0.0471429 0.293301 -0.100178 -0.110734 -0.456316 0.323727 -0.48518 -0.245821 -0.348365 -0.338546 0.0334843 0.0899005 -0.282078 -0.104997 0.640416 0.0940217 -0.109559
777 -0.322442 -0.123532 0.471451 0.20995 -0.223765 -0.0655237 0.0815875 0.313613 0.224169 -0.0568329 -0.067402 -0.133418 -0.0426029 0.102756 0.16455 -0.102484 0.147699 0.282438 0.572335 0.0342471 0.192723 -0.0102486 0.134722 -0.315713 0.337196 -0.334803 -0.24587 -0.167538 -0.147779 0.160146 0.0901696 -0.237529 -0.0483116 0.401344 -0.0233387 0.162978
741 -0.442862 0.0894971 0.2474 0.127842 -0.141902 -0.108572 -0.0042075 0.163661 0.0964077 -0.157816 -0.0925504 0.0941567 -0.261244 0.163011 0.0641288 0.00686884 0.104096 0.0829793 0.387423 -0.149407 0.106568 0.0335768 -0.0016609 -0.0829999 0.216139 -0.245408 -0.156927 -0.434773 0.115298 0.0994708 -0.128389 0.042077 0.0157751 0.346246 -0.103391 0.37183
69 0.356871 -0.0872573 0.623606 0.307371 -0.247902 0.260467 -0.19322 0.727095 0.196332 -0.435302 0.0500446 -0.374212 -0.226369 0.362543 -0.366744 -0.438381 0.0247636 0.531968 0.111378 -0.0203478 -0.692009 0.373923 0.0489832 0.0434379 0.340836 -0.496966 0.0700583 -0.451265 0.0724448 0.293974 -0.247271 -0.509028 -0.120716 0.530642 -0.345442 0.722507
1350 -0.296815 -0.254227 0.40901 0.180595 -0.311267 -0.0672013 0.0308411 0.319692 0.370844 0.0324828 -0.00243098 -0.292162 -0.00689206 -0.0283327 0.258041 -0.0712181 0.1357 0.297467 0.700438 0.00285891 0.214312 -0.047365 -0.0126189 -0.291777 0.284486 -0.369876 -0.272525 -0.221269 -0.210375 0.0988698 0.105047 -0.327453 -0.0720153 0.512003 0.0697608 0.0210692
1072 -0.337369 -0.0311907 0.220819 0.140637 -0.133606 -0.173453 0.0245459 0.187804 0.124494 0.0244394 -0.0783464 0.00448557 -0.136221 0.17323 0.0379836 -0.0202952 0.143727 0.0965815 0.30089 -0.0497352 0.0797888 0.0323196 0.10005 -0.105251 0.265733 -0.185344 -0.178252 -0.274543 0.01881 0.0973835 -0.111412 -0.023192 0.0121272 0.264805 -0.0404453 0.218242
427 -0.35832 -0.430348 0.577109 0.101707 -0.46927 0.155026 0.12876 0.164054 0.490849 0.127477 0.0646142 -0.54465 0.0248476 -0.169886 0.338594 -0.175727 -0.00181786 0.460657 1.01088 0.054435 0.34049 -0.203123 -0.0909903 -0.435542 0.342729 -0.491148 -0.210034 -0.428396 -0.346097 0.0160425 0.142983 -0.423025 -0.0539693 0.713155 0.137457 -0.137228
414 -0.345828 -0.403793 0.659908 0.102173 -0.389271 0.160531 0.11663 0.234887 0.479588 0.0475991 0.0251548 -0.45553 0.0368414 -0.11084 0.280696 -0.152854 0.0522113 0.522269 1.03217 0.0891298 0.327202 -0.160412 0.00446194 -0.49784 0.346423 -0.541367 -0.239892 -0.297021 -0.377576 0.0481043 0.226733 -0.413469 -0.138047 0.672379 0.0771868 -0.0589835
396 -0.119699 -0.237988 0.460773 0.44541 -0.218573 -0.150661 0.13057 0.837168 0.251438 0.159328 0.0193908 -0.236706 -0.144061 0.186892 0.215806 0.00720282 0.225719 0.186863 0.458856 0.10042 0.199984 0.223836 0.0173443 -0.289966 0.490625 -0.40018 -0.609418 0.0467884 -0.264413 0.220876 0.0725726 -0.303931 -0.234655 0.347851 -0.0417286 0.0138351
65 -0.146434 -0.358762 0.42001 0.417685 -0.295534 -0.235716 0.091696 0.79483 0.408339 0.317972 0.0247628 -0.397635 -0.099759 0.0479422 0.204035 -0.0504996 0.118791 0.232766 0.537542 0.068612 0.179928 0.123154 -0.0957347 -0.202948 0.43245 -0.363921 -0.512428 -0.0869384 -0.216503 0.164646 0.032915 -0.388073 -0.128736 0.489682 0.0377331 -0.0396204
47 -0.0266826 -0.191679 0.442877 0.610295 -0.295191 -0.233882 0.0566938 1.05563 0.2849 0.158647 0.0597984 -0.319871 -0.264005 0.182578 0.233561 -0.0219906 0.101403 0.0842682 0.338802 0.0705952 0.238731 0.336138 -0.33356 -0.184405 0.44723 -0.549132 -0.705447 -0.0795288 -0.182198 0.141093 0.104248 -0.466411 -0.296622 0.481248 0.0546509 0.00201081
677 -0.286599 -0.235822 0.487791 0.186226 -0.231243 -0.0680449 0.0489929 0.460317 0.314825 -0.0410378 -0.0661081 -0.290344 -0.0502882 0.12862 0.162126 -0.148327 0.130254 0.314684 0.614146 0.0796017 0.188074 -0.0215726 0.0487142 -0.339304 0.386411 -0.3807 -0.269728 -0.225956 -0.170852 0.20691 0.0796746 -0.309653 -0.170779 0.452325 -0.0389685 0.124302
2102 -0.383805 0.00804318 0.211495 0.122078 -0.112028 -0.171054 0.0264588 0.216733 0.112807 -0.0714104 -0.0871856 0.023783 -0.190745 0.219934 0.0362626 -0.0248527 0.109172 0.0932932 0.265784 -0.0916566 0.0729564 0.0334847 0.0353699 -0.0615201 0.246262 -0.24821 -0.173639 -0.342028 0.0770906 0.0749302 -0.147485 0.0149414 -0.000246429 0.30128 -0.0874347 0.302441
202 -0.34503 0.0328769 0.42017 0.189497 -0.142109 0.0132315 0.127639 0.289438 0.0153628 -0.163744 -0.114506 0.022464 -0.22664 0.284584 0.0204334 -0.106892 0.148695 0.212153 0.364855 0.00889485 0.175424 0.115151 0.124006 -0.272448 0.390532 -0.307929 -0.2501 -0.248881 -0.0633559 0.180038 -0.0595475 -0.0519618 -0.0971926 0.283905 -0.165801 0.293514
659 -0.499764 0.148704 0.311307 -0.0194808 -0.0792688 0.0503097 0.118393 0.0734993 -0.119274 -0.287443 -0.0892173 0.187531 -0.277145 0.336976 -0.0696723 -0.0756765 0.0795993 0.13895 0.194966 -0.0827273 0.197348 -0.0399594 0.159255 -0.0894739 0.27043 -0.369024 -0.0759567 -0.504897 0.158588 0.00106129 -0.128774 0.160149 0.01778 0.266247 -0.230375 0.486953
1022 -0.169918 -0.122809 0.495264 0.347535 -0.208871 -0.104811 0.0882314 0.699215 0.212661 -0.0707419 -0.0621655 -0.190155 -0.141218 0.185575 0.176076 -0.101752 0.191724 0.228802 0.437759 0.0708825 0.192011 0.1448 0.0413697 -0.313433 0.432751 -0.364921 -0.416371 -0.0293555 -0.152291 0.249874 0.127995 -0.321977 -0.209081 0.385124 -0.0684372 0.143362
76 -0.622737 0.2857 0.457308 0.216932 -0.0951043 0.0817817 0.321528 0.10602 -0.465472 -0.317209 -0.145838 0.20506 -0.342614 0.629546 -0.0655267 -0.183961 0.0653804 0.246572 0.184967 0.133559 0.393539 0.10549 0.219221 -0.472687 0.406603 -0.539968 -0.0427465 -0.377622 0.235066 0.031323 -0.0339597 0.239453 0.131546 0.302225 -0.314693 0.46017
74 -0.581749 0.212622 0.132539 0.515844 -0.256414 -0.0481748 0.357573 0.103855 -0.677666 -0.220565 -0.0115057 -0.189403 -0.357475 0.92704 0.148892 -0.264223 -0.0914916 0.266802 0.184895 0.225849 0.280074 0.413342 -0.155233 -0.878936 0.373607 -0.875685 0.0615834 -0.278852 0.427883 0.0342849 -0.0736494 0.266231 0.288216 0.415289 -0.253561 0.21488
382 -0.48355 0.144425 0.465875 0.190285 -0.125889 0.0742152 0.220469 0.18394 -0.190811 -0.19007 -0.0910676 0.107678 -0.300187 0.468497 -0.0218256 -0.125826 0.0999279 0.216873 0.27851 0.090225 0.304374 0.0660426 0.12994 -0.337211 0.399155 -0.438304 -0.172498 -0.370849 0.0883379 0.0702134 -0.0446709 0.0830261 -0.00762638 0.314223 -0.246833 0.356057
4975 -0.234707 -0.0120821 0.118118 0.0530486 -0.0880772 -0.121253 5.29898e-05 0.131962 0.0785758 -0.0147182 -0.0270928 0.00558773 -0.100066 0.118855 0.0237606 -0.0255816 0.081672 0.0514014 0.191937 -0.0595353 0.0502838 -0.00757124 0.0184923 -0.0249189 0.157075 -0.138483 -0.0880316 -0.220637 0.0485223 0.0354286 -0.0859383 0.00125845 0.0151569 0.207102 -0.0412217 0.14576
422 -0.392134 -0.449416 0.624384 0.105478 -0.458514 0.128155 0.105005 0.127745 0.57983 0.142789 0.0617913 -0.550972 0.0599104 -0.20572 0.36375 -0.150595 0.0119312 0.535047 1.1211 0.0367081 0.360917 -0.253645 -0.0976469 -0.47594 0.272978 -0.547814 -0.187605 -0.406263 -0.368437 -0.0305377 0.179353 -0.427245 -0.016005 0.756267 0.176827 -0.14037
70 -0.0491412 -0.164148 0.450694 0.227927 -0.177754 0.165967 0.0768468 0.549027 0.149061 -0.0320265 -0.00264499 -0.221093 -0.246138 0.251386 -0.113837 -0.135993 0.0883754 0.326698 0.33743 0.0403912 -0.103301 0.181688 0.00413195 -0.148004 0.414655 -0.336499 -0.198862 -0.286801 -0.0755195 0.276766 -0.173616 -0.170197 -0.162485 0.401163 -0.269711 0.321909
329 -0.0569253 0.0619955 0.556701 0.190898 -0.0857077 0.055358 -0.0221066 0.469559 0.0691605 -0.441962 -0.126152 -0.0585979 -0.219749 0.357534 -0.24392 -0.344543 0.135704 0.408717 0.164421 -0.0165783 -0.228659 0.282731 0.071293 -0.160636 0.362624 -0.40681 -0.0167158 -0.324392 0.0265592 0.259851 -0.147155 -0.218316 -0.174163 0.368662 -0.309207 0.567218
334 -0.0775155 0.0514607 0.434981 0.168968 -0.0982749 -0.0646199 -0.0563152 0.60582 0.088719 -0.294051 -0.0293947 -0.0906299 -0.208227 0.363846 -0.178664 -0.221716 0.144842 0.335991 0.134077 0.0663504 -0.1553 0.152348 0.0881452 -0.0247585 0.294723 -0.418838 -0.0421263 -0.273864 0.136083 0.139673 -0.0522222 -0.201758 -0.120688 0.422011 -0.315714 0.509136
2867 -0.338718 0.0178054 0.20215 0.112153 -0.128719 -0.192472 -0.0116463 0.262494 0.107352 -0.104408 -0.0791302 0.0034478 -0.173233 0.218656 0.00111627 -0.0801017 0.106954 0.112405 0.243863 -0.0898472 0.0272643 0.0592186 0.0519682 -0.0380741 0.241276 -0.249437 -0.148774 -0.353952 0.0963055 0.0951603 -0.149003 -0.0122714 -0.0235117 0.315581 -0.0992953 0.33655
103 -0.245635 -0.0807989 0.261262 0.202493 -0.173004 -0.189136 0.0165912 0.390521 0.207825 0.0247699 -0.0399278 -0.116095 -0.137209 0.156869 0.106584 -0.0387514 0.131015 0.113336 0.351262 -0.0463495 0.0618885 0.074817 0.00246266 -0.122543 0.298457 -0.261662 -0.259612 -0.215495 -0.0117264 0.146141 -0.0505434 -0.130262 -0.0546265 0.342211 -0.0344703 0.194457
2675 -0.267468 -0.12337 0.182257 0.17699 -0.172589 -0.262753 -0.0245223 0.450454 0.257806 0.0958622 -0.0293261 -0.128937 -0.13279 0.130219 0.103019 -0.0119711 0.140827 0.0772196 0.309275 -0.0434067 0.0532011 0.0366957 -0.0360844 -0.0392481 0.267166 -0.281041 -0.258612 -0.254951 0.0582259 0.0658383 -0.0641715 -0.117479 -0.0390371 0.377091 -0.0386387 0.165921
209 -0.463664 -0.377715 -0.0933195 -0.0671302 -0.117942 -1.17492 -0.433498 1.09083 0.895082 0.140299 -0.15269 -0.414554 0.122396 0.263799 0.0162114 -0.154365 0.123891 -0.0303506 0.108161 -0.131605 -0.379702 -0.251489 0.142959 0.442688 0.184735 -0.256756 -0.270875 -0.441871 0.350393 0.158674 -0.180382 -0.435595 -0.0931089 0.534917 0.0869149 0.595081
4830 -0.31496 -0.113251 0.0917946 0.120802 -0.186681 -0.302078 -0.0770886 0.368439 0.269652 0.0514186 -0.0515425 -0.143711 -0.126215 0.182198 0.0943244 -0.0185064 0.103938 0.0174103 0.258545 -0.105695 -0.0559934 0.0234118 -0.0365298 0.0422982 0.238081 -0.212148 -0.195779 -0.375798 0.133484 0.105838 -0.164081 -0.0843951 -0.00526032 0.351485 -0.000531314 0.220605
1516 -0.473638 -0.197236 -0.205727 0.00420939 -0.170132 -1.0537 -0.4648 0.765047 0.697493 0.057159 -0.160723 -0.251038 -0.0157727 0.288359 0.0781779 -0.0655253 0.170063 -0.131803 0.115625 -0.261316 -0.40735 -0.0845853 0.0110884 0.386982 0.187986 -0.161544 -0.20611 -0.56616 0.457588 0.161586 -0.270682 -0.266811 -0.051845 0.513701 0.0947189 0.486503
2848 -0.344229 -0.194205 -0.0606054 0.0983994 -0.234376 -0.495303 -0.213679 0.460543 0.451894 0.14589 -0.0310772 -0.207964 -0.139637 0.17264 0.0913022 0.0104512 0.104674 -0.0446703 0.25153 -0.225744 -0.215222 -0.016155 -0.0969246 0.174233 0.205638 -0.171021 -0.221103 -0.515093 0.225606 0.132574 -0.305098 -0.110582 0.0123548 0.420971 0.0369291 0.282801
648 -0.407223 -0.223967 -0.129029 0.0755419 -0.216829 -0.68921 -0.254308 0.593683 0.568401 0.219483 -0.0450385 -0.23043 -0.128436 0.190382 0.103931 0.0549721 0.143205 -0.0683774 0.258198 -0.220258 -0.24129 -0.0393961 -0.0963311 0.28644 0.203267 -0.224396 -0.266792 -0.540816 0.263234 0.115087 -0.33164 -0.0753986 0.00192807 0.491576 0.0324999 0.329488
642 -0.354234 -0.266021 -0.137567 0.0883573 -0.260429 -0.667379 -0.293642 0.584851 0.593753 0.172812 -0.0332434 -0.302985 -0.0933006 0.145576 0.136164 0.0118526 0.105161 -0.0920606 0.264542 -0.269366 -0.265046 -0.0356088 -0.138921 0.268506 0.185294 -0.226786 -0.259186 -0.538839 0.258928 0.10915 -0.308093 -0.168208 -0.0233372 0.502717 0.0782119 0.305028
1028 -0.430215 -0.398213 -0.224652 0.116159 -0.331353 -1.01119 -0.40605 0.861064 0.873065 0.377226 -0.01043 -0.460842 -0.0531417 0.145323 0.190274 0.0395459 0.168369 -0.113936 0.344381 -0.25878 -0.335592 -0.0766912 -0.179349 0.404459 0.220459 -0.218851 -0.354521 -0.569806 0.32014 0.118333 -0.332163 -0.285687 0.0156534 0.653503 0.164207 0.265794
127 -0.275666 0.00089268 0.33004 0.101227 -0.0977211 -0.0208753 0.030693 0.431529 0.0256091 -0.204767 -0.125634 -0.0502451 -0.231347 0.339206 -0.0640803 -0.144851 0.0242607 0.129489 0.189258 0.00882112 0.0333452 0.0635078 0.0757766 -0.0947867 0.345188 -0.300131 -0.188221 -0.319234 0.077822 0.191168 -0.102756 -0.0954618 -0.149929 0.283715 -0.22751 0.449268
518 -0.210608 0.0511401 0.493097 0.175087 -0.0951479 -0.0139059 0.00728472 0.537088 0.0851819 -0.314242 -0.108934 -0.0460187 -0.206942 0.342534 -0.0748162 -0.201778 0.167322 0.301582 0.270237 0.0660631 -0.00911924 0.129749 0.115685 -0.169873 0.34602 -0.397913 -0.13398 -0.247347 0.0115532 0.185227 0.00582656 -0.195452 -0.190368 0.372826 -0.285106 0.453324
191 -0.201796 0.0855366 0.506533 0.48788 -0.216433 0.0542827 0.118724 0.381967 -0.105852 -0.0459839 -0.00776443 0.0486724 -0.291072 0.415432 0.121271 -0.0165382 0.231894 0.155222 0.434569 0.0884726 0.15064 0.285032 0.187472 -0.384556 0.49517 -0.246855 -0.341983 -0.176412 -0.0533326 0.289703 -0.0167243 -0.125762 -0.0890439 0.312397 -0.16976 0.25319
4648 -0.337954 0.00764441 0.191054 0.104695 -0.118122 -0.159536 0.00630735 0.202661 0.0914484 -0.0431827 -0.0573515 0.00543262 -0.151187 0.183797 0.0284488 -0.0435216 0.111083 0.0759377 0.235703 -0.0734213 0.0471423 0.028512 0.0573162 -0.0536121 0.217777 -0.231058 -0.166137 -0.296425 0.0744246 0.0627283 -0.102763 -0.00169487 -0.0133586 0.250248 -0.0587754 0.243443
1112 -0.400487 0.0342597 0.259719 0.1038 -0.14451 -0.186038 0.0169978 0.257578 0.0877276 -0.128739 -0.0981058 0.0247169 -0.178845 0.281731 0.0288158 -0.0450713 0.13927 0.106462 0.294476 -0.0746518 0.0812428 0.0193934 0.104112 -0.0814724 0.290148 -0.287922 -0.164368 -0.381728 0.109699 0.0934277 -0.127863 -0.00144746 -0.0133531 0.317621 -0.12009 0.360058
568 -0.434709 0.0496204 0.252456 0.111805 -0.121857 -0.165443 0.0370076 0.207653 0.091265 -0.130897 -0.127929 0.0452971 -0.194416 0.283156 0.00237523 -0.0799438 0.126196 0.129147 0.269135 -0.0912935 0.0687519 0.0277986 0.0851319 -0.0883023 0.286588 -0.266584 -0.132035 -0.418158 0.102772 0.11638 -0.164476 0.0277705 -0.0130277 0.315463 -0.13674 0.388867
2147 -0.243441 -0.0351376 0.139114 0.0857095 -0.102211 -0.148184 0.00993187 0.208581 0.107863 -0.00618331 -0.0431511 -0.00843812 -0.103935 0.125683 0.0406838 -0.0191919 0.104055 0.0553371 0.212585 -0.0626139 0.0411452 0.0359924 0.0382439 -0.0517093 0.179303 -0.178807 -0.138522 -0.218217 0.0426791 0.0594512 -0.0745651 -0.025507 -0.0240562 0.222177 -0.0413022 0.168526
1245 -0.180664 -0.215955 0.335955 0.381873 -0.208078 -0.249481 0.0526978 0.669256 0.283229 0.174376 -0.0259791 -0.193614 -0.112262 0.154861 0.159633 -0.0078459 0.178164 0.126945 0.42885 0.0396023 0.084016 0.160112 0.0343384 -0.179935 0.417512 -0.246907 -0.443588 -0.0704087 -0.121049 0.218707 -0.00133786 -0.268862 -0.101018 0.377496 -0.024252 0.0602796
58 -0.12186 -0.0770275 0.569586 0.471217 -0.204238 -0.0743414 0.0712398 0.787512 0.162661 -0.113776 -0.0584475 -0.165408 -0.158481 0.174706 0.238627 -0.110013 0.15014 0.198346 0.469893 0.0882112 0.228087 0.188545 0.0252309 -0.331696 0.43425 -0.396382 -0.482108 -0.0175192 -0.170293 0.249118 0.190485 -0.409307 -0.240641 0.395529 -0.0349821 0.16728
2864 -0.417256 0.0463422 0.227353 0.0542538 -0.120357 -0.111043 0.0651767 0.168972 0.0205526 -0.123585 -0.0822971 0.0607527 -0.196362 0.251022 -0.0110312 -0.0739854 0.0966513 0.0925269 0.219563 -0.0595718 0.125577 -0.016084 0.0856005 -0.0583236 0.252024 -0.287431 -0.123318 -0.422495 0.149629 0.0229231 -0.115305 0.0461875 0.0129202 0.306042 -0.115365 0.346309
2748 -0.407821 0.0352683 0.271032 0.0705488 -0.15941 -0.131538 0.051374 0.204654 0.03526 -0.0920028 -0.0717109 0.0389761 -0.187667 0.251314 0.0336053 -0.0488982 0.123444 0.123278 0.267526 -0.0268847 0.16505 -0.0245169 0.0719042 -0.0623477 0.261125 -0.313143 -0.15334 -0.40605 0.129444 -0.0103762 -0.0644631 0.027458 0.00873052 0.324924 -0.129846 0.289966
368 -0.55027 0.245852 0.370684 -0.038304 -0.186562 0.0446634 0.175125 0.118899 -0.28566 -0.283376 0.0205091 0.187434 -0.310104 0.528635 -0.0634225 -0.132822 0.0702914 0.156005 0.0853345 0.0412564 0.342037 -0.118065 0.206748 -0.0410432 0.30747 -0.555922 -0.0492105 -0.653841 0.301362 -0.23831 -0.043827 0.170373 0.0820761 0.39778 -0.256483 0.435654
174 -0.572855 0.316217 0.49007 0.0378855 -0.203396 0.201321 0.241292 0.0303442 -0.415152 -0.425508 -0.00999074 0.310711 -0.336017 0.601609 -0.0870284 -0.177629 0.0979707 0.218301 0.137263 0.0251154 0.334023 -0.038143 0.318108 -0.173114 0.380373 -0.55519 -0.0522476 -0.65803 0.257988 -0.171266 -0.0548866 0.189185 0.119672 0.331922 -0.284688 0.550107
171 -0.489101 0.270137 0.521046 0.00771683 -0.241261 0.195813 0.194155 0.0980879 -0.375068 -0.500299 -0.0492235 0.228162 -0.318498 0.626199 -0.0635754 -0.209015 0.140147 0.215716 0.151586 0.0545846 0.334168 -0.0217568 0.280121 -0.221617 0.428204 -0.560804 -0.0859259 -0.60431 0.199526 -0.109607 -0.00443614 0.0613235 -0.00878375 0.348539 -0.299164 0.488858
66 -0.389749 0.315895 0.543921 0.0174643 -0.438104 0.128459 0.118678 0.140948 -0.431453 -0.691678 0.0922973 0.180818 -0.269538 0.816285 -0.0220702 -0.345834 0.173801 0.290845 0.0714741 0.106081 0.307206 -0.0401218 0.290143 -0.206385 0.43 -0.752043 0.0095568 -0.658033 0.286054 -0.312694 0.155578 -0.0999153 -0.0281321 0.434661 -0.218728 0.346254
193 -0.667601 0.484136 0.381667 0.200235 0.0153277 0.0664842 -0.0129294 -0.106584 -0.105684 -0.492851 -0.240061 0.476089 -0.497494 0.158887 0.0494484 0.155578 0.139057 0.0616982 0.536003 -0.250461 0.167083 0.0535203 0.0224054 -0.113665 0.120242 -0.210741 -0.0641197 -0.565933 0.223354 0.213386 -0.134 0.299993 0.0148169 0.349622 -0.301777 0.759865
2365 -0.252976 -0.051211 0.263616 0.212256 -0.157658 -0.240672 -0.0157888 0.469478 0.225109 -0.0189831 -0.0616947 -0.105827 -0.116619 0.114453 0.124798 -0.0146665 0.144937 0.12105 0.35428 -0.0238417 0.0834123 0.0731223 -0.0305585 -0.101608 0.263893 -0.292993 -0.27587 -0.169683 0.00287734 0.11404 0.00785367 -0.160348 -0.112985 0.337917 -0.0399407 0.165036
4359 -0.373627 -0.0185492 0.255525 0.0849613 -0.116503 -0.128646 0.0301552 0.243264 0.100822 -0.0773583 -0.0949855 0.0114663 -0.171313 0.233953 -0.0028797 -0.0617991 0.104823 0.105135 0.254443 -0.0799316 0.0663553 0.0388127 0.0654522 -0.090683 0.267221 -0.267048 -0.177838 -0.360162 0.049281 0.089772 -0.143454 -0.0199101 -0.0296928 0.27583 -0.0981367 0.306432
2550 -0.329375 -0.00114612 0.192765 0.122583 -0.142804 -0.163044 0.00865807 0.253743 0.103392 -0.0760137 -0.0671431 -0.0143877 -0.165859 0.225714 0.0236074 -0.0431441 0.116342 0.0862228 0.254252 -0.0757533 0.0602761 0.0276905 0.0547489 -0.0715648 0.239537 -0.248181 -0.16303 -0.33305 0.0871491 0.0684251 -0.135115 -0.026609 -0.0164115 0.293064 -0.0903677 0.272374
2549 -0.374557 0.000580206 0.310783 0.151658 -0.142349 -0.0810559 0.0676629 0.325665 0.0781816 -0.126916 -0.118405 -0.0193198 -0.214351 0.299651 0.0074711 -0.0698538 0.12022 0.150426 0.311748 -0.059474 0.0748258 0.0918728 0.0717733 -0.155607 0.352954 -0.289401 -0.230749 -0.365138 0.0104806 0.169516 -0.138042 -0.0212338 -0.106323 0.306402 -0.177599 0.361919
3559 -0.286723 -0.0237098 0.17637 0.120367 -0.129497 -0.174361 0.0148949 0.238395 0.123745 -0.0352008 -0.06668 -0.021312 -0.132313 0.158325 0.0318212 -0.0592564 0.101249 0.0845947 0.220471 -0.0676854 0.045713 0.0329622 0.0225165 -0.0583119 0.222502 -0.204895 -0.149518 -0.258598 0.0460609 0.0903838 -0.0885454 -0.0501078 -0.0202232 0.268034 -0.0714187 0.212353
299 -0.188653 -0.170725 0.33835 0.227758 -0.156974 0.184083 0.149584 0.524213 0.00876189 -0.0536772 -0.0281319 -0.201628 -0.268209 0.402541 -0.00223824 -0.0685469 0.0743812 0.213823 0.32712 0.0538678 0.0326641 0.207368 0.105849 -0.29455 0.51043 -0.347576 -0.375735 -0.197237 -0.124992 0.338894 -0.160579 -0.0753235 -0.25335 0.238173 -0.299298 0.311137
144 -0.216186 -0.217992 0.213245 0.254791 -0.174187 -0.256908 0.010288 0.542021 0.31722 0.239894 -0.00223171 -0.18541 -0.10123 0.134704 0.129164 0.0227446 0.150373 0.112894 0.365307 -0.00150294 0.0781521 0.0778947 -0.04492 -0.0719288 0.307255 -0.24792 -0.354435 -0.153715 -0.0604373 0.11266 -0.0604526 -0.145062 -0.0825046 0.358204 0.0128383 0.0533761
2023 -0.197926 -0.348886 0.35357 0.348016 -0.2906 -0.297471 0.0667199 0.757107 0.45077 0.353958 0.0363934 -0.357222 -0.07283 0.0359418 0.242634 0.013223 0.184538 0.188247 0.545185 0.0512527 0.185814 0.0729498 -0.0746761 -0.156946 0.391705 -0.365556 -0.474968 -0.102429 -0.165268 0.127485 0.0464231 -0.318415 -0.0971001 0.511215 0.0574075 -0.0663792
1327 -0.255979 -0.114563 0.214662 0.209406 -0.210059 -0.239536 -0.00265472 0.45557 0.246433 0.0930531 -0.0190081 -0.141156 -0.11209 0.13742 0.128671 -0.0196803 0.139177 0.097034 0.355679 -0.0380532 0.0919236 0.0404286 0.00658749 -0.065948 0.292401 -0.253116 -0.271684 -0.24026 0.0356911 0.113138 -0.0455028 -0.15028 -0.0351169 0.384841 -0.0215682 0.138793
1166 -0.363967 0.00879576 0.249109 0.133586 -0.145486 -0.189736 0.0263558 0.270269 0.105411 -0.0714941 -0.0997028 0.0268668 -0.17498 0.241035 0.0206338 -0.0520545 0.115703 0.112754 0.283289 -0.0841137 0.0682105 0.0533995 0.0879643 -0.112561 0.278414 -0.242455 -0.18719 -0.328745 0.0504934 0.102609 -0.111087 -0.0223946 -0.00698334 0.296163 -0.101862 0.313163
3444 -0.323765 -0.00435975 0.191968 0.12414 -0.118916 -0.166112 0.00632646 0.219546 0.112087 -0.0338925 -0.0741576 0.0160966 -0.130443 0.167857 0.0340904 -0.051991 0.108271 0.0699059 0.260641 -0.0573978 0.0570489 0.0384962 0.032793 -0.0670185 0.213474 -0.18976 -0.160356 -0.300234 0.0772746 0.0796466 -0.0904685 -0.0402274 0.0199493 0.271179 -0.0534293 0.237108
1156 -0.565511 0.280845 0.269498 0.120621 -0.0674521 -0.0545999 0.0183202 -0.0200085 -0.0217359 -0.294157 -0.186142 0.290531 -0.3404 0.191059 0.0199557 0.0389045 0.0785284 0.0587146 0.36706 -0.221111 0.130758 0.0167352 0.0188559 -0.0653456 0.142203 -0.217833 -0.0662908 -0.530052 0.205504 0.105918 -0.179104 0.205587 0.0781111 0.299387 -0.180524 0.558676
3 -0.254206 -0.145869 0.534002 -0.320275 -0.273819 1.05201 0.356155 0.49936 -0.296615 -0.844559 -0.0218028 -0.0701855 -0.344389 0.45407 0.00925863 -0.245992 -0.00568413 0.193964 0.156271 -0.218529 0.173537 0.0383164 0.272844 -0.311128 0.658941 -0.971241 -0.418154 -0.939918 -0.105676 0.052334 -0.160456 0.125761 -0.553154 0.0947025 -0.337205 0.735699
3854 -0.365467 -0.0153904 0.166911 0.0764842 -0.136735 -0.209377 -0.00215529 0.204025 0.124416 -0.0288946 -0.0441818 -0.01677 -0.164594 0.191436 0.0445772 -0.0360953 0.0845747 0.0735213 0.242047 -0.0829248 0.0676775 -0.00806694 0.020937 -0.0249404 0.211094 -0.243128 -0.13871 -0.364233 0.125148 0.0253839 -0.132972 0.00516641 0.0249334 0.30498 -0.0561163 0.248899
3856 -0.299832 0.0107782 0.177367 0.0769543 -0.107098 -0.0980558 0.0542271 0.169675 0.0456359 -0.0412058 -0.0458952 0.0134936 -0.164614 0.185843 0.0192987 -0.035099 0.0721517 0.0795143 0.223545 -0.0527733 0.0999903 0.0139909 0.0457 -0.0398219 0.188341 -0.215943 -0.122801 -0.306676 0.0880815 0.0210186 -0.0986495 0.0243534 0.00984833 0.264057 -0.0927505 0.230236
3857 -0.370295 0.0416647 0.177162 0.0933566 -0.130594 -0.143828 0.00810866 0.177196 0.0691662 -0.0845687 -0.0782764 0.0535243 -0.158719 0.191505 0.0477032 -0.0336141 0.0966735 0.088516 0.237575 -0.105745 0.0604353 0.0201303 0.0545242 -0.0718809 0.212025 -0.231917 -0.143083 -0.361432 0.105305 0.0635859 -0.115286 0.0217902 -0.00387879 0.287392 -0.078288 0.297662
1518 -0.488942 0.173941 0.315039 -0.0219506 -0.173922 -0.00871684 0.0862904 0.113306 -0.16649 -0.240696 -0.0631497 0.156133 -0.275212 0.395972 -0.0538581 -0.136282 0.0774135 0.128577 0.118832 -0.0231017 0.200203 -0.0631232 0.185915 -0.0558845 0.297226 -0.395781 -0.0462051 -0.597771 0.275844 -0.100253 -0.0989396 0.0970371 0.100675 0.33794 -0.2052 0.446066
237 -0.36486 -0.0940199 0.26483 0.167785 -0.184119 -0.237036 0.00242056 0.348514 0.234666 0.0303188 -0.0463421 -0.0913575 -0.126701 0.188542 0.102948 -0.0313003 0.134558 0.150089 0.392773 -0.0393723 0.0929296 0.0183286 0.0711761 -0.135663 0.2953 -0.267739 -0.246626 -0.302321 -0.00547962 0.108143 -0.0702649 -0.109085 -0.0342854 0.370803 -0.0436121 0.175506
690 -0.290229 -0.241115 0.323087 0.170321 -0.267739 -0.140727 0.0268756 0.386218 0.354234 0.154984 0.0150786 -0.274317 -0.0756427 0.0593026 0.188077 -0.0274821 0.145059 0.228446 0.571598 0.0106836 0.146575 -0.0451514 -0.0101055 -0.16208 0.293174 -0.349123 -0.283962 -0.270111 -0.111359 0.0688219 0.021905 -0.220991 -0.0564645 0.475325 0.02272 0.0331883
2065 -0.326238 -0.0993029 0.251489 0.142572 -0.191589 -0.158639 0.01625 0.256899 0.245852 -0.0032211 -0.0470571 -0.12008 -0.0907115 0.109159 0.120492 -0.0357111 0.101546 0.15741 0.412318 -0.0536501 0.0842072 -0.00359129 0.0284909 -0.123924 0.259582 -0.237331 -0.200442 -0.277625 -0.00930959 0.0979252 -0.0559125 -0.120092 -0.0235099 0.355283 -0.0238484 0.166344
4162 -0.337562 -0.0897748 0.0440286 0.0749821 -0.163823 -0.321805 -0.0744109 0.294847 0.253002 0.0626919 -0.0647219 -0.076732 -0.139436 0.181355 0.0402392 0.00469484 0.0935038 -0.00588954 0.227019 -0.152716 -0.0643435 -0.00571181 -0.00956689 0.0751001 0.205755 -0.18821 -0.177545 -0.404027 0.150364 0.0842614 -0.19616 -0.0228576 0.0166677 0.329041 -0.0261116 0.267802
1764 -0.368698 -0.30749 -0.177182 0.087951 -0.250838 -0.931158 -0.442438 0.839425 0.753737 0.157094 -0.0642546 -0.381488 -0.0580715 0.251121 0.0953413 -0.0160019 0.139126 -0.121566 0.200182 -0.25099 -0.441092 -0.052358 -0.048278 0.378289 0.214742 -0.193901 -0.299888 -0.573138 0.335152 0.204077 -0.327149 -0.295264 -0.0723819 0.53279 0.103906 0.452616
499 -0.336792 -0.32632 -0.174049 0.121691 -0.284551 -0.758191 -0.316758 0.702586 0.66953 0.294089 -0.0117685 -0.378131 -0.107259 0.178571 0.136571 -0.000537101 0.122829 -0.0929864 0.272753 -0.234998 -0.322868 -0.0239131 -0.187145 0.312171 0.22712 -0.188201 -0.315229 -0.556701 0.259229 0.14291 -0.34067 -0.215535 -0.00559345 0.543581 0.132231 0.257347
1029 -0.382132 -0.217264 -0.119873 0.10573 -0.244014 -0.630354 -0.223956 0.48046 0.499206 0.221647 -0.0255755 -0.220382 -0.132731 0.149208 0.119215 0.0245002 0.110113 -0.0649257 0.254947 -0.238003 -0.20043 -0.0184065 -0.133196 0.24498 0.183385 -0.190857 -0.240945 -0.521785 0.257978 0.0723218 -0.31514 -0.106638 0.0497641 0.459489 0.0751364 0.26291
643 -0.367173 -0.198523 -0.0935442 0.0858943 -0.202683 -0.571101 -0.264492 0.513505 0.49929 0.11721 -0.059045 -0.209485 -0.130464 0.168789 0.0960955 0.0040231 0.104079 -0.0748664 0.247546 -0.229274 -0.26346 -0.0112117 -0.0813471 0.203315 0.21007 -0.151898 -0.222871 -0.515245 0.254766 0.15911 -0.294065 -0.12657 -0.000429154 0.441307 0.0203582 0.342693
2792 -0.352962 -0.159657 -0.0619369 0.0753843 -0.199635 -0.510043 -0.188373 0.412548 0.434119 0.138453 -0.0541889 -0.185787 -0.124782 0.159017 0.0699483 0.0344864 0.114893 -0.052747 0.266369 -0.182055 -0.164187 -0.0286805 -0.085719 0.176441 0.199272 -0.168722 -0.197931 -0.452716 0.221122 0.103308 -0.270792 -0.0854171 -0.00587113 0.40941 0.00776941 0.261452
877 -0.562123 -0.136679 -0.288526 -0.047722 -0.139011 -1.05784 -0.395817 0.578117 0.665482 -0.00933986 -0.216205 -0.13716 -0.0295811 0.269055 0.00877144 -0.0666381 0.217108 -0.149813 0.126115 -0.314015 -0.41323 -0.123734 0.032679 0.35192 0.215477 -0.0728282 -0.14901 -0.566421 0.422714 0.247813 -0.364813 -0.0847199 0.0250552 0.439763 -0.0134422 0.508577
1994 -0.457504 0.08692 0.208227 0.104368 -0.107652 -0.166715 0.0143778 0.117707 0.0596157 -0.11219 -0.122289 0.109847 -0.254417 0.211515 0.0275878 -0.0010308 0.106914 0.056298 0.277367 -0.147711 0.0818586 0.0298509 0.0215323 -0.0299767 0.227197 -0.230584 -0.124805 -0.444857 0.146699 0.0422945 -0.178981 0.09081 0.0376194 0.310755 -0.0998541 0.380947
932 -0.469181 0.0919459 0.202128 0.084101 -0.121266 -0.152398 0.0125461 0.134588 0.0855601 -0.0984204 -0.122115 0.0991565 -0.248026 0.201922 0.0247014 -0.000192453 0.0906959 0.0576158 0.307378 -0.130685 0.0972529 0.00938623 0.0232852 -0.0251292 0.208119 -0.222983 -0.12533 -0.471308 0.164731 0.0671641 -0.171257 0.0880181 0.0391456 0.339378 -0.114259 0.40418
72 -0.696877 0.538447 0.314309 0.25765 -0.046341 0.257987 -0.0826347 -0.246442 -0.0822076 -0.483625 -0.184375 0.51262 -0.666087 0.0393833 0.139053 0.341925 0.0761567 -0.00545919 0.727052 -0.396464 0.167777 0.108553 -0.275968 -0.0745513 0.0317948 -0.252512 -0.100691 -0.779047 0.237923 0.196938 -0.293044 0.465494 -0.0227196 0.410366 -0.309056 0.766853
1735 -0.49703 0.195831 0.253891 0.117098 -0.106108 -0.102539 -0.00641621 0.0749953 0.0259026 -0.22208 -0.146487 0.166403 -0.28507 0.231131 0.00411198 -0.0230216 0.0805729 0.0698055 0.291114 -0.161034 0.0883727 0.0319696 0.0172585 -0.0485128 0.190888 -0.250266 -0.0779935 -0.502976 0.192921 0.0648716 -0.168237 0.113285 0.0348654 0.316765 -0.159761 0.48075
1173 -0.39872 0.10431 0.398294 0.258718 -0.123842 -0.149195 0.0490169 0.224235 0.0556807 -0.184494 -0.160625 0.115087 -0.201787 0.275067 0.0353097 -0.0973888 0.153138 0.137657 0.387768 -0.0646 0.115941 0.128961 0.143821 -0.244481 0.361267 -0.214698 -0.217543 -0.264511 -0.0249543 0.222867 -0.0866572 -0.0680138 -0.0348971 0.269179 -0.116484 0.359244
844 -0.414589 0.0916891 0.419123 0.265657 -0.109926 -0.127516 0.0636418 0.173594 0.0650144 -0.121694 -0.162749 0.181768 -0.170955 0.261024 0.0338483 -0.055989 0.222361 0.164446 0.431664 -0.0686646 0.0815166 0.129012 0.259909 -0.287508 0.398772 -0.156448 -0.230925 -0.247708 -0.0795367 0.25683 -0.11331 -0.0370409 -0.0137845 0.246983 -0.0763402 0.340794
875 -0.35138 0.0417254 0.189449 0.132149 -0.113793 -0.158769 0.00425513 0.182872 0.0952323 -0.0798707 -0.0802224 0.0458137 -0.185877 0.157722 0.0617248 -0.0128574 0.099099 0.0678876 0.262454 -0.0856068 0.064721 0.0325847 0.00219952 -0.0514481 0.184611 -0.215357 -0.158731 -0.324981 0.0813967 0.0982668 -0.121585 0.00546391 -0.0049599 0.271244 -0.0734382 0.298682
874 -0.58105 0.331569 0.331423 0.182736 -0.0543887 0.00710702 -0.0180452 -0.0113228 -0.066542 -0.409978 -0.209695 0.304544 -0.399902 0.159375 0.0382124 0.0543859 0.0905594 0.0638775 0.435399 -0.209379 0.161227 0.0630977 -0.0486984 -0.114224 0.181808 -0.260922 -0.0818716 -0.551946 0.209038 0.125452 -0.144953 0.177607 0.00180792 0.335397 -0.22517 0.610182
344 -0.585167 0.504888 0.410632 0.153143 0.00280842 0.269146 -0.00334547 0.0208239 -0.122953 -0.589707 -0.160411 0.418597 -0.540607 0.101493 0.15716 0.232042 0.105884 0.0851362 0.59945 -0.190985 0.304021 0.040987 -0.147652 -0.142033 0.0703508 -0.455459 -0.162498 -0.59245 0.209945 0.109216 -0.0159818 0.314479 -0.16101 0.373621 -0.35258 0.708802
1253 -0.408984 0.0589678 0.215059 0.0544221 -0.119294 -0.106215 0.0376875 0.173081 0.0359693 -0.0805289 -0.0739834 0.0650871 -0.209982 0.207751 0.0141028 -0.0246848 0.0767531 0.094772 0.234944 -0.0795394 0.12011 -0.017377 0.0630461 -0.0259835 0.212087 -0.27707 -0.145054 -0.402351 0.130316 0.0185738 -0.124261 0.0694474 0.0163725 0.304973 -0.120331 0.318275
1251 -0.46927 0.100317 0.219424 0.0532851 -0.109624 -0.10946 0.052875 0.131188 -1.44272e-06 -0.124766 -0.0815815 0.106841 -0.243609 0.227133 0.0092664 -0.0287893 0.0963747 0.0817255 0.240669 -0.0970667 0.167206 -0.0180761 0.0425536 -0.0438221 0.228937 -0.305472 -0.120347 -0.454526 0.15623 -0.00896699 -0.147776 0.114059 0.0224452 0.296891 -0.133522 0.37049
1315 -0.465502 -0.300217 -0.195527 0.0607014 -0.264023 -1.00659 -0.37199 0.746674 0.746232 0.206682 -0.0773895 -0.353215 -0.0452441 0.192743 0.143451 -0.0409613 0.137108 -0.0954562 0.229377 -0.268883 -0.301642 -0.0997729 -0.13341 0.377931 0.193619 -0.26905 -0.301327 -0.569277 0.361374 0.105323 -0.303515 -0.229189 0.00441391 0.559334 0.141737 0.351262
1024 -0.459934 -0.286174 -0.190581 0.086833 -0.210068 -1.03752 -0.455401 0.856098 0.80682 0.112604 -0.142708 -0.337748 -0.0524863 0.230412 0.0927996 -0.0549554 0.152558 -0.0961986 0.242849 -0.293948 -0.45063 -0.0428594 -0.0440647 0.360121 0.204949 -0.175235 -0.28621 -0.546983 0.380941 0.251683 -0.325808 -0.321359 -0.0444738 0.537404 0.0987611 0.534092
1786 -0.322533 -0.208213 -0.0510339 0.125264 -0.246637 -0.529898 -0.197017 0.506314 0.479491 0.195182 -0.00732415 -0.249745 -0.13023 0.139822 0.129767 0.0181883 0.11307 -0.0426838 0.270167 -0.184562 -0.16367 -0.0197389 -0.125866 0.187439 0.217654 -0.210056 -0.26166 -0.470133 0.220692 0.098769 -0.256364 -0.138257 0.00701652 0.474517 0.0485976 0.242516
989 -0.502853 0.154984 0.304484 0.1345 -0.119634 -0.128963 0.0796682 0.139586 -0.0743162 -0.134117 -0.110303 0.134352 -0.257191 0.317779 -0.00432933 -0.0749566 0.0787706 0.0934448 0.241921 -0.0433608 0.194329 0.00587498 0.0987428 -0.107054 0.256029 -0.326097 -0.0874037 -0.470368 0.223719 0.0049076 -0.0971079 0.0792325 0.109168 0.341653 -0.168987 0.390899
1212 -0.403049 0.130207 0.327801 0.0858556 -0.130618 -0.114747 0.0587452 0.279907 -0.0374494 -0.215907 -0.0640095 0.0648885 -0.224319 0.343572 -0.0326745 -0.106905 0.0993108 0.162465 0.182537 0.0235115 0.148957 0.0127736 0.0872763 -0.085351 0.261119 -0.40806 -0.0774359 -0.376641 0.201025 0.00816259 -0.0255185 -0.0079905 -0.0177165 0.347451 -0.211448 0.394374
502 -0.517448 0.158332 0.356817 0.165248 -0.123342 -0.0391956 0.161981 0.157246 -0.163525 -0.156062 -0.105445 0.130414 -0.272836 0.411099 -0.00206293 -0.0893892 0.104591 0.178155 0.266792 0.0245786 0.239486 0.0344784 0.13361 -0.242131 0.310433 -0.405799 -0.0995993 -0.413483 0.161536 0.0488417 -0.0785108 0.11196 0.0586332 0.332883 -0.205028 0.389035
1863 -0.347175 0.0101502 0.182725 0.110191 -0.140955 -0.14948 0.0315939 0.180681 0.0709578 -0.00202234 -0.0452315 0.0110415 -0.166855 0.21424 0.0452721 -0.028123 0.094967 0.0908414 0.237236 -0.0807322 0.0928137 0.0231966 0.0269743 -0.0686087 0.225549 -0.258944 -0.149207 -0.343178 0.0939788 0.0356858 -0.134 0.0252777 0.0163664 0.305571 -0.0748096 0.254592
503 -0.435203 0.0815329 0.34055 0.17046 -0.0920399 -0.0727527 0.11975 0.193989 -0.0280458 -0.142324 -0.11265 0.0850047 -0.234882 0.315856 -0.0115312 -0.0950617 0.0997015 0.153873 0.296943 -0.0342954 0.16319 0.0628765 0.115537 -0.208313 0.312167 -0.293157 -0.149638 -0.35461 0.0492105 0.116467 -0.112399 0.0661228 -0.0148586 0.280329 -0.160241 0.368227
606 -0.410083 0.045334 0.251911 0.0596419 -0.10779 -0.080307 0.0582484 0.215082 0.0419662 -0.151421 -0.107803 0.0446664 -0.187314 0.262121 -0.0058413 -0.0811689 0.104424 0.0934859 0.224067 -0.0777429 0.11313 0.00841626 0.10696 -0.0714444 0.263611 -0.285653 -0.13103 -0.395331 0.11484 0.0490476 -0.109148 0.0384053 -0.0230673 0.272097 -0.115047 0.370319
4437 -0.332395 -0.106017 0.226389 0.137581 -0.196506 -0.2142 0.0107535 0.299313 0.216931 0.0140687 -0.0538962 -0.104396 -0.126236 0.143787 0.0986437 -0.0262048 0.115979 0.119346 0.363984 -0.0775777 0.0826932 0.0313347 0.0129795 -0.0997579 0.271043 -0.271282 -0.231316 -0.294703 0.0249048 0.0687708 -0.0799918 -0.0794594 -0.0350633 0.362841 -0.0332558 0.19518
410 -0.396922 -0.0301825 0.299163 0.147151 -0.174528 -0.169945 0.00310436 0.249521 0.182026 -0.0892324 -0.0852436 -0.0520456 -0.123642 0.179044 0.12238 -0.0442036 0.165354 0.163082 0.430821 -0.0484347 0.104582 0.0235768 0.0501136 -0.172745 0.281415 -0.287211 -0.193646 -0.316064 0.017367 0.10934 -0.0343596 -0.0916334 -0.039094 0.378854 -0.0575978 0.241035
411 -0.312377 -0.100535 0.2631 0.164253 -0.169631 -0.222358 0.0149421 0.362361 0.254045 0.0279703 -0.0619975 -0.105302 -0.113685 0.123106 0.103841 -0.056034 0.136557 0.146488 0.374755 -0.0383001 0.0833487 0.00938953 0.0112762 -0.120706 0.270847 -0.272123 -0.237851 -0.257072 -0.00521352 0.0882784 -0.0484461 -0.133757 -0.0420331 0.380518 -0.031062 0.171524
1414 -0.305475 -0.193164 0.38697 0.186143 -0.255815 -0.143819 0.035212 0.392025 0.314696 -0.000722615 -0.0220213 -0.206913 -0.0521029 0.0716891 0.182743 -0.0727147 0.168355 0.254692 0.568864 0.0231269 0.157618 -0.0285241 0.0658532 -0.224165 0.313252 -0.338274 -0.268533 -0.201162 -0.108111 0.107811 0.0742013 -0.261457 -0.0923809 0.464341 -0.0234214 0.129182
1672 -0.353662 0.0146563 0.209497 0.0587483 -0.102335 -0.0986103 0.0598727 0.204023 0.0364547 -0.0893114 -0.0662135 0.0330152 -0.185649 0.221926 -0.0112379 -0.0456743 0.0899385 0.0961636 0.199039 -0.0700816 0.101149 0.0113423 0.0688829 -0.0413715 0.237187 -0.271501 -0.150943 -0.358977 0.100626 0.0353157 -0.117258 0.0172357 0.00314469 0.270253 -0.11657 0.311149
28 -0.512803 0.162628 0.515285 0.0191942 -0.104668 0.0925644 0.203807 0.170173 -0.176381 -0.386311 -0.169661 0.201119 -0.26568 0.412316 -0.0890995 -0.194583 0.114654 0.236578 0.231845 0.00448417 0.250791 0.0103784 0.286243 -0.258508 0.407825 -0.421004 -0.109371 -0.474719 0.0869036 0.0641611 -0.0595587 0.0662517 -0.0372287 0.291145 -0.271737 0.541276
941 -0.34373 -0.0165008 0.290967 0.152478 -0.166067 -0.173292 0.00468691 0.289914 0.172697 -0.102836 -0.0946023 -0.0376201 -0.140949 0.177616 0.0783946 -0.0779606 0.129876 0.128523 0.362913 -0.0533778 0.0872705 0.0135156 0.0416889 -0.14514 0.272153 -0.291379 -0.197388 -0.310203 0.032847 0.107965 -0.0320897 -0.0974478 -0.0434929 0.364536 -0.0548065 0.270908
2041 -0.294187 -0.0206028 0.158463 0.112083 -0.141755 -0.208948 -0.0131837 0.263707 0.152454 0.00321031 -0.0365382 -0.027039 -0.154509 0.175317 0.0588901 -0.00711169 0.0892659 0.0509138 0.253826 -0.0968499 0.035226 0.0247399 -0.0123481 -0.0170292 0.223975 -0.220818 -0.177789 -0.310474 0.0762136 0.0477395 -0.116033 -0.0343627 0.00312157 0.295317 -0.0539104 0.21594
110 -0.0997956 -0.152259 0.363343 0.204702 -0.163579 0.347085 0.0668761 0.444895 0.0483181 -0.315261 -0.177742 -0.258599 -0.339982 0.450678 -0.170201 -0.266003 -0.109986 0.193087 0.254904 -0.123403 -0.227549 0.247126 -0.0784418 -0.269798 0.534862 -0.253134 -0.281991 -0.394771 -0.106356 0.572762 -0.395636 -0.133905 -0.382299 0.155284 -0.405136 0.604958
3150 -0.378724 0.0138201 0.237351 0.136378 -0.152326 -0.135764 0.042148 0.217302 0.0660157 -0.0156657 -0.0784086 0.0311788 -0.184512 0.225301 0.0188864 -0.0334912 0.126832 0.0978302 0.287703 -0.0598269 0.125634 0.0365595 0.0532399 -0.0902035 0.277032 -0.254071 -0.151302 -0.356034 0.101686 0.0620758 -0.116179 0.0123531 0.0388768 0.324789 -0.0981922 0.263032
320 -0.110313 -0.360679 0.503595 0.618108 -0.306471 -0.254032 0.13961 1.01965 0.408915 0.420927 0.0674599 -0.396086 -0.147012 0.0422422 0.311428 0.0295456 0.190961 0.184263 0.567479 0.141077 0.287796 0.181014 -0.133832 -0.241466 0.516258 -0.448614 -0.725814 0.0331057 -0.277319 0.189391 0.108781 -0.424938 -0.165814 0.511889 0.0486846 -0.118859
403 -0.106314 -0.37344 0.379945 0.370005 -0.241924 -0.18188 0.0916394 0.856217 0.374207 0.319663 0.0422845 -0.364963 -0.121505 0.102667 0.204418 -0.00692847 0.170327 0.184056 0.465368 0.0944981 0.140917 0.127861 -0.0629302 -0.194593 0.455049 -0.376599 -0.55509 -0.0856084 -0.218191 0.174733 0.0103744 -0.31849 -0.186396 0.404874 0.0259682 -0.0517009
1661 -0.268932 -0.170869 0.194005 0.173392 -0.190064 -0.266868 -0.0065662 0.460281 0.296776 0.138053 -0.0253735 -0.175296 -0.113148 0.125867 0.117708 0.0107698 0.13256 0.118601 0.336528 -0.0101047 0.0598216 0.0178444 -0.00687247 -0.0482521 0.284216 -0.256988 -0.268636 -0.213528 -0.00242412 0.118701 -0.0732871 -0.117043 -0.0550472 0.370132 -0.0234522 0.122422
1653 -0.312961 -0.0429752 0.314948 0.187897 -0.140281 -0.0847207 0.0817655 0.361215 0.0883243 -0.0232446 -0.0534132 -0.0261475 -0.176292 0.217212 0.0738842 -0.0330195 0.136239 0.156784 0.324533 -0.0210937 0.133574 0.0655993 0.0716392 -0.148377 0.327533 -0.300475 -0.260989 -0.257115 0.00356592 0.103457 -0.0656447 -0.0309963 -0.0748259 0.306125 -0.117258 0.237656
308 -0.197068 -0.122706 0.541779 0.335389 -0.172443 0.132932 0.263107 0.555219 -0.0253592 0.144475 -0.0319 -0.164799 -0.267709 0.35746 -0.0171218 -0.113788 0.0879579 0.259918 0.330823 0.187293 0.252573 0.200525 0.0306503 -0.356209 0.533836 -0.354124 -0.360032 -0.137813 -0.159893 0.221524 -0.0362647 -0.102139 -0.149952 0.311727 -0.239175 0.119081
200 -0.112361 -0.172688 0.311057 0.273388 -0.224873 0.357573 0.157801 0.530407 -0.0392189 -0.213456 -0.0608471 -0.308534 -0.380284 0.511655 -0.0623568 -0.104848 -0.0480289 0.183017 0.306725 -0.00867448 -0.0654283 0.363291 -0.0892934 -0.362144 0.577334 -0.39201 -0.421782 -0.282207 -0.162327 0.45754 -0.28666 -0.103115 -0.441527 0.192002 -0.352006 0.401762
873 -0.38609 0.0168469 0.222895 0.0739385 -0.138518 -0.150551 0.0585761 0.208925 0.0439369 -0.0671393 -0.0633677 0.0263427 -0.189639 0.252882 0.0153357 -0.0529691 0.107316 0.0942333 0.234866 -0.0668782 0.118061 -0.0186997 0.0645437 -0.0464696 0.24644 -0.311446 -0.142032 -0.38508 0.121441 0.00237054 -0.11749 0.0318847 0.0206674 0.302157 -0.0911349 0.311257
32 -0.451676 0.259416 0.538621 -0.120846 -0.283655 0.184636 0.132968 0.246869 -0.376333 -0.556358 0.0563285 0.122121 -0.31473 0.644121 -0.0764402 -0.257077 0.0699967 0.260965 0.0697018 0.164012 0.399922 -0.146906 0.289204 -0.117354 0.366164 -0.800378 -0.00856156 -0.684745 0.340193 -0.314026 0.142078 -0.0307934 -0.0365351 0.460337 -0.323573 0.516138
289 -0.409849 -0.154908 0.537337 -0.320259 -0.0765893 0.869962 0.473398 0.405592 -0.261265 -0.491351 -0.00299585 0.043982 -0.314788 0.435499 -0.12815 -0.11011 0.0766639 0.319115 0.173284 -0.0633657 0.257896 -0.0453148 0.430909 -0.205772 0.585306 -0.830224 -0.392287 -0.746773 -0.164687 0.0186835 -0.181096 0.289252 -0.413329 0.109169 -0.431025 0.744836
561 -0.456596 0.146047 0.524436 0.296551 -0.13607 -0.0484825 0.157541 0.0630132 -0.0900796 -0.157407 -0.166783 0.252274 -0.190299 0.370213 0.0180574 -0.110072 0.260227 0.186235 0.415728 -0.0448947 0.148062 0.180043 0.330846 -0.368754 0.448655 -0.167646 -0.181082 -0.289997 -0.0695489 0.251846 -0.0791258 0.00523632 0.0504477 0.256847 -0.116195 0.356987
1404 -0.329019 -0.0422046 0.13376 0.116443 -0.136383 -0.223169 -0.000733492 0.221177 0.159888 0.0626183 -0.0586318 -0.0229854 -0.132122 0.159078 0.0444838 -0.00866523 0.106513 0.0461302 0.227148 -0.0949949 0.0397937 0.0289233 0.0299031 -0.0149601 0.20086 -0.177032 -0.174801 -0.307459 0.0847871 0.0647868 -0.139461 -0.000190802 0.0329366 0.288795 -0.0447553 0.188673
3602 -0.393086 -0.066942 0.209441 0.152156 -0.201541 -0.222104 -0.00779866 0.306749 0.213224 0.0153534 -0.0738938 -0.0589112 -0.167555 0.199887 0.0752239 -0.0342059 0.114468 0.110918 0.375592 -0.105559 0.0642687 0.0112626 0.0181231 -0.0532894 0.279384 -0.282817 -0.206647 -0.395994 0.0862601 0.0747662 -0.149841 -0.0499329 0.0186784 0.396 -0.043199 0.267807
3936 -0.377247 -0.0270051 0.201811 0.11687 -0.148337 -0.178454 0.0250194 0.22468 0.149815 -0.0151635 -0.080664 -0.0023467 -0.172678 0.170023 0.0381319 -0.0244769 0.101351 0.103285 0.300661 -0.0850993 0.0745419 0.0166348 0.0312801 -0.0671434 0.25912 -0.242342 -0.170028 -0.338456 0.0676186 0.0814112 -0.134186 -0.00592602 -0.0118831 0.302232 -0.0671138 0.269116
262 -0.438915 0.0864347 0.271629 0.0462101 -0.0989131 -0.0571713 -0.0354552 0.0914813 0.0356072 -0.323001 -0.180606 0.0828838 -0.159524 0.293904 -0.0354819 -0.109283 0.0959283 0.131179 0.290566 -0.109897 -0.0411825 -0.0204631 0.187157 -0.130264 0.301718 -0.170661 -0.0259697 -0.476642 0.122397 0.214838 -0.180913 0.00718615 -0.0309299 0.284281 -0.153986 0.501573
182 -0.335366 0.106952 0.544636 0.502817 -0.277507 -0.0375557 -0.0226567 -0.210857 0.0318124 -0.12059 -0.0888803 0.289523 -0.132182 0.428063 0.193046 0.03514 0.489916 0.122648 0.732873 -0.21756 -0.125802 0.360139 0.423373 -0.572846 0.53569 0.0279992 -0.179181 -0.33839 -0.220276 0.482684 -0.145493 -0.0759255 -0.0607808 0.261916 0.107313 0.229886
304 -0.174094 -0.25855 0.518705 0.399834 -0.0775996 0.28422 0.213102 0.615991 0.0364284 0.400928 -0.0528004 -0.207249 -0.325214 0.538522 -0.0294955 0.0398585 0.206107 0.197471 0.481902 0.267187 0.102145 0.253529 0.0555771 -0.507906 0.683593 -0.187434 -0.4653 -0.219335 -0.294436 0.466428 -0.212619 0.0760238 -0.355157 0.197992 -0.22759 -0.062046
2531 -0.431167 0.0525303 0.215284 0.143908 -0.120452 -0.214488 0.0175367 0.171241 0.108527 -0.0458407 -0.0984063 0.0715284 -0.189694 0.221108 0.0310082 -0.017088 0.130341 0.0842318 0.310164 -0.118376 0.0531407 0.0554165 0.0871787 -0.0661781 0.25537 -0.217201 -0.147926 -0.38564 0.100024 0.1105 -0.164025 0.0420338 0.0368862 0.315414 -0.0734397 0.3219
4904 -0.346162 0.012714 0.231872 0.127045 -0.135123 -0.153965 0.0374799 0.174701 0.0923814 -0.0351816 -0.0620415 0.0278957 -0.171221 0.20772 0.0421024 -0.0552906 0.118575 0.107915 0.271923 -0.0730638 0.0910863 0.030656 0.0476061 -0.0991158 0.255245 -0.227549 -0.164338 -0.312889 0.0526505 0.074148 -0.101246 -0.0198273 0.0079758 0.278924 -0.0758306 0.261193
1528 -0.340162 -0.0252992 0.423806 0.191128 -0.0957985 0.0374603 0.182555 0.350988 0.0198195 -0.0423162 -0.0873623 -0.00330072 -0.20298 0.351115 -0.0128281 -0.0800681 0.133222 0.21282 0.354248 0.0446141 0.16869 0.0897994 0.173112 -0.266292 0.406464 -0.326882 -0.284734 -0.242383 -0.0821947 0.173626 -0.0874005 -0.000840053 -0.124604 0.255279 -0.192741 0.306144
841 -0.249564 -0.0524828 0.241021 0.128887 -0.128366 -0.0755737 0.0555878 0.269606 0.0995782 -0.0211171 -0.0545847 -0.0546815 -0.137453 0.161024 0.0363686 -0.0462361 0.0898248 0.144912 0.259888 -0.0146608 0.103548 0.0536213 0.0174219 -0.121651 0.274042 -0.254802 -0.19175 -0.234998 -0.00995028 0.0857454 -0.0650734 -0.0777906 -0.076289 0.262195 -0.0833198 0.184163
153 -0.108213 -0.101061 0.462127 0.456914 -0.177445 -0.199448 0.0113953 0.924811 0.233792 -0.137927 -0.024274 -0.193422 -0.131541 0.216204 0.273842 -0.0140426 0.260224 0.205153 0.457626 0.0915094 0.134552 0.174022 0.0610915 -0.293416 0.410678 -0.459023 -0.512482 0.0625564 -0.150804 0.292908 0.2205 -0.371291 -0.301548 0.368202 -0.0541599 0.20256
2268 -0.42943 0.0819617 0.184263 0.0725026 -0.106509 -0.190361 0.00828876 0.160142 0.0790216 -0.0765459 -0.085189 0.0848655 -0.214945 0.199765 0.0212495 -0.0363371 0.0923908 0.0544023 0.227224 -0.0981364 0.103136 -0.0227373 0.0117999 0.00155978 0.185749 -0.270141 -0.12634 -0.423549 0.168527 0.0266517 -0.127493 0.0659984 0.0302362 0.319978 -0.114608 0.333459
702 -0.339045 -0.0277538 0.337378 0.238612 -0.153324 -0.166822 0.0801829 0.236321 0.116977 0.0691328 -0.091284 0.00863274 -0.138853 0.265444 0.0434337 -0.0759094 0.174104 0.115475 0.359255 -0.0408123 0.0902816 0.0900424 0.155178 -0.191258 0.37301 -0.16708 -0.234873 -0.266349 -0.0667413 0.19012 -0.119954 -0.048974 -0.00993585 0.262495 -0.0458719 0.216023
715 -0.379037 -0.00973144 0.313043 0.203996 -0.150731 -0.142027 0.0822504 0.231554 0.0990293 0.00268931 -0.0971936 0.0332892 -0.148766 0.231774 0.0227952 -0.0703141 0.148391 0.135512 0.330801 -0.0450467 0.103977 0.0749322 0.151463 -0.16318 0.341143 -0.192872 -0.205089 -0.289383 0.00846884 0.146229 -0.0996697 -0.0396998 0.0132193 0.289847 -0.0994248 0.258334
713 -0.367824 -0.0508459 0.280959 0.211512 -0.132083 -0.184302 0.064379 0.193683 0.170933 0.0223927 -0.104036 0.0145026 -0.126042 0.224945 0.0658374 -0.0317079 0.171029 0.125831 0.399293 -0.0905614 0.0384191 0.0752679 0.160276 -0.204038 0.34802 -0.160345 -0.239002 -0.265374 -0.0655088 0.208418 -0.15195 -0.0324709 -0.0144754 0.257492 -0.0545651 0.219172
711 -0.363805 -0.00753159 0.353253 0.218482 -0.126932 -0.108099 0.0833839 0.25063 0.0703857 -0.0201163 -0.0998183 0.0409479 -0.162452 0.244691 0.0474683 -0.0499806 0.183228 0.138996 0.352659 -0.0217582 0.116211 0.0853619 0.162959 -0.194647 0.364646 -0.207912 -0.248875 -0.280995 -0.0321917 0.167071 -0.11635 -0.0120208 -0.00779625 0.27491 -0.106499 0.265284
1134 -0.441534 0.121761 0.512444 0.304777 -0.123773 -0.0483368 0.138488 0.0804518 -0.00833163 -0.132363 -0.154722 0.20603 -0.158633 0.315721 0.0447421 -0.0721289 0.260912 0.194295 0.469618 -0.0439079 0.137095 0.140076 0.353984 -0.390797 0.43 -0.156708 -0.240725 -0.228728 -0.131628 0.2852 -0.0731148 0.000496112 0.0135532 0.193114 -0.118165 0.320321
819 -0.13987 -0.282946 0.367355 0.429531 -0.295028 -0.297158 0.0202439 0.900976 0.363996 0.272272 0.0463611 -0.330884 -0.125708 0.138154 0.254912 0.0279576 0.214428 0.149114 0.468584 0.116012 0.176109 0.141152 -0.0684047 -0.145266 0.43245 -0.413638 -0.55522 -0.038661 -0.0986009 0.138439 0.087683 -0.362767 -0.147944 0.502368 -0.0054118 -0.0130659
272 -0.390497 0.00637692 0.21476 0.128194 -0.127013 -0.167376 -0.00426205 0.245508 0.145933 -0.0842734 -0.0976815 -0.00520173 -0.173308 0.183584 0.0459975 -0.0434124 0.115121 0.0869677 0.312449 -0.098868 0.0573179 0.0427396 0.0321676 -0.07765 0.258396 -0.221137 -0.170773 -0.357552 0.0818714 0.0957627 -0.130926 -0.018991 -0.0171207 0.327915 -0.0667252 0.299219
4039 -0.346501 0.00238782 0.212394 0.111633 -0.119961 -0.175594 0.0118793 0.232769 0.128934 -0.0856899 -0.087027 0.00506627 -0.165402 0.188377 0.0263787 -0.0566064 0.0999062 0.0984035 0.287507 -0.0890181 0.0547196 0.0338922 0.0532804 -0.0886613 0.24033 -0.223285 -0.150164 -0.345415 0.0509141 0.0956858 -0.112361 -0.0327711 -0.015437 0.299749 -0.066389 0.29545
137 -0.0818026 0.0377052 0.529836 0.508507 -0.0734863 -0.00255222 0.0340048 0.883566 0.113151 -0.451816 -0.158822 -0.101155 -0.271118 0.141233 0.277819 -0.143067 0.0518348 0.149442 0.373256 -0.0561708 0.136829 0.277651 -0.14935 -0.393846 0.352076 -0.434258 -0.513502 -0.0908416 -0.152528 0.389422 0.156678 -0.398931 -0.377685 0.240479 -0.00871515 0.412348
4992 -0.328888 -0.0859257 0.199062 0.120636 -0.179202 -0.159882 0.0134217 0.256741 0.209162 0.0133739 -0.047203 -0.0820554 -0.124403 0.132127 0.0873991 -0.0311911 0.0908907 0.119479 0.332224 -0.0915998 0.0472705 0.0217646 0.0092666 -0.0581818 0.233912 -0.238523 -0.188523 -0.339696 0.0497661 0.0815832 -0.119996 -0.0658937 0.00712463 0.339877 -0.0237903 0.207544
860 -0.571991 0.216512 0.551859 -0.0317001 -0.0843356 0.283779 0.291832 0.141067 -0.319537 -0.439612 -0.129983 0.277603 -0.341204 0.510979 -0.0984969 -0.150494 0.139321 0.253868 0.21893 0.0230449 0.336519 -0.0349811 0.396882 -0.227059 0.438219 -0.536903 -0.125492 -0.588026 0.126852 0.000801542 -0.0631246 0.191056 -0.0427301 0.266195 -0.363227 0.635392
861 -0.592188 0.228631 0.602941 -0.0198364 -0.0599918 0.370726 0.342709 0.176851 -0.334086 -0.485324 -0.164868 0.298363 -0.341998 0.512665 -0.112781 -0.14451 0.137744 0.304787 0.253771 0.0324792 0.347601 -0.00420196 0.438678 -0.305354 0.498862 -0.571477 -0.186739 -0.560499 0.0658924 0.0684317 -0.0546244 0.226186 -0.104636 0.236077 -0.408223 0.704029
2778 -0.30202 0.00690225 0.220436 0.0767758 -0.102865 -0.0788825 0.0437772 0.214825 0.0719003 -0.0309379 -0.068199 -0.00900613 -0.15518 0.168077 0.0314362 -0.0347823 0.0939029 0.0857047 0.217449 -0.040122 0.099653 0.0118258 0.0732668 -0.0656257 0.232877 -0.215149 -0.14134 -0.295217 0.0527454 0.0679747 -0.0894828 -0.0149458 0.00141215 0.250646 -0.0947246 0.248099
1347 -0.373141 -0.0537416 0.329493 0.143058 -0.183229 -0.15253 0.0138513 0.222276 0.188955 -0.0794054 -0.101296 -0.0714696 -0.105454 0.142585 0.104461 -0.0906763 0.100369 0.170933 0.456389 -0.0447119 0.116679 -0.00764599 0.0625141 -0.197187 0.263333 -0.259594 -0.172793 -0.293676 0.000846207 0.105029 -0.0249063 -0.128257 -0.0218331 0.365588 -0.0268817 0.244339
1345 -0.301741 -0.138325 0.424149 0.131656 -0.2415 -0.00723543 0.0456941 0.289066 0.254157 -0.0893697 -0.0172324 -0.201399 -0.0478638 0.112167 0.182286 -0.0810397 0.117243 0.29045 0.615163 0.0444068 0.181069 -0.0634021 0.0820281 -0.287664 0.29749 -0.374856 -0.173239 -0.245595 -0.115735 0.104799 0.102671 -0.254685 -0.0953686 0.459409 -0.0332253 0.129667
1688 -0.305698 0.0344434 0.182831 0.0958348 -0.0960813 -0.13085 0.0155807 0.165353 0.0923466 -0.0444973 -0.0782129 0.0404534 -0.160895 0.13542 0.0352521 -0.005766 0.0875281 0.0595092 0.258703 -0.0889392 0.0835183 0.0180166 0.0108863 -0.0659205 0.179504 -0.190069 -0.143843 -0.267721 0.0507614 0.0875052 -0.0899948 0.0003931 0.000723519 0.252982 -0.0612223 0.242477
3966 -0.327437 -0.0304338 0.184279 0.116646 -0.118602 -0.22658 0.00335764 0.258314 0.152796 0.0615885 -0.0721605 0.0101443 -0.134569 0.199485 0.0306924 -0.00584326 0.127645 0.0610432 0.270427 -0.0699221 0.0697237 0.0125759 0.0634814 -0.0462493 0.247196 -0.191389 -0.19314 -0.292994 0.0565738 0.092946 -0.131884 0.00697029 0.0347334 0.292498 -0.0589893 0.211317
626 -0.371932 -0.0467373 0.652086 0.477255 -0.1826 0.141998 0.206808 0.106303 0.0821395 0.181608 -0.0831907 0.0786698 -0.156168 0.314076 0.101891 -0.00857744 0.299409 0.28308 0.749042 0.0526392 0.16341 0.185256 0.382009 -0.586907 0.640121 -0.0519648 -0.368422 -0.18007 -0.370916 0.41215 -0.147439 -0.018732 0.00651891 0.24974 -0.0685552 0.0110405
1628 -0.418404 0.105498 0.568175 0.334501 -0.132205 -0.0144179 0.156659 0.25802 -0.0272733 -0.278116 -0.184512 0.170584 -0.181797 0.37375 0.0455953 -0.129239 0.250619 0.23942 0.455262 -0.00482984 0.151405 0.183431 0.338848 -0.462829 0.513688 -0.268571 -0.322478 -0.20118 -0.163744 0.330083 -0.0352892 -0.0875747 -0.109392 0.220362 -0.146915 0.377019
3172 -0.365371 0.00635938 0.267341 0.22062 -0.143837 -0.195764 0.0192642 0.22939 0.131499 -0.0685805 -0.0877105 0.0322875 -0.158656 0.241908 0.0640181 -0.0539904 0.170958 0.112428 0.364795 -0.0948615 0.0457222 0.100924 0.120058 -0.185616 0.331462 -0.19574 -0.222886 -0.299274 0.00147623 0.182119 -0.125913 -0.0325328 -0.00925122 0.292007 -0.0533998 0.280424
1138 -0.130268 -0.295399 0.358356 0.373147 -0.247863 -0.209786 0.061543 0.838929 0.359552 0.257254 -0.00240975 -0.304145 -0.134838 0.144354 0.195564 0.00880404 0.181713 0.184215 0.444202 0.0934031 0.128437 0.127816 -0.0263708 -0.163216 0.452491 -0.328615 -0.490086 -0.0601329 -0.142656 0.208129 0.0301352 -0.300118 -0.167874 0.434165 -0.0259155 0.0194334
1402 -0.33669 0.00247141 0.175452 0.0811888 -0.0955832 -0.165703 0.0147915 0.183682 0.103336 -0.0721807 -0.0801234 0.0174919 -0.132016 0.183247 0.0191198 -0.0578999 0.0986337 0.0811322 0.242106 -0.075624 0.0606577 0.0119044 0.0628403 -0.0645464 0.218703 -0.202356 -0.13291 -0.3004 0.0673855 0.0787118 -0.122179 -0.0124031 0.020782 0.26456 -0.0730281 0.242571
219 -0.112008 0.116851 0.618501 0.622543 -0.2973 0.142821 -0.0101678 0.219047 0.0490838 -0.449991 -0.120978 0.165672 -0.193685 0.299103 0.191353 -0.106667 0.248811 0.132514 0.620416 -0.208182 -0.144105 0.358314 0.241773 -0.553186 0.572011 -0.01043 -0.35592 -0.207767 -0.230334 0.557582 -0.13712 -0.277529 -0.06561 0.220833 0.0205604 0.361679
63 -0.134302 -0.192311 0.505308 0.367428 -0.162708 0.120809 0.210689 0.68562 0.0332431 -0.0035049 -0.0654348 -0.210049 -0.256492 0.392332 -0.0164693 -0.124062 0.11318 0.243906 0.323011 0.143096 0.113518 0.315427 0.00945261 -0.367493 0.588962 -0.369646 -0.479925 -0.101103 -0.220304 0.330916 -0.0642239 -0.154001 -0.313358 0.247957 -0.244638 0.193303
62 -0.0812935 -0.248839 0.458969 0.338885 -0.145521 0.285814 0.229621 0.618758 0.0964927 -0.0894361 -0.123746 -0.350274 -0.349873 0.419548 -0.0939762 -0.217718 -0.0655932 0.248332 0.2952 0.0290065 0.0336146 0.357228 -0.213018 -0.403006 0.582523 -0.429055 -0.472237 -0.174898 -0.33251 0.436155 -0.25721 -0.144615 -0.455888 0.190576 -0.286601 0.324911
1534 -0.266111 -0.178437 0.322645 0.223115 -0.222654 -0.11968 0.064604 0.497405 0.241892 0.147586 0.0155842 -0.205425 -0.144534 0.154762 0.142073 -0.00538162 0.158093 0.186591 0.41576 0.0309966 0.145997 0.0309439 0.0106594 -0.159704 0.349676 -0.339671 -0.333162 -0.205769 -0.0697524 0.0976512 -0.00478266 -0.155016 -0.0820129 0.411604 -0.0429126 0.0734191
142 -0.00980221 -0.354849 0.479295 0.678322 -0.230206 -0.104831 0.207363 1.08287 0.293163 0.399894 -0.0141997 -0.372926 -0.278044 0.198726 0.165722 -0.0404248 0.104053 0.105541 0.369761 0.114611 0.18458 0.314695 -0.206414 -0.289758 0.591493 -0.356495 -0.773852 -0.0310146 -0.327287 0.309132 -0.0708484 -0.359553 -0.229523 0.338346 0.0277368 -0.0458771
4994 -0.294217 -0.00907359 0.146294 0.0748731 -0.0937507 -0.161516 -0.00585965 0.173971 0.116076 -0.0359411 -0.077715 0.00740273 -0.136536 0.140602 0.0203488 -0.0310165 0.091597 0.0761542 0.215962 -0.0574665 0.0456644 0.0107801 0.0262696 -0.0530796 0.192629 -0.172537 -0.113525 -0.283182 0.0719446 0.0716054 -0.0930816 -0.0172121 -0.00822888 0.232333 -0.0518341 0.216599
93 -0.316803 0.118643 0.581335 0.388049 -0.136556 -0.0552835 0.0913045 0.325818 0.00730004 -0.272975 -0.165675 0.151406 -0.147173 0.33188 0.0816651 -0.105583 0.259572 0.223257 0.498267 0.0312035 0.110784 0.210642 0.321638 -0.442435 0.493935 -0.196492 -0.308539 -0.110243 -0.142389 0.377423 0.0192049 -0.200355 -0.0965922 0.271377 -0.14906 0.338796
105 -0.167797 -0.3585 0.554079 0.469385 -0.247582 -0.181711 0.198062 0.869477 0.398449 0.379684 0.0149007 -0.365857 -0.122032 0.0305656 0.208631 -0.0880832 0.102332 0.247067 0.511146 0.0777745 0.310084 0.104892 -0.116218 -0.249717 0.468416 -0.442204 -0.636708 -0.0794216 -0.339319 0.135301 0.0440337 -0.391117 -0.135933 0.465595 0.101165 -0.0665339
31 -0.272479 0.295364 0.453993 -0.0215112 -0.483872 0.110126 0.0395037 0.305325 -0.378822 -0.567795 0.245257 0.0071058 -0.375674 0.698486 0.0901099 -0.21785 0.0959285 0.148174 0.0311494 0.176855 0.5166 0.00203737 -0.162707 -0.0325933 0.307584 -1.11048 -0.15656 -0.710642 0.363878 -0.580334 0.237536 -0.108089 -0.194197 0.575323 -0.234788 0.157283
2865 -0.516766 0.244356 0.390582 0.0427566 -0.165735 0.0558656 0.135876 0.139296 -0.218075 -0.32062 -0.0288989 0.186747 -0.3393 0.440674 -0.049743 -0.100697 0.0742973 0.168057 0.201647 0.00412976 0.309894 -0.0525506 0.154803 -0.106147 0.303676 -0.522095 -0.10106 -0.580135 0.234078 -0.122093 -0.0356381 0.145333 0.0377779 0.374533 -0.24609 0.482049
336 -0.608037 0.339383 0.466677 0.258509 -0.15954 0.0169652 0.321392 0.107739 -0.536173 -0.24351 -0.0714035 0.241127 -0.365008 0.699416 -0.052383 -0.170835 0.102819 0.217069 0.144604 0.17068 0.429972 0.0863851 0.251789 -0.413257 0.412561 -0.561979 -0.0366578 -0.429696 0.316668 -0.075599 0.0162097 0.202869 0.213013 0.376013 -0.296497 0.42449
557 -0.412894 0.0649969 0.265086 0.0864818 -0.132962 -0.12021 0.0612467 0.160884 0.0112408 -0.130505 -0.0897639 0.0469877 -0.204731 0.269721 0.0090116 -0.083028 0.104719 0.117223 0.228917 -0.0373067 0.140074 0.0274741 0.0724593 -0.096585 0.263111 -0.302658 -0.119288 -0.362917 0.11641 0.0411677 -0.0921229 0.00139779 -0.000826492 0.314904 -0.126627 0.30068
4783 -0.342034 0.0066166 0.161566 0.0869101 -0.119836 -0.184464 -0.00516085 0.177334 0.108609 -0.0464496 -0.070002 0.0246278 -0.170732 0.1799 0.0297449 -0.027695 0.0827036 0.0539096 0.223621 -0.078607 0.0512189 0.0174076 0.0255728 -0.0363525 0.211398 -0.196282 -0.119 -0.318614 0.111429 0.052345 -0.129269 0.022212 0.0128601 0.263638 -0.067388 0.259486
3848 -0.408211 0.0325883 0.266364 0.138303 -0.154039 -0.166527 0.0361298 0.206014 0.0716923 -0.107726 -0.100269 0.0365518 -0.173157 0.251201 0.0482716 -0.0498178 0.119535 0.102799 0.314873 -0.0812474 0.0992522 0.0501127 0.0726153 -0.135776 0.2767 -0.258907 -0.175275 -0.345177 0.0549916 0.100124 -0.103879 -0.0102157 -0.0082786 0.305516 -0.0941191 0.326903
2524 -0.319788 -0.0625722 0.232153 0.128887 -0.148456 -0.178941 0.021986 0.320771 0.170242 0.00859475 -0.0704344 -0.0575989 -0.145172 0.222421 0.0335832 -0.0463808 0.119177 0.116098 0.307819 -0.0306005 0.0375462 0.0508796 0.0304025 -0.106527 0.300111 -0.240802 -0.222816 -0.279112 0.032994 0.124386 -0.119202 -0.0597123 -0.0674627 0.293807 -0.0832958 0.232331
2643 -0.254593 -0.0196967 0.142071 0.0836709 -0.104265 -0.124614 0.0341592 0.147945 0.0718506 0.000105574 -0.0560458 0.00746753 -0.100447 0.142226 0.0367257 -0.0148174 0.0849431 0.0757633 0.191427 -0.0491447 0.0607852 0.0130401 0.0544032 -0.053673 0.176545 -0.167371 -0.122618 -0.213056 0.0490284 0.0424408 -0.0709649 0.000760494 0.00170931 0.221718 -0.0320417 0.164999
812 -0.292379 -0.0103626 0.406616 0.22907 -0.138349 -0.0695857 0.0906213 0.360574 0.080682 -0.12567 -0.129558 -0.0189448 -0.170087 0.24304 0.0413553 -0.137123 0.13117 0.177432 0.336629 0.0106648 0.134663 0.119169 0.0592485 -0.228334 0.380907 -0.275034 -0.268328 -0.215394 -0.073329 0.183395 -0.0368778 -0.135677 -0.104612 0.282519 -0.131638 0.267736
298 -0.11221 -0.144419 0.317955 0.217527 -0.19004 0.215654 0.0992392 0.561139 0.0155292 -0.204414 -0.107342 -0.223707 -0.307261 0.423912 -0.0379657 -0.149265 0.0163505 0.147855 0.254966 -0.0192666 -0.0821265 0.278986 0.0210015 -0.282157 0.548549 -0.277324 -0.355112 -0.283822 -0.0872765 0.420988 -0.258476 -0.123794 -0.326716 0.204535 -0.277616 0.429324
160 -0.122902 0.0554031 0.525316 0.273308 -0.27835 0.299443 0.0913677 0.361266 -0.0459041 -0.468854 -0.0210022 -0.294611 -0.344573 0.437047 -0.0111167 -0.221455 -0.0263064 0.36795 0.464172 0.129501 0.0933339 0.323632 -0.260702 -0.396435 0.459515 -0.554585 -0.212938 -0.222227 -0.108324 0.244534 -0.00583265 -0.323908 -0.419565 0.484097 -0.43176 0.325089
1714 -0.315355 -0.112208 0.22721 0.118938 -0.171253 -0.155336 0.0251006 0.216393 0.223493 0.0566612 -0.0325538 -0.0899205 -0.0896844 0.0910638 0.0825476 -0.0366236 0.10709 0.141159 0.389288 -0.0474393 0.0881502 -0.0169694 0.0518712 -0.10748 0.247673 -0.212426 -0.177361 -0.275563 -0.0105404 0.0856726 -0.0712652 -0.0884793 0.00207384 0.351436 -0.0316111 0.152575
87 -0.417941 0.0502096 -0.0428938 0.0923485 -0.158041 -0.434873 -0.241797 0.266733 0.264527 -0.277279 -0.12484 -0.0472115 -0.186022 0.340858 -0.00578468 -0.0534486 0.064105 -0.0492135 0.181275 -0.298516 -0.259702 0.0781849 0.0265391 0.0718513 0.205271 -0.229024 -0.109768 -0.559807 0.295572 0.228362 -0.326541 -0.059465 -0.0485851 0.328873 -0.0814146 0.642577
85 -0.39105 -0.0259657 0.185174 0.143427 -0.177951 -0.27447 -0.0463542 0.273335 0.182914 -0.029293 -0.0757992 -0.0383349 -0.178051 0.2129 0.0524531 -0.0337968 0.116461 0.048029 0.291356 -0.123937 0.0133626 0.0259251 0.0179267 -0.0206456 0.257469 -0.244415 -0.18467 -0.425868 0.147618 0.0929889 -0.173938 -0.0411768 0.0139217 0.369635 -0.0551425 0.332566
3717 -0.305416 0.0132185 0.173777 0.0786068 -0.113037 -0.125495 0.00889149 0.168301 0.0788704 -0.0270919 -0.0551155 0.0177231 -0.140048 0.151065 0.026006 -0.0256601 0.0707119 0.0789683 0.204689 -0.0873922 0.0725573 0.00779056 0.0234277 -0.0475101 0.200149 -0.201232 -0.114514 -0.298309 0.0835409 0.0551955 -0.109135 0.0145154 0.0149078 0.237253 -0.06966 0.236241
1400 -0.428383 0.0911574 0.337383 0.0706465 -0.0916879 -0.0467759 0.0416575 0.17544 0.00724615 -0.315966 -0.181248 0.0947308 -0.205744 0.298587 -0.0373641 -0.124125 0.0950625 0.155295 0.294268 -0.0851582 0.0281345 0.0526732 0.164811 -0.150709 0.306696 -0.267921 -0.123379 -0.417259 0.0762243 0.189171 -0.13629 0.00403342 -0.0519811 0.276433 -0.169719 0.489324
2729 -0.395134 0.041527 0.226362 0.123157 -0.147275 -0.174451 0.00519007 0.195628 0.0879019 -0.11043 -0.103232 0.0500537 -0.206765 0.237769 0.0189916 -0.0764411 0.102257 0.0963668 0.29621 -0.0916966 0.0803485 0.0355957 0.0486365 -0.0948463 0.266916 -0.230054 -0.12731 -0.371545 0.12122 0.111912 -0.12564 -0.0193248 0.025152 0.328729 -0.0940562 0.348369
4940 -0.231349 -0.0375871 0.128748 0.0929294 -0.119566 -0.124286 4.75014e-05 0.168144 0.132111 0.0352225 -0.0141525 -0.0397094 -0.0975413 0.111051 0.0503941 -0.00978741 0.0732842 0.0643473 0.220806 -0.0310293 0.0693567 0.00551432 -0.00247204 -0.0342859 0.15106 -0.173508 -0.128218 -0.231658 0.0387327 0.0238237 -0.0558803 -0.035151 0.0232606 0.258086 -0.0415892 0.130809
934 -0.293734 -0.218543 0.434055 0.18507 -0.275161 -0.128774 0.0531117 0.40911 0.360629 0.0399809 -0.0228167 -0.265775 -0.0538239 0.0275085 0.227929 -0.0521379 0.136717 0.289513 0.654984 0.0350856 0.232596 -0.0376186 0.00776772 -0.252879 0.294033 -0.402638 -0.304929 -0.185875 -0.164991 0.0679994 0.120695 -0.311865 -0.114329 0.498504 0.0232418 0.0416155
1680 -0.268944 -0.28466 0.361053 0.218618 -0.301742 -0.144422 0.0651786 0.424802 0.380821 0.176362 0.0401386 -0.319395 -0.0304781 -0.0127513 0.246918 -0.0387796 0.11445 0.265332 0.635575 0.0369978 0.220482 -0.0444515 -0.027716 -0.198834 0.313063 -0.361654 -0.286886 -0.193684 -0.131296 0.056441 0.0997884 -0.285876 -0.0304652 0.519658 0.0549409 -0.0256231
3266 -0.314542 -0.148491 0.299992 0.138434 -0.208552 -0.11011 0.0519536 0.289315 0.223898 0.0683402 -0.0270034 -0.168231 -0.082084 0.108235 0.119367 -0.0611855 0.123273 0.189525 0.472111 -0.012167 0.133961 -0.0174474 0.044795 -0.172901 0.281621 -0.279902 -0.201673 -0.252166 -0.0255555 0.0864304 -0.00722568 -0.157448 -0.00137475 0.399415 -0.0168825 0.10937
3271 -0.315584 -0.141565 0.235332 0.145494 -0.227468 -0.213238 -0.00210893 0.349905 0.291377 0.0631889 -0.00729595 -0.144639 -0.113401 0.103278 0.142434 0.00748894 0.146251 0.143626 0.429151 -0.0387527 0.0787687 0.00913717 0.0204767 -0.0993312 0.262641 -0.301127 -0.251801 -0.286881 -0.0161722 0.0919372 -0.0672103 -0.112596 -0.0571839 0.415646 -0.0143773 0.134486
1003 -0.321419 -0.0452491 0.189794 0.0872431 -0.139514 -0.146803 0.034874 0.231277 0.129237 0.0215301 -0.0504909 -0.0253941 -0.149688 0.153 0.0578465 -0.0209233 0.0837337 0.0850534 0.281686 -0.0600253 0.092345 -0.029537 0.017877 -0.0474905 0.223103 -0.259646 -0.169597 -0.330788 0.0705609 0.0350377 -0.0994611 -0.0237697 0.0215028 0.312453 -0.0601781 0.226562
4132 -0.205834 -0.0627382 0.10587 0.0767871 -0.100852 -0.123734 -0.00594746 0.208475 0.11641 0.0490505 -0.00428914 -0.0444677 -0.0868154 0.0876482 0.0439503 0.00802883 0.0737238 0.0660242 0.17978 -0.0411723 0.0321523 0.00174678 0.0184962 -0.015298 0.151885 -0.159379 -0.140836 -0.206669 0.0522551 0.039322 -0.0791653 -0.014475 0.00644024 0.210393 -0.0342802 0.115191
4134 -0.26219 -0.074053 0.170416 0.12921 -0.140829 -0.198726 -0.0130359 0.278036 0.20054 0.0340175 -0.0464604 -0.0825315 -0.116556 0.116214 0.0788877 -0.0186568 0.103313 0.0894588 0.29688 -0.0473103 0.0549413 0.00969233 0.0187636 -0.0573265 0.213207 -0.191426 -0.193524 -0.229601 0.0398968 0.067988 -0.0629824 -0.0945122 -0.00475397 0.316445 -0.0384383 0.170843
423 -0.283678 -0.462789 0.60464 0.17912 -0.501858 0.139715 0.084111 0.254804 0.489 0.162966 0.121721 -0.577112 0.0217479 -0.0670429 0.325176 -0.121102 0.0592384 0.514595 1.04671 0.108346 0.288199 -0.132712 -0.0468245 -0.464932 0.349749 -0.565411 -0.265705 -0.328366 -0.339717 0.0284985 0.183203 -0.461263 -0.0934431 0.757402 0.097562 -0.165132
4717 -0.277931 -0.0891943 0.157537 0.109632 -0.157439 -0.212456 -0.0124198 0.28031 0.192241 0.0817442 -0.0379146 -0.112901 -0.124711 0.105706 0.0683942 -0.0111197 0.114892 0.0955919 0.286576 -0.0669164 0.0634331 0.0096134 -0.0201179 -0.0508274 0.207645 -0.228624 -0.185202 -0.273662 0.0415543 0.0599077 -0.102432 -0.0584589 -0.0109839 0.327575 -0.0281338 0.1315
4719 -0.283756 -0.198175 0.167965 0.143859 -0.209344 -0.239861 -0.0360469 0.346554 0.330689 0.136162 -0.0345434 -0.202694 -0.0986647 0.0488183 0.125612 -0.0184092 0.100317 0.115339 0.394782 -0.0717002 0.0479087 -0.00913698 -0.0704035 -0.0522747 0.222098 -0.237919 -0.211956 -0.290332 0.00162305 0.0576294 -0.083386 -0.138116 -0.0141783 0.402759 0.0240271 0.087542
687 -0.261815 -0.270991 0.361885 0.244672 -0.23191 -0.140619 0.0672156 0.554831 0.360644 0.210271 -0.0169025 -0.278368 -0.109412 0.0965419 0.175312 -0.0347768 0.124625 0.219546 0.533087 0.0361018 0.176565 0.0118725 -0.0169107 -0.231748 0.363575 -0.349016 -0.383024 -0.196122 -0.174746 0.150093 -0.00207849 -0.241898 -0.117345 0.438506 -0.000705775 0.0315316
1027 -0.51483 -0.280903 -0.175773 0.0330615 -0.239223 -1.15341 -0.372138 0.863578 0.786801 0.216933 -0.14304 -0.313244 -0.0261462 0.214618 0.0662456 -0.0699407 0.16879 -0.124372 0.154199 -0.271791 -0.339958 -0.0932158 -0.0669265 0.444634 0.220005 -0.216216 -0.287855 -0.568163 0.431675 0.117242 -0.316887 -0.287957 0.0409636 0.592296 0.107935 0.4278
4502 -0.273868 -0.137965 0.03224 0.123286 -0.197165 -0.367579 -0.134532 0.435417 0.332815 0.0843137 -0.0167091 -0.164005 -0.110287 0.160512 0.097702 0.0149859 0.139143 0.0092221 0.25405 -0.109365 -0.100447 0.00515529 -0.0252253 0.0695303 0.205045 -0.208798 -0.233746 -0.339387 0.141216 0.10001 -0.141745 -0.0989569 -0.0250405 0.365307 0.00433453 0.223857
3275 -0.359656 0.00977682 0.228526 0.0702336 -0.114264 -0.0927359 0.0554626 0.191612 0.0483434 -0.101577 -0.0807571 0.0438372 -0.178941 0.228653 0.0151488 -0.0403433 0.0856401 0.0862351 0.233902 -0.0865166 0.0879856 0.00593992 0.115263 -0.0769642 0.245693 -0.257777 -0.15786 -0.369061 0.0665324 0.0677889 -0.135609 0.0468016 -0.00341292 0.256805 -0.134377 0.348547
3406 -0.379151 0.0246022 0.219396 0.0259161 -0.0866199 -0.0649884 0.0532405 0.197172 0.039559 -0.115583 -0.0788828 0.0424681 -0.187173 0.249573 -0.0342556 -0.069451 0.112958 0.104445 0.186782 -0.0670441 0.0668206 -0.019015 0.121639 -0.0469508 0.254363 -0.275827 -0.140618 -0.377872 0.103875 0.0549662 -0.152729 0.0485309 -0.0194181 0.240761 -0.124463 0.370741
998 -0.3884 -0.00764 0.31108 0.117203 -0.125701 -0.13782 0.0308944 0.311674 0.113031 -0.136282 -0.133857 0.0225614 -0.18752 0.280751 0.000727746 -0.0886115 0.151767 0.130985 0.307779 -0.06388 0.0545389 0.0664131 0.126635 -0.148726 0.351266 -0.256725 -0.217204 -0.336314 0.0280066 0.17523 -0.140377 -0.0513866 -0.0787889 0.296385 -0.13962 0.38908
1273 -0.461742 0.172511 0.318859 0.147605 -0.0919449 -0.0628388 0.0306931 0.137007 0.0066128 -0.270742 -0.147619 0.17536 -0.272561 0.238162 0.0325185 -0.0192521 0.12497 0.123001 0.344374 -0.112064 0.141441 0.0422169 0.0752641 -0.147906 0.236823 -0.308481 -0.157354 -0.397608 0.108815 0.119218 -0.100353 0.0590298 -0.0274304 0.290987 -0.151557 0.482014
603 -0.518641 0.162135 0.52171 -0.061535 -0.0611109 0.308244 0.264851 0.242014 -0.27746 -0.4605 -0.113879 0.253565 -0.300625 0.48378 -0.114038 -0.141101 0.140533 0.229672 0.143664 -0.00618519 0.294403 -0.0263976 0.38311 -0.199594 0.435242 -0.551656 -0.192849 -0.541167 0.0690162 0.024106 -0.0587412 0.18694 -0.118191 0.199137 -0.334603 0.65913
1712 -0.335671 -0.0210693 0.203522 0.107039 -0.145484 -0.183241 0.0143733 0.191339 0.141628 -0.043954 -0.0876324 -0.013753 -0.139954 0.159697 0.0427967 -0.0568087 0.0895998 0.0996306 0.281378 -0.0758373 0.0700103 0.0295825 0.0138194 -0.0836994 0.203003 -0.229214 -0.149348 -0.286927 0.0389217 0.0822039 -0.0862327 -0.0502638 0.0030264 0.292353 -0.0481743 0.223432
408 -0.305404 -0.127203 0.373477 0.161071 -0.216909 -0.120268 0.0257409 0.222457 0.244244 -0.0459494 -0.0511356 -0.14383 -0.0571846 0.0723239 0.155938 -0.0767391 0.130288 0.222044 0.550188 -0.00413644 0.143757 -0.0323589 0.0796874 -0.243571 0.280736 -0.257347 -0.178376 -0.210788 -0.103518 0.137259 0.042453 -0.200234 -0.0196416 0.392217 0.000343282 0.13455
428 -0.355615 -0.416918 0.674724 0.192554 -0.472818 0.207741 0.148333 0.115546 0.488953 0.0784796 0.0692999 -0.517262 0.0650149 -0.16126 0.377403 -0.151983 0.0504601 0.545342 1.18609 0.0568075 0.352266 -0.20367 0.0200139 -0.59632 0.353221 -0.475794 -0.226321 -0.334584 -0.431074 0.124222 0.200005 -0.45221 -0.0150913 0.707148 0.145963 -0.104631
109 -0.204474 -0.174321 0.292874 0.259969 -0.218732 -0.150168 0.0510118 0.528067 0.242029 0.125199 -0.0160603 -0.189199 -0.121902 0.131877 0.144234 -0.00908133 0.144324 0.151878 0.397108 0.00670889 0.118819 0.079554 -0.0192456 -0.140133 0.35167 -0.302828 -0.347398 -0.193978 -0.0883643 0.119239 -0.0354803 -0.180103 -0.105096 0.367576 -0.0254797 0.0994548
106 -0.1804 -0.0585098 0.640578 0.4382 -0.148112 -0.0315913 0.134486 0.704071 0.14192 -0.238527 -0.126525 -0.113904 -0.165748 0.148666 0.217601 -0.130377 0.141327 0.239939 0.501311 0.0687882 0.27161 0.207793 -0.00618801 -0.439848 0.464797 -0.430597 -0.490727 -0.020462 -0.22771 0.28004 0.188748 -0.389561 -0.273467 0.327238 -0.0560128 0.182687
1508 -0.453975 0.0872985 0.393278 0.280279 -0.119669 -0.203259 0.0811315 0.0967769 0.0560887 -0.0945296 -0.164309 0.172182 -0.133683 0.314657 0.0386795 -0.0856215 0.222328 0.134594 0.412648 -0.10323 0.0409899 0.136825 0.290493 -0.298113 0.400888 -0.125058 -0.210003 -0.272915 -0.0634675 0.293353 -0.152917 -0.022919 0.0375123 0.235019 -0.0828466 0.361443
2886 -0.337987 -0.0981422 0.0217853 0.0838198 -0.132058 -0.406874 -0.156003 0.360627 0.306821 -0.0242608 -0.116777 -0.0708934 -0.120857 0.290338 -0.0231357 -0.0477102 0.124843 -0.0277084 0.157546 -0.179307 -0.243823 0.0206509 0.0845009 0.0802373 0.284955 -0.118714 -0.181177 -0.467494 0.159592 0.230747 -0.306414 -0.0557591 -0.0139561 0.292227 -0.0322948 0.406575
4198 -0.351294 -0.00727434 0.205971 0.0925849 -0.131798 -0.158813 0.0076271 0.230142 0.101387 -0.0765467 -0.0944774 0.0136726 -0.161923 0.223275 0.0168093 -0.0513706 0.105827 0.0876958 0.24423 -0.100211 0.0559196 0.0330579 0.0310516 -0.064898 0.259562 -0.230264 -0.150792 -0.342714 0.0917747 0.086359 -0.126671 -0.00696048 -0.0118115 0.294565 -0.103632 0.302366
4851 -0.206284 -0.018039 0.121751 0.0785609 -0.0808105 -0.114026 -0.00233429 0.146165 0.0838296 -0.0253427 -0.0529114 0.00795962 -0.100164 0.13553 0.018495 -0.0152634 0.0808191 0.0518757 0.159348 -0.0646906 0.0319971 0.0231841 0.0284002 -0.0301155 0.150184 -0.137649 -0.0976122 -0.198414 0.0674611 0.055087 -0.0793117 -0.00907207 -0.012181 0.180058 -0.0360773 0.16923
210 -0.463013 -0.388625 -0.0895552 -0.119099 -0.0966259 -1.14786 -0.375272 1.21514 0.820802 0.163829 -0.204157 -0.333919 0.0990742 0.288968 -0.0147345 -0.176359 0.189392 -0.0502951 0.00645942 -0.106279 -0.344505 -0.195957 0.227719 0.459437 0.290382 -0.176555 -0.304872 -0.46146 0.380176 0.168771 -0.190386 -0.363202 -0.127199 0.473875 0.0543026 0.541107
2526 -0.326728 0.0348364 0.209034 0.0534222 -0.141111 -0.106745 0.0578728 0.151014 0.0261643 -0.0871378 -0.0595815 0.0419607 -0.147399 0.218598 0.0207226 -0.0446752 0.0988332 0.103165 0.188254 -0.0462347 0.123989 -0.00568806 0.0715718 -0.058873 0.21546 -0.274703 -0.11665 -0.347853 0.109034 -0.00937793 -0.0688279 0.0110664 0.0237788 0.27687 -0.0741846 0.25864
173 -0.576231 0.287458 0.541133 0.0198015 -0.114354 0.137399 0.19824 0.117003 -0.324501 -0.480218 -0.129915 0.290751 -0.32779 0.527874 -0.0792077 -0.179075 0.130695 0.227621 0.201139 0.0367992 0.342078 -0.0143601 0.288497 -0.218643 0.390654 -0.514617 -0.0882505 -0.528885 0.200394 -0.0421444 -0.0203833 0.119141 -0.00391153 0.303894 -0.349813 0.566725
175 -0.421408 0.0120595 0.294418 -8.19392e-05 -0.0547367 0.0449627 0.0989539 0.251241 0.0266487 -0.00951532 -0.00463002 0.060444 -0.178948 0.335086 -0.00533209 0.0273788 0.150245 0.165385 0.279893 0.0682137 0.169003 -0.152859 0.249345 -0.0805354 0.276782 -0.327842 -0.159249 -0.38673 0.0618847 0.0838531 -0.0500307 0.133659 -0.0487029 0.277548 -0.199073 0.315898
356 -0.670194 0.400651 0.309074 0.011786 -0.0479492 0.182391 0.0427357 -0.0457849 -0.179071 -0.398439 -0.143933 0.390144 -0.534581 0.202806 0.0314446 0.131051 0.0523927 0.0471378 0.361301 -0.205916 0.308183 -0.0918414 -0.0789785 0.0247734 0.116945 -0.395816 -0.0410669 -0.801041 0.34709 -0.0395044 -0.155735 0.379457 0.0118593 0.392422 -0.302747 0.695354
2393 -0.414018 0.129873 0.282171 0.158975 -0.0954835 -0.121755 0.0218644 0.176409 0.0254822 -0.171871 -0.122653 0.105483 -0.236514 0.18547 0.044991 -0.0278136 0.0885758 0.073092 0.294774 -0.109574 0.108273 0.0371526 0.0153005 -0.0826865 0.209199 -0.257452 -0.141585 -0.377014 0.133388 0.0664697 -0.101104 0.0304378 0.0147044 0.305441 -0.110553 0.372987
619 -0.459584 0.160882 0.244219 0.144712 -0.0873932 -0.0834426 0.0329915 0.0896617 0.0109845 -0.166893 -0.118576 0.156734 -0.271156 0.189584 0.0344276 0.00290294 0.0930636 0.0859104 0.323935 -0.144433 0.0986544 0.0157659 0.00700388 -0.0571345 0.187897 -0.246982 -0.11114 -0.445914 0.154868 0.0939769 -0.143571 0.120784 0.058158 0.311834 -0.132857 0.435556
440 -0.455145 0.123087 0.275758 0.0858328 -0.12281 -0.103663 0.0633294 0.154 -0.00612501 -0.230432 -0.101121 0.127405 -0.21175 0.306713 -0.00747657 -0.0672311 0.110238 0.129294 0.246224 -0.101266 0.123945 0.0263778 0.128716 -0.109581 0.269957 -0.296512 -0.102004 -0.431736 0.140618 0.0664412 -0.11973 0.0579155 -0.00903071 0.311176 -0.168216 0.419547
4025 -0.36917 0.00169906 0.291052 0.156504 -0.125285 -0.171615 0.0675317 0.237909 0.0968703 -0.0302684 -0.0901858 0.0439876 -0.153454 0.241136 0.0245593 -0.0599175 0.137836 0.128077 0.306082 -0.0558141 0.0992454 0.0489477 0.106794 -0.126858 0.324322 -0.240007 -0.202995 -0.329827 0.042155 0.121128 -0.1269 -0.0110976 -0.0229429 0.303843 -0.101353 0.284948
2305 -0.386617 0.0932516 0.451701 0.30768 -0.161907 -0.121605 0.108908 0.144998 0.0103472 -0.0708093 -0.106969 0.155705 -0.16866 0.300604 0.0597066 -0.0513376 0.220874 0.160313 0.410936 -0.037039 0.138197 0.131955 0.261913 -0.298806 0.400833 -0.190563 -0.239569 -0.258413 -0.0409228 0.200667 -0.0468016 -0.0351533 0.0557744 0.263691 -0.0650086 0.285641
1953 -0.348759 -0.200959 -0.0755145 0.0629892 -0.212786 -0.52209 -0.206356 0.441587 0.459662 0.127021 -0.0572284 -0.201039 -0.102343 0.169678 0.0780806 0.00477944 0.106587 -0.0467057 0.250485 -0.201735 -0.21356 -0.0138565 -0.0777325 0.186741 0.19761 -0.172065 -0.218558 -0.467235 0.213947 0.115621 -0.2922 -0.102202 -0.00527009 0.40734 0.0289466 0.301147
1023 -0.415468 -0.366131 -0.144601 -0.00171308 -0.223705 -1.08461 -0.474727 1.05273 0.858953 0.0855792 -0.112913 -0.420592 0.0492718 0.223122 0.0815156 -0.0811255 0.18155 -0.0569385 0.187018 -0.210506 -0.472083 -0.155965 0.0975254 0.436525 0.23505 -0.248592 -0.295004 -0.520817 0.400806 0.216391 -0.208476 -0.423398 -0.0589843 0.606046 0.0739695 0.587118
96 -0.13914 -0.23582 0.491956 0.421124 -0.281523 -0.184556 0.055711 0.807273 0.333012 0.110005 -0.0434371 -0.338344 -0.124684 0.0953799 0.247838 -0.0603217 0.15981 0.221724 0.551781 0.107492 0.214272 0.143023 -0.0899758 -0.268372 0.433647 -0.41258 -0.495031 -0.0595558 -0.171347 0.187212 0.151886 -0.444603 -0.205317 0.495948 0.0187119 -0.00723546
1664 -0.399883 0.0962689 0.206841 0.107507 -0.105969 -0.0964623 0.0372811 0.125961 0.0246121 -0.116203 -0.0768566 0.0875419 -0.213167 0.191565 0.0309869 -0.00724778 0.0730387 0.0743105 0.261859 -0.0860116 0.11842 0.0221137 0.0176421 -0.0675467 0.200772 -0.250372 -0.131481 -0.403687 0.115473 0.0657293 -0.136895 0.0792202 0.0122524 0.297971 -0.131311 0.355992
1663 -0.510235 0.312812 0.38592 0.172566 -0.0480939 0.0214746 0.00783938 0.0476131 -0.0619402 -0.420346 -0.171245 0.248015 -0.302906 0.175919 0.0486329 0.0162189 0.0826691 0.115986 0.424546 -0.118277 0.179238 0.016481 0.0671011 -0.175387 0.162466 -0.27754 -0.0770591 -0.433002 0.148326 0.151129 -0.0457376 0.072678 -0.0176794 0.329823 -0.206131 0.590457
573 -0.402354 -0.00983042 0.26103 0.149102 -0.137377 -0.169656 0.0328846 0.199166 0.0964301 -0.0359746 -0.0821429 0.0480033 -0.160521 0.220706 0.0546137 -0.0405456 0.143163 0.109082 0.3267 -0.0604582 0.0650757 0.0467405 0.118019 -0.119567 0.291165 -0.206043 -0.194103 -0.326981 0.0307583 0.125973 -0.143456 -0.0052194 0.0361134 0.292141 -0.0943558 0.285442
