5003 36
1081 0.00959454 0.347742 0.349023 -0.366595 0.46836 -0.221549 -0.311035 -0.371633 -0.669915 -0.493722 -0.167086 -0.36396 -0.313602 -0.313662 0.451829 -0.358562 -0.473155 -0.0939843 0.502551 -0.0250394 0.0737264 -0.0324477 -0.0296143 0.406273 -0.131714 0.232454 0.163652 -0.0954019 0.147416 0.324574 0.103733 0.210629 0.316604 -0.241235 -0.560645 -0.0840728
1737 0.0261658 0.380196 0.262511 -0.178311 0.464152 -0.224646 -0.294804 -0.292906 -0.757156 -0.452264 -0.258236 -0.379649 -0.434875 -0.350138 0.463705 -0.476133 -0.432162 -0.160927 0.595723 -0.148408 0.0891194 -0.133325 -0.123983 0.407113 -0.207494 0.243989 0.275963 -0.0881568 0.104513 0.195888 0.106256 0.355782 0.387196 -0.24629 -0.708269 -0.159762
2937 -0.0168933 0.248099 0.229538 -0.162024 0.362994 -0.113824 -0.302988 -0.262309 -0.512857 -0.315725 -0.211465 -0.116174 -0.259376 -0.263558 0.414782 -0.330525 -0.278241 -0.0877664 0.428432 0.0867399 -0.0863242 -0.0203384 -0.0244724 0.291627 -0.140906 0.104683 0.166501 -0.120216 0.204764 0.15391 -0.0323623 0.23516 0.172235 -0.176336 -0.412787 -0.0921038
2935 0.00113463 0.224545 0.255548 -0.201184 0.300883 -0.170179 -0.340849 -0.268353 -0.496832 -0.339874 -0.167774 -0.173986 -0.300759 -0.259626 0.395025 -0.308445 -0.279817 -0.0647975 0.43343 0.0473446 -0.0709618 -0.022801 -0.0571873 0.358973 -0.0910186 0.151946 0.138999 -0.0920035 0.0941247 0.221705 0.0476643 0.325729 0.186113 -0.166786 -0.368325 -0.0148834
2939 -0.0166337 0.258013 0.22258 -0.163298 0.335583 -0.157648 -0.308901 -0.241427 -0.498025 -0.349572 -0.180156 -0.201206 -0.305333 -0.225777 0.373736 -0.32258 -0.285882 -0.0648254 0.41161 0.0321534 -0.0480107 -0.0438368 -0.0172907 0.320283 -0.112039 0.0939566 0.147594 -0.0819025 0.1308 0.149738 0.028574 0.274214 0.194759 -0.160979 -0.387994 -0.0617756
2 -0.614554 0.0987985 0.102822 -0.233017 0.266857 0.197161 -0.165468 -0.181572 -0.502552 -0.564182 -0.771994 0.794344 -0.463625 -0.333536 0.162206 -0.0743528 0.11487 -1.01704 0.899379 0.41893 0.416858 -0.0301428 -0.434736 0.0912153 -0.139981 0.413261 -0.0337978 -0.815176 -0.0113665 0.553861 0.323572 -0.323178 -0.265547 -0.599355 -0.595801 -0.173544
4 -0.176775 0.175173 0.105484 -0.309798 0.478062 -0.449694 -0.586565 -0.537761 -0.560779 -0.33429 -0.424143 0.0587519 -0.164302 -0.289733 0.499643 -0.362083 -0.00310838 -0.0219406 0.594214 0.5658 -0.0255109 -0.0494499 -0.0923405 0.165867 -0.432574 -0.261664 0.391169 -0.516961 0.420554 0.109194 -0.218595 -0.313933 -0.180866 -0.422836 0.153611 -0.140003
340 -0.220283 0.281297 0.0765666 -0.328906 0.665813 -0.545744 -0.545356 -0.619923 -0.700685 -0.466718 -0.494919 0.0817026 -0.155556 -0.412049 0.459169 -0.56925 -0.167285 -0.0351624 0.781482 0.564301 0.144068 -0.0675677 -0.157417 0.105733 -0.43003 -0.414217 0.386013 -0.525014 0.487741 -0.0220392 -0.267369 -0.493488 -0.192304 -0.41283 -0.107125 -0.391202
133 0.0372368 0.305657 0.393763 -0.455887 0.429033 -0.138249 -0.177907 -0.592878 -0.688305 -0.641296 -0.270027 -0.188376 -0.219951 -0.393574 0.454237 -0.222133 -0.432743 -0.0795413 0.578956 0.115238 0.121379 0.189402 0.00195902 0.359456 -0.0420252 0.0924666 0.0730682 -0.195087 0.218149 0.437705 0.221142 0.172451 0.257011 -0.251833 -0.495869 -0.126231
296 -0.0768078 0.191566 0.341388 -0.529996 0.27813 -0.102074 -0.291242 -0.429135 -0.513939 -0.687098 -0.212396 -0.0379482 -0.405852 -0.255366 0.400953 -0.0820579 -0.323942 0.00725714 0.527088 0.313394 0.105526 0.156161 -0.0107214 0.281409 0.0651107 0.036953 -0.07215 -0.012133 0.174378 0.39102 0.195805 0.19361 0.0897174 -0.252643 -0.106402 0.161533
508 -0.154724 0.366751 0.421078 -0.725035 0.605676 -0.497386 -0.516678 -0.763394 -0.75249 -0.792731 -0.248473 -0.207421 -0.286638 -0.413315 0.441958 -0.230873 -0.437216 0.114235 0.711559 0.452059 0.118821 0.268613 0.0342569 0.275152 -0.172078 -0.30314 0.131931 -0.277936 0.344105 0.368184 0.0272315 -0.19179 -0.0640715 -0.290158 -0.0455098 -0.169516
1311 -0.177297 0.104843 0.0420575 -0.146321 0.0425165 -0.458257 -0.673857 -0.243085 -0.473253 -0.699388 -0.392073 0.183496 -1.0497 -0.27033 0.299801 -0.326694 -0.0191161 0.097084 0.778777 0.350451 -0.233257 0.153672 -0.248937 0.457426 0.202065 -0.37479 -0.0812639 -0.0112188 -0.0813993 -0.00949289 0.16283 0.845937 -0.357478 -0.160194 0.328982 0.297189
1763 -0.161253 0.0803406 -0.0366353 0.0523407 -0.0296729 -0.238522 -0.586042 -0.10565 -0.418487 -0.497572 -0.436043 0.329973 -0.914481 -0.207755 0.287774 -0.313298 0.0781658 -0.0253481 0.678472 0.30539 -0.322777 0.0913948 -0.214769 0.415121 0.208054 -0.25829 -0.0943192 -0.0291207 -0.0393324 -0.0570474 0.123821 0.841235 -0.307472 -0.136128 0.166122 0.267038
2693 -0.118087 0.0591713 0.0647263 0.0379447 0.0055569 -0.21062 -0.515367 -0.0785753 -0.372086 -0.335815 -0.345313 0.218006 -0.683214 -0.219559 0.341839 -0.280783 0.029256 -0.0545565 0.517481 0.21763 -0.379421 0.0361914 -0.158886 0.406101 0.115032 -0.0579867 0.00812619 -0.0706865 -0.0277612 0.0645226 0.0767664 0.760503 -0.174322 -0.111065 0.0600907 0.238149
3112 -0.0833791 0.0573225 0.0709794 0.0404404 0.0181867 -0.199508 -0.480239 -0.0730637 -0.348859 -0.303817 -0.325258 0.183249 -0.618222 -0.199151 0.336544 -0.282108 0.03117 -0.0826762 0.507437 0.183948 -0.302427 0.0327224 -0.173671 0.360752 0.0966702 -0.0388776 0.0350155 -0.0800663 -0.00530186 0.0367458 0.076622 0.670486 -0.144907 -0.110211 0.0316606 0.196189
1205 -0.0908196 0.0595185 0.0960337 0.0870058 -0.0522807 -0.110115 -0.526468 -0.0573373 -0.297082 -0.311259 -0.318129 0.272151 -0.659413 -0.244939 0.365962 -0.287448 0.0887989 -0.06949 0.460037 0.260997 -0.349276 0.0446014 -0.189974 0.420321 0.126057 -0.0702617 -0.020246 -0.0237485 0.0228343 -0.00149634 0.0769054 0.765298 -0.146178 -0.0955138 0.0673728 0.241257
69 0.0830283 -0.0489441 -0.378826 0.0544514 -0.0243187 -0.252298 0.0511673 -0.505979 -0.554124 -0.464859 -0.883187 0.575583 -0.238039 -0.273718 0.420034 -0.28319 0.207703 -0.249969 0.559155 0.269923 0.0275669 0.152478 -0.245684 0.203541 -0.0127461 -0.204385 0.249806 -0.571361 0.196267 0.219804 0.488782 0.541988 -0.243254 -0.370661 -0.131928 -0.0664066
331 -0.00684498 0.0264909 -0.209967 0.150421 0.190774 -0.212565 -0.188459 -0.342871 -0.482507 -0.266451 -0.690139 0.401422 -0.0916717 -0.233142 0.433737 -0.343885 0.107167 -0.236207 0.536261 0.238597 -0.220172 0.162962 -0.0935815 0.250704 -0.0908783 -0.175857 0.311866 -0.574061 0.230664 0.144899 0.206753 0.384328 -0.224109 -0.287728 -0.142885 -0.141958
369 -0.0415102 -0.0608786 0.0799407 0.225964 0.0809705 -0.0176185 -0.319814 -0.0548329 -0.303022 -0.00427246 -0.461717 0.341564 -0.159921 -0.270007 0.538632 -0.280465 0.104659 -0.249979 0.38179 0.181291 -0.378069 -0.00062453 -0.0937857 0.275627 -0.102872 0.0941042 0.311844 -0.329974 0.208266 0.128933 0.0262367 0.542152 -0.0224412 -0.144486 -0.194817 0.0134276
224 -0.0145864 -0.0860856 0.359658 0.302014 0.117411 0.176837 -0.424612 0.043585 -0.217833 0.22192 -0.339414 0.395327 0.0303196 -0.422098 0.70575 -0.340827 0.0984941 -0.340715 0.296878 0.202686 -0.536788 -0.0475689 -0.0663176 0.273374 -0.18515 0.324148 0.38563 -0.288577 0.363092 0.211062 -0.182901 0.517083 0.138347 -0.0213307 -0.401743 -0.0872498
1939 -0.0480569 0.15956 0.281298 -0.102293 -0.0187862 0.278508 -0.332595 -0.305691 -0.225844 -0.34834 -0.331965 0.508353 -0.211163 -0.296321 0.462089 -0.158273 0.135091 0.00562791 0.292886 0.636482 -0.207733 0.232544 -0.102239 0.262558 0.0985219 -0.18006 -0.131135 -0.0955537 0.448774 0.00958855 -0.00204794 0.289567 -0.130563 -0.214761 -0.0179104 0.116413
1502 -0.0658873 0.177228 0.322028 -0.341768 0.147922 0.102357 -0.304399 -0.507446 -0.33298 -0.546292 -0.300569 0.323116 -0.186966 -0.324684 0.406696 -0.096674 -0.0814247 0.0639984 0.426135 0.610669 -0.0451903 0.337962 -0.0221575 0.19981 0.0717128 -0.259 -0.104825 -0.0946788 0.432216 0.182584 0.0542004 0.0945832 -0.128539 -0.19918 -0.000706371 0.0584609
42 -0.173633 0.110954 0.501833 -0.78114 0.345672 -0.145544 -0.225264 -0.74255 -0.653225 -0.845547 -0.285607 0.134444 -0.1813 -0.40908 0.372174 0.00362402 -0.4418 -0.0789469 0.58204 0.399433 0.08994 0.551152 0.0361853 0.188039 0.0675063 -0.0684812 -0.0842041 -0.187772 0.290334 0.761045 0.289976 0.0746326 8.702e-05 -0.209426 -0.0982055 -0.0255083
204 -0.151236 0.0425043 -0.0021138 0.104721 0.124099 -0.438338 -0.650931 -0.147323 -0.534576 -0.557702 -0.512815 0.232666 -0.992285 -0.269325 0.351266 -0.274261 0.0302721 -0.0764313 0.873285 0.216543 -0.157601 0.0259704 -0.272529 0.286264 0.165727 -0.281207 0.0748935 -0.108215 -0.0906066 -0.0148678 0.120372 0.599927 -0.316024 -0.155048 0.181238 0.163031
1969 -0.134968 0.0796915 -0.00986107 0.0671002 -0.00365411 -0.404229 -0.646146 -0.119069 -0.46932 -0.548181 -0.460469 0.254599 -1.05527 -0.29476 0.336331 -0.379299 0.0699016 -0.0574425 0.740018 0.234777 -0.318319 0.0267438 -0.277772 0.529503 0.185506 -0.176376 -0.055521 -0.1098 -0.174215 -9.55058e-06 0.187353 0.974253 -0.320294 -0.173393 0.18223 0.337699
30 -0.241432 0.283207 0.407601 -0.388781 0.446429 0.0529978 -0.12972 -0.523562 -0.529202 -0.772153 -0.327241 0.0917947 -0.335498 -0.303483 0.267797 0.0921815 -0.324107 -0.369009 0.726657 0.358313 -0.119022 0.52248 0.0372522 0.2809 0.435704 -0.00576076 -0.118544 -0.439708 0.0710941 0.601725 0.243549 0.0132357 -0.0501051 -0.172313 -0.236308 -0.144655
356 0.111001 0.468414 0.35354 -0.374387 0.425033 -0.211153 -0.296552 -0.484994 -0.707146 -0.529187 -0.193335 -0.363373 -0.361031 -0.423538 0.48681 -0.465598 -0.398591 0.00833268 0.50172 0.137817 0.190224 -0.0940826 -0.11827 0.45179 -0.216479 0.114552 0.158619 -0.0619218 0.258153 0.141043 0.0955157 0.135306 0.336269 -0.310257 -0.553788 -0.169944
616 -0.0305257 0.426274 0.283503 -0.325848 0.50833 -0.235951 -0.303946 -0.42788 -0.787029 -0.604188 -0.224022 -0.371599 -0.405589 -0.359499 0.397889 -0.498386 -0.550187 -0.0497708 0.598409 -0.0147221 0.0940601 -0.0117442 -0.0582173 0.452388 -0.1736 0.0717703 0.124419 -0.0748564 0.181066 0.186873 0.0594939 0.26517 0.273183 -0.248481 -0.653454 -0.199
134 0.0346569 0.433904 0.114011 -0.2638 0.272813 0.0131918 -0.152694 -0.354784 -0.906851 -0.651629 -0.421456 -0.107927 -0.649956 -0.280952 0.415535 -0.414694 -0.372809 -0.173189 0.62952 0.0767884 0.396125 -0.145465 -0.256444 0.319351 -0.142897 0.157104 0.0351115 0.0182517 0.234547 0.125252 0.289986 0.315158 0.374809 -0.40364 -0.78527 -0.129803
136 -0.0169042 0.307957 0.311486 -0.336787 0.446301 -0.298848 -0.343148 -0.353098 -0.653189 -0.475319 -0.146397 -0.365105 -0.381913 -0.3424 0.392976 -0.369786 -0.414802 -0.0539689 0.515891 -0.055428 0.0237787 -0.0430063 -0.063668 0.420844 -0.150638 0.187613 0.164832 -0.114194 0.0526604 0.272419 0.0943307 0.29739 0.269466 -0.219182 -0.470021 -0.0856459
2660 -0.023997 0.161882 0.188112 -0.0457938 0.205257 -0.0785188 -0.28859 -0.169235 -0.416964 -0.259006 -0.206559 -0.0331635 -0.28481 -0.217766 0.363079 -0.284476 -0.153573 -0.0975635 0.359892 0.0785882 -0.126139 -0.0246862 -0.055323 0.277975 -0.0782775 0.0769026 0.125616 -0.0822859 0.160311 0.095681 -2.41054e-05 0.312365 0.10842 -0.134265 -0.313316 -0.00986632
72 0.15942 0.408496 0.33602 -0.259535 0.31 -0.242304 -0.371496 -0.34946 -0.775009 -0.422784 -0.243491 -0.34407 -0.590545 -0.451205 0.550895 -0.475375 -0.289652 -0.130211 0.520393 -0.00439731 0.246761 -0.272817 -0.350012 0.452378 -0.233741 0.338845 0.205628 0.00425362 0.0901324 0.13337 0.178219 0.336867 0.533559 -0.349914 -0.691583 -0.0828389
637 -0.0829422 0.171597 0.117957 -0.0433079 0.200848 0.0120614 -0.361765 -0.169946 -0.43188 -0.291787 -0.333256 0.16739 -0.338853 -0.212581 0.449199 -0.290749 -0.0303049 -0.121352 0.411662 0.275487 -0.145381 -0.00560594 -0.0633952 0.266807 -0.122389 0.0119099 0.133137 -0.154586 0.300097 0.0623786 -0.005624 0.331158 0.0380636 -0.218608 -0.23452 0.0291678
4915 -0.0539615 0.117364 0.207813 -0.0856491 0.143208 0.0353152 -0.353348 -0.214214 -0.31754 -0.242978 -0.270978 0.198059 -0.185519 -0.217965 0.433725 -0.204515 -0.0390223 -0.06055 0.342381 0.331486 -0.177631 0.043178 -0.037622 0.241929 -0.0547825 -0.00534876 0.0812556 -0.156372 0.288498 0.095758 -0.052574 0.248409 0.000398234 -0.184313 -0.131325 0.0405306
4914 -0.0365864 0.113081 0.182598 -0.0368136 0.09344 0.00815021 -0.339326 -0.150844 -0.255595 -0.216104 -0.2067 0.177227 -0.265733 -0.213139 0.347087 -0.200009 -0.0090672 -0.0413888 0.304566 0.264754 -0.204191 0.0583304 -0.0704289 0.274233 0.00306688 -0.00840886 0.0591255 -0.0941827 0.192927 0.0722912 -0.00958584 0.33616 -0.0296549 -0.120767 -0.0895398 0.0842599
641 -0.0773902 0.133635 0.115168 -0.0446699 0.230017 -0.0483139 -0.358345 -0.167964 -0.396382 -0.239856 -0.302229 0.0983636 -0.239816 -0.197312 0.395422 -0.26715 -0.0860938 -0.0907405 0.398754 0.228239 -0.203649 0.0167853 -0.0112842 0.244262 -0.109223 -0.0302566 0.17111 -0.194473 0.249368 0.0988198 -0.0540308 0.261069 -0.0186379 -0.172556 -0.152898 0.026225
639 -0.130986 0.0889695 -0.0295704 -0.0558877 0.150694 -0.310611 -0.520546 -0.229294 -0.423435 -0.327394 -0.401169 0.186387 -0.492507 -0.18402 0.385738 -0.317971 0.0919893 -0.0622469 0.519629 0.351879 -0.294758 0.054423 -0.104051 0.367875 -0.0713933 -0.171729 0.145884 -0.307793 0.104461 0.0814484 0.0244604 0.431649 -0.235104 -0.24494 0.16471 0.156067
2840 -0.0593414 0.0952693 0.134352 -0.0446819 0.133947 -0.0777883 -0.353993 -0.18034 -0.30095 -0.215759 -0.24181 0.159851 -0.269064 -0.235298 0.362714 -0.273363 -0.0335262 -0.0799957 0.338806 0.230159 -0.234539 0.0193289 -0.0564771 0.30055 -0.050687 0.00683688 0.0995669 -0.172744 0.16494 0.104623 -0.0268587 0.353915 -0.048207 -0.148543 -0.117282 0.0622831
1 -0.584611 0.0671324 0.0594355 -0.28128 0.285492 0.336423 -0.145286 -0.360591 -0.758699 -0.476325 -0.70681 0.867097 -0.490386 -0.316542 0.137241 0.0176851 0.121859 -1.00537 0.728078 0.304554 0.370368 -0.0253167 -0.529885 -0.0596464 -0.338978 0.378432 -0.00623119 -0.7134 0.0763702 0.648272 0.390515 -0.214903 -0.0924571 -0.592696 -0.593542 -0.244149
1533 -0.0510381 0.157788 0.324483 -0.0415048 -0.0549857 0.388973 -0.414955 -0.321935 -0.171312 -0.296572 -0.334344 0.62924 -0.184762 -0.34615 0.527837 -0.185235 0.223849 -0.027753 0.235728 0.75167 -0.342264 0.22172 -0.10618 0.315637 0.108653 -0.160852 -0.138775 -0.121821 0.509638 -0.0185234 -0.0552528 0.331823 -0.116208 -0.193669 -0.0412738 0.152019
46 -0.123101 0.25979 0.136646 0.0608445 0.128739 0.462277 -0.306749 -0.29758 -0.653584 -0.646719 -0.66313 0.68684 -0.384336 -0.106794 0.566609 -0.0410058 0.130265 -0.287162 0.596943 0.767223 0.242109 0.0689907 -0.234064 -0.0985846 0.100342 -0.194195 -0.022159 -0.100389 0.824609 -0.00656997 0.0403237 -0.116543 -0.0602704 -0.509216 -0.365523 -0.0333107
672 -0.0877374 0.21471 0.274608 -0.110521 0.050919 0.378976 -0.421531 -0.392143 -0.3428 -0.450021 -0.469587 0.668295 -0.211127 -0.281349 0.60545 -0.179816 0.162587 -0.00201662 0.399966 0.907108 -0.0886128 0.189022 -0.113536 0.139215 -0.011614 -0.31764 -0.0665319 -0.0881394 0.73989 -0.0498447 -0.0707437 0.0851009 -0.159478 -0.346338 -0.032258 0.0844876
55 -0.0222983 0.0352324 0.361172 -0.026814 -0.0696699 0.440942 -0.364267 -0.41165 -0.415561 -0.504 -0.525725 0.789518 -0.40157 -0.45641 0.675689 0.0634283 0.292319 -0.155147 0.568286 0.766165 0.189134 0.239645 -0.48319 -0.0682608 0.114204 -0.278524 0.0759511 0.00576459 0.699645 0.0753009 0.128034 0.114312 0.156234 -0.243343 -0.157242 -0.0508011
2898 -0.0737462 0.0981996 0.201606 -0.0205871 0.0721163 0.098065 -0.40659 -0.196591 -0.25592 -0.205914 -0.309786 0.304324 -0.233497 -0.241507 0.46682 -0.227461 0.0865713 -0.0941217 0.322747 0.406091 -0.270311 0.0586147 -0.0738683 0.271688 -0.0417503 -0.0108691 0.0901704 -0.159451 0.314625 0.0723366 -0.0342844 0.322023 -0.0593274 -0.19738 -0.0652715 0.0896662
1245 -0.0336703 0.112075 0.240266 0.0466074 0.0751314 0.251057 -0.412932 -0.178261 -0.324899 -0.136113 -0.407424 0.428097 -0.156657 -0.291762 0.622343 -0.25465 0.151462 -0.112133 0.356166 0.557806 -0.173023 0.023668 -0.130015 0.152929 -0.146687 -0.0778105 0.206974 -0.152191 0.584808 -0.0237973 -0.116069 0.154877 0.0461983 -0.229258 -0.175016 0.0104007
624 -0.0494611 0.00632388 0.27206 0.141412 0.0407612 0.282257 -0.415325 -0.0249338 -0.328438 -0.0605256 -0.455363 0.496897 -0.139395 -0.276345 0.673887 -0.188619 0.149219 -0.252695 0.380119 0.54122 -0.199958 -0.00593257 -0.186003 0.101156 -0.1537 0.0627522 0.296547 -0.137104 0.583482 0.038308 -0.0906926 0.209139 0.148358 -0.199166 -0.25983 0.0229985
144 0.0122657 0.0822412 0.293899 -0.0106334 -0.0199994 0.238687 -0.416378 -0.254097 -0.188891 -0.171565 -0.332368 0.440864 -0.0975268 -0.314544 0.583572 -0.176996 0.21726 -0.0570406 0.230757 0.636055 -0.291068 0.113897 -0.133617 0.275058 -0.0346738 -0.0653617 0.0793288 -0.187057 0.495911 0.0381886 -0.0700215 0.261578 0.0135841 -0.215888 -0.0275117 0.111845
924 -0.0284224 0.107458 0.238282 -0.115388 0.0222336 0.109265 -0.430607 -0.270235 -0.233626 -0.242215 -0.337957 0.370926 -0.161927 -0.259662 0.526416 -0.142622 0.17968 -0.0395171 0.303198 0.630054 -0.196843 0.090281 -0.0890785 0.239562 -0.0850026 -0.0822508 0.077578 -0.224806 0.45084 0.0611827 -0.0354158 0.166896 -0.0715726 -0.278108 0.0936853 0.180672
1772 -0.0637668 0.092217 0.240493 -0.0147704 0.000285942 0.161289 -0.490691 -0.244197 -0.242012 -0.17437 -0.33917 0.452503 -0.223637 -0.281869 0.53241 -0.233881 0.219013 -0.0957768 0.31502 0.608333 -0.374108 0.0995368 -0.133405 0.327544 -0.0490714 -0.0687758 0.073093 -0.235451 0.410921 0.0355254 -0.0725089 0.344739 -0.107599 -0.216759 0.0277744 0.138458
1292 -0.119082 -0.00510269 0.342561 0.389626 0.135393 0.410854 -0.397577 0.0594739 -0.246805 0.149052 -0.405742 0.611351 0.0270428 -0.418865 0.678714 -0.37743 0.0869138 -0.411779 0.32031 0.358221 -0.564916 0.0365143 -0.0890975 0.225845 -0.0833717 0.211511 0.235108 -0.221745 0.497836 0.0720005 -0.256663 0.466586 0.0951133 -0.0134037 -0.589572 -0.149126
1290 -0.053875 0.0442729 0.309243 0.190855 0.109039 0.217211 -0.336135 -0.0340397 -0.238535 0.0215218 -0.293804 0.366973 -0.0425278 -0.350462 0.564865 -0.252281 0.048313 -0.270518 0.282341 0.300076 -0.344899 0.0276798 -0.0856641 0.208371 -0.0693083 0.193087 0.222175 -0.173506 0.346661 0.0999315 -0.135745 0.331173 0.119183 -0.07535 -0.402949 -0.0890107
487 -0.0818627 0.0898164 0.356828 0.385501 0.201976 0.405889 -0.428842 0.000507244 -0.291382 0.125674 -0.430123 0.584547 0.0521112 -0.459645 0.743669 -0.399456 0.0811197 -0.415211 0.360012 0.414203 -0.514122 0.014141 -0.156454 0.189688 -0.116727 0.170254 0.312594 -0.229909 0.564095 0.00387675 -0.286989 0.336557 0.125975 -0.0293278 -0.667575 -0.244931
2788 -0.0847539 0.038424 0.309424 0.227693 0.115886 0.261029 -0.372039 -0.0293964 -0.215699 0.0527049 -0.315608 0.432949 -0.042269 -0.37019 0.558905 -0.323847 0.0653411 -0.306107 0.270805 0.290817 -0.480681 0.0284841 -0.103064 0.288667 -0.0572473 0.193206 0.175282 -0.215055 0.314776 0.084653 -0.161309 0.437717 0.0814726 -0.0628922 -0.41464 -0.0798384
626 -0.04525 -0.014568 0.430365 0.369194 0.12296 0.295773 -0.454043 0.0692553 -0.253569 0.207406 -0.424659 0.533854 0.0466512 -0.514044 0.785145 -0.376873 0.153319 -0.390788 0.318933 0.4039 -0.497153 0.0183528 -0.15497 0.233112 -0.194786 0.2392 0.407285 -0.211836 0.536787 0.0766196 -0.212562 0.391078 0.213132 -0.00955078 -0.568771 -0.204302
93 -0.189748 -0.0177281 0.344364 0.177506 0.224516 0.232229 -0.396681 0.078816 -0.328529 0.0259527 -0.403923 0.47536 0.00926206 -0.309679 0.647064 -0.246687 -0.00184512 -0.435879 0.37254 0.385216 -0.43201 0.0715153 -0.0784656 0.136423 -0.106406 0.234643 0.339654 -0.213798 0.500578 0.217039 -0.187155 0.185812 0.142021 -0.0283085 -0.45383 -0.129804
2172 -0.0651202 0.0956966 0.296043 0.154844 0.0417307 0.320663 -0.365909 -0.125534 -0.175984 -0.0811639 -0.302573 0.493542 -0.0940978 -0.350327 0.499825 -0.270694 0.0975112 -0.190524 0.262325 0.413516 -0.42854 0.121019 -0.0882159 0.313659 0.0330964 0.063727 0.0203942 -0.130921 0.392138 0.0187536 -0.1224 0.417131 -0.0124322 -0.0641753 -0.307211 -0.0255208
422 -0.123571 0.254496 0.465676 -0.0695549 0.0647078 0.540968 -0.320579 -0.417 -0.127438 -0.249719 -0.246763 0.763763 0.0826539 -0.564722 0.442335 -0.427763 0.0740167 -0.166654 0.201253 0.683624 -0.578236 0.35527 -0.0651154 0.599714 0.148048 -0.0448938 -0.37415 -0.265883 0.443498 -0.0041552 -0.16985 0.419649 -0.201081 -0.0937154 -0.43767 -0.100174
274 -0.164715 -0.056363 0.266387 -0.107132 0.314848 -0.189849 -0.475741 -0.276658 -0.351941 -0.114267 -0.272769 0.156169 -0.0588804 -0.291679 0.44234 -0.241864 -0.0775361 -0.165452 0.506503 0.210018 -0.325011 0.023161 0.0478754 0.223401 -0.202172 0.0420446 0.288168 -0.449107 0.196958 0.347728 -0.123156 0.156515 -0.131574 -0.155957 0.040904 -0.0359969
388 -0.161822 0.0368893 0.13761 0.123206 0.183955 -0.00515483 -0.309826 0.000162161 -0.454506 -0.239797 -0.420751 0.222467 -0.411487 -0.234814 0.448929 -0.21131 -0.0846476 -0.3183 0.501057 0.149578 -0.163062 -0.0315863 -0.139895 0.201507 -0.0124934 0.176608 0.129674 -0.13648 0.145122 0.183996 0.138456 0.415894 0.0614437 -0.169295 -0.424122 -0.0126393
4561 -0.0429468 0.15157 0.305593 0.0454463 0.0225282 0.293213 -0.360701 -0.224688 -0.227902 -0.178299 -0.291981 0.457205 -0.18486 -0.351006 0.496159 -0.301165 0.0827393 -0.142017 0.277181 0.471823 -0.401651 0.130435 -0.0921726 0.375055 0.0439765 0.0237251 -0.0627938 -0.141009 0.345507 0.0392183 -0.0795068 0.42614 -0.0419394 -0.148938 -0.258364 0.057211
54 -0.101655 0.0645244 0.303617 -0.108438 0.00108476 0.512922 -0.294358 -0.389203 -0.37627 -0.498154 -0.467362 0.81221 -0.407845 -0.386004 0.533361 0.0348104 0.222209 -0.320117 0.519506 0.730891 -0.0424369 0.275859 -0.465675 0.0175692 0.203615 -0.138158 -0.0976942 -0.114547 0.581723 0.151401 0.0903973 0.163702 0.0717117 -0.217614 -0.295833 -0.0371516
56 0.0729757 0.141399 0.305258 -0.063661 -0.0583637 0.400905 -0.377051 -0.47427 -0.345282 -0.423212 -0.463595 0.57005 -0.183191 -0.26735 0.68045 -0.019478 0.221929 0.0216822 0.363771 0.800907 -0.0640405 0.166417 -0.172162 0.155345 0.0781197 -0.235727 0.0708508 -0.154114 0.750535 0.0336608 0.0805602 0.174248 0.0195085 -0.344751 0.00807949 0.177694
1338 -0.114966 0.346477 0.327132 -0.116657 0.0468554 0.506364 -0.26583 -0.434706 -0.200617 -0.362265 -0.326148 0.717496 -0.0533103 -0.44123 0.431929 -0.373874 0.11212 -0.0966744 0.239966 0.774496 -0.345306 0.290221 -0.0821215 0.453408 0.0707771 -0.17403 -0.323343 -0.220526 0.529532 -0.0897901 -0.104598 0.287487 -0.201974 -0.181339 -0.349324 -0.0506888
2632 -0.0525552 0.127344 0.245594 0.120549 -0.00146141 0.345426 -0.3072 -0.150737 -0.155612 -0.118462 -0.290346 0.526257 -0.110625 -0.318281 0.442167 -0.286485 0.119429 -0.163734 0.22249 0.462691 -0.450047 0.1415 -0.0773042 0.345094 0.0714186 0.015247 -0.0695997 -0.159378 0.349246 -0.0330709 -0.117951 0.452689 -0.0660509 -0.0865836 -0.259088 0.0100419
416 -0.0375806 0.231545 0.381183 0.0700125 -0.0582181 0.568201 -0.3298 -0.288071 -0.136661 -0.218849 -0.301254 0.693928 -0.0814586 -0.420662 0.506607 -0.295859 0.15292 -0.125304 0.21284 0.644307 -0.553218 0.286657 -0.0838901 0.460785 0.203523 -0.0268874 -0.26711 -0.152222 0.464144 -0.0411036 -0.112394 0.531074 -0.110642 -0.115023 -0.333702 0.0226042
415 -0.0750316 0.206996 0.328772 0.0961273 -0.0376323 0.493133 -0.349271 -0.237122 -0.141671 -0.209832 -0.340354 0.710424 -0.134949 -0.407924 0.519014 -0.371362 0.115098 -0.151203 0.271392 0.634616 -0.54295 0.221068 -0.0859287 0.458505 0.149561 -0.048377 -0.221725 -0.137171 0.460698 -0.0554255 -0.142958 0.5521 -0.166203 -0.120071 -0.342729 0.050734
4097 -0.0659425 0.135004 0.313251 0.0717746 0.0282155 0.339333 -0.328992 -0.182579 -0.159451 -0.139403 -0.261494 0.487755 -0.0923107 -0.363467 0.465292 -0.283876 0.0723902 -0.165099 0.242102 0.436565 -0.417957 0.150413 -0.0613596 0.369713 0.0936402 0.0481157 -0.0881463 -0.162751 0.348036 0.0277357 -0.112311 0.407653 -0.0616739 -0.100841 -0.321766 -0.0118903
427 -0.0426835 0.350212 0.394028 -0.068664 0.110096 0.57208 -0.18587 -0.465101 -0.197743 -0.293586 -0.254817 0.66642 0.090607 -0.535752 0.406332 -0.416211 0.00847697 -0.161401 0.193108 0.590694 -0.520301 0.372402 -0.0629265 0.564875 0.171117 -0.0604313 -0.386357 -0.247314 0.470529 -0.0195382 -0.11242 0.398799 -0.0987256 -0.0920221 -0.588032 -0.167356
596 -0.042924 0.109741 0.28895 0.0463143 0.0252481 0.243125 -0.326535 -0.174886 -0.185212 -0.134799 -0.228475 0.372195 -0.13939 -0.305277 0.42236 -0.246297 0.071651 -0.139982 0.249098 0.375769 -0.38943 0.103782 -0.0751032 0.350254 0.0612287 0.0521454 -0.0249176 -0.146337 0.272773 0.0429271 -0.0818288 0.399542 -0.0146115 -0.105939 -0.242069 0.0375742
4015 -0.094587 0.0717606 0.103004 -0.00690825 0.0361158 -0.160492 -0.451203 -0.108213 -0.32756 -0.310733 -0.293098 0.197489 -0.54982 -0.237247 0.332455 -0.264148 0.0303025 -0.0534492 0.455291 0.245109 -0.267744 0.03602 -0.146165 0.376784 0.0794683 -0.0198397 0.0199554 -0.0576539 0.0406133 0.060731 0.0787011 0.619626 -0.112386 -0.133238 0.0309675 0.192489
1516 -0.130491 0.0789226 0.025268 0.000103509 -0.0273036 -0.392296 -0.672657 -0.147588 -0.44453 -0.566891 -0.406256 0.24239 -1.05598 -0.317556 0.330818 -0.300257 0.0689013 -0.0292678 0.715446 0.235884 -0.348615 0.0734952 -0.272131 0.522051 0.238636 -0.19437 -0.0921303 -0.0723723 -0.195103 0.00459867 0.196244 0.927793 -0.315555 -0.137968 0.228412 0.355344
1029 -0.0956188 0.0546154 0.053494 0.0338768 -0.0432914 -0.30657 -0.655042 -0.0818146 -0.378639 -0.457468 -0.382421 0.233925 -0.930706 -0.243364 0.369307 -0.317639 0.0643845 -0.0366473 0.623861 0.234415 -0.390904 0.0545244 -0.218124 0.517071 0.220288 -0.108778 -0.0266943 -0.0584546 -0.113578 0.007487 0.129423 0.963213 -0.236637 -0.152343 0.187479 0.347778
1447 -0.0944382 0.0374571 0.0582472 0.0861792 -0.0614597 -0.116058 -0.495109 -0.0502936 -0.28428 -0.295068 -0.290399 0.267779 -0.682236 -0.19062 0.326762 -0.248016 0.0964553 -0.0806701 0.453963 0.230547 -0.336447 0.04571 -0.198918 0.385898 0.164774 -0.0467868 -0.0186098 -0.0452903 -0.0408969 0.0195276 0.0774144 0.759083 -0.170499 -0.0967019 0.053868 0.239868
1024 -0.112211 0.0795141 0.0432805 -0.0374347 -0.0301326 -0.302586 -0.655722 -0.13065 -0.420673 -0.563535 -0.358026 0.200588 -0.989109 -0.219076 0.328659 -0.320104 0.0110175 0.0586236 0.681968 0.284879 -0.317252 0.0927782 -0.212249 0.489794 0.201911 -0.240398 -0.0782435 0.0425102 -0.076274 -0.00625174 0.148469 0.943046 -0.254517 -0.130565 0.242349 0.353725
2416 -0.118203 0.0924441 -0.00922268 0.0196694 0.0429333 -0.31154 -0.598761 -0.110295 -0.442297 -0.447678 -0.368702 0.160729 -0.835328 -0.191081 0.300107 -0.329932 0.0193831 -0.0514293 0.605795 0.224147 -0.339474 0.0422431 -0.166205 0.47155 0.128917 -0.114733 -0.0150168 -0.0950826 -0.0997687 0.00890147 0.0888953 0.815291 -0.228357 -0.157356 0.124178 0.287856
4650 -0.0636244 0.050704 0.235302 0.0527595 0.154746 0.0781028 -0.385456 -0.124528 -0.354904 -0.157979 -0.298122 0.258208 -0.228176 -0.257456 0.494198 -0.253702 -0.0350317 -0.16603 0.395276 0.23639 -0.264134 -0.0117581 -0.0397921 0.237452 -0.0837306 0.0950703 0.184593 -0.174398 0.290689 0.148858 -0.0648046 0.368007 0.0342297 -0.145455 -0.233022 0.0226117
1488 -0.127541 -0.129345 0.204205 0.188084 0.29119 0.100036 -0.356042 0.0224572 -0.485523 0.0308085 -0.415564 0.246541 -0.0862697 -0.219141 0.652898 -0.235403 -0.182158 -0.299285 0.55021 0.0195203 -0.305079 -0.109865 0.123699 0.0852314 -0.246266 0.204377 0.481715 -0.22225 0.439162 0.363081 -0.12848 0.429544 0.0550487 -0.0730973 -0.381862 -0.0899824
1541 -0.0766312 0.208259 0.276197 -0.360059 0.389737 -0.221566 -0.360573 -0.421176 -0.517205 -0.434417 -0.230008 -0.0977514 -0.178662 -0.262186 0.43376 -0.232578 -0.27355 -0.0118139 0.485838 0.282312 -0.0246641 0.0875267 0.0420689 0.261952 -0.153427 -0.0268916 0.169109 -0.206892 0.280067 0.303822 -0.0241859 0.00571492 0.0476558 -0.221965 -0.134645 -0.0470019
1297 -0.171007 0.0987238 0.390206 -0.676876 0.500478 -0.164431 -0.385943 -0.366567 -0.532484 -0.494369 -0.127218 -0.0871875 -0.0906804 -0.125056 0.616866 -0.0195597 -0.420116 -0.0618684 0.421628 0.400423 -0.177357 0.0666029 0.289844 0.302292 -0.124724 0.228674 0.187667 -0.175717 0.400044 0.693803 -0.0231807 0.032511 0.0978014 -0.276267 -0.0161077 0.232584
382 -0.186124 0.108104 0.25162 -0.578718 0.516996 -0.258328 -0.456216 -0.393073 -0.565405 -0.445936 -0.216385 -0.0903485 -0.0750569 -0.0734967 0.604193 -0.0895691 -0.342407 -0.0313023 0.46836 0.490909 -0.225254 0.0873488 0.298714 0.251307 -0.218072 0.076578 0.278814 -0.306704 0.45285 0.579581 -0.104306 -0.0896483 -0.0237124 -0.326631 0.116784 0.20125
2252 -0.107221 0.115695 0.26917 -0.400282 0.320951 -0.196692 -0.432017 -0.290763 -0.376296 -0.311381 -0.175739 -0.0509945 -0.0922138 -0.145465 0.505124 -0.140467 -0.170913 -0.00557928 0.353489 0.448397 -0.195081 -0.00572431 0.11534 0.272907 -0.157825 0.0840783 0.212701 -0.227212 0.344739 0.334213 -0.0962008 0.0040936 0.0233013 -0.292458 0.0754015 0.169866
606 -0.125937 0.261761 0.292449 -0.352409 0.553126 -0.345885 -0.458855 -0.528384 -0.553525 -0.363799 -0.271595 -0.0859036 -0.029458 -0.365538 0.463583 -0.356059 -0.216133 -0.0239837 0.547103 0.371991 -0.0323446 0.0463781 -0.000465951 0.193858 -0.308866 -0.150893 0.335616 -0.423998 0.389037 0.18149 -0.183697 -0.266061 -0.0214381 -0.274156 -0.151745 -0.267044
607 -0.19981 0.251302 0.23433 -0.342621 0.659004 -0.522325 -0.665319 -0.601765 -0.603059 -0.361267 -0.4087 0.0762947 -0.0298796 -0.40526 0.586113 -0.481447 -0.107904 0.00411355 0.688715 0.681333 -0.00443916 -0.101247 -0.0838764 0.123711 -0.494515 -0.32536 0.455525 -0.575429 0.561294 0.0660458 -0.35943 -0.522879 -0.179701 -0.437911 0.0382231 -0.281507
789 -0.0917825 0.101583 0.289361 -0.228278 0.423463 -0.236321 -0.463255 -0.347151 -0.431338 -0.165768 -0.230027 -0.0396151 -0.006605 -0.298763 0.5195 -0.312474 -0.139079 -0.088423 0.42756 0.293777 -0.165692 -0.0551403 0.0121582 0.218046 -0.310045 0.0460818 0.380516 -0.366764 0.338858 0.250242 -0.170592 -0.0544137 0.0609167 -0.226937 -0.109877 -0.109275
1843 -0.0522069 -0.0338041 0.325805 0.0932816 0.256463 -0.00612312 -0.449107 -0.0542467 -0.312774 0.0661495 -0.234962 0.136301 -0.032039 -0.31517 0.626963 -0.296831 -0.0569489 -0.22257 0.346274 0.136248 -0.388187 -0.119464 -0.00652773 0.271252 -0.214026 0.300592 0.403309 -0.253518 0.297534 0.279404 -0.177722 0.345808 0.156421 -0.0923943 -0.302393 -0.0449548
4451 -0.0492051 0.00334113 0.28692 0.0701596 0.206872 0.0599198 -0.363609 -0.0393642 -0.325849 -0.0080978 -0.22921 0.14558 -0.108641 -0.26126 0.511768 -0.238077 -0.123504 -0.202981 0.323772 0.0906451 -0.314969 -0.0672446 0.0146429 0.263929 -0.124815 0.257101 0.266082 -0.159864 0.25816 0.251173 -0.116442 0.398476 0.129405 -0.08171 -0.320573 0.00201076
777 -0.106477 0.089305 0.365389 0.248176 0.0376692 0.502399 -0.383174 -0.11649 -0.175617 -0.0108064 -0.366002 0.718967 -0.0230488 -0.420694 0.568709 -0.373472 0.140317 -0.301994 0.286796 0.533351 -0.629023 0.18651 -0.0670013 0.387173 0.0397103 0.0871908 -0.0342301 -0.257694 0.488608 0.0166042 -0.224403 0.487205 -0.0963932 -0.0426761 -0.417246 -0.0641183
855 -0.0803718 0.161714 0.239842 0.0759509 0.0499962 0.329896 -0.334203 -0.187936 -0.241926 -0.206325 -0.322288 0.499944 -0.152249 -0.318752 0.453778 -0.308028 0.0779218 -0.15138 0.300573 0.492796 -0.415222 0.16576 -0.0697812 0.340741 0.0662102 -0.00995523 -0.0865947 -0.179884 0.368375 0.00662922 -0.113825 0.420638 -0.0940037 -0.154209 -0.300835 0.00767255
762 -0.0388089 0.18631 0.296092 0.0173451 0.0907545 0.208333 -0.304578 -0.201238 -0.289397 -0.21492 -0.2913 0.302351 -0.16924 -0.329519 0.434439 -0.290635 -0.00340931 -0.162979 0.329611 0.338328 -0.24475 0.0948203 -0.101275 0.331795 0.0180486 0.0780839 0.0105296 -0.159146 0.288608 0.0468767 -0.0304182 0.35191 0.0443578 -0.151629 -0.358044 -0.0206066
680 -0.0724849 0.176699 0.379259 0.0997273 -0.000760644 0.393885 -0.366527 -0.219309 -0.152478 -0.165235 -0.309213 0.612515 -0.113133 -0.4156 0.514923 -0.339456 0.102599 -0.139453 0.260713 0.569645 -0.52106 0.217622 -0.0804057 0.426514 0.114224 0.00908223 -0.145751 -0.170004 0.406744 -0.0180878 -0.120558 0.498723 -0.0943536 -0.0827622 -0.323909 0.00840223
683 -0.0990798 0.271374 0.391924 0.0660259 -0.00803983 0.60697 -0.344215 -0.316335 -0.164187 -0.251355 -0.343292 0.77358 -0.0779319 -0.465512 0.527116 -0.379068 0.121425 -0.135593 0.274052 0.717289 -0.54635 0.286551 -0.0561043 0.469408 0.157926 -0.0918656 -0.280279 -0.174144 0.548599 -0.0768712 -0.154422 0.491745 -0.162074 -0.115686 -0.402863 -0.00990756
3757 -0.0512036 0.141128 0.312689 0.0783086 -0.0463775 0.356919 -0.38737 -0.18697 -0.126932 -0.158781 -0.294104 0.538988 -0.192629 -0.354944 0.482798 -0.2605 0.159482 -0.0983172 0.241612 0.56425 -0.418146 0.139974 -0.124225 0.364521 0.10085 -0.0341098 -0.0965117 -0.111884 0.363909 -0.0265501 -0.0843037 0.470334 -0.0840271 -0.131359 -0.183997 0.0877334
186 -0.083382 -0.186969 0.327858 0.346447 0.140835 0.162044 -0.456466 0.0822669 -0.26318 0.235858 -0.363971 0.379039 0.0014072 -0.361939 0.712315 -0.294153 0.0176939 -0.3372 0.417259 0.0914241 -0.5892 -0.0925083 0.0201064 0.278169 -0.182325 0.356722 0.442901 -0.30844 0.336932 0.342575 -0.164168 0.628181 0.0747771 -0.0213232 -0.336375 -0.0294686
477 -0.0487137 -0.0314589 0.234441 0.145859 0.143967 0.0914494 -0.389609 -0.0437113 -0.289571 0.0371672 -0.321303 0.271799 -0.0665183 -0.283289 0.588405 -0.282375 0.0138587 -0.229864 0.333291 0.206599 -0.422498 -0.0448958 -0.0157417 0.269909 -0.136859 0.198365 0.305181 -0.259802 0.312888 0.21047 -0.112976 0.438182 0.0822164 -0.107052 -0.258596 -0.0171001
3467 -0.0592815 0.14034 0.226142 -0.120081 0.230138 -0.0810325 -0.339602 -0.192474 -0.372775 -0.273479 -0.204872 0.0236153 -0.238031 -0.226612 0.38966 -0.234247 -0.132102 -0.0660068 0.385682 0.205571 -0.176028 0.0154426 -0.0116879 0.268059 -0.0744938 0.0523308 0.138311 -0.15076 0.187574 0.179604 -0.0389112 0.250969 0.0457806 -0.148758 -0.162099 0.0379676
3466 -0.0904071 0.134056 0.231275 -0.155116 0.300125 -0.0623974 -0.373812 -0.206521 -0.43008 -0.286774 -0.251268 0.0582678 -0.193895 -0.212194 0.484024 -0.236185 -0.194418 -0.100928 0.427175 0.224098 -0.196616 0.0499047 0.0461055 0.264206 -0.0869265 0.0579283 0.162245 -0.158976 0.290765 0.251056 -0.0434694 0.239343 0.0562294 -0.163644 -0.210214 0.0214049
4060 -0.0810686 0.148581 0.186485 -0.111336 0.259503 -0.0540633 -0.324606 -0.19445 -0.401528 -0.282153 -0.237086 0.0612301 -0.211795 -0.192945 0.405186 -0.218963 -0.143421 -0.0749103 0.407304 0.237766 -0.154694 0.0420023 0.0137173 0.234621 -0.0779962 0.0249748 0.147021 -0.131808 0.26824 0.154646 -0.0449159 0.184203 0.0391505 -0.16984 -0.175412 -0.00386823
81 -0.182523 0.122639 0.424285 -0.673502 0.542526 -0.248615 -0.424004 -0.305521 -0.554463 -0.529809 -0.107095 -0.180281 -0.129795 -0.122889 0.606635 -0.0589528 -0.518855 -0.108138 0.469124 0.368792 -0.200975 0.0891332 0.287508 0.319073 -0.0630915 0.307009 0.19382 -0.157765 0.330829 0.715345 -0.0535267 0.0925969 0.111478 -0.268497 -0.10192 0.225713
292 -0.144266 0.130976 0.259169 -0.361118 0.426541 -0.235994 -0.368583 -0.247466 -0.480673 -0.385667 -0.176277 -0.118441 -0.161699 -0.168436 0.453886 -0.172231 -0.334885 -0.0899317 0.438288 0.249012 -0.187821 0.0435504 0.150179 0.277198 -0.111552 0.157335 0.201178 -0.207148 0.219303 0.416088 -0.0679468 0.115997 0.0677552 -0.208907 -0.133597 0.0805476
312 -0.174617 0.0298926 0.00793927 0.143928 0.226415 -0.299577 -0.499819 -0.00960951 -0.413732 -0.0989239 -0.378728 0.17804 -0.394175 -0.249642 0.425847 -0.308238 0.033327 -0.21322 0.54938 0.181907 -0.343601 -0.0334556 -0.0956253 0.199625 -0.130053 -0.0255023 0.318508 -0.286317 0.140073 0.11261 -0.0846033 0.366964 -0.130426 -0.124999 -0.0534804 0.0300738
4050 -0.115896 0.0656615 0.118946 -0.00865623 0.172804 -0.203485 -0.474268 -0.14918 -0.395736 -0.22896 -0.29811 0.143901 -0.400257 -0.228973 0.412407 -0.274015 -0.0169602 -0.101433 0.495593 0.231735 -0.292071 -0.0121788 -0.105039 0.298966 -0.044871 -0.0175333 0.174791 -0.191386 0.145739 0.0933185 -0.0506486 0.407535 -0.06647 -0.146933 -0.00926733 0.107161
314 -0.0678263 0.115811 0.145141 -0.0129097 0.230089 -0.0685759 -0.365784 -0.150076 -0.378184 -0.177041 -0.291767 0.131023 -0.217636 -0.245476 0.434212 -0.290148 -0.0766323 -0.128939 0.379568 0.219912 -0.237372 -0.0255507 -0.0339342 0.264886 -0.111866 0.0621811 0.186419 -0.176562 0.252232 0.130105 -0.0716301 0.269545 0.023492 -0.158704 -0.217813 -0.0304171
4069 -0.0550401 0.140476 0.22374 -0.168025 0.249431 -0.0813045 -0.343235 -0.193726 -0.362529 -0.282316 -0.178677 0.00347363 -0.219991 -0.18821 0.405176 -0.216447 -0.191268 -0.0614842 0.370052 0.211806 -0.210924 0.035201 0.0319681 0.308993 -0.0321796 0.0973473 0.093065 -0.119696 0.198087 0.209464 -0.0229871 0.27613 0.0367669 -0.15783 -0.190458 0.0603393
74 -0.4038 0.0929929 0.168506 -0.688641 0.493086 -0.103407 -0.289774 0.0212844 -0.664985 -0.609289 -0.246118 0.150192 -0.272653 0.227245 0.648744 -0.0147775 -0.566415 -0.284437 0.434818 0.674525 -0.232782 -0.0854179 0.398503 0.188265 -0.0264145 0.396502 0.0889779 -0.00750009 0.572989 0.749412 -0.0898253 0.0196755 0.0575462 -0.375419 -0.125695 0.467295
4349 -0.0839574 0.138289 0.252664 -0.252624 0.30462 -0.138989 -0.329407 -0.227367 -0.380771 -0.309097 -0.168268 -0.0628126 -0.190982 -0.193095 0.413192 -0.191083 -0.235482 -0.0397527 0.37815 0.222113 -0.169806 0.0413568 0.0636326 0.264953 -0.0857701 0.0969044 0.154468 -0.134247 0.202017 0.276596 -0.0305053 0.19903 0.0462972 -0.163485 -0.125579 0.0714252
336 -0.165111 0.00921762 0.429127 -0.507854 0.49306 -0.136752 -0.428197 -0.248041 -0.461024 -0.365793 -0.203976 0.00384145 -0.00646365 -0.119427 0.69981 -0.0524225 -0.401308 -0.121537 0.453876 0.45093 -0.238736 0.0286612 0.307945 0.210221 -0.146322 0.256421 0.323662 -0.214997 0.465725 0.67259 -0.104337 -0.0312965 0.114131 -0.249859 -0.00518191 0.239735
1183 -0.0612736 0.15009 0.273175 -0.160041 0.00303509 0.209472 -0.401905 -0.314178 -0.239531 -0.398684 -0.331734 0.460592 -0.276395 -0.263896 0.507315 -0.142429 0.108265 0.00336104 0.337626 0.700957 -0.184439 0.170227 -0.0714469 0.229991 0.0662535 -0.191571 -0.0586986 -0.0938941 0.467625 0.0383615 -0.0369957 0.225497 -0.125039 -0.244559 0.0650059 0.161125
4942 -0.0647062 0.0982654 0.214576 -0.00499309 0.00912255 0.119981 -0.339671 -0.186778 -0.22907 -0.223367 -0.273628 0.34423 -0.260859 -0.26271 0.383644 -0.186924 0.0649127 -0.0459288 0.307921 0.411938 -0.23026 0.100237 -0.108101 0.25901 0.0339339 -0.0493599 -0.0164958 -0.0809317 0.279394 0.0367632 -0.0291609 0.35507 -0.0568412 -0.14553 -0.0688581 0.0980437
2358 -0.0409965 0.0869408 0.341696 0.118746 0.0480446 0.345823 -0.365575 -0.144427 -0.178603 -0.0409722 -0.29231 0.511887 0.0025942 -0.352496 0.552329 -0.282756 0.131744 -0.175834 0.206066 0.489481 -0.447529 0.154448 -0.0539384 0.299858 0.0118011 0.0196062 0.0478497 -0.179703 0.460472 0.0466581 -0.177629 0.353815 -0.0164691 -0.0803622 -0.270705 -0.0407845
1330 -0.0690398 0.0240894 0.356932 0.333851 0.0575746 0.392406 -0.404588 0.0102936 -0.195535 0.0994847 -0.412161 0.62921 0.0049668 -0.437506 0.668653 -0.359102 0.175066 -0.341146 0.269283 0.460433 -0.530314 0.059289 -0.1278 0.278912 -0.0605132 0.146257 0.190656 -0.207531 0.531069 0.0115558 -0.201724 0.434975 0.0735345 -0.054259 -0.464165 -0.110814
3459 -0.0229628 0.0446265 0.273826 0.164589 0.0659676 0.188753 -0.370643 -0.0498862 -0.227566 -0.0140424 -0.297253 0.335667 -0.104059 -0.29458 0.51333 -0.276059 0.0591984 -0.192692 0.273131 0.276601 -0.364646 0.0459454 -0.0754694 0.277 -0.0470032 0.11348 0.161948 -0.14359 0.314279 0.063232 -0.117159 0.408186 0.040508 -0.0602749 -0.272904 -0.014279
981 -0.0309436 0.159939 0.306387 -0.0356128 0.11073 0.128447 -0.359988 -0.240895 -0.318955 -0.224923 -0.291891 0.263718 -0.180515 -0.312473 0.518309 -0.259666 -0.011098 -0.0747108 0.335869 0.394398 -0.244279 0.0704706 -0.0575657 0.29843 -0.0453258 -0.00706079 0.0794789 -0.141226 0.355012 0.0802496 -0.0468532 0.308393 0.00788022 -0.176332 -0.203305 0.0407007
982 -0.0634177 0.14633 0.260058 -0.0312402 0.146717 0.102692 -0.416479 -0.237029 -0.373302 -0.263769 -0.35399 0.288323 -0.237546 -0.28569 0.531953 -0.243716 -0.00994255 -0.115914 0.404321 0.414292 -0.227137 0.0607446 -0.0741051 0.274161 -0.0790714 -0.00426406 0.135632 -0.171995 0.383215 0.122533 -0.0553959 0.341326 -0.0126487 -0.217843 -0.183682 0.0705218
4001 -0.0549175 0.152597 0.24937 -0.0386917 0.199921 0.016617 -0.418039 -0.240253 -0.396462 -0.241229 -0.314472 0.194051 -0.205785 -0.282899 0.518573 -0.294023 -0.0666385 -0.110787 0.413712 0.352137 -0.255903 0.0511033 -0.0389734 0.288559 -0.0837184 -0.00124253 0.173138 -0.192777 0.350276 0.151301 -0.057151 0.306837 0.0084813 -0.180869 -0.193358 0.0381643
1300 -0.0828236 0.0983615 -0.0243292 -0.145006 0.236631 -0.2796 -0.471723 -0.256356 -0.517291 -0.388215 -0.335666 0.00963948 -0.446027 -0.112819 0.330443 -0.301366 -0.0510684 -0.0282692 0.577105 0.257318 -0.151134 0.0256293 -0.0524115 0.333225 -0.0935145 -0.0796142 0.134422 -0.252619 0.134648 0.0805084 0.0024255 0.295856 -0.128717 -0.291806 0.111761 0.153109
4270 -0.0542138 0.0988488 0.175653 -0.0109265 0.165046 -0.00384643 -0.353243 -0.139247 -0.329671 -0.203994 -0.269528 0.146291 -0.250827 -0.231299 0.425889 -0.233575 -0.0540973 -0.104506 0.38363 0.23849 -0.19509 0.02002 -0.0528827 0.221241 -0.0741606 -0.0010041 0.157053 -0.137461 0.251535 0.0841881 -0.0372956 0.300815 0.0206302 -0.131182 -0.151601 0.0160505
1376 -0.100826 0.161428 0.071194 -0.0880118 0.274847 -0.362558 -0.437545 -0.158819 -0.539329 -0.301021 -0.298298 -0.121946 -0.490807 -0.187333 0.396741 -0.250177 -0.134715 -0.120257 0.565201 0.0904148 -0.112679 -0.0975716 -0.0878443 0.244465 -0.129823 0.0468643 0.270266 -0.192905 0.0897989 0.160343 0.0325429 0.319802 0.028657 -0.221125 -0.103719 0.0633149
664 -0.0553784 0.13419 0.160962 -0.0900586 0.206662 -0.165866 -0.408904 -0.203383 -0.41534 -0.253959 -0.23204 0.017699 -0.325617 -0.227599 0.388991 -0.257321 -0.0964077 -0.0809059 0.428793 0.194748 -0.199891 -0.008733 -0.0500021 0.288583 -0.0541858 0.0109319 0.163276 -0.144088 0.150781 0.139408 -0.0169822 0.32393 -0.00361786 -0.157685 -0.127488 0.0558703
114 -0.130221 0.0108549 0.246287 0.0998498 0.130629 -0.138702 -0.505112 -0.261527 -0.404015 -0.145218 -0.241385 0.240546 -0.445711 -0.403974 0.314932 -0.151673 0.155777 -0.287926 0.472767 0.369654 -0.253221 0.0408897 -0.325202 0.150788 0.018357 0.10497 0.10878 -0.260251 0.206167 0.154887 -0.11833 0.121002 0.00327024 -0.12916 -0.0266436 -0.0753827
2017 -0.0310916 0.161485 0.334862 -0.14608 -0.0602935 0.341525 -0.424683 -0.392703 -0.253345 -0.42652 -0.414375 0.653003 -0.254583 -0.321758 0.626376 -0.106043 0.234306 0.0673324 0.359148 0.925595 -0.121582 0.213616 -0.160564 0.180802 0.0372933 -0.312246 -0.073414 -0.0769152 0.68767 -0.0567894 -0.0195835 0.156266 -0.133608 -0.295574 0.0994155 0.184145
3148 -0.0580861 0.127266 0.250681 -0.0110895 0.0143948 0.207089 -0.357672 -0.207696 -0.206987 -0.222671 -0.281473 0.432653 -0.208158 -0.279225 0.438365 -0.215587 0.0996871 -0.0701894 0.273425 0.503572 -0.289211 0.13512 -0.0971472 0.288519 0.0370355 -0.0821249 -0.0705218 -0.119549 0.358025 -0.011114 -0.0710392 0.35282 -0.0887365 -0.154318 -0.0942841 0.0966753
2193 -0.0989826 0.148168 0.122421 -0.0814132 0.189031 0.0448024 -0.419415 -0.2475 -0.385117 -0.259668 -0.380122 0.241395 -0.189345 -0.205397 0.533134 -0.237433 0.0434878 -0.102317 0.376316 0.461768 -0.20542 0.0164117 0.00627083 0.214889 -0.15076 -0.111299 0.207999 -0.255336 0.455238 0.100241 -0.0907454 0.161162 -0.0644644 -0.239582 -0.0367513 0.0643223
4209 -0.031955 0.158873 0.205469 -0.0941689 0.118189 0.0704114 -0.329167 -0.218444 -0.283818 -0.212479 -0.281488 0.167976 -0.134905 -0.234081 0.47583 -0.213965 0.0466877 -0.0772546 0.263263 0.370698 -0.209625 0.0309251 -0.0107865 0.273319 -0.114273 -0.0114428 0.141192 -0.201355 0.328056 0.107833 -0.0368146 0.231716 -0.00334595 -0.185542 -0.0908548 0.065437
250 -0.112318 -0.2614 0.329578 0.209853 0.306134 0.162528 -0.377286 0.0404143 -0.5173 0.112154 -0.373628 0.284735 -0.0835246 -0.293807 0.731336 -0.245927 -0.262815 -0.292359 0.59428 -0.102719 -0.290437 -0.2078 0.130451 0.0393371 -0.329759 0.335265 0.565651 -0.175639 0.500463 0.539353 -0.169116 0.528862 0.111052 -0.0374766 -0.436531 -0.111171
1571 -0.062741 0.169366 0.248607 -0.283884 0.352071 -0.109809 -0.360686 -0.281189 -0.416868 -0.281232 -0.160561 -0.0595413 -0.102655 -0.20845 0.452272 -0.205288 -0.204242 -0.071076 0.347905 0.266979 -0.175732 0.0184588 0.0832217 0.301133 -0.140709 0.126049 0.178187 -0.20842 0.279125 0.290012 -0.0584034 0.103938 0.0984829 -0.18778 -0.151137 0.0492742
538 -0.105478 0.096147 0.457167 -0.546888 0.437664 -0.125262 -0.393981 -0.319035 -0.469275 -0.40944 -0.108521 -0.12253 -0.0267696 -0.166782 0.646455 -0.0964693 -0.439865 -0.0299048 0.385113 0.358996 -0.234808 0.0892802 0.27672 0.321983 -0.0926575 0.279004 0.178682 -0.144214 0.396278 0.633913 -0.0576387 0.0942937 0.139569 -0.234357 -0.0642887 0.214881
1299 -0.089861 0.165206 0.290236 -0.353951 0.368694 -0.177386 -0.368229 -0.315152 -0.463639 -0.398998 -0.15591 -0.106979 -0.167006 -0.219007 0.436162 -0.204887 -0.304789 -0.048816 0.422882 0.233191 -0.158885 0.0665351 0.0872584 0.303913 -0.0856303 0.0963209 0.144595 -0.15981 0.253895 0.348269 -0.0270588 0.136645 0.0756922 -0.184239 -0.154772 0.0546783
80 -0.0828829 0.178045 0.317119 -0.383366 0.37792 -0.170805 -0.379131 -0.280576 -0.446648 -0.399463 -0.146045 -0.111625 -0.185453 -0.205704 0.486705 -0.182868 -0.316431 -0.0577336 0.387594 0.250644 -0.181949 0.0672877 0.117411 0.326193 -0.0802201 0.158163 0.127687 -0.158151 0.252464 0.404251 -0.0299633 0.159823 0.101499 -0.206536 -0.155976 0.113247
535 -0.12898 0.173155 0.405983 -0.618997 0.435695 -0.091302 -0.319077 -0.341728 -0.501344 -0.50682 -0.0982957 -0.147816 -0.100856 -0.115617 0.533818 -0.126696 -0.456839 -0.0430749 0.34507 0.378413 -0.170397 0.0665433 0.231572 0.367466 -0.0739492 0.269717 0.0544713 -0.114673 0.337996 0.603416 -8.86751e-05 0.124054 0.127503 -0.330005 -0.129708 0.246314
1066 -0.0661055 0.167237 0.280569 -0.290892 0.34172 -0.15516 -0.346601 -0.280246 -0.458938 -0.34842 -0.174617 -0.0981031 -0.198493 -0.217295 0.431539 -0.233607 -0.271667 -0.0400807 0.408072 0.201964 -0.163168 0.0616874 0.0724836 0.300068 -0.115342 0.0856201 0.159207 -0.164367 0.222569 0.308078 -0.0233647 0.187369 0.0793072 -0.173805 -0.191133 0.0272138
444 -0.126395 0.32192 0.510643 -0.698701 0.61394 -0.408769 -0.457237 -0.693143 -0.781915 -0.708179 -0.201662 -0.261809 -0.201035 -0.448892 0.477514 -0.193188 -0.527137 -0.0269487 0.654468 0.270836 0.0766408 0.257908 0.0396272 0.302709 -0.203719 -0.0593241 0.1916 -0.277974 0.305676 0.547381 0.0818787 -0.137343 0.124098 -0.246388 -0.274757 -0.200372
1518 -0.234 0.203204 0.288512 -0.617875 0.463799 -0.579003 -0.534947 -0.618089 -0.655083 -0.751555 -0.253416 -0.113512 -0.436969 -0.338453 0.291111 -0.179689 -0.32169 0.047324 0.701847 0.340535 0.0319963 0.275056 -0.0551393 0.260085 -0.102265 -0.299198 0.0800177 -0.264196 0.120902 0.42167 0.0772121 0.00975129 -0.165862 -0.236288 0.147831 -0.039112
3855 -0.127725 0.179666 0.188103 -0.338729 0.324102 -0.392743 -0.422719 -0.386144 -0.514472 -0.529088 -0.218154 -0.120882 -0.411533 -0.24795 0.275461 -0.200429 -0.241362 0.0112249 0.552801 0.16442 -0.0526771 0.167191 -0.0447544 0.277514 -0.0376322 -0.153241 0.0784921 -0.177319 0.0456747 0.245127 0.0790412 0.194155 -0.0685066 -0.158057 0.00904828 -0.0189951
507 -0.256725 0.316442 0.388508 -0.709432 0.589247 -0.428383 -0.473115 -0.709569 -0.766323 -0.901001 -0.296026 -0.0626373 -0.356797 -0.393292 0.337704 -0.221553 -0.492997 0.0436406 0.768098 0.446974 0.100108 0.381569 0.0103037 0.205464 -0.0769279 -0.353567 0.0380698 -0.230483 0.314756 0.430626 0.0684242 -0.100697 -0.11463 -0.221044 -0.109275 -0.196797
184 -0.0969919 -0.124078 0.236831 0.339405 0.198818 0.0930735 -0.42239 0.087248 -0.346514 0.154588 -0.416147 0.3148 -0.0597387 -0.312408 0.692025 -0.324398 0.000546801 -0.356728 0.468542 0.0602576 -0.475738 -0.107431 0.0160866 0.207171 -0.225526 0.278795 0.497787 -0.291059 0.363303 0.274236 -0.16285 0.541574 0.095955 -0.0319429 -0.358321 -0.0819924
4848 -0.049083 0.0585447 0.203032 0.000338695 0.191214 0.0358783 -0.35736 -0.142089 -0.329888 -0.124707 -0.256899 0.164458 -0.128297 -0.225268 0.492463 -0.260549 -0.0644816 -0.133502 0.31809 0.226935 -0.261876 -0.017394 0.00693606 0.245372 -0.10914 0.0962638 0.194581 -0.189793 0.290274 0.153233 -0.0913869 0.326768 0.0483828 -0.124225 -0.221829 0.0229667
2055 -0.138 -0.0940139 0.310443 0.168464 0.358866 0.105057 -0.399352 0.0564469 -0.43889 0.122803 -0.345008 0.209416 -0.0014007 -0.266414 0.738089 -0.30152 -0.227046 -0.351869 0.476176 -0.00178147 -0.432645 -0.144877 0.13106 0.206945 -0.280044 0.378818 0.516446 -0.243953 0.404943 0.419509 -0.18533 0.460718 0.143872 -0.0466165 -0.50595 -0.0846722
3905 -0.0654856 0.00559114 0.317044 0.0509523 0.201162 0.0333334 -0.383806 -0.0964304 -0.311908 -0.0425716 -0.233538 0.153862 -0.106234 -0.293827 0.568528 -0.258313 -0.100508 -0.177622 0.343606 0.15518 -0.351052 -0.0373991 0.0114848 0.279023 -0.126205 0.206816 0.271503 -0.196896 0.294944 0.242617 -0.116199 0.375738 0.0970056 -0.0801366 -0.255762 -0.00475392
916 -0.0617575 -0.129176 0.390542 0.246599 0.226301 0.0506523 -0.480523 0.0533329 -0.316003 0.20756 -0.300762 0.234047 0.0314565 -0.367748 0.753072 -0.29806 -0.0364233 -0.341556 0.380016 0.0665914 -0.538866 -0.114076 -0.0010254 0.282849 -0.233952 0.412403 0.491766 -0.306383 0.310516 0.361988 -0.178472 0.54504 0.189134 -0.044138 -0.406745 -0.0429689
2013 -0.0248964 -0.111525 0.322759 0.298193 0.137952 0.0657043 -0.446813 0.0224117 -0.260439 0.207466 -0.313868 0.283047 -0.0321996 -0.382041 0.660373 -0.313142 0.0390402 -0.34694 0.357368 0.0762195 -0.501171 -0.0910544 -0.0643227 0.293495 -0.196642 0.35409 0.418571 -0.272375 0.266053 0.260822 -0.135117 0.570106 0.141219 -0.0584245 -0.37849 -0.0615981
4850 -0.0566784 0.056464 0.210159 0.0536636 0.205402 0.0550997 -0.322478 -0.0854579 -0.340844 -0.0903918 -0.286191 0.160172 -0.119727 -0.236154 0.487882 -0.269433 -0.0765521 -0.18125 0.377909 0.168431 -0.272479 -0.0406754 0.019727 0.22656 -0.120719 0.107317 0.253781 -0.179613 0.284293 0.157578 -0.0832972 0.33861 0.06056 -0.101295 -0.283697 -0.0203597
183 -0.0784697 -0.12658 0.273342 0.257273 0.230849 0.0930188 -0.42645 0.0479088 -0.371517 0.194058 -0.342931 0.275678 -0.0132018 -0.313028 0.711387 -0.299417 -0.0457392 -0.313311 0.379053 0.0534607 -0.449928 -0.177621 0.0270218 0.207058 -0.293537 0.334885 0.495587 -0.272979 0.38267 0.314768 -0.192686 0.480222 0.15745 -0.0583287 -0.385907 -0.0712155
2581 -0.0605831 -0.0458201 0.272337 0.163711 0.157105 0.120643 -0.381385 -0.0423443 -0.289309 0.0488497 -0.311164 0.298685 -0.0567209 -0.287584 0.614152 -0.247067 -0.0143947 -0.220881 0.348247 0.189287 -0.402072 -0.0632421 0.0263344 0.226343 -0.151434 0.213451 0.322693 -0.228127 0.345652 0.244099 -0.131899 0.408976 0.0646683 -0.0945796 -0.279312 0.0067158
305 -0.152518 0.0131133 0.122455 -0.166533 0.218771 -0.0743977 -0.541157 -0.281118 -0.336556 -0.0407987 -0.347012 0.255645 -0.0298875 -0.161773 0.632992 -0.171645 0.144929 -0.0825474 0.308397 0.696378 -0.422564 -0.0460929 0.112705 0.265573 -0.379898 -0.0387946 0.35273 -0.464512 0.552512 0.211125 -0.201423 -0.0152587 -0.0914209 -0.319094 0.313469 0.206359
571 -0.0717791 0.165906 0.218766 -0.164638 0.294612 -0.160166 -0.418568 -0.259857 -0.515272 -0.35771 -0.245484 -0.0099032 -0.335891 -0.2651 0.435766 -0.356348 -0.219826 -0.0942156 0.514085 0.163137 -0.230474 0.0712608 -0.0172457 0.390372 -0.0841831 0.0498386 0.118519 -0.167678 0.16201 0.191573 -0.00148356 0.430343 0.0299573 -0.177635 -0.239417 0.0237524
1196 -0.0638398 0.111576 0.231601 -0.250788 0.290711 -0.220794 -0.444013 -0.293083 -0.434117 -0.280141 -0.228915 -0.00756115 -0.212692 -0.24516 0.433785 -0.302159 -0.156139 -0.0814487 0.470652 0.23368 -0.278025 0.101253 0.0155851 0.413808 -0.123701 0.108623 0.114989 -0.291375 0.146559 0.229638 -0.0518941 0.274905 0.00714592 -0.209411 -0.0328649 0.106081
1910 -0.0627413 0.137414 0.152076 -0.126508 0.322911 -0.195077 -0.429349 -0.255567 -0.470501 -0.270004 -0.252679 -0.00768079 -0.237457 -0.230214 0.444712 -0.350837 -0.15443 -0.0499319 0.469775 0.211565 -0.238556 0.0238439 0.017172 0.346784 -0.182195 0.00524852 0.180522 -0.245572 0.218682 0.116407 -0.0791687 0.277446 -0.00643532 -0.213079 -0.116933 0.0202794
839 -0.0460599 0.107846 0.142111 -0.138153 0.226966 -0.225603 -0.414073 -0.250066 -0.418233 -0.261538 -0.21312 -0.0594042 -0.312508 -0.230253 0.383202 -0.287598 -0.116793 -0.0424651 0.409259 0.145319 -0.212116 0.0190754 -0.0376848 0.362697 -0.083611 0.036919 0.132474 -0.196109 0.107194 0.162375 -0.00757052 0.340041 0.0331157 -0.17881 -0.0666519 0.0948125
2398 -0.143175 0.0956509 0.0552868 0.0178359 0.201304 -0.253723 -0.465701 -0.122438 -0.453984 -0.237312 -0.335071 0.0520389 -0.435236 -0.145182 0.387785 -0.290874 -0.0564253 -0.0860666 0.505293 0.208058 -0.289088 -0.0393534 -0.0544408 0.287142 -0.0774161 -0.0516484 0.187762 -0.184752 0.134482 0.077221 -0.0481196 0.375534 -0.0884981 -0.176618 -0.0355696 0.0786134
785 -0.126118 0.192423 0.202209 -0.210832 0.252072 -0.301699 -0.448505 -0.276212 -0.460688 -0.458575 -0.222671 -0.087491 -0.432646 -0.236492 0.344728 -0.283846 -0.2086 9.04304e-05 0.516366 0.213705 -0.173403 0.04779 -0.0240342 0.384605 -0.0260298 -0.0527167 0.0848597 -0.154878 0.0926124 0.2255 0.0512666 0.363228 -0.0425176 -0.203476 -0.0262404 0.0715384
5 -0.191366 0.205614 0.187894 -0.371786 0.504497 -0.340237 -0.527615 -0.550679 -0.590198 -0.392746 -0.34802 0.0270611 -0.0900601 -0.278269 0.503808 -0.308845 -0.118275 -0.00755898 0.574582 0.555082 -0.0461452 0.0477393 -0.00793546 0.184903 -0.377624 -0.226931 0.331072 -0.461491 0.517622 0.205419 -0.17277 -0.296333 -0.0930448 -0.371261 0.0670776 -0.11416
518 0.0166736 0.125423 -0.111508 -0.0318133 0.203381 -0.201615 -0.242788 -0.392337 -0.454427 -0.370721 -0.587866 0.284564 -0.154476 -0.207812 0.443061 -0.285024 0.0592562 -0.0690317 0.497267 0.365844 -0.0858806 0.103579 -0.0390892 0.209366 -0.115983 -0.252904 0.264988 -0.435544 0.327352 0.0735184 0.143927 0.199787 -0.173518 -0.340387 -0.00153172 -0.0195472
2863 -0.105219 0.0793688 0.0151688 0.0425628 0.0229082 -0.145494 -0.471342 -0.103871 -0.38951 -0.389286 -0.397135 0.298601 -0.70008 -0.218217 0.314418 -0.281955 0.0613186 -0.0851315 0.551723 0.254556 -0.257565 0.073992 -0.206008 0.34847 0.118088 -0.121744 -0.0268033 -0.0597365 0.0248997 0.00356393 0.111471 0.708571 -0.198196 -0.143029 0.000547592 0.179609
210 -0.0613401 0.102117 0.0296515 -0.020978 0.026979 -0.447766 -0.69952 -0.294517 -0.493428 -0.67981 -0.413936 0.194309 -1.08193 -0.391248 0.309232 -0.309101 0.0697377 0.0885631 0.842442 0.314936 -0.14294 0.136882 -0.382828 0.381228 0.223931 -0.420426 -0.0753145 0.0301276 -0.111757 -0.0740921 0.197992 0.732108 -0.289586 -0.153199 0.263724 0.205423
734 -0.121941 0.0983309 -0.0449274 -0.116724 0.239769 -0.394751 -0.493118 -0.192455 -0.518034 -0.34252 -0.347311 -0.0422988 -0.513462 -0.122962 0.332104 -0.32486 -0.0566973 -0.0491865 0.574538 0.179624 -0.153252 -0.0470392 -0.0751557 0.329273 -0.120176 -0.0403054 0.210961 -0.276596 0.0592632 0.126154 0.0134378 0.317618 -0.122196 -0.273001 0.0951194 0.132839
735 -0.0931932 0.177424 0.0273593 -0.230633 0.267694 -0.240868 -0.421333 -0.279923 -0.51899 -0.352325 -0.292128 -0.0160255 -0.328723 -0.11374 0.339948 -0.297639 -0.0925056 -0.00599887 0.455851 0.308537 -0.10961 -0.00998377 -0.038391 0.297863 -0.175815 -0.0860449 0.161203 -0.223846 0.227359 0.123103 -0.0364162 0.164501 -0.0289406 -0.304873 0.0170498 0.0883251
19 -0.145567 0.0931438 -0.139989 -0.375967 0.350898 -0.303096 -0.456815 -0.351276 -0.716751 -0.413918 -0.437456 -0.0102407 -0.312999 0.0576771 0.432843 -0.225815 -0.0804135 -0.0585864 0.595864 0.434233 -0.0299985 -0.00294195 0.0364092 0.257366 -0.254725 -0.0378586 0.276671 -0.438127 0.358977 0.292956 0.0211595 0.00891284 -0.0662475 -0.519619 0.178214 0.222484
161 0.00659126 0.327917 -0.0773932 -0.272897 0.248762 0.18867 -0.195603 -0.372246 -0.505785 -0.387354 -0.546376 0.189806 -0.103389 -0.0887386 0.615595 -0.190014 0.0788066 -0.0802134 0.241296 0.528788 -0.0497458 -0.017021 0.163434 0.260157 -0.323184 -0.169602 0.254569 -0.318809 0.635897 0.0891974 0.0746168 0.0777399 -0.0217313 -0.414718 -0.0876718 0.152401
831 -0.022642 0.221889 0.253315 -0.268653 0.262212 0.0199586 -0.257396 -0.389066 -0.388505 -0.360179 -0.265572 0.112092 -0.0695622 -0.268942 0.471519 -0.215838 -0.134934 -0.0926632 0.322982 0.34375 -0.13517 0.136205 0.0520306 0.298391 -0.0842403 0.00635934 0.0845754 -0.241636 0.345572 0.245232 0.00214842 0.121699 0.0188263 -0.217613 -0.194941 0.0185214
222 -0.0929148 0.0456684 0.281375 0.271832 0.195576 0.324653 -0.377425 0.0108748 -0.313519 0.0465826 -0.450735 0.50883 0.0204205 -0.372785 0.654036 -0.354011 0.048171 -0.393125 0.337817 0.348152 -0.48347 0.0587451 -0.0601068 0.263827 -0.117763 0.208475 0.256298 -0.29572 0.502289 0.12268 -0.194412 0.376565 0.0892232 -0.0725276 -0.547118 -0.172537
822 -0.0491349 0.129214 0.176743 -0.0116728 0.0646521 0.18162 -0.420874 -0.234484 -0.321745 -0.225127 -0.395645 0.387917 -0.203319 -0.233088 0.567187 -0.202981 0.128347 -0.0589094 0.362338 0.542171 -0.232169 0.0607504 -0.045417 0.208492 -0.088652 -0.123531 0.143972 -0.20977 0.500702 0.0307549 -0.0864286 0.24922 -0.0714028 -0.234532 -0.0268826 0.101252
2132 -0.031905 0.185853 0.233593 -0.107219 0.0699582 0.227427 -0.395125 -0.352946 -0.302455 -0.327656 -0.375773 0.40315 -0.151405 -0.250533 0.543697 -0.189989 0.114821 -0.0143283 0.322792 0.676538 -0.171133 0.133443 -0.0732406 0.208059 -0.0548267 -0.181194 0.0610591 -0.178731 0.570491 0.0181489 -0.0635594 0.153116 -0.0800751 -0.284072 -0.00194643 0.098647
62 -0.0156779 0.155246 -0.0177922 -0.109253 0.0940281 0.167945 -0.492516 -0.375303 -0.405985 -0.238949 -0.511788 0.29069 -0.164164 -0.0311101 0.707363 -0.067277 0.253055 0.0151933 0.302996 0.773155 -0.324451 0.0662649 0.116338 0.227455 -0.245104 -0.249573 0.350408 -0.418554 0.794214 0.0617494 -0.0833172 0.107136 -0.0900363 -0.46029 0.303457 0.329194
923 -0.0107683 0.122478 0.237516 -0.034958 -0.0243986 0.195943 -0.44905 -0.250592 -0.245975 -0.253019 -0.351048 0.408604 -0.258303 -0.248201 0.55282 -0.154761 0.189642 -0.0161548 0.294803 0.628836 -0.234293 0.0762522 -0.105962 0.254 -0.0333885 -0.134489 0.0503227 -0.13413 0.487512 -0.0307689 -0.0349431 0.283115 -0.0624457 -0.263355 0.044832 0.175227
278 -0.056631 0.180173 0.235664 -0.0289346 -0.037065 0.472369 -0.405303 -0.362149 -0.320294 -0.379081 -0.540474 0.740168 -0.199738 -0.296368 0.653979 -0.168206 0.250166 -0.0673955 0.369005 0.903195 -0.148736 0.161701 -0.107766 0.146013 -0.0167461 -0.316315 -0.00422569 -0.140978 0.792428 -0.0840902 -0.0536946 0.196862 -0.152088 -0.317315 -0.0407021 0.132679
2295 -0.0206391 0.175471 0.348031 -0.00699713 0.027279 0.33366 -0.382239 -0.262227 -0.212493 -0.223935 -0.316094 0.504062 -0.136511 -0.378106 0.527638 -0.264697 0.0982384 -0.101171 0.27053 0.565075 -0.353436 0.122079 -0.0909972 0.381614 0.0371085 5.58547e-05 -0.0545617 -0.1375 0.431375 0.0289166 -0.0868657 0.374193 -0.0432486 -0.171848 -0.216326 0.062691
235 -0.161212 0.274776 0.252156 0.123253 0.153102 0.542133 -0.252237 -0.273062 -0.234183 -0.240296 -0.425172 0.810583 -0.00663142 -0.47052 0.477355 -0.512626 0.0403755 -0.223438 0.323392 0.655422 -0.632349 0.339192 -0.00160685 0.468607 0.113522 -0.156047 -0.268671 -0.248269 0.569451 -0.134501 -0.230124 0.472339 -0.23737 -0.0239752 -0.544523 -0.184903
486 -0.15928 0.0538769 0.275396 0.378265 0.184276 0.314115 -0.427215 0.11755 -0.351563 0.0310773 -0.538099 0.574644 -0.153933 -0.391574 0.757973 -0.324979 0.127933 -0.40479 0.470212 0.48424 -0.279811 0.00689919 -0.214659 -0.00524361 -0.169457 0.0504421 0.416355 -0.127993 0.617849 -0.061886 -0.20677 0.185809 0.176323 -0.0530743 -0.525998 -0.208442
2436 -0.0127643 0.193887 0.240509 -0.0810285 0.253634 -0.0527058 -0.298425 -0.195165 -0.398293 -0.220841 -0.18815 -0.0563499 -0.223085 -0.264007 0.389331 -0.297053 -0.182627 -0.124228 0.360239 0.0840634 -0.125957 -0.0198833 -0.0573133 0.305608 -0.10587 0.149339 0.15949 -0.120508 0.164151 0.117405 -0.0252702 0.256328 0.187881 -0.140278 -0.382999 -0.0613952
344 0.127651 0.538063 0.336736 -0.302613 0.351461 -0.0618282 -0.265698 -0.507743 -0.780791 -0.62377 -0.246021 -0.251514 -0.451546 -0.42121 0.479671 -0.501843 -0.341887 -0.0161213 0.498717 0.193523 0.328394 -0.173377 -0.256475 0.422884 -0.201721 0.092793 0.0559445 -0.00991893 0.295166 -0.0236805 0.106999 0.122968 0.421483 -0.389493 -0.75803 -0.196086
426 -0.110345 0.357668 0.391312 0.0179476 0.103414 0.653077 -0.202845 -0.410069 -0.174392 -0.296588 -0.359715 0.762657 0.0781746 -0.508193 0.444132 -0.393054 0.0642714 -0.27849 0.24347 0.623537 -0.578257 0.378962 -0.0585608 0.595084 0.206885 0.0289713 -0.375465 -0.36352 0.457369 0.0266723 -0.0912158 0.427213 -0.151306 -0.140054 -0.662162 -0.118644
678 -0.0651302 0.264197 0.418407 0.0925925 -0.0178449 0.570138 -0.322959 -0.283974 -0.1509 -0.195582 -0.289565 0.727231 -0.0595599 -0.457046 0.509544 -0.38117 0.11792 -0.18557 0.21601 0.633371 -0.539501 0.26124 -0.088999 0.480106 0.148603 0.00738457 -0.254742 -0.184107 0.494624 -0.0557783 -0.169033 0.50153 -0.105204 -0.0821908 -0.451226 -0.0363911
237 -0.0579105 0.152159 0.404561 0.137912 -0.0121864 0.498295 -0.328929 -0.164354 -0.161001 -0.114496 -0.300269 0.613179 -0.0741415 -0.441799 0.527523 -0.330286 0.0979684 -0.208988 0.225612 0.515427 -0.512591 0.183097 -0.115655 0.391729 0.0941156 0.0721732 -0.105464 -0.143594 0.416531 0.00176639 -0.145763 0.502317 -0.00682184 -0.0594585 -0.423151 -0.0253971
1293 -0.0655653 -0.0338442 0.395345 0.45003 0.0552697 0.40565 -0.478356 0.101173 -0.207756 0.215943 -0.45048 0.624651 -0.00659408 -0.446803 0.817399 -0.348017 0.207222 -0.403314 0.3134 0.44051 -0.590694 0.0105976 -0.151287 0.23423 -0.0999963 0.209268 0.369041 -0.20635 0.567461 0.0343827 -0.248124 0.496019 0.156581 -0.0439338 -0.463511 -0.0882276
489 -0.00846015 0.0758293 0.442836 0.269807 0.0639656 0.397595 -0.422192 -0.0106938 -0.165562 0.12097 -0.273051 0.51089 -0.00880979 -0.449425 0.687087 -0.363613 0.107026 -0.259246 0.243048 0.41344 -0.537524 0.0172298 -0.0717095 0.337066 -0.0947936 0.213947 0.181201 -0.150687 0.509677 0.0515281 -0.26369 0.472433 0.116795 -0.014793 -0.488143 -0.0835104
494 -0.0670551 -0.00376353 0.392381 0.327496 0.062441 0.333556 -0.419754 0.0481529 -0.170692 0.19162 -0.347656 0.517134 0.0144033 -0.422238 0.66985 -0.314907 0.148707 -0.361933 0.264137 0.345728 -0.590167 0.00771088 -0.107814 0.292113 -0.0630739 0.273934 0.242513 -0.211539 0.392701 0.0977297 -0.201404 0.501789 0.127144 -0.0108402 -0.452667 -0.0768136
2786 -0.0821686 0.00570648 0.310927 0.296132 0.105793 0.295012 -0.376997 0.0147716 -0.222103 0.0855658 -0.365258 0.509853 -0.0326526 -0.387778 0.614644 -0.314554 0.102612 -0.332815 0.311356 0.327856 -0.485732 0.0274254 -0.119648 0.249188 -0.0468242 0.196684 0.234584 -0.227805 0.382078 0.105623 -0.170474 0.434828 0.0825692 -0.0482895 -0.423477 -0.0958684
472 -0.22429 0.0910844 -0.118946 0.0172888 0.254627 -0.404062 -0.552569 -0.140046 -0.535074 -0.228368 -0.416234 0.0465927 -0.446813 0.0209711 0.382473 -0.269756 0.00249105 -0.0957615 0.595519 0.298051 -0.342482 -0.0649501 -0.0227083 0.25368 -0.155612 -0.116879 0.289497 -0.352016 0.21554 0.148002 -0.0504379 0.296416 -0.260813 -0.298138 0.231696 0.161201
4103 -0.0488834 0.120585 0.168912 -0.0656384 0.202381 -0.0652688 -0.298534 -0.150721 -0.340152 -0.225479 -0.207523 0.0720071 -0.201927 -0.197524 0.368176 -0.24386 -0.117046 -0.076675 0.355689 0.187878 -0.159946 0.0168544 -0.016938 0.236638 -0.0547246 0.014217 0.0955802 -0.108571 0.199315 0.113522 -0.0446498 0.262396 0.0266507 -0.118983 -0.202672 0.00262946
1361 -0.265665 0.25983 0.375637 -0.668888 0.677435 -0.354658 -0.433164 -0.693573 -0.798246 -0.799685 -0.32897 -0.0617534 -0.154359 -0.34569 0.458801 -0.171171 -0.497371 -0.0544367 0.729171 0.43284 0.0640984 0.353286 0.149443 0.146605 -0.209716 -0.246459 0.18642 -0.349715 0.46402 0.527585 0.0111688 -0.24034 -0.0597391 -0.249886 -0.122299 -0.208922
2427 -0.110173 0.314554 0.451843 -0.623949 0.612137 -0.356743 -0.42243 -0.687831 -0.698984 -0.640137 -0.183327 -0.260651 -0.123521 -0.397579 0.457081 -0.247502 -0.426198 0.0271294 0.579524 0.305715 0.0700862 0.196647 0.0545428 0.278612 -0.237702 -0.107561 0.213808 -0.300555 0.331555 0.448287 -0.0119419 -0.172486 0.114581 -0.290894 -0.180404 -0.164591
4696 -0.0753206 0.276966 0.380201 -0.527212 0.516058 -0.309094 -0.386285 -0.593258 -0.57992 -0.540184 -0.189455 -0.211627 -0.101362 -0.361205 0.424161 -0.276464 -0.358774 0.000154033 0.512669 0.286689 0.0275891 0.132609 0.0189139 0.289222 -0.207639 -0.06798 0.170414 -0.29001 0.29549 0.359796 -0.0299973 -0.132501 0.0973814 -0.255605 -0.202124 -0.167564
32 -0.265251 0.243109 0.293316 -0.632878 0.557274 -0.452289 -0.483675 -0.771806 -0.778224 -0.824928 -0.386063 0.0261322 -0.371901 -0.441664 0.299891 -0.232341 -0.364044 0.00733076 0.829495 0.447158 0.0967093 0.426018 -0.040694 0.154131 -0.162487 -0.500962 0.110907 -0.326413 0.338637 0.401172 0.0564338 -0.146687 -0.208141 -0.206525 0.0459095 -0.246709
4289 -0.0631433 0.155034 0.262582 -0.255978 0.31607 -0.205355 -0.34663 -0.301053 -0.426329 -0.335679 -0.170911 -0.0698546 -0.184447 -0.274548 0.369705 -0.232368 -0.197545 -0.0384635 0.390962 0.184759 -0.122175 0.0654389 0.00432202 0.273602 -0.109893 0.0135167 0.142385 -0.183481 0.182085 0.222307 -0.00569044 0.149855 0.0532212 -0.159058 -0.160129 -0.0383207
4767 -0.0265115 0.135828 0.245282 -0.0896835 0.232427 -0.0189488 -0.324484 -0.192908 -0.360105 -0.199492 -0.191875 0.02756 -0.167507 -0.237869 0.456042 -0.244868 -0.131177 -0.0965541 0.341401 0.173483 -0.198567 0.0044087 0.00641183 0.268168 -0.095802 0.106509 0.175118 -0.129409 0.237214 0.187733 -0.0519422 0.288281 0.0970193 -0.137458 -0.225245 0.0112063
1484 -0.0482754 -0.0423426 0.331115 0.161663 0.234707 0.0762922 -0.381435 -0.0114791 -0.32161 0.110578 -0.246194 0.121092 -0.0419361 -0.32337 0.624001 -0.295582 -0.121168 -0.289681 0.353701 0.0109598 -0.396594 -0.115041 0.0225314 0.271003 -0.200147 0.369653 0.388418 -0.230032 0.248564 0.315068 -0.123413 0.452376 0.197809 -0.0701013 -0.432445 -0.07496
547 -0.0851389 -0.181903 0.291779 0.322751 0.243683 0.0799044 -0.437497 0.181043 -0.391529 0.217978 -0.380002 0.245821 -0.0865788 -0.293141 0.774862 -0.275521 -0.119163 -0.353049 0.488172 -0.0355338 -0.512925 -0.150195 0.103447 0.195108 -0.248754 0.408 0.589202 -0.234874 0.376596 0.413855 -0.162827 0.635241 0.156139 -0.015652 -0.4073 -0.0375135
21 -0.227989 0.0165056 0.169973 0.287877 0.230198 0.0779346 -0.345168 0.173551 -0.470048 -0.146969 -0.611253 0.523916 -0.23036 -0.316869 0.611431 -0.323914 0.0619357 -0.558855 0.584067 0.52275 -0.160889 0.0863656 -0.290935 -0.0420317 -0.116839 0.068298 0.430661 -0.156568 0.54889 0.0306943 -0.0723223 0.0581247 0.193229 -0.0746178 -0.534324 -0.250008
317 -0.0562159 0.163912 0.314635 -0.0225722 -0.0614089 0.427377 -0.410888 -0.316294 -0.302003 -0.402622 -0.462172 0.622167 -0.296306 -0.323286 0.619958 -0.15227 0.189288 -0.009349 0.385832 0.83404 -0.109608 0.153239 -0.182464 0.150379 0.0304573 -0.258452 -0.00306827 -0.0371293 0.691585 -0.0938768 -0.0362636 0.215015 -0.0837632 -0.28014 -0.0474407 0.141872
3849 -0.0411766 0.111914 0.215621 0.0460066 -0.0376621 0.216477 -0.367467 -0.173946 -0.185872 -0.196308 -0.310172 0.442765 -0.229133 -0.269244 0.462289 -0.181065 0.144012 -0.039569 0.274353 0.510514 -0.26829 0.0966291 -0.11052 0.258305 0.0454527 -0.10919 -0.0104357 -0.0918253 0.37182 -0.0165681 -0.0598843 0.355932 -0.0804597 -0.172126 -0.0438659 0.127887
328 -0.0693506 0.178206 0.25865 -0.0467055 -0.0349358 0.446546 -0.446454 -0.336102 -0.341798 -0.436919 -0.549684 0.722316 -0.289094 -0.277751 0.694361 -0.162845 0.233205 0.00409987 0.409282 0.976718 -0.115507 0.157385 -0.13015 0.112791 -0.0100142 -0.318887 0.000403996 -0.0735129 0.822225 -0.0990744 -0.0573886 0.155948 -0.137589 -0.382867 0.0171985 0.184383
1268 -0.0248995 0.249397 0.333415 -0.181984 0.00405396 0.387929 -0.362739 -0.447371 -0.291274 -0.477423 -0.393749 0.57896 -0.196362 -0.322654 0.565215 -0.165239 0.146017 0.0577863 0.310831 0.877648 -0.108819 0.229878 -0.102127 0.257671 0.0328652 -0.268107 -0.144174 -0.0839242 0.678312 -0.0559023 -0.00790501 0.143389 -0.0826134 -0.330339 -0.0395657 0.122249
3707 -0.00200327 0.237379 0.240457 -0.159531 0.269342 -0.129799 -0.309344 -0.246822 -0.459032 -0.332391 -0.179488 -0.142739 -0.276967 -0.257524 0.357309 -0.309428 -0.223098 -0.0512641 0.393091 0.0541839 -0.0944979 -0.00125947 -0.0435404 0.328268 -0.0729857 0.0809125 0.131436 -0.0967433 0.128517 0.164364 0.0347503 0.304257 0.160753 -0.142554 -0.32413 -0.014745
565 0.0754511 0.5328 0.323792 -0.330814 0.434321 -0.258296 -0.349059 -0.56479 -0.819138 -0.658269 -0.306152 -0.295918 -0.550219 -0.491981 0.459902 -0.508331 -0.352117 -0.0286437 0.646566 0.0809063 0.344179 -0.115388 -0.318941 0.404957 -0.215255 0.046692 0.150745 -0.0785163 0.16738 0.0331875 0.144885 0.148497 0.367863 -0.359009 -0.672168 -0.219553
1161 0.119175 0.180113 0.433398 -0.167465 0.334617 0.044737 -0.268305 -0.234528 -0.567783 -0.175751 -0.179772 -0.227662 -0.209141 -0.361452 0.665768 -0.303629 -0.305785 -0.19049 0.34633 -0.0566185 0.0144346 -0.239699 -0.0603719 0.348466 -0.249255 0.498382 0.326079 -0.053621 0.27779 0.380706 0.0639844 0.387895 0.499827 -0.223909 -0.672012 -0.0659972
2234 -0.0320679 0.0426202 0.366554 -0.0509512 0.28509 -0.0222255 -0.367693 -0.129632 -0.37962 -0.0563248 -0.165189 0.0197097 -0.0928843 -0.309374 0.564961 -0.280306 -0.208073 -0.194784 0.353562 0.0580506 -0.269651 -0.0685766 0.0340013 0.267576 -0.174169 0.295425 0.298181 -0.167727 0.249664 0.322938 -0.10313 0.326502 0.217043 -0.0944643 -0.387 -0.0502648
429 -0.0937461 0.208083 0.416669 0.0811277 0.0305082 0.564507 -0.305865 -0.293493 -0.109997 -0.121114 -0.332846 0.764316 0.062135 -0.480608 0.490896 -0.397809 0.142665 -0.249805 0.209838 0.648064 -0.646885 0.288269 -0.0721378 0.520713 0.130932 0.05534 -0.258139 -0.298055 0.451195 0.0228038 -0.188978 0.466765 -0.149509 -0.105018 -0.465061 -0.0727395
404 -0.144578 0.344456 0.261778 0.107516 0.134075 0.587092 -0.235909 -0.355584 -0.272723 -0.289865 -0.412416 0.863639 -0.0207037 -0.432003 0.413113 -0.472913 0.0381894 -0.235927 0.303031 0.666195 -0.540971 0.313189 -0.0599052 0.442013 0.138821 -0.143288 -0.347104 -0.272143 0.576991 -0.101893 -0.19991 0.400768 -0.204947 -0.113689 -0.606605 -0.217814
3759 -0.104204 0.216495 0.265719 0.0702973 0.0694636 0.359645 -0.291544 -0.184927 -0.233159 -0.213117 -0.305523 0.547666 -0.14514 -0.331934 0.403105 -0.352106 0.0303934 -0.162454 0.298064 0.440897 -0.412622 0.187066 -0.0488233 0.366011 0.0799188 -0.0135154 -0.158125 -0.171181 0.368467 -0.00368445 -0.0878038 0.444776 -0.101448 -0.0953382 -0.371942 -0.030749
370 -0.114066 0.227521 0.441974 -0.0489138 0.0517211 0.498027 -0.270788 -0.371635 -0.148816 -0.223627 -0.281938 0.729906 0.0745643 -0.53819 0.45356 -0.357961 0.0996702 -0.278699 0.192783 0.612761 -0.521941 0.312653 -0.099729 0.552114 0.138953 0.0914547 -0.315998 -0.291187 0.404414 0.110827 -0.110918 0.375225 -0.129807 -0.107421 -0.50175 -0.0938117
2984 -0.0267063 0.105229 0.355156 0.113279 -0.037663 0.448772 -0.373269 -0.199927 -0.122504 -0.106259 -0.348332 0.618173 -0.103578 -0.37406 0.568976 -0.24847 0.19286 -0.169865 0.234795 0.565931 -0.476441 0.172041 -0.100359 0.36097 0.0913344 0.0273065 -0.0655861 -0.185013 0.434387 0.0171211 -0.102512 0.484984 -0.0831184 -0.135045 -0.239311 0.0562929
2462 -0.0303095 0.127181 0.260248 0.0271801 0.100283 0.182793 -0.316899 -0.137406 -0.247573 -0.140204 -0.22777 0.283156 -0.153032 -0.288923 0.416543 -0.278197 -0.00852977 -0.14411 0.262749 0.289048 -0.336057 0.0664033 -0.0490966 0.330192 -0.00519632 0.0765435 0.0278251 -0.128376 0.25437 0.0764809 -0.0821902 0.381585 0.0328966 -0.0922915 -0.279757 0.0130299
525 -0.0426671 0.171096 0.482721 0.261899 -0.0601398 0.65558 -0.419353 -0.174806 -0.0740551 0.00184015 -0.345906 0.834207 0.00965432 -0.52064 0.660157 -0.415712 0.235821 -0.251581 0.215872 0.672955 -0.744926 0.239089 -0.128186 0.493407 0.120511 0.0848784 -0.117764 -0.213993 0.553742 -0.0799638 -0.276681 0.613838 -0.0571325 -0.022157 -0.482771 -0.0569539
304 -0.134222 -0.153839 0.343366 0.0151342 0.00672874 0.109033 -0.469973 -0.125147 -0.324563 0.00701818 -0.371473 0.469033 -0.174325 -0.394049 0.604595 -0.161157 0.195774 -0.175722 0.391378 0.607734 -0.182466 -0.00120402 -0.159644 0.0961955 -0.272582 0.0687412 0.297222 -0.168835 0.620228 0.217029 -0.0961228 0.18876 0.0706802 -0.133699 0.0405521 0.0283326
2826 -0.0587782 0.0989447 0.218259 -0.0106926 0.143292 0.0495842 -0.3792 -0.188069 -0.327777 -0.167181 -0.300175 0.222383 -0.183591 -0.256467 0.484877 -0.232096 0.0138026 -0.139897 0.344981 0.305092 -0.285209 0.0570271 -0.031929 0.271859 -0.0862609 0.0422283 0.156973 -0.215133 0.288337 0.131929 -0.0635418 0.332135 0.00700511 -0.155509 -0.143185 0.0243046
61 -0.0930554 0.270914 -0.309461 -0.167166 0.284852 0.231979 -0.248133 -0.375507 -0.618658 -0.331265 -0.597327 0.0939124 -0.307088 -0.0329237 0.506059 -0.177584 0.144407 -0.228452 0.351796 0.444091 -0.205443 -0.0857328 0.274423 0.35235 -0.372551 -0.1745 0.31501 -0.53184 0.657003 0.140828 -0.0321576 0.090752 -0.182558 -0.354713 -0.0155369 0.153799
4106 -0.0329161 0.133443 0.240042 -0.0418575 0.0471426 0.150144 -0.346277 -0.188124 -0.246215 -0.237789 -0.286821 0.319849 -0.20195 -0.267255 0.453861 -0.184568 0.0742872 -0.0376792 0.286821 0.443517 -0.224348 0.0914766 -0.0688584 0.263638 0.00316386 -0.0436661 0.0201536 -0.0834695 0.349574 0.0322346 -0.0486963 0.290115 -0.0252352 -0.169598 -0.0996823 0.0859666
153 -0.029075 0.17382 0.257294 0.0602415 -0.0210804 0.473974 -0.311251 -0.182148 -0.46092 -0.382437 -0.547365 0.61514 -0.330619 -0.261674 0.635692 -0.156755 0.134491 -0.136215 0.477635 0.696196 0.151242 0.0322746 -0.223681 0.00707196 -0.0735983 -0.124725 0.0802602 0.0294143 0.727973 -0.0619089 0.0364112 0.142439 0.112036 -0.359588 -0.319773 0.0252149
53 0.0435401 0.0541163 0.176384 0.124501 -0.107775 0.264878 -0.451888 -0.433005 -0.39931 -0.624873 -0.505218 0.566151 -0.753065 -0.31282 0.412403 0.116906 0.293836 -0.335817 0.671876 0.563021 -0.128899 0.251054 -0.602424 -0.00897632 0.601154 -0.202623 0.0351214 -0.230647 0.211078 -0.0509827 0.0606575 0.236194 0.0272915 -0.261108 -0.132273 -0.0260302
3524 -0.0790629 0.110283 0.158384 -0.0488933 0.14001 -0.0071987 -0.385321 -0.18986 -0.314272 -0.20031 -0.263412 0.191137 -0.236276 -0.209372 0.418543 -0.265595 -0.00995821 -0.0750338 0.327023 0.325581 -0.272177 0.0286621 -0.0503741 0.296958 -0.0793166 -0.00289915 0.110451 -0.161918 0.264834 0.0865237 -0.043415 0.331466 -0.0470169 -0.154369 -0.0957599 0.067954
106 -0.0922939 0.245012 0.215637 0.0188195 0.0795076 0.503458 -0.379923 -0.34613 -0.392903 -0.384613 -0.583769 0.744459 -0.106659 -0.230784 0.734254 -0.185956 0.190396 -0.093598 0.42981 0.889278 -0.119495 0.145196 -0.0711537 0.0891171 -0.0761559 -0.310217 0.061848 -0.185228 0.900605 -0.0912156 -0.126554 0.0622027 -0.148381 -0.400014 -0.186734 0.0491345
104 -0.0375265 0.134371 0.287684 0.0211427 -0.0422925 0.337561 -0.439457 -0.246423 -0.224412 -0.274735 -0.374936 0.584223 -0.250155 -0.307006 0.56866 -0.171222 0.195955 -0.015435 0.316739 0.731868 -0.25019 0.146408 -0.131446 0.233218 0.0236246 -0.202877 -0.0158012 -0.0623783 0.57959 -0.0638647 -0.0705621 0.299316 -0.108117 -0.223489 -0.0266558 0.153714
105 0.00482462 0.194337 0.312207 -0.116177 0.00615237 0.399967 -0.372203 -0.48368 -0.270446 -0.355114 -0.437857 0.635138 -0.055819 -0.360531 0.621372 -0.141515 0.230776 -0.0507011 0.290878 0.832486 -0.198047 0.206714 -0.129576 0.254079 -0.0296925 -0.196842 -0.0330326 -0.235169 0.699573 0.0163762 -0.0211328 0.132366 -0.0734154 -0.331753 -0.059936 0.0854158
2031 -0.0528172 0.12456 0.17133 0.0266887 0.0562725 0.199181 -0.342678 -0.179214 -0.276023 -0.237632 -0.329901 0.408729 -0.208717 -0.201233 0.45937 -0.205391 0.0814046 -0.0617935 0.310322 0.485262 -0.235841 0.0922459 -0.075131 0.208135 -0.0133097 -0.114062 0.0352609 -0.11736 0.408397 -0.0314612 -0.0783548 0.294806 -0.0795961 -0.19202 -0.0951293 0.0819285
2675 -0.0290459 0.146282 0.257233 -0.110548 0.0472833 0.135911 -0.348204 -0.274428 -0.291855 -0.340491 -0.300726 0.335879 -0.264098 -0.283179 0.465017 -0.169705 0.0519654 -0.0216408 0.358758 0.482636 -0.151322 0.127796 -0.0915789 0.249196 0.0369763 -0.0937942 0.00426183 -0.0831741 0.378476 0.0496828 0.00930939 0.294977 -0.0359014 -0.208531 -0.0952161 0.104798
3469 -0.0726097 0.146437 0.169624 -0.0983362 0.226849 -0.103236 -0.314542 -0.207918 -0.344358 -0.236897 -0.198388 0.0424437 -0.210489 -0.229547 0.341268 -0.274779 -0.138136 -0.0775146 0.361593 0.182434 -0.159994 0.0267535 -0.0418627 0.249846 -0.0720924 0.0217377 0.103696 -0.138104 0.187303 0.103886 -0.0429871 0.22749 0.0186235 -0.139475 -0.188477 -0.00660088
2366 -0.0375683 0.085217 0.239775 -0.0869823 0.1715 0.0563516 -0.457812 -0.30716 -0.256849 -0.136072 -0.292864 0.21326 -0.0547548 -0.246387 0.545819 -0.205173 0.0735547 -0.0423319 0.28797 0.502427 -0.289522 0.0365713 -0.00262589 0.257901 -0.163725 -0.0543086 0.210799 -0.291202 0.451073 0.109836 -0.132943 0.111839 -0.0309747 -0.248824 0.0654491 0.0906596
191 -0.104972 -0.0832015 0.375247 -0.0824477 0.293116 0.259713 -0.44195 -0.141825 -0.398475 -0.0269702 -0.286418 0.338017 -0.00962858 -0.192926 0.76213 -0.145498 -0.131539 -0.160592 0.378065 0.382161 -0.254989 -0.13858 0.147963 0.0890502 -0.257005 0.217311 0.351154 -0.172175 0.659626 0.393218 -0.172657 0.148518 0.122443 -0.208034 -0.150395 0.116155
2085 -0.0609552 0.0296378 0.244125 0.0216853 0.258092 0.0448543 -0.374664 -0.0799957 -0.359189 -0.0415259 -0.26937 0.148278 -0.115331 -0.2159 0.57403 -0.268682 -0.111183 -0.185657 0.354485 0.174459 -0.313758 -0.0880993 0.0584416 0.264442 -0.166194 0.208246 0.299374 -0.231898 0.326686 0.246086 -0.0986864 0.329649 0.091985 -0.156652 -0.260785 0.0217863
2312 -0.0914105 0.125084 0.189253 -0.215558 0.346047 -0.123241 -0.373662 -0.242664 -0.450994 -0.240268 -0.236855 0.00702295 -0.129549 -0.188281 0.49163 -0.254936 -0.179815 -0.0914344 0.41933 0.271631 -0.188633 -0.0343463 0.0898546 0.254755 -0.19174 0.0805557 0.262019 -0.255847 0.328141 0.260124 -0.103858 0.111187 0.0396813 -0.216163 -0.140654 0.0339139
2057 -0.0592308 0.146169 0.290722 -0.191647 0.295073 -0.0321784 -0.40821 -0.276172 -0.409135 -0.277769 -0.240062 0.06994 -0.155952 -0.228015 0.52239 -0.242779 -0.15844 -0.0767659 0.410472 0.301126 -0.232795 0.0373919 0.0571337 0.319185 -0.101048 0.0895289 0.172651 -0.20647 0.302633 0.266904 -0.0633751 0.236098 0.0585483 -0.203943 -0.168317 0.072794
2306 -0.0672409 -0.00460642 0.30878 0.138841 0.223953 0.141497 -0.409519 -0.0465141 -0.363144 0.0274282 -0.341851 0.246481 -0.0525711 -0.311946 0.644006 -0.278123 -0.048786 -0.276768 0.378651 0.173637 -0.371769 -0.0632232 0.00331086 0.233818 -0.188916 0.23254 0.377158 -0.23229 0.380195 0.234359 -0.129286 0.398317 0.146617 -0.107325 -0.368769 -0.0367829
4166 -0.0440846 0.0639314 0.258557 0.0156566 0.227716 -0.0416803 -0.378427 -0.116228 -0.297139 -0.067976 -0.226613 0.108913 -0.0847907 -0.27448 0.507113 -0.273174 -0.0535363 -0.132311 0.318711 0.20897 -0.266694 -0.0458751 -0.0153773 0.234901 -0.156711 0.125401 0.284574 -0.226806 0.259421 0.165536 -0.114632 0.23148 0.0685361 -0.126757 -0.193565 -0.0360797
708 -0.0402057 -0.0836858 0.422264 0.288404 0.149028 0.202413 -0.471652 0.0890233 -0.241216 0.276772 -0.267929 0.320035 0.0533478 -0.377988 0.745166 -0.315492 0.0340768 -0.321063 0.271851 0.190767 -0.591543 -0.0992414 -0.0104456 0.299265 -0.198412 0.38669 0.440556 -0.226154 0.421002 0.249462 -0.256671 0.531588 0.222463 -0.0213254 -0.420806 -0.0537072
1840 -0.0124762 -0.0373531 0.316135 0.242256 0.132363 0.113077 -0.433505 0.0644059 -0.281283 0.14289 -0.266928 0.224488 -0.0932228 -0.326248 0.655061 -0.295008 0.00962915 -0.261085 0.305998 0.136609 -0.463804 -0.10837 -0.0613316 0.297912 -0.171353 0.286843 0.378185 -0.191332 0.294464 0.182982 -0.147058 0.531271 0.190204 -0.0589921 -0.343025 0.00213361
4201 -0.0156604 0.0611371 0.273611 0.0807795 0.0781875 0.140421 -0.389083 -0.104213 -0.277042 -0.0630598 -0.286813 0.27368 -0.147505 -0.275003 0.518372 -0.243773 0.0310513 -0.149142 0.291564 0.308059 -0.282306 -0.00608757 -0.0833194 0.230175 -0.0783898 0.0827226 0.187918 -0.14843 0.361361 0.0789914 -0.102545 0.353247 0.0815218 -0.12049 -0.22304 0.0279776
423 -0.118835 0.267495 0.41672 0.0104091 0.0546416 0.586932 -0.257141 -0.392699 -0.175729 -0.282731 -0.322699 0.802265 0.00354032 -0.567902 0.45258 -0.392813 0.0813416 -0.222599 0.257166 0.643757 -0.582448 0.406748 -0.0906814 0.549993 0.191773 -0.0347665 -0.354962 -0.244896 0.449444 0.0214931 -0.113865 0.492884 -0.176024 -0.0544159 -0.534299 -0.125519
4870 -0.0601898 0.190417 0.270525 0.0854335 -0.0103907 0.395922 -0.301955 -0.168217 -0.193448 -0.21285 -0.287496 0.540859 -0.177882 -0.31998 0.432124 -0.304457 0.0752478 -0.128466 0.28523 0.477961 -0.418871 0.176059 -0.0792224 0.375897 0.129202 -0.0279346 -0.155824 -0.12357 0.339002 -0.0497892 -0.10612 0.460108 -0.0986617 -0.118887 -0.298514 0.0359712
2831 -0.0936861 0.220506 0.361456 0.0429797 -0.00142924 0.494574 -0.397776 -0.292902 -0.211077 -0.265619 -0.346697 0.691024 -0.143455 -0.425891 0.552552 -0.336539 0.121259 -0.143762 0.29864 0.683127 -0.458592 0.208131 -0.104968 0.425448 0.0965013 -0.0586991 -0.177732 -0.15882 0.503338 -0.0446598 -0.147065 0.448609 -0.120295 -0.151407 -0.313529 0.0398508
4551 -0.000639647 0.121215 0.308346 -0.0759633 0.247628 -0.0224712 -0.340226 -0.15912 -0.378955 -0.142563 -0.154201 -0.0433686 -0.146469 -0.256811 0.481261 -0.276412 -0.212273 -0.125867 0.32699 0.0700506 -0.229391 -0.0540379 0.0307263 0.331106 -0.114211 0.228792 0.218354 -0.144448 0.186495 0.262328 -0.0439706 0.341281 0.181898 -0.110838 -0.348329 -0.0204816
228 0.0525046 0.13564 0.446037 -0.258611 0.391553 0.072821 -0.323236 -0.24398 -0.497634 -0.163746 -0.155762 -0.13172 -0.0628422 -0.251467 0.698375 -0.203666 -0.329712 -0.147017 0.330478 0.113291 -0.125496 -0.173346 0.151016 0.276578 -0.217804 0.394373 0.364599 -0.134892 0.445417 0.46279 -0.0654123 0.220318 0.376793 -0.22947 -0.457915 0.0340137
78 -0.113872 0.131517 0.250426 -0.33757 0.357437 -0.220926 -0.376768 -0.251946 -0.463827 -0.391582 -0.173458 -0.116341 -0.230365 -0.158358 0.437846 -0.169835 -0.270686 -0.0702126 0.421684 0.216049 -0.139791 0.0283353 0.0783047 0.279501 -0.0890943 0.139515 0.168507 -0.15458 0.193414 0.3489 -0.00891493 0.151643 0.0707359 -0.22126 -0.108252 0.102849
2969 -0.0730868 0.239503 0.339566 -0.540711 0.508499 -0.277025 -0.33604 -0.4415 -0.638609 -0.596362 -0.1886 -0.264403 -0.248766 -0.211202 0.509925 -0.155967 -0.445128 -0.0840692 0.525235 0.21634 0.00906394 0.0624092 0.113807 0.343059 -0.101864 0.177829 0.154324 -0.189923 0.244297 0.51379 0.0832307 0.0878931 0.171517 -0.277548 -0.253484 0.0647487
1362 -0.129214 0.109882 0.416423 -0.612315 0.493036 -0.209313 -0.374219 -0.369505 -0.554249 -0.519921 -0.136631 -0.169802 -0.132865 -0.17536 0.574756 -0.0490393 -0.444386 -0.0610378 0.460882 0.295901 -0.107613 0.107269 0.257348 0.286662 -0.102314 0.214565 0.188124 -0.175172 0.322939 0.678258 0.044354 0.0671524 0.13834 -0.255478 -0.0677463 0.19273
168 -0.285382 0.068891 0.0070222 -0.203645 0.441994 -0.0143374 -0.468359 -0.135232 -0.470183 -0.186017 -0.408464 0.245547 -0.105498 -0.0111356 0.609743 -0.119733 -0.0389645 -0.2508 0.408851 0.629283 -0.391 -0.107162 0.307744 0.158573 -0.360125 0.103206 0.402057 -0.44355 0.574378 0.307288 -0.237006 -0.0922258 -0.139503 -0.35122 0.130091 0.196023
3724 -0.0793838 0.118382 0.190028 -0.143926 0.230577 -0.0750295 -0.35529 -0.195826 -0.339078 -0.229918 -0.199194 0.0835841 -0.176024 -0.187735 0.395695 -0.238179 -0.100433 -0.0802715 0.338918 0.283564 -0.218146 0.0269743 0.0288771 0.273233 -0.0938563 0.018999 0.135661 -0.167108 0.259147 0.168805 -0.0787943 0.189203 0.00310324 -0.15762 -0.10704 0.0512442
2476 -0.0373584 -0.0332434 0.345004 0.249737 0.216263 0.191798 -0.420189 0.0427348 -0.281468 0.184981 -0.316364 0.292198 0.0516864 -0.331259 0.722555 -0.335295 -0.0210671 -0.298441 0.329392 0.17907 -0.492113 -0.0733635 0.0138204 0.259387 -0.211826 0.307675 0.416751 -0.247438 0.423431 0.20186 -0.229459 0.439439 0.15626 -0.04619 -0.436471 -0.0788144
2739 -0.0725068 -0.114119 0.25165 0.200892 0.160473 0.00682933 -0.438951 0.0303564 -0.288345 0.12079 -0.266694 0.202939 -0.105168 -0.302648 0.599716 -0.276467 -0.0168668 -0.257635 0.342303 0.0648623 -0.467107 -0.0795233 -0.0141212 0.272686 -0.177266 0.301385 0.392475 -0.247535 0.241484 0.258894 -0.141223 0.532298 0.0915131 -0.0370662 -0.252752 -0.00118509
2707 -0.0471742 -0.0166876 0.221656 0.229456 -0.0186823 0.252463 -0.342132 -0.0705465 -0.176309 -0.00852846 -0.393478 0.566316 -0.093606 -0.345183 0.568718 -0.311683 0.151284 -0.230027 0.295349 0.366535 -0.507186 0.084293 -0.0709807 0.355215 0.00963917 0.0925824 0.111559 -0.235571 0.307512 0.103134 -0.0456875 0.608477 -0.0614281 -0.0719529 -0.22668 0.0364027
2641 -0.0352928 0.0254367 0.098393 0.161627 0.112131 0.014214 -0.334704 -0.129321 -0.310479 -0.102951 -0.375408 0.330526 -0.140851 -0.255865 0.459423 -0.2796 0.0783485 -0.163327 0.35264 0.242502 -0.30841 0.0427805 -0.110292 0.238976 -0.0522539 0.0119135 0.185702 -0.230831 0.248327 0.0631307 -0.0203101 0.395534 -0.0261195 -0.116252 -0.182562 -0.015565
1105 -0.0753792 -0.0132266 0.236379 0.244399 0.162236 0.212089 -0.383785 -0.0486514 -0.321269 0.0298478 -0.488416 0.523364 0.00253911 -0.344129 0.653868 -0.298028 0.124635 -0.33987 0.352689 0.409914 -0.366778 0.0371898 -0.106773 0.174075 -0.153579 0.078363 0.349978 -0.310212 0.489337 0.102191 -0.144859 0.286681 0.0425878 -0.117854 -0.370085 -0.137636
490 -0.212141 0.0152452 0.225595 0.363339 0.305116 0.2839 -0.369006 0.0975178 -0.444577 0.0455546 -0.523614 0.54561 0.0217375 -0.336765 0.655832 -0.3456 -0.0197881 -0.452781 0.45714 0.40642 -0.412953 0.109843 -0.0771351 0.0355965 -0.147698 0.086777 0.361821 -0.225351 0.629659 0.0695674 -0.266283 0.165786 0.149784 -0.0130759 -0.588402 -0.27825
1335 -0.0884572 0.0569295 0.289944 0.24227 0.192499 0.298172 -0.358502 -0.0211934 -0.291187 0.0541554 -0.394073 0.460464 0.0157707 -0.324451 0.614744 -0.336685 0.0421028 -0.31905 0.315861 0.334874 -0.466425 0.0306634 -0.0387585 0.247447 -0.13057 0.17361 0.254296 -0.265626 0.485288 0.0980096 -0.195251 0.348912 0.0911731 -0.0934691 -0.459609 -0.10655
2954 -0.0651886 0.0837235 0.210419 0.05378 0.161417 0.0492994 -0.359358 -0.0940426 -0.30089 -0.122733 -0.283315 0.21964 -0.165947 -0.236231 0.465741 -0.277811 -0.026057 -0.147074 0.330359 0.24692 -0.282429 0.0119557 -0.0458258 0.232967 -0.0737361 0.0402329 0.164678 -0.133816 0.299569 0.0754934 -0.0986811 0.33669 0.0358173 -0.108628 -0.2254 -0.0102116
1336 -0.079296 0.0454767 0.279654 0.236673 0.152973 0.23176 -0.437803 -0.00916036 -0.285435 0.045512 -0.37569 0.431284 -0.0455903 -0.329378 0.664375 -0.316838 0.0911325 -0.268536 0.319016 0.378613 -0.469668 -0.00663457 -0.0834654 0.236285 -0.121231 0.1257 0.278983 -0.211649 0.471179 0.065698 -0.19664 0.348841 0.0793309 -0.100772 -0.371509 -0.0632018
3760 -0.00975272 0.110139 0.21061 -0.0735498 0.0257379 0.193135 -0.429158 -0.256825 -0.216935 -0.143711 -0.303901 0.353739 -0.132585 -0.176584 0.589405 -0.186757 0.148868 0.0158815 0.20416 0.62485 -0.343342 0.0440904 0.0135145 0.298205 -0.089139 -0.0744149 0.0870688 -0.179449 0.515139 0.0396706 -0.114154 0.275588 -0.038694 -0.245765 0.0830094 0.220103
47 -0.065788 0.157822 0.224897 -0.0988771 -0.0133806 0.384023 -0.311949 -0.32566 -0.385279 -0.456092 -0.52487 0.632589 -0.355868 -0.327497 0.640051 -0.136454 0.16176 -0.0380279 0.467334 0.768244 0.071558 0.0688458 -0.200899 0.130612 -0.027749 -0.212943 0.0183307 -0.050198 0.648783 -0.0159995 0.0692552 0.212279 -0.0669264 -0.310934 -0.130162 0.144062
3031 -0.0618681 0.141275 0.16362 -0.159226 0.257198 -0.294008 -0.412971 -0.271077 -0.405871 -0.303355 -0.205358 -0.0421928 -0.30518 -0.232703 0.3349 -0.28122 -0.105096 -0.00051826 0.437459 0.179575 -0.162589 0.00946618 -0.0430516 0.29677 -0.0947837 -0.0584636 0.150704 -0.193747 0.1166 0.110945 -0.0240844 0.225232 -0.0584651 -0.158075 -0.0115153 0.0113785
115 -0.225364 -0.0729831 0.0489581 -0.091757 0.173643 -0.694351 -0.638122 -0.18635 -0.421317 -0.22127 -0.376743 0.153966 -0.624467 -0.363231 0.311582 -0.293651 0.0921201 -0.202606 0.700576 0.195297 -0.0658043 -0.163383 -0.342617 0.273231 -0.244045 0.0160036 0.251643 -0.356402 -0.169587 0.20939 0.0701824 0.302406 -0.212135 -0.207865 0.207593 0.0619078
112 -0.118127 0.092159 0.106824 -0.0941591 0.205951 -0.252176 -0.481138 -0.185253 -0.409827 -0.305491 -0.26881 0.075043 -0.430546 -0.189725 0.380699 -0.273863 -0.0720934 -0.0813749 0.468304 0.248492 -0.229874 0.0150955 -0.0719544 0.312818 -0.0466586 -0.0256198 0.138767 -0.182767 0.111602 0.124385 -0.0130026 0.360721 -0.0792113 -0.17683 0.0259948 0.112196
373 -0.0683332 0.10459 0.148363 -0.0541327 0.0765124 0.0660524 -0.478151 -0.209829 -0.293846 -0.218141 -0.379896 0.290995 -0.232938 -0.165539 0.537082 -0.199509 0.163416 -0.0341304 0.339214 0.58059 -0.293463 0.0479918 -0.0345751 0.25152 -0.131701 -0.121069 0.169404 -0.249001 0.42825 0.0238513 -0.0753498 0.229877 -0.0877924 -0.283699 0.107839 0.188303
149 -0.079915 0.1656 0.273336 0.0217453 -0.0471411 0.371282 -0.491107 -0.283998 -0.28498 -0.32739 -0.477948 0.647451 -0.294067 -0.277386 0.616326 -0.155743 0.26762 -0.023158 0.380366 0.903743 -0.267338 0.173901 -0.144244 0.199076 0.0201185 -0.2941 0.00525569 -0.123272 0.708589 -0.109273 -0.117162 0.247463 -0.150541 -0.296545 0.067908 0.152744
2181 -0.0838853 0.0440293 0.250087 0.117744 0.0632548 0.211023 -0.365163 -0.0577737 -0.212342 -0.0614963 -0.293171 0.398806 -0.143039 -0.314346 0.483838 -0.279199 0.0611554 -0.172694 0.307955 0.325094 -0.401935 0.0697924 -0.0704123 0.300799 -0.0143321 0.095482 0.0324258 -0.141971 0.296356 0.0614178 -0.119695 0.453204 -0.0213726 -0.0529093 -0.268201 0.00890701
2903 -0.0645522 0.0911246 0.153518 -0.0669617 0.178825 -0.094413 -0.392972 -0.153798 -0.346853 -0.214304 -0.240695 0.079125 -0.263178 -0.218035 0.40001 -0.26473 -0.0749868 -0.0691586 0.374378 0.239758 -0.243569 0.0136965 -0.0360623 0.273874 -0.0803195 0.0112649 0.130717 -0.161303 0.191229 0.101716 -0.0519473 0.296672 0.00315013 -0.150801 -0.104253 0.046843
3529 -0.0503752 0.119985 0.31092 0.130391 0.0341805 0.31347 -0.373306 -0.132179 -0.187895 -0.0813257 -0.292487 0.510512 -0.10803 -0.345462 0.511237 -0.364484 0.0969119 -0.168021 0.242558 0.428738 -0.551271 0.134912 -0.0532248 0.402815 0.0354101 0.049236 -0.048906 -0.163733 0.369059 -0.00223557 -0.171345 0.513126 -0.0614895 -0.0601578 -0.3046 0.0147129
601 -0.090818 0.241051 0.386729 0.104356 0.0271496 0.568243 -0.310224 -0.258717 -0.179549 -0.164214 -0.311805 0.74434 -0.057755 -0.470309 0.4797 -0.408227 0.0989134 -0.220016 0.238936 0.584071 -0.566976 0.245632 -0.096489 0.47653 0.145563 0.0325452 -0.270137 -0.195635 0.439672 -0.0575083 -0.172132 0.536896 -0.109502 -0.0801554 -0.517603 -0.0723805
938 -0.0671839 0.149674 0.249483 0.0961073 0.0456844 0.269462 -0.316218 -0.151729 -0.207184 -0.16809 -0.282585 0.423285 -0.176649 -0.323792 0.427739 -0.32183 0.0519051 -0.134461 0.295987 0.355439 -0.405485 0.119121 -0.0675896 0.343439 0.0643164 0.0163947 -0.0546749 -0.139859 0.301092 0.0045676 -0.0948531 0.470487 -0.075719 -0.0835014 -0.30855 0.00607758
2559 -0.0775945 0.121793 0.073044 -0.0351587 0.111219 -0.118081 -0.383542 -0.157536 -0.406257 -0.364725 -0.30185 0.154064 -0.507404 -0.209897 0.345776 -0.278061 -0.0390711 -0.0686167 0.494551 0.202551 -0.155521 0.024024 -0.12495 0.306901 0.0171376 -0.0545339 0.0584823 -0.0871975 0.112721 0.0537472 0.0490693 0.480493 -0.0684559 -0.164759 -0.0776317 0.0856703
179 -0.170709 0.0736276 -0.157457 -0.150327 0.0796248 -0.178945 -0.445666 -0.200651 -0.518662 -0.396892 -0.497549 0.248475 -0.510245 0.0137199 0.380699 -0.209982 0.129032 -0.139601 0.513145 0.48023 -0.166755 -0.0151758 -0.110259 0.282758 -0.110327 -0.0807583 0.1522 -0.346244 0.21701 0.122585 0.110028 0.317254 -0.200219 -0.416909 0.200973 0.271615
49 -0.0691728 0.164177 0.347005 -0.0699244 0.00246585 0.466625 -0.382857 -0.374516 -0.318364 -0.411824 -0.464774 0.701578 -0.186945 -0.352308 0.632531 -0.178836 0.172335 -0.0115933 0.359616 0.885415 -0.127591 0.200077 -0.15131 0.142122 -0.00168774 -0.268722 -0.0479551 -0.0495192 0.749287 -0.0420653 -0.0592023 0.185674 -0.0892074 -0.277501 -0.0904118 0.0703071
728 0.0527985 0.0550037 0.277246 0.125337 0.0570067 0.154344 -0.362387 -0.0700795 -0.312319 -0.0206583 -0.32822 0.233695 -0.117772 -0.313234 0.625062 -0.23667 0.0766585 -0.213489 0.277329 0.284633 -0.236927 -0.0899873 -0.137269 0.233761 -0.157609 0.201615 0.311515 -0.184379 0.368508 0.131881 -0.0275455 0.349755 0.228558 -0.202833 -0.335171 -0.00398628
22 -0.117632 -0.0461732 0.155667 0.371159 0.215461 0.165824 -0.319674 0.136142 -0.484416 0.0577264 -0.535422 0.31382 -0.202966 -0.269601 0.690814 -0.290537 -0.0185365 -0.464442 0.523453 0.0750615 -0.250607 -0.154458 -0.121822 0.041195 -0.250391 0.238772 0.556032 -0.234575 0.449384 0.170839 -0.0762142 0.372139 0.204486 -0.105286 -0.594137 -0.169485
495 -0.0781513 0.015863 0.407573 0.331092 0.131213 0.36969 -0.439857 0.013306 -0.260559 0.105592 -0.473961 0.615697 0.04676 -0.482297 0.747446 -0.337287 0.152576 -0.367799 0.320776 0.486404 -0.425496 0.0629136 -0.164999 0.167854 -0.160079 0.134431 0.338673 -0.222914 0.62538 0.0547575 -0.218436 0.295344 0.137123 -0.0543642 -0.50524 -0.181046
1596 -0.0405232 0.141147 0.221674 0.0107085 0.110321 0.153211 -0.352782 -0.188652 -0.266288 -0.207783 -0.310156 0.317572 -0.144064 -0.260852 0.458673 -0.237092 0.031424 -0.0797238 0.33016 0.432443 -0.224499 0.0942461 -0.069901 0.217975 -0.0474833 -0.055077 0.0759123 -0.151524 0.408061 0.0385644 -0.0906977 0.243959 -0.0259991 -0.159839 -0.17004 0.00794236
446 -0.127255 0.267605 0.411904 -0.523947 0.568729 -0.404535 -0.41874 -0.543654 -0.649285 -0.541138 -0.15226 -0.272785 -0.125797 -0.372799 0.43169 -0.266606 -0.459719 -0.0170107 0.551645 0.193361 -0.00997234 0.153141 0.0512577 0.313926 -0.225113 -0.0158216 0.240385 -0.286437 0.259907 0.434291 -0.0182707 -0.0672734 0.10855 -0.222806 -0.222596 -0.157112
1112 -0.0792341 0.175313 0.218898 -0.28685 0.419621 -0.303624 -0.40765 -0.351969 -0.582026 -0.381379 -0.214044 -0.156901 -0.255583 -0.26246 0.398573 -0.351911 -0.294961 -0.0648498 0.550647 0.115806 -0.182037 0.0956976 0.0107492 0.390441 -0.157967 0.0747553 0.117615 -0.242105 0.142655 0.276772 0.00108158 0.262017 0.0831624 -0.185833 -0.201459 -0.00492773
257 -0.191159 0.0929547 -0.0208356 -0.156245 0.450448 -0.304373 -0.421166 -0.236779 -0.626467 -0.252376 -0.32579 0.0276393 -0.191994 -0.156483 0.294834 -0.486312 -0.244083 -0.1848 0.650451 0.119842 -0.277026 0.110177 0.0552731 0.363019 -0.280841 0.0347255 0.0534957 -0.437825 0.148019 0.103421 -0.152631 0.203497 -0.0827785 -0.228373 -0.10563 -0.00927714
268 -0.127775 0.137189 0.146341 -0.141075 0.368749 -0.0948617 -0.321081 -0.255912 -0.459996 -0.244957 -0.246376 0.0866712 -0.111642 -0.206643 0.331062 -0.354361 -0.199829 -0.137315 0.443174 0.176216 -0.246457 0.0949967 0.0393313 0.301654 -0.158675 0.0369438 0.0712625 -0.289747 0.220185 0.170429 -0.107649 0.178688 -0.0151769 -0.157866 -0.210217 -0.0749401
269 -0.0844555 0.158241 0.170711 -0.183036 0.338997 -0.164443 -0.381434 -0.283263 -0.475973 -0.256532 -0.203448 -0.0639622 -0.168676 -0.242036 0.391676 -0.31586 -0.206651 -0.0918082 0.451888 0.128642 -0.218125 0.0473646 0.030688 0.356079 -0.160691 0.107917 0.138675 -0.281095 0.144158 0.196746 -0.0563833 0.239563 0.0477246 -0.213097 -0.187071 0.0197656
256 -0.265042 -0.00765215 0.115648 -0.117579 0.426125 -0.151647 -0.421707 -0.291121 -0.518437 -0.0700085 -0.220224 0.236967 -0.0153013 -0.339277 0.216055 -0.49358 -0.195659 -0.261795 0.591283 0.085864 -0.439506 0.202165 0.0727941 0.444365 -0.278619 0.136193 -0.0850197 -0.561321 0.121448 0.190013 -0.253602 0.198605 -0.14944 -0.12506 -0.167736 -0.146522
568 -0.105174 0.184482 0.255241 -0.290204 0.393701 -0.248204 -0.428803 -0.320741 -0.573542 -0.419882 -0.189706 -0.128141 -0.296525 -0.286289 0.419685 -0.36267 -0.317599 -0.0973248 0.56085 0.111836 -0.210937 0.0974286 0.0214987 0.441377 -0.132843 0.113141 0.113637 -0.213664 0.122637 0.287502 -0.00889574 0.349377 0.0811947 -0.201602 -0.238334 0.00242929
570 -0.0727713 0.175086 0.222035 -0.196793 0.338912 -0.206567 -0.418887 -0.275106 -0.542755 -0.355289 -0.237623 -0.0355053 -0.303325 -0.280368 0.41343 -0.367168 -0.245178 -0.0903626 0.527071 0.12753 -0.227098 0.0556924 0.0110931 0.396771 -0.114222 0.0803912 0.11685 -0.192997 0.16793 0.204309 -0.0161106 0.402587 0.0457534 -0.184961 -0.236628 0.00765295
297 -0.111709 0.0506883 0.235765 -0.237029 0.228686 -0.0401218 -0.499447 -0.326503 -0.295073 -0.161914 -0.295127 0.219707 -0.0420726 -0.215349 0.599036 -0.195152 0.0609352 -0.0311867 0.346141 0.590181 -0.296526 0.0177231 0.0538195 0.267677 -0.274878 -0.0553543 0.268516 -0.349303 0.498357 0.201411 -0.153594 0.0232641 -0.0972356 -0.30322 0.160332 0.12896
1041 -0.145233 0.0489796 0.339546 -0.482888 0.428187 -0.212065 -0.434685 -0.34342 -0.455094 -0.33515 -0.166419 -0.0776829 -0.0226325 -0.148457 0.599215 -0.0862406 -0.284206 -0.0595805 0.41242 0.40402 -0.271154 0.0902398 0.226251 0.285378 -0.167403 0.151439 0.294503 -0.281494 0.410179 0.567875 -0.0628253 0.0488472 0.0460503 -0.248468 0.0803072 0.174191
1040 -0.112935 0.128059 0.316318 -0.522474 0.378795 -0.166576 -0.415528 -0.336913 -0.452797 -0.380191 -0.186602 -0.0797921 -0.113588 -0.148653 0.578085 -0.0871255 -0.217931 -0.0655207 0.372187 0.456799 -0.17649 0.0405704 0.183953 0.316728 -0.179158 0.161518 0.214407 -0.270702 0.374001 0.493671 -0.00615221 0.0195156 0.0758298 -0.333785 0.0605331 0.229806
1465 -0.095647 0.164024 0.301569 -0.34483 0.361829 -0.192823 -0.387347 -0.270308 -0.447972 -0.368718 -0.144055 -0.137506 -0.18526 -0.204965 0.468347 -0.207084 -0.298176 -0.0693058 0.400259 0.215585 -0.173512 0.0387765 0.113664 0.343265 -0.0989116 0.157045 0.185377 -0.164487 0.204787 0.365537 -0.0248602 0.17891 0.0987625 -0.216409 -0.137212 0.0955859
552 -0.124986 0.178376 0.341685 -0.543816 0.460669 -0.264193 -0.417797 -0.317969 -0.538952 -0.460845 -0.153988 -0.219589 -0.170341 -0.139488 0.52668 -0.140666 -0.370746 -0.0787961 0.450867 0.294679 -0.144043 0.0296983 0.177507 0.353558 -0.121813 0.228147 0.195822 -0.198038 0.238224 0.539681 0.00570049 0.120119 0.118597 -0.309143 -0.100163 0.162732
1856 -0.0769647 0.173472 0.285434 -0.384307 0.378707 -0.223112 -0.391939 -0.290901 -0.496825 -0.395568 -0.147808 -0.140351 -0.202407 -0.191187 0.462181 -0.214838 -0.28152 -0.0804772 0.434747 0.226475 -0.13521 0.0201396 0.0799572 0.342067 -0.111777 0.161306 0.174125 -0.171585 0.207657 0.389039 -0.0188264 0.162116 0.127093 -0.236478 -0.143769 0.0917115
4575 -0.0680111 0.134123 0.210254 -0.1675 0.234146 -0.0613064 -0.343534 -0.193981 -0.351086 -0.259784 -0.19775 0.0443393 -0.190307 -0.200675 0.392862 -0.23642 -0.150704 -0.0788637 0.367121 0.226731 -0.202975 0.045729 0.0138035 0.288747 -0.0716647 0.0614513 0.0999631 -0.151548 0.211126 0.192987 -0.0352458 0.225587 0.0285824 -0.147422 -0.161231 0.0503432
1116 -0.0636046 0.210548 0.21466 -0.329459 0.391751 -0.181028 -0.380383 -0.4227 -0.507643 -0.379924 -0.228171 -0.0666324 -0.138084 -0.226396 0.43239 -0.26535 -0.20526 -0.0052304 0.451146 0.321689 -0.0786332 0.0893452 0.0318805 0.255137 -0.17337 -0.0636923 0.140221 -0.22823 0.342647 0.200644 -0.0790579 -0.0186588 0.0503853 -0.266659 -0.0921452 -0.0218541
4117 -0.0336963 0.132582 0.1994 -0.135164 0.255239 -0.181965 -0.409254 -0.233703 -0.391493 -0.262838 -0.191862 -0.0280609 -0.241688 -0.22015 0.400099 -0.312491 -0.119915 -0.025232 0.398145 0.188592 -0.210174 0.0252484 -0.00722922 0.325447 -0.105315 0.0124214 0.162145 -0.202356 0.164119 0.141029 -0.0602359 0.274611 0.0327811 -0.170235 -0.104813 0.0390119
