5003 10
3522 0.488637 -0.301132 -0.203916 -0.29088 0.59005 -0.522403 0.256024 -0.261272 -0.025768 -0.424932
1082 0.696874 -0.46063 -0.314105 -0.0993677 1.09282 -0.682911 0.432776 -0.342088 -0.174072 -0.902368
2 1.37306 -0.0549102 -0.00731894 -1.43593 0.221771 -0.546036 0.338811 -0.558357 -1.11383 0.0271954
1 1.96972 -0.447502 -0.117571 -1.37679 -0.109978 -0.298564 -0.112757 -0.509405 -0.618265 -0.0543284
1442 0.473265 -0.347716 -0.0319592 -0.526107 0.0181364 -0.712753 0.075219 -0.183956 -0.113731 -0.471833
333 1.61824 0.478991 -0.219915 -0.922195 -0.463317 -0.71601 -0.570658 0.255999 -0.229877 -1.24749
31 1.88551 -1.24727 -0.0649403 -0.567077 -0.145821 -0.00352011 0.384463 0.0893883 -0.627793 -0.996789
4662 0.226655 -0.377012 -0.0716375 -0.427296 0.218543 -0.633018 0.202076 -0.0955724 -0.0658799 -0.419779
30 1.40176 -1.02149 -0.204009 -0.722078 0.165974 -0.0538348 0.678312 0.246074 -0.285866 -0.804171
1698 -0.316531 -1.46198 -0.148901 -0.40379 1.52539 -0.78018 1.55181 0.64683 0.312455 -1.11403
42 1.6284 -1.59661 0.0405532 -0.157736 -0.0556826 -0.107289 0.499832 0.266103 -0.379969 -1.17993
2667 0.388688 -0.397826 -0.113923 -0.484432 0.295575 -0.729556 0.195304 -0.285879 -0.0727283 -0.41211
1634 1.21913 -0.789505 -0.324542 -0.132304 0.511405 -0.478043 0.183851 -0.267325 -0.0746849 -0.620323
3 0.960562 -1.14507 -0.704088 -0.533112 0.13036 -1.09855 -0.123947 -0.045462 -1.14944 -0.00518599
2045 0.290332 -0.487918 -0.0125482 -0.424923 0.0834689 -0.486095 0.23661 -0.14547 -0.0415757 -0.363475
2044 0.332919 -0.40719 -0.0210182 -0.455419 -0.0291549 -0.745036 0.233654 -0.207887 -0.118488 -0.328891
161 0.740161 -0.368202 0.0346956 -1.02216 -0.700362 -0.826778 0.558265 -0.476952 -0.476751 -0.284674
1210 0.318164 -0.352774 -0.0441232 -0.730871 -0.0183423 -0.673292 0.0651668 -0.0876974 -0.107321 -0.236347
160 0.972285 -0.257622 -0.170621 -1.0083 -0.592699 -0.861074 0.755819 -0.307095 -0.287548 -0.0713994
299 0.391193 -0.53956 0.0129561 -1.14466 -0.800627 -0.95113 -0.0422384 0.0666284 -0.373539 -0.134303
116 0.734899 -0.312059 -0.214832 -0.673566 0.699579 -0.875279 -0.636497 0.761014 -0.776366 -0.392709
115 0.412421 -0.567623 -0.346852 -0.898982 0.605991 -0.536646 -0.802238 0.736458 -0.473805 -0.816171
1921 0.2231 -0.256194 0.00389506 -0.567089 0.140426 -0.85184 -0.157317 -0.448851 -0.104074 -0.42684
555 0.788728 -0.574169 -0.195144 -0.558295 -0.116114 -0.507976 0.278313 -0.389515 -0.0485042 -0.55807
296 1.07553 -0.791157 0.00395459 -0.317271 0.0397136 -0.268437 0.427841 0.266553 -0.0342137 -0.746486
3497 0.21572 -0.321097 0.626318 -0.363176 -0.0825485 -0.876231 0.0129743 0.399918 0.0795474 -0.322626
106 1.19412 -0.186712 0.739293 -0.478278 -0.461944 -1.18257 0.0668753 -0.243296 -0.446344 0.0127941
1291 0.321729 -0.575203 0.859493 -0.722726 0.065021 -0.751862 -0.399635 -1.03893 -0.517988 -0.388513
777 0.531188 -0.361414 0.768529 -0.977641 -0.117991 -0.678548 0.0706148 -0.367925 0.280948 -0.0727652
4449 0.175254 -0.380031 0.0103757 -0.639265 0.00792142 -0.690031 0.0727412 -0.00889928 -0.0123841 -0.39429
384 0.267418 -0.745164 -0.448968 -0.614879 -0.122614 -0.795268 0.467208 -0.240086 -0.280504 -0.488931
50 0.813904 -0.247549 0.392233 0.0506842 0.168993 -0.685876 0.529309 0.139056 -0.304343 -0.756143
46 1.98825 -0.122377 0.519968 -0.708154 -0.49317 -1.12024 0.338371 -0.238988 -0.848691 0.251015
3091 0.262564 -0.236206 0.442367 -0.420043 -0.159043 -0.841835 0.118511 0.213366 0.0294718 -0.265715
3092 0.357498 -0.303862 0.378738 -0.545369 -0.286049 -0.804472 0.058199 0.227975 0.026338 -0.193518
223 0.430516 -0.234307 0.468755 -0.880203 -0.0330305 -0.792733 -0.621301 -1.1275 -0.333321 -0.548007
388 0.908478 0.0221205 -0.213025 -1.50689 0.137851 -0.47044 -0.412517 -0.196521 0.331158 -0.26695
4420 0.369652 -0.334947 0.0176474 -0.537676 0.140717 -0.706158 0.0451986 -0.0756807 0.0982362 -0.305738
1475 0.467825 -0.226287 0.234486 -0.766283 0.163441 -0.72238 0.0755311 -0.544856 -0.0528332 -0.127822
219 0.913314 -0.512513 0.78222 -1.27763 -0.0217963 -0.59868 -0.616766 -0.975381 -0.623417 -0.016153
235 0.889783 -0.297312 1.27161 -1.25073 0.131883 -0.574807 0.595684 -0.438054 0.223454 0.0670691
105 0.602394 -0.552564 1.18196 -0.361117 -0.586061 -1.266 0.050336 0.380548 -0.245944 -0.351738
2875 0.149827 -0.277046 0.686252 -0.516668 -0.0671402 -0.888002 0.104508 0.303168 0.0550834 -0.280249
1269 0.576886 -0.489554 0.884043 -0.472971 -0.623433 -1.19283 0.237784 0.670843 -0.209629 -0.483914
52 0.649375 -0.524373 1.22684 -0.727611 -0.182408 -1.12366 -0.177814 0.848129 0.000673282 -0.187904
278 1.03792 -0.258307 0.942323 -0.667001 -0.642479 -1.30329 0.0220455 0.461215 -0.199455 -0.123643
53 0.824693 -0.168711 1.22732 -0.949889 -0.295595 -0.881041 -0.188244 0.799638 -0.306756 -0.679099
2337 0.411293 0.0280392 0.40065 -0.869226 0.570152 -1.15819 -0.0841826 1.08877 0.202704 -0.502415
4707 0.263921 -0.401448 0.0536866 -0.649899 0.0961868 -0.780989 0.0592298 -0.159549 -0.107968 -0.191994
4327 0.243064 -0.312614 0.108863 -0.561261 -2.03018e-05 -0.730478 -0.0218947 -0.216434 -0.094391 -0.28217
1630 0.293823 -0.339293 0.182154 -0.529364 -0.283532 -0.933976 -0.179627 -0.340501 -0.267832 -0.18792
586 0.354466 -0.263496 0.333439 -0.633372 -0.281665 -0.965333 -0.179485 -0.528813 -0.469399 -0.147805
421 0.848578 -0.377961 1.53232 -0.902277 -0.0939564 -0.542024 0.612814 -0.0839075 0.526087 -0.501103
151 0.352494 -0.526278 1.05904 -0.928188 -0.883784 -1.21745 -0.142289 0.532361 -0.350579 -0.362479
489 0.545707 -0.561458 1.07288 -0.772578 -0.145736 -0.635283 -0.292415 -0.7904 -0.0429669 -0.278632
304 0.237827 -0.8797 0.87145 -1.06902 -0.920357 -0.727524 -0.529927 -0.0621129 -0.219093 -0.572918
948 0.182569 -0.50847 -0.291609 -0.382191 0.0640119 -0.618968 0.755384 -0.0961466 -0.180868 -0.773382
1803 0.296608 -0.627237 -0.455103 -0.378125 0.0304382 -0.691467 0.694648 -0.301547 -0.22285 -0.826053
551 0.261158 -0.849767 -0.536499 -0.469121 0.155751 -0.531981 1.41334 -0.104465 -0.314112 -1.59322
552 -0.122992 -1.18802 -0.550883 -0.280939 0.16185 -0.628581 1.36918 0.0848382 0.0341069 -1.71506
1027 0.159439 -0.422106 0.00652989 -0.836135 0.636045 -1.45562 0.0487758 1.67339 0.217288 -0.576771
4423 -0.241912 -0.341972 0.0376422 -1.05286 0.849252 -0.900878 -0.0741367 1.01506 0.455626 -0.411975
69 1.47904 0.522327 -0.135664 -1.19657 -0.353742 -0.758453 -0.158743 0.270491 -0.215579 -0.829486
372 0.530377 -0.0307628 0.430178 -0.636262 -0.477027 -1.13959 -0.363619 0.0906943 -0.223336 -0.409638
575 0.784828 -0.267667 0.861516 -0.578008 -0.770886 -1.14147 0.331424 0.366924 -0.180504 -0.379875
55 0.86136 -0.598846 1.32714 -0.35369 -0.724398 -1.16925 -0.218088 0.517795 -0.606077 -0.680846
54 0.8114 -0.510549 1.39506 -0.70766 -0.832315 -1.03512 0.0787134 0.378736 -0.10137 -0.624974
689 0.10748 -0.690737 1.07613 -0.947619 -0.471559 -0.798999 0.129666 0.160019 0.273708 -0.309739
690 0.267694 -0.396465 1.13804 -0.713753 0.115908 -0.72098 0.385019 0.0612929 0.503776 -0.295996
609 0.884813 -0.495984 -0.427276 -0.10405 0.910172 -0.764217 0.379625 -0.590583 -0.0884698 -0.67948
536 0.595445 -0.768761 -0.429572 -0.112453 0.786909 -0.686932 0.237778 -0.211449 -0.0812008 -0.643346
12 0.988801 -1.4192 -0.574715 -0.469579 0.314462 -0.692584 0.111697 -0.11526 -0.657885 0.0931441
3719 0.258021 -0.309616 -0.118812 -0.567007 0.251661 -0.663629 0.0667629 0.0197153 0.0469495 -0.228112
110 0.886131 -0.350479 -0.465081 -1.3996 -0.581526 -0.713316 0.0231651 -0.145353 -0.557282 -0.227812
308 0.00535249 -0.919193 0.331268 -1.04683 -1.21119 -0.906669 -0.258215 -0.0773691 -0.263073 -0.598507
4454 0.166388 -0.278404 0.212228 -0.529387 0.259579 -0.761848 -0.0307371 -0.331828 -0.0172962 -0.35312
2014 0.0873415 -0.190251 0.260875 -0.413836 0.166416 -0.959342 -0.727801 -1.01573 0.00156571 -0.62553
4850 0.180821 -0.344739 0.0472973 -0.436012 0.149703 -0.830563 -0.0744236 -0.453805 -0.075832 -0.447763
2013 -0.143049 -0.300282 0.347309 -0.551092 0.251013 -1.03066 -0.664345 -1.20392 0.104809 -0.74016
183 0.281227 -0.000545507 0.096128 -0.639139 0.164674 -1.22114 -0.959616 -1.17051 -0.0828714 -0.778559
548 0.27872 -0.219466 0.0668035 -0.470774 0.171094 -0.71133 -0.00815011 -0.375278 -0.0246674 -0.391198
24 0.808726 -0.244005 0.843483 -0.536854 -0.311928 -0.960812 -0.798268 -0.500115 -0.614342 -0.708866
250 0.156978 0.179904 0.324248 -0.578177 -0.116598 -1.18714 -0.547298 -1.24038 -0.0727576 -1.30579
2670 0.114075 -0.257859 0.174823 -0.529974 0.232125 -0.706971 -0.121916 -0.475722 0.0787784 -0.400359
568 0.388903 -0.74363 -0.344304 -0.561882 0.215737 -0.627878 0.292437 -0.0682212 0.331604 -0.382224
224 0.354703 -0.193522 0.430748 -0.655476 0.0885225 -0.786537 -0.537023 -1.01338 -0.0893407 -0.529453
344 1.61413 -0.438569 -0.254249 0.106151 0.856478 -0.982071 0.117027 -0.382283 -0.595847 -0.615466
1067 0.856727 -1.16117 -0.839872 -0.145277 -0.413329 -1.49781 -0.0251616 -0.731663 -1.15232 -0.301934
234 1.19543 -0.569431 1.24318 -1.18392 -0.114354 -0.610567 0.793268 -0.660836 0.401555 0.201028
1061 0.181393 -0.324223 0.0864699 -0.482771 0.205873 -0.837282 -0.0421406 -0.495847 -0.0764406 -0.542013
1065 -0.121842 -0.430089 0.372746 -0.398413 0.153066 -0.842241 -0.389741 -0.860156 0.0332679 -0.858041
701 0.268081 -0.218765 0.0592643 -0.614482 -0.243646 -1.19681 -0.290062 -1.35583 -0.0548571 -0.683113
3247 0.187762 -0.405851 0.0527062 -0.419311 0.13143 -0.770256 -0.126062 -0.521559 0.0521393 -0.578868
3087 0.271376 -0.267182 0.165783 -0.497583 0.108207 -0.801696 -0.000877048 -0.210035 0.0165828 -0.339924
4162 0.164934 -0.250113 0.122747 -0.820969 0.649971 -0.723575 -0.107272 0.803514 0.179132 -0.320722
231 0.549406 -0.40448 -0.182684 -0.591985 -0.38705 -0.888663 -0.0427993 -1.0877 -0.125691 -0.767349
3233 0.138649 -0.232177 0.175632 -0.594272 0.160585 -0.800166 -0.353623 -0.70168 -0.0170555 -0.599479
1490 0.422358 -0.114467 0.35322 -0.652641 -0.210477 -1.06837 -0.703727 -1.15744 -0.18944 -0.933961
252 0.0164145 -0.226243 0.0936168 -0.75811 -0.0945827 -0.939077 -0.568759 -1.22988 -0.0593211 -1.03009
705 -0.000801707 -0.535168 0.388124 -0.590517 -0.382195 -0.804497 -0.412009 -0.950344 -0.0199213 -0.867492
87 0.750696 0.34862 -1.00685 -1.21227 0.468918 -1.28278 0.375849 0.659876 0.0160808 -0.297204
239 0.438221 0.0478212 -0.41683 -1.27476 0.195717 -0.540788 -0.0943445 -0.693135 0.446118 -0.738592
1355 -0.134419 -0.159488 0.0599803 -0.345476 0.350283 -0.979621 -0.445219 -0.905815 0.151453 -0.940248
1485 -0.024139 -0.324249 0.172757 -0.512293 0.293625 -0.969504 -0.300932 -0.884399 0.0224978 -0.675599
479 0.153566 -0.490947 0.477508 -0.527059 -0.148707 -0.802843 -0.384717 -0.778293 -0.0193378 -0.614523
21 1.25162 -0.598525 0.543817 -1.23097 0.155613 -0.521172 -0.440745 -0.931967 -0.938067 0.0826314
970 0.432518 -0.188876 0.602188 -0.243955 -0.105437 -1.09335 -0.315563 -0.321451 -0.241711 -0.366699
394 0.881532 -0.366075 0.579787 -0.595496 -0.790535 -1.30155 0.0668508 0.184636 -0.371402 0.0290663
150 0.547443 -0.825111 1.0459 -0.637809 -0.945235 -1.1331 -0.0504717 0.574985 -0.43078 -0.423593
398 0.450004 -0.619939 0.897967 -0.828681 -0.857875 -1.19305 -0.211868 0.471379 -0.122666 -0.270446
2020 0.403403 -0.350861 0.868913 -0.423314 -0.288731 -1.03988 -0.0127816 0.304486 -0.182137 -0.298299
2264 0.362487 -0.300699 -0.0472293 -0.324717 0.344421 -0.711443 0.156125 -0.123507 -0.111008 -0.400463
2263 0.501094 -0.731072 -0.458446 -0.102864 0.183375 -0.894523 0.126325 -0.440685 -0.382833 -0.459965
1244 0.496278 -0.334366 0.621028 -0.586194 -0.431073 -1.00736 -0.244659 -0.24551 -0.466005 -0.262041
2278 0.648905 -0.460367 -0.140411 -0.16428 0.762353 -0.679391 0.221777 -0.329935 0.0150635 -0.486957
2594 0.372422 -0.595819 -0.259631 -0.570125 -0.155643 -0.649551 0.500389 -0.272045 0.00669166 -0.483704
969 0.709696 -0.48466 -0.124763 -0.196514 0.58231 -0.583017 0.243615 -0.281146 0.155097 -0.543507
1991 0.663371 -0.258887 -0.188016 -0.441144 0.721137 -0.756027 0.266048 -0.383703 -0.100487 -0.361425
72 1.11292 -0.359203 0.100685 -0.0167603 1.6347 -0.89546 -0.123497 -0.552198 -0.0306006 -0.798614
932 0.514961 -0.494125 -0.122422 -0.184938 0.633095 -0.585833 0.122479 -0.21472 -5.80082e-05 -0.554486
975 0.829799 -0.443635 -0.299395 -0.3386 0.970887 -0.730826 0.197306 -0.746224 -0.139044 -0.650776
1539 0.286736 -0.341075 -0.0905142 -0.37557 0.370652 -0.607138 0.0968685 -0.186921 0.0086567 -0.427993
3589 0.308764 -0.428916 -0.0264831 -0.377879 0.198537 -0.567977 0.164387 -0.0654486 0.0364623 -0.392732
66 1.16664 -1.95061 0.248764 -1.18554 0.268511 0.15337 0.618922 -0.357222 -0.917161 -0.0453553
4367 0.144217 -0.480477 0.917588 -0.620021 0.0115444 -0.614364 -0.117537 -0.582719 0.130619 -0.396298
710 0.0866414 -0.641245 0.57049 -0.887782 -0.427611 -0.747759 -0.697799 -0.890377 0.123762 -0.709176
1840 0.0386677 -0.556762 0.41825 -0.613714 -0.0421575 -0.796274 -0.36516 -0.671161 -0.122957 -0.466153
1366 0.0650545 -0.449913 0.325456 -0.508577 0.179034 -0.810093 -0.479305 -0.86266 -0.114964 -0.647079
3937 0.495118 -0.507313 -0.174205 -0.243533 0.384558 -0.621387 0.374054 -0.262325 -0.0768528 -0.378529
514 0.813644 -0.842482 -0.401476 0.250525 0.883933 -0.812475 0.362295 -0.360181 -0.21492 -0.936784
2906 0.635948 -0.551695 -0.217752 0.0356622 0.758517 -0.759701 0.268799 -0.323604 -0.0804715 -0.680293
974 1.14449 -0.288518 -0.324679 -0.296521 0.954396 -0.790201 0.346702 -0.528842 -0.141986 -0.471329
4371 0.295403 -0.373901 -0.081645 -0.427904 0.268854 -0.626705 0.126328 -0.221339 0.0785905 -0.291499
4370 0.246103 -0.382589 -0.0777454 -0.472663 0.172097 -0.637578 0.186711 -0.219269 0.0973919 -0.277684
256 0.749914 -0.580586 -0.586345 -0.733263 -0.276807 -1.00504 -0.0225922 -0.448371 1.0332 -0.0575219
114 0.190802 -1.12881 0.44284 -1.07446 -0.100374 -0.192181 -0.546323 0.134629 -0.431875 -0.41898
4240 0.169926 -0.498786 0.424606 -0.679264 -0.167781 -0.796316 -0.0607879 -0.361995 -0.0228409 -0.307927
846 0.0697299 -0.758996 1.1819 -0.956923 0.215002 -0.816964 -0.512695 -1.31038 -0.66856 -0.282249
492 0.483214 -1.02933 1.41331 -0.975673 0.163481 -0.420619 -0.513632 -1.19381 -0.827875 -0.498069
2786 0.233433 -0.360474 0.609407 -0.71991 0.0763718 -0.701119 -0.332115 -0.705783 -0.112232 -0.29512
2885 0.177002 -0.448077 -0.0204405 -0.331972 0.233909 -0.596517 -0.000880895 0.108388 -0.0974632 -0.430637
1420 0.256568 -0.524343 -0.22307 -0.372991 0.279935 -0.786089 -0.111054 0.14336 -0.149937 -0.352113
3035 0.210627 -0.289198 0.647814 -0.43825 -0.170036 -0.865397 0.03793 0.309866 0.0580959 -0.315935
3034 0.386875 -0.281112 0.40774 -0.555153 -0.301255 -0.72755 0.0734886 0.225483 0.021515 -0.227019
926 0.19659 -0.581238 0.108075 -0.866187 -0.587113 -0.784722 0.080261 -0.0238242 -0.226181 -0.301019
62 0.529235 -0.542881 -0.0122938 -1.3294 -1.09891 -0.97477 0.177195 0.0947752 -0.480468 -0.132591
954 0.543878 -0.247854 0.538321 -0.436639 -0.418229 -1.1977 -0.27798 0.121522 -0.226275 -0.189913
1602 0.393914 -0.200535 0.283081 -0.473354 -0.166751 -0.906063 -0.162784 -0.0362882 -0.0650812 -0.331065
2610 0.291798 -0.256691 0.321105 -0.451342 0.247133 -0.873161 -0.0127604 -0.411384 -0.10526 -0.422382
2424 0.274051 -0.350519 0.0183873 -0.457392 0.121364 -0.796011 0.0891318 -0.298393 0.0247983 -0.559878
899 0.357596 -0.372535 -0.0201291 -0.491445 -0.0266099 -0.837876 0.113751 -0.204026 -0.13981 -0.419703
1514 0.74662 -0.0728068 0.0868496 -1.37883 1.04307 -0.912184 -0.27182 1.04932 -0.27318 -0.310278
2476 0.454969 -0.29671 0.225185 -0.665568 -0.116043 -0.85028 -0.280321 -0.934808 -0.275722 -0.456416
1573 0.136424 -0.49545 0.244054 -0.502908 0.0400428 -0.736082 -0.294263 -0.570496 -0.1263 -0.523075
3246 0.227999 -0.296844 0.00469226 -0.512749 0.133148 -0.774892 -0.0143278 -0.557329 -0.115873 -0.430698
563 0.0624337 -0.403733 -0.0475797 -0.317565 0.167202 -0.908052 -0.320964 -0.915266 0.0695647 -0.780118
182 0.762726 -0.0530058 0.415723 -0.992351 -0.253531 -0.720301 -0.191393 -1.15374 -0.141767 -0.651253
916 0.065292 -0.340074 0.464253 -0.560147 0.131334 -0.895275 -0.623812 -1.19991 -0.0309352 -0.809539
2975 0.311391 -0.425045 0.166328 -0.510856 0.202995 -0.75652 -0.0670762 -0.420779 -0.0223783 -0.587711
4944 0.168997 -0.350223 0.0952171 -0.4741 0.0908071 -0.629253 0.0528469 -0.213257 -0.0583023 -0.45274
22 1.24142 -0.201517 0.305652 -0.899978 0.00974532 -0.736406 -0.35222 -0.875179 -0.693432 -0.178575
3840 0.108745 -0.546544 0.050298 -0.339201 0.454269 -0.77947 0.345268 0.149659 0.124035 -0.506699
99 1.08211 -0.0067981 0.403925 -0.254464 -0.662868 -1.49391 -0.308519 -0.14105 -0.766442 -0.483283
56 0.857892 -0.345048 1.19393 -0.565961 -0.668081 -1.2256 -0.0848259 0.511331 -0.467477 -0.594521
2413 -0.0649581 -0.571271 0.230177 -0.832664 -0.528022 -0.795983 -0.0967883 -0.0824272 -0.152166 -0.505002
2423 0.245307 -0.370529 -0.0119743 -0.506835 0.0682306 -0.640844 0.113155 -0.331937 -0.0847082 -0.432535
141 0.314438 -0.477231 0.525976 -0.771674 -0.490878 -0.955572 -0.0344792 0.0401229 -0.167814 -0.123885
397 0.430458 -0.793638 1.02411 -1.00621 -0.8302 -1.08244 -0.226223 0.633916 -0.343943 -0.146008
2658 0.100769 -0.55105 0.270358 -0.90423 -0.739217 -0.89398 0.104631 0.0479487 -0.249296 -0.3429
271 0.229886 -0.51693 0.110684 -0.687427 -0.25847 -0.748677 0.205147 -0.213801 0.143223 -0.255897
1732 0.27878 -0.357033 0.044427 -0.551534 0.252652 -0.64577 0.185467 -0.0623426 0.120679 -0.375025
978 0.470769 -0.431087 0.234047 -0.437635 0.0479677 -0.607101 0.399242 0.130552 0.0580803 -0.383222
365 1.00027 -1.5403 -0.420274 -0.356699 -0.266605 -0.667552 0.350131 -0.2238 -0.521537 -0.198595
276 0.313068 -0.568102 -0.221959 -0.442603 0.230896 -0.681256 0.0824287 -0.00939042 -0.037348 -0.332952
836 0.264264 -0.32344 -0.393317 -1.17423 0.170424 -0.526088 -0.122022 -0.469474 0.04364 -0.449269
1039 0.403907 -0.509782 -0.264267 -0.762611 -0.41781 -0.795675 0.63754 -0.308584 -0.30463 -0.428803
1624 0.500507 -0.370212 0.945085 -0.624125 -0.276591 -0.782213 0.389291 -0.0187204 0.256214 -0.158946
819 0.606468 -0.372165 1.00249 -0.457037 -0.565498 -1.32536 -0.0155931 0.494503 -0.198556 -0.312338
2017 0.506547 -0.301904 1.11629 -0.629955 -0.505715 -1.16308 -0.0173211 0.395261 -0.116445 -0.468621
2505 0.412594 -0.460448 -0.0706317 -0.63575 0.240519 -0.675242 0.266212 -0.186379 0.209376 -0.372072
2506 0.318479 -0.506879 -0.00443602 -0.524544 0.20826 -0.755878 0.163162 -0.161363 0.176331 -0.455535
1831 0.526494 -0.821265 -0.240126 -0.721295 0.241352 -0.603217 0.316537 -0.339916 0.481797 -0.363117
190 0.919974 -0.00785214 -0.143185 -0.870327 -0.533259 -0.588077 0.203097 -0.911059 -0.454149 -1.17232
736 0.477573 -0.453897 -0.217299 -0.636764 -0.476129 -0.788544 0.437451 -0.550444 -0.30618 -0.604732
503 0.425385 -0.429062 -0.206702 -0.607631 -0.393993 -0.716435 0.651421 -0.255963 -0.252913 -0.635036
2018 0.364499 -0.46285 1.16921 -0.554056 -0.436497 -1.11878 -0.0591436 0.374603 -0.0702906 -0.210025
2883 0.249179 -0.247082 0.424259 -0.496947 -0.0723716 -0.782914 0.00428557 0.0385601 -0.122912 -0.222504
149 0.795284 -0.411148 0.889283 -0.885377 -0.783798 -1.20355 -0.0674288 0.238519 -0.563157 -0.0624865
323 0.230427 -0.464131 1.35897 -0.330443 -0.417117 -1.33419 -0.110328 0.521069 -0.14639 -0.524307
4153 0.354209 -0.36672 0.830219 -0.568464 -0.0154692 -0.719293 0.207028 0.0363436 0.278246 -0.294852
697 0.428947 -0.350598 0.475483 -0.639589 -0.371872 -0.936547 0.00852294 -0.0687535 -0.195485 -0.275897
2117 0.3562 -0.312907 0.362279 -0.62749 -0.180926 -0.857009 0.181602 0.118762 0.00193931 -0.463788
487 0.430945 -0.620545 0.950768 -1.04309 0.0686493 -0.537295 -0.387101 -1.13547 -0.457492 -0.309437
298 0.495779 -0.652182 -0.0714316 -1.01284 -0.735019 -0.820951 -0.0725377 -0.0324603 -0.338259 -0.207056
722 0.383675 -0.241895 0.38822 -0.649116 -0.042914 -0.890536 -0.39882 -1.21423 -0.10187 -0.546206
763 0.793503 -0.939257 -0.294478 0.263461 0.99122 -0.9509 0.348479 -0.650563 -0.19229 -0.854193
1279 0.532982 -0.645405 -0.267594 -0.0088049 0.682276 -0.665387 0.329145 -0.188665 -0.125188 -0.771945
70 0.975562 0.299178 0.0391688 -1.02029 -0.522939 -0.651609 -0.306601 0.0332653 -0.167375 -1.07144
184 0.202178 0.0435825 0.150638 -0.621662 0.0571864 -1.28874 -0.832771 -1.24519 -0.030845 -0.722441
624 0.445019 -0.560055 0.854656 -0.734048 -0.390051 -1.25254 -0.834628 -0.292029 -0.650672 -0.04158
2643 0.211065 -0.326914 0.135304 -0.405102 0.0350994 -0.794293 -0.0874743 -0.324949 -0.177071 -0.200994
1270 0.717207 -0.827941 1.05859 0.0155563 -0.663108 -1.03324 0.45383 0.672307 0.0137649 -0.570562
414 0.832765 -0.148722 1.27557 -1.14404 -0.0142302 -0.69439 0.572053 -0.256368 0.523704 -0.10504
903 0.318557 -0.53983 -0.0861894 -0.517598 -0.1763 -0.749181 0.155329 -0.346878 -0.198881 -0.395057
2549 0.280922 -0.383971 -0.273065 -0.992624 -0.150819 -0.85946 0.0443933 -0.175727 -0.11886 -0.280844
4456 0.215895 -0.376484 -0.147878 -0.78185 0.309396 -0.613382 -0.0561889 0.00845867 0.00640629 -0.315242
265 0.662071 -0.308431 -0.338164 -0.639535 -0.0759178 -0.820624 0.0514384 -0.218034 -0.113324 -0.337438
535 0.440017 -0.813158 0.0640968 -0.219151 -0.228267 -0.442858 1.3729 -0.270182 -0.25722 -1.28699
148 0.445054 -0.295268 -0.351392 -0.564704 0.211331 -0.624084 0.194364 0.328744 -0.259687 -0.652991
204 0.945418 -0.258668 0.152266 -1.78575 0.983978 -0.437381 -0.374746 0.886366 -0.552849 -0.371169
2421 0.194691 -0.450449 -0.0215166 -0.505411 0.122409 -0.702913 0.0805277 -0.0161152 -0.0330028 -0.346189
61 0.783067 -0.561336 -0.280516 -1.35578 -0.804278 -0.892787 0.3128 -0.23727 -0.384705 0.0689934
1869 0.394956 -0.362965 -0.0396148 -0.280397 0.389234 -0.632786 0.173406 -0.180504 0.0283484 -0.393954
73 1.14836 -0.487271 0.0808765 -0.0131709 1.64261 -0.713246 -0.27533 -0.465902 0.0910151 -0.970712
126 1.27393 -0.503644 -0.12294 -0.149387 1.14399 -0.696028 0.241121 -0.70742 -0.0616328 -0.720655
125 0.715667 -0.394708 -0.237268 -0.12794 0.890259 -0.71109 0.292953 -0.654878 -0.197445 -0.55757
3999 0.322449 -0.31315 0.211072 -0.572084 0.132354 -0.833105 -0.0798684 -0.51406 -0.178555 -0.335619
47 1.19438 -0.295209 1.00927 -0.600188 -0.743009 -1.31579 -0.0970992 0.526927 -0.500313 -0.327454
71 2.09857 -0.0937379 -0.11971 -0.488625 0.935524 -0.69302 0.491952 -0.383281 -0.606698 -0.567755
3229 0.369465 -0.389263 -0.0323568 -0.453576 0.295069 -0.587582 0.177054 -0.148115 0.0131479 -0.369289
3228 0.52754 -0.393812 -0.215546 -0.420689 0.380789 -0.682936 0.116471 -0.407238 0.0666372 -0.353686
1378 0.0359925 -0.476158 -0.32786 -0.683309 0.667159 -0.663378 -0.292416 0.00559252 -0.0430757 -0.248897
433 0.976952 -0.833555 -0.947935 -0.34342 -0.319056 -1.46729 -0.0404105 -0.400017 -1.05721 -0.16812
1887 0.327415 -0.307423 0.734122 -0.478079 -0.17056 -0.879149 0.28602 0.106928 0.173252 -0.245987
3892 0.276143 -0.309555 0.141493 -0.530527 0.0942382 -0.800013 0.0847558 -0.0761273 -0.0361459 -0.33766
1981 0.534756 -0.166545 0.578921 -0.305456 -0.387323 -1.22193 -0.183701 -0.174501 -0.546662 -0.278143
1012 0.66465 -0.1586 0.480921 -0.239724 -0.559887 -1.33375 -0.364671 -0.238707 -0.428945 -0.479826
165 0.181639 -0.718858 0.704546 -0.904816 -0.838044 -1.01573 -0.109064 0.174902 -0.323843 -0.280842
790 0.246445 -0.497172 -0.020911 -0.854167 -0.350349 -0.797669 0.00514646 -0.322512 -0.223621 -0.274178
744 0.885007 -0.202368 1.07141 -1.00343 -0.138897 -0.759414 0.29576 -0.179649 0.56565 -0.0591408
3600 0.268008 -0.311313 0.60904 -0.544282 -0.125534 -0.751601 0.185201 0.00884206 0.213909 -0.247141
2111 0.333658 -0.296055 0.778467 -0.447763 -0.264664 -1.04978 0.131705 0.301217 0.00801471 -0.26927
616 0.935061 -0.617213 -0.0515126 0.18622 0.921789 -0.643467 0.506111 -0.297 0.0332852 -0.779633
404 1.1581 -0.26287 0.977808 -1.05611 0.067689 -0.764208 0.836562 -0.681641 0.596735 0.278723
426 0.945738 -0.261171 1.33533 -0.987764 -0.164195 -0.626827 0.764862 -0.164413 1.0091 -0.508222
1620 0.556853 -0.328444 1.01986 -0.684044 -0.2329 -0.978222 0.391599 0.0969166 0.282035 -0.156502
4596 0.349587 -0.627122 -0.302585 -0.33108 0.214728 -0.819481 0.127739 -0.239531 -0.188997 -0.298502
4595 0.338724 -0.500695 -0.00474574 -0.526778 0.21394 -0.867872 0.165918 -0.0479577 -0.191606 -0.23761
2887 0.280289 -0.577195 -0.246133 -1.03392 0.301023 -0.496623 -0.551205 0.173979 -0.174131 -0.425116
2884 0.217906 -0.380576 -0.0666898 -0.515633 0.154125 -0.618481 0.0375957 0.00494458 -0.0437994 -0.351183
60 0.628435 -0.470174 1.05628 -0.584485 -0.625331 -1.07121 -0.205464 0.506232 -0.317863 -0.498784
1381 0.598688 -0.29198 -0.170325 -0.207246 1.00111 -0.759173 0.251198 -0.468907 0.00432219 -0.608176
2701 0.4564 -0.422511 -0.103313 -0.326993 0.489733 -0.571168 0.223153 -0.273572 0.0806905 -0.424148
120 1.57858 0.0389924 0.0194224 -0.442428 0.925025 -0.78136 0.209552 -0.604546 -0.313851 -0.588808
1993 0.594555 -0.449515 -0.118388 -0.405448 0.708664 -0.816127 0.199007 -0.293536 -0.0236679 -0.541765
3362 0.162446 -0.251726 0.361334 -0.469699 0.347365 -0.84929 0.0391195 0.752114 0.283297 -0.350424
590 0.492437 -0.0844719 0.336962 -1.22504 0.643549 -1.19912 -0.352592 1.11209 0.205565 -0.193306
211 0.646362 -0.246908 0.152099 -1.01206 0.552337 -1.44776 -0.360855 1.54294 -0.116662 -0.467828
1023 0.634456 -0.230073 0.134827 -1.06286 0.503666 -1.46963 -0.0974505 1.52141 0.29525 -0.189258
329 1.74317 0.601208 -0.336929 -1.13078 -0.382704 -0.792713 -0.795801 -0.0763333 -0.454663 -1.10451
2933 0.437511 -0.39583 0.00612413 -0.563481 0.0133006 -0.718159 0.00694978 -0.313191 -0.132613 -0.278305
18 0.954172 -0.146936 -1.01743 -0.823375 -0.109311 -1.45764 0.156445 -0.069965 0.27872 0.240946
646 0.223198 -0.157836 0.301503 -1.00261 0.497641 -1.21292 -0.251053 1.18338 0.124322 -0.371829
651 0.115183 -0.172638 0.22298 -0.895943 0.489204 -1.16398 -0.146259 0.929303 0.0926361 -0.287837
591 0.370522 -0.168802 0.302831 -0.722607 0.500389 -1.05437 -0.123557 1.09322 0.128825 -0.426032
209 0.662942 -0.200906 0.176437 -1.13443 0.495425 -1.1364 -0.31932 1.42242 0.00141781 -0.571198
48 1.15547 -0.358972 1.05506 -0.374991 -0.694599 -1.17128 0.0145758 0.467035 -0.323685 -0.504598
4646 0.576427 -0.770476 -0.129512 -0.39472 0.10375 -0.402404 0.339371 -0.201512 0.0084363 -0.618442
176 1.12917 -1.21227 -0.644354 -0.626211 0.378206 -0.416231 0.565469 -0.373584 -0.187036 -0.571966
3165 0.483896 -0.591849 -0.526582 -0.367667 0.132814 -0.849963 0.107355 -0.443809 -0.388648 -0.446254
33 1.53212 -1.43053 -0.46275 -0.564246 -0.157206 -0.311795 0.23712 0.201747 -0.38681 -0.452125
32 1.67134 -1.54166 -0.351042 -0.59741 -0.136165 -0.313998 0.257751 0.218886 -0.624138 -0.309966
507 1.28467 -1.40035 -0.634029 -0.749096 0.117803 -0.259987 0.314189 0.294476 -0.855492 -0.461601
444 0.740311 -1.65871 -0.996132 -0.442635 0.433402 -0.655577 0.869321 -0.70175 -0.191356 -0.633743
1946 0.236266 -0.441358 -0.0931819 -0.589014 0.228915 -0.640976 0.0176579 0.130185 0.116847 -0.243829
2369 0.306061 -0.485503 -0.0326379 -0.543733 -0.0094221 -0.673307 0.243409 -0.236949 -0.108821 -0.470687
629 0.244519 -0.374063 0.19223 -0.585589 0.134017 -0.698348 0.0077224 -0.378895 -0.215967 -0.323209
584 0.715919 -0.337197 0.579719 -0.779991 -0.382213 -1.06157 -0.402814 -0.496927 -0.828945 -0.122756
1979 0.223087 -0.496643 0.0808058 -0.590697 -0.204989 -0.743505 0.0660319 -0.271013 -0.0784186 -0.255281
661 0.142318 -0.460771 -0.0613628 -0.594148 0.141134 -0.74895 -0.0616259 -0.133793 -0.015637 -0.348245
200 0.617394 -0.542119 -0.177016 -1.13013 -0.699885 -1.04886 0.189472 -0.160282 -0.329894 0.139416
4226 0.280897 -0.366371 0.0164834 -0.742011 -0.163884 -0.746267 0.151328 -0.225724 -0.0319121 -0.348151
4833 0.27761 -0.324393 -0.0014095 -0.514011 0.174522 -0.683688 0.109045 -0.216806 -0.023911 -0.355271
4124 0.373685 -0.311144 -0.196419 -0.356081 0.0145433 -0.721127 0.0373256 -0.180852 -0.191506 -0.372103
1734 1.07912 -0.36193 -0.351545 -0.471864 1.08032 -0.898627 0.263178 -0.886951 -0.142197 -0.372179
1639 0.000331215 -0.236797 -0.39233 -1.1668 -0.155398 -0.855775 0.102895 -0.336722 -0.250708 -0.252525
1560 0.198932 -0.328147 0.0712009 -0.443533 0.128797 -0.672062 0.10745 0.0415034 0.0391729 -0.384162
1559 0.44721 -0.365173 -0.318711 -1.15551 -0.206693 -0.756648 0.0901323 -0.535631 -0.219029 -0.182759
285 0.280524 -0.489237 -0.253514 -0.162515 0.329193 -0.702789 0.38206 -0.755491 0.0139223 -1.05054
448 0.571578 -0.351967 0.0485011 -0.826433 -0.481491 -1.0074 0.0395034 -0.348109 -0.341994 -0.158838
823 0.323366 -0.369621 0.387256 -0.600572 -0.276896 -0.904272 0.0465352 -0.0352237 -0.171916 -0.186234
3190 0.471569 -0.354447 -0.0557059 -0.235429 0.685548 -0.656838 0.186961 -0.336006 0.0216372 -0.465565
745 0.743828 -0.387129 0.890354 -0.9432 0.0547372 -0.626907 0.429105 -0.718077 0.409361 0.10176
422 0.765676 -0.349643 1.59375 -1.00587 0.0535144 -0.636385 0.574431 0.0948015 0.622861 -0.380752
425 0.709845 -0.299039 1.13172 -1.08363 -0.127725 -0.635135 0.620423 -0.335163 0.595194 -0.174835
451 0.715311 -0.286887 0.320793 -0.593104 -0.497272 -0.755931 -0.135243 -0.522866 -0.289092 -0.425381
191 0.643314 -0.342637 0.343802 -0.990586 -0.922627 -0.691572 -0.0602875 -0.618095 -0.51338 -0.71742
1256 0.028492 -0.411991 0.261265 -0.759153 -0.574858 -0.864042 -0.0999019 -0.216886 -0.194573 -0.635165
456 0.0738503 -0.468713 0.278859 -0.744391 -0.579891 -0.875786 -0.195145 -0.513661 -0.244781 -0.540888
715 0.0600354 -0.337967 0.264825 -0.586914 0.00564262 -0.672489 -0.052654 -0.400715 0.0639789 -0.423967
712 0.260246 -0.432262 0.0909459 -0.573243 -0.0503474 -0.59111 -0.0439034 -0.382262 0.0401533 -0.502905
709 0.186978 -0.313994 0.138374 -0.632006 0.0596156 -0.610144 -0.100086 -0.449218 0.0717392 -0.486411
877 -0.318333 -0.643939 -0.251521 -1.83421 0.698932 -0.892923 0.0299829 0.810346 0.900338 -0.262886
3214 0.317391 -0.177686 0.0611159 -0.721414 0.461225 -0.689112 -0.0289566 0.447523 0.00498142 -0.339545
1311 0.290628 -0.353627 0.352463 -1.00206 0.440359 -1.26199 0.0133409 1.41373 0.167332 -0.304655
1026 0.0376207 -0.127161 0.234734 -0.719684 0.693769 -1.0428 -0.133769 0.838833 0.115503 -0.352527
1024 0.323898 0.0163649 0.395841 -1.17535 0.754547 -1.3071 0.0269067 1.29218 0.01126 -0.359618
1749 0.374365 -0.520472 0.822654 -0.711285 -0.550526 -1.10789 0.0585674 0.509008 -0.156754 -0.206189
3740 0.200572 -0.360621 0.387816 -0.475931 -0.20909 -0.861415 -0.0330115 0.240648 0.0697014 -0.298337
864 0.407146 -0.491337 -0.189059 -0.305107 0.423191 -0.694012 0.199865 -0.278002 -0.0626506 -0.41486
868 0.946034 -0.755985 -0.415246 -0.0238131 0.843542 -0.559964 0.230872 -0.493051 -0.0504303 -0.849934
3970 0.452701 -0.386979 -0.220481 -0.201829 0.633562 -0.551574 0.218188 -0.277735 0.0628584 -0.615942
516 0.224378 -0.512262 0.0081595 -0.809561 0.198633 -0.742537 -0.140233 -0.0198857 -0.086543 -0.333567
118 0.17109 -0.409677 -0.0659034 -0.516617 0.275734 -0.66668 0.0775848 -0.0117103 0.00678734 -0.331887
117 0.19008 -0.380179 0.0276881 -0.556595 0.286513 -0.558386 0.0542919 0.195981 -0.0144728 -0.362863
91 -0.0228623 -0.683054 -0.411096 -0.529692 0.0299337 -0.570308 0.476631 -0.186867 -0.357098 -0.936999
538 0.52118 -0.846005 -0.463429 -0.666661 -0.234827 -0.422712 0.886082 -0.345844 -0.305794 -1.03544
1865 0.310667 -0.703133 -0.276379 -0.465297 0.0859907 -0.51306 0.580868 -0.192071 -0.175553 -0.618921
4376 0.216883 -0.250766 0.296129 -0.49081 0.15201 -0.67524 0.144413 -0.270218 0.0781552 -0.314884
850 0.631936 -0.317071 0.901506 -0.556094 -0.181028 -0.736662 0.55101 -0.0231021 0.497008 -0.380773
393 0.922727 -0.324204 0.856265 -0.593407 -0.766551 -1.32218 0.0793784 0.371167 -0.646561 -0.156258
955 0.432637 -0.289481 0.688435 -0.27293 -0.362998 -1.15663 0.199153 0.410288 -0.197913 -0.419683
2327 0.104416 -0.923452 0.251922 -1.05922 -0.929718 -0.7946 -0.213024 -0.0474469 -0.244149 -0.378122
400 0.226022 -0.560533 0.850388 -0.753025 -0.78878 -1.37611 -0.203894 0.58677 -0.231903 -0.211473
153 1.0824 -0.39816 0.686029 -0.705852 -0.535509 -1.18342 -0.140157 0.216856 -0.622163 0.0791158
3373 0.387142 -0.420066 -0.0155844 -0.645095 0.0836513 -0.75718 0.127316 -0.156817 0.00842028 -0.297155
373 0.347506 -0.47686 0.139726 -0.884402 -0.530959 -0.952388 0.125015 -0.202757 -0.21319 -0.103625
2177 0.4019 -0.323306 0.0151857 -0.622332 0.0284235 -0.753311 0.0473113 -0.0401388 -0.0312377 -0.351187
179 0.569315 -0.304056 -0.268471 -1.21704 -0.192431 -0.912029 0.0145765 0.219117 -0.164837 0.0425712
3296 0.185838 -0.238492 0.379328 -0.411638 0.0771202 -0.747346 0.0616305 0.178922 0.106739 -0.289026
3328 0.288134 -0.287725 0.246651 -0.502752 0.0129515 -0.673237 0.087477 0.0489679 0.00522092 -0.270529
1161 0.484657 -0.176058 -0.169519 0.0719246 0.863255 -0.816703 0.0800878 -0.945523 0.163033 -1.52882
2039 0.336981 -0.44486 -0.267015 -0.157814 0.711774 -0.618931 0.664681 -0.262924 -0.0570778 -1.00138
2794 0.371215 -0.417912 -0.258784 -0.742971 0.0384179 -0.910072 0.0440751 0.0973066 -0.0901021 -0.141988
2213 0.278336 -0.338153 0.165567 -0.532506 0.0268139 -0.8176 -0.0104566 -0.0543567 -0.0645871 -0.344657
639 0.280277 -0.308925 -0.262928 -1.17074 -0.145937 -0.940216 -0.224207 0.348504 -0.249981 -0.176531
4590 0.275881 -0.404517 0.0242181 -0.63861 0.0965227 -0.723366 0.114277 -0.0205826 0.00400508 -0.283938
640 0.320737 -0.142457 -0.120161 -0.880913 0.250332 -0.918662 0.131208 0.207479 0.0234684 -0.23379
3638 0.254757 -0.523817 -0.074819 -0.716949 0.0772087 -0.899088 0.0666532 -0.102882 -0.0288132 -0.323054
3711 0.294351 -0.37163 -0.217169 -0.751605 -0.114481 -0.8954 0.0729212 -0.254588 -0.0684213 -0.302918
1345 0.796511 -0.319476 0.955206 -0.903456 0.143996 -0.641231 0.671104 -0.423507 0.458981 0.129219
2760 0.426732 -0.643693 -0.0304838 -0.480911 0.585285 -0.924425 0.250177 -0.269667 0.0228219 -0.61565
2391 0.580456 -0.485232 -0.385241 -0.382925 0.712057 -0.722005 0.40115 -0.545516 -0.0381616 -0.621918
2911 0.244156 -0.371153 -0.225442 -0.5727 0.0267704 -0.681683 0.157957 -0.425016 -0.0634266 -0.334553
1138 0.396848 -0.305827 1.03913 -0.66824 -0.682315 -1.44595 -0.202108 0.36698 -0.246616 -0.195552
991 0.696735 -0.375199 0.606864 -0.609753 -0.41994 -1.09788 -0.509623 -0.407534 -0.458679 -0.158237
84 0.418194 -0.0859281 0.195048 -0.923973 -0.0156863 -1.07923 -0.532212 -0.155535 -0.467902 -0.0560489
652 0.170805 -0.128821 0.352552 -0.952195 0.760957 -1.0837 -0.105745 1.06988 0.0963327 -0.387835
26 0.404657 -0.323999 0.459798 -0.71894 -0.133001 -1.02026 -0.624443 -1.34921 -0.302349 -0.768413
704 0.162124 -0.455356 0.284111 -0.494676 -0.051779 -0.811379 -0.19951 -0.68725 -0.0158865 -0.578613
4190 0.186464 -0.272139 -0.0102294 -0.530123 0.315949 -0.752557 -0.104824 -0.222287 0.0621063 -0.542263
3657 0.129677 -0.287214 0.138157 -0.42171 0.282436 -0.836 -0.0897258 -0.396212 0.0370877 -0.54085
4195 0.193841 -0.360249 0.0757386 -0.505633 0.11223 -0.771505 0.151334 0.0238825 -0.0500648 -0.388198
97 0.448794 -0.337262 0.963225 -0.391696 -0.482826 -1.13632 0.0392344 0.254609 -0.311527 -0.292811
3682 0.497614 -0.324624 -0.0132177 -0.180672 0.706645 -0.613513 0.386064 -0.231611 0.0322839 -0.541012
960 0.722425 -0.36102 -0.453049 -0.347363 0.603852 -0.737521 0.18719 -0.261444 -0.016069 -0.451096
4460 0.363685 -0.382742 -0.0289282 -0.527973 -0.115126 -0.834426 0.196823 -0.0756256 -0.126738 -0.26093
2005 0.461868 -0.22887 0.415571 -0.510757 -0.156684 -0.951298 0.138269 0.126259 -0.132889 -0.26082
683 0.791896 -0.339865 1.33294 -0.860047 -0.0318878 -0.72311 0.69587 -0.158777 0.673718 -0.284469
1363 0.4922 -0.694033 -0.00775324 -0.365355 0.018234 -0.371647 0.438438 -0.0703846 -0.110439 -0.446214
1297 0.571273 -0.646985 -0.455302 -0.777955 -0.265846 -0.397991 0.904251 -0.371603 -0.286919 -0.876848
1481 0.808072 -0.438603 -0.172903 -0.298527 0.621932 -0.655657 0.258213 -0.48906 -0.124722 -0.581546
139 0.457697 -0.406287 0.789267 -0.70332 -0.609593 -1.182 -0.0298001 0.530573 -0.0465138 -0.236055
1971 0.482808 0.00692881 0.284743 -1.24142 0.70731 -0.893955 -0.118084 0.979602 0.0309607 -0.289984
2154 0.262704 -0.17283 0.192194 -0.623865 0.305579 -0.695038 -0.0117329 0.276412 0.00345103 -0.290637
3967 0.379407 -0.263953 0.614401 -0.611256 -0.00282203 -0.673376 0.209191 0.0476748 0.257248 -0.236163
3908 0.473287 -0.555161 -0.0767518 -0.7805 0.106413 -0.721201 0.195436 -0.263054 0.0021164 -0.317398
228 0.0431879 -0.515065 -0.523095 -0.115292 0.157721 -0.960175 0.389625 -1.30845 0.0085317 -1.45468
1675 0.0972315 -0.261789 0.185118 -0.364967 0.0292987 -0.791716 0.222101 -1.13134 -0.298575 -1.06897
1676 0.328719 -0.397124 -0.197308 -0.249996 0.607177 -0.677654 0.327908 -0.883212 0.106416 -1.06608
1875 -0.253929 -0.445641 -0.232918 -1.0884 0.845618 -0.854357 0.119723 0.591178 0.575138 -0.251412
498 0.336287 -0.112802 0.43403 -0.958753 0.43577 -1.27898 -0.200552 1.35566 -0.0988806 -0.393293
4031 0.476903 -0.626919 -0.0197183 -0.694027 0.253649 -0.936025 0.411294 -0.184088 -0.0937027 -0.620227
134 1.55037 -0.136611 -0.147894 -0.475672 1.19499 -0.726763 0.264099 -0.50589 -0.374792 -0.523218
1741 0.614471 -0.481909 -0.191868 -0.223899 0.683405 -0.676637 0.233951 -0.340586 -0.136572 -0.44221
617 0.743941 -0.476915 -0.351744 0.107696 0.947185 -0.835263 0.246279 -0.392364 -0.215541 -0.801664
512 0.916508 -0.812142 -0.442987 0.138759 0.957681 -0.705447 0.270326 -0.309003 -0.165963 -0.870676
4101 0.248096 -0.255764 -0.00972547 -0.604919 0.445911 -0.633848 -0.00296886 0.325006 -0.0551671 -0.253457
1807 0.173093 -0.19178 0.353689 -0.844908 0.450407 -1.00318 -0.122377 0.920443 0.175141 -0.416703
1267 0.847952 -0.722901 0.966849 -0.135753 -0.495249 -1.0688 0.288219 0.875989 0.0995892 -0.450555
1654 0.197662 -0.423626 0.420319 -0.612515 -0.38599 -0.884159 -0.000308462 0.141079 -0.184451 -0.213869
4154 0.407698 -0.304835 0.42049 -0.65814 0.0221406 -0.638021 0.285671 -0.208896 0.227028 -0.269379
4410 0.190874 -0.298205 0.0770455 -0.354163 0.184723 -0.685394 -0.148258 -0.640753 -0.019881 -0.536612
625 0.156273 -0.378807 0.502205 -0.533974 -0.197007 -1.00899 -0.503811 -0.688567 -0.239784 -0.36604
25 0.528954 -0.476037 0.964623 -0.94161 -0.0552076 -0.875309 -0.732367 -0.856699 -0.677532 -0.276374
1597 0.190584 -0.301454 0.521602 -0.362263 0.0151594 -0.770191 0.0536452 0.0604515 -0.0340633 -0.305869
1709 -0.139676 -0.502114 -0.0875107 -0.784556 0.729767 -0.757462 0.113792 0.643422 0.400789 -0.43083
1280 0.540228 -0.558572 -0.285349 -0.194603 0.684028 -0.676719 0.318626 -0.351962 -0.0519617 -0.566329
2199 0.516775 -0.499887 -0.16269 -0.122116 0.556532 -0.595785 0.278431 -0.376216 -0.0718655 -0.618494
49 1.17916 -0.236873 0.865828 -0.496738 -0.750973 -1.35979 -0.0425991 0.481649 -0.345022 -0.3323
4897 0.635106 -0.360778 -0.114427 -0.227096 0.772305 -0.744726 0.285639 -0.290225 -0.033111 -0.534879
1994 0.621191 -0.337335 -0.111219 -0.262758 0.999168 -0.852756 0.139961 -0.582676 -0.104644 -0.626972
4389 0.661016 -0.425907 -0.207791 -0.151362 0.90192 -0.848047 0.340618 -0.503794 -0.0733598 -0.691287
124 1.11677 -0.379115 -0.245 0.0154953 1.24833 -0.875729 0.213279 -0.665756 -0.121979 -0.717407
2148 0.230339 -0.399615 -0.350359 -1.14046 0.220584 -0.661549 -0.073694 -0.269981 0.0625104 -0.0159356
243 0.296792 -0.454281 0.0826266 -0.440708 0.0488074 -0.723517 -0.11037 -0.575164 0.0561337 -0.59988
313 0.424896 -0.240667 -0.284069 -1.14588 -0.0159249 -0.657048 -0.566944 -0.362835 -0.304994 -0.414201
1804 0.217444 -0.33577 0.158736 -0.601922 0.0929545 -0.738505 -0.122509 -0.399448 -0.200658 -0.259243
660 0.197483 -0.408705 0.0125004 -0.564518 0.0717288 -0.694539 0.0873846 -0.129153 0.0389322 -0.298013
1801 0.258232 -0.467621 -0.112568 -0.384748 0.0830686 -0.747711 0.111227 -0.170627 -0.173755 -0.272847
1802 0.386625 -0.654129 -0.14867 -0.419249 0.311457 -0.796351 0.239334 -0.186747 -0.153577 -0.386361
43 0.659635 -1.47545 -0.858832 0.233424 0.172342 -1.30597 0.0834299 -0.223714 -0.790054 -0.468898
13 1.00392 -1.22732 -0.467721 -0.567216 0.0969591 -0.634339 0.358568 -0.313639 -0.680431 -0.0278152
342 0.49499 -0.679394 -0.391774 -0.263355 0.0376983 -0.865771 0.123025 -0.214092 -0.302108 -0.329978
930 0.377406 -0.521808 -0.23048 -0.68774 -0.0145422 -0.759841 0.231806 -0.121302 -0.141696 -0.5137
4172 0.222694 -0.303768 -0.00538125 -0.473979 0.156041 -0.641967 0.14655 -0.271659 -0.0848615 -0.439312
724 0.90314 -0.549983 1.28279 -1.08779 -0.176372 -0.439933 0.403857 -0.524369 0.268128 -0.2502
4505 0.238451 -0.195581 0.166254 -0.583057 0.385124 -0.754241 -0.0657963 0.396687 0.0877361 -0.276079
1528 0.0356916 -0.725688 0.000461454 -1.21335 -0.574338 -0.866531 0.0504425 -0.431489 -0.35385 -0.11811
2835 0.230627 -0.349996 -0.0332065 -0.626756 -0.0550914 -0.791447 -0.035007 -0.401646 -0.141069 -0.367451
312 0.519945 -0.272686 -0.358542 -1.20936 0.0980379 -0.846633 -0.787783 -0.329589 -0.340367 -0.25529
2535 0.2009 -0.417826 0.0961647 -0.553983 -0.00783959 -0.722999 0.0230547 -0.0331917 -0.0083105 -0.270919
2735 0.462567 -0.589683 -0.23373 -0.312863 0.370519 -0.60472 0.30076 -0.173914 -0.033953 -0.431635
3664 0.348726 -0.261554 0.457574 -0.670986 -0.0167691 -0.652731 0.213242 -0.20133 0.181049 -0.192708
1339 0.522095 -0.0844302 0.982878 -0.851733 -0.00511739 -0.842981 0.500541 -0.216834 0.465874 -0.127997
427 0.632028 -0.360565 1.51474 -1.11506 -0.274583 -0.774142 0.829601 -0.363812 0.630037 -0.277707
4016 0.168429 -0.12208 0.212637 -0.893381 0.643488 -0.961961 -0.038867 0.831179 0.116989 -0.339295
3078 0.145923 -0.390778 0.128147 -0.610708 -0.0825135 -0.799252 -0.193576 -0.600006 -0.0191611 -0.452588
607 0.905613 -1.09524 -0.885895 -0.235323 -0.32444 -1.60418 -0.0359629 -0.516337 -1.08511 -0.0969235
2612 0.282762 -0.637991 -0.48779 -0.158102 0.140565 -0.912625 0.02812 -0.299504 -0.29173 -0.328039
2191 0.323274 -0.410628 -0.120717 -0.739605 0.0711916 -0.736948 0.121264 -0.124494 -0.0900478 -0.200634
1800 0.361569 -0.606353 -0.234233 -0.273234 0.233358 -0.737574 0.191611 -0.226388 -0.139487 -0.464874
457 0.841034 -0.492654 -0.255212 -0.152028 0.868923 -0.673474 0.262461 -0.45273 -0.108593 -0.583309
603 0.772555 -1.06817 -0.539288 -0.319823 -0.105221 -0.985297 0.108741 -0.626446 -0.578999 -0.143783
4325 0.353053 -0.523254 -0.341844 -0.451948 0.0417545 -0.871291 0.0910805 0.00947638 -0.22738 -0.261677
297 0.432707 -0.630657 -0.251037 -1.02173 -0.554103 -0.77902 -0.12208 -0.365071 -0.127395 -0.158407
163 0.386243 -0.386416 0.21356 -0.619597 -0.380997 -0.847603 0.0576694 -0.165596 -0.128728 -0.308029
3523 0.215967 -0.548748 0.0933048 -0.666161 -0.195612 -0.664055 0.114381 0.0224163 0.0232037 -0.24037
2329 0.14367 -0.436711 0.0515802 -0.833555 -0.262963 -0.752585 0.105342 -0.154358 -0.06199 -0.241922
127 0.617592 -0.681155 -0.15761 -0.806045 -0.0896167 -0.818724 0.291637 -0.0567247 -0.128884 0.273924
2632 0.390714 -0.234825 0.232559 -0.574746 0.0382225 -0.638089 0.197881 -0.029498 0.0373653 -0.211436
738 0.241446 -0.505307 -0.145292 -0.531727 -0.0912419 -0.689507 0.0965237 -0.0818742 -0.149521 -0.383093
306 -0.0763033 -0.769454 -0.0766064 -0.834898 -0.445679 -0.728474 0.335478 -0.238972 -0.166116 -0.515236
2371 0.314097 -0.56084 -0.0150693 -0.50183 -0.114709 -0.682093 0.260875 -0.138023 -0.118797 -0.490045
2252 0.0953957 -0.57498 -0.125835 -0.514973 -0.216371 -0.677158 0.390663 -0.142415 -0.171793 -0.470283
3097 0.1684 -0.54235 0.128866 -0.463119 -0.112324 -0.715395 0.0207994 -0.0695792 -0.0978613 -0.340147
3565 0.333 -0.472826 -0.0298794 -0.468244 0.0387539 -0.660328 0.148002 -0.103408 -0.0761981 -0.287265
517 0.144386 -0.460997 -0.0791357 -0.742265 0.291929 -0.616592 -0.119743 0.143761 -0.132428 -0.375042
4184 0.229126 -0.394664 -0.235053 -0.395078 0.231467 -0.76767 -0.00149131 -0.0651256 0.00988064 -0.28251
735 0.549368 -0.444691 -0.352577 -0.674979 0.0410218 -0.92623 1.30416e-05 -0.228883 -0.0933646 -0.109196
1888 0.338379 -0.278625 0.508561 -0.5432 -0.126102 -0.89906 -0.0170717 -0.27851 -0.137643 -0.352469
2186 0.449292 -0.465207 0.571423 -0.371253 -0.42757 -1.03848 0.127605 0.171554 -0.0692218 -0.282491
10 1.05677 -1.24566 -0.33508 -0.220154 0.0103017 -0.502049 0.389972 -0.371611 -0.00336724 -0.533742
2128 0.177691 -0.401103 -0.00962742 -0.609393 0.0615893 -0.821362 0.136601 -0.207344 -0.17484 -0.284103
1096 0.606618 -0.43159 -0.046074 -0.728997 -0.36256 -0.628768 0.305035 -0.306102 -0.262569 -0.541272
2420 0.28813 -0.299104 0.177772 -0.505869 0.0646273 -0.744609 0.250853 -0.0797925 -0.0433777 -0.289065
2743 0.663678 -0.190846 1.21569 -0.807999 -0.311983 -1.02926 0.367834 -0.0155208 0.391338 -0.223632
827 0.386557 -0.20877 -0.134124 -0.829516 0.041176 -0.837341 0.0212136 0.144499 -0.0262387 -0.122211
2310 0.273984 -0.456072 0.127676 -0.450361 0.192032 -0.654549 0.135591 -0.168053 -0.0171255 -0.656118
890 0.311974 -0.390267 0.291092 -0.583607 0.147182 -0.736955 0.222901 -0.231455 0.152201 -0.26028
2999 0.349419 -0.425489 -0.0524822 -0.252928 0.152696 -0.490964 0.160166 -0.108689 -0.0726582 -0.402675
867 0.476595 -0.740862 -0.208799 0.0579129 1.12653 -0.769391 0.343849 -0.432283 0.101532 -0.841817
1388 0.264071 -0.547361 -0.322289 -0.820441 0.163904 -0.640351 -0.0746829 -0.124567 0.0553318 -0.279598
2886 -0.0331675 -0.294831 -0.177019 -1.39627 0.472657 -0.678726 -0.638208 0.163573 -0.57327 -0.338063
360 0.464033 -0.27617 0.189873 -0.889602 0.351808 -0.872821 -0.116149 0.800995 0.0202709 -0.335442
4762 0.431294 -0.421887 -0.158161 -0.218795 0.449153 -0.519252 0.287191 -0.330932 -0.00588018 -0.532024
1163 0.949122 -0.209162 -0.169159 -0.133692 1.59818 -0.788514 0.130293 -0.747952 0.301364 -1.23397
1497 0.846822 -0.0247098 -0.188417 -0.179842 1.41594 -0.801574 0.190831 -0.671612 0.313015 -1.14868
3177 0.305601 -0.386112 0.171044 -0.489726 0.164209 -0.747078 0.0916778 -0.0161356 0.11255 -0.397958
2520 0.332852 -0.213937 0.183821 -0.695755 -0.0911338 -0.846211 0.0809776 -0.0766231 -0.104716 -0.357004
64 0.375256 -0.547171 1.03795 -0.599762 -0.868861 -1.25636 -0.20943 0.436013 -0.24897 -0.476364
1671 0.22659 -0.478797 0.984334 -0.391801 -0.415199 -1.24502 -0.00494885 0.54837 -0.122359 -0.252286
3615 0.356907 -0.392108 0.720273 -0.596527 -0.0448824 -0.693371 0.205826 0.0593939 0.393048 -0.221883
3621 0.383006 -0.333859 0.75228 -0.620586 -0.101775 -0.783686 0.30085 0.106051 0.299155 -0.261185
2593 0.439159 -0.605968 -0.373571 -0.592994 0.0139553 -0.572427 0.540599 -0.0859866 0.0818086 -0.556379
241 0.45252 -0.495783 -0.250907 -0.678422 0.196563 -0.66865 0.122589 -0.148845 0.110402 -0.393352
1564 0.327442 -0.314343 0.163625 -0.79664 0.17117 -0.686515 0.049922 0.115689 0.12956 -0.298155
2807 0.263981 -0.325094 0.328857 -0.457998 0.132808 -0.691354 0.0452691 -0.228077 0.064954 -0.273165
2806 0.236594 -0.300716 0.136598 -0.411535 0.150073 -0.771691 -0.0298487 -0.150491 0.00753293 -0.356257
2561 0.354201 -0.155176 -0.0722537 -0.730409 0.397159 -0.750227 0.106943 0.20134 -0.0281634 -0.359624
870 0.338307 -0.273368 0.203924 -0.819444 -0.124281 -0.941443 0.0545658 0.324325 -0.0512296 -0.11453
2639 0.373264 -0.356239 -0.00595381 -0.544615 -0.0461643 -0.676364 0.110394 -0.603357 -0.068345 -0.535363
1764 0.777117 0.109502 0.517806 -1.23166 0.693342 -0.908606 -0.243143 1.18149 -0.232615 -0.550165
74 0.830883 -0.286177 -0.629833 -0.977827 -0.556414 -0.612641 1.02097 -0.206676 -0.646347 -1.28321
565 1.20799 -0.789612 -0.27733 0.0804706 1.09127 -0.858053 0.248106 -0.458799 -0.40645 -0.752064
610 0.889839 -0.603098 -0.385512 -0.20377 0.972957 -0.63033 0.203217 -0.576578 -0.101571 -0.721955
356 0.985584 -0.770777 -0.144444 0.316453 1.10598 -0.793951 0.109135 -0.324482 -0.201148 -0.843267
3323 0.377001 -0.338292 -0.0935503 -0.407706 0.271433 -0.57855 0.108179 -0.128888 0.032969 -0.299846
695 0.457695 -0.653324 -0.721699 -0.67779 -0.00924361 -0.874492 -0.182312 -0.210386 0.487224 -0.209365
2314 0.183245 -0.407389 -0.0423316 -0.452452 0.183418 -0.575002 0.0769285 -0.109883 0.166671 -0.273839
696 0.202738 -0.290212 -0.0566055 -0.541692 0.144409 -0.669253 0.0274849 -0.155801 0.0341543 -0.308858
2724 0.284806 -0.732991 0.597511 -0.822278 -0.025218 -0.620873 -0.504857 -1.14251 -0.132091 -0.423915
2442 0.346524 -0.56234 -0.276629 -0.207413 0.331639 -0.663672 0.177205 -0.263884 -0.0445334 -0.472222
1253 0.413337 -0.691094 -0.410206 -0.102315 0.559849 -0.637235 0.316893 -0.250095 -0.119433 -0.576622
674 0.724752 -0.113595 -0.342517 -0.633087 -0.0817701 -0.795194 -0.165658 -0.13356 -0.295367 -0.471633
2598 0.24593 -0.416146 0.0778337 -0.64541 -0.0474667 -0.819959 0.326067 -0.176957 0.0144361 -0.276194
4014 0.160548 -0.22157 0.344424 -0.72496 0.468455 -0.899326 -0.0222221 0.777731 0.139494 -0.437542
4019 0.127798 -0.173522 0.234267 -0.603161 0.405948 -0.803841 -0.00599883 0.720881 0.219411 -0.414772
1022 0.667428 -0.254146 0.330768 -0.796642 -0.605845 -1.13088 0.17535 -0.0559311 -0.432751 0.0511191
2305 0.367064 -0.206991 0.122941 -0.665728 0.0209375 -0.853238 -0.468284 -1.00629 -0.116272 -0.828811
4481 0.279907 -0.263648 0.0593898 -0.529003 0.211708 -0.769547 -0.0145781 -0.438847 -0.187601 -0.504365
1351 0.299617 -0.833607 -0.467457 -0.242346 0.218558 -0.885094 0.185192 -0.214446 -0.32357 -0.347624
3093 0.234724 -0.798818 -0.448218 -0.183338 0.222255 -0.983085 0.147098 -0.28562 -0.301553 -0.415726
543 0.426768 -0.652574 -0.418724 -0.596513 0.00211344 -0.777195 0.201785 -0.299701 -0.275195 -0.214262
7 1.04265 -1.44586 -0.467492 -0.471143 0.112879 -0.609064 0.828874 -0.796512 -0.104542 -0.250163
582 0.796042 -0.570886 -0.667623 -0.674441 0.0363357 -0.992046 -0.0455222 -0.220738 -0.113998 0.110326
1314 0.0918273 -0.216039 -0.0894397 -0.979423 0.642417 -0.858131 0.047487 0.508528 0.290582 -0.236937
3095 0.293025 -0.451324 -0.166044 -0.42335 0.174697 -0.570681 0.261196 -0.141433 -0.0644751 -0.561532
76 0.409521 -0.354192 -0.618768 -0.946802 -0.611046 -0.814613 1.12533 -0.309853 -0.634169 -1.07063
3059 0.270704 -0.440049 -0.082907 -0.653773 -0.145201 -0.703554 0.497243 -0.394153 -0.177398 -0.588957
3205 0.248609 -0.44812 -0.107107 -0.534071 0.125411 -0.709618 0.0690628 -0.180246 0.285904 -0.320928
305 0.255045 -1.08162 0.135476 -1.19856 -1.1573 -0.705977 -0.127197 -0.105283 -0.145336 -0.359408
168 0.445064 -0.798505 -0.196803 -1.3764 -0.850335 -0.587908 0.135943 -0.423821 -0.585289 -0.42034
3029 0.368176 -0.330497 -0.0348046 -0.283514 0.27297 -0.507656 0.160445 -0.162532 -0.0525963 -0.40387
302 0.102832 -0.664356 -0.190752 -0.87573 -0.460573 -0.747458 0.0947998 -0.187381 -0.171075 -0.479295
1102 0.544986 -0.664979 -0.274852 -0.0552718 1.05981 -0.510779 0.411655 -0.391246 0.304028 -0.933647
1104 0.366778 -0.426914 -0.0773512 -0.38765 0.412989 -0.612442 0.192531 -0.244794 0.0417969 -0.367868
1165 0.362688 -0.157798 0.301615 -0.56283 -0.24983 -1.10447 -0.229147 -0.262904 -0.355013 -0.392888
847 0.102688 -0.556416 0.613554 -0.76968 0.189146 -0.804437 -0.398253 -1.23222 -0.37026 -0.383621
1572 0.356226 -0.330298 0.29507 -0.477789 0.0171627 -0.884432 -0.371781 -0.656883 -0.183508 -0.448495
791 0.328372 -0.54732 -0.162643 -0.612653 0.00247405 -0.99875 0.179103 -0.166524 -0.23925 -0.363886
4036 0.314143 -0.28428 0.302892 -0.426842 -0.189458 -0.753961 0.123362 0.0823624 -0.040969 -0.234964
923 0.262393 -0.247712 0.606933 -0.384201 -0.337914 -1.05164 -0.0360659 0.0580865 -0.248187 -0.409201
1603 0.445684 -0.294143 0.366044 -0.563892 -0.143226 -0.914882 0.0601285 -0.183251 -0.157215 -0.324304
2739 0.198498 -0.249173 0.167772 -0.565955 0.144224 -0.83001 -0.363078 -0.755503 -0.0753712 -0.537504
4660 0.18312 -0.314938 0.167959 -0.342603 0.178758 -0.64977 -0.0395229 -0.338679 -0.0486113 -0.371254
561 0.434502 -0.23695 -0.0275223 -0.705203 -0.0248167 -0.859615 -0.377944 -1.04958 -0.118251 -0.761207
452 0.264685 -0.504171 0.35489 -0.902031 -0.738906 -0.765769 -0.164443 -0.57662 -0.256375 -0.568692
1628 0.479117 -0.326041 0.680553 -0.602941 0.11222 -0.917125 -0.409462 -1.16049 -0.295182 -0.26511
263 0.362951 -0.362426 -0.387495 -0.609393 0.204615 -0.796686 0.150111 -0.332647 0.11515 -0.264099
266 0.364557 -0.453343 -0.311239 -0.626881 0.240994 -0.86716 0.0865573 -0.236766 0.0645329 -0.183497
259 0.578629 -0.45496 -0.539444 -0.783331 0.203475 -0.792686 0.128437 -0.294355 0.0714841 -0.138418
1112 0.458766 -0.628064 -0.544449 -0.594479 0.191916 -0.600084 0.178844 -0.249707 0.244194 -0.382017
1113 0.526939 -0.389184 -0.320218 -0.722405 0.177513 -0.711462 0.0460742 -0.434255 0.171199 -0.190126
1194 0.420908 -0.628777 -0.506669 -0.622603 0.268664 -0.539283 0.127946 -0.147345 0.241661 -0.288666
3067 0.492227 -0.443602 -0.186177 -0.259172 0.505361 -0.59984 0.284642 -0.139438 -0.00377233 -0.488666
132 1.50122 -1.13845 -0.356963 -0.476535 0.167328 -0.0482285 0.000230191 -0.0110096 0.300081 -1.15871
1537 0.95988 -0.673566 -0.456868 -0.452929 0.274628 -0.451423 0.553281 -0.14294 0.00505627 -0.556952
965 0.951643 -0.744575 -0.501567 -0.268059 0.587251 -0.359181 0.370666 -0.159735 0.0911525 -0.691923
1633 0.819877 -0.944133 -0.352001 -0.150385 0.262226 -0.396781 0.280324 -0.044945 0.0438843 -0.749417
3662 0.333134 -0.335797 -0.0660617 -0.304226 0.327154 -0.504945 0.110385 -0.211332 -0.0330864 -0.34832
1295 1.46865 -1.18996 -0.265128 -0.743444 -0.372589 0.0228462 0.536338 -0.204257 0.00630857 -1.04911
4269 0.186442 -0.320035 0.111008 -0.460288 0.0308136 -0.731945 0.098544 -0.128418 -0.0149255 -0.321581
2192 0.321846 -0.318493 0.18511 -0.64188 -0.31585 -0.979075 0.0859624 -0.0807032 -0.189172 -0.271659
93 0.665534 -0.203977 0.481735 -0.836927 0.0768285 -0.778755 -0.341063 -1.05743 -0.517746 -0.406183
986 0.359408 -0.37401 0.111776 -0.513912 0.230789 -0.711805 -0.1349 -0.301151 -0.0462228 -0.339562
495 0.500011 -0.444167 0.746929 -0.772444 -0.100412 -0.850011 -0.630798 -0.959013 -0.22383 -0.336342
486 0.771384 -0.737126 1.2523 -0.990297 0.0984248 -0.45467 -0.546438 -0.898271 -0.90907 -0.359245
2200 0.397403 -0.627108 -0.25884 -0.482787 0.119826 -0.843316 0.291226 -0.229103 -0.228969 -0.525074
2445 0.284428 -0.368865 -0.160776 -0.828395 0.0583378 -0.709655 0.0292371 0.0576347 -0.181646 -0.392439
2406 0.246361 -0.470031 -0.0390199 -0.386794 0.042573 -0.75698 0.0230175 -0.30889 -0.0903874 -0.325499
2405 0.295931 -0.641464 -0.19492 -0.414128 -0.0646979 -0.829222 -0.0657051 -0.217894 -0.1628 -0.265606
1261 0.383313 -0.319171 0.390964 -0.560195 0.167968 -0.583398 0.307243 -0.219341 0.265102 -0.235066
370 0.503895 -0.441213 1.5083 -0.929311 -0.123624 -0.656258 0.615473 -0.15861 0.420201 -0.390914
430 0.54431 -0.301905 0.840734 -0.77177 0.247717 -0.63143 0.39779 -0.359468 0.274587 -0.0605374
410 0.417321 -0.249679 0.771267 -0.633351 0.159356 -0.642957 0.422172 -0.0255169 0.367517 -0.177757
3767 0.525563 -0.711634 -0.0936986 -0.353657 0.143814 -0.564001 0.455474 -0.0856202 0.0342957 -0.519544
3768 0.358462 -0.596745 -0.0442647 -0.314601 0.207367 -0.499993 0.337818 -0.118417 0.034726 -0.435819
3765 0.618401 -0.700482 -0.195619 -0.375737 0.115324 -0.461042 0.382638 -0.202329 -0.0348476 -0.480208
3622 0.345307 -0.467851 -0.0860932 -0.454848 0.0869864 -0.637349 0.291835 -0.00974559 -0.0935749 -0.358206
284 0.553137 -0.128921 0.0129457 -0.612309 -0.0441951 -0.815758 -0.0220925 -0.15955 -0.123911 -0.483449
1627 0.867296 -0.281151 0.912806 -0.831339 -0.332 -0.865866 0.300699 -0.030167 0.171578 0.0127074
1394 0.292914 -0.428202 -0.125066 -0.546815 0.168391 -0.707277 0.134802 -0.0743907 -0.0171734 -0.301796
3775 0.311888 -0.341752 0.15656 -0.48683 0.11815 -0.694095 0.04032 -0.408364 0.0578292 -0.485432
4263 0.3229 -0.415526 -0.113616 -0.281821 0.293077 -0.587592 0.193938 -0.214655 -0.0939135 -0.412184
1226 0.288317 -0.355327 0.0778044 -0.568756 -0.114583 -0.755138 -0.112239 -0.459855 -0.0982705 -0.355668
1227 0.227003 -0.343789 0.0252255 -0.74231 -0.0332841 -0.865267 -0.103073 -0.754958 -0.0650286 -0.332092
434 0.727237 -0.970727 -0.879768 -0.151155 -0.271916 -1.57068 -0.153178 -0.670713 -1.03298 -0.350467
431 0.76836 -1.1103 -0.548597 -0.440799 1.80259 -0.840109 0.641319 -1.03333 -0.0225398 -0.568055
3872 0.328117 -0.37835 -0.17085 -0.25437 0.429949 -0.658285 0.158833 -0.210384 -0.0717091 -0.335519
193 1.18337 -0.136434 -0.0509476 -0.370787 0.983339 -0.491439 0.122638 -0.596165 -0.135379 -0.860932
1156 0.569547 -0.295168 -0.0634161 -0.163071 1.09741 -0.751676 0.208219 -0.823648 0.0858229 -0.942748
2052 0.221766 -0.340403 0.132785 -0.4512 0.0961601 -0.61307 0.04499 -0.0964381 0.0311063 -0.304553
1333 0.386883 -0.46269 0.32359 -0.58472 0.00104571 -0.807487 -0.316061 -0.736445 -0.170341 -0.271691
2024 0.387081 -0.294653 0.979179 -0.442608 -0.348804 -1.08821 -0.111605 0.431312 -0.0997267 -0.338714
1150 0.224475 -0.711788 0.02937 -0.386846 -0.702997 -1.01516 0.15153 0.129166 -0.367875 -0.371363
4821 0.26337 -0.331477 -0.00967455 -0.393303 0.203117 -0.609993 0.0544638 -0.208426 0.0343216 -0.390314
4117 0.325345 -0.414347 -0.406336 -0.491235 0.149785 -0.800834 -0.0474212 -0.163276 0.0426091 -0.318597
2306 0.259409 -0.259068 0.115589 -0.516565 0.23038 -0.688267 -0.148896 -0.970683 -0.0741922 -0.691941
251 -0.0510193 -0.268394 0.131524 -0.656297 -0.144153 -1.125 -0.825158 -1.32302 0.167943 -1.02234
842 0.351259 -0.445063 0.137334 -0.54246 -0.015723 -0.750635 0.120721 -0.0718643 -0.0488534 -0.278374
859 0.542711 -0.754472 -0.0133 -0.420443 -0.258211 -0.682725 0.180114 -0.0124294 -0.107326 -0.318435
3335 0.362195 -0.393618 -0.114856 -0.600258 0.111633 -0.634943 0.0469564 -0.117071 0.0223903 -0.263464
3163 0.339599 -0.403297 -0.0444191 -0.578996 0.0598235 -0.668438 0.053669 -0.12486 0.0388992 -0.327465
181 0.221275 -0.421989 -0.211689 -0.825458 0.085001 -0.804167 0.0229097 -0.107496 0.0180155 -0.176867
472 0.125264 -0.993072 -0.529848 -1.80319 0.532047 -0.650356 -0.395852 -0.238714 -0.16374 0.317432
1375 -0.492297 -0.804781 -0.62729 -1.21261 0.895552 -0.810816 -0.143802 0.102312 0.288099 -0.129073
3338 0.514903 -0.297249 0.681471 -0.658507 0.0559926 -0.627591 0.297871 -0.276129 0.244306 -0.213371
4474 0.182567 -0.306942 0.130936 -0.455901 0.165065 -0.805031 -0.127772 -0.314235 0.0539715 -0.45437
3005 0.291082 -0.324737 0.154256 -0.548499 0.228303 -0.764699 -0.142681 -0.535922 0.0585243 -0.451044
185 0.417655 0.0922757 0.306098 -0.649773 -0.0779338 -1.33411 -0.836243 -1.36781 0.133776 -0.662235
334 1.30016 0.528343 -0.260103 -1.13786 -0.471677 -0.779331 -0.469809 0.281795 -0.373271 -1.0611
2357 0.281178 -0.283096 0.0379762 -0.460482 0.176765 -0.728211 -0.0149971 -0.167221 -0.0433568 -0.376488
2356 0.305759 -0.254732 0.00511412 -0.469251 0.0613544 -0.694046 0.0148877 -0.0663314 -0.0563897 -0.45375
3561 0.402386 -0.459882 -0.0794572 -0.401896 0.220349 -0.511723 0.00928711 -0.0581384 -0.0136288 -0.468778
409 0.663202 -0.243478 1.21055 -0.745745 0.0700722 -0.838701 0.632305 -0.0951043 0.632811 -0.0931059
4233 0.391738 -0.554299 -0.0272138 -0.512512 0.203876 -0.67048 0.202751 -0.252626 0.0773995 -0.450069
2925 0.494811 -0.637156 -0.265788 -0.391422 0.159037 -0.853924 0.0647529 -0.234503 -0.111197 -0.329825
805 0.496067 -0.712485 -0.419178 -0.196514 0.0415749 -0.883508 0.0429492 -0.272549 -0.31916 -0.393075
803 0.427583 -0.921159 -0.671458 -0.190835 0.00280286 -1.16633 0.175782 -0.549327 -0.577694 -0.335498
3094 0.433901 -0.587336 -0.276622 -0.452389 0.199752 -0.793758 0.158129 -0.201161 -0.0928311 -0.339193
5 0.586559 -0.948303 -0.693742 -0.657022 -0.156135 -0.97195 -0.107288 -0.610798 -0.729524 -0.193155
8 0.895571 -1.02959 -0.64797 -0.408583 0.316189 -0.526257 0.553503 -0.4828 -0.269267 -0.601607
136 0.60802 -0.527633 -0.32856 -0.406698 0.594308 -0.608747 0.209781 -0.4494 -0.028939 -0.535367
3552 0.377081 -0.405385 -0.14305 -0.47116 0.188523 -0.787946 0.160733 -0.228012 -0.0315787 -0.456443
3551 0.374043 -0.498264 -0.174132 -0.603795 0.10908 -0.672787 0.374397 -0.278345 -0.117773 -0.576671
2816 0.335391 -0.596333 -0.136892 -0.288523 0.177088 -0.572192 0.240444 -0.0607967 -0.0364613 -0.423946
861 1.00221 -1.46788 -0.753171 0.0355639 0.0926388 -0.984871 0.0607711 -0.431353 -0.649027 -0.468229
198 0.660037 -0.746727 -0.488358 -0.430954 0.237652 -0.819487 0.223686 -0.553026 -0.331467 -0.348029
348 0.311586 -0.336281 -0.127267 -0.259495 0.530782 -0.654367 0.192614 -0.13891 -0.046254 -0.421582
2051 0.323847 -0.319958 0.0860326 -0.461351 0.14279 -0.645742 0.136073 -0.196511 0.0390573 -0.359954
450 0.53109 -0.349848 0.338844 -0.630581 -0.259532 -0.677346 -0.126597 -0.623392 -0.224425 -0.480982
670 0.79613 -0.338572 0.722813 -0.540442 -0.544044 -1.27098 0.107588 0.434629 -0.239731 -0.135692
673 0.456185 -0.160703 0.692349 -0.459102 -0.404184 -1.22366 0.0927644 0.247752 -0.0832764 -0.190091
4566 0.393453 -0.395553 0.71076 -0.472001 -0.444893 -1.02898 0.0501301 0.160186 -0.134847 -0.194399
688 0.182069 -0.68496 1.08873 -1.03995 -0.35423 -0.71372 0.0286066 0.282055 0.173424 -0.179247
3658 0.205943 -0.131955 0.283348 -0.620453 0.455136 -0.881657 0.00927512 0.644418 0.0389086 -0.312367
648 0.0526239 -0.0301634 0.180296 -1.25103 0.576538 -1.02399 -0.104498 0.922889 0.177853 -0.334929
1752 -0.0221968 -0.21623 -0.0569799 -0.899197 0.62662 -0.94981 -0.135573 0.798281 0.178327 -0.265568
884 -0.585225 -0.843736 -0.267023 -1.96709 1.01315 -1.11226 -0.0870259 0.874576 0.872216 -0.28756
783 -0.00741465 -0.293001 -0.0620433 -0.663649 0.553254 -0.802817 0.116727 0.567706 0.13499 -0.401572
592 0.336531 -0.196019 0.172041 -1.2214 0.605752 -1.23936 -0.224637 1.25356 0.498638 -0.346957
210 0.476341 -0.179074 -0.0199796 -0.976285 0.5129 -1.38657 -0.349756 1.45268 -0.233261 -0.54004
3443 0.26928 -0.354064 0.0700754 -0.523135 -0.0694143 -0.830325 0.0744437 -0.146557 -0.108151 -0.315261
3264 0.42432 -0.403964 -0.0188357 -0.530558 0.105407 -0.680385 -0.0275629 -0.548186 0.0213279 -0.454116
549 0.414994 -0.476163 0.119763 -0.740904 -0.205879 -0.782225 -0.2995 -0.586777 -0.204419 -0.41786
1609 0.256778 -0.279962 0.397502 -0.690132 0.0625888 -0.957692 -0.571001 -1.2928 -0.246329 -0.926834
1357 0.407813 -0.264127 -0.0171823 -0.763942 -0.150346 -0.835208 -0.0188793 -0.745222 -0.224623 -0.503391
2777 0.255284 -0.590346 -0.172548 -0.288865 0.199287 -0.601427 0.152699 -0.12891 -0.167646 -0.394079
289 1.02494 -1.13789 -0.733772 -0.180827 -0.216743 -1.36534 -0.146937 -0.272131 -0.833721 0.00174666
3732 0.349546 -0.577709 -0.267844 -0.288617 0.14373 -0.795133 0.197035 -0.212341 -0.16379 -0.331933
340 0.982342 -1.0499 -0.888753 -0.274158 -0.341861 -1.50515 -0.100037 -0.520835 -1.08967 -0.161581
38 0.35732 -0.514649 -0.0998379 -0.262936 0.217622 -0.556287 0.103985 -0.153938 -0.0500521 -0.368349
37 0.507779 -0.754603 -0.227559 -0.406623 0.0918095 -0.821985 0.20798 -0.279687 -0.215004 -0.517747
35 0.413243 -0.933475 -0.125471 -0.569047 -0.191146 -0.60247 0.0867114 -0.166617 -0.200415 -0.410477
3652 0.263575 -0.275577 0.0351748 -0.339263 0.13772 -0.551206 0.0298018 -0.0606988 -0.0187209 -0.347154
96 0.932714 -0.343504 1.03816 -0.454172 -0.390507 -1.042 0.151489 0.249023 -0.206081 -0.231295
820 0.711465 -0.354446 1.12955 -0.627323 -0.728344 -1.37106 0.00173443 0.49732 -0.0880867 -0.294381
1772 0.112546 -0.41993 0.218531 -0.715296 -0.355334 -0.923819 0.0775716 -0.240768 -0.0796785 -0.161018
364 1.09221 -1.19848 -0.37688 -0.51132 -0.0225865 -0.318308 0.350372 -0.0376687 -0.371807 -0.567712
89 0.421376 -0.485641 -0.639143 -0.903573 -0.473143 -0.631181 0.993325 -0.467085 -0.275306 -1.14663
2558 0.120245 -0.149417 0.249378 -0.700794 0.366025 -0.886765 0.0312993 0.569253 0.165951 -0.295677
162 0.275246 -0.371409 -0.113341 -0.990761 -0.420985 -0.807695 -0.0457556 -0.169428 -0.27545 -0.312534
2901 0.31756 -0.318216 -0.147026 -0.733448 0.17112 -0.782051 0.0340882 -0.0438732 -0.23073 -0.344203
140 0.615648 -0.593406 0.0245616 -1.28536 -1.08056 -1.00125 0.0240643 -0.301472 -0.385973 0.0225929
3752 0.283094 -0.292401 -0.0621118 -0.797341 0.134633 -0.808238 -0.0744805 0.318028 0.0418094 -0.237504
4618 0.270447 -0.377157 -0.0336302 -0.613363 0.0225256 -0.695585 0.132899 -0.0842942 -0.0699344 -0.338715
2755 0.40127 -0.313338 0.0553502 -0.626586 -0.185035 -0.843998 0.074304 0.00774221 -0.0987413 -0.30382
201 0.385234 -0.562761 -0.227257 -1.1744 -0.624839 -0.837443 0.136313 -0.445282 -0.428606 -0.114586
436 0.937009 -1.16221 -0.8043 0.078418 -0.603655 -1.76485 0.0401453 -0.863559 -1.22057 -0.379274
854 0.547136 -0.568322 1.23152 -0.623164 -0.0585162 -0.809871 0.651943 -0.0333004 0.807091 -0.266918
849 0.843251 -0.423063 1.32283 -0.645678 -0.0265539 -0.733295 0.687915 0.00880201 0.53394 -0.256777
3571 0.384089 -0.545842 -0.177956 -0.461353 0.155566 -0.528853 0.217425 -0.0898641 0.0327175 -0.393275
67 1.15123 -1.97247 0.0411011 -0.919897 0.102084 -0.0921237 0.859042 -0.654536 -0.691213 -0.268871
1759 0.430816 -0.299493 -0.410716 -0.54014 0.250962 -0.976853 0.117109 -0.345135 -0.0705655 -0.107034
483 0.611607 -0.440433 -0.247158 -1.11212 -0.813791 -0.78326 -0.00815029 -0.0885919 -0.498459 -0.490243
600 0.319248 -0.311549 0.856445 -0.583031 -0.0524765 -0.67298 0.173487 -0.0524027 0.321835 -0.265178
743 0.820534 -0.168719 1.10227 -0.957825 0.0163158 -0.760789 0.508295 -0.384299 0.331583 0.0370823
774 0.866115 0.119407 0.0293025 -0.835052 -0.259889 -0.703403 -0.155659 -0.00467472 -0.165026 -0.590511
577 1.30533 -0.340345 0.566138 -0.684887 -0.563894 -1.00709 0.275171 0.08086 -0.622869 0.0632001
4537 0.287189 -0.376449 0.203182 -0.385618 0.121427 -0.652485 0.00464811 -0.051065 0.0283051 -0.405168
843 0.419639 -0.21838 0.38473 -0.60387 0.0275737 -0.973752 -0.469362 -0.886786 -0.370657 -0.339055
1530 0.614813 -1.31275 -0.27414 -0.512333 0.0742783 -0.294519 0.600484 -0.148712 -0.18069 -0.495393
173 0.899782 -1.39059 -0.332643 -0.504009 -0.088538 -0.216855 0.498461 -0.0650727 -0.266536 -0.652083
174 0.668396 -2.37746 -0.235157 -0.557878 -0.0933619 -0.294982 1.08556 -0.625739 -0.41681 -0.720243
952 0.461601 -0.48069 -0.153716 -0.307522 0.531623 -0.676796 0.289201 -0.184691 -0.0113838 -0.594397
203 0.355895 -1.23791 -0.79203 -0.0967523 -0.00562708 -0.844709 0.335231 -0.22744 -0.28512 -0.62267
2050 0.318688 -0.5529 -0.179128 -0.306829 0.104213 -0.596378 0.200076 -0.278711 -0.177232 -0.392667
2049 0.550191 -0.567044 -0.201388 -0.57727 0.0294092 -0.739687 0.183265 -0.322948 -0.203388 -0.214503
3922 0.462048 -0.520731 -0.123526 -0.401403 0.0563688 -0.767167 0.201042 -0.305979 -0.22378 -0.256752
407 0.800586 -0.356389 0.94338 -1.08438 -0.0112812 -0.548141 0.523825 -0.376726 0.473253 0.0741617
6 0.450485 -0.943765 -0.80282 -0.409089 -0.366678 -1.29331 -0.0547367 -0.415968 -0.604296 -0.213321
4939 0.20102 -0.400267 -0.0643012 -0.372009 0.183992 -0.60303 -0.0374103 -0.0663318 -0.0427122 -0.244888
416 0.507241 -0.158092 1.02534 -0.751378 0.0352376 -0.928027 0.450912 0.025225 0.519908 -0.203308
4003 0.170992 -0.309234 0.265345 -0.486296 0.174247 -0.625643 0.0379757 -0.297043 -0.0558928 -0.349466
494 0.18694 -0.326953 0.500853 -0.528074 0.136056 -0.684515 -0.175964 -0.591545 -0.0352246 -0.40872
2322 0.23869 -0.39494 0.0145489 -0.542266 0.303272 -0.675936 -0.0483064 -0.57606 0.102945 -0.684297
2321 0.479906 -0.45285 -0.160692 -0.488231 0.315134 -0.816887 -0.132017 -0.823468 -0.023971 -0.696585
3439 0.161384 -0.8476 -0.589511 -0.244065 0.0655154 -0.945027 0.0574391 -0.283839 -0.265755 -0.440717
2463 0.391411 -0.462512 0.172387 -0.5462 0.0983555 -0.625849 0.17852 -0.150538 0.136468 -0.290481
236 0.364309 -0.414608 1.1575 -0.674288 0.0348408 -0.649388 0.241451 -0.599914 0.304063 -0.265391
4718 0.100667 -0.298537 0.363927 -0.542031 0.0631094 -0.786873 0.13824 0.0171979 0.102286 -0.2499
4717 0.20444 -0.287876 0.540429 -0.510538 0.0474556 -0.729179 0.21016 0.182658 0.199946 -0.304554
2830 0.296694 -0.328426 0.490687 -0.500894 0.0400912 -0.644577 0.289745 -0.0637533 0.266268 -0.311832
133 1.66633 -0.917431 -0.271564 -0.11638 0.0330121 -0.314425 0.355723 -0.168079 -0.034031 -1.09865
4256 0.69546 -0.487379 -0.334229 -0.33589 0.68805 -0.7011 0.255811 -0.494686 -0.189827 -0.488813
887 0.00110079 -0.277733 0.0370095 -0.639828 0.430713 -0.641254 -0.00123887 0.375494 0.0625154 -0.290991
882 -0.583907 -0.811319 -0.416519 -1.69662 0.866088 -1.11958 -0.207521 0.970199 0.882799 -0.263151
440 0.4645 -1.23742 -0.326435 -0.354402 0.106635 -0.414967 0.533043 -0.248367 -0.174035 -0.566244
170 0.829541 -1.93401 0.123468 -0.803144 -0.12318 -0.142694 0.6988 -0.6859 -0.504986 -0.392242
806 0.513792 -0.786543 -0.70785 -0.284215 0.0351431 -1.00152 -0.00595447 -0.418054 -0.413758 -0.233759
1187 0.590368 -0.349783 0.256671 -0.448037 -0.305666 -1.10236 -0.131268 -0.380818 -0.377828 -0.210564
1604 0.369189 -0.391484 0.188801 -0.552394 -0.176658 -0.917239 0.0419765 -0.241628 -0.198052 -0.233078
142 0.330258 -0.789321 1.14083 -0.774034 -0.72762 -1.31707 -0.514579 0.313768 -0.624291 -0.154464
63 0.596555 -0.56044 0.268558 -0.969093 -0.867267 -0.944846 0.0354707 0.0705033 -0.387836 -0.165593
4065 0.543628 -0.322417 -0.099912 -0.403008 0.575867 -0.59072 0.0972541 -0.458999 -0.0671014 -0.438192
4068 0.457176 -0.302385 -0.0532821 -0.36447 0.421397 -0.644355 0.177178 -0.269477 -0.044255 -0.426185
4067 0.364862 -0.368066 -0.0517123 -0.209145 0.642943 -0.707718 0.214774 -0.333087 -0.118879 -0.445012
3048 0.349578 -0.255961 -0.14506 -0.516388 0.157182 -0.749439 -0.0288449 -0.183268 0.0587987 -0.473218
1638 0.0791534 -0.24486 -0.222859 -1.20668 -0.238997 -0.83313 0.0149276 -0.411914 -0.222397 -0.218895
1302 0.286902 -0.122456 -0.379458 -1.40997 -0.416079 -0.897192 -0.332947 -0.119683 -0.35418 -0.294359
2986 0.160698 -0.381542 -0.0140725 -0.603664 0.164155 -0.575928 0.0710391 -0.0841298 0.0614535 -0.220153
15 -0.194498 -0.751348 -0.803729 -1.41312 0.913453 -0.868589 -0.395672 -0.0552071 0.0724907 -0.0822362
338 0.40564 -0.611653 -0.327144 -0.274666 0.319256 -0.915958 0.136031 -0.372347 -0.314477 -0.433212
343 0.179746 -0.500998 -0.16172 -0.378337 0.112542 -0.631269 0.0419482 -0.0541483 -0.145661 -0.284567
2081 0.0431706 -0.339094 -0.108458 -0.606761 0.418848 -0.601738 0.0163875 0.359043 0.151853 -0.318063
883 -0.351603 -0.879657 -0.391493 -1.70404 0.874754 -1.02316 -0.0853957 0.821925 1.03121 -0.145159
4216 -0.0108971 -0.452475 -0.0897901 -0.926299 0.687011 -0.736672 0.0452746 0.632312 0.46352 -0.207861
357 0.76156 -0.661277 -0.340701 -0.00440926 1.03775 -0.649154 0.348488 -0.273614 -0.0644541 -0.707493
3693 0.600093 -0.731378 -0.11051 -0.280141 0.33441 -0.408308 0.454739 -0.263141 -0.0530058 -0.67791
891 0.259275 -0.366038 0.454486 -0.578464 0.148774 -0.61236 0.190684 -0.095399 0.211589 -0.281189
3308 0.422975 -0.502628 -0.130402 -0.640806 -0.0123496 -0.681318 0.287156 -0.291169 -0.168084 -0.417855
4656 0.219428 -0.251844 0.306181 -0.344486 0.0752418 -0.70584 0.0784073 -0.0511957 -0.025 -0.345979
4910 0.0868283 -0.251565 0.0570031 -0.864878 0.494367 -0.861472 -0.141737 0.726832 0.261133 -0.246947
4445 0.298985 -0.340181 0.0599492 -0.533424 0.227776 -0.751131 0.104136 -0.244604 -0.043835 -0.316451
1282 0.29932 -0.273024 0.0726441 -0.529363 0.257188 -0.681115 -0.0583173 -0.337071 -0.0101987 -0.388815
4815 0.445135 -0.681388 -0.292328 -0.266456 0.192126 -0.549452 0.282105 -0.162394 -0.0790293 -0.469236
186 0.257296 -0.08343 0.316489 -0.37322 0.0657847 -1.18381 -0.804362 -1.20298 -0.103651 -0.799461
187 0.0256048 -0.0805709 0.305317 -0.48961 0.170352 -1.27187 -0.814085 -1.19981 -0.0721711 -0.859584
1669 0.327251 -0.47971 -0.232156 -0.210124 0.175148 -0.540944 0.120754 -0.299829 -0.162079 -0.273312
605 0.955077 -0.943801 -0.796291 -0.505747 -0.0166454 -1.07038 -0.018656 -0.264086 -0.710291 -0.241839
1873 0.0897638 -0.404887 0.089757 -0.441545 0.175314 -0.780994 -0.209528 -0.434361 -0.0583417 -0.543798
1838 0.146496 -0.348911 0.141365 -0.454939 0.129082 -0.739618 -0.147753 -0.423932 0.00176901 -0.529406
194 0.5579 -0.319759 -0.219838 0.0427486 1.3564 -0.753954 0.0215552 -0.44108 0.0263081 -1.17185
874 0.893927 -0.429617 -0.362121 -0.312492 1.51414 -0.94889 0.340717 -0.932976 -0.165158 -0.632596
2404 0.489858 -0.875946 -0.681339 -0.563828 -0.208381 -1.22711 -0.0426819 -0.540604 -0.624225 -0.0403435
3381 0.294908 -0.304261 0.539837 -0.472559 -0.306929 -0.985906 -0.00572537 0.254422 -0.106521 -0.343608
2928 0.327787 -0.29523 0.0943211 -0.542629 0.0781386 -0.720127 0.0409638 -0.0671285 0.0102603 -0.393849
336 0.376253 -0.903968 -0.538067 -0.597457 -0.54661 -0.586264 1.0582 -0.506442 -0.418433 -1.28387
1859 0.597824 -0.685983 -0.345437 -0.105885 0.521539 -0.594698 0.245066 -0.189956 -0.13558 -0.550285
123 1.30371 -0.312509 0.0451562 -0.222859 1.23082 -0.766154 0.267503 -0.676157 -0.059785 -0.463947
2601 0.61227 -0.253397 -0.0315901 0.0760351 1.025 -0.705822 0.101551 -0.328273 0.176841 -0.929422
1499 0.75995 -0.363804 -0.205341 0.100617 1.35298 -0.844884 0.366447 -0.678441 0.229752 -1.03101
3905 0.233056 -0.282334 0.086121 -0.480362 0.160197 -0.685674 -0.0956782 -0.466065 -0.00877971 -0.479749
913 0.30462 -0.312214 0.432814 -0.647274 0.0531605 -0.93796 -0.552461 -1.06919 -0.353927 -0.726152
1060 0.342447 -0.311472 0.199978 -0.477415 -0.0915853 -0.827866 -0.196385 -0.767322 -0.181493 -0.556653
4416 0.171965 -0.233182 0.579746 -0.415111 -0.0180612 -0.814956 0.0423421 0.419363 0.131722 -0.264009
3505 0.21543 -0.728523 -0.223482 -0.304377 0.781514 -0.529823 0.476249 -0.0143628 0.115664 -0.65737
1616 0.115501 -0.453971 0.599108 -0.848987 0.00127405 -0.651848 -0.298504 -0.604022 -0.154171 -0.362064
2226 0.147664 -0.387066 0.138462 -0.483876 0.0276969 -0.73383 -0.0441527 -0.217432 0.0621926 -0.413028
152 0.958237 -0.207837 0.582293 -0.683114 -0.325228 -1.14338 -0.232502 -0.128859 -0.687015 0.134588
2626 0.19449 -0.183866 0.0729041 -0.655245 0.464854 -0.67088 -0.0029908 0.443221 0.0349014 -0.302423
649 0.0550172 -0.239121 0.112716 -1.02007 0.531704 -1.06438 -0.20085 0.860692 0.266673 -0.276098
1310 -0.0117147 -0.369275 0.0534173 -0.896625 0.505065 -0.860061 -0.0854155 0.709689 0.327542 -0.306532
1344 0.381618 -0.360838 0.622119 -0.600679 0.0104043 -0.842629 0.297332 -0.0789179 0.356654 -0.140746
1557 0.253394 -0.712877 -0.24199 -0.19106 0.192561 -0.61857 0.265 -0.0547799 -0.082487 -0.376146
1558 0.354091 -0.718344 -0.349234 -0.234519 0.132642 -0.678156 0.319904 -0.166893 -0.194305 -0.375649
274 0.594109 -0.124443 -0.18127 -0.874369 0.132632 -0.608644 -0.114833 -0.295129 0.192769 -0.479414
2690 0.228464 -0.327118 0.220225 -0.852645 0.480423 -0.912159 -0.0459196 0.903514 0.167543 -0.440812
2696 0.193931 -0.26839 0.307712 -0.603872 0.354369 -0.774114 -0.139588 0.62096 0.101372 -0.32906
213 0.315014 -0.290896 0.377944 -0.657267 0.241434 -0.826601 -0.0324791 0.435279 0.130616 -0.30244
205 0.249126 -0.310138 0.21193 -0.784515 0.385755 -0.954593 0.0221329 0.85732 0.0980261 -0.258764
208 0.258367 -0.29113 0.222974 -0.633827 0.271941 -0.866058 0.00408452 0.372586 0.0922683 -0.315592
1318 0.241919 -0.3716 -0.0449831 -0.257907 0.231638 -0.576206 0.175441 -0.15359 -0.0187169 -0.309553
166 0.352738 -1.41137 -0.988017 0.00466149 -0.208261 -1.12797 0.0599495 -0.310784 -0.451096 -0.57169
4696 0.574592 -1.02618 -0.263021 -0.260169 0.160151 -0.384824 0.498315 -0.130872 -0.0508404 -0.539124
1101 0.51418 -0.894753 -0.219652 -0.0799409 1.21817 -0.432741 0.715148 -0.202013 0.386441 -0.999815
14 -0.151183 -0.853526 -0.304885 -1.69622 0.696922 -0.835397 -0.180262 0.481581 0.127803 0.185612
881 -0.532815 -0.860875 -0.321254 -1.69536 0.925184 -1.07847 0.0196721 0.976579 0.933696 -0.119791
3370 0.321134 -0.616114 -0.205241 -0.450266 0.184919 -0.529313 0.201886 -0.157613 -0.0981145 -0.333404
368 0.877286 -1.51975 -0.428241 -0.35161 0.108759 -0.317354 0.622248 0.00588842 -0.148139 -0.757451
171 1.01002 -1.82771 -0.221003 -0.910926 0.134256 -0.0529233 0.695152 -0.384116 -0.522724 -0.246946
172 0.818792 -1.65606 -0.36698 -0.798702 -0.072553 -0.188544 0.723565 -0.334762 -0.348294 -0.462036
3232 0.242883 -0.489408 -0.185178 -0.519904 0.163258 -0.741023 -0.0174402 -0.120076 0.0501551 -0.306819
997 0.370678 -0.421014 -0.329812 -0.690641 0.191272 -0.683522 -0.059472 -0.14553 0.173745 -0.248057
244 0.233899 -0.358739 0.234352 -0.542379 0.0403582 -0.844522 -0.263912 -0.600842 -0.0900628 -0.458158
1555 0.752996 -1.04577 -0.588009 -0.369493 0.0898401 -0.62179 0.309701 -0.395779 -0.335227 -0.432806
3777 0.31973 -0.499877 -0.0539232 -0.483707 0.201306 -0.640192 0.206988 -0.166214 -0.0326518 -0.402454
3704 0.30541 -0.342725 0.0912441 -0.519225 -0.105161 -0.744507 -0.076354 -0.167816 -0.120351 -0.355278
2384 -0.0295834 -0.848458 -0.294908 -0.308281 0.962813 -0.524142 0.795137 0.349934 0.239591 -0.83619
1321 0.3917 -0.454334 -0.102793 -0.225631 0.648419 -0.719785 0.157732 -0.237294 0.0904539 -0.516079
513 1.16116 -0.667446 -0.495462 -0.0570443 0.860925 -0.73986 0.37452 -0.491417 -0.229547 -0.72123
2246 0.3776 -0.544108 -0.195129 -0.482241 0.302604 -0.608226 0.29731 -0.212881 0.0420812 -0.480015
2247 0.273598 -0.517126 -0.116475 -0.409499 0.321024 -0.600553 0.194241 -0.0720824 -0.0234276 -0.482133
1695 -0.505441 -1.22443 -0.254943 -0.461364 1.30023 -0.870001 1.49008 0.948918 0.455753 -0.830034
2386 -0.233846 -1.00006 -0.182817 -0.0984572 1.18573 -0.698755 0.971083 0.532229 0.370054 -0.978593
1702 -0.058245 -0.99018 -0.207909 -0.188961 1.01838 -0.674934 0.84222 0.588549 0.327079 -0.773101
1700 -0.158308 -1.28136 -0.211829 -0.208581 1.28887 -0.744352 1.29691 0.613497 0.552088 -1.14854
490 0.967194 -0.474687 0.459927 -1.19812 -0.0679276 -0.624825 -0.371127 -0.854935 -0.781281 -0.0275565
352 0.7136 -0.833748 -0.125756 -0.00192355 0.971607 -0.641689 0.52379 -0.407956 -0.134271 -0.626997
3935 0.0971506 -0.331649 0.186433 -0.59009 0.196914 -0.743829 -0.0402411 0.0472267 0.0542571 -0.281318
518 0.893055 -0.00916851 -0.2337 -0.938784 -0.289899 -0.689123 -0.337512 0.0345898 -0.390379 -0.75936
2900 0.39073 -0.446887 0.133937 -0.599167 0.112975 -0.735178 -0.10601 -0.663061 -0.0646697 -0.305908
1629 0.0603371 -0.640294 0.639132 -0.840565 0.212111 -0.789418 -0.550913 -0.99011 -0.377473 -0.316494
145 0.741619 -0.28384 -0.318039 -0.250572 0.902557 -0.728677 0.253562 -0.432257 -0.111458 -0.741487
1636 0.248464 -0.355506 -0.110977 -0.849053 -0.124705 -0.785941 0.0167564 -0.398265 -0.153723 -0.25165
3678 0.468201 -0.325831 -0.0303886 -0.277695 0.442789 -0.578333 0.202817 -0.305402 0.0436139 -0.401607
1273 1.00192 -0.280855 -0.213183 -0.350411 0.957857 -0.742795 0.289234 -0.475519 -0.0661171 -0.529186
1288 0.206779 -0.559931 0.802049 -0.544581 -0.0302203 -0.876997 -0.42649 -1.00685 -0.270655 -0.469024
626 0.0117094 -0.852187 0.959854 -0.754128 0.0456169 -0.752375 -0.780324 -0.86732 -0.563859 -0.557467
1132 0.796144 -0.310402 -0.110544 -0.336148 0.388099 -0.675305 0.0221131 -0.508868 -0.0602554 -0.637919
3131 0.196511 -0.24931 0.218978 -0.671608 0.430249 -0.838462 0.00580432 0.53487 0.152178 -0.443904
1637 0.299657 -0.301617 -0.273312 -1.05526 -0.0833628 -0.749037 -0.0915546 -0.348368 -0.0233083 -0.171141
437 0.620878 -1.67833 -1.07324 0.311527 -0.43506 -1.98349 -0.133122 -0.64246 -1.4332 -0.746712
3683 0.366487 -0.400459 0.230501 -0.612138 0.163023 -0.734505 0.21047 -0.0574799 0.0425628 -0.354653
3684 0.438448 -0.31164 0.179365 -0.529671 0.11413 -0.780977 0.0372241 -0.0732735 0.0601983 -0.470611
1086 0.342415 -0.403926 -0.182858 -0.460643 0.123601 -0.674349 0.326678 -0.236868 -0.0907502 -0.391838
2706 0.225865 -0.322767 0.0449905 -0.395648 0.0994823 -0.565291 0.0886412 -0.0861536 0.0819953 -0.349904
303 0.0464304 -0.492516 -0.0668717 -0.637559 -0.198122 -0.766299 0.10676 -0.232413 -0.0731182 -0.298634
1014 0.559233 -0.0171341 0.711384 -0.399968 -0.62252 -1.48299 -0.240127 0.032161 -0.427949 -0.443647
4025 0.222415 -0.39677 0.184013 -0.526242 0.0475702 -0.803321 -0.00706636 -0.371289 -0.068235 -0.482987
2205 0.233158 -0.215831 0.580171 -0.475896 -0.0467683 -0.873541 -0.00545877 0.211281 0.136271 -0.291554
1517 0.100312 -0.213114 0.260969 -0.878769 0.730833 -1.00185 -0.140128 0.970644 0.183491 -0.420683
358 0.180206 -0.399153 0.0555582 -1.19998 0.538193 -1.15666 -0.305053 1.15366 0.284945 -0.318168
644 0.26791 -0.0407768 0.247424 -1.26939 0.439232 -1.22201 -0.296663 0.963527 0.0613988 -0.155509
1650 0.395511 -0.541754 -0.183832 -0.418915 0.487651 -0.758663 0.241216 -0.180126 -0.0975155 -0.562525
1651 0.407257 -0.546329 -0.134452 -0.417651 0.353061 -0.649563 0.169794 -0.427748 -0.0472412 -0.529831
1986 0.341279 -0.27611 0.495272 -0.488833 -0.151058 -0.818206 -0.0808909 -0.0062006 -0.082103 -0.353134
1894 0.664679 -0.604492 -0.392772 -0.0483469 1.38897 -0.868969 0.357639 -0.675734 0.0233161 -0.955846
4090 0.349363 -0.404343 0.022988 -0.286157 0.315653 -0.546905 0.112118 -0.272851 -0.0285671 -0.466973
1030 0.0615811 -0.104661 0.286265 -1.01547 0.815232 -1.01751 -0.015407 0.96467 0.215754 -0.267771
1488 0.675214 0.0592386 0.198445 -0.75499 -0.0809485 -0.936615 -0.414431 -1.21959 -0.289202 -0.769835
1463 0.263774 -0.416001 0.11277 -0.593382 0.0904795 -0.721529 -0.049794 -0.463647 -0.085654 -0.308666
708 0.0813062 -0.425919 0.548564 -0.658149 -0.142941 -0.942874 -0.598864 -1.07383 -0.267968 -0.6241
700 0.526813 -0.311308 0.329733 -0.774336 -0.0561866 -0.825736 -0.490898 -1.06633 -0.374178 -0.500092
2788 0.0605908 -0.400615 0.529852 -0.416101 0.151277 -0.700357 -0.183692 -0.532854 -0.0459923 -0.422859
964 0.384446 -0.481158 -0.202059 -0.359212 0.258301 -0.54714 0.193502 -0.297463 -0.0449227 -0.409528
261 0.5019 -0.634361 -0.409786 -0.579933 0.118229 -0.805151 0.154324 -0.290203 -0.0260064 -0.319705
1496 0.15384 -0.546807 -0.057227 -0.523096 -0.0914125 -0.684694 0.105517 -0.171581 -0.0407141 -0.407025
3593 0.288801 -0.276428 0.000757168 -0.362918 0.271481 -0.713196 0.027205 -0.133967 -0.0868369 -0.45001
1157 0.909946 -0.397468 -0.281258 -0.183536 0.923842 -0.711803 0.134662 -0.602256 -0.0174062 -0.725589
3841 0.320002 -0.570577 -0.000860515 -0.481173 0.246519 -0.738166 0.25855 -0.030886 0.0679246 -0.501413
1697 -0.422922 -0.954118 -0.154302 -0.422724 0.972316 -0.730486 0.732153 0.796934 0.498878 -0.788382
1352 0.541089 -0.720464 -0.286261 -0.359286 0.264249 -0.546195 0.288522 0.124175 -0.313013 -0.335026
4417 0.396125 -0.280935 0.22829 -0.543554 -0.0473781 -0.754224 0.112258 0.0852178 0.0657323 -0.198021
1794 0.686752 -0.424098 -0.371106 -0.396604 0.686663 -0.701484 0.304648 -0.632179 -0.14177 -0.335596
2765 0.569294 -0.363413 -0.146698 -0.284726 0.528171 -0.682466 0.219749 -0.328639 -0.086392 -0.446779
4107 0.287041 -0.218722 0.230624 -0.447323 -0.0358838 -0.722379 0.127231 0.080459 0.0165743 -0.196681
2110 0.498366 -0.272409 1.05817 -0.65159 -0.538627 -1.27383 0.129019 0.354412 -0.0615218 -0.17423
4501 0.457328 -0.302099 0.404349 -0.376548 -0.216793 -0.826382 0.283166 0.0502366 -0.0586269 -0.277172
3115 0.22438 -0.319767 0.194388 -0.497641 0.161663 -0.748656 -0.175637 -0.719155 -0.0607744 -0.487632
3171 0.0561874 -0.501411 0.763407 -0.665311 0.129244 -0.674036 -0.27262 -0.586586 -0.16486 -0.383166
1754 0.110639 -0.218281 -0.0710182 -0.886631 0.532904 -0.812005 -0.212978 0.717819 0.0813418 -0.257028
3643 0.320089 -0.201864 -0.036195 -0.494166 0.17076 -0.586517 0.0988723 -0.0746649 0.0164379 -0.335084
3173 0.262213 -0.262503 0.249619 -0.664632 0.0225319 -0.850081 -0.201322 -0.607614 -0.27497 -0.328688
4030 0.435647 -0.600079 -0.0640082 -0.73838 0.180506 -0.86402 0.342443 -0.262932 -0.0639504 -0.562993
666 0.9874 -0.444148 -0.321777 -0.219806 0.972896 -0.541322 0.541055 -0.474523 0.0223412 -0.973717
2488 0.467107 -0.367276 0.0259408 -0.545203 0.157335 -0.797815 0.0373145 -0.360172 -0.0480811 -0.418828
2490 0.342414 -0.403816 0.156911 -0.488312 0.105628 -0.649299 -0.0274862 -0.458756 0.11279 -0.453772
1365 0.341567 -0.314667 0.36904 -0.639933 -0.0730438 -0.805165 -0.507922 -0.616561 -0.0472967 -0.465697
2818 0.539279 -0.820213 -0.483229 -0.267187 0.230727 -0.763891 0.1808 -0.406916 -0.315458 -0.447242
1685 0.537752 -0.449676 0.611975 -0.419627 -0.289686 -0.717173 0.246117 0.348972 0.0695542 -0.390001
1531 0.353471 -0.39013 0.524217 -0.835246 -0.25798 -0.868202 -0.127686 0.0673286 -0.0540259 -0.102187
4843 0.300181 -0.377326 -0.0723308 -0.310251 0.18214 -0.610867 0.133977 -0.114833 0.0317101 -0.325481
3845 0.179783 -0.176425 0.0517123 -0.634633 0.322401 -0.732261 -0.0413826 0.352484 0.0277866 -0.286087
3844 0.140291 -0.223843 0.0331214 -0.533339 0.263649 -0.716334 0.0295019 0.216309 0.0394179 -0.28208
875 0.519195 -0.443258 -0.269233 -0.265537 0.622812 -0.635565 0.272533 -0.323105 -0.000834296 -0.479067
3000 0.527289 -0.353928 -0.194427 -0.368038 0.568104 -0.673211 0.136823 -0.306833 -0.0348432 -0.400035
767 0.37472 -0.425601 0.0962344 -0.528205 0.302206 -0.751367 0.100929 -0.202956 -0.0129607 -0.3649
1665 0.454786 -0.353217 -0.240481 -0.224412 0.802908 -0.651139 0.199786 -0.379738 -0.015664 -0.523161
138 0.397522 -0.431743 0.717579 -0.737421 -0.624264 -1.29244 0.0107427 0.396156 -0.315172 -0.042383
995 0.392039 -0.330735 0.740069 -0.553288 -0.38005 -1.20542 -0.392241 -0.212717 -0.410356 -0.0544495
2133 0.380203 -0.342713 0.147163 -0.440694 0.0518639 -0.750492 -0.221705 -0.459203 -0.0792917 -0.372153
585 0.350649 -0.206772 0.459612 -0.575275 -0.104891 -0.889757 -0.241726 -0.538358 -0.212684 -0.299798
2465 0.154674 -0.43168 0.399708 -0.547703 0.0546572 -0.801049 -0.298393 -0.532255 -0.173658 -0.439334
2103 0.226446 -0.331196 0.0518816 -0.508798 0.0115661 -0.571735 0.185214 -0.232535 -0.0446969 -0.383125
75 0.8819 -0.247647 -0.54708 -0.971703 -0.455029 -0.587029 1.21051 -0.32553 -0.5405 -1.19319
158 0.681791 -0.608518 -0.342106 -0.612436 -0.761794 -0.652382 0.885938 -0.255281 -0.388752 -0.84593
911 0.816143 -0.369527 -0.242729 -0.280739 0.58421 -0.618572 0.279021 -0.327056 -0.16561 -0.549788
1549 0.317108 -0.269665 0.322795 -0.775017 0.0121673 -0.840677 -0.292393 -0.884699 -0.218499 -0.388429
4819 0.534487 -0.400449 -0.133609 -0.300246 0.577827 -0.634107 0.197495 -0.319731 0.0105794 -0.492492
1897 0.540718 -0.304683 -0.139711 -0.473572 0.627158 -0.701522 0.0955982 -0.291475 -0.144848 -0.475524
1450 0.152093 -0.155553 0.150842 -0.658218 0.0357448 -0.873916 -0.304961 -1.02033 -0.228602 -0.502675
3417 0.491797 -0.306506 0.0029936 -0.295875 0.423264 -0.573228 0.130287 -0.224813 -0.11007 -0.484019
1379 0.658149 -0.0761157 -0.00206825 -0.261559 0.852448 -0.709605 0.108159 -0.0640571 -0.0549143 -0.527351
217 0.287777 -0.383848 0.0623581 -0.445089 -0.0191642 -0.669011 0.105288 -0.150461 -0.0671487 -0.406449
3160 0.385992 -0.509929 -0.418181 -0.3987 0.0103624 -0.952482 0.0944868 -0.474969 -0.366929 -0.142692
3079 0.326171 -0.443565 0.622145 -0.544976 -0.0525855 -0.762906 0.382777 0.0234397 0.247018 -0.24575
3084 0.302406 -0.361093 0.464656 -0.563461 0.126384 -0.778393 0.196646 -0.0483468 0.184735 -0.229089
1757 0.326036 -0.473783 -0.276932 -0.875469 0.138763 -0.634894 0.108656 -0.189047 -0.0658062 -0.209426
1646 0.270991 -0.443951 -0.218662 -0.739449 0.325235 -0.734708 0.0807773 -0.0323967 -0.0665654 -0.344077
3351 0.71997 -0.502577 -0.243821 -0.408898 0.474236 -0.514967 0.274137 -0.287244 -0.058615 -0.470572
1535 0.854745 -1.10562 -0.324704 -0.0236624 -0.145053 -0.580541 0.477958 0.0434584 0.410255 -0.601897
2595 0.427496 -0.73025 -0.198275 -0.579865 -0.14709 -0.630931 0.560818 -0.228643 0.00150964 -0.496297
1108 0.443222 -0.378842 -0.249255 -0.8451 -0.0194358 -0.743307 0.256581 -0.470474 -0.189681 -0.251544
2853 0.232433 -0.320374 0.46019 -0.461829 -0.0673587 -0.904268 -0.00911296 0.343056 0.0643351 -0.300661
1272 0.487051 -0.483133 0.909444 -0.250232 -0.56802 -1.09148 0.192897 0.321763 0.0710009 -0.317914
1940 0.447979 -0.212162 0.346789 -0.350294 -0.141573 -0.839134 0.150676 0.176009 -0.0786346 -0.312934
447 0.459973 -0.269603 0.763088 -0.510031 -0.226 -0.914021 0.156213 0.235046 -0.0520351 -0.254854
1848 0.300971 -0.0489664 0.0878171 -0.767943 0.58488 -0.9866 0.0618177 0.850665 0.140031 -0.428165
1849 0.35887 -0.253499 -0.039744 -0.672649 0.211317 -0.771628 0.0160288 0.516412 0.0651332 -0.516172
4867 0.228836 -0.124488 0.207921 -0.815407 0.575272 -0.899124 -0.134275 0.788078 0.235637 -0.344904
1361 0.958437 -1.36043 -0.257059 -0.839603 0.0488231 -0.141514 0.617159 -0.15796 -0.398726 -0.500602
1751 0.357279 -0.367698 0.537489 -0.465519 -0.234489 -0.802302 0.119227 0.335596 0.0052277 -0.334101
2654 0.224733 -0.169632 -0.0510514 -0.798328 0.364092 -0.742297 -0.0795825 0.603555 0.136833 -0.329649
4392 0.110168 -0.243762 0.319656 -0.658453 0.46977 -0.88593 -0.0480731 0.816774 0.191957 -0.365911
316 0.978779 -0.417743 0.857455 -0.618122 -0.639711 -1.06554 -0.114419 0.213878 -0.273845 -0.232062
2434 0.340344 -0.364413 0.953619 -0.538967 -0.294574 -1.08236 0.0929809 0.332349 0.0419442 -0.202835
4559 0.264958 -0.303397 0.532933 -0.50767 0.086022 -0.737125 0.234685 0.169496 0.258136 -0.314455
4562 0.405571 -0.289303 0.593714 -0.542785 -0.00866138 -0.806877 0.26531 -0.103512 0.257167 -0.181765
3147 0.212199 -0.27185 0.8303 -0.555481 -0.0012904 -0.712193 0.230331 0.0775131 0.301562 -0.191256
3149 0.334644 -0.198226 0.795548 -0.461287 -0.133754 -0.940894 0.273887 0.278794 0.0958689 -0.27982
2903 0.272836 -0.372623 -0.0342626 -0.592865 0.135157 -0.654238 0.0671863 -0.110018 -0.02572 -0.357526
659 0.456357 -1.50758 -0.992989 -0.141632 0.561977 -0.741758 0.494741 -0.0662798 -0.139621 -0.732918
658 0.371318 -1.59277 -0.901569 -0.0677545 0.597466 -0.717709 0.486608 0.0526154 -0.195188 -0.758737
508 0.852247 -1.41399 -0.622026 -0.503562 0.250271 -0.409962 0.23744 0.24699 -0.430204 -0.357958
2849 0.270062 -0.669638 -0.158158 -0.561972 0.0952211 -0.380054 0.239897 0.0101855 -0.114819 -0.751475
1724 0.102717 -0.428529 0.234562 -0.396241 0.0197118 -0.731852 -0.21261 -0.412595 0.0200402 -0.606471
1723 0.165707 -0.352271 0.305509 -0.417217 0.0916737 -0.782793 -0.300087 -0.488943 -0.0896073 -0.567229
844 0.195748 -0.30763 0.762634 -0.536668 0.0630799 -1.19602 -0.724641 -1.11113 -0.477985 -0.546229
2366 0.0231916 -0.619997 0.360383 -0.759459 -0.581728 -0.798612 -0.0745911 -0.184033 -0.0671358 -0.29953
998 0.33915 -0.368787 -0.121095 -0.878374 -0.147189 -0.925074 -0.000390422 -0.172656 -0.264265 -0.149217
3409 0.285601 -0.691443 -0.44332 -0.302812 0.00190748 -0.953656 0.0961576 -0.262689 -0.373669 -0.277885
4295 0.330477 -0.374307 -0.0677592 -0.291987 0.270476 -0.590209 0.0688846 -0.151299 -0.0560691 -0.350327
1872 0.315606 -0.201343 -0.0605579 -0.585887 0.0949298 -0.792983 -0.160638 -0.553951 0.00537727 -0.419406
721 0.479119 -0.30804 0.565884 -0.764575 0.123683 -0.896312 -0.48079 -1.31876 -0.514086 -0.594845
4292 0.209013 -0.420898 0.273434 -0.52775 0.122682 -0.600804 -0.16215 -0.443345 -0.0654819 -0.363729
2157 0.387772 -0.505976 -0.262618 -0.368404 0.219918 -0.666782 0.293179 -0.170453 -0.0805147 -0.405387
682 0.536182 -0.359452 0.655581 -0.647956 -0.0705247 -0.671284 0.327161 -0.0672457 0.255415 -0.242565
454 0.29399 -0.389419 0.372544 -0.559456 -0.42362 -0.802027 -0.0720802 -0.43251 -0.129236 -0.428352
3178 0.335938 -0.450426 0.0886625 -0.685233 0.0969964 -0.773109 -0.0276735 -0.402388 0.0358179 -0.41912
1594 0.286793 -0.203883 0.174339 -0.458803 0.039384 -0.964186 -0.129805 -0.543523 -0.201944 -0.492994
4333 0.347137 -0.423497 0.0909122 -0.498605 0.145323 -0.729062 0.0140097 -0.223537 -0.0471835 -0.313325
1360 1.19402 -1.5748 -0.299995 -0.591736 -0.299588 -0.135218 0.478353 0.00240547 -0.126695 -0.704238
1219 0.496343 -0.409879 -0.308804 -0.278066 0.673643 -0.71102 0.368918 -0.517002 -0.041405 -0.589027
3479 0.304523 -0.692334 0.0482245 -0.425876 0.151073 -0.522986 0.28232 -0.125795 -0.0716916 -0.522807
441 0.848504 -1.69622 -0.267687 -0.713418 0.130277 -0.152976 0.662423 -0.100357 -0.533582 -0.630129
2238 0.492145 -1.01572 -0.111814 -0.29284 0.179806 -0.502731 0.541061 -0.267805 -0.0573952 -0.582272
1258 0.805995 -0.341602 0.700257 -0.794364 0.00856635 -0.626366 0.569026 -0.439553 0.430178 -0.148879
2071 0.316737 -0.315653 0.595098 -0.583071 0.0666005 -0.73009 0.246296 -0.117906 0.241804 -0.200876
1356 0.0373546 -0.226526 0.117939 -0.433808 0.154097 -0.845103 -0.231905 -0.621058 -0.0123315 -0.658668
971 0.335705 -0.296841 0.589701 -0.601721 -0.16812 -1.03784 -0.562058 -0.639213 -0.308487 -0.310708
3452 0.174777 -0.31484 0.280927 -0.709757 0.155183 -0.719422 -0.174012 -0.578242 -0.155706 -0.307071
3473 0.38251 -0.556837 -0.257698 -0.237647 0.174286 -0.7656 0.118036 -0.221693 -0.21016 -0.34592
1231 0.591138 -0.480284 -0.419332 -0.629307 0.632308 -0.785372 0.198564 -0.422463 -0.183541 -0.331453
505 0.332217 -0.541317 -0.153418 -0.420981 0.00303382 -0.587048 0.445973 -0.243111 -0.127 -0.559662
1144 0.177725 -0.45013 -0.338735 -0.71471 -0.517767 -0.813876 1.34568 -0.457503 -0.821185 -1.18192
2139 0.394934 -0.315989 0.634672 -0.678197 0.015435 -0.719302 0.16764 -0.0783425 0.230514 -0.22814
415 0.503446 -0.20277 1.27757 -0.933347 0.0454565 -0.697977 0.423097 -0.224169 0.47452 -0.184365
3641 0.372109 -0.361834 -0.0358631 -0.464655 0.116615 -0.626086 0.193211 -0.0870739 -0.00341541 -0.378366
3642 0.35494 -0.55871 -0.181273 -0.34436 0.15213 -0.649251 0.215272 -0.0429796 -0.120531 -0.303558
936 0.480899 -0.326566 0.555064 -0.823911 0.0508165 -0.633771 0.484686 -0.330569 0.22197 -0.141152
428 0.936929 -0.313 1.51029 -0.850972 0.0701803 -0.863763 0.66379 -0.405156 0.793767 -0.0421435
718 0.894719 -0.424119 1.10107 -1.076 -0.343036 -0.778099 0.706043 -0.253155 0.268941 0.11662
3461 -0.0419909 -0.415954 -0.187191 -0.892944 0.634934 -0.687476 -0.076241 0.129641 0.159761 -0.193442
3940 0.0845055 -0.418464 -0.081745 -0.797568 0.33386 -0.702788 -0.0159381 0.164238 0.152839 -0.174535
4497 0.274293 -0.367431 0.0161131 -0.38922 0.325827 -0.715413 -0.0453011 -0.489059 -0.0332566 -0.6265
242 0.222957 -0.500919 0.263847 -0.559341 -0.255093 -0.792219 -0.434701 -1.01515 -0.0341386 -1.02495
1508 0.24714 -0.332098 0.188614 -0.592007 0.0879795 -0.859716 -0.457016 -1.00889 -0.227611 -0.640877
793 0.351364 -0.41942 0.307158 -0.699608 0.069221 -0.859405 -0.480937 -0.736247 -0.0955805 -0.51757
1561 0.244435 -0.295574 0.114848 -0.382166 0.111117 -0.667103 -0.0136093 -0.143815 0.054906 -0.42495
1105 0.471645 -0.298217 0.335528 -0.848696 -0.0475714 -0.858508 -0.359197 -0.536836 -0.212469 -0.208844
4823 0.25598 -0.328994 0.0708294 -0.4479 0.216166 -0.663482 -0.0267195 -0.204172 -0.060217 -0.441714
1117 0.444591 -0.472244 -0.235121 -0.514463 0.0228195 -0.694587 -0.000155929 -0.265901 0.0362967 -0.26005
946 0.262389 -0.722384 -0.201508 -0.803618 -0.522351 -0.784196 -0.0264771 -0.00092119 -0.158219 -0.364154
4186 0.130048 -0.398756 -0.0415876 -0.368887 0.208016 -0.6164 0.101199 -0.0597154 -0.035186 -0.258128
2766 0.366437 -0.421332 -0.173907 -0.440281 0.239599 -0.775843 0.205261 -0.324771 -0.14742 -0.250625
3054 0.49589 -0.635288 -0.267965 -0.56651 0.229238 -0.770515 0.0475889 -0.248729 0.048383 -0.518026
1978 0.344556 -0.227644 0.663664 -0.406408 -0.236199 -0.984833 0.120108 0.285168 0.0642193 -0.240798
2657 0.114535 -0.826387 0.321336 -1.1604 -1.12127 -0.958391 -0.000531074 0.0167878 -0.16934 -0.123543
3617 0.351906 -0.254778 0.656385 -0.594881 0.182999 -0.756282 0.262115 0.0691031 0.181657 -0.25942
3616 0.236803 -0.315667 0.898141 -0.598407 -0.0133525 -0.930453 0.228109 0.190111 0.286296 -0.297982
4156 0.20153 -0.413639 -0.153379 -0.496073 0.280192 -0.66106 0.0949756 -0.12232 0.123503 -0.311849
3045 0.315862 -0.59369 -0.544787 -0.619609 0.252714 -0.716381 0.0516785 -0.160881 0.395893 -0.206278
1699 -0.286247 -1.65511 -0.472637 -0.318607 1.36571 -0.794128 1.51729 0.847345 0.516401 -1.18581
665 1.19005 -0.229513 -0.324613 -0.294715 1.00356 -0.527432 0.716166 -0.448826 -0.404516 -1.12747
295 1.11866 -0.853339 -0.193306 -0.474157 -0.161558 -0.245256 0.460791 0.309515 0.124149 -0.782891
4512 0.210784 -0.374196 -0.0538189 -0.471896 0.189844 -0.687406 0.057873 -0.0556585 0.00200741 -0.314963
4264 0.140439 -0.342413 0.367523 -0.531625 0.147433 -0.65974 0.130207 -0.078584 0.248241 -0.22159
3588 0.348372 -0.4246 -0.102706 -0.596968 0.149326 -0.802432 0.161944 -0.168566 -0.0113582 -0.314904
3586 0.4218 -0.477947 -0.16058 -0.801751 0.00095101 -0.804781 0.224262 -0.322322 -0.00857775 -0.324544
810 0.620205 -0.333536 0.170218 -0.572686 -0.116403 -0.805797 -0.0690415 -0.0816266 -0.0449855 -0.265677
2464 0.0828736 -0.511359 0.50886 -0.6715 -0.0342638 -0.783267 -0.308125 -0.453845 -0.186945 -0.333242
2953 0.29862 -0.341173 0.122713 -0.59036 0.0859265 -0.708353 -0.116927 -0.398379 -0.0149756 -0.401466
1037 0.542418 -0.27042 1.01789 -0.696778 -0.435184 -1.02526 -0.0740765 -0.453237 -0.0641921 -0.263853
1025 0.152594 0.00761224 0.218229 -0.963216 0.849077 -1.2835 -0.0852955 0.990827 0.073883 -0.329315
654 0.107601 -0.142521 0.13205 -0.932979 0.664824 -1.12284 -0.081891 0.98942 0.290518 -0.354232
2351 0.129063 -0.218775 0.0943837 -0.820475 0.599391 -0.898739 -0.0771547 0.824112 0.155418 -0.368781
1965 0.52419 -0.0579162 0.418307 -1.30619 0.55841 -1.11759 -0.0457686 1.20568 -0.0727458 -0.283619
3250 0.232826 -0.108068 0.199786 -0.92782 0.663123 -0.816177 -0.0659726 0.854388 0.0951697 -0.373682
474 0.119941 -0.822688 -0.542588 -1.47721 0.255471 -0.668392 0.036792 -0.0928017 0.0558037 0.0869364
1283 -0.0857855 -0.525438 -0.293193 -0.197882 0.238908 -0.794198 0.376606 -0.952098 0.0437554 -1.22155
4874 0.236957 -0.271995 0.111992 -0.334389 -0.0566921 -0.549722 0.0339308 0.0280745 0.0713193 -0.320953
4029 0.407112 -0.350434 -0.116672 -0.409675 0.112485 -0.585549 0.092845 -0.190905 0.000192256 -0.349112
608 1.06671 -0.448049 -0.382628 -0.251291 0.929287 -0.788637 0.411979 -0.755458 -0.270808 -0.693012
2769 0.484268 -0.372042 -0.200829 -0.281898 0.518833 -0.735689 0.143678 -0.301636 -0.146705 -0.47508
4994 0.470052 -0.381811 -0.200049 -0.186013 0.54389 -0.503324 0.169036 -0.243106 0.0014113 -0.491092
2132 0.304842 -0.210565 0.460766 -0.597822 -0.0843479 -0.825308 0.159018 0.123878 -0.00987328 -0.266239
469 0.20611 -0.446747 0.0673385 -0.57096 -0.232147 -0.700571 0.0301084 -0.18166 -0.147602 -0.269513
678 0.626553 -0.324642 0.936437 -0.997535 0.0211455 -0.683651 0.407652 -0.0218366 0.396984 -0.0466159
4988 0.26618 -0.297692 0.648808 -0.490458 -0.0726799 -0.854529 0.199026 0.149786 0.13374 -0.235467
3909 0.342332 -0.595537 -0.353523 -0.190959 0.116422 -0.826238 0.0641911 -0.313092 -0.263539 -0.297387
2517 0.315976 -0.386059 -0.0794347 -0.701465 0.293123 -0.924721 0.178299 0.0578617 0.0082208 -0.364125
455 0.419051 -0.164964 0.428284 -0.503696 -0.232378 -0.903717 0.0792036 0.164656 -0.0451981 -0.275873
1078 0.40473 -0.1323 0.258303 -0.828321 0.0785205 -0.692281 -0.0184559 -0.49007 0.121295 -0.272872
3268 0.370642 -0.388017 0.794887 -0.610999 -0.0887297 -0.756099 0.479092 -0.116632 0.340709 -0.169461
1137 0.294341 -0.458572 0.0778361 -0.808544 -0.519433 -1.06969 -0.050547 0.107057 -0.326259 -0.0879319
3535 0.280287 -0.348506 0.38781 -0.48172 -0.0859227 -0.79922 -0.0212689 0.0378322 -0.00270838 -0.217466
57 1.38513 -0.264211 0.944661 -0.10671 -0.857593 -1.5337 0.231415 0.0893248 -0.339351 -0.279071
2599 0.387473 -0.575216 -0.253034 -0.430829 0.114104 -0.514372 0.404672 -0.243559 -0.0951754 -0.583458
337 0.164197 -0.817805 -0.666115 -0.391533 -0.366599 -0.718936 0.736983 -0.398112 -0.453496 -1.11425
504 0.513268 -0.408668 -0.481263 -0.599737 -0.143531 -0.697273 0.855281 -0.388071 -0.418053 -0.669867
1145 -0.0632797 -0.487548 -0.401816 -0.706251 -0.29516 -0.831899 1.42092 -0.196703 -0.709468 -1.1675
1493 0.29022 -0.445967 -0.285487 -0.217271 0.291162 -0.678977 0.0786627 -0.114559 -0.157779 -0.408321
812 0.459427 -0.467469 -0.0972429 -0.954124 -0.565453 -0.895068 0.0533894 -0.279666 -0.215438 -0.0918515
2831 0.369905 -0.357708 0.778054 -0.672079 0.0820348 -0.720222 0.435963 -0.142675 0.279385 -0.15423
1152 0.318616 -0.23256 0.387608 -0.587849 0.0154642 -0.798092 -0.120216 -0.494004 -0.0148253 -0.341237
1053 0.701708 -0.40902 0.434365 -0.627277 -0.683003 -1.09268 0.170048 -0.0117814 -0.452516 -0.0479501
4991 0.2229 -0.296436 0.579367 -0.498806 -0.0394008 -0.695753 0.0980146 0.086259 0.225095 -0.342304
3003 0.179415 -0.533921 -0.198514 -0.946919 0.157926 -0.86088 -0.0299445 -0.040258 -0.0755878 -0.319282
169 0.386595 -0.484189 -0.226064 -1.17627 -0.595652 -0.822024 0.247771 -0.488479 -0.416427 -0.268938
1323 0.742583 -0.571428 -0.0926605 -0.399644 0.667964 -0.924779 0.186229 -0.254872 -0.0982821 -0.693556
3170 0.0928795 -0.638152 0.76492 -0.576721 0.0597298 -0.615898 -0.351334 -0.778858 -0.0930141 -0.481624
2002 0.397891 -0.453211 -0.149108 -0.454982 0.417348 -0.601581 0.301384 -0.254967 -0.0463165 -0.380718
1122 0.904497 -0.172045 -0.0843154 -0.318087 1.21597 -0.699813 0.228188 -0.209477 -0.0607096 -0.5237
2873 0.273539 -0.371473 -0.113085 -0.53637 0.0417861 -0.771515 0.0797638 -0.240154 -0.0845081 -0.246856
630 0.118539 -0.386293 0.815551 -0.57164 -0.3552 -1.03625 -0.273357 -0.0384003 -0.213358 -0.287432
3760 0.152176 -0.35688 0.330164 -0.563715 -0.115196 -0.854168 0.0655294 0.150913 -0.0649459 -0.312361
1657 0.273961 -0.402622 0.572277 -0.71881 -0.319004 -0.945252 0.0109482 0.184189 0.047267 -0.271892
