5003 10
2924 -0.0441625 -0.326703 0.337187 -0.760995 -0.263492 0.171186 0.176318 0.637713 0.20169 -0.092586
1 -0.759563 -0.53977 0.490763 -0.723147 -1.47587 0.676629 -0.295437 0.799707 -1.61488 -0.654188
71 0.442345 -0.625243 0.689397 -0.656412 -0.814046 0.852768 -0.71279 0.954894 -0.759398 -0.905368
2278 0.59727 -0.334958 0.368652 -0.659628 -0.245473 0.606301 -0.0584046 0.844909 0.0530014 -0.567913
134 0.709712 -0.705545 0.814444 -0.623207 -0.701098 0.853249 -0.607062 0.823524 -0.29521 -0.96341
457 0.748247 -0.333443 0.344962 -0.76984 -0.352997 0.878564 0.224623 0.884723 -0.106915 -0.441358
1230 0.587097 -0.310364 0.438945 -0.637291 -0.183241 0.607333 0.0416736 1.02279 0.0873964 -0.577779
2298 0.511943 -0.298514 0.434271 -0.619853 -0.254818 0.556279 -0.0188408 0.924073 0.134083 -0.508417
1273 0.69878 -0.453544 0.496727 -0.593489 -0.275973 0.79398 -0.0710051 1.04232 0.0948714 -0.709227
884 -0.377271 -1.34141 0.468905 -0.726971 0.198047 -0.293976 0.655139 1.44531 0.30588 -0.46513
1695 0.086186 0.0814574 0.558454 -0.866774 0.785516 0.574776 0.909797 1.14723 0.120438 -0.758712
3841 0.0901442 -0.0958432 0.375047 -0.88613 -0.11751 0.299467 0.103023 0.55036 0.0909586 -0.163954
30 0.000970764 -0.153857 0.258268 -1.17737 -0.2509 1.08729 0.25158 0.409444 -0.917726 -0.908004
132 0.658079 -0.386234 0.307097 -1.11554 -0.0527749 1.00878 -0.0740892 0.579913 -0.650819 -0.424189
31 0.0448549 -0.502374 0.118467 -1.43346 -0.264252 1.17516 0.0903174 0.169186 -1.0628 -0.71869
66 -0.0960728 -0.485761 -0.230452 -1.52851 -0.148033 1.15683 -0.422001 0.778734 -1.12399 -0.0815712
170 0.300356 -0.478754 -0.0786149 -1.4475 -0.398947 1.45108 -0.380525 0.630538 -0.759437 0.0598762
1727 -0.0259508 -0.231419 0.355312 -0.701147 -0.184297 0.209596 0.23283 0.524943 0.133125 -0.0895502
669 0.500491 -0.0783598 0.392829 -0.693365 -0.155793 0.677649 0.186397 0.813206 0.047082 -0.408375
4293 0.377523 -0.133384 0.306534 -0.74028 -0.131917 0.569858 0.0798774 0.626033 0.0652364 -0.212395
1198 0.351243 -0.156414 0.321376 -0.708763 -0.139261 0.529376 0.122507 0.84405 0.0261576 -0.306241
114 -0.341643 -0.337465 0.376192 -0.95051 -0.856035 -0.0615942 0.239132 0.607621 -0.708778 -0.142742
61 -0.527952 -0.900416 0.813236 -0.767571 -1.06549 0.75041 0.069111 0.226573 -0.456941 -0.0948633
822 -0.263394 -0.374832 0.547229 -1.15231 -0.615845 0.111031 0.0383717 0.146042 0.0872577 0.013866
54 -0.250875 -0.28346 0.780673 -1.54201 -0.951437 -0.296561 -0.221884 -0.114278 -1.10062 -0.697801
234 -0.450838 0.286202 0.503925 -1.63444 -0.371895 0.432472 -0.942008 0.30836 -0.444049 -0.445007
4880 -0.13238 0.025264 0.519041 -0.901132 -0.183475 0.0623917 0.00121886 0.478803 0.074446 -0.117704
1509 -0.148932 -0.221202 0.600879 -1.11452 -0.456597 0.10561 -0.103822 0.408205 0.140501 -0.047955
4858 0.390649 -0.240419 0.31348 -0.745306 -0.259975 0.560356 0.100274 0.692522 -0.010402 -0.350683
204 -0.652936 -1.125 0.354129 -1.08036 0.484067 0.025609 0.386609 1.06434 -0.20081 -0.747043
4448 -0.289218 -0.495441 0.571692 -0.725146 0.199684 -0.241667 0.199607 0.756882 0.041334 -0.402352
53 -0.581914 -0.521804 0.500306 -1.41129 -0.68102 -0.496555 0.168571 0.115356 -0.878598 -1.0045
1269 -0.28719 -0.411168 1.07196 -1.59807 -0.171643 -0.0589708 -0.0552984 -0.305683 -0.18088 -0.0711906
55 -0.0977182 -0.693804 0.824639 -1.50484 -0.989203 -0.294525 -0.0828682 -0.291079 -0.833724 -0.658619
304 -0.217661 -0.389254 0.489567 -1.2419 -0.994633 -0.0813595 0.204112 0.219723 -0.256349 0.239617
2408 0.0182114 -0.252437 0.394332 -0.833852 -0.258617 0.241036 0.0795824 0.442092 0.135705 -0.0421867
2410 -0.10367 -0.332741 0.475314 -0.974195 -0.319692 0.110091 0.192842 0.355528 0.145674 -0.0127782
2627 -0.32212 -0.392727 0.54404 -0.877329 0.202385 -0.225609 0.131726 0.647331 0.085418 -0.386381
2 -0.740706 -0.528313 0.591582 -0.655152 -1.53447 0.661524 -0.326778 0.830113 -1.69147 -0.52259
2234 0.268093 -0.0394429 0.216508 -0.727816 -0.696187 0.413078 0.212213 0.74274 0.441427 -0.115765
701 0.0898026 0.0413401 0.276336 -1.00351 -1.58178 0.43257 0.17777 0.724237 0.528722 0.186287
1485 0.159423 0.176064 0.268789 -0.90589 -1.11482 0.270144 0.197058 0.828083 0.476315 0.0292394
182 -0.210256 -0.0625999 0.172132 -0.935491 -1.48024 0.312732 -0.0748643 0.850432 -0.029736 -0.252665
25 0.0406199 -0.203258 0.458899 -1.11526 -1.69095 -0.345101 -0.431712 0.747277 -0.421503 0.105224
3459 -0.0834108 -0.161803 0.353483 -0.888432 -0.508369 0.018932 0.0425732 0.442053 0.26999 0.0225491
1763 -0.605849 -0.749285 0.790197 -1.067 0.288527 -0.37885 0.191872 0.752387 0.0867695 -0.534366
1206 -0.364601 -0.461886 0.642069 -0.864107 0.296035 -0.310475 0.249608 0.898611 0.205879 -0.474488
1172 -0.120851 -0.206779 0.514705 -0.900829 0.0548022 0.110857 0.135632 0.531125 0.0572001 -0.186612
2409 0.0481725 -0.224935 0.353505 -0.87704 -0.320695 0.115484 0.210946 0.542789 0.145712 -0.0303694
456 -0.0663246 -0.2998 0.471775 -1.04069 -1.1142 0.0636664 0.424863 0.30346 0.288746 0.383242
24 -0.20941 -0.362445 0.547073 -0.908116 -1.62143 -0.164109 -0.182948 0.572864 -0.499623 -0.322978
1488 -0.072552 -0.0451543 0.265356 -0.853719 -1.2427 0.190971 0.0510927 0.853862 0.496143 -0.0982796
1093 0.235439 -0.193054 0.525018 -0.991991 -0.394422 1.05321 0.335947 0.218496 -0.139257 -0.10748
3300 -0.31487 -0.45472 0.60922 -0.789757 0.298688 -0.206972 0.265238 0.710468 0.0880393 -0.439384
3299 -0.257919 -0.443945 0.53168 -0.795855 0.0483516 -0.0962837 0.142666 0.617763 0.12189 -0.328593
1023 -0.741259 -1.02991 0.583751 -1.19605 0.472475 -0.202433 0.375647 0.858198 -0.321131 -0.664023
1791 -0.390697 -0.650316 0.574526 -0.873943 0.26928 -0.299642 0.219461 0.762838 0.0949938 -0.484996
210 -0.62881 -1.22768 0.511348 -1.23457 0.421982 -0.242426 0.328094 0.797437 -0.417644 -0.630095
590 -0.622962 -0.888746 0.660104 -1.04115 0.346198 -0.32093 0.248738 0.963189 -0.0482011 -0.607571
1315 -0.558664 -1.12807 0.532955 -1.13829 0.523838 -0.227445 0.616077 1.05589 -0.193821 -0.641903
211 -0.504891 -1.058 0.518426 -1.16127 0.345082 -0.294129 0.158411 0.92404 -0.385603 -0.693964
209 -0.622609 -1.08308 0.404704 -1.21564 0.391307 -0.207449 0.1758 0.88841 -0.321832 -0.778687
1175 -0.098196 0.0516126 0.370185 -0.930362 -0.718358 0.0649526 -0.0809201 0.629591 0.198747 0.0659572
2173 -0.155028 0.281576 0.623741 -1.17623 -0.100085 0.0576275 -0.200818 0.329835 0.160242 -0.108299
4175 0.201262 -0.10786 0.306868 -0.846714 -0.130466 0.421657 0.191875 0.691614 -0.0178074 -0.119513
568 0.350707 0.0154437 0.142026 -0.814597 -0.233213 0.690917 0.279387 0.853371 -0.0325553 -0.117278
3619 -0.174984 0.139159 0.687441 -1.28741 0.0222747 0.123627 -0.164578 0.226465 0.0493509 -0.138971
340 0.302202 -1.47279 -0.327219 -1.32912 -0.752568 0.722355 0.329138 0.548599 -0.555387 0.0911558
4337 0.0312865 -0.276759 0.307765 -0.76179 -0.171964 0.209007 0.0997738 0.513609 0.0840577 -0.0607737
4336 -0.0283801 -0.322591 0.316518 -0.827269 -0.082101 0.183415 0.0936434 0.517102 0.102462 -0.100836
110 -0.38782 -1.12524 0.641851 -0.648008 -0.673441 0.542547 0.274557 0.596869 -0.297205 0.0524817
433 0.166021 -1.54576 -0.284826 -1.27705 -0.866399 0.768712 0.35886 0.51656 -0.708791 0.0607178
1067 0.204641 -1.48945 -0.391567 -1.38355 -0.9606 0.811841 0.239607 0.443973 -0.488425 0.162106
437 0.555604 -1.6737 -0.445358 -1.43872 -0.902572 0.750515 0.741814 0.59734 -0.610631 0.21119
3 0.0878384 -1.23904 -0.312868 -1.28452 -0.966202 0.722264 0.0788535 0.570616 -1.03769 -0.240782
860 0.436958 -1.05007 0.0010012 -0.990235 -0.435653 0.807539 0.322726 0.756642 -0.445252 -0.0305535
4 0.398002 -1.32481 0.0767491 -1.12462 -0.522128 0.743931 0.650588 0.407388 -0.448265 0.214984
43 0.603414 -1.21694 -0.160197 -1.18445 -0.524698 0.900882 0.452514 0.830461 -0.641254 -0.0471643
4204 -0.212837 -0.341753 0.439849 -0.636682 0.0818345 -0.0695021 0.225759 0.571565 0.0998987 -0.341983
461 0.120648 -0.231681 0.18585 -0.927255 0.0239892 0.627224 0.416984 0.66964 -0.347913 -0.133484
424 -0.463633 0.562318 0.819658 -1.50517 -0.317053 0.183031 -0.728543 0.424182 -0.0491093 -0.380588
744 -0.447669 0.13736 0.753166 -1.40637 -0.343806 0.283241 -0.631049 0.256604 -0.0523309 -0.144084
2486 -0.205886 0.111581 0.525242 -1.02932 -0.119269 0.011854 -0.133611 0.403491 0.165806 -0.0786235
4098 -0.250225 0.00956927 0.591454 -1.10682 -0.201119 0.062698 -0.201563 0.390229 0.184719 -0.0787299
298 -0.152063 -0.766392 0.589958 -0.881729 -0.766622 0.147262 0.403057 0.364974 -0.246605 0.148505
2259 -0.217555 -0.48041 0.471315 -0.741742 0.200534 -0.141288 0.236527 0.823576 0.18006 -0.413845
2886 -0.390978 -1.05509 0.054264 -0.709971 -0.400935 -0.175577 0.567877 1.04442 0.130677 -0.180621
2020 -0.456293 -0.479421 0.894567 -1.3965 -0.376754 -0.301128 -0.0696911 -0.015534 0.00341134 -0.0840092
60 -0.45772 -0.604697 0.885626 -1.62452 -0.623037 -0.14783 -0.159736 -0.227321 -0.140589 -0.00874798
3359 -0.285732 -0.40004 0.639381 -1.07906 -0.35753 0.0995032 -0.109026 0.183094 0.0607167 -0.0703721
3968 0.000232117 -0.285924 0.449761 -0.722364 -0.186335 0.101241 0.0988961 0.60536 0.139673 -0.157265
3960 -0.0570671 -0.33513 0.407135 -0.825161 -0.292164 0.12722 0.089532 0.62415 0.192765 -0.130045
200 -0.453844 -0.69281 0.601319 -0.909998 -0.762088 0.504354 0.16158 0.258818 -0.211335 -0.0904438
74 -0.439412 -0.266125 0.825096 -0.732566 -0.916829 1.57401 0.692947 0.247775 -0.377245 -0.390656
2161 0.168088 -0.122159 0.387502 -0.770388 -0.0261792 0.410788 0.291214 0.589526 0.123187 -0.278008
2158 0.229005 0.0971669 0.471873 -0.801571 0.375821 0.653056 0.457813 0.788147 0.0732934 -0.398184
1701 0.237338 0.0123384 0.525835 -0.873167 0.719999 0.461676 0.644749 1.09383 0.00268129 -0.74362
14 -0.373985 -1.16141 0.0449363 -0.661618 0.0145795 0.0542391 0.557908 1.37286 0.192068 -0.111534
468 0.433005 -0.611382 -0.0595286 -1.32387 -0.0815654 1.15943 0.322436 0.651305 -0.555164 0.0729005
33 0.225488 -0.629763 -0.0157038 -1.53334 0.012657 1.08453 0.11577 0.443623 -0.901929 -0.0065387
4251 -0.488621 -0.716522 0.712774 -0.914848 0.401276 -0.362898 0.20927 0.891489 -0.0287439 -0.610655
1966 -0.47095 -1.03337 0.651402 -0.952633 0.447805 -0.221794 0.118673 0.991279 -0.00146126 -0.695063
898 -0.442564 -0.902474 0.496259 -0.800388 0.344981 -0.303329 0.469964 1.36283 0.302624 -0.577586
1880 -0.315721 -0.622477 0.500851 -0.720117 0.194088 -0.242583 0.389451 1.17498 0.307719 -0.599483
897 -0.433419 -1.03642 0.530226 -0.815305 0.3227 -0.257098 0.458724 1.35979 0.417023 -0.689747
2251 -0.343845 -0.793355 0.517216 -0.818065 0.358054 -0.223475 0.348244 1.03355 0.167949 -0.578035
674 -0.141722 -0.687288 0.300582 -0.935367 -0.0934292 0.358667 0.119779 0.434814 -0.0653274 0.163555
4900 -0.383733 -0.660562 0.54066 -0.831116 0.297249 -0.302164 0.217295 0.980323 0.122296 -0.521029
3624 -0.534154 -0.807706 0.63363 -0.963575 0.342858 -0.46354 0.303996 0.998997 0.0992183 -0.587434
3288 -0.257242 -0.379567 0.513518 -0.829578 0.129984 -0.177087 0.242607 0.627636 0.127207 -0.252781
239 0.114131 -0.214753 0.406771 -0.817182 -0.81483 0.0842981 -0.208314 0.941221 -0.157128 0.115978
4655 -0.165116 -0.203904 0.521538 -0.867052 -0.307228 0.019354 0.144668 0.310842 0.229019 -0.0555238
954 -0.279478 -0.678483 0.764681 -1.35261 -0.680956 0.00544166 -0.0970518 -0.121243 -0.0425263 -0.113561
179 -0.30786 -1.17156 0.776712 -0.754429 -0.41225 0.0450361 0.269245 0.476813 -0.217895 -0.130598
156 0.256825 -0.409586 0.35949 -0.898999 -0.431332 0.852145 0.589919 0.442657 -0.240165 0.0801885
4852 0.22213 -0.251398 0.361048 -0.761642 -0.375463 0.519897 0.194117 0.524716 0.0243049 -0.109581
4854 0.129823 -0.243516 0.38884 -0.818019 -0.264968 0.434051 0.16903 0.58235 0.0598566 -0.088865
4407 0.289069 -0.190037 0.294801 -0.605929 -0.181491 0.381123 0.14116 0.641576 0.0506014 -0.280983
2604 0.249495 -0.258318 0.443978 -0.556897 0.00170583 0.25428 0.0652889 0.809042 0.0394375 -0.523219
358 -0.568844 -1.07661 0.825549 -0.887373 0.192134 -0.255835 0.211996 0.884146 -0.0133772 -0.629214
3677 -0.293286 -0.532092 0.528697 -0.775777 0.0601158 -0.183199 0.181032 0.706309 0.123259 -0.397823
52 -0.601191 -0.536508 0.466136 -1.44903 -0.719703 -0.440343 0.0999503 0.0729153 -1.02216 -1.03205
648 -0.419553 -0.917184 0.597553 -0.886988 0.266989 -0.316007 0.445907 0.942959 0.13658 -0.511355
115 -0.258951 -0.872568 0.33488 -0.690615 -0.202342 0.106379 0.636319 0.951037 -0.482945 -0.317837
193 0.688504 -0.58122 0.700935 -0.523063 -0.686223 0.783614 -0.164462 0.862154 0.0531346 -0.71281
3021 0.457345 -0.354186 0.258547 -0.65119 -0.140752 0.556761 0.0911503 0.790374 0.0340085 -0.407237
2594 0.0417129 -0.207026 0.531822 -0.869511 -0.29999 0.644516 0.103421 0.347431 -0.0577452 -0.133918
1417 -0.133225 -0.401744 0.543633 -0.866656 -0.3309 0.0186383 0.143627 0.352096 0.131049 -0.0475276
62 -0.279374 -1.05973 0.846828 -0.951328 -0.86075 0.436494 0.170164 0.0470188 -0.206725 0.157751
140 -0.342809 -1.01313 0.780062 -1.0381 -0.877933 0.307445 0.154906 0.0282686 -0.0528339 0.308237
1921 -0.0433844 -0.233907 0.18324 -0.799253 -0.660219 0.210966 0.188576 0.682221 0.355484 0.00824307
2098 0.0979024 -0.032291 0.227366 -0.840212 -0.881299 0.305426 0.200937 0.588582 0.370961 0.0245577
710 -0.0659771 0.183897 0.15552 -1.17211 -1.20913 -0.0360249 0.32753 0.601334 0.49718 0.383068
252 0.0237624 0.0272537 0.116113 -0.956689 -1.4284 0.101677 0.429176 0.909883 0.651454 0.262877
3656 0.12394 -0.0465636 0.287224 -0.800951 -0.402179 0.311944 0.171236 0.678805 0.240566 -0.0949524
3719 -0.00505899 -0.327459 0.3777 -0.747198 -0.219169 0.0945778 0.0958905 0.503616 0.105177 -0.0806852
18 -0.115009 -0.911852 0.477288 -0.764785 -0.561445 0.882894 -0.0331243 0.753701 -0.734063 0.00671784
3378 0.312317 -0.675569 -0.0108149 -0.950954 -0.363572 0.74469 0.520831 0.646267 -0.10913 0.151718
1582 0.24569 -0.643157 0.109048 -1.30168 0.265402 0.963031 0.324842 0.516007 -0.797188 -0.24612
171 0.0740756 -0.676447 -0.0955342 -1.5514 -0.0819745 1.38069 -0.211697 0.528707 -0.946679 0.0462923
1629 -0.22271 -0.0396789 0.21598 -1.07903 -1.13187 -0.036191 -0.151284 0.7311 0.273075 0.392288
3290 -0.0651577 -0.264156 0.429328 -0.706095 -0.0149134 0.0545411 0.174171 0.582939 0.164915 -0.201525
1564 -0.317438 -0.595916 0.507697 -0.805848 0.0761263 -0.073866 0.0918346 0.859766 0.0287003 -0.340817
2722 -0.0730423 -0.114065 0.266448 -0.868713 -0.75263 0.0292023 0.158302 0.750833 0.347722 0.118937
51 -0.271778 -0.147075 0.936913 -1.69637 -0.134884 -0.126156 0.00404216 -0.295219 -0.391683 -0.223035
1768 -0.623108 -1.07714 0.582919 -1.08714 0.486365 -0.115551 0.0908282 0.960285 -0.23676 -0.707984
2380 -0.215621 -0.555964 0.446633 -0.842067 0.160421 0.0413819 0.189647 0.710083 -0.120417 -0.303693
2500 -0.110813 -0.55178 0.462974 -0.839902 -0.236567 0.142558 0.210934 0.388261 0.0828858 -0.106047
1589 -0.0434615 -0.333216 0.478195 -0.864729 -0.230304 0.221893 0.168265 0.376702 0.107106 -0.104557
1138 -0.367209 -0.602552 0.822948 -1.38301 -0.454122 -0.32177 0.0961305 -0.106058 -0.130706 0.0188124
1748 -0.42394 -0.690641 0.737644 -1.32614 -0.452629 -0.127602 0.0334495 -0.0812689 -0.015024 0.00149117
47 -0.42164 -0.794434 0.936365 -1.31464 -0.710839 -0.00318246 -0.24208 -0.123988 -0.638475 -0.586072
426 -0.34778 0.539646 0.903869 -1.65029 -0.207752 0.186028 -0.495481 0.141175 -0.282976 -0.254636
3528 -0.369232 0.564617 0.605107 -1.43233 -0.195087 -0.0118431 -0.32329 0.475803 0.116487 0.042076
863 0.476851 -0.484833 0.0613155 -0.747877 -0.34736 0.638061 0.327407 0.743519 -0.00296372 -0.114953
63 -0.21415 -0.847231 0.853581 -1.01576 -0.827994 0.159803 0.180282 0.0268055 -0.172023 0.0572461
143 -0.336847 -0.601268 0.759229 -1.36362 -0.496215 -0.102745 0.204938 -0.15236 -0.139688 0.0792989
3321 0.124288 0.0596499 0.18199 -0.779944 -0.83666 0.227132 0.254734 0.730775 0.402535 0.138663
916 -0.122904 -0.071583 0.126843 -0.921306 -1.26575 -0.110407 0.259673 0.964325 0.505054 0.238032
137 -0.158804 -1.09887 0.662644 -1.20131 -1.00115 0.174768 -0.659819 5.12275e-05 -0.646468 -0.542325
1248 -0.0901902 -0.306383 0.452477 -0.923085 -0.455074 0.0334388 0.00698651 0.421703 0.189506 -0.0225723
587 0.0607491 -0.175697 0.301208 -0.881964 -0.560176 0.0816885 0.0522844 0.558798 0.176172 0.0380443
588 -0.222476 -0.164141 0.370628 -0.912602 -0.593885 0.049688 -0.0785855 0.660683 0.143856 0.162351
518 -0.151685 -0.82681 0.304381 -0.946032 -0.432373 0.46156 -0.147391 0.513595 -0.295138 0.332776
388 -0.282139 -0.380864 0.462993 -0.8357 -0.502786 0.205348 -0.30018 0.819571 -0.320737 -0.330612
4488 0.354663 -0.450756 0.0707412 -0.821636 -0.31503 0.627626 0.433073 0.521933 -0.094015 0.0331278
6 0.363503 -1.05013 -0.0762483 -1.16257 -0.561099 0.709293 0.605263 0.452334 -0.401017 0.252776
299 -0.119203 -0.806666 0.561918 -0.94604 -0.75705 0.255256 0.310721 0.260937 -0.177869 0.234381
584 -0.011656 -0.65101 0.513464 -1.11469 -1.27959 -0.283767 -0.388458 0.470169 -0.135452 -0.0235023
1011 -0.391793 -0.360944 0.910822 -1.26678 -0.3011 -0.236269 -0.0111907 -0.0373908 0.0544602 -0.166339
324 -0.46227 -0.460128 1.02919 -1.67568 -0.584943 -0.383515 -0.0291672 -0.253405 -0.0621675 -0.0673704
328 -0.394381 -0.741012 1.00138 -1.42004 -0.361586 -0.0789777 -0.191746 -0.203627 -0.0984851 -0.0908892
49 -0.288702 -0.649873 0.957373 -1.4526 -0.534182 -0.044039 -0.155146 -0.21845 -0.504262 -0.257724
393 -0.317616 -0.92859 0.708507 -1.41099 -0.688911 0.162467 -0.278059 -0.188547 -0.36116 -0.185544
483 -0.236209 -0.94663 0.51908 -0.968162 -0.662147 0.42882 0.519243 0.189706 -0.173911 0.0915083
2203 0.0377278 -0.327854 0.423719 -0.893045 -0.418161 0.453671 0.413576 0.322038 0.027511 0.0242396
90 0.20202 -0.28715 0.493112 -0.896882 -0.7971 0.934875 0.483535 0.420907 -0.0395097 0.105015
93 0.0635725 -0.104479 0.175876 -1.19023 -1.2312 0.312437 -0.248509 0.530913 0.0962584 0.204991
2465 -0.0872757 -0.129146 0.379836 -0.951842 -0.695397 0.0339324 -0.117046 0.468707 0.22496 0.0646601
495 -0.235554 0.0623939 0.486622 -1.20781 -1.09707 -0.0603438 -0.179074 0.595987 0.160804 0.218807
1599 -0.182767 -0.198227 0.483953 -0.933829 -0.253279 -0.0686128 0.0374034 0.346964 0.119925 -0.108087
95 -0.0790664 -0.60849 0.900867 -1.27622 -0.893005 0.095991 -0.139626 -0.267492 -0.302624 -0.336728
4486 0.0384903 -0.269977 0.234862 -0.664876 -0.157883 0.250732 0.1676 0.511442 0.0797806 -0.060402
13 0.275962 -0.823837 0.0139952 -1.20908 -0.0298475 1.13011 0.201531 0.688582 -0.759691 0.039631
480 0.591884 -0.291536 0.138326 -1.123 -0.282731 1.1169 0.424935 0.575053 -0.365506 0.0219388
158 0.0682391 -0.0843499 0.637696 -0.996511 -0.586591 1.32665 0.428405 0.140708 -0.157963 0.0686942
1297 0.166798 0.0711352 0.573491 -1.13871 -0.287076 1.34942 0.541066 0.112561 -0.219666 -0.0852719
3665 0.172492 -0.194885 0.409665 -0.843934 -0.115013 0.563354 0.219015 0.453144 -0.00285092 -0.122176
133 0.689839 -0.227216 0.432266 -1.04813 -0.171966 1.04132 -0.0428283 0.652511 -0.542411 -0.504791
2969 0.447937 -0.136284 0.457912 -0.999574 -0.143423 1.25704 0.443887 0.462679 -0.463783 -0.229139
78 0.304658 -0.0948387 0.344261 -0.797298 -0.277802 0.820976 0.311933 0.503134 0.0368563 -0.0579147
3821 -0.0180533 -0.2675 0.491462 -0.970399 -0.117537 0.362854 0.0768221 0.241781 -0.183517 -0.0939302
1506 -0.007306 -0.323835 0.585353 -1.52583 -0.00834239 0.576856 0.0686856 -0.0800227 -0.678834 -0.0874127
429 -0.42872 0.802327 0.808956 -1.70419 -0.178993 0.152281 -0.616947 0.429688 0.0104512 -0.220909
370 -0.367827 0.500537 0.814146 -1.55819 -0.272812 0.140035 -0.448499 0.340703 -0.0928359 0.0413853
3530 -0.222706 0.251399 0.563275 -1.20102 -0.204193 0.0825059 -0.166049 0.313956 0.161249 -0.030347
1200 -0.162448 -0.714248 0.455008 -0.915277 -0.0631136 0.0836968 0.254153 0.474741 -0.117313 -0.123807
2638 -0.02623 -0.262608 0.556406 -0.906196 -0.390649 0.280539 0.20378 0.23234 0.0966418 -0.0375544
3986 -0.162987 0.054707 0.286098 -0.939475 -0.652519 0.0248892 -0.0647255 0.600359 0.308699 0.0156322
721 -0.0836021 -0.179045 0.0970412 -1.01919 -1.287 -0.00275087 -0.0282219 0.893108 0.465356 0.228753
246 -0.121489 -0.129354 0.0748856 -0.967619 -1.37131 0.141336 0.178302 0.90371 0.549918 0.201655
705 0.013449 0.0939616 0.153581 -0.991761 -1.23935 0.25952 0.278526 0.661086 0.494755 0.231468
1606 0.0403228 0.0225886 0.28622 -0.784703 -0.679301 0.180584 0.0318656 0.663186 0.387622 -0.00902539
1749 -0.299018 -0.527484 0.752653 -1.26165 -0.462631 -0.0224589 -0.0658954 -0.020561 -0.0603514 0.10847
3197 0.00201826 -0.454725 0.479421 -0.877709 -0.231356 0.218267 0.301838 0.298031 0.0276022 0.00875009
256 -0.0410166 -0.142093 0.301242 -0.965439 -0.341485 0.466404 -0.0590566 0.84653 -0.536388 0.257219
4160 -0.461199 -0.742223 0.550222 -0.852093 0.235318 -0.366966 0.265345 1.09285 0.29264 -0.544453
313 -0.211165 -0.714731 0.287795 -0.778464 -0.723741 0.0915652 0.1443 0.842616 0.076457 0.101192
4318 -0.110315 -0.22755 0.523856 -0.927195 -0.249677 0.0887272 0.0317123 0.399886 0.166697 -0.105211
70 -0.37641 -0.660564 0.762835 -0.803435 -0.543126 0.157457 -0.198367 0.742646 -0.593486 0.407543
958 -0.0836484 -0.641824 0.393368 -0.968181 -0.342606 0.298015 0.170557 0.261844 -0.0134649 -0.00898272
592 -0.535041 -0.952083 0.680775 -0.992164 0.381855 -0.459001 0.272171 1.13883 0.123728 -0.615741
885 -0.481924 -0.965584 0.633323 -0.950987 0.364152 -0.393757 0.30323 1.15021 0.137468 -0.601758
2959 -0.352914 -0.581535 0.551139 -0.813164 0.348085 -0.315459 0.293202 1.04273 0.199057 -0.55631
1879 -0.278807 -0.654124 0.443639 -0.633955 0.170758 -0.233656 0.233774 1.06173 0.273248 -0.435827
15 -0.0129232 -0.917571 0.326141 -0.563869 -0.113883 0.100435 0.483477 1.14321 0.119408 -0.228455
2398 -0.0250263 -0.743966 0.27282 -0.649856 -0.242662 0.0893839 0.320652 1.01974 0.233815 -0.257286
4585 -0.0422721 -0.316483 0.397557 -0.724085 -0.130769 0.0132726 0.124896 0.716346 0.184422 -0.263842
2399 -0.0117706 -0.625887 0.262548 -0.64223 -0.105927 0.00748345 0.341369 0.992555 0.180987 -0.243969
473 -0.17914 -0.971234 0.382767 -0.571556 -0.483009 0.126012 0.288119 0.924881 0.208242 -0.086097
1393 0.0360983 -0.247416 0.377335 -0.745657 -0.157488 0.190122 0.126095 0.691706 0.153553 -0.173735
1386 -0.0850035 -0.736571 0.37002 -0.673959 -0.13963 0.0985158 0.321793 0.819871 0.196047 -0.19074
3003 0.00404611 -0.628998 0.339253 -0.639354 -0.187836 0.208283 0.309393 0.711462 0.142297 -0.137727
381 0.118238 -0.238228 0.467405 -0.868404 -0.268591 0.465978 0.171667 0.462755 0.0843371 -0.104455
386 0.151764 -0.262172 0.445561 -0.961117 -0.437286 0.486601 0.232413 0.474841 0.201496 -0.0607446
660 -0.020172 -0.511225 0.34979 -0.834384 -0.430622 0.254901 0.26062 0.501502 0.010187 -0.0255044
2175 -0.269544 0.181031 0.714361 -1.29581 -0.0341284 -0.0258517 -0.246177 0.258506 0.0369604 -0.0946133
289 0.358049 -1.40046 -0.154699 -1.18808 -0.735156 0.714209 0.179385 0.601454 -0.692202 0.0368466
3032 -0.223593 -0.825199 0.232835 -0.842807 0.152595 -0.0168653 0.390218 0.771014 -0.106729 -0.22051
1171 0.0268641 -0.262003 0.375258 -0.715662 -0.136981 0.226822 0.0803589 0.5678 0.17432 -0.165974
84 -0.31657 -0.831585 0.497225 -0.789441 -0.885424 -0.262307 -0.0504037 0.72943 -0.141725 -0.208878
972 -0.122275 -0.188086 0.547838 -1.01076 -0.773309 -0.173003 -0.044104 0.327727 0.221159 0.0826937
402 -0.255502 -0.588611 0.864992 -1.39651 -0.638056 -0.258916 0.036363 -0.231946 -0.196593 -0.0482086
2022 -0.37172 -0.504883 0.751538 -1.39098 -0.501062 -0.213261 -0.142812 -0.0652614 -0.0934679 -0.108448
4417 -0.234217 -0.356839 0.536245 -1.02544 -0.35841 -0.0550431 -0.00668697 0.169418 0.115892 -0.0188997
1670 -0.420358 -0.643029 0.862508 -1.44838 -0.471524 -0.197262 -0.106203 -0.123603 -0.0538909 -0.10823
157 0.217635 -0.609396 0.472519 -0.798113 -0.400103 0.703104 0.38407 0.474388 -0.184636 0.14606
1196 0.237778 -0.139516 0.332473 -0.782894 -0.137159 0.485051 0.133624 0.842661 0.0583254 -0.0510201
4421 0.0868235 -0.243815 0.341757 -0.831072 -0.248984 0.27796 0.0859235 0.515993 0.127157 -0.103542
344 0.832683 -0.937826 0.579976 -0.747303 -0.496514 0.846669 -0.281168 0.70713 -0.378868 -0.608896
1634 0.703483 -0.428394 0.314855 -0.89389 -0.204259 0.941191 0.229078 0.763113 -0.203758 -0.408228
1859 0.641502 -0.384293 0.286442 -0.801521 -0.153396 0.901619 0.273725 0.811882 -0.198766 -0.411076
4982 0.539891 -0.307696 0.299122 -0.775492 -0.192882 0.754846 0.193396 0.783725 0.0223005 -0.380047
565 0.945776 -0.887194 0.449466 -0.764836 -0.50815 1.00349 -1.3243e-05 1.06939 -0.233261 -0.708101
2905 0.638242 -0.402063 0.471639 -0.648311 -0.177734 0.704626 0.0873803 0.921373 0.0187455 -0.535655
2084 -0.318359 -0.326401 0.674505 -1.11857 -0.31014 -0.167229 -0.040097 0.196416 0.083759 -0.0887171
250 0.17815 -0.00520347 0.26836 -0.816317 -1.69623 0.0219152 0.325513 1.0083 0.290489 -0.198319
1490 0.151126 0.0810676 0.181674 -0.894439 -1.24468 0.378619 0.101333 0.845286 0.400959 0.0296272
190 -0.188908 -0.197557 0.625843 -0.809273 -1.38701 0.824688 0.314083 0.234539 -0.0981408 -0.436422
2980 0.0949216 -0.119277 0.317139 -0.798281 -0.241278 0.484816 0.216651 0.530129 0.0899405 -0.0663819
2780 0.155882 -0.177463 0.320257 -0.740238 -0.205785 0.440873 0.342891 0.680251 0.148503 -0.199951
458 0.27971 -0.291811 0.38654 -1.19721 -0.401733 1.23948 0.60351 0.326287 -0.321714 0.0201892
1033 0.431678 -0.395559 0.0835595 -1.08335 -0.292763 1.13937 0.0677049 0.564118 -0.378659 -0.107621
1518 0.301949 -0.531094 0.149479 -1.35946 0.206381 1.02881 0.209465 0.449695 -0.722525 -0.233868
509 0.343159 -0.128754 0.277868 -0.939497 -0.110188 0.82968 0.285088 0.502623 -0.235662 -0.07037
1158 0.830395 -0.304509 0.459483 -0.57755 -0.265543 0.90816 0.0408706 1.14221 0.0463247 -0.648096
612 0.851854 -0.554314 0.947641 -0.518334 -0.607594 0.860653 -0.204408 0.972003 0.0247033 -0.818445
613 0.769525 -0.305183 0.54068 -0.673829 -0.140535 0.759001 0.143075 0.975395 0.0239978 -0.63777
1497 0.946467 -0.379528 0.72665 -0.587057 -0.486511 0.811835 -0.15292 0.921232 0.125046 -0.699716
1161 0.936651 0.136824 0.746153 -0.497569 -1.12921 0.529455 0.441789 0.969645 0.353443 -0.537357
251 -0.0831985 0.0817444 0.241341 -0.865767 -1.45408 0.110713 0.40318 1.0114 0.484274 0.131073
4042 -0.0681357 -0.00050066 0.324641 -0.824178 -0.489957 -0.0112072 0.0741064 0.514907 0.313961 0.0161193
2211 -0.126279 -0.0406948 0.465992 -0.879146 -0.285953 0.0326222 0.0400239 0.429972 0.264101 -0.0496835
361 -0.488053 -1.17625 0.669667 -0.896154 0.167875 -0.339814 0.273245 1.0562 0.00250639 -0.763255
4697 0.415317 -0.270674 0.105457 -0.93508 -0.144592 0.804069 0.209384 0.53708 -0.229418 -0.0549695
174 0.544299 -0.363148 -0.0806883 -1.67494 -0.0816009 1.45328 0.0515273 0.49738 -0.85781 0.162545
1556 0.492859 -0.511933 0.124212 -1.15192 -0.11567 1.06632 0.317835 0.566588 -0.433602 -0.033064
1558 0.353347 -0.478011 0.064071 -0.924359 -0.181723 0.634808 0.189425 0.46899 -0.151815 -0.0349958
3888 0.0555121 -0.164614 0.395665 -0.629564 -0.210667 0.176286 0.116491 0.471369 0.0568512 -0.166719
161 -0.2193 -0.798296 0.790709 -0.796185 -0.872531 0.718792 -0.124475 0.255978 -0.206864 -0.0490729
2754 0.108409 -0.279132 0.498198 -0.761708 -0.313432 0.385687 0.0342559 0.469419 0.134648 -0.11155
740 0.0179127 -0.500188 0.474178 -1.09359 -0.439654 0.480318 0.189475 0.126838 -0.170432 0.236032
1210 -0.0831324 -0.447287 0.492544 -0.974848 -0.336646 0.152895 0.126676 0.332605 0.0989669 -0.05306
639 -0.318722 -0.919269 0.45872 -0.875868 -0.154662 -0.0336476 0.162117 0.713837 -0.0483759 -0.100833
3883 0.0415282 -0.435792 0.322548 -0.864992 -0.300227 0.233731 0.201514 0.613594 0.0740721 -0.0772569
3006 0.0376324 -0.0299033 0.27045 -0.800694 -0.639956 0.15958 0.174204 0.635275 0.395207 -0.00360336
3606 -0.0455046 -0.236479 0.437701 -1.01254 -0.257895 0.236999 0.0427671 0.480195 0.0595134 -0.104815
1371 -0.0127681 -0.0701618 0.240221 -0.865833 -0.553513 0.122734 0.0881756 0.563053 0.337292 0.116718
1647 0.0438189 -0.392582 0.291775 -0.862176 -0.205178 0.221138 0.268114 0.66708 0.177101 -0.132451
1502 0.0200025 -0.319925 0.629007 -1.36867 0.0101201 0.453871 -0.0861379 -0.0315497 -0.511541 -0.125341
142 -0.234332 -0.718047 0.849408 -1.47259 -1.0765 -0.357174 -0.0487289 -0.222261 -0.545818 -0.190996
2213 -0.107477 -0.147254 0.342217 -0.928526 -0.421305 0.0361743 0.0392297 0.545575 0.172358 0.0206308
494 -0.171114 -0.026318 0.363203 -1.01995 -0.753695 -0.00710476 0.0301438 0.48532 0.289774 0.0957971
490 -0.255806 -0.296709 0.176605 -1.20332 -0.920314 0.0634179 -0.494255 0.72184 -0.0460289 0.199609
724 -0.424706 0.409965 0.565898 -1.60765 -0.381141 0.194505 -0.714146 0.448888 -0.0152945 0.120322
408 -0.440605 0.268707 0.625609 -1.5111 -0.294708 0.234511 -0.497858 0.306723 0.0127324 -0.0453885
417 -0.386754 0.125854 0.675875 -1.29184 -0.138283 -0.0100464 -0.225158 0.236906 0.0128938 -0.158793
1886 -0.454852 -0.0520997 0.853041 -1.52643 -0.123366 -0.0755675 -0.200323 -0.0713506 -0.0243745 -0.0941571
105 -0.272347 -0.434587 0.955447 -1.46071 -0.708535 -0.26377 0.0924558 -0.254715 -0.369301 -0.322585
4097 -0.389012 0.432375 0.768662 -1.3688 -0.11027 -0.12583 -0.222785 0.335985 0.167011 -0.0915179
545 0.175461 -0.387921 0.167242 -0.820241 -0.189701 0.355041 0.22324 0.581763 0.0275252 -0.0856116
4424 -0.290213 -0.606686 0.449778 -0.708996 0.169977 -0.145483 0.252497 0.882809 0.105587 -0.477408
883 -0.387663 -1.15402 0.462791 -0.810208 0.361553 -0.226896 0.400463 1.38432 0.357939 -0.60812
4164 -0.27681 -0.567863 0.509573 -0.716135 0.31623 -0.181077 0.241409 0.959811 0.222592 -0.437623
962 0.350613 -0.399069 0.321387 -0.68692 -0.248796 0.451409 0.101107 0.661145 0.0188752 -0.188286
4342 0.0793232 -0.0736192 0.249031 -0.769081 -0.571207 0.149911 0.178466 0.687472 0.372032 -0.0322994
2055 -0.0959637 -0.173203 0.20324 -0.867501 -1.23547 0.38544 -0.0390383 0.901519 0.379259 0.0167971
123 0.877468 -0.498376 0.815678 -0.606002 -0.44582 0.515033 -0.431401 0.87536 0.0421226 -0.703049
2701 0.508283 -0.157279 0.524663 -0.608208 -0.0662734 0.455814 0.13646 0.882664 0.102468 -0.477763
120 0.730712 -0.467387 0.656082 -0.623457 -0.589491 0.717678 -0.449 1.05302 -0.101032 -0.715262
667 0.655399 -0.35991 0.419627 -0.729125 -0.0406072 0.939566 0.145824 0.802666 -0.158918 -0.536437
72 0.952 -0.571742 0.882115 -0.550508 -0.456734 0.712424 -0.265217 1.01532 -0.127594 -0.813773
4491 0.00737953 -0.229264 0.358243 -0.798403 -0.279457 0.195871 0.00616706 0.56902 0.212293 -0.178846
1041 0.172562 -0.290507 0.450979 -0.979934 -0.451165 0.827744 0.605508 0.225203 -0.0712212 0.105279
2042 0.309645 -0.193784 0.334752 -0.750895 -0.253189 0.645611 0.261921 0.595371 -0.0214716 -0.138382
226 -0.194167 0.0437457 0.157358 -1.16041 -1.04358 -0.0340271 -0.341078 0.707999 0.239637 0.349608
219 -0.10333 -0.265752 0.235077 -1.28477 -1.22962 -0.122762 -0.711468 0.774767 -0.513158 0.363391
27 -0.0720743 -0.197669 0.388933 -0.97303 -0.795459 0.0144686 0.115498 0.374775 0.239363 0.0852402
624 -0.244631 -0.587182 0.465041 -1.19077 -1.22905 -0.328849 -0.241671 0.454756 -0.00629118 0.17552
2030 -0.350842 -0.37335 0.856714 -1.21335 -0.22486 -0.208616 -0.0253578 0.0294892 -0.0258494 -0.126991
295 0.271594 -0.362726 0.610401 -0.992313 0.114004 0.878073 0.22973 0.309166 -0.766644 -0.600332
1632 -0.132584 -0.436424 0.461622 -1.04696 -0.926868 -0.145704 0.0220791 0.464215 0.10322 0.069008
235 -0.486923 0.438561 0.662319 -1.47053 -0.447525 0.098672 -0.648604 0.427428 -0.0651955 -0.36467
1180 -0.202172 0.00245144 0.306488 -1.1507 -0.976625 -0.0942195 -0.127962 0.648107 0.382356 0.174181
1929 -0.216192 0.0462029 0.410885 -1.17921 -0.656986 -0.0772683 -0.185336 0.506748 0.31525 0.119281
2643 -0.111658 -0.103107 0.383399 -0.788287 -0.340651 -0.0256306 0.0604797 0.522693 0.211997 -0.118778
586 -0.159632 -0.445999 0.483411 -1.10217 -0.905706 -0.0776298 -0.0379306 0.327099 0.0598389 0.137924
770 -0.305345 -0.374425 0.463087 -1.23392 -1.15393 -0.0837473 -0.217094 0.35776 0.150743 0.28653
2527 -0.0160161 0.00348046 0.222723 -1.02451 -0.871369 0.120536 -0.153387 0.714102 0.288298 0.16267
222 -0.173866 0.183838 0.281614 -1.2839 -0.866822 -0.0457203 -0.348216 0.574397 0.284968 0.235631
3486 -0.342736 -0.521625 0.545486 -0.797243 0.259639 -0.233983 0.283036 0.837241 0.0618207 -0.401726
878 -0.63576 -0.960486 0.680766 -0.917981 0.372226 -0.351824 0.334801 1.18693 0.284212 -0.690466
499 -0.576679 -0.899986 0.627416 -1.10874 0.410336 -0.369964 0.285977 0.886973 0.0415226 -0.557253
308 -0.234874 -0.703976 0.745272 -1.09019 -0.80017 0.068511 0.604332 0.00844958 0.0263593 0.464619
3566 -0.0211172 -0.446238 0.269841 -0.836664 -0.292622 0.258736 0.238319 0.515051 0.131262 -0.138879
1559 -0.00923602 -0.781208 0.309853 -0.690952 -0.487808 0.326995 0.202417 0.641981 0.170133 0.0225449
2822 -0.280906 -0.318118 0.636963 -1.15241 -0.269987 -0.157858 -0.0127614 0.117554 0.0149527 -0.0586005
1361 0.385756 -0.440148 0.0549854 -1.4595 -0.296466 1.333 -0.00672842 0.360305 -0.82469 -0.0185079
3476 0.617936 -0.163977 0.260537 -0.803326 -0.0608686 0.96636 0.247493 0.617644 -0.127303 -0.349266
2865 0.593706 -0.328052 0.0847424 -1.42762 -0.0853971 1.26378 0.374014 0.480664 -0.500285 0.00766781
42 0.253829 -0.407678 0.355924 -1.38425 -0.194045 1.16825 0.19462 0.28346 -1.22462 -0.540685
659 0.561662 -0.55114 -0.0169788 -1.12023 -0.0578813 1.19703 0.381344 0.753671 -0.449626 -0.15141
4425 -0.285397 -0.64069 0.488388 -0.710675 0.245958 -0.268986 0.307591 1.01434 0.166115 -0.454545
69 -0.528615 -0.702248 0.687075 -0.754781 -0.434898 0.246843 -0.637501 1.13982 -0.88687 0.268365
145 0.732978 -0.548114 0.739069 -0.674109 -0.22935 0.633697 -0.209167 0.753027 -0.138336 -0.782819
952 0.509631 -0.230266 0.472202 -0.66515 -0.0822349 0.551201 0.122567 0.786998 0.0334197 -0.431159
2760 0.404333 -0.248795 0.36115 -0.776697 -0.231162 0.583302 0.0713095 0.82745 0.0160819 -0.310131
2758 0.195127 -0.166033 0.374039 -0.850374 -0.234663 0.467466 0.102995 0.745975 0.0327907 -0.202043
867 0.92272 -0.471332 0.572446 -0.733841 -0.201123 0.86899 0.141832 0.960155 -0.119676 -0.762906
1441 -0.0400427 -0.285825 0.358435 -0.829581 -0.18318 0.232888 0.0957875 0.52721 0.0978799 -0.00645095
423 -0.365275 0.633676 0.875214 -1.64871 -0.0545983 0.0683324 -0.509356 0.317097 -0.118252 -0.284015
855 -0.279428 0.215978 0.640441 -1.33136 -0.258413 0.129323 -0.285201 0.383243 0.173038 -0.0628918
4870 -0.242151 0.133679 0.651353 -1.05854 -0.104155 0.0121231 -0.0896523 0.326345 0.143075 -0.137333
1680 -0.249676 0.221284 0.916545 -1.57696 0.0112813 0.113154 -0.264138 -0.0118594 -0.308745 -0.172989
422 -0.470787 0.575686 0.888931 -1.80442 -0.0296686 0.0566291 -0.435093 0.197055 -0.16551 -0.0541897
2176 -0.180733 0.266027 0.614283 -1.25384 -0.201285 0.158924 -0.282799 0.332212 -0.00390715 -0.0826006
1926 0.298788 -0.615873 -0.0999313 -0.93774 -0.366793 0.684524 0.386344 0.611272 -0.135322 0.126987
2355 0.34661 -0.845301 -0.106654 -1.02646 -0.571599 0.771354 0.319367 0.567848 -0.166011 0.224439
607 0.1528 -1.47395 -0.32218 -1.33549 -0.827156 0.940502 0.379006 0.516142 -0.598976 0.0960714
37 0.303692 -0.478473 0.0406142 -1.01657 -0.284822 0.735144 0.28357 0.595541 -0.186388 0.00657811
472 -0.224011 -1.13599 0.236925 -0.657752 -0.466 0.0148045 0.260211 0.952959 0.256879 0.0391332
3598 0.0686163 -0.265706 0.376414 -0.816697 -0.0624936 0.269753 0.119175 0.551494 0.0864758 -0.162014
167 0.427164 -0.622627 -0.0441122 -1.01571 -0.437588 0.833483 0.470167 0.570258 -0.167632 0.200838
2334 0.406741 -0.453687 0.103599 -1.08882 -0.254266 0.906342 0.311183 0.445697 -0.287477 0.108982
166 0.546824 -0.742471 -0.153424 -1.36539 -0.327025 0.907497 0.666807 0.572182 -0.451807 0.237719
2405 0.226506 -0.634449 0.0952856 -0.88466 -0.339468 0.558515 0.310219 0.516263 -0.131635 0.101799
4500 -0.263945 -0.458059 0.763007 -1.09997 -0.117947 -0.0742559 0.0388019 0.0953378 -0.00108282 -0.183619
2154 -0.157093 -0.383373 0.477782 -0.803664 0.152555 -0.0412021 0.158869 0.811776 0.0792549 -0.333814
225 -0.0851914 0.1867 0.230587 -1.0227 -0.665225 0.107588 -0.190473 0.671681 0.245336 0.174794
1218 0.883409 -0.326349 0.558556 -0.695258 -0.203638 0.934028 -0.0281661 1.02237 -0.0463705 -0.710744
345 0.786267 -0.470455 0.544154 -0.825475 -0.217555 1.19544 0.0165957 0.826475 -0.215577 -0.706154
763 0.888833 -0.340912 0.472268 -0.881919 -0.247483 0.986372 0.0106424 0.894214 -0.262629 -0.616966
1159 0.865461 -0.245907 0.361596 -0.57341 -0.201212 0.728897 0.211316 1.15901 0.158134 -0.567474
2436 0.304055 -0.112247 0.305691 -0.610632 -0.402708 0.260911 0.103316 0.741794 0.179032 -0.247214
3170 -0.277067 0.154425 0.42029 -1.185 -0.830744 -0.193889 -0.119438 0.586005 0.359836 0.123846
3217 -0.204146 -0.272868 0.498686 -1.11447 -0.514058 -0.0127669 0.0773073 0.207498 0.270463 0.0247096
1888 -0.336003 -0.470394 0.61237 -1.15925 -0.50532 -0.0705243 -0.0018541 0.241289 0.136369 -0.00246024
99 -0.363222 -0.796838 0.628701 -1.24742 -0.992236 0.0744936 -0.175187 0.019704 -0.181286 -0.141838
3675 -0.154742 -0.405301 0.492965 -0.749241 0.177363 -0.106708 0.250754 0.721989 0.0574474 -0.465469
3907 -0.00517851 -0.430615 0.453164 -0.829343 -0.359655 0.188155 0.0843413 0.448864 0.0960128 -0.109288
3908 0.0768249 -0.344479 0.339353 -0.82874 -0.32411 0.320467 0.0856185 0.588483 0.132357 -0.102436
1137 -0.144195 -0.809189 0.564285 -1.09485 -0.631612 0.0190801 0.282892 0.145715 -0.0427387 0.180391
305 -0.117096 -0.75931 0.66851 -0.922143 -0.827193 0.339117 0.833227 0.0375863 0.0717454 0.428088
3687 -0.00953899 0.0652725 0.299945 -0.838973 -0.787949 0.124105 0.184293 0.647944 0.372513 0.121337
1060 0.0337677 -0.0851697 0.159532 -0.9179 -0.886213 0.249085 0.0981557 0.759684 0.426861 0.137668
707 -0.0342429 0.0755346 0.225846 -0.943117 -1.23831 0.103099 0.242183 0.624732 0.444444 0.283899
4648 0.0932675 -0.192294 0.276192 -0.744802 -0.340122 0.275978 0.163445 0.552013 0.242263 -0.0255364
1638 -0.148552 -0.792065 0.397711 -0.621197 -0.611217 0.21666 0.401181 0.711539 0.192713 0.0672124
59 -0.417335 -0.79451 0.876479 -1.52872 -0.616861 -0.175987 -0.123473 -0.272583 -0.350728 -0.116987
3844 -0.218827 -0.377008 0.440746 -0.766483 0.0540999 -0.114462 0.196805 0.660248 0.133918 -0.27138
3267 -0.347977 0.269718 0.682932 -1.29883 -0.134025 0.105379 -0.219783 0.197084 0.108302 -0.0481907
4153 -0.138712 0.0339299 0.625008 -1.04783 -0.215442 0.167492 -0.114448 0.293499 0.0590423 -0.129819
192 -0.143419 -0.523159 0.522024 -1.08305 -1.14681 0.562219 0.25478 0.117622 -0.0706223 0.131435
672 -0.247425 -0.739022 0.922915 -1.46974 -0.512597 0.0364188 -0.0619428 -0.316033 -0.256569 -0.176405
1053 -0.247416 -0.690083 0.754279 -1.43272 -0.631154 0.147794 -0.108241 -0.268229 -0.0952388 0.0258923
278 -0.344764 -0.677028 1.01947 -1.49058 -0.533377 -0.200949 0.0371595 -0.275655 -0.115485 -0.0648777
1868 0.252636 -0.226478 0.392086 -0.55403 -0.137398 0.325749 0.106731 0.658271 0.150946 -0.326614
444 0.756883 -0.308211 0.268999 -1.17857 -0.128903 1.32243 0.350921 0.666076 -0.690982 -0.171813
1813 0.559559 -0.147183 0.25939 -0.815803 -0.1525 0.767972 0.138038 0.836706 -0.0296631 -0.299244
3972 0.114186 0.047899 0.248458 -0.85215 -0.742848 0.271527 0.101555 0.737232 0.315749 0.0347603
1675 0.421659 0.109189 0.465159 -0.940932 -0.978796 0.671852 0.317505 0.361401 0.327402 -0.0318921
2366 -0.0308989 -0.684446 0.45361 -1.06926 -0.636195 0.114262 0.440748 0.0218677 0.00907915 0.216142
2230 0.244123 -0.167691 0.285865 -0.837433 -0.380465 0.572775 0.100541 0.500808 0.0783334 -0.127453
2232 0.301266 -0.166679 0.437218 -0.834957 -0.307128 0.443952 0.22564 0.577563 0.0310851 -0.180563
160 -0.130309 -0.878806 1.11125 -0.801795 -0.911036 0.926386 -0.392548 0.11833 -0.316282 -0.0103477
1636 -0.164455 -0.534305 0.26141 -0.844211 -0.506126 0.168312 0.256286 0.611 0.21846 0.0613404
26 0.0987995 0.0415546 0.269568 -1.00657 -1.42657 -0.029606 0.0858245 0.949454 0.448971 0.378495
4827 0.0253119 -0.0594398 0.370781 -0.828455 -0.47857 0.137417 0.144422 0.510486 0.251874 -0.0409409
102 -0.398813 -0.871976 0.981862 -1.21036 -0.981309 -0.0441718 0.125074 -0.143777 -0.26897 -0.210607
2024 -0.465988 -0.412341 0.815104 -1.45723 -0.477483 -0.270392 -0.00561485 -0.129169 0.106209 0.0394949
636 -0.415333 -0.646636 1.08974 -1.67536 -0.461543 -0.277586 -0.00658013 -0.395345 -0.156124 -0.0212708
2017 -0.571894 -0.592825 0.886793 -1.6875 -0.353159 -0.302239 -0.0301851 -0.200735 -0.0499959 -0.0640755
168 -0.331024 -0.856677 0.582098 -0.936798 -0.876276 0.629932 0.568938 0.117859 -0.0840592 0.151009
4010 0.194495 -0.335166 0.145848 -0.841097 -0.193222 0.463297 0.240082 0.604024 -0.0919889 -0.0384478
365 0.252968 -0.670005 -0.0505413 -1.42938 -0.325686 1.14686 0.102548 0.46537 -0.853775 -0.0231252
4658 0.110279 -0.207995 0.34362 -0.813896 -0.235556 0.38067 0.152416 0.480545 0.11656 -0.0573137
529 0.0506235 -0.519773 0.370101 -0.913211 -0.390206 0.582654 0.376197 0.48839 -0.0201064 0.0320956
2943 -0.184262 -0.476173 0.499934 -0.815487 -0.342446 -0.169952 0.188385 0.584196 0.00145282 -0.126974
2194 -0.137454 -0.611342 0.422509 -0.759373 -0.340005 -0.0344681 0.292219 0.711295 0.218048 -0.0342624
3906 0.0156552 -0.327939 0.34417 -0.784503 -0.301396 0.225236 0.159216 0.426465 0.102549 -0.00169179
46 -0.211391 -0.954931 0.612183 -1.37131 -1.355 0.243813 -0.517644 -0.284785 -0.934102 -1.02405
936 -0.410526 0.357905 0.806109 -1.45067 -0.196293 -0.132908 -0.273711 0.38876 0.133033 -0.141204
856 -0.0317841 0.202589 0.349372 -1.08954 -0.367035 0.369307 -0.0479647 0.554114 -0.0612707 0.0970863
50 0.257826 -0.236324 0.942266 -0.844912 -0.377517 0.43401 0.108592 0.242296 -0.721579 -0.549606
262 0.222316 -0.149337 0.317592 -0.936566 -0.137838 0.616491 0.0611216 0.8006 -0.151629 0.117972
1536 0.687458 -0.220476 0.329719 -0.886137 0.0627335 0.962541 0.144488 0.749973 -0.297017 -0.466092
1160 0.853102 0.031305 0.75251 -0.539767 -0.964621 0.588053 0.204257 0.815395 0.260122 -0.573988
2365 -0.0309389 -0.418781 0.740723 -1.03625 -0.364564 -0.00310974 -0.0861875 0.0312971 0.0397184 -0.194947
65 -0.352025 -0.580816 0.972708 -1.65036 -0.635399 -0.319321 0.0614712 -0.331154 -0.21504 0.000411186
1254 -0.375839 0.353954 0.567195 -1.39565 -0.495626 -0.0261789 -0.379624 0.483774 0.128174 0.0923377
3532 -0.334793 0.145462 0.500223 -1.09371 -0.383597 -0.141598 -0.0940042 0.397041 0.257429 -0.0240576
3934 -0.152373 0.085676 0.596346 -1.07898 -0.051508 0.148885 -0.0780367 0.336411 0.087331 -0.127329
3058 0.248837 -0.138456 0.525329 -0.940813 -0.404821 0.903623 0.333793 0.310111 -0.093754 -0.0909289
75 -0.354145 -0.141465 0.889216 -0.815673 -0.771357 1.69413 0.745686 0.13693 -0.268999 -0.376899
475 -0.0120757 -0.638143 0.410408 -0.824677 -0.463323 0.350851 0.218004 0.425291 0.0825909 0.0423963
2549 -0.136526 -0.88595 0.307768 -0.880162 -0.416612 0.245043 0.335414 0.578926 -0.00867863 0.0127224
3053 0.24181 -0.324946 0.287173 -0.76935 -0.0916463 0.394331 0.175649 0.739787 0.135817 -0.295987
2204 0.111007 -0.262911 0.35878 -0.760243 -0.190848 0.355559 0.119856 0.533789 0.0762428 -0.149514
436 0.337755 -1.57521 -0.350218 -1.36894 -1.17988 1.00003 0.229783 0.400002 -0.485833 0.187952
434 0.330965 -1.62083 -0.287186 -1.31538 -0.689855 0.740754 0.51884 0.500028 -0.484396 0.220956
4359 0.1764 -0.54247 0.15982 -0.777883 -0.191825 0.360955 0.433807 0.595771 -0.0728495 0.0256323
333 -0.485106 -0.649006 0.439235 -1.08949 -0.00161927 0.47684 -0.430924 0.758605 -0.601889 0.394524
3135 0.0778497 -0.00397649 0.228667 -0.866479 -0.65478 0.236158 0.174261 0.717018 0.317578 -0.0563347
2739 -0.00452708 -0.0318385 0.209266 -0.912215 -1.07582 -0.0146728 0.3156 0.815456 0.404624 0.218169
1037 -0.31587 -0.155043 0.636849 -1.45661 -0.85592 -0.135456 -0.30605 0.11289 0.0599575 -0.0632472
1987 -0.24914 -0.379839 0.57721 -1.05112 -0.168609 -0.113782 0.0774391 0.197971 0.0961345 -0.136408
2274 0.289839 -0.0875263 0.160809 -0.825028 -0.817487 0.26433 0.136045 0.792343 0.444595 -0.172894
1508 -0.0668104 0.018171 0.0938172 -0.909496 -1.08681 0.201773 0.177575 0.826451 0.535884 0.0973361
32 0.0786767 -0.627026 -0.196135 -1.5247 -0.0270173 1.01157 0.0360195 0.486251 -0.922418 -0.164725
349 0.717025 -0.3557 0.191356 -1.14303 -0.213825 1.20928 0.0942683 0.770672 -0.288433 -0.195705
2887 -0.225581 -1.02974 0.0572543 -0.772032 -0.284589 -0.0168403 0.45667 0.925773 0.0644621 -0.116157
203 0.497819 -0.648048 -0.100333 -1.21977 -0.310556 0.922772 0.507309 0.657116 -0.452834 0.225214
2332 0.325252 -0.706281 0.0581001 -0.988373 -0.37182 0.792605 0.325895 0.614634 -0.192907 0.0291644
2333 0.250395 -0.42197 0.127073 -0.83652 -0.22116 0.513371 0.276663 0.585826 -0.112848 -0.0819468
1736 0.665163 -0.329816 0.377363 -0.641287 -0.274503 0.864626 0.0222709 1.0137 0.011044 -0.605166
492 -0.364836 -0.0203701 0.324269 -1.37084 -1.34816 -0.180306 -0.378683 0.606589 -0.00145631 0.311767
1597 -0.187871 -0.227178 0.655624 -1.05243 -0.172382 -0.0448205 -0.011248 0.173327 0.0388032 -0.114084
1004 -0.280968 0.502302 0.886961 -1.5252 -0.0198023 0.129107 -0.401605 0.170675 -0.0896131 -0.31774
745 -0.343018 0.344103 0.560199 -1.43403 -0.354113 0.284133 -0.513043 0.425085 0.00729508 0.0692381
782 -0.215517 0.308226 0.569393 -1.22047 -0.222592 0.0200629 -0.133293 0.419628 0.115012 -0.027118
2166 -0.0363383 -0.0349645 0.391469 -1.00564 -0.328002 0.140867 -0.00862213 0.46812 0.132488 0.0521924
2599 0.211233 -0.212614 0.343062 -0.828 -0.322932 0.817022 0.13743 0.523769 -0.0027567 -0.105855
89 0.158484 -0.400354 0.425428 -0.89187 -1.01691 1.11347 0.482501 0.411292 0.0200877 0.11164
2849 0.203538 -0.254413 0.371791 -0.868388 0.0173 0.617643 0.378962 0.553674 -0.0979248 -0.197544
21 -0.189708 -0.525249 0.270358 -1.00935 -1.51113 0.100425 -0.578408 0.740041 -0.54402 -0.120133
403 -0.377182 -0.643748 0.755427 -1.44094 -0.744375 -0.125621 -0.0446109 -0.219602 -0.209823 0.0445669
859 0.0297632 -0.504001 0.556994 -0.912601 -0.404501 0.32178 0.346055 0.195284 0.0808703 0.071462
671 -0.331037 -0.457769 0.913688 -1.42404 -0.298865 -0.0773681 0.0345073 -0.21448 0.0108285 -0.0289532
2060 -0.259484 -0.204764 0.722447 -1.27713 -0.221936 -0.152242 0.0291657 0.0627374 -0.00166038 0.0248039
2897 -0.232301 -0.382643 0.552814 -0.842412 0.0721478 -0.130229 0.190725 0.630395 0.167654 -0.331099
3815 0.17355 -0.235984 0.344915 -0.938235 -0.10668 0.417573 0.114121 0.320547 -0.210005 -0.182594
1186 -0.0157581 -0.302997 0.41825 -0.852019 -0.39094 0.14219 0.12618 0.372381 0.0771486 -0.0537397
2724 -0.280494 0.00490317 0.209023 -1.2829 -1.12847 -0.0464718 -0.300674 0.631193 0.340174 0.273563
327 -0.228447 -0.569711 0.856916 -1.38462 -0.703062 0.114113 -0.290734 -0.242149 -0.209861 -0.185088
322 -0.469457 -0.513232 1.05552 -1.6503 -0.512301 -0.110825 -0.119779 -0.415866 -0.117297 -0.0696912
821 -0.297927 -0.780565 0.986227 -1.48956 -0.613011 -0.00844729 -0.334537 -0.341893 -0.199377 -0.214057
414 -0.43662 0.563509 0.839255 -1.62612 -0.224506 0.243338 -0.50692 0.267033 -0.0840864 -0.150755
1001 -0.385934 0.301192 0.827026 -1.55009 -0.0377517 0.105292 -0.319656 0.160719 0.0390725 -0.182486
4686 0.0375332 -0.246125 0.327443 -0.82439 -0.514333 0.165068 0.0274523 0.474688 0.172631 -0.0289044
2985 -0.390729 0.405578 0.736326 -1.48311 -0.350941 -0.134549 -0.286728 0.254135 0.162904 0.0875834
756 -0.00230779 0.0390476 0.562949 -1.04455 -0.13497 0.194194 -0.137988 0.378938 0.00668691 -0.189321
750 -0.215729 0.516076 0.946083 -1.49511 -0.00765754 0.0683592 -0.344225 0.24513 -0.055799 -0.197964
1627 -0.506515 -0.01072 0.841242 -1.62314 -0.201493 -0.0119616 -0.272092 0.0162798 0.00873578 -0.0273559
48 -0.161532 -0.664682 0.827259 -1.49532 -0.484813 0.0276781 -0.118104 -0.322028 -0.419125 -0.322536
191 -0.0952068 -0.460498 0.569668 -1.00595 -1.12314 0.385353 0.286908 0.124712 0.152504 0.0669701
2413 -0.117549 -0.66358 0.51678 -1.01314 -0.753062 0.166774 0.510549 0.13043 0.131025 0.226005
2057 0.124652 -0.170123 0.311972 -0.883161 -0.580551 0.478164 0.284344 0.536419 0.131341 -0.0668352
2312 0.109312 -0.438226 0.352888 -0.856289 -0.512199 0.606179 0.296077 0.454303 0.0541283 0.0636452
904 0.0603407 -0.372 0.345022 -0.977417 -0.595775 0.502799 0.469774 0.398678 0.0844492 0.230355
1527 -0.0548861 -0.17869 0.328038 -0.905539 -0.529485 0.187353 0.219927 0.434935 0.217069 0.0654235
101 -0.3269 -0.519836 0.869687 -1.30162 -0.389872 -0.138733 -0.0195604 -0.135066 -0.0539556 -0.138715
407 -0.3772 0.326751 0.754677 -1.5403 -0.311239 0.15333 -0.543118 0.15944 -0.0479822 -0.144983
3383 -0.0771441 -0.365691 0.530909 -1.06173 -0.19268 0.190803 -0.0734871 0.2059 0.0433002 -0.169817
3744 -0.177384 -0.268181 0.571806 -0.959687 -0.215195 -0.0774136 0.023003 0.218868 0.0732326 -0.0822674
2185 -0.431712 -0.450146 0.868312 -1.46791 -0.364861 -0.198547 -0.0553571 -0.142652 0.0285473 -0.0483529
575 -0.325833 -0.706776 0.916996 -1.39838 -0.52862 0.190892 -0.121186 -0.278268 -0.365564 -0.238717
1569 0.173866 -0.156561 0.457495 -0.858714 -0.441763 0.543062 0.281846 0.369127 0.0540635 -0.060267
1897 0.694875 -0.2467 0.473439 -0.623273 -0.168632 0.631852 0.128672 0.975807 0.140323 -0.4894
1376 0.332806 -0.610952 0.342224 -0.535641 -0.391929 0.483102 0.492678 0.98338 0.0657148 -0.347355
1592 -0.109125 -0.511185 0.208514 -0.800303 -0.363908 0.0647789 0.189915 0.644401 0.189553 -0.113634
4294 0.246208 -0.197284 0.368053 -0.671907 -0.300493 0.300582 0.0155947 0.613246 0.165577 -0.28509
152 -0.128024 -0.858477 0.761354 -1.24885 -0.985205 0.0398291 -0.411283 -0.0580414 -0.406291 -0.0820506
1780 -0.0947966 -0.0348664 0.32362 -0.922746 -0.718246 0.022037 0.154888 0.573551 0.439754 0.0714537
427 -0.273846 0.533025 0.97704 -1.56492 -0.344482 0.1411 -0.416782 0.204462 -0.122675 -0.145487
1281 -0.0473636 -0.34132 0.390055 -0.824657 -0.29487 0.221116 0.139204 0.394684 0.152735 -0.101092
1107 0.0734962 -0.431843 0.374489 -0.86598 -0.610461 0.194747 0.282249 0.437855 0.214442 0.15241
1108 -0.086132 -0.487915 0.32095 -0.803146 -0.496845 0.332477 0.280427 0.444555 0.214429 0.0154032
3333 -0.0710482 -0.301072 0.335854 -0.946772 -0.596114 0.0302982 0.0185123 0.435488 0.176001 0.00710978
2535 -0.0107393 -0.252282 0.389001 -0.812126 -0.366761 0.272814 0.154544 0.568811 0.0998445 -0.075314
4218 0.22859 -0.156381 0.306938 -0.607315 -0.172535 0.341972 0.0892256 0.523677 0.0432073 -0.231428
926 -0.198472 -0.647101 0.584416 -1.04493 -0.476797 0.155225 0.227172 0.0230056 0.0755502 0.130094
4995 0.0474669 -0.407953 0.373245 -0.737669 -0.220703 0.359413 0.214894 0.55242 0.0875337 -0.114157
2775 -0.0265481 -0.227241 0.354529 -0.662209 -0.207086 0.146889 0.154038 0.555772 0.116169 -0.152123
1003 -0.0824366 0.113882 0.497486 -0.933209 -0.0359735 0.0373972 0.0261699 0.472334 0.112714 -0.218022
752 -0.25945 0.576011 0.852297 -1.48902 -0.0248918 0.104974 -0.380431 0.334481 0.0240867 -0.206787
2495 -0.48333 0.313033 0.795961 -1.60375 -0.157614 0.0265341 -0.320518 0.121666 0.0927965 -0.149899
276 0.367764 -0.491972 0.235263 -0.842237 -0.260515 0.54406 0.248059 0.603957 -0.146385 -0.097557
2540 0.327075 -0.422871 0.10444 -0.923429 -0.271894 0.632992 0.374355 0.567695 -0.127052 -0.0273192
4460 -0.0716703 -0.482418 0.29761 -0.825744 -0.287155 0.256588 0.208953 0.5274 0.0609706 -0.0677209
798 -0.00228526 -0.660439 0.444946 -0.860679 -0.358037 0.282182 0.31469 0.519759 0.0581476 0.0086039
797 -0.032945 -0.621662 0.429384 -0.914516 -0.560081 0.254698 0.261178 0.329037 0.0670296 0.0959531
1106 -0.00193255 -0.457498 0.349876 -0.955825 -0.537186 0.404137 0.180853 0.36114 0.136236 0.114117
2387 0.159058 -0.171891 0.27371 -0.708514 -0.326414 0.521345 0.192907 0.451611 0.0122243 -0.0942482
81 0.304345 0.13611 0.599633 -1.13323 -0.3335 1.39233 0.892198 0.17137 -0.27757 -0.118523
82 0.348621 -0.0612536 0.594525 -1.11356 -0.400581 1.43535 0.759858 0.173083 -0.345295 -0.0264987
83 0.369407 0.0725595 0.522759 -1.0116 -0.345295 1.25141 0.662314 0.220417 -0.192092 0.0410406
2794 -0.00556779 -0.518478 0.346161 -0.775775 -0.0828737 0.232947 0.251275 0.637595 -0.00690548 -0.123122
825 -0.297451 -0.424503 0.690926 -1.17347 -0.572228 -0.0332221 0.0398936 0.091593 0.121475 0.068665
968 -0.284167 -0.041271 0.787339 -1.20549 -0.342452 0.0158459 0.0533362 0.200997 0.0716204 0.121044
2723 -0.0364012 -0.191119 0.357276 -0.80985 -0.420316 0.219357 0.127597 0.68532 0.23279 -0.144427
106 -0.263291 -0.616085 0.905388 -1.46932 -0.733482 0.128724 -0.407412 -0.291835 -0.258139 -0.272086
687 -0.436767 -0.154651 0.763722 -1.54615 -0.357648 -0.111502 -0.24291 0.0495724 -0.162878 0.0478632
3767 0.288986 -0.0575422 0.198517 -0.94514 -0.122223 0.57287 0.235718 0.623188 0.0111991 -0.1605
3766 0.54693 -0.284522 0.0729053 -1.05079 -0.0656108 0.908159 0.379698 0.786981 -0.205622 -0.120212
3992 0.559171 -0.174383 0.0962194 -0.951152 -0.137141 0.940023 0.308868 0.608901 -0.209179 -0.168393
547 0.055659 0.0266192 0.18815 -0.999192 -1.40614 0.224625 0.117974 0.721806 0.372501 0.124121
1611 0.0744478 0.0645175 0.168803 -0.935812 -1.19378 0.134208 0.141792 0.842415 0.551599 0.115122
722 -0.0737164 -0.120644 0.281363 -1.00565 -1.3055 0.0895681 -0.0677658 0.610269 0.43533 0.133674
1134 -0.0178771 -0.0173632 0.198692 -1.02539 -1.34691 -0.136997 0.0477964 0.899505 0.458133 0.315725
4551 0.219779 -0.020037 0.368096 -0.732667 -0.512689 0.285053 0.181799 0.725201 0.36217 -0.09218
2126 0.170545 -0.180398 0.403548 -0.862719 -0.390763 0.756685 0.176032 0.335348 0.0381419 -0.10871
1364 0.215365 -0.151184 0.316086 -0.918967 -0.166972 0.696996 0.350949 0.424078 -0.100957 -0.194361
1295 0.183932 -0.26212 0.473654 -1.21011 -0.228964 1.4489 0.2674 0.127102 -0.449006 -0.181472
1145 0.0802906 0.187511 0.89785 -1.01509 -0.776464 1.46713 0.594577 0.0708367 -0.101076 -0.067697
504 0.463796 0.0377386 0.562581 -0.979769 -0.702914 1.34576 0.347855 0.363209 -0.0730148 -0.0545101
76 -0.0885083 -0.0452215 0.823015 -1.00008 -0.781921 1.50817 0.513209 0.0649177 -0.0932762 -0.0322319
3439 0.344104 -0.486359 0.056634 -0.862803 -0.215578 0.714889 0.483597 0.594909 -0.200361 0.0858766
1243 0.0116598 -0.657189 0.605142 -0.998464 -0.965391 -0.0419466 -0.0825012 0.24287 -0.0520923 -0.0392533
2693 -0.471462 -0.588332 0.721329 -0.962536 0.357814 -0.417532 0.346965 0.981465 0.109754 -0.575649
654 -0.48347 -0.839895 0.620918 -0.9013 0.285949 -0.364119 0.260258 0.987986 0.256159 -0.565656
3603 -0.225137 0.156924 0.629601 -1.2811 -0.212159 0.126115 -0.252422 0.444847 0.0567214 -0.0200574
4280 -0.0416078 -0.00982943 0.466492 -1.01716 -0.224744 0.251726 -0.0477778 0.385146 0.111006 -0.104687
3936 -0.0643049 -0.113427 0.439231 -1.04085 -0.271395 0.176193 0.0230274 0.536819 0.147275 -0.0710971
1047 0.131359 -0.00787217 0.330578 -1.16743 -0.358585 0.5455 -0.16956 0.573455 -0.106824 -0.0147985
7 0.508081 -0.268775 0.122605 -1.20499 -0.296182 1.20297 0.06966 0.635603 -0.347865 -0.011166
1626 -0.201583 -0.254389 0.668322 -1.1939 -0.396835 0.0299207 -0.154881 0.0939732 0.0206706 -0.10496
1624 -0.229832 -0.0426339 0.784487 -1.26202 -0.0972756 0.206355 -0.282633 0.0836766 -0.0338796 -0.239592
3761 0.370569 -0.171604 0.264971 -0.953501 -0.12343 0.653862 0.224178 0.585682 -0.149111 -0.129061
3768 0.446591 -0.220072 0.133874 -0.992014 -0.160156 0.822616 0.272909 0.589755 -0.0548561 -0.0953217
4645 0.318484 -0.144391 0.249653 -0.863251 -0.176548 0.548092 0.218481 0.598871 -0.0380875 -0.237649
1097 -0.0772738 -0.811687 0.493256 -0.723376 -0.409525 0.102373 0.162124 0.516285 0.036747 -0.152173
532 -0.212302 -0.418165 0.512186 -0.951801 -0.351281 0.0825915 0.0701683 0.456399 0.154282 -0.0258776
1272 -0.268126 -0.378747 0.923764 -1.40711 -0.217697 -0.196796 0.0782735 -0.12445 -0.091313 -0.180644
318 -0.466206 -0.493435 0.851067 -1.52236 -0.525233 -0.04699 -0.0187585 -0.210267 -0.155296 -0.110363
697 -0.316558 -0.545017 0.700678 -1.31337 -0.507315 0.00949297 -0.0146756 0.0178103 0.0154382 0.103387
372 -0.266428 -0.477374 0.596669 -0.993473 -0.764118 -0.110883 0.183376 0.312644 0.0806836 0.043429
1270 -0.32642 -0.448127 0.940831 -1.62075 -0.19442 -0.0812304 0.0405481 -0.315941 -0.258921 -0.163411
9 0.332164 -0.428176 0.0412649 -0.903842 -0.310775 0.597134 0.302815 0.565586 -0.190299 0.126524
4252 -0.419991 -0.814341 0.55911 -0.885503 0.42071 -0.241449 0.348079 1.02688 -0.018353 -0.578285
1965 -0.719239 -1.10248 0.662258 -1.17767 0.400556 -0.266565 0.149763 0.986127 -0.173669 -0.678888
3485 -0.453695 -0.814743 0.771225 -0.950782 0.379297 -0.398654 0.227061 1.0008 0.0209397 -0.600627
3489 -0.63643 -0.934168 0.638284 -1.01124 0.341226 -0.393199 0.186821 1.02355 0.0737841 -0.552274
4338 -0.405951 -0.634621 0.59726 -0.884793 0.348847 -0.261577 0.274551 1.0006 0.114484 -0.567396
2346 -0.405748 -0.620559 0.621378 -0.846717 0.380288 -0.314772 0.334815 0.961227 0.150486 -0.604159
88 -0.341737 -0.908823 0.346397 -0.815185 0.15525 0.318856 0.0560502 0.909846 -0.0920651 -0.525479
1846 0.0189023 -0.310676 0.357249 -0.769063 -0.211808 0.259918 0.0417485 0.618029 0.193003 -0.234383
1845 0.0425202 -0.282364 0.389361 -0.734217 -0.125719 0.248515 0.139901 0.673733 0.122063 -0.268858
4720 -0.232142 0.0825427 0.555819 -1.00995 -0.173105 0.0354479 -0.0404288 0.360699 0.138828 -0.179939
689 -0.490506 0.0329089 0.785834 -1.69503 -0.435551 -0.0352822 -0.279944 -0.0383014 0.0657382 0.046891
1000 -0.124926 -0.0196817 0.467544 -1.03303 -0.211965 0.0482067 -0.0619787 0.456495 0.140979 -0.0786179
4203 -0.0991481 -0.0234091 0.34957 -0.849893 -0.532744 0.0481377 0.107083 0.635877 0.37486 -0.0246361
1293 -0.344439 0.0423993 0.311265 -1.40536 -1.30042 -0.269336 -0.243482 0.664816 0.27336 0.415823
3501 -0.414315 -0.27963 0.623882 -1.19499 -0.525321 -0.112497 -0.0458063 0.171636 0.19298 0.00179905
1642 0.0664931 -0.0585087 0.293059 -0.977528 -0.659789 0.181549 0.213727 0.453656 0.309681 0.0785864
2835 -0.0724917 -0.384323 0.452636 -0.926963 -0.667667 0.243481 0.32038 0.377959 0.27408 0.174235
163 0.0461027 -0.546365 0.487581 -0.925329 -0.398922 0.196177 0.277032 0.244284 0.0963205 0.072196
2328 0.081719 -0.310491 0.354948 -0.732626 -0.255464 0.251316 0.173699 0.45338 0.152509 0.0214005
2329 -0.223116 -0.672993 0.582996 -1.00872 -0.54068 0.0586436 0.306685 0.133115 0.0307767 0.0815749
2201 0.105744 -0.26186 0.333605 -0.831241 -0.237585 0.347327 0.283167 0.503324 0.116862 -0.120677
535 0.257847 0.094942 0.808493 -1.07557 -0.315808 1.285 0.649251 0.0336369 -0.287477 -0.248666
1630 -0.135052 -0.35733 0.518737 -0.974988 -0.888415 -0.0122129 -0.061657 0.433012 0.124314 0.0188648
1908 -0.0498815 -0.212186 0.348353 -0.963358 -0.762565 -0.0946462 0.0865826 0.508033 0.267693 0.0930421
454 -0.245652 -0.169767 0.435686 -1.10014 -0.873767 -0.0195804 0.257231 0.265005 0.29957 0.274565
1762 -0.541047 -0.762047 0.790773 -1.02571 0.385334 -0.495117 0.19515 0.891963 0.00282655 -0.726625
221 -0.148619 0.077617 0.341945 -1.07041 -0.595344 0.113862 -0.260224 0.495067 0.305258 0.0732645
2269 -0.195549 -0.0212946 0.389328 -0.984574 -0.648064 -0.0214601 -0.214848 0.543149 0.312034 0.112378
3945 -0.206729 -0.107055 0.418049 -0.923904 -0.156059 0.00731173 0.0317453 0.330304 0.113307 -0.050715
4745 0.393551 -0.160025 0.279996 -0.704965 -0.0769297 0.465103 0.160733 0.637327 0.0785566 -0.342766
868 0.61759 -0.134919 0.285965 -0.768979 -0.107234 0.767565 0.156906 0.868591 -0.207535 -0.452086
865 0.670133 -0.35801 0.242953 -0.770312 -0.208057 0.792087 0.257815 0.962482 -0.0390078 -0.430672
1656 0.335563 -0.347122 0.359874 -0.756568 -0.172978 0.520234 0.0737596 0.838636 0.0736223 -0.3476
1302 -0.250716 -0.88428 0.472443 -0.808347 -0.694272 0.12225 0.20024 0.504337 0.0896519 0.115431
2941 0.0556449 -0.243312 0.381068 -0.815045 -0.187194 0.335614 0.17659 0.575303 0.13198 -0.162799
606 0.218736 -0.586334 0.0131151 -0.983665 -0.435396 0.577034 0.332427 0.514501 -0.213137 0.109028
435 0.272314 -1.48483 -0.307956 -1.32484 -0.838321 1.02255 0.415808 0.427288 -0.380328 0.457042
35 0.171448 -0.71744 0.197847 -1.1603 -0.406533 0.63725 0.293398 0.34894 -0.131065 0.192743
4132 -0.229804 -0.0841773 0.583039 -0.986118 -0.0414954 -0.0456278 0.00817405 0.366597 0.083643 -0.170555
4131 -0.117576 -0.0988218 0.503776 -0.919118 -0.0833094 0.112154 0.00847733 0.411732 0.0795877 -0.14086
398 -0.418612 -0.461293 0.881384 -1.64682 -0.541208 -0.330236 0.113432 -0.209025 -0.133136 0.0970071
1602 -0.261815 -0.524147 0.625788 -1.07445 -0.463978 -0.0318586 -0.0124644 0.239997 0.17313 -0.0459442
1190 -0.212579 -0.477689 0.501212 -0.95198 -0.43226 0.0528803 0.182514 0.337772 0.074579 0.0384322
2349 -0.271003 -0.471934 0.628023 -0.804004 0.27095 -0.25382 0.222397 0.785575 0.159059 -0.451168
2106 -0.224152 -0.512406 0.405221 -0.757927 0.278834 -0.179562 0.320551 0.911627 0.068868 -0.535993
1027 -0.579977 -1.00489 0.517551 -1.26398 0.697644 -0.249281 0.54243 0.965179 -0.2383 -0.706217
1309 -0.60716 -0.796205 0.709726 -0.975819 0.375363 -0.483067 0.421394 1.07309 0.189369 -0.62394
1028 -0.621277 -1.04863 0.666656 -1.16985 0.513902 -0.493805 0.348731 1.0982 0.10757 -0.758369
1516 -0.709857 -1.09655 0.621521 -1.16724 0.637208 -0.153101 0.172149 1.00365 -0.240006 -0.749512
1764 -0.685821 -1.07425 0.646675 -1.28694 0.594331 -0.263709 0.182493 0.891431 -0.286883 -0.744188
3525 -0.497449 -0.838684 0.562503 -0.836992 0.269605 -0.309217 0.263723 1.02177 0.0518845 -0.532044
3667 0.0126299 0.000494134 0.287475 -0.9401 -0.647737 0.13094 0.12165 0.588718 0.314829 -0.0477751
1613 0.0614213 0.111977 0.184012 -0.925454 -1.28248 0.112708 0.174244 0.911698 0.669248 0.076831
1450 0.0437304 -0.0154805 0.0813953 -0.963887 -1.08932 0.142492 0.120319 0.695664 0.48062 0.258644
564 0.0526416 -0.118209 0.285071 -1.01846 -0.648564 0.346402 0.160432 0.659094 0.251477 0.0347662
38 0.272578 -0.272525 0.283298 -0.838052 -0.0919253 0.553973 0.262444 0.505438 -0.136291 -0.11782
41 0.323082 -0.40905 0.122574 -1.01441 -0.14181 0.66382 0.273129 0.519156 -0.137562 -0.0484143
847 -0.258683 0.145567 0.362939 -1.24103 -1.24152 -0.0658787 -0.204868 0.646714 0.485623 0.169576
4266 -0.170331 -0.0616537 0.388557 -1.01028 -0.660027 -0.0781528 -0.0579448 0.481051 0.224446 0.0597962
2648 0.433464 -0.179401 0.414942 -0.692069 -0.182484 0.45575 0.0970878 0.817194 0.148369 -0.426326
1742 0.604443 -0.240808 0.343829 -0.75315 -0.202772 0.821285 0.142127 0.946805 0.0963245 -0.404058
816 0.815728 -0.366558 0.333327 -0.638885 -0.228912 0.825808 0.209647 0.996013 -0.0146 -0.492239
1735 0.719726 -0.443781 0.351667 -0.650144 -0.366642 0.793952 0.0182879 1.08555 0.0592751 -0.660757
125 0.930516 -0.43916 0.523386 -0.63951 -0.179396 0.895508 0.0963178 1.25595 -0.0250774 -0.781827
356 1.03872 -0.655587 0.703487 -0.74276 -0.361915 0.822868 0.118173 0.629335 -0.0302671 -0.653364
148 -0.0226045 -0.374609 0.334169 -0.63758 -0.0358856 0.467365 0.473258 0.825502 -0.0630794 -0.203399
910 0.750642 -0.318899 0.40512 -0.582553 -0.102848 0.75514 0.0965213 1.02043 0.0131207 -0.630155
1323 0.648626 -0.304338 0.455301 -0.716623 -0.260858 0.719401 0.0962505 0.905597 -0.0241217 -0.620475
1321 0.382845 -0.261159 0.342553 -0.687813 -0.171693 0.474314 0.10285 0.7302 0.0352135 -0.34825
1704 0.823022 -0.209262 0.333827 -0.68862 -0.181321 0.837389 0.258809 1.02252 0.0803606 -0.508525
194 0.928283 -0.288579 0.77324 -0.508608 -0.342471 0.671876 0.0806117 0.971191 0.0986021 -0.715287
3020 0.385426 -0.171512 0.36628 -0.653914 -0.0857448 0.461263 0.109567 0.821931 0.0959781 -0.405017
3309 0.587725 -0.255327 0.399096 -0.550422 -0.137406 0.511314 0.0622236 0.880342 0.0629726 -0.543639
3421 0.0400604 -0.323203 0.282236 -0.803486 -0.282282 0.187645 0.132724 0.516092 0.141436 -0.0550602
364 0.30382 -0.570219 0.132715 -1.40995 0.20526 1.18379 0.165823 0.416325 -0.780663 -0.117662
1032 0.270954 -0.459353 -0.00176778 -1.05745 -0.102067 0.976758 0.116179 0.542347 -0.383224 -0.0987994
508 0.314555 -0.478906 0.0896389 -1.25566 0.078006 1.11914 0.109529 0.547074 -0.633907 -0.199371
591 -0.435056 -0.618334 0.722425 -0.982727 0.475071 -0.326587 0.319108 0.840038 0.0196975 -0.58369
4093 0.531911 -0.216014 0.435432 -0.562721 -0.154958 0.569376 0.101558 0.72614 0.137875 -0.419992
1163 1.00094 -0.289684 0.758828 -0.56864 -0.297091 0.772562 0.0690325 1.06519 0.110682 -0.883643
121 0.70204 -0.366987 0.438726 -0.645282 -0.288496 0.891213 -0.0723649 1.11119 -0.0196444 -0.64585
4859 0.392501 -0.221194 0.361035 -0.660807 -0.203107 0.46633 0.095198 0.819509 0.0991314 -0.371339
1913 0.278256 -0.323149 0.375217 -0.792249 -0.162925 0.528273 0.134416 0.611631 -0.0133437 -0.291301
791 0.0803367 -0.682143 0.267801 -0.948967 -0.529409 0.599229 0.434723 0.495712 0.0554428 0.0517155
503 0.149796 -0.22805 0.446382 -0.992903 -0.405248 0.759987 0.399212 0.151251 0.0202581 0.0222439
22 -0.300011 -0.295182 0.231427 -0.960589 -1.35505 0.158339 -0.317138 0.876004 0.145414 0.0427914
1135 0.121704 -0.154916 0.28091 -0.823231 -0.539484 0.266968 0.0939184 0.658033 0.204093 0.00349192
579 0.399511 -0.140626 0.27743 -0.851386 -0.107826 0.724667 0.249977 0.70943 -0.0741888 -0.175449
1790 -0.41182 -0.687586 0.527331 -0.873468 0.192509 -0.30902 0.325095 0.927909 0.139452 -0.55505
1311 -0.543265 -0.935728 0.488111 -1.23734 0.556881 -0.314551 0.26897 0.894375 -0.309998 -0.665115
2256 -0.358467 -0.672138 0.600783 -0.826351 0.257062 -0.317171 0.26768 0.993393 0.0672991 -0.493844
3338 -0.270676 0.257633 0.608114 -1.1623 -0.306455 0.0941732 -0.347819 0.378022 0.153347 -0.0961835
854 -0.279518 0.504676 0.939107 -1.77709 -0.268859 0.0421175 -0.310641 -0.0083366 -0.00358188 -0.0274013
2726 -0.169673 0.0888551 0.300275 -1.22512 -1.05641 -0.029395 -0.204813 0.542409 0.306159 0.208494
2727 -0.0921744 0.0151118 0.251495 -0.971676 -0.860303 0.0585041 0.0572497 0.539225 0.293848 0.187763
44 0.21296 -0.351053 0.0621075 -0.995586 -0.259363 0.574613 0.304318 0.479873 -0.145638 -0.0285362
603 0.417659 -1.06417 -0.118415 -1.38028 -0.531889 1.01807 0.502927 0.417032 -0.540343 0.344476
367 0.533408 -0.296706 0.158348 -1.06845 -0.138765 1.0533 0.412464 0.570204 -0.446293 -0.115267
366 0.352465 -0.331488 0.226492 -0.960278 -0.138678 0.898254 0.268037 0.580798 -0.284086 -0.0755156
2735 0.454167 -0.330825 0.19004 -0.869353 -0.0949424 0.8988 0.194113 0.623219 -0.169595 -0.247638
658 0.752464 -0.457617 0.0705359 -1.12157 -0.190233 1.15495 0.449266 0.752318 -0.549333 -0.0745259
12 0.172197 -0.852418 -0.0932504 -1.23252 -0.0827621 0.923987 0.133191 0.844038 -0.82646 0.0687383
4988 -0.286998 0.054644 0.601008 -1.13057 -0.0840617 0.0205607 -0.0964761 0.351626 0.13437 -0.135349
597 -0.313518 0.19469 0.542677 -1.09738 -0.127991 0.0155759 -0.151397 0.464453 0.144824 -0.11642
601 -0.401271 0.602736 0.809213 -1.4506 -0.454792 0.153791 -0.411634 0.276289 -0.0047379 -0.142221
937 -0.350944 0.407527 0.734907 -1.38496 -0.30559 -0.0216098 -0.318951 0.426983 0.0910478 -0.0367696
3601 -0.263793 0.0976663 0.653421 -1.24286 -0.135575 0.0386118 -0.21343 0.396608 0.0739609 -0.158064
487 -0.471924 -0.0984919 0.250293 -1.51917 -1.15198 -0.0689742 -0.553033 0.446697 0.383671 0.162012
3577 0.104021 -0.0862633 0.413422 -0.867067 -0.257597 0.347885 0.218511 0.512606 0.0543743 -0.11114
336 0.288203 -0.102304 0.52649 -0.974318 -0.867649 1.19346 0.704614 0.168921 -0.292512 -0.113759
1144 0.0718952 0.076229 0.8332 -1.02 -0.593068 1.61044 0.75388 0.143298 -0.107117 -0.0689477
727 0.325805 -0.0205195 0.519616 -0.959894 -0.234085 1.10634 0.30546 0.437215 -0.122912 -0.0880727
119 -0.125099 -1.00783 0.139337 -0.832356 -0.10571 0.193961 0.190184 0.903523 -0.417988 -0.382466
197 0.341817 -0.311003 0.336109 -0.635023 -0.104234 0.420379 0.135057 0.758081 0.0674062 -0.407901
4744 0.0730523 -0.200351 0.281003 -0.724184 -0.187074 0.350364 0.0991926 0.43073 0.0953193 -0.0295727
4743 0.0694272 -0.165495 0.264081 -0.691447 -0.168421 0.249365 0.129394 0.523459 0.0536189 -0.0851994
274 -0.0685999 0.0242309 0.23402 -0.906721 -0.419468 0.387225 0.221337 0.723685 -0.0606342 -0.00647028
593 -0.287649 -0.758839 0.653707 -0.876311 0.397933 -0.16436 0.330221 0.886977 -0.0684313 -0.637843
645 -0.516096 -0.783574 0.764125 -1.02443 0.452991 -0.349445 0.335721 0.995673 0.0732515 -0.668569
4906 -0.338812 -0.620439 0.436678 -0.738538 0.182345 -0.334653 0.324974 0.921874 0.147536 -0.421765
2352 0.605714 -0.232498 0.431672 -0.544925 -0.12602 0.594584 0.217636 0.94805 0.130929 -0.514895
969 0.811516 -0.465016 0.511853 -0.614959 -0.261209 0.710105 0.13429 1.05535 0.0167004 -0.648751
2047 0.650422 -0.24125 0.389956 -0.61667 -0.28393 0.656046 0.113624 0.948194 0.07333 -0.547604
352 0.758412 -0.193935 0.635385 -0.697102 -0.184363 0.719721 0.0432561 0.756539 -0.0901979 -0.531115
874 0.869923 -0.574541 0.657941 -0.573116 -0.322584 0.933586 -0.0660406 1.30259 -0.0533932 -0.841243
1555 0.577515 -0.573993 0.0314662 -1.33772 -0.173379 1.09718 0.439094 0.441862 -0.501633 0.114659
441 0.469809 -0.472679 0.0392188 -1.48179 -0.100214 1.25626 0.00523439 0.504045 -0.76262 0.0800434
4958 -0.463518 -0.629092 0.629473 -0.856846 0.338505 -0.379564 0.269609 0.867242 0.107331 -0.544007
1029 -0.514632 -0.714964 0.710086 -0.947478 0.520773 -0.472553 0.405063 1.04183 0.167032 -0.702972
656 -0.454612 -0.793745 0.618001 -0.877766 0.38591 -0.338694 0.386653 1.13707 0.233816 -0.595827
1390 -0.0460926 -0.624098 0.33047 -0.762396 -0.262202 0.196546 0.26758 0.622869 0.0854988 -0.0963307
1935 0.0691275 -0.385625 0.281607 -0.863573 -0.141899 0.244728 0.181865 0.500012 0.0447982 -0.109783
86 -0.032568 -0.283503 0.348336 -0.733399 -0.0616056 0.131249 0.175316 0.637552 0.112072 -0.272525
87 -0.144055 -0.984677 0.544672 -0.674079 -0.0111182 0.286554 0.216454 1.00894 -0.317894 -0.58579
1852 -0.332369 -0.612345 0.583697 -0.888856 0.455874 -0.140909 0.249672 0.932748 0.0790383 -0.563577
3645 -0.331049 -0.628323 0.491972 -0.87444 0.253288 -0.0671423 0.226091 0.740188 0.0388536 -0.412167
1365 -0.0248375 -0.108329 0.295178 -0.912482 -0.719155 0.137202 -0.0674219 0.619181 0.318563 0.0861493
4606 -0.107538 -0.0848024 0.432479 -0.812517 -0.310511 0.0502162 -0.0163599 0.493177 0.163345 -0.0679623
56 -0.0953161 -0.497407 0.960294 -1.5058 -0.906061 -0.312091 -0.0347925 -0.293777 -0.612305 -0.482358
4808 0.194359 -0.15776 0.286989 -0.867954 -0.324248 0.489792 0.258725 0.536056 0.0525258 -0.0631192
3637 0.116206 -0.348291 0.244309 -0.631413 -0.185159 0.261028 0.100574 0.463072 0.0581983 -0.0536506
4325 0.264073 -0.767895 -0.0373874 -0.976334 -0.444259 0.640872 0.442703 0.51766 -0.192981 0.158272
1017 -0.248722 -0.370166 0.766718 -1.2387 -0.303565 -0.120934 0.00980931 -0.118351 -0.0862285 -0.0914417
107 -0.283251 -0.632816 0.878324 -1.36214 -0.59391 -0.0644146 -0.178412 -0.219807 -0.114849 -0.10133
96 -0.354762 -0.667671 1.04476 -1.53293 -0.425231 -0.074936 -0.167744 -0.320226 -0.286521 -0.293839
3480 0.251218 -0.214365 0.221211 -0.889444 -0.0921826 0.481149 0.138623 0.508999 -0.0840355 -0.125505
3481 0.192135 -0.195866 0.304964 -0.917059 -0.0545831 0.502393 0.142792 0.436607 -0.0842177 -0.134877
1362 0.195794 -0.218743 0.447287 -1.02594 -0.271909 1.16314 0.305105 0.246719 -0.408201 -0.195973
1524 0.551256 -0.26774 0.112547 -1.0217 -0.0359731 0.97828 0.307737 0.677765 -0.309558 -0.124067
1521 0.400883 -0.170929 0.145713 -0.998498 -0.0875834 0.785662 0.22505 0.62749 -0.250875 -0.0518228
4673 -0.214899 -0.40481 0.551189 -0.964457 -0.383105 0.0558327 -0.0233126 0.255692 0.107818 -0.125902
561 0.078838 0.047774 0.215693 -1.05213 -1.34203 0.534048 0.0687054 0.66017 0.390383 0.209948
1607 0.184925 0.0082835 0.208713 -0.918911 -0.912721 0.273441 0.213741 0.798335 0.438771 0.0711072
4190 0.175927 -0.00316115 0.243318 -0.772348 -0.599494 0.210978 0.213148 0.743344 0.384697 0.00991949
73 0.8373 -0.489672 0.85327 -0.516936 -0.566355 0.736386 -0.234197 1.02336 -0.00351102 -0.748203
3127 0.324255 -0.147136 0.376484 -0.636138 -0.0823116 0.463289 0.0973204 0.722954 0.0875776 -0.328495
853 -0.38681 0.564282 0.850653 -1.5646 -0.19771 -0.159817 -0.242439 0.240703 0.114468 -0.087634
375 -0.429339 -0.261376 0.918209 -1.3659 -0.0939803 -0.133846 -0.00114284 0.0427549 -0.0496109 -0.139171
1328 -0.149779 -0.185677 0.591832 -0.932192 -0.114609 -0.0971417 0.0260013 0.367736 0.0515789 -0.135574
3329 0.228569 -0.203143 0.223446 -0.73906 -0.0799896 0.482816 0.161383 0.653325 0.0184145 -0.194765
257 0.142411 -0.256365 0.292252 -0.890447 -0.21496 0.729146 0.00492934 0.836092 -0.339722 0.212331
542 0.210922 -0.77591 0.079207 -0.993517 -0.202045 0.68629 0.258736 0.718489 -0.186583 0.0643835
2193 -0.0365796 -0.473811 0.473294 -0.920552 -0.445886 0.180828 0.167702 0.320555 0.0889006 0.0222756
3845 -0.216998 -0.380432 0.476305 -0.72643 0.0400967 -0.0936183 0.157636 0.693433 0.0634458 -0.327394
3644 -0.374611 -0.676326 0.704452 -0.885834 0.361937 -0.258855 0.391436 0.814016 0.0777144 -0.488444
796 -0.0965173 -0.600493 0.436586 -0.909381 -0.467749 0.290013 0.20888 0.335113 0.148842 0.12871
927 -0.228628 -0.689783 0.526039 -0.945406 -0.581379 0.0688123 0.34884 0.147274 0.128189 0.218857
309 0.00175139 -0.644189 0.459174 -0.979345 -0.571501 0.379734 0.531551 0.132568 0.179011 0.283176
4381 0.263551 -0.262281 0.349442 -0.758486 -0.174251 0.500658 0.074452 0.753308 0.138354 -0.28673
1737 0.768649 -0.439618 0.477133 -0.592843 -0.347946 0.816209 -0.082419 1.15775 0.02576 -0.655598
4650 0.0449208 -0.140842 0.323776 -0.880096 -0.546125 0.285052 0.152237 0.702184 0.249842 -0.0270155
507 0.0051296 -0.787548 0.0932157 -1.23302 -0.0343085 1.08935 0.146737 0.436331 -0.830354 -0.209087
2086 0.377523 -0.00782348 0.458751 -0.974941 -0.357893 0.949478 0.529527 0.288174 -0.0303908 -0.0197475
233 0.045515 -0.27083 0.388861 -0.836379 -0.478827 0.341099 0.097529 0.56366 0.156153 -0.0950216
229 0.00767329 -0.15427 0.425958 -0.810111 -0.28906 0.267595 0.0910074 0.522492 0.142543 -0.15072
296 0.217794 -0.439379 0.496734 -1.0149 0.201683 0.725971 0.212417 0.36265 -0.621244 -0.450511
3819 -0.0354993 -0.228391 0.50081 -0.921242 -0.0870208 0.129938 0.0228743 0.267412 -0.0690084 -0.188729
1507 0.0691794 -0.215645 0.56004 -1.3948 0.0189675 0.607837 -0.0303694 -0.0451741 -0.500157 -0.170627
173 0.332674 -0.584502 -0.0344366 -1.49541 0.078974 1.29781 0.184839 0.54432 -0.901148 0.0322717
312 -0.325317 -1.11445 0.17255 -0.708148 -0.926613 0.15708 0.217606 0.864489 0.112563 -0.0191195
4122 -0.228924 -0.376202 0.480417 -0.830179 0.0761204 -0.126007 0.0698336 0.579856 0.104408 -0.365611
1669 0.211911 -0.424544 0.0675704 -0.731208 -0.214137 0.440496 0.26791 0.524037 -0.0326242 0.0188964
2577 0.247682 -0.244057 0.310739 -0.733922 -0.298186 0.439876 0.0396888 0.756087 0.205737 -0.255696
2322 0.442646 -0.177057 0.130953 -0.784097 -0.634387 0.40126 0.139965 0.844592 0.1565 -0.0359802
1645 -0.00887795 0.0981178 0.519772 -1.01301 -0.265318 0.263613 0.126289 0.264537 0.0305467 -0.0621991
850 -0.345615 0.422788 0.796297 -1.58017 -0.169982 0.286783 -0.340892 0.117686 -0.0496143 -0.0643878
1925 0.278945 -0.750776 -0.0405655 -0.970691 -0.351181 0.638242 0.559752 0.616611 -0.16484 0.0477965
2830 -0.249362 0.382392 0.674614 -1.26946 -0.139472 -0.0115733 -0.274137 0.44564 0.200104 -0.131281
743 -0.378118 0.352984 0.788069 -1.48962 -0.528923 0.215726 -0.778208 0.238616 -0.00939019 -0.237949
3757 -0.281984 -0.0727998 0.543854 -1.08951 -0.163763 0.0265361 -0.115666 0.328365 0.0943457 -0.0837375
409 -0.413518 0.450274 0.879305 -1.76435 -0.202196 0.179221 -0.446029 0.0960874 -0.052565 -0.204231
3933 -0.135008 0.0196776 0.604039 -1.06496 -0.0490531 0.0141256 -0.0145928 0.362367 0.13331 -0.180904
1007 -0.158787 0.0934621 0.562977 -1.01486 -0.123429 0.0816269 -0.0677549 0.365149 0.0818246 -0.164376
3709 -0.112606 -0.528076 0.47918 -0.877147 -0.303691 0.238903 0.266728 0.517769 0.0690979 -0.0954081
1304 -0.120116 -0.927331 0.514463 -0.864349 -0.565281 0.15233 0.659433 0.239739 0.0398146 0.154942
201 -0.073297 -0.709632 0.482067 -0.867872 -0.902864 0.235819 0.445027 0.344751 -0.0273949 0.232576
1758 0.0341317 -0.432854 0.403264 -0.701738 -0.191635 0.201424 0.225225 0.674223 0.0808446 -0.176857
2422 -0.000876722 -0.314835 0.494217 -0.882971 -0.422252 0.205088 0.1504 0.420083 0.149879 -0.0038524
4563 -0.239526 0.0041081 0.626145 -1.08457 -0.181014 0.140368 -0.21288 0.402113 0.089332 -0.12897
581 0.100456 -0.729933 0.239889 -1.09355 -0.406382 0.579336 0.207585 0.169091 -0.375641 0.133257
319 -0.451821 -0.621923 0.924571 -1.46563 -0.396706 -0.319125 0.0441276 -0.160317 -0.0943225 -0.115341
1955 -0.144267 -0.222151 0.581352 -1.13379 -0.151773 0.096247 -0.0316929 0.14637 -0.0376899 -0.149909
1816 0.680424 -0.282005 0.187044 -0.877292 -0.159351 0.948109 0.358021 0.881074 -0.041355 -0.288007
1817 0.484287 -0.179365 0.199235 -0.87749 -0.185802 0.782792 0.23374 0.710075 -0.0868212 -0.256638
4783 0.123483 -0.27671 0.258612 -0.7499 -0.206235 0.354081 0.148394 0.543274 0.0886485 -0.0959495
1734 0.762609 -0.676423 0.700219 -0.62509 -0.47066 0.748438 -0.313383 1.09399 -0.0647046 -0.766827
3782 0.552941 -0.366696 0.430107 -0.601559 -0.204626 0.592048 0.0438022 0.96835 0.0962496 -0.501446
537 0.643018 -0.323156 0.458617 -0.668982 -0.184494 0.708155 0.104279 0.710766 -0.0361411 -0.435198
2699 0.395356 -0.202291 0.341014 -0.62289 -0.20341 0.506037 0.112248 0.790262 0.0755391 -0.370408
974 0.781586 -0.609645 0.452049 -0.64507 -0.303123 0.987508 -0.0923012 1.08563 -0.119802 -0.663747
347 0.567754 -0.276052 0.327976 -0.75625 -0.203976 0.77023 0.177832 0.847733 -0.0931715 -0.322387
4267 0.435911 -0.103679 0.34629 -0.63674 -0.0212351 0.643216 0.156002 0.780915 -0.00786904 -0.407766
2531 0.441884 0.0780262 0.36355 -0.718097 -0.553903 0.520074 0.164231 0.740464 0.161117 -0.21541
1722 0.176492 -0.287759 0.602597 -0.694165 -0.538626 0.21325 -0.00826619 0.469166 0.108952 -0.16125
2164 -0.0246765 0.0976404 0.406366 -1.0166 -0.405657 0.297378 -0.137713 0.420155 0.0200528 -0.0492088
271 -0.106143 -0.25748 0.511408 -1.05851 -0.424557 0.18608 0.0393108 0.292494 0.037836 0.055967
1022 -0.32418 -0.936337 0.679356 -1.21727 -0.670443 0.022705 -0.0494218 -0.0762628 -0.0963618 0.0355789
1012 -0.262239 -0.701679 0.655484 -1.29801 -0.648847 0.0336798 -0.0454175 -0.0403792 -0.188879 0.0412377
265 0.192682 -0.550062 0.49973 -0.787133 -0.3444 0.429713 -0.0842728 0.609841 -0.209066 -0.113927
302 0.167124 -0.27275 0.594424 -0.947492 -0.43964 0.679013 0.534004 0.100419 -0.0372731 0.0118944
2588 0.258921 -0.430547 0.454077 -0.825271 -0.506358 0.520342 0.33321 0.327915 0.00948435 0.0285116
329 -0.551087 -0.787456 0.258927 -1.01738 -0.350228 0.436429 -0.738842 1.03388 -0.51137 0.557328
1105 -0.201532 -0.143259 0.293353 -1.20577 -0.901069 0.0575703 -0.260661 0.541799 0.233862 0.26304
2388 0.145402 -0.194509 0.286796 -0.834737 -0.118046 0.395859 0.170601 0.506337 0.0262495 -0.185019
1360 0.440221 -0.3038 0.0431815 -1.54175 -0.233903 1.36752 -0.00538412 0.34441 -0.703678 0.104772
1941 0.727568 -0.216903 0.391564 -0.536901 -0.245325 0.580608 0.111841 0.975559 0.126601 -0.537222
977 0.956172 -0.265073 0.491517 -0.520527 -0.241284 0.933054 0.12005 1.34917 0.0613892 -0.754955
1034 0.507215 -0.186587 0.348841 -0.627443 -0.401745 0.505058 0.0529343 0.909223 0.195891 -0.370049
1567 -0.0668572 -0.140515 0.290989 -0.806013 -0.388509 0.017564 0.0513158 0.443635 0.271275 -0.0127218
3866 0.0507154 -0.233319 0.366616 -0.727047 -0.0869923 0.143277 0.121278 0.427364 0.0518106 -0.137533
116 -0.18426 -0.962089 0.202555 -0.789034 0.058738 0.201661 0.412724 1.00806 -0.612637 -0.538487
1826 -0.0339662 -0.578789 0.41555 -0.660349 0.0262225 0.0543371 0.208329 0.738134 0.0959438 -0.407458
515 -0.014472 -0.280783 0.368378 -0.797649 -0.273052 0.0637791 0.258639 0.530593 0.182312 -0.120186
311 -0.112814 -0.564172 0.475003 -1.00547 -0.530251 0.412258 0.134841 0.104847 0.0672424 0.154851
3136 -0.00610054 -0.108271 0.326528 -0.807936 -0.38193 0.164782 0.220757 0.605243 0.198479 -0.0453276
3257 0.0898224 -0.0828428 0.256393 -0.763287 -0.521332 0.212625 0.172717 0.55342 0.221075 -0.0916518
231 0.153658 -0.110432 0.42531 -0.731849 -0.948447 0.5174 0.353124 0.630246 0.428001 -0.0310475
2731 0.00428434 -0.263525 0.38881 -0.813899 -0.426692 0.326737 0.216135 0.521815 0.180411 -0.137884
297 -0.0813053 -0.945853 0.472059 -0.887521 -0.782821 0.31487 0.652733 0.149787 -0.0221716 0.128803
1284 -0.173265 -0.524681 0.629889 -0.929829 -0.315858 0.110256 0.117544 0.191317 0.0353582 -0.0992704
3491 -0.315656 -0.472452 0.568099 -0.833313 0.282253 -0.18305 0.193863 0.809473 -0.00140234 -0.446271
611 0.678868 -0.696764 0.465173 -0.593681 -0.317653 0.9179 -0.168184 1.09051 -0.00233107 -0.761664
1437 -0.235156 -0.72478 0.360647 -1.09962 0.0784505 0.628808 -0.315982 0.593452 -0.464851 0.387362
2867 -0.046418 -0.38306 0.320662 -0.840615 -0.0909126 0.179758 0.0575854 0.65877 -0.0132407 -0.0136384
1940 -0.0909432 -0.424456 0.617772 -1.22729 -0.279158 0.276828 -0.0611003 -0.0542566 -0.194792 -0.110059
165 -0.213116 -0.696146 0.679908 -1.31415 -0.620115 -0.00152017 0.193019 -0.116041 -0.109781 0.164365
2445 -0.178031 -0.815325 0.392236 -0.830565 -0.336891 0.115366 0.128747 0.491116 0.0204767 -0.0906567
1970 -0.425157 -0.835822 0.620125 -0.91126 0.386686 -0.302887 0.368843 1.00684 -0.0135423 -0.670322
646 -0.530561 -0.896967 0.732269 -0.972165 0.226837 -0.451063 0.289563 0.906021 0.0532248 -0.518621
4837 0.248669 -0.300152 0.311499 -0.768804 -0.225502 0.408808 0.157658 0.662154 0.127611 -0.217618
3050 0.206898 -0.358627 0.44578 -0.790826 -0.0530982 0.377499 0.21709 0.883945 0.0588851 -0.458037
1231 0.56917 -0.349821 0.220507 -0.91826 -0.331986 0.881181 0.184306 0.841484 -0.100004 -0.199918
3054 0.0972838 -0.396859 0.31798 -0.832391 -0.231825 0.301757 0.107571 0.6702 0.190956 -0.234565
1310 -0.435798 -0.66361 0.611936 -0.847469 0.375671 -0.262602 0.303568 1.05793 0.241512 -0.551511
877 -0.521761 -1.18722 0.42485 -0.744638 0.189741 -0.269686 0.328955 1.35377 0.546155 -0.507681
2660 0.294967 -0.163002 0.325076 -0.633024 -0.0903081 0.353803 0.170115 0.693927 0.0655159 -0.288803
67 0.132831 -0.54035 -0.0917519 -1.69611 -0.0866183 1.39754 -0.371818 0.503983 -0.967442 0.263621
2145 0.301028 -0.199951 0.178251 -1.00469 -0.139362 0.905459 0.16024 0.490114 -0.297532 -0.0905202
3341 -0.192919 0.0610913 0.455828 -1.15326 -0.285357 0.141139 -0.0906098 0.340364 0.10955 -0.0592559
2442 0.289011 -0.410528 0.275406 -0.736325 -0.14525 0.453558 0.185328 0.69483 -0.045185 -0.237557
1251 0.730034 -0.488656 0.236679 -0.674374 -0.220211 0.800513 0.355213 0.861899 -0.143156 -0.489718
849 -0.300831 0.231423 0.78336 -1.66097 -0.0920218 0.121086 -0.313558 0.0147506 -0.0822875 -0.12479
1620 -0.478659 -0.0788426 0.928819 -1.54403 -0.297251 -0.0120325 -0.257697 -0.0557762 -0.0352146 -0.027995
455 -0.252525 -0.300834 0.75257 -1.2474 -0.49884 -0.0561938 -0.0127839 -0.0829525 0.102604 0.0398239
2434 -0.391429 -0.420364 0.801937 -1.44876 -0.305836 -0.145696 -0.132832 -0.0526068 -0.0185196 -0.0702751
864 0.393616 -0.27311 0.310191 -0.683875 -0.206455 0.467316 0.181739 0.719903 0.0284564 -0.2732
471 -0.213563 -0.609771 0.541869 -0.871504 -0.126842 -0.0562061 0.30123 0.436243 0.0126737 -0.179748
1357 0.105825 -0.333915 0.329746 -0.913273 -1.10398 0.475066 0.276929 0.373419 0.226764 0.150466
1723 -0.0793958 -0.0511018 0.276093 -0.849144 -0.624756 -0.000289948 0.185769 0.660991 0.345913 0.0162388
3738 -0.101383 -0.476132 0.483563 -0.659564 0.0513246 -0.00973725 0.300314 0.886548 0.189063 -0.355876
2257 -0.302565 -0.53668 0.531591 -0.743637 0.246689 -0.258176 0.291638 0.925393 0.12423 -0.458425
1713 -0.283302 0.190959 0.607029 -1.26845 -0.379185 -0.0468396 -0.250269 0.229604 0.163177 -0.00575054
2896 -0.139007 -0.425898 0.44673 -0.731425 0.0857973 -0.04097 0.293667 0.727154 0.111161 -0.343663
879 -0.525655 -0.916351 0.580264 -0.870674 0.418833 -0.244439 0.385757 1.11075 0.281296 -0.614202
4749 -0.362067 -0.654761 0.58085 -0.751974 0.286305 -0.347527 0.342121 1.05881 0.24449 -0.64371
2250 -0.37857 -0.818318 0.591926 -0.848313 0.465167 -0.241695 0.394959 1.21825 0.149412 -0.675702
1334 -0.24557 -0.00485791 0.414792 -1.17121 -0.891249 0.0129849 -0.146889 0.518069 0.278276 0.264053
3912 0.105345 -0.110818 0.384323 -0.675874 0.229409 0.428601 0.293423 0.827735 0.158635 -0.418383
1276 -0.170819 -0.175559 0.204934 -1.03841 -0.511078 0.112671 -0.030047 0.545643 0.0869971 0.13041
793 -0.305595 -0.0141382 0.418389 -1.24741 -0.997788 -0.0705745 -0.194122 0.590478 0.329659 0.27231
284 -0.118428 -0.519929 0.407975 -0.901805 -0.25903 0.331132 -0.0246714 0.504992 0.159013 -0.0204148
1963 0.446291 -0.453604 0.0192124 -0.864943 -0.341158 0.777507 0.473224 0.528592 -0.0911895 0.0137827
3150 0.128377 -0.178449 0.4906 -0.881452 -0.259525 0.460821 0.248184 0.261717 -0.0294828 -0.115969
582 -0.00554079 -0.707076 0.357281 -0.844982 -0.603026 0.527094 0.126481 0.452122 -0.130548 0.0803662
269 0.217264 -0.268113 0.271517 -0.824401 -0.353277 0.565907 -0.0414837 0.76658 -0.121597 -0.0102582
1300 -0.0296764 -0.812548 0.312231 -0.786821 -0.242616 0.492254 0.158984 0.779737 -0.27651 -0.275406
3123 -0.214749 -0.427636 0.390802 -0.702251 0.0305341 -0.0951545 0.115868 0.664634 0.0274214 -0.248057
3124 -0.1293 -0.396218 0.525516 -0.750783 0.0473517 -0.0883697 0.174974 0.638435 0.0300581 -0.390828
16 0.0610761 -0.32113 0.410652 -0.766382 -0.208266 0.216801 0.154027 0.662847 0.0873339 -0.182449
1338 -0.399138 0.124312 0.776119 -1.5585 -0.124312 0.152519 -0.452543 0.034811 -0.0383898 -0.231594
1341 -0.380908 0.235045 0.770629 -1.48831 -0.136229 0.0586394 -0.453638 0.272526 0.0361877 -0.0890664
3541 -0.0682311 -0.221262 0.413815 -0.921363 -0.414506 0.0998226 0.0741526 0.491498 0.164688 -0.163621
3542 -0.0684153 -0.0678594 0.411131 -0.877483 -0.398099 0.089357 0.0755034 0.515595 0.155896 -0.0261489
991 -0.225034 -0.652938 0.456257 -1.15461 -0.981344 -0.169209 -0.317308 0.343998 0.079446 -0.0758633
491 -0.134782 0.0745859 0.323073 -0.973093 -0.771994 0.09245 -0.118814 0.590552 0.27246 0.07946
2797 -0.123779 -0.137308 0.3791 -1.00186 -0.72959 0.0804995 -0.0662032 0.464156 0.317806 0.0864567
728 -0.0955403 -0.334462 0.425201 -0.971634 -0.985868 -0.169198 -0.0768966 0.477109 0.272368 -0.0400765
1380 0.344393 -0.413498 0.569134 -0.549184 -0.0656036 0.403713 0.0384719 0.790033 0.0110036 -0.66465
1430 0.321035 -0.334534 0.446805 -0.607547 -0.365442 0.347457 -0.0316438 0.83299 0.0738556 -0.41482
1894 0.914125 -0.359754 0.597599 -0.602133 -0.218491 0.889277 0.0731989 1.14787 -0.127333 -0.781763
610 0.813612 -0.217823 0.397077 -0.685516 -0.335669 0.94359 0.070281 1.10434 0.061192 -0.624587
3160 0.267804 -1.08112 -0.0265621 -1.07478 -0.508498 0.756257 0.560382 0.458458 -0.247306 0.315623
2679 -0.23275 -0.317912 0.60936 -1.03871 -0.217176 -0.0692961 0.0323453 0.259582 0.160172 -0.0634238
3634 0.0716138 -0.246369 0.339911 -0.764 -0.237227 0.213708 0.14362 0.590881 0.189356 -0.143871
395 -0.413518 -0.766211 0.821299 -1.44589 -0.645753 0.0174312 -0.212754 -0.220379 -0.190819 -0.0626736
1657 -0.268106 -0.389312 0.669552 -1.17487 -0.298116 -0.0441944 -0.00775373 0.122496 0.0947893 -0.132714
3760 -0.197706 -0.349604 0.669911 -1.06646 -0.293248 0.0215717 0.118155 0.0984429 0.0930444 0.069838
1452 -0.0145328 0.0904415 0.174002 -0.868732 -1.02778 0.0694701 0.0983553 0.865878 0.445245 0.192617
2776 -0.103485 -0.0950448 0.401384 -0.9045 -0.723276 -0.0106727 0.0861773 0.566325 0.338247 0.0177679
4455 -0.0727209 -0.424541 0.284644 -0.775826 -0.273414 0.0984376 0.271128 0.58823 0.152968 -0.097658
735 0.164745 -0.637695 0.340188 -0.763317 -0.368219 0.467583 0.188371 0.688666 -0.0515937 -0.0595713
946 0.0107769 -0.600096 0.474994 -0.888358 -0.383582 0.236158 0.601373 0.329894 -0.101022 0.142454
1385 -0.249689 -0.855598 0.45191 -0.700197 -0.236373 0.133195 0.326108 0.634995 0.249987 -0.0167608
1076 -0.148052 -0.0121054 0.39639 -1.06225 -0.741728 0.0486275 -0.13639 0.577059 0.173337 0.282501
696 0.0220823 -0.176462 0.360809 -0.781401 -0.201704 0.253117 0.0738495 0.596446 0.119706 -0.0749044
839 0.10308 -0.362281 0.312382 -0.734215 -0.0615017 0.198792 0.348846 0.808306 0.0518064 -0.175179
1820 -0.114606 -0.166388 0.541912 -0.976984 -0.368734 -0.000748927 0.144846 0.324893 0.126668 -0.101052
3892 -0.117937 -0.438516 0.470022 -0.995765 -0.367692 0.131909 0.08001 0.340464 0.127527 -0.0655299
1155 -0.115552 -0.0853263 0.339188 -1.0086 -0.650019 -0.00220892 -0.00935283 0.57391 0.248473 0.0816917
3458 0.0058681 -0.393107 0.462169 -0.762605 -0.293621 0.169426 0.164478 0.478805 0.158899 -0.063821
394 -0.241287 -0.952885 0.890902 -1.38851 -0.568852 0.040698 -0.388119 -0.185856 -0.272794 0.0567903
326 -0.478376 -0.43857 0.991196 -1.61058 -0.54698 -0.344102 -0.0389426 -0.23557 -0.080264 -0.21479
1661 -0.26972 -0.319834 0.736911 -1.30303 -0.303018 -0.173622 0.0290261 -0.0143664 0.0182164 0.0241731
1658 -0.30579 -0.489171 0.706347 -1.22142 -0.441779 0.0437595 0.034124 0.0191817 0.124398 0.116717
3632 -0.0194718 -0.311092 0.371953 -0.821572 -0.16701 0.244941 0.0285121 0.585722 0.0784079 -0.0795646
718 -0.332314 0.225021 0.739717 -1.58052 -0.324265 0.224488 -0.513564 0.162399 -0.0539257 -0.247097
2462 -0.0883027 0.0405693 0.484228 -0.948026 -0.356298 0.141311 -0.0471636 0.431635 0.121698 -0.0584893
2463 -0.0539017 -0.089106 0.464349 -0.823359 -0.208867 0.0736991 0.0162151 0.46308 0.101649 -0.121159
1837 -0.41288 0.420576 0.802359 -1.4757 -0.27109 0.176247 -0.440126 0.24845 0.0188592 -0.192716
3756 -0.410191 0.113233 0.707345 -1.28482 -0.168098 -0.215082 -0.193077 0.32794 0.139235 -0.0781393
1346 -0.378393 0.403015 0.687172 -1.57617 -0.0670202 0.288474 -0.669137 0.351235 -0.0398076 -0.212107
330 -0.570147 -0.913665 0.221111 -1.05397 -0.161318 0.420991 -0.504768 1.00342 -0.285593 0.464967
1073 -0.180626 -0.3339 0.132829 -1.0426 -0.780979 0.157817 -0.177412 0.788686 0.0998969 0.210971
2953 -0.0167501 0.0543547 0.346144 -0.888416 -0.492922 0.136005 -0.0116303 0.539945 0.283028 -0.0678735
1422 0.0755109 0.0389633 0.189132 -0.830412 -0.694257 0.216681 0.0917128 0.7693 0.333492 0.0901325
713 -0.0451318 0.179999 0.225682 -1.00695 -1.14944 -0.0745685 0.149822 0.693895 0.480024 0.264167
489 -0.319737 0.330667 0.476573 -1.40107 -0.900539 0.00143295 -0.211999 0.466132 0.0996982 0.211173
583 0.281596 -0.175662 0.413535 -0.856139 -0.162519 0.454493 0.224482 0.543317 0.0726692 -0.112408
240 0.174574 -0.532594 0.377177 -0.950243 -0.352488 0.643344 -0.170642 0.561957 -0.207682 -0.17697
573 -0.0157536 -0.229864 0.318654 -0.939313 -0.761664 0.175981 -0.0686325 0.5639 0.227482 0.0258553
653 -0.355509 -0.588767 0.656808 -0.895523 0.429055 -0.3941 0.337761 0.985072 0.170333 -0.625374
3976 -0.285137 -0.495884 0.590649 -0.872677 0.243156 -0.241894 0.203116 0.737573 0.0376429 -0.432639
2856 0.145287 -0.223442 0.283087 -0.834779 -0.32931 0.451495 0.229661 0.659046 0.151579 -0.136112
912 -0.0303582 -0.0615192 0.240873 -0.955913 -0.8878 0.0839291 0.0414063 0.637941 0.3242 0.147768
1173 -0.147593 -0.18337 0.316323 -1.17801 -0.908887 0.164728 -0.29136 0.48082 0.16004 0.180117
680 -0.38344 0.387326 0.806047 -1.47165 -0.122331 0.0536323 -0.33669 0.269402 0.0114222 -0.0588076
4298 -0.213456 0.0425197 0.60218 -1.16561 -0.133777 0.0931117 -0.231252 0.349233 0.0671407 -0.0262183
2496 -0.354049 0.385033 0.825483 -1.4351 -0.292786 0.0667725 -0.529694 0.322506 0.0970745 -0.149497
58 -0.162327 -0.669492 0.820272 -1.47345 -0.709352 0.377606 -0.422782 -0.389908 -0.435468 -0.346165
628 -0.0961474 -0.0646163 0.273653 -0.913422 -0.585597 0.0374835 0.136038 0.543135 0.33161 0.122219
826 -0.332268 -1.10732 0.533866 -0.818095 -0.21537 0.0466288 0.379802 0.554024 -0.14747 -0.218631
1466 0.25727 -0.745708 -0.0427946 -0.905646 -0.31499 0.604824 0.533878 0.686348 -0.178691 0.0396268
154 0.187413 -0.668789 0.369705 -0.798737 -0.322818 0.498872 0.461625 0.605636 -0.169551 0.0733841
3559 0.004077 -0.323515 0.379712 -0.814508 -0.144858 0.158036 0.236942 0.581144 0.0639563 -0.175726
811 -0.306237 -0.691435 0.659913 -1.05725 -0.745802 0.104872 0.0750854 0.112737 0.114438 0.158554
3802 -0.499279 -0.625467 0.692747 -0.935335 0.323275 -0.355143 0.250461 0.848877 0.0410764 -0.529652
915 -0.0964969 -0.0855856 0.303607 -0.944307 -0.882236 0.068386 0.0956861 0.683184 0.330348 0.162834
3805 -0.512356 -0.759793 0.690044 -0.961454 0.316732 -0.375784 0.147022 0.932824 0.022365 -0.589176
360 -0.292073 -0.690145 0.453286 -0.810734 0.091275 -0.175805 0.25166 0.790517 0.120013 -0.391135
1410 -0.520366 0.30769 0.74629 -1.49756 -0.0774652 0.0520258 -0.385837 0.216782 0.106147 -0.0567814
4516 0.277461 -0.13937 0.30529 -0.707232 -0.0460139 0.311742 0.211218 0.695138 0.109517 -0.178163
270 0.171341 -0.303589 0.284418 -0.840757 -0.294728 0.535542 -0.0741746 0.707611 -0.106208 0.0395845
1274 0.818589 -0.533584 0.425066 -0.602528 -0.452402 0.916062 -0.107172 1.13529 -0.0285279 -0.761085
2253 0.394536 -0.168903 0.641518 -0.853066 -0.462061 0.983659 0.0420969 0.393386 -0.212941 -0.291585
4945 0.203306 -0.124676 0.286058 -0.828431 -0.337848 0.486819 0.154674 0.481305 0.0650542 -0.0855799
4868 -0.312465 -0.538164 0.510479 -0.76462 0.130072 -0.182803 0.183695 0.820987 0.130388 -0.455967
2105 -0.40731 -0.600298 0.72499 -0.901634 0.341208 -0.376425 0.324643 0.855433 0.124767 -0.570435
2237 -0.160663 -0.359659 0.471004 -0.751389 0.10311 -0.144721 0.209801 0.693148 0.157961 -0.343899
3365 -0.0715551 -0.189404 0.364438 -0.75326 -0.111016 0.124724 0.101161 0.324942 0.0911025 -0.0968028
377 -0.233801 -0.1852 0.696151 -1.17726 -0.29083 0.121935 -0.257077 0.186459 0.102352 -0.186307
1327 -0.260312 -0.3876 0.663385 -1.20025 -0.263779 -0.0454408 0.0255452 0.0537061 0.0487767 -0.127207
439 -0.17024 -0.557526 0.735571 -1.39301 -0.548977 0.243476 -0.242516 -0.241319 -0.146371 -0.159926
1050 -0.404768 -0.334426 0.798531 -1.40413 -0.421177 -0.143486 -0.122735 -0.0684468 -0.0180011 -0.0243844
1339 -0.53994 0.406662 0.873274 -1.65939 -0.196938 -0.00179398 -0.434024 0.214998 0.0952383 -0.131914
3602 -0.212723 0.113832 0.699162 -1.207 -0.168038 0.0751201 -0.151136 0.384038 0.0458213 -0.0709031
3608 -0.19555 -0.0152574 0.596918 -1.0698 -0.069131 0.0161905 0.0347002 0.517834 0.126102 -0.232572
64 -0.30628 -0.67699 0.765583 -1.66649 -0.635132 -0.234641 0.0297184 -0.342096 -0.355336 -0.0358808
2647 0.492562 -0.288089 0.380308 -0.708078 -0.0996893 0.605471 0.11962 0.835818 -0.00231147 -0.410537
536 0.810378 -0.433057 0.395714 -0.752048 -0.248051 0.960129 0.261687 0.766982 -0.121871 -0.413078
4996 -0.187459 -0.369215 0.533887 -0.874241 0.0135978 -0.0213279 0.107235 0.409352 0.026902 -0.265827
2479 -0.0180041 -0.106988 0.237439 -0.856962 -0.774527 0.090669 -0.00148688 0.712433 0.357265 0.10988
1366 -0.0501921 0.069224 0.206411 -0.957466 -1.26723 0.121378 -0.060324 0.796199 0.520107 0.202112
249 -0.0281345 0.0738201 0.294773 -0.936835 -0.733098 0.175457 0.0956294 0.622658 0.390302 0.110106
185 -0.111078 -0.0386814 0.194455 -1.0247 -1.23828 0.0171119 0.110236 0.809457 0.317111 0.32262
815 0.834695 -0.403823 0.52305 -0.69814 -0.444432 0.79227 -0.188533 1.10496 -0.0046414 -0.6801
528 0.164121 -0.342281 0.414365 -0.83873 -0.521982 0.592279 0.351954 0.431181 0.0819348 0.0488578
382 0.0804169 -0.195877 0.696039 -1.03136 -0.623981 1.08484 0.726381 0.0275759 -0.193384 0.0110896
3184 0.189544 -0.0721551 0.418131 -0.964171 -0.398217 0.768368 0.358807 0.2938 -0.00880228 -0.00337628
4826 0.0560745 -0.306076 0.3827 -0.883818 -0.337931 0.483175 0.176721 0.474889 0.0500567 -0.114334
1483 0.102553 0.186054 0.215391 -0.8236 -1.08807 0.200196 0.154798 0.833774 0.578108 0.0782726
3508 0.01781 -0.00171714 0.278954 -0.803228 -0.493558 0.243019 0.044417 0.550303 0.246178 -0.00046006
2963 0.338669 -0.150222 0.173271 -0.845879 -0.0900079 0.685098 0.179324 0.650098 -0.170122 -0.152509
2574 0.110892 -0.257263 0.281575 -0.785715 -0.138412 0.298193 0.0839111 0.572377 0.0495851 -0.153
3205 0.0813917 -0.145498 0.331138 -0.791544 -0.285547 0.238385 0.145641 0.604573 0.17446 -0.0406505
268 0.115964 -0.254879 0.293202 -0.752196 -0.108356 0.479591 0.0380315 0.87699 -0.05525 -0.0824848
389 -0.121705 -0.483013 0.389029 -0.811115 -0.572535 0.301898 -0.0295569 0.775516 -0.0788771 -0.18769
1580 0.451643 -0.358838 0.157888 -1.0408 -0.170713 0.829366 0.384901 0.707808 -0.241272 -0.078955
3471 0.311592 -0.271795 0.137974 -0.826284 -0.19495 0.484242 0.282114 0.70989 0.00464831 -0.139981
2354 0.392282 -0.78105 -0.212458 -1.03306 -0.5813 0.766383 0.392063 0.613647 -0.139636 0.165927
3125 -0.157868 -0.567136 0.442642 -0.74547 0.0584693 0.0597039 0.282131 0.709702 0.225135 -0.246598
1115 0.194788 -0.513852 0.293018 -0.853734 -0.34291 0.667342 0.108427 0.566992 -0.0906892 -0.0127322
3567 0.0974662 -0.351116 0.279765 -0.837592 -0.191978 0.377515 0.302008 0.683046 0.0226362 -0.106826
3565 0.0137792 -0.388324 0.31558 -0.873044 -0.239205 0.184223 0.323568 0.60246 0.131355 -0.0426071
857 -0.0696943 -0.173656 0.397314 -0.949041 -0.249367 0.162353 -0.00774816 0.539202 0.0843293 0.0453116
511 -0.0584854 -0.498364 0.460804 -0.852237 -0.104606 0.232506 0.206544 0.470223 0.0208743 -0.0823783
3201 -0.0492386 -0.234032 0.413199 -0.920245 -0.603411 0.0303571 0.0939245 0.447932 0.228483 0.0357566
1245 -0.138454 -0.56483 0.566234 -1.17253 -0.823056 -0.0614927 -0.100244 0.0812674 0.00980782 -0.0445242
1514 -0.458022 -1.06026 0.505039 -1.10937 0.742703 -0.156255 0.231857 0.994035 0.0321469 -0.675151
3251 -0.565455 -0.914266 0.596021 -1.0103 0.382378 -0.379407 0.308759 0.933079 0.042911 -0.559157
3445 -0.104993 -0.156503 0.346362 -0.732794 -0.261341 0.0324463 0.078482 0.413341 0.171351 -0.0743608
2872 -0.218643 -0.352479 0.57565 -1.08661 -0.493093 0.0732511 0.0620422 0.295676 0.146557 0.0476159
983 -0.155195 -0.417946 0.479805 -1.03701 -0.29291 0.0467042 0.0786234 0.395284 0.176991 -0.0535058
919 -0.356332 0.452328 0.529621 -1.68864 -0.514252 0.116178 -0.455557 0.201234 0.0630578 0.0995297
1203 -0.480415 -0.675144 0.675865 -0.91616 0.283275 -0.363188 0.266206 0.965696 0.117168 -0.58881
1205 -0.256966 -0.456324 0.597237 -0.847571 0.228218 -0.231805 0.267962 0.755971 0.134516 -0.431811
1640 -0.0268686 -0.0911111 0.443184 -0.843139 -0.950223 0.402385 0.362411 0.486368 0.397439 0.00942581
19 0.0887479 -1.07664 0.583224 -0.654067 -0.349021 0.709964 0.195553 0.570924 -0.250164 0.0632977
2301 0.082261 -0.199005 0.284191 -0.644804 -0.0358021 0.249799 0.198772 0.64944 0.114585 -0.233271
1335 -0.253929 -0.0555562 0.210082 -1.20045 -0.951781 0.0677621 -0.253577 0.643713 0.2667 0.338275
1307 -0.216097 0.0468314 0.347429 -1.07929 -0.56712 0.0756874 -0.319898 0.55653 0.230795 0.0277659
1350 -0.425026 0.453116 0.821918 -1.52859 -0.119055 -0.00442986 -0.359881 0.29778 0.171473 -0.151885
525 -0.503366 0.438582 0.75021 -1.58985 -0.372536 -0.0437542 -0.371491 0.386898 0.110229 -0.0825422
895 -0.00373258 -0.000239907 0.222709 -1.17519 -1.06068 0.0686601 -0.091361 0.635583 0.0821083 0.28973
3398 0.349361 -0.18123 0.202405 -0.841522 -0.00430458 0.595734 0.217188 0.529579 -0.193619 -0.180524
159 0.173329 -0.0202915 0.77212 -1.10807 -0.562861 1.32291 0.541239 -0.00865558 -0.14686 0.113008
3412 0.308755 -0.111538 0.420192 -0.830505 -0.240044 0.84467 0.335201 0.44901 -0.024583 -0.170573
3434 0.139287 -0.156553 0.312724 -0.779725 -0.174395 0.382417 0.218307 0.531887 0.106971 -0.044526
1864 0.271838 0.030918 0.468167 -0.884383 -0.278205 0.891865 0.373722 0.43896 -0.00335048 -0.111427
4340 -0.448162 -0.719889 0.626473 -0.898856 0.139757 -0.205011 0.169346 0.753356 0.0596316 -0.520896
4339 -0.342909 -0.489631 0.617478 -0.893378 0.333575 -0.259235 0.149984 0.884921 -0.00889975 -0.616768
359 -0.414687 -0.563082 0.626582 -0.857511 0.287347 -0.220446 0.278416 0.859237 0.083449 -0.451064
2787 -0.246576 0.0238966 0.300665 -1.10374 -0.809142 -0.133462 -0.0984707 0.61667 0.334478 0.264706
1288 -0.324805 -0.0317282 0.30202 -1.14892 -1.04408 -0.0463914 -0.248398 0.635048 0.432774 0.250386
1294 -0.21335 0.0203524 0.238394 -1.18607 -0.853144 -0.0790806 0.0308612 0.626122 0.29778 0.330562
1289 -0.133478 -0.0145778 0.350148 -0.992811 -0.610721 0.0421915 -0.045135 0.517752 0.283595 0.062929
698 -0.245516 -0.306222 0.594275 -1.07236 -0.210651 -0.119437 0.068764 0.126933 -0.00296306 -0.0247616
141 -0.251265 -0.589358 0.650928 -1.16495 -0.613903 0.111275 -0.0853844 -0.0414 -0.052364 0.105703
1904 -0.106843 -0.108294 0.412834 -0.971453 -0.651177 -0.0646606 -0.0142068 0.486623 0.204473 0.060444
930 0.1153 -0.411274 0.276619 -1.01697 -0.391231 0.568419 0.237491 0.565171 0.0834484 -0.0377244
290 0.545228 -0.739255 0.149806 -0.880835 -0.356826 0.772574 0.524067 0.671422 -0.26676 -0.0615154
4981 0.453215 -0.336475 0.29841 -0.669297 -0.227846 0.628598 0.185301 0.644678 -0.0625138 -0.329127
631 0.153291 -0.172716 0.197912 -0.67634 -0.121348 0.401318 0.148197 0.551182 0.0443625 -0.0844635
2284 0.618049 -0.258531 0.172681 -0.824668 -0.23538 0.961187 0.110186 0.698873 -0.217148 -0.253216
2362 -0.3778 0.209111 0.686767 -1.32987 -0.399937 -0.183625 -0.191091 0.203696 0.224501 0.0507833
