5003 10
2423 0.267215 -0.50147 0.319778 0.419979 0.375334 -0.26414 -0.085871 -0.158432 -0.475271 0.646304
285 0.598376 -0.131703 0.607169 0.467167 0.618178 0.271668 -0.155713 -0.792096 -0.248638 0.942919
160 0.742194 -1.16557 -0.199291 -0.143528 1.28183 -0.252355 0.0398689 -0.0277475 -1.06946 0.313029
53 -0.228109 -1.87111 -0.288707 -0.159218 0.375996 0.274987 0.325108 0.727304 -0.777682 0.918489
316 -0.0730194 -0.846532 -0.144102 0.471271 0.856115 -0.178123 0.839587 0.65704 -0.731721 0.937474
52 -0.223989 -1.74585 -0.249904 -0.169608 0.40269 0.280747 0.387074 0.718314 -0.841999 0.96157
48 -0.0583509 -0.895809 -0.229226 0.217847 1.09122 -0.158248 0.747254 0.451681 -0.552737 0.950363
56 -0.277561 -1.39742 -0.179549 0.545774 0.983836 0.0625023 0.748499 0.620398 -0.742578 0.80638
3386 0.0351966 -0.592474 0.0888175 0.340932 0.448244 -0.47699 0.138029 0.148719 -0.516178 0.708269
54 -0.114197 -1.79968 -0.106669 0.0769852 0.707885 0.111071 0.809434 0.523417 -0.605309 0.783117
603 0.407937 -0.95033 -0.450801 0.797282 0.874526 -0.729172 -0.277974 -0.537758 0.470909 0.838828
2661 0.333399 -0.671978 -0.267678 0.329654 0.46431 -0.05724 -0.202066 -0.750114 0.0323288 0.841493
3471 0.267141 -0.468591 -0.0281499 0.332188 0.334363 -0.237435 -0.10523 -0.335605 -0.196447 0.806295
3 0.753836 -1.70599 -0.432836 0.479506 1.01878 -0.43139 -0.511881 -0.238165 0.647955 0.790395
433 0.625101 -1.4096 -0.491365 1.04805 0.858327 -0.789595 -0.466402 -0.257293 0.664459 0.733882
228 0.567917 -0.184426 0.829123 0.459027 0.954868 0.395905 0.020836 -0.73349 -0.302193 0.973144
1162 0.583608 -0.174957 0.59943 0.674386 0.552166 0.761415 0.0189623 -0.841742 -0.282129 1.10881
134 0.988095 -0.976334 -0.650783 0.540624 0.888989 0.833917 -0.144362 -0.39151 -0.395987 0.821892
1570 0.236025 -0.420454 0.022117 0.205559 0.328097 -0.233444 -0.128632 -0.297328 -0.363212 0.670803
169 0.351253 -0.848032 0.287837 0.393201 1.00739 -0.712928 -0.549601 -0.0603823 -0.496902 0.533217
114 -0.000976071 -1.62263 0.39484 0.0306919 0.0949928 -0.259641 -0.258392 0.213843 -0.200786 0.660573
461 -0.106279 -0.785903 -0.00544683 0.143881 0.459103 -0.347669 -0.00473136 -0.571581 -0.0363706 0.726152
356 0.42532 -0.801788 -0.313255 0.795362 0.56655 0.611978 0.137419 -1.0562 -0.202745 0.797487
2664 0.227505 -0.468097 -0.0670596 0.472642 0.286703 -0.2995 -0.249531 -0.430882 -0.0796265 0.847784
234 1.01476 -1.79952 -0.256841 -0.243974 0.221742 -0.378204 1.10868 -0.053228 -0.42517 0.732527
743 0.711273 -1.11071 -0.186536 -0.0239242 0.0616163 -0.590411 1.10044 -0.109748 -0.357426 0.885457
2676 -0.0498081 -0.551597 -0.229227 0.190505 0.462253 -0.28696 0.315523 0.00337462 -0.407496 0.823472
2674 -0.0691191 -0.536648 -0.261151 0.228057 0.219076 -0.319083 0.509969 0.127166 -0.515308 0.955623
55 -0.366468 -1.60874 -0.019154 0.139695 0.90681 0.106663 0.714833 0.531845 -0.715182 0.830332
70 0.821067 -0.86071 -0.55453 0.107097 0.420965 -0.606887 -0.1882 0.481963 -0.724715 0.674519
518 0.843718 -0.70398 -0.538869 0.272051 0.896606 -0.63361 -0.485857 0.239142 -0.750206 0.565123
1 1.23259 -2.28662 -0.0529896 -0.545429 0.967171 0.540133 -0.441106 0.491576 0.0286826 0.715641
2561 0.11148 -0.356304 -0.0629059 0.261663 0.153132 -0.0969309 -0.208732 -0.163279 -0.450553 0.887947
71 1.1719 -1.48696 -0.571922 0.268602 1.07645 1.13254 -0.210478 -0.305738 -0.243529 0.842339
4335 0.285182 -0.39917 -0.0572543 0.375131 0.176517 -0.244452 -0.146897 -0.185468 -0.492023 0.849183
69 1.21084 -1.19222 -0.807696 -0.0378572 0.668375 -0.27794 -0.40564 0.757846 -0.594963 0.748649
577 0.318199 -0.929722 -0.416734 0.232455 1.20492 -0.189275 0.58976 0.300049 -0.490233 0.760333
46 0.781205 -1.64374 -0.410957 0.069565 1.42629 0.42331 0.312922 0.749217 -0.24426 0.79972
576 -0.166402 -0.699761 -0.33791 0.365139 0.636769 -0.420126 0.737542 0.319871 -0.635304 0.904156
1183 -0.0872553 -0.698329 -0.0797924 0.1994 0.650252 -0.339171 0.624755 0.19114 -0.655176 0.839934
3901 -0.0202767 -0.382689 -0.0342069 0.270763 0.388172 -0.102242 0.124203 -0.0399295 -0.481311 0.690378
575 0.00215362 -0.732221 -0.209106 0.177569 0.851988 -0.188268 0.55239 0.378963 -0.587632 0.949248
1598 -0.0434369 -0.522271 -0.0849298 0.331957 0.319078 -0.20216 0.421686 0.144178 -0.54912 0.784946
789 0.435 -0.573326 -0.0224135 0.581783 0.502976 -0.38637 -0.251395 -0.440621 0.0793255 0.745647
434 0.556851 -1.26327 -0.393913 1.13174 1.14705 -0.909894 -0.225779 -0.538792 0.550104 0.576788
289 0.614927 -1.45103 -0.567036 0.951869 1.10658 -0.500468 -0.40782 -0.288301 0.606111 0.766054
3394 0.380645 -0.51313 -0.0812661 0.459797 0.395233 -0.240869 -0.261549 -0.881267 0.0549132 0.840813
4891 0.200035 -0.393118 -0.000341917 0.399378 0.293875 -0.174974 -0.0699711 -0.299576 -0.213936 0.576462
2615 0.260295 -0.471735 -0.0739008 0.449018 0.371683 -0.180384 -0.187359 -0.428347 -0.0349916 0.63026
2263 0.327227 -0.654281 -0.124677 0.6249 0.487144 -0.19899 -0.16657 -0.779675 0.115311 0.685856
2 1.31905 -2.27155 -0.141314 -0.514616 0.936427 0.476694 -0.455667 0.615153 -0.0300476 0.719465
2730 0.372094 -0.377582 0.154245 0.297176 0.394374 -0.205326 -0.108811 -0.427309 -0.320389 0.716791
1085 0.478144 -0.427787 0.193984 0.249039 0.379165 -0.329855 -0.329496 -0.367213 -0.494866 0.798385
790 0.262052 -0.63429 0.264042 0.36953 0.577776 -0.569702 -0.185676 -0.0704758 -0.284678 0.674536
1488 1.11888 -0.492572 0.85908 0.774624 0.334961 -0.0388476 0.0436066 0.223723 -0.330651 0.903123
24 0.735206 -1.2094 0.68474 0.417158 0.736592 0.285498 0.193871 0.899554 0.00328139 1.0901
2007 0.429715 -0.525868 0.520863 0.525184 0.161024 -0.388268 0.181098 0.0611803 -0.549856 0.662468
326 -0.270322 -0.921313 -0.0978085 0.474589 0.350274 -0.280808 0.857231 0.776222 -0.793027 1.02751
3276 0.17652 -0.40249 -0.00267434 0.24275 0.18586 -0.190514 -0.0387765 -0.35019 -0.238802 0.764847
1295 0.415531 -0.435153 -0.00812408 -0.555251 1.22753 -0.169414 -0.0444876 -1.05383 -0.327837 1.07967
2595 0.350979 -0.482336 0.0732057 0.00179769 0.680317 -0.240982 -0.161978 -0.585937 -0.416275 0.722789
30 0.603995 -1.12873 -0.271932 -0.526683 0.949233 0.271853 -0.0678646 -0.683599 0.0584988 1.14343
132 0.5007 -0.612101 -0.462047 -0.10644 1.15721 0.188203 0.136635 -1.0892 -0.0924106 1.04514
73 0.754342 -0.586076 -0.377839 1.11592 0.605367 0.994142 -0.0709961 -0.73281 -0.498084 0.996814
406 0.271845 -0.538784 -0.116446 0.158781 -0.0270315 -0.273428 0.488637 -0.224192 -0.296061 0.784548
430 0.693369 -1.04583 -0.2127 0.112923 -0.222316 -0.545499 1.23288 -0.255222 -0.486781 0.88681
1070 0.815267 -0.495532 0.747066 0.586161 0.17789 -0.27555 0.0831461 0.0094462 -0.397476 0.724161
1340 0.427016 -0.832508 -0.269726 0.0333715 -0.0629638 -0.516877 1.0531 -2.56782e-05 -0.445472 0.940782
407 0.672441 -1.00201 -0.339501 -0.0125922 -0.0395826 -0.543873 1.01571 -0.156459 -0.435297 0.818161
427 0.430638 -1.39334 -0.326004 -0.000364134 -0.0136178 -0.603097 1.34122 -0.224539 -0.659629 0.792425
4620 -0.305792 -0.440016 -0.363244 0.19554 -0.321404 -0.225463 -0.000448025 0.350239 -0.715549 1.34017
209 -0.450986 -0.65967 -0.976052 -0.0429482 -0.180712 -0.450866 -0.295454 0.246758 -1.07877 1.53172
645 -0.35145 -0.442659 -0.532652 0.0194958 -0.274613 -0.18511 -0.10445 0.42846 -0.796536 1.69318
654 -0.352269 -0.369303 -0.47156 0.0627015 -0.408615 -0.107333 -0.35299 0.231064 -0.820005 1.58015
210 -0.421574 -0.562026 -0.862775 0.0791842 -0.142143 -0.185593 -0.36183 0.31862 -1.17295 1.49373
1764 -0.179976 -0.652145 -0.951866 -0.137331 -0.131805 -0.360449 -0.257145 0.442518 -1.01162 1.49427
260 0.4745 -0.845388 -0.158795 0.0678622 0.739862 -0.426593 -0.389218 -0.374729 -0.145076 0.795969
3916 0.266341 -0.332465 0.158356 0.303393 0.296658 -0.165407 0.0572362 -0.0521602 -0.374157 0.700358
3917 0.103656 -0.497492 -0.0283631 0.29918 0.25597 -0.287556 0.238037 0.0642355 -0.365285 0.818368
278 -0.201402 -0.948758 -0.292602 0.485159 0.810924 -0.373544 0.790166 0.532204 -0.699052 0.850005
1628 0.836225 -0.655779 0.901713 0.821986 0.315377 -0.444705 0.128866 0.0029669 -0.482824 0.671825
3086 0.455206 -0.465567 0.448578 0.503977 0.159724 -0.0752494 0.0876562 -0.122044 -0.521573 0.736684
1915 0.825573 -0.497854 0.808663 0.747994 0.281788 -0.288487 -0.0767328 0.0942015 -0.496147 0.730407
2337 -0.316345 -0.510368 -0.585526 0.103273 -0.0814877 -0.0984358 -0.215565 0.415809 -0.861633 1.44366
2342 -0.0364467 -0.282982 -0.111206 0.150038 -0.0815344 -0.200396 -0.0409625 -0.0507478 -0.284806 0.846523
211 -0.519026 -0.666505 -0.863259 0.0200517 -0.174958 -0.206231 -0.32041 0.308968 -1.1544 1.54079
644 -0.267056 -0.343995 -0.43736 0.107996 -0.128778 -0.232078 -0.403802 0.405533 -0.758653 1.36314
65 -0.335382 -1.02612 -0.289114 0.561441 0.68839 -0.44017 0.820489 0.566003 -0.918629 0.803366
151 -0.669228 -1.04485 0.0990818 0.518313 0.679688 -0.470724 0.631154 0.544467 -1.00469 0.78561
3863 0.370767 -0.444762 0.44723 0.448015 0.141678 -0.188046 0.0292531 0.0131345 -0.409632 0.796822
3463 0.463764 -0.43589 0.431282 0.490025 0.164565 -0.208032 -0.0163634 0.00962534 -0.433247 0.811026
256 0.892918 -1.2575 -0.0785661 -0.4195 0.12424 -0.503093 -0.310267 -0.336011 -0.294129 0.74576
3602 0.160782 -0.439122 -0.0521664 0.197903 0.0142086 -0.332339 0.318931 -0.195143 -0.382781 0.957641
2435 0.178867 -0.648545 -0.0729919 0.256621 0.569065 -0.34349 0.335809 0.00717177 -0.418789 0.707264
449 0.165275 -0.469334 0.126591 0.306604 0.295994 -0.237147 0.115558 -0.10385 -0.40936 0.692129
3806 -0.124242 -0.445153 -0.355034 0.20757 -0.0359394 -0.0793226 -0.165801 0.294235 -0.584495 1.21013
4339 -0.0975709 -0.375551 -0.343045 0.147845 -0.303106 -0.147208 -0.237373 0.228498 -0.620199 1.31588
1965 -0.359889 -0.49827 -0.645576 0.020544 -0.1867 -0.249732 -0.361927 0.459415 -0.99568 1.64393
1514 -0.192037 -0.23679 -0.666072 -0.0768631 -0.309011 -0.262826 -0.582374 0.140154 -1.01471 1.43272
1969 -0.351758 -0.625116 -0.578973 -0.0322121 -0.340405 -0.254149 -0.380622 0.415481 -1.05317 1.58316
1967 -0.285879 -0.318534 -0.585207 -0.00539238 -0.175961 -0.393931 -0.219891 0.403306 -0.764987 1.53343
1309 -0.393329 -0.356673 -0.53887 0.0865815 -0.445084 -0.166757 -0.0800488 0.356553 -0.847992 1.75462
877 -0.230386 0.123441 -0.164144 0.384198 -0.621533 -0.397757 -0.892668 0.23059 -0.775325 1.86778
883 -0.354556 0.0148201 -0.14599 0.398383 -0.536304 -0.529683 -1.1275 0.138743 -0.74657 1.87625
1491 0.499497 -0.516493 0.359636 0.442491 0.118569 -0.203555 -0.00403383 -0.0798658 -0.366364 0.824326
1225 0.759038 -0.415514 0.682894 0.613434 0.342426 -0.302396 -0.0129725 -0.0486571 -0.4462 0.706173
251 1.01305 -0.553219 1.06777 0.662476 0.170107 -0.120914 0.0386692 0.412063 -0.138917 1.12933
2090 -0.0593478 -0.500131 -0.0300746 0.35513 0.489163 -0.325233 0.302914 0.155938 -0.496734 0.766669
58 0.385236 -0.973062 -0.528544 0.276417 1.22272 -0.0473052 0.543562 0.1716 -0.509183 0.721886
281 -0.116055 -0.947589 -0.0419981 0.590103 0.72481 -0.343186 0.713114 0.586937 -0.744219 0.780884
49 -0.174022 -1.06043 -0.269497 0.364422 0.986046 -0.213376 0.91975 0.302468 -0.552837 0.881066
2607 0.424421 -0.333445 0.430854 0.4475 0.101478 -0.129151 -0.0722591 -0.13669 -0.329623 0.76705
2608 0.306177 -0.364594 0.266296 0.374565 0.135203 -0.186851 -0.0772841 -0.105166 -0.336066 0.749217
1354 0.773005 -0.443437 0.733038 0.561985 0.177931 -0.149951 0.0263288 0.103523 -0.466926 0.811675
3961 0.18703 -0.412042 0.0620771 0.253734 0.114086 -0.161607 -0.0306873 -0.123149 -0.425894 0.753152
200 0.305436 -1.29835 -0.14387 0.0985153 1.03568 -0.520705 -0.437634 0.264662 -0.759565 0.456903
61 0.46869 -1.75857 -0.0452412 -0.110307 1.16496 -0.440961 -0.418754 0.179736 -0.781645 0.346825
469 0.208324 -0.459774 0.0746695 0.3279 0.342486 -0.340897 0.00551579 -0.227422 -0.473056 0.678778
612 0.74235 -0.686241 -0.369479 0.872246 0.573759 0.804879 -0.234215 -0.747069 -0.697248 0.778008
2685 0.243322 -0.525325 -0.071621 0.494388 0.238125 -0.024731 -0.147418 -0.533071 -0.261699 0.779449
482 0.49333 -0.545629 0.195486 0.0360989 0.604553 -0.445065 -0.497017 -0.950641 0.0820421 1.0203
1466 0.216297 -0.553106 -0.162523 0.418347 0.29836 -0.218336 -0.376052 -0.440281 -0.139352 0.801966
175 -0.0861857 -0.767616 0.163888 0.0528962 0.134263 -0.400366 0.0718177 -0.565509 -0.132355 0.760109
2277 0.102552 -0.318797 -0.00720441 0.274835 0.238753 -0.265012 0.0479153 -0.00800667 -0.343312 0.777289
2276 0.194548 -0.305102 0.0695382 0.290367 0.172368 -0.201449 0.0330682 -0.067164 -0.354079 0.638268
559 0.0179531 -0.642548 0.117153 0.416111 0.717799 -0.620474 0.149763 0.227152 -0.790146 0.604875
57 -0.0101451 -1.3377 -0.434769 0.420897 1.06634 -0.0363086 0.764561 0.576846 -0.596579 0.811813
47 0.0643979 -1.08379 -0.254524 0.34937 0.977265 -0.0618351 0.764469 0.593842 -0.581722 0.949359
2327 -0.247036 -0.868961 0.173479 0.324654 0.694268 -0.687722 -0.126025 0.162158 -0.654026 0.593354
3855 0.107276 -0.389782 -0.185387 0.0421325 0.239212 -0.259782 -0.116302 -0.447548 -0.21298 0.905092
584 0.354537 -0.886943 0.364594 0.676165 0.782804 -0.362307 0.128545 0.579644 -0.497806 0.689714
3341 0.201649 -0.581401 -0.0593681 0.173391 0.0977565 -0.251311 0.607812 -0.0458633 -0.434905 0.721731
718 0.613841 -1.03915 -0.389788 0.08921 0.225769 -0.552334 1.14328 -0.0830362 -0.463079 0.866615
421 0.288727 -1.30021 -0.300043 -0.0719763 -0.0762709 -0.37108 1.46397 -0.207211 -0.563414 0.969311
2082 0.145657 -0.395706 0.0883756 0.371313 0.264473 -0.245916 0.0692866 -0.119369 -0.348152 0.613186
1409 0.284203 -0.438479 0.180268 0.353718 0.430692 -0.331322 0.0793814 -0.127581 -0.454125 0.672571
722 0.855062 -0.570046 0.768587 0.838714 0.324676 -0.336767 0.0797589 0.150209 -0.356771 0.782665
1134 0.852286 -0.582205 1.13676 0.758266 0.308975 -0.248862 0.0684768 0.320608 -0.504187 0.856015
2846 -0.147767 -0.366024 -0.426794 -0.0208107 -0.352223 -0.144516 -0.301043 0.225428 -0.681094 1.42178
1023 -0.474303 -0.415939 -0.64561 0.0441794 -0.0225912 -0.283 -0.370732 0.463793 -0.764171 1.74055
29 0.324217 -0.449456 0.00181675 0.292409 0.333923 -0.283177 -0.252244 -0.586103 -0.125298 0.836637
3230 0.214887 -0.379457 -0.00284173 0.273882 0.200283 -0.202251 -0.0356057 -0.268507 -0.272603 0.807341
1151 -0.0489181 -0.669998 0.0566946 0.495223 0.632218 -0.519519 0.0662087 0.0441198 -0.325965 0.701971
2203 0.241484 -0.427701 0.246728 0.342137 0.445131 -0.352293 -0.21486 -0.154972 -0.448452 0.768083
1040 0.269551 -0.397684 0.247274 0.204945 0.592119 -0.483356 -0.341601 -0.176001 -0.407142 0.762451
4467 0.175026 -0.440689 -0.0215295 0.279847 0.28895 -0.229728 -0.0818469 -0.197739 -0.313687 0.731324
179 0.133715 -0.742153 -0.304942 0.359812 0.617454 -0.423216 -0.643103 0.400524 -0.600669 0.767612
112 0.227167 -0.477127 0.0914295 0.442204 0.317657 -0.270839 -0.213165 -0.306166 -0.389423 0.756813
373 -0.0514029 -0.643352 0.0516843 0.435403 0.73045 -0.50363 -0.0416146 0.0335784 -0.52245 0.593322
426 0.499342 -1.6452 -0.534414 -0.0258172 -0.105543 -0.458627 1.25876 -0.217005 -0.568011 0.806077
96 -0.0429447 -1.08296 -0.402321 0.505184 0.793906 -0.374119 0.816109 0.409908 -0.630772 0.74404
1338 0.390866 -1.21892 -0.411645 -0.00544296 0.462896 -0.557565 1.09475 0.00104399 -0.612754 0.794503
826 0.151812 -0.550558 -0.275847 0.328736 0.6592 -0.362286 -0.537891 0.289182 -0.514429 0.838203
1761 0.213718 -0.397408 0.00100858 0.44736 0.293089 -0.348425 -0.445071 -0.233425 -0.121302 0.78905
3903 0.160829 -0.452922 0.0195249 0.391077 0.29318 -0.258401 -0.164521 -0.13723 -0.356557 0.715083
3902 0.198317 -0.391341 0.0184903 0.30439 0.167702 -0.288078 -0.139607 -0.233485 -0.316052 0.758746
162 0.287339 -0.806458 -0.0653294 0.517588 0.74041 -0.548212 -0.211526 0.191242 -0.677141 0.562936
1638 0.313261 -0.630338 0.0609352 0.461012 0.726485 -0.682484 -0.462549 0.00186295 -0.484248 0.615437
115 -0.0761884 -1.00726 -0.444744 0.1965 0.0498387 -0.0673118 -0.805599 0.207013 -0.277666 1.08526
3391 0.281258 -0.359681 0.000848557 0.328998 0.22055 -0.0295062 -0.0427077 -0.352433 -0.352023 0.704676
3390 0.241738 -0.403617 0.0228616 0.441884 0.198556 -0.160278 -0.127719 -0.31658 -0.362488 0.795814
60 -0.293891 -1.01612 -0.203326 0.492259 0.85692 -0.318735 0.745328 0.567332 -0.769658 0.918848
105 -0.150925 -1.27828 -0.342035 0.626219 0.758059 -0.279186 0.950685 0.434 -0.941595 0.602278
319 -0.290872 -0.760061 -0.251649 0.320749 0.65846 -0.389567 0.767842 0.646289 -0.727879 1.1088
1636 0.330011 -0.471018 0.123427 0.314108 0.225338 -0.451537 -0.319392 -0.0683206 -0.50502 0.722415
298 0.11611 -1.17819 -0.00485579 0.168811 0.79226 -0.639241 -0.386407 0.282431 -0.710343 0.492184
131 0.259142 -0.564138 0.201752 0.440875 0.662195 -0.471265 -0.391338 -0.00441625 -0.514059 0.600107
110 0.553911 -1.28754 -0.225136 0.241533 1.0164 -0.32076 -0.717262 0.411674 -0.637196 0.535884
4273 0.175872 -0.320917 0.040116 0.231018 0.241824 -0.186964 -0.00900468 -0.174916 -0.366857 0.642386
3906 0.251794 -0.425409 0.0353172 0.307457 0.268332 -0.161102 -0.174529 -0.222458 -0.409812 0.709965
1553 0.0942132 -0.531405 -0.0135978 0.245649 0.380243 -0.347227 0.208184 0.00153217 -0.508478 0.743777
2459 0.411261 -0.563379 0.266873 0.495922 0.251116 -0.384506 0.0601378 -0.112695 -0.404284 0.706664
2480 0.559615 -0.419903 0.821392 0.68728 0.0880306 -0.270294 0.0293791 -0.0289692 -0.355771 0.775236
2095 0.524333 -0.504362 0.81994 0.671414 0.231393 -0.37135 -0.0226878 0.0885077 -0.50975 0.756243
1710 0.766543 -0.391333 0.893344 0.74698 0.127867 -0.153319 0.0240319 0.112668 -0.405059 0.802751
3321 0.579333 -0.421326 0.622343 0.535095 0.067202 -0.208084 -0.133927 -0.116733 -0.388429 0.819917
4459 0.322259 -0.546626 0.123305 0.439134 0.425046 -0.341653 -0.228072 -0.262875 -0.350059 0.73012
798 0.219668 -0.448717 -0.0515123 0.359068 0.379027 -0.396215 -0.391209 -0.182241 -0.4355 0.744952
4356 0.16149 -0.398276 0.126227 0.413086 0.198603 -0.196924 -0.00769896 -0.136895 -0.417941 0.761937
3525 -0.227683 -0.467975 -0.502943 -0.0278848 -0.391267 -0.189165 -0.27526 0.348256 -0.67128 1.51582
2223 -0.0856715 -0.291072 -0.295982 0.113617 -0.276987 -0.108269 -0.186104 0.179195 -0.516727 1.13029
4428 -0.309041 -0.224575 -0.350745 0.131119 -0.313909 -0.0971087 -0.438676 0.155177 -0.624854 1.5168
3247 0.588552 -0.387186 0.413541 0.407675 0.128489 -0.223273 -0.0469062 -0.207016 -0.434948 0.812819
1981 0.219728 -0.556243 0.147424 0.51044 0.608112 -0.285739 0.275169 0.291381 -0.617405 0.739077
99 0.303094 -0.883577 0.0667843 0.660477 1.06512 -0.214946 0.00844659 0.667541 -0.556193 0.714568
643 -0.354526 -0.329606 -0.527373 0.12677 -0.150821 -0.231165 -0.340705 0.272366 -0.897179 1.40493
917 0.434865 -0.395624 0.518868 0.513841 0.0856008 -0.171772 -0.0382514 -0.021385 -0.426672 0.788649
3631 0.280609 -0.51035 0.165496 0.376732 0.165776 -0.252332 0.249787 -0.000341656 -0.434819 0.772813
2241 0.395135 -0.406016 -0.125825 0.334972 0.304686 -0.308637 -0.0297191 -0.0517131 -0.459416 0.717432
333 1.10849 -0.709466 -0.991009 -0.164203 0.762102 -0.571595 -0.160459 0.354353 -0.743634 0.820785
1887 -0.00590822 -0.698457 -0.170825 0.130518 0.261437 -0.408688 0.721776 0.250074 -0.554213 0.956324
4412 0.219237 -0.324656 0.0540825 0.316233 0.209352 -0.105753 -0.0512547 -0.307155 -0.41502 0.747285
2516 0.266924 -0.4845 -0.0509652 0.431401 0.192927 -0.0398578 -0.0847921 -0.273918 -0.517698 0.902738
87 0.134343 -0.584693 -0.563151 0.0864347 0.420231 0.031432 -0.520677 0.101063 -0.458055 1.19383
744 0.65449 -1.09521 -0.332376 -0.0756669 0.0559641 -0.567924 0.977703 -0.124778 -0.472668 0.786265
2845 -0.233485 -0.372694 -0.430816 0.00838111 -0.152396 -0.19129 0.0315093 0.329466 -0.724727 1.26125
2842 -0.201578 -0.346295 -0.454612 0.114918 -0.173922 -0.178057 -0.206651 0.333616 -0.610368 1.43107
2706 0.196241 -0.257862 0.113913 0.203353 0.200766 -0.173242 -0.0558772 -0.274721 -0.281946 0.653811
74 0.661517 -0.637563 0.481444 -0.574151 1.44789 -0.176052 -0.586698 -0.229544 -0.265379 1.16805
1610 0.522261 -0.523682 0.417009 0.470184 0.163086 -0.253445 0.0318961 -0.134567 -0.417941 0.710126
2055 1.11482 -0.538078 0.669011 0.665631 0.488358 -0.226981 -0.0531233 -0.00216213 -0.201224 0.807665
250 1.07987 -0.569359 1.17533 0.696567 0.428362 0.240483 0.105648 0.384897 0.323405 1.38133
2354 0.441662 -0.642797 -0.128861 0.610144 0.437978 -0.373006 -0.313478 -0.583276 0.00919952 0.654084
2355 0.457853 -0.691504 -0.115688 0.473321 0.436143 -0.441463 -0.279401 -0.570087 0.0503024 0.705299
197 0.237242 -0.371989 -0.0471598 0.378743 0.164795 0.10651 -0.122602 -0.360432 -0.362052 0.693158
1442 0.393108 -0.316627 -0.00647425 0.292053 0.256453 -0.352731 -0.0951971 -0.0753948 -0.532104 0.730152
6 0.290006 -1.05555 -0.130738 0.752059 0.986866 -0.705044 -0.43963 -0.401654 0.247178 0.599257
3061 0.329051 -0.417215 0.100782 0.310824 0.310525 -0.261682 0.00513645 -0.161707 -0.322419 0.61544
992 0.417703 -0.71651 0.507688 0.697653 0.494978 -0.360992 0.297069 0.23599 -0.654783 0.564141
2464 0.468045 -0.603737 0.539868 0.765443 0.42136 -0.42375 0.159162 0.144817 -0.641733 0.593058
1904 0.212252 -0.486868 0.199403 0.438149 0.251657 -0.218119 0.150814 -0.0660265 -0.48393 0.715988
219 1.08955 -1.04481 0.391369 0.467776 0.437997 -0.451337 0.209992 0.452421 -0.350964 0.670081
4713 0.156839 -0.383136 -0.10322 0.191449 0.298436 -0.277467 -0.234089 -0.62944 -0.0533518 0.839131
4709 0.195136 -0.423333 -0.0370032 0.226694 0.341943 -0.207672 -0.0801551 -0.483488 -0.181229 0.728377
4710 0.264115 -0.434648 -0.0760831 0.0839318 0.495771 -0.221334 -0.179528 -0.773871 -0.0871545 0.803497
174 0.625665 -0.920773 -0.118767 -0.421039 0.498352 -0.721931 -0.179999 -1.12358 0.503178 1.30818
67 0.863067 -1.06258 -0.0555459 -0.385876 0.70483 -0.911325 -0.0632403 -1.1383 0.417297 1.09237
66 0.935442 -1.32986 -0.290738 -0.682584 0.802981 -0.764257 -0.191085 -0.637362 0.436449 1.21371
188 0.212006 -0.620642 -0.00443582 0.424248 0.668962 -0.453674 0.094168 -0.212259 -0.241146 0.686059
4050 0.171716 -0.520909 0.103461 0.41143 0.340432 -0.327133 -0.214974 0.0147906 -0.496225 0.749849
1937 0.142632 -0.426241 -0.00186267 0.338156 0.288751 -0.254019 -0.111866 -0.115018 -0.448062 0.783858
799 0.33515 -0.714264 -0.00445648 0.622573 0.897327 -0.607592 -0.674389 -0.0687712 -0.460916 0.527561
734 0.255665 -0.470782 -0.267297 0.178987 0.271629 -0.337448 -0.415988 -0.0669301 -0.357326 0.84401
19 0.573921 -0.87915 -0.219567 0.19193 0.899597 -0.442321 -0.676899 -0.176759 -0.243828 0.710552
860 0.485443 -1.01359 -0.396182 0.720594 0.958356 -0.514515 -0.22837 -0.714444 0.346486 0.785019
624 0.0846854 -0.889835 0.599253 0.854927 0.779015 -0.508704 0.278123 0.617109 -0.547202 0.672451
1337 0.270574 -0.629291 -0.0936282 0.105198 -0.0636757 -0.265136 0.679611 -0.124173 -0.39454 0.833255
1339 0.453336 -0.938597 -0.241384 0.00508271 -0.0270264 -0.538678 1.08961 -0.0179137 -0.535414 0.904863
1343 0.233457 -0.523044 -0.145123 0.139134 -0.062726 -0.324623 0.499537 -0.133152 -0.361599 0.804526
525 0.671436 -0.933389 0.269461 0.215266 -0.339943 -0.500002 1.06817 -0.217673 -0.463391 0.776253
1902 0.329218 -0.419015 -0.0366059 0.426217 0.201283 0.121204 -0.124702 -0.536862 -0.401039 0.684646
1548 0.474246 -0.508092 -0.109995 0.662333 0.350285 0.273847 -0.216555 -0.850457 -0.382878 0.739071
423 0.439782 -1.23344 -0.136503 0.0184714 -0.0667122 -0.386494 1.36492 -0.100638 -0.563754 0.944896
598 0.742131 -0.859241 -0.0941491 0.0604409 -0.201241 -0.590679 1.09647 -0.176287 -0.438408 0.840414
415 0.543514 -1.00804 -0.165761 0.0714779 -0.323431 -0.500964 1.29404 -0.266622 -0.563162 0.943003
422 0.422954 -1.2223 -0.242943 -0.218863 0.0961676 -0.441721 1.43454 -0.170181 -0.57216 1.01553
4081 0.318191 -0.422899 0.109524 0.373228 0.20526 -0.233126 -0.0902261 -0.200099 -0.40355 0.757542
1378 0.324134 -0.551065 -0.0906788 0.484667 0.320304 -0.245915 -0.565314 -0.413349 -0.307665 0.777491
1376 0.360997 -0.55753 0.0517382 0.55065 0.140684 -0.248901 -0.511549 -0.165154 -0.190273 0.847219
257 0.95802 -0.960838 -0.190214 -0.302667 0.225426 -0.796311 -0.564451 -0.712257 -0.421952 0.728496
2744 0.313401 -0.884168 -0.222037 -0.0978072 0.02593 -0.491421 1.06755 0.0181801 -0.65095 0.93998
4436 0.294844 -0.549901 -0.0715635 0.187263 0.239744 -0.282084 0.444314 -0.174315 -0.345375 0.724722
4231 -0.0680796 -0.349922 -0.187555 0.18765 0.0709088 -0.156518 -0.0591902 0.105716 -0.501012 0.961358
3644 -0.0962728 -0.368211 -0.274375 0.160784 0.0179481 -0.230673 0.0373261 0.280759 -0.620912 1.14231
35 0.101955 -0.685492 0.124755 0.369493 0.576958 -0.57401 -0.129142 -0.450044 -0.0095327 0.837356
775 0.632094 -0.353282 0.479532 -0.138417 0.881566 -0.209584 0.0297867 -0.170786 -0.331589 0.980864
12 0.573828 -1.04822 -0.458389 0.178914 0.658605 -0.57334 -0.404429 -0.545198 0.610793 1.06045
445 0.521841 -0.736751 -0.162211 0.121293 0.716696 -0.459423 -0.30704 -1.27672 0.316063 1.07874
4609 0.175073 -0.412138 -0.0714013 0.124192 0.035779 -0.279976 0.296872 -0.0585886 -0.419563 0.759563
686 0.168126 -0.596356 -0.180395 0.125994 0.0403447 -0.278998 0.480138 -0.137684 -0.40768 0.860201
682 0.239995 -0.677947 -0.194121 0.238561 0.100164 -0.296404 0.454841 -0.232226 -0.339099 0.756193
21 1.10721 -1.32942 0.482009 0.385366 0.755927 -0.0577028 0.0722658 0.524004 -0.258589 0.718462
22 1.15393 -0.893002 0.318429 0.370685 0.616677 -0.341085 -0.218285 0.188738 -0.141369 0.781472
3738 0.0215398 -0.230805 -0.0913088 0.219781 -0.162339 -0.0561298 -0.381483 -0.158373 -0.441032 1.10103
4730 0.0833423 -0.377349 -0.0130878 0.240092 0.177496 -0.123779 -0.0211154 -0.208078 -0.352377 0.644374
1291 0.757821 -0.765331 1.12471 0.771729 0.24353 -0.533024 0.485994 0.0989588 -0.409686 0.787291
304 -0.0735193 -1.28461 0.675619 0.229757 0.565128 -0.873773 0.233851 0.43415 -0.34656 0.705802
601 0.737116 -1.02634 -0.0815142 -0.0442008 -0.164133 -0.521627 1.1713 -0.0640294 -0.374179 0.946355
1033 0.571413 -0.559642 -0.128306 0.16937 0.578992 -0.293383 -0.262463 -0.84092 0.0197252 0.794509
368 0.248315 -0.6672 -0.188159 -0.294438 0.743659 -0.362215 -0.129632 -1.2426 0.254286 1.20507
441 0.478065 -0.809137 -0.190291 -0.247376 0.883583 -0.581915 -0.211568 -1.13285 0.217814 1.12483
31 0.716143 -1.09747 -0.360744 -0.485584 1.38774 0.154354 -0.112311 -0.462317 0.308478 1.25064
170 0.764272 -0.817062 -0.152876 -0.378566 0.736658 -0.77112 -0.245554 -1.00604 0.30319 1.10073
3226 0.280112 -0.430836 0.0925498 0.312174 0.173901 -0.254768 0.0277986 -0.155848 -0.399905 0.806278
1535 0.339367 -0.589086 -0.226961 -0.185047 0.951151 0.0123377 0.25151 -0.847036 -0.123713 0.985115
1161 0.688518 -0.331203 0.656198 0.723007 0.549037 0.941123 0.0336537 -0.761177 -0.366118 1.02945
1163 0.481824 -0.457418 -0.130553 0.979962 0.398055 0.796687 -0.148746 -1.12109 -0.49851 0.945867
666 0.589352 -0.467596 -0.321811 0.373981 0.620858 0.560358 -0.221942 -1.01057 -0.466466 0.90433
1219 0.522226 -0.505644 -0.0527289 0.428069 0.396739 0.247467 -0.29372 -0.860773 -0.362537 0.815888
431 0.624929 -0.863637 -0.422843 0.931066 0.641339 0.602114 -0.319259 -0.994454 -0.232229 0.844872
1447 -0.158385 -0.341604 -0.21911 0.0958469 -0.0679112 -0.150063 -0.0740819 0.0340509 -0.384875 1.04949
1443 -0.359515 -0.388815 -0.532636 0.072016 -0.227765 -0.143043 -0.168994 0.244289 -0.619115 1.59511
4832 -0.0702974 -0.283074 -0.268647 0.0855842 -0.129638 -0.172769 -0.138027 0.196872 -0.534957 1.19399
50 0.464255 -0.888135 -0.326032 -0.00476299 0.790476 0.564922 0.230943 -0.344451 -0.213828 0.889136
710 0.495535 -0.673661 1.15756 0.731526 0.0694591 -0.602735 0.201902 0.25629 -0.332962 0.801333
246 0.95873 -0.527615 1.03183 0.496753 0.151029 -0.298647 -0.19121 0.277116 -0.291247 0.991749
1549 0.747068 -0.594773 0.614085 0.52664 0.229359 -0.363709 0.0884416 0.236601 -0.439002 0.74899
1383 0.286943 -0.46875 0.11829 0.270926 0.186777 -0.351822 0.205457 -0.114585 -0.38645 0.859276
1384 0.244479 -0.424457 0.0965695 0.274736 0.082379 -0.301322 0.171807 -0.095183 -0.405819 0.875177
757 0.56481 -0.964624 -0.170627 0.0568494 -0.173264 -0.293104 0.955747 -0.179705 -0.537078 0.856415
182 1.40122 -0.986514 0.682144 0.371393 0.426135 0.0866649 0.182341 0.44768 0.234339 1.0806
1160 0.702624 -0.35219 0.520594 0.788085 0.504835 0.829569 0.0390164 -0.64079 -0.502527 0.908283
3635 0.351455 -0.348836 -0.00963427 0.373334 0.335393 0.0117321 -0.144139 -0.535002 -0.326218 0.671363
345 0.811929 -0.818426 -0.232862 0.587812 0.744572 0.518311 -0.161342 -0.919936 -0.298321 0.803759
808 0.256681 -0.424029 -0.00880641 0.384209 0.225568 -0.146648 -0.0823535 -0.244022 -0.253353 0.76753
190 1.0298 -0.826763 0.778966 -0.06003 1.1732 0.137133 -0.00039713 0.17308 0.0653504 1.08422
486 0.659116 -1.07879 0.88006 0.688296 0.43673 -0.420389 0.603658 0.252227 -0.228757 0.668887
981 0.296109 -0.612323 0.182594 0.513759 0.322184 -0.410523 0.165629 -0.0629006 -0.485955 0.705917
724 0.69467 -1.21445 -0.0532687 -0.116696 0.350488 -0.678445 0.987164 -0.114913 -0.358683 0.753674
3154 0.175955 -0.332201 0.223502 0.250164 0.257679 -0.246317 -0.0459013 -0.22035 -0.293779 0.779826
62 0.0572046 -1.37261 0.000461824 0.190771 1.03793 -0.622943 -0.19524 0.166098 -0.940047 0.320023
3433 0.119066 -0.381367 -0.0482779 0.154139 0.319124 -0.257645 0.0117435 -0.373955 -0.165177 0.673587
507 0.487313 -0.778478 -0.466022 -0.280438 0.665639 -0.473814 -0.234972 -0.923679 0.476207 1.34007
4325 0.242787 -0.536705 -0.021381 0.558328 0.367505 -0.392245 -0.189976 -0.3952 0.00467163 0.677892
102 -0.0891864 -0.891504 -0.0198159 0.785534 1.21424 -0.0459901 0.214482 0.761495 -0.714219 0.779921
640 0.0974681 -0.445758 -0.260734 0.224303 0.184629 -0.259717 -0.238728 0.0250408 -0.466754 0.932531
611 0.630406 -0.640363 -0.406376 0.699315 0.599184 0.695125 -0.279836 -0.841522 -0.558783 0.726791
512 0.526515 -0.806884 -0.256374 0.701923 0.703404 0.35049 0.00946574 -0.826475 -0.232015 0.583048
513 0.382244 -0.747221 -0.372313 0.589786 0.601472 0.394304 -0.0681134 -0.938879 -0.245502 0.762251
3769 0.183157 -0.298308 0.0812889 0.227361 0.240946 -0.197484 -0.0907373 -0.32722 -0.332455 0.74736
25 0.756335 -1.09917 0.910341 0.645105 0.648115 -0.0115765 0.361942 0.610396 -0.192349 0.87514
1173 0.602948 -0.636803 0.70654 0.591023 0.32205 -0.368759 0.208081 0.12102 -0.476373 0.701318
33 0.443304 -0.854532 -0.474285 -0.261283 0.89094 -0.574069 -0.16553 -0.904161 0.348771 1.1959
4375 0.127532 -0.465157 -0.0309525 0.252924 -0.0118628 -0.254564 0.494896 -0.127163 -0.344935 0.756793
490 0.894613 -0.814045 0.642406 0.676421 0.511615 -0.414777 0.364511 0.204782 -0.395708 0.63362
794 0.340849 -0.520412 0.247173 0.465667 0.269494 -0.290236 0.0409711 -0.0867251 -0.408179 0.705671
3172 0.581425 -0.560924 0.744211 0.707197 0.233922 -0.303045 0.115395 0.0724491 -0.336082 0.716514
492 0.701348 -1.07064 1.17065 0.761852 0.296648 -0.535384 0.723218 0.204703 -0.132192 0.813504
235 0.850447 -1.09413 -0.212203 0.00635781 -0.0451761 -0.581321 1.14421 -0.0611247 -0.595068 0.850029
3333 0.30137 -0.50895 0.310695 0.453147 0.248742 -0.292842 0.008128 -0.0393634 -0.451432 0.715877
2005 0.137547 -0.635409 0.0216943 0.426034 0.537365 -0.315947 0.327484 0.256183 -0.487095 0.743043
672 -0.0827514 -0.862578 -0.362811 0.503827 1.00715 -0.224563 0.627266 0.499192 -0.492081 0.849161
3008 0.435175 -0.344785 0.618059 0.49034 0.0471071 -0.205847 -0.135843 -0.117342 -0.361421 0.776919
399 -0.608857 -0.915339 -0.114085 0.491561 0.693767 -0.567402 0.409822 0.487606 -0.911331 0.798536
3053 0.200459 -0.478478 -0.0781164 0.31219 0.192621 -0.206559 -0.113201 -0.252976 -0.354261 0.942875
3052 0.154072 -0.367358 -0.106358 0.334782 0.222899 -0.110214 -0.229921 -0.353615 -0.35252 0.817944
1762 -0.356163 -0.464461 -0.702991 0.0250343 -0.322833 -0.0903975 -0.0913988 0.439382 -0.821597 1.76879
216 0.387491 -0.40173 0.451697 0.418436 0.282666 -0.243471 -0.0872778 -0.0734958 -0.400281 0.809308
1357 0.588605 -0.582071 0.552219 0.33159 0.582354 -0.309302 -0.274445 -0.055745 -0.496482 0.708824
239 1.16779 -0.696865 0.141958 0.348302 0.443337 -0.365968 -0.207098 0.0949789 -0.483 0.684015
220 1.07794 -0.786674 0.357558 0.458494 0.243756 -0.512775 0.354064 -0.000797995 -0.426699 0.564031
3313 0.499528 -0.438452 0.472491 0.501492 0.221956 -0.269307 -0.016827 -0.109392 -0.367315 0.746806
844 0.793775 -0.676679 1.13208 0.809212 0.234286 -0.37895 0.0446953 0.10177 -0.465575 0.783868
620 0.923426 -0.632757 0.995739 0.758851 0.325542 -0.55197 0.158344 0.249652 -0.370525 0.811408
915 0.416925 -0.532566 0.418356 0.420192 0.239217 -0.3963 0.0459917 -0.141996 -0.406183 0.815752
627 0.380069 -0.636826 0.747121 0.703784 0.250975 -0.412413 0.185008 0.105364 -0.462037 0.640161
479 0.706175 -0.57669 0.85431 0.631438 0.136207 -0.302474 0.108607 0.0369106 -0.430965 0.723157
303 0.244947 -0.412357 0.164463 0.305103 0.211255 -0.296952 -0.241432 -0.223483 -0.451249 0.738538
138 -0.220909 -0.764626 -0.149703 0.462806 1.09664 -0.532036 0.366348 0.420478 -0.747928 0.713584
1268 -0.195585 -0.86752 -0.50614 0.271133 0.712072 -0.286028 0.937385 0.286537 -0.701941 1.00858
139 -0.342212 -0.751738 -0.132755 0.425229 0.69954 -0.427998 0.547282 0.51979 -0.717008 0.902091
2630 0.0378215 -0.68841 0.164257 0.502549 0.631214 -0.540748 0.463266 0.316144 -0.622177 0.733053
1110 0.0217723 -0.473907 -0.0594604 0.287226 0.362299 -0.279385 0.232759 0.187761 -0.50763 0.873923
191 0.484713 -0.891838 0.538105 0.0550674 0.949048 -0.425165 -0.000364821 0.178624 -0.192277 0.857119
563 0.781381 -0.339146 0.951482 0.680767 0.162383 -0.172488 -0.131656 -0.158949 -0.413768 0.902132
561 1.01312 -0.444011 0.887321 0.735789 0.167299 -0.121243 -0.189714 -0.20045 -0.322778 0.88289
1614 0.637783 -0.451794 0.698309 0.565689 0.0251 -0.0651856 0.0391224 -0.124953 -0.33015 0.808106
1640 0.618515 -0.511859 0.835808 0.369926 0.296629 -0.262743 0.119923 -0.163991 -0.289561 0.813743
3331 0.265384 -0.388005 0.0429759 0.26102 0.176269 -0.219659 -0.0726802 -0.204589 -0.314879 0.76031
1590 0.431911 -0.506975 0.0842242 0.47337 0.355297 -0.28112 -0.211466 -0.166693 -0.404333 0.839774
2794 0.345314 -0.490862 -0.024494 0.330532 0.303106 -0.319442 -0.336879 -0.157467 -0.341349 0.855651
3495 0.480102 -0.427122 0.339633 0.397538 0.117168 -0.234999 0.0720394 -0.224538 -0.369162 0.80191
1355 0.845039 -0.422905 0.917213 0.634256 0.0850662 -0.141688 -0.0760724 0.0448889 -0.402763 0.87206
317 0.15006 -0.730855 -0.241036 0.554253 0.740209 -0.0394708 0.698535 0.599208 -0.804232 0.874179
396 -0.25328 -0.833682 -0.211173 0.496642 1.06738 -0.469542 0.519666 0.538771 -0.690983 0.834603
2633 0.299106 -0.723494 -0.113067 0.151418 0.00673705 -0.449158 0.86998 -0.0696186 -0.461991 0.852598
409 0.36091 -0.996536 -0.251722 0.0474555 -0.0796111 -0.361064 1.38638 -0.247528 -0.526154 0.958498
2319 0.322647 -0.448441 -0.0610472 0.0585784 0.449511 -0.217016 -0.170518 -0.602797 -0.0514869 0.835905
2318 0.3586 -0.447163 -0.0203765 0.128645 0.408527 -0.305566 -0.226348 -0.637208 -0.127659 0.876877
1759 0.440232 -0.478043 0.0293205 0.444592 0.507494 -0.388191 -0.607198 -0.296977 -0.221473 0.701879
4874 0.263574 -0.415861 0.17029 0.344433 0.169191 -0.221968 0.0192338 -0.141128 -0.348224 0.630121
2242 0.284247 -0.417608 -0.0941346 0.375787 0.20904 0.126953 -0.137056 -0.500003 -0.346049 0.781279
1733 0.72486 -0.873722 -0.326398 0.690716 0.671907 0.621308 -0.104442 -0.521352 -0.643877 0.665715
370 0.520914 -1.30225 -0.0629365 -0.0642142 -0.0307225 -0.620862 1.22145 -0.205239 -0.469331 0.773015
4174 0.054397 -0.75488 -0.24221 0.0987072 0.0478493 -0.35513 0.900252 0.0695402 -0.534287 0.898173
4953 0.315699 -0.345552 0.0989666 0.38032 0.0968449 -0.232894 -0.0396251 -0.226407 -0.35476 0.708735
4903 0.222521 -0.280052 0.215873 0.405854 0.0824443 -0.15559 -0.0690936 -0.176512 -0.3826 0.715467
2120 0.762946 -0.451093 0.667971 0.542204 0.212944 0.0325371 0.0382544 -0.114289 -0.338463 0.870258
2118 0.626642 -0.396372 0.699255 0.734824 0.510092 -0.000573182 0.150236 0.000184591 -0.43895 0.775579
1379 0.245614 -0.41111 -0.206926 0.477292 0.227738 0.459593 -0.00615698 -0.440706 -0.378178 0.814618
906 0.611252 -0.468025 -0.31543 0.884222 0.331336 0.664651 -0.213698 -1.0831 -0.400261 0.863088
3165 0.522131 -0.78267 -0.0848036 0.589305 0.622704 -0.537065 -0.241265 -0.62328 0.145126 0.679519
2450 0.243238 -0.409924 0.0675489 0.288995 0.187004 -0.247245 0.0110334 -0.110905 -0.427404 0.751534
137 0.606712 -1.15824 -0.402523 0.356615 1.27867 0.104412 0.418576 0.551129 -0.524415 0.714937
497 0.255124 -0.337523 -0.0220531 0.279721 0.196616 -0.195993 -0.0100674 -0.130901 -0.337896 0.707377
846 0.745376 -0.984505 1.15297 0.848057 0.201629 -0.552642 0.49031 0.127302 -0.368366 0.655562
758 0.425458 -0.62378 -0.0836818 0.16299 0.0730179 -0.189579 0.54622 -0.281346 -0.483755 0.730867
851 0.192504 -0.620004 -0.114045 0.164413 -0.0861595 -0.364873 0.636518 -0.0609547 -0.475231 0.810311
850 0.225915 -0.97393 -0.248677 0.101285 0.0855326 -0.479286 1.26055 -0.211382 -0.508692 0.973203
1144 0.620488 -0.295702 0.634176 -0.224345 0.893297 -0.442206 -0.785939 -0.919404 -0.375806 1.10876
1862 0.501341 -0.287924 0.0739774 0.247591 0.405689 -0.136338 -0.404302 -0.522587 -0.404324 0.812944
1264 0.27404 -0.378589 -0.0444945 0.151428 0.294685 -0.191536 -0.303957 -0.746471 -0.092196 0.914021
2866 0.323194 -0.722594 -0.167609 -0.00896944 0.874123 -0.279396 -0.0807967 -1.14104 0.206169 1.00751
42 0.243737 -1.12379 -0.327989 -0.575027 1.27851 0.0800987 0.0221509 -0.910691 0.352128 1.31843
1361 0.569392 -0.707349 -0.147768 -0.385751 0.840957 -0.611128 -0.0581997 -1.14054 0.118848 1.0787
1364 0.290441 -0.321785 0.0982832 0.0814325 0.419441 -0.180691 -0.235403 -0.630348 -0.27283 0.847183
295 0.0815508 -0.539479 -0.383324 -0.19843 0.855343 0.186407 0.072971 -0.651739 -0.248608 1.05652
296 0.199755 -0.597899 -0.384421 -0.301109 0.870772 0.0416677 0.118086 -0.727832 -0.113744 1.07002
403 -0.509529 -1.06705 -0.0442412 0.566071 0.808823 -0.40913 0.663022 0.658772 -0.960286 0.784014
4961 -0.0725088 -0.431209 -0.0450046 0.284863 0.356398 -0.261405 0.197239 0.0951463 -0.503771 0.754908
414 0.835566 -0.974024 -0.305649 -0.169347 -0.16379 -0.636071 1.25159 -0.175292 -0.686548 0.910164
1001 0.0675689 -0.884446 -0.263276 0.0392775 0.0580617 -0.301752 1.09813 -0.255424 -0.37373 1.02588
1624 0.168514 -0.713556 -0.143476 0.0989462 0.107737 -0.422028 0.732369 0.0554871 -0.406516 0.89323
63 -0.0758043 -1.0709 0.005412 0.375411 1.14785 -0.619137 -0.018722 0.293743 -0.805426 0.552406
2098 0.530191 -0.486055 0.424294 0.391853 0.258024 -0.176028 -0.12861 -0.288899 -0.317614 0.764753
716 0.387378 -0.53781 0.668998 0.635102 0.187686 -0.340115 0.208055 0.119757 -0.375358 0.713409
562 0.408232 -0.447079 0.399502 0.539774 0.160924 -0.198798 -0.0289039 -0.150126 -0.436337 0.848075
1106 0.337676 -0.525359 0.176496 0.341023 0.466815 -0.401687 -0.197478 -0.199924 -0.523149 0.650714
3074 0.451615 -0.395201 0.0563088 0.466583 0.207337 0.129691 -0.130829 -0.524006 -0.411177 0.673425
193 0.782254 -0.555333 -0.235524 0.762139 0.578784 0.874116 0.0849036 -0.741794 -0.634744 0.795496
344 0.704058 -1.09237 -0.618605 0.844142 0.921194 0.633831 0.089929 -0.806922 -0.177354 0.709052
1067 0.75964 -1.44766 -0.230505 1.19254 1.10375 -0.918516 -0.233783 -0.463064 0.61513 0.614209
436 0.699126 -1.54793 -0.415237 1.2274 1.0471 -0.99633 -0.138025 -0.563541 0.781122 0.676273
2408 0.139022 -0.473332 0.0731046 0.337914 0.267208 -0.308415 -0.00958363 -0.0929367 -0.457222 0.672396
1304 0.232208 -0.781952 -0.162765 0.445534 0.613375 -0.534991 -0.433856 0.0875171 -0.683325 0.534145
1305 0.220558 -0.420796 0.144819 0.318338 0.323778 -0.39112 -0.195039 -0.244686 -0.41771 0.593817
3719 0.16931 -0.396714 0.0503517 0.289004 0.173001 -0.25056 -0.229454 -0.19164 -0.32826 0.738155
3063 0.2808 -0.431927 0.0817985 0.358456 0.281997 -0.281607 -0.198992 -0.234098 -0.34162 0.671258
2413 -0.106875 -0.737711 0.342195 0.397254 0.475718 -0.60469 0.282515 0.0979841 -0.504046 0.588299
1041 0.386054 -0.396119 0.33669 -0.0516605 0.797854 -0.379519 -0.272543 -0.474036 -0.272042 0.882287
535 0.312309 -0.387417 0.288739 -0.47762 0.918332 -0.141574 -0.298969 -1.08891 -0.259752 1.22111
727 0.335458 -0.281887 0.123219 -0.027161 0.562461 -0.12549 -0.236532 -0.792064 -0.192834 0.93672
2969 0.427584 -0.316573 -0.0478324 -0.192196 0.830301 -0.0952356 -0.34041 -0.945275 -0.265059 1.05901
75 0.686439 -0.345154 0.495455 -0.587688 1.36084 -0.364865 -0.376874 -0.54689 -0.471088 1.16037
2206 -0.0670116 -0.401968 -0.0869555 0.286475 0.214018 -0.227417 0.375808 0.174286 -0.507425 0.900548
4279 0.13061 -0.430885 -0.114055 0.140168 0.0601611 -0.317013 0.413078 -0.045722 -0.386013 0.926626
777 0.638763 -0.865927 0.134865 0.262507 -0.149517 -0.443356 0.84816 -0.0846059 -0.444254 0.767023
1677 -0.173042 -0.558498 -0.264074 0.230366 0.384087 -0.336289 0.711891 0.136258 -0.543865 0.88535
3326 0.400466 -0.391677 -0.0138973 0.432192 0.294194 0.0837054 -0.20774 -0.505856 -0.420244 0.720264
1132 0.430931 -0.520045 0.127865 0.589935 0.466895 0.0752237 -0.0334751 -0.511267 -0.401367 0.662469
721 1.02065 -0.614937 0.982251 0.679647 0.6178 -0.279864 0.293441 0.399195 -0.401988 0.832483
218 0.749893 -0.508485 0.671999 0.65487 0.449854 -0.265485 0.0661401 -0.047855 -0.519108 0.662337
770 0.308775 -0.860472 0.673395 0.943396 0.618029 -0.543377 0.326276 0.443449 -0.601582 0.578503
4329 0.245273 -0.316703 -0.125263 0.217916 0.0538763 -0.26711 -0.0941575 -0.133151 -0.345193 0.851853
2886 0.0614391 -0.523481 -0.18867 0.330756 -0.0921119 -0.361015 -0.762074 0.269392 -0.414099 1.09647
656 -0.435914 -0.207123 -0.396573 0.126427 -0.424894 -0.162809 -0.313649 0.238774 -0.901108 1.65132
2347 -0.136219 -0.328275 -0.207376 0.175354 -0.170776 -0.138269 -0.131422 0.193784 -0.600516 1.1944
2743 0.318214 -0.894495 -0.284933 -0.0359253 0.290101 -0.53483 1.06178 -0.102366 -0.608421 0.860406
3489 -0.259286 -0.322901 -0.409222 0.154827 -0.341433 -0.0406465 -0.3889 0.225861 -0.731154 1.57736
1415 0.117147 -0.52105 0.0394216 0.479171 0.440822 -0.359531 0.0788412 0.164125 -0.539792 0.676588
393 0.0179909 -0.92575 -0.317214 0.413358 1.23142 -0.0124593 0.534712 0.561072 -0.705576 0.821424
1587 0.353929 -0.438032 -0.00517144 0.346026 0.315685 -0.144335 -0.136322 -0.504251 -0.272592 0.825786
745 0.696901 -0.867184 0.0368476 0.239651 0.0601768 -0.555929 0.851408 -0.187156 -0.29264 0.755133
1346 0.666446 -0.930002 -0.424407 -0.0627165 0.085647 -0.522081 0.985372 -0.258785 -0.438968 0.864335
677 -0.0461914 -0.975434 -0.227954 0.0632003 0.26751 -0.765559 0.770664 0.0617007 -0.807654 0.72168
308 -0.577528 -0.957146 0.275419 0.316531 0.918862 -0.836332 -0.213856 0.117628 -0.970706 0.508307
1254 0.544962 -0.880852 0.0514427 0.191825 0.0438621 -0.547837 0.86009 -0.178167 -0.449786 0.724574
728 0.466038 -0.600106 0.516037 0.734842 0.687657 -0.0977795 0.352391 0.343135 -0.646279 0.656681
971 0.490582 -0.654491 0.676603 0.836614 0.531873 -0.200742 0.217235 0.274575 -0.591594 0.614263
995 0.0599002 -0.807794 0.383811 0.784759 0.737746 -0.498535 0.447509 0.701917 -0.767585 0.724798
150 -0.603572 -1.14208 -0.0353023 0.581216 0.805808 -0.404927 0.530667 0.643793 -0.842311 0.807232
1026 -0.417981 -0.313819 -0.547139 0.0823696 -0.363414 -0.25726 -0.151568 0.508821 -0.986203 1.74096
1766 -0.26066 -0.453941 -0.514451 -0.00377435 -0.246661 -0.329169 -0.166477 0.400747 -0.675761 1.47882
18 0.86783 -1.20687 -0.297945 -0.0647403 0.890415 -0.235955 -0.774608 -0.0278728 -0.213431 0.729883
3060 0.113527 -0.30129 -0.000436815 0.263825 0.198583 -0.205367 -0.064431 -0.112632 -0.293465 0.699212
3205 0.408923 -0.514093 0.084479 0.229952 0.272018 -0.289146 -0.00894165 -0.355329 -0.393621 0.753036
262 0.724196 -0.686224 -0.0535562 0.0211042 0.394044 -0.528486 -0.387762 -0.720823 -0.292739 0.740899
4516 0.279198 -0.367829 0.0305976 0.261484 0.154151 -0.148622 -0.103916 -0.412015 -0.337025 0.783415
4278 0.195974 -0.433692 -0.0588855 0.241316 0.129924 -0.248239 0.316012 -0.135201 -0.411691 0.740809
3601 0.112121 -0.645452 -0.242101 0.117127 -0.0523151 -0.326821 0.802064 0.0562934 -0.598103 1.05189
1139 -0.0935132 -0.758069 0.0517953 0.683199 0.650571 -0.49801 0.416538 0.445975 -0.767173 0.621725
372 0.256264 -0.574209 -0.0278293 0.42171 0.388047 -0.320982 0.245889 0.616253 -0.773181 0.839327
371 0.301655 -0.449512 0.102436 0.416447 0.4366 -0.479048 0.14424 0.57017 -0.769045 0.767533
4487 0.165657 -0.398808 -0.0891003 0.304539 0.161769 -0.23478 -0.0590838 -0.267792 -0.118276 0.604113
13 0.558108 -0.830477 -0.375963 0.184747 0.701606 -0.649223 -0.296443 -0.576544 0.400558 0.993667
1311 -0.670942 -0.544173 -0.727719 0.00609792 -0.204075 -0.344912 -0.221999 0.352332 -0.841703 1.77575
3297 0.0087081 -0.456857 -0.0736322 0.305819 0.323467 -0.265023 0.29746 0.16014 -0.500208 0.798986
2843 -0.224835 -0.323801 -0.441935 0.0479101 -0.310025 -0.0765897 -0.191455 0.244262 -0.714005 1.37052
1138 -0.210579 -0.846783 0.0119703 0.558271 0.778544 -0.474995 0.534919 0.555616 -0.639226 0.785851
1153 0.423812 -0.73413 0.392431 0.508064 0.165301 -0.331736 0.715311 0.0993821 -0.449803 0.75754
1278 0.273976 -0.347393 0.281505 0.478138 0.142834 -0.275243 0.134096 0.0225298 -0.491107 0.76109
2984 0.273289 -0.858715 -0.0810929 0.137074 -0.0289339 -0.477675 0.963783 -0.0328278 -0.441986 0.828468
428 0.497329 -1.51759 -0.259583 0.148297 -0.143928 -0.572024 1.45925 -0.175329 -0.649172 0.77425
594 0.487203 -0.922326 -0.140324 -0.0350488 -0.245251 -0.442639 0.955218 -0.133696 -0.493878 0.921726
859 0.000801489 -0.59684 0.0236288 0.424311 0.724846 -0.294002 -0.042483 -0.157917 -0.475106 0.607749
483 0.161559 -0.891542 -0.0448497 0.358567 0.861627 -0.697314 -0.458971 0.212253 -0.493486 0.613391
4381 0.238072 -0.379193 0.00996956 0.362209 0.165844 -0.0159773 -0.144039 -0.45931 -0.304887 0.708762
1812 0.545648 -0.58189 -0.0662581 0.435071 0.533673 0.117064 -0.210162 -0.827959 -0.243303 0.764878
1022 0.0108711 -0.74361 -0.0924448 0.405512 1.00086 -0.620805 0.18754 0.421505 -0.723069 0.748517
898 -0.117573 -0.340124 -0.29312 0.15458 -0.389858 -0.226934 -0.646262 0.276469 -0.645155 1.52813
2433 0.366084 -0.45238 -0.1089 0.446932 0.267827 0.109423 -0.160338 -0.590247 -0.311239 0.762134
2431 0.289658 -0.41202 -0.0596725 0.439973 0.21672 0.030069 -0.137582 -0.490764 -0.344037 0.743715
963 0.932561 -0.917488 -0.386187 0.816305 0.624997 0.601974 -0.272148 -0.909315 -0.495612 0.715755
448 0.369708 -0.834267 0.048431 0.343396 1.23599 -0.366419 0.144267 -0.0811356 -0.789595 0.433122
928 -0.0422795 -0.692061 0.0672903 0.244877 0.923021 -0.546315 -0.392813 0.0260959 -0.689934 0.674537
1634 0.521009 -0.630972 -0.192159 0.516578 0.70355 0.1438 -0.0827588 -0.965192 -0.19642 0.74977
1501 -0.140418 -0.520317 -0.423495 -0.217205 0.696551 -0.429198 0.578171 -0.19223 -0.393108 1.0606
3797 -0.0241211 -0.41415 -0.074518 0.161889 0.253362 -0.222063 0.249213 -0.1154 -0.373643 0.851347
3537 0.139133 -0.569105 -0.0265693 0.460264 0.649076 -0.385462 0.14376 0.0632301 -0.463052 0.674194
1603 0.0776406 -0.521552 0.122866 0.436773 0.278695 -0.269177 0.0582091 0.111469 -0.54133 0.785869
429 0.556205 -1.41016 -0.117048 0.254971 -0.318586 -0.497971 1.52504 -0.125567 -0.362687 0.930895
237 0.359434 -0.666231 0.101602 0.242852 -0.076256 -0.415696 0.687251 -0.13072 -0.517753 0.693062
398 -0.3573 -1.00502 0.0421233 0.399994 0.697352 -0.408906 0.466765 0.537351 -0.835418 0.800168
1735 0.551663 -0.505235 -0.0610533 0.510989 0.315629 0.288947 -0.329412 -0.712844 -0.44233 0.735536
2569 0.306258 -0.503995 0.0611846 0.403193 0.429852 -0.411511 -0.139293 -0.130361 -0.458658 0.725455
1662 0.184867 -0.521369 0.26387 0.298391 0.431264 -0.376244 -0.0848307 0.0168258 -0.511675 0.692457
3825 0.17858 -0.398251 0.0589626 0.319648 0.219491 -0.157109 -0.111931 -0.238648 -0.248602 0.712316
3827 0.229902 -0.362857 0.00893459 0.309625 0.289769 -0.271067 -0.0108257 -0.282221 -0.322213 0.695025
369 0.710493 -0.468792 0.130692 0.47103 0.403579 -0.476297 -0.183294 0.0442399 -0.511378 0.672197
2530 0.607166 -0.296003 0.330218 0.449519 0.253409 0.162998 0.00185008 -0.557516 -0.339835 0.790613
1675 0.787526 -0.304803 0.941704 0.362019 0.50199 0.183678 -0.0842059 -0.530789 -0.231582 0.981216
3813 0.335559 -0.466484 -0.0694703 0.540785 0.258971 0.291149 -0.251875 -0.761044 -0.282215 0.674718
126 0.702637 -0.605296 -0.434195 0.693617 0.361822 0.662209 -0.213581 -0.957247 -0.463594 0.84782
72 0.728489 -0.766909 -0.524992 0.831611 0.497004 1.12383 -0.0141605 -0.702524 -0.590548 0.92118
1122 0.455749 -0.553333 -0.366397 0.667289 0.472753 0.611814 -0.292743 -0.614276 -0.496271 0.873514
1129 0.0201 -0.409923 -0.0507836 0.261585 0.118695 -0.0710224 -0.126033 -0.0450971 -0.429883 0.901127
1126 -0.00355129 -0.417675 -0.123064 0.218319 0.0104237 -0.173557 -0.0362678 0.197081 -0.566171 1.11334
84 0.359964 -0.752925 0.297747 0.372861 0.469014 -0.12096 -0.350203 0.455205 -0.777802 0.715723
2422 0.109315 -0.457989 0.0322567 0.330916 0.155634 -0.139467 -0.0117166 -0.226077 -0.331333 0.753204
2417 -0.162845 -0.341765 -0.423958 0.027895 -0.367693 -0.0157237 -0.363083 0.138604 -0.710201 1.51587
204 0.0860626 -0.61608 -0.875966 -0.208505 -0.131033 -0.267848 -0.626638 0.224746 -0.963508 1.36301
2571 0.0959348 -0.35849 -0.12011 0.247131 0.0803621 -0.14734 -0.112255 -0.162437 -0.465201 0.949641
1564 0.335864 -0.346379 -0.0384446 0.174724 -0.000320269 -0.156647 -0.303322 -0.0555282 -0.495086 1.01255
3186 0.172539 -0.316925 0.0435482 0.2779 0.13872 -0.171288 -0.0110596 -0.207922 -0.373293 0.730901
618 0.584316 -0.516038 -0.0904778 0.626647 0.525596 0.286197 -0.197008 -0.783818 -0.474596 0.718122
3709 0.259785 -0.498007 0.061846 0.445776 0.48829 -0.289942 -0.210316 -0.137372 -0.525681 0.678891
229 0.194183 -0.327009 0.152366 0.395718 0.226428 -0.11019 -0.0241065 -0.283205 -0.316709 0.662125
231 0.730953 -0.504152 0.689446 0.483002 0.733756 -0.0834083 -0.12899 -0.343466 -0.274883 0.81639
2268 0.215839 -0.353774 -0.0423118 0.26639 0.357747 -0.0113143 -0.125672 -0.537745 -0.289387 0.827492
116 0.0591095 -0.738238 -0.679361 0.182909 0.190861 -0.0209063 -0.630385 0.148137 -0.412762 1.02409
119 0.0575261 -0.677461 -0.54632 0.0923065 0.166643 -0.338258 -0.593263 -0.114026 -0.291504 0.935537
3819 0.069593 -0.410161 -0.106755 0.216141 0.340483 -0.222664 0.167804 -0.179966 -0.323457 0.810203
397 -0.490529 -1.21005 -0.161113 0.426389 0.87841 -0.412288 0.455035 0.537185 -0.84917 0.778796
1267 -0.36098 -0.873861 -0.510765 0.188205 0.732293 -0.276983 0.838859 0.15156 -0.694363 0.994908
438 -0.182643 -0.790777 -0.293909 0.451332 0.667568 -0.300455 0.815402 0.589827 -0.542971 1.04973
4871 0.346354 -0.524599 -0.113695 0.145272 0.059577 -0.340799 0.580201 -0.0406744 -0.414323 0.809509
597 0.224073 -0.636975 -0.0788589 0.0907925 -0.0158225 -0.4062 0.619308 -0.0457412 -0.45926 0.815091
595 0.61412 -0.850599 -0.0972178 0.108317 -0.0521529 -0.532764 0.988719 -0.121008 -0.47113 0.806998
1166 0.217023 -0.539552 0.149082 0.387593 0.448684 -0.398043 0.117336 0.058614 -0.542913 0.753905
4128 0.0322594 -0.380078 0.0276094 0.307621 0.260337 -0.284881 0.127203 0.042868 -0.422054 0.73119
3751 0.0320911 -0.330118 -0.198238 0.232537 0.0622196 -0.212011 -0.239174 0.055794 -0.430003 1.06754
3752 0.102877 -0.343977 -0.284073 0.209494 0.0581071 -0.234936 -0.239291 -0.00385276 -0.601697 1.00877
361 -0.339923 -0.335479 -0.549572 0.172073 -0.167666 -0.0923211 -0.477143 0.274281 -0.897275 1.39679
3675 -0.114609 -0.269024 -0.173449 0.15053 -0.124386 -0.0962422 -0.140078 0.104302 -0.463664 1.02805
3674 -0.183861 -0.34863 -0.221674 0.224467 -0.0965779 -0.12342 -0.150353 0.273359 -0.522163 1.11953
2018 -0.215824 -0.829903 -0.1883 0.5475 0.677952 -0.277483 0.808918 0.449332 -0.692519 0.870553
3234 0.351879 -0.506001 0.372212 0.432328 0.183878 -0.295476 0.0367494 -0.031824 -0.375262 0.674335
4603 0.412531 -0.376469 0.362913 0.393374 0.135197 -0.118223 -0.0687813 -0.262965 -0.395214 0.799304
1271 -0.472559 -0.899662 -0.525177 0.427789 0.701147 -0.12577 0.776129 0.252493 -0.691325 0.921629
762 0.330472 -0.62087 -0.0369914 0.232201 -0.0100386 -0.270269 0.628667 -0.160024 -0.548426 0.778822
761 0.404288 -0.474499 0.00456854 0.258563 0.130179 -0.114246 0.224748 -0.226024 -0.373756 0.659624
3434 0.164899 -0.329773 0.0614497 0.137552 0.246088 -0.17919 -0.188188 -0.336761 -0.338696 0.762938
1096 0.42467 -0.557785 0.154626 0.277527 0.830511 -0.268226 0.014076 -0.312144 -0.690006 0.554044
1978 -0.0784917 -0.552689 -0.0834035 0.321079 0.522529 -0.322198 0.490668 0.342625 -0.6434 0.867918
4121 -0.0129004 -0.283248 -0.109668 0.102864 -0.0955195 -0.133223 -0.0363798 -0.0587943 -0.484071 0.955379
1572 0.682769 -0.576709 0.261416 0.607851 0.434275 -0.310679 -0.130398 0.00508751 -0.344818 0.656667
127 0.106203 -0.818151 -0.28287 0.361857 0.75732 -0.559901 -0.621399 0.26536 -0.52358 0.669017
2297 0.401869 -0.504445 -0.0649605 0.450378 0.22616 -0.00102196 -0.139046 -0.324573 -0.402438 0.771459
2494 0.477799 -0.374133 0.0929995 0.410645 0.230037 0.137657 -0.173225 -0.595171 -0.38154 0.628587
653 -0.307437 -0.301453 -0.381947 0.18955 -0.355783 -0.0613536 -0.165439 0.24196 -0.786222 1.47045
212 -0.0996729 -0.384231 -0.402767 0.104845 -0.166893 -0.187392 -0.20229 0.0921288 -0.589316 1.35923
205 -0.165511 -0.408245 -0.403211 0.142001 -0.144227 -0.211769 -0.0970068 0.281609 -0.652939 1.36426
1516 -0.209763 -0.507411 -0.726416 -0.241487 -0.338908 -0.183766 -0.411591 0.185686 -0.960696 1.72395
1970 -0.305312 -0.383759 -0.446768 0.0933456 -0.44999 -0.186602 -0.314491 0.408189 -0.929767 1.59038
2282 0.341156 -0.414924 -0.079704 0.335876 0.219847 0.14763 -0.146511 -0.488011 -0.273287 0.702781
437 0.408044 -1.72425 -0.339586 1.47581 1.04739 -0.899803 -0.104479 -0.685036 1.00558 0.744108
435 0.514466 -1.38733 -0.229223 1.2109 1.07177 -0.86437 -0.0499443 -0.562929 0.799855 0.582874
16 0.198516 -0.360613 -0.0385117 0.289748 -0.042498 -0.0726874 -0.410874 -0.178445 -0.364083 0.877205
701 1.19392 -0.643263 0.887558 0.458475 0.160575 -0.044732 -0.0517685 0.0318704 -0.129839 1.05133
161 0.745907 -0.890362 0.0557704 0.0371811 1.38883 -0.441933 -0.0991918 -0.194253 -0.930214 0.366584
2648 0.30377 -0.340493 -0.0277323 0.34869 0.16601 -0.019177 -0.178233 -0.456616 -0.352007 0.746916
3109 0.138881 -0.303813 0.0577653 0.30817 0.174452 -0.198568 0.116625 -0.0242385 -0.379452 0.67037
1617 0.442295 -0.594951 0.655469 0.577577 0.148831 -0.422264 0.248101 0.107035 -0.509043 0.652919
893 0.610838 -0.595272 0.656218 0.563961 0.300859 -0.399099 0.00785196 -0.0492755 -0.431462 0.705524
1708 0.0786906 -0.298799 -0.106325 0.230326 -0.0274926 -0.102981 -0.312258 -0.118635 -0.397185 0.980768
879 -0.267489 -0.28091 -0.380771 0.155842 -0.509863 -0.228877 -0.572132 0.26053 -0.691651 1.74254
1314 -0.235754 -0.307529 -0.407867 0.21029 -0.276855 -0.0787535 -0.446686 0.177732 -0.599647 1.35825
4645 0.313306 -0.338645 -0.0489769 0.194321 0.236162 -0.133184 -0.155454 -0.44788 -0.249877 0.828716
1265 0.333224 -0.440583 -0.00483347 0.336164 0.309078 -0.143566 -0.0933008 -0.821207 -0.0977629 0.789578
2868 0.296809 -0.397429 -0.0646785 0.137206 0.40558 -0.161561 -0.100255 -0.765401 -0.143393 0.885319
583 0.352354 -0.433121 0.0525761 0.359286 0.391283 0.00212001 -0.0751858 -0.517305 -0.369202 0.738363
3603 0.403146 -0.662048 -0.221142 0.0956728 0.0204161 -0.357825 0.669803 -0.26231 -0.4146 1.06321
3834 0.211881 -0.507133 -0.128504 0.210647 0.123323 -0.355781 0.403218 -0.0264061 -0.394539 0.875764
907 0.561209 -0.452127 0.0613849 0.653045 0.240555 0.324379 -0.157708 -0.811323 -0.412964 0.79439
124 0.599509 -0.69533 -0.287344 0.889285 0.403866 0.879047 0.0189712 -0.916666 -0.641896 0.815084
630 -0.139728 -0.653656 0.337624 0.539415 0.462299 -0.434598 0.466447 0.322951 -0.616778 0.754188
847 0.552758 -0.705912 0.864276 0.755844 0.221731 -0.402386 0.372172 0.159671 -0.469513 0.655324
2322 0.501612 -0.595497 0.181542 0.469197 0.30887 -0.219347 -0.193241 -0.27518 -0.250137 0.731864
765 0.222721 -0.433472 0.0138962 0.296158 0.132503 -0.116294 0.0128588 -0.157534 -0.407387 0.813631
2220 0.482161 -0.479034 0.542819 0.605781 0.0550388 -0.303533 0.109302 0.0305153 -0.398702 0.685944
1999 0.602774 -0.642761 -0.166941 0.638405 0.372526 0.563589 -0.202378 -0.988483 -0.403344 0.746549
565 0.680267 -0.93447 -0.474749 0.718984 0.632251 0.650183 -0.0276306 -0.996726 -0.137799 0.884441
3156 0.335879 -0.444997 -0.205203 0.377934 0.278856 0.167667 -0.172685 -0.754814 -0.315929 0.898071
4308 0.0502744 -0.446734 -0.0274342 0.287266 0.135181 -0.318836 -0.0471316 0.0844987 -0.460085 0.843896
2650 -0.447608 -0.347086 -0.516486 0.130409 -0.217172 -0.208026 -0.0130271 0.52305 -0.810391 1.67829
549 0.553441 -0.594005 0.398374 0.509129 0.451861 -0.294817 0.0868036 -0.0225634 -0.409898 0.632655
1401 0.484741 -0.482389 0.27464 0.446084 0.236639 -0.367424 -0.0613946 -0.13386 -0.50867 0.743058
708 0.733224 -0.535888 0.799071 0.726816 0.225036 -0.396366 0.0655928 0.111759 -0.407286 0.686185
1657 -0.198319 -0.615877 -0.136647 0.320875 0.493199 -0.487874 0.435307 0.275221 -0.554368 0.800395
82 0.280508 -0.199153 0.349703 -0.320309 0.911176 -0.345871 -0.580537 -1.20232 -0.104684 1.32624
81 0.364116 -0.259235 0.52445 -0.232238 0.879062 -0.238364 -0.776275 -1.20194 -0.0743839 1.36452
293 0.355324 -0.197083 0.182727 0.191589 0.369034 -0.1255 -0.352917 -0.678617 -0.21881 0.861103
460 0.224686 -0.367031 0.0470622 0.19081 0.255736 -0.125985 -0.123584 -0.421849 -0.288149 0.747167
458 0.538823 -0.520212 0.175842 0.058937 0.938346 -0.450644 -0.397914 -0.939231 -0.0598705 1.01046
590 -0.352488 -0.458975 -0.532077 0.0649401 -0.300718 -0.336977 -0.268931 0.404897 -0.795689 1.57413
4865 -0.195654 -0.221729 -0.309017 0.138043 -0.169047 -0.0839086 -0.216284 0.141066 -0.532751 1.26939
79 0.405395 -0.225764 0.276222 0.115369 0.371755 -0.169733 -0.434282 -0.593911 -0.398455 1.01932
1607 0.482869 -0.340085 0.521399 0.528902 0.224567 -0.159978 -0.0641234 -0.2634 -0.385346 0.769359
1608 0.45728 -0.421871 0.385415 0.479589 0.111443 -0.173573 -0.115015 -0.252989 -0.295851 0.81066
208 -0.138405 -0.465683 -0.307906 0.205397 -0.091476 -0.226927 -0.0157483 0.164352 -0.555122 1.2864
886 -0.267291 -0.268708 -0.392673 0.163082 -0.312697 -0.177735 -0.604857 0.162856 -0.653487 1.64942
592 -0.401896 -0.221763 -0.460262 0.116151 -0.199976 -0.0895363 -0.200904 0.298752 -0.881222 1.66861
358 -0.362287 -0.426322 -0.543405 0.121447 -0.0133195 -0.229872 -0.327123 0.437931 -0.854603 1.62973
652 -0.394719 -0.294399 -0.505413 0.11953 -0.347085 -0.197405 -0.10644 0.321865 -0.921467 1.64272
3645 -0.0781121 -0.275164 -0.266027 0.119533 -0.155522 -0.238496 -0.378351 0.0502402 -0.610167 1.19627
593 -0.17203 -0.33216 -0.507691 0.136718 -0.196633 -0.0144966 -0.203955 0.117477 -0.616629 1.45687
776 0.190469 -0.319858 0.0697458 0.274136 0.106393 -0.120232 -0.00462988 -0.320105 -0.341862 0.741806
2004 -0.0444498 -0.538941 -0.0293731 0.267685 0.407933 -0.343427 0.496402 0.231213 -0.556741 0.758232
4243 -0.046489 -0.268483 -0.104996 0.219826 -0.14123 -0.202152 -0.162262 0.00614232 -0.438427 0.998252
2416 -0.164978 -0.337981 -0.445601 0.093668 -0.194232 -0.148996 -0.241821 0.2147 -0.788006 1.48184
1027 -0.664242 -0.0889004 -0.722427 0.120828 -0.227995 -0.429339 -0.381488 0.227853 -1.08163 1.90442
2427 0.316038 -0.53736 -0.00462036 0.0744202 0.581232 -0.337771 -0.150226 -0.837026 0.026985 0.949349
480 0.464161 -0.574223 0.178364 0.00432555 0.734257 -0.315331 -0.414957 -1.13754 0.139589 1.02614
10 0.551324 -0.827293 -0.17569 0.270527 0.97823 -0.124001 0.0608586 -1.22785 0.195637 0.978459
4508 0.159235 -0.340565 -0.012508 0.237258 0.214019 -0.255834 -0.0638757 -0.178042 -0.300137 0.654415
655 -0.0726503 -0.26351 -0.257777 0.165779 -0.172027 -0.116866 -0.131946 0.10852 -0.491867 1.08624
4932 -0.175371 -0.349186 -0.329516 0.119232 -0.237464 -0.110617 -0.137214 0.137694 -0.547632 1.18692
4619 0.255585 -0.347875 0.0864748 0.300431 0.210382 -0.239831 -0.0297486 -0.199785 -0.412607 0.739151
384 0.323086 -0.500482 0.127248 0.272305 0.530495 -0.261554 -0.263145 -0.305086 -0.407359 0.809376
1302 0.398851 -0.896203 -0.10059 0.298956 0.716371 -0.613068 -0.388245 0.26638 -0.607725 0.592832
1073 0.95748 -0.507288 0.388754 0.543712 0.219699 -0.475255 0.110891 -0.0239497 -0.463821 0.754914
1075 1.09866 -0.702347 0.438073 0.605538 0.224206 -0.561307 0.310768 0.221976 -0.452543 0.630199
324 -0.280093 -0.983805 -0.233737 0.461115 0.637839 -0.235091 1.04484 0.707075 -0.84657 1.07818
495 0.699854 -0.910362 0.897026 0.647016 0.445102 -0.486206 0.423434 0.164673 -0.30516 0.715557
3816 0.0359486 -0.47134 -0.258612 -0.0479775 0.704644 -0.212237 0.113311 -0.393946 -0.124496 0.955091
989 0.444028 -0.264236 0.229198 -0.0499225 0.597978 -0.157422 -0.418879 -0.874558 -0.350362 1.02367
819 -0.277839 -0.838367 -0.470031 0.356051 0.841414 -0.333172 0.855866 0.524462 -0.874079 1.04455
322 -0.265331 -0.854365 -0.376859 0.484585 0.605577 -0.111669 0.971358 0.58032 -0.77136 1.0801
1324 0.34232 -0.398816 -0.0224543 0.402154 0.286505 0.059763 0.0175821 -0.472938 -0.277104 0.756193
1320 0.286952 -0.396052 -0.109373 0.455361 0.177165 0.124559 -0.229377 -0.668177 -0.24666 0.785158
299 0.164773 -1.16708 -0.0413835 0.289411 0.794193 -0.615769 -0.317342 0.219621 -0.639619 0.507434
3497 -0.0643777 -0.459758 -0.135058 0.267412 0.260435 -0.236747 0.406202 0.223967 -0.453716 0.869784
1749 -0.0604906 -0.692513 -0.267543 0.348221 0.513598 -0.448745 0.593476 0.36389 -0.564232 0.928053
1334 0.642821 -0.591572 0.574715 0.562769 0.378563 -0.22303 0.208976 -0.090536 -0.472421 0.690916
1293 0.748795 -0.899845 1.15526 0.819617 0.107932 -0.641141 0.527684 0.207817 -0.534605 0.713493
1336 0.555668 -0.572216 0.594621 0.595588 0.24416 -0.277346 0.168516 -0.0965847 -0.381461 0.695035
3473 0.361817 -0.495875 -0.0224465 0.399786 0.327488 -0.318571 -0.233209 -0.453184 -0.0876656 0.808435
3472 0.331931 -0.442394 -0.0201066 0.437811 0.30183 -0.288933 -0.0721641 -0.421087 -0.159922 0.765587
735 0.366707 -0.559469 -0.0621061 0.391634 0.34992 -0.375599 -0.457309 -0.134704 -0.261237 0.797499
133 0.425318 -0.644388 -0.43672 -0.0524166 1.00239 0.24373 0.0142085 -1.11441 -0.210778 0.932559
4302 -0.00528801 -0.352673 -0.157848 0.152758 0.0234629 -0.164112 -0.00115791 -0.00527339 -0.374732 1.00468
646 -0.504767 -0.357814 -0.515741 0.140947 -0.260102 -0.15167 -0.114707 0.370162 -0.829507 1.68978
4900 -0.124821 -0.332829 -0.439909 0.0519577 -0.204749 -0.132517 -0.234968 0.191626 -0.563524 1.34102
1966 -0.18588 -0.399072 -0.660992 -0.0546781 -0.283331 -0.182383 -0.28053 0.356312 -0.868933 1.56188
1706 0.0612431 -0.300896 -0.0824444 0.13813 0.0275349 -0.130165 -0.234062 -0.181839 -0.383939 0.983881
14 0.121697 -0.436097 -0.297422 0.441379 -0.157849 -0.677089 -1.13602 0.125897 -0.175041 1.28838
1387 0.147009 -0.3569 -0.114858 0.336123 0.0512954 -0.232094 -0.295297 0.0175146 -0.505823 0.969548
1244 0.0449565 -0.733102 0.330825 0.79382 0.81816 -0.238989 0.344492 0.522642 -0.641436 0.683319
64 -0.462793 -1.15503 -0.209471 0.688903 0.756837 -0.44281 0.830512 0.530264 -0.91835 0.717242
3264 0.468727 -0.402217 0.201507 0.323212 0.29535 -0.175473 -0.00835623 -0.278293 -0.281194 0.724227
2026 -0.193114 -0.378207 -0.435045 0.0700012 -0.141982 -0.131485 -0.172323 0.217717 -0.757194 1.32718
4890 0.250386 -0.371754 0.087703 0.353388 0.198712 -0.228284 -0.126296 -0.278927 -0.359966 0.838581
2484 0.188665 -0.221417 0.0569338 0.134628 0.125629 -0.122081 -0.138933 -0.276731 -0.362858 0.715769
556 0.896528 -0.38378 0.568753 -0.383766 1.16909 -0.204788 -0.106417 -0.29589 -0.262414 1.04537
425 0.64876 -0.87731 -0.317255 0.116539 -0.0421583 -0.613891 1.11163 -0.0729465 -0.404286 0.892677
2310 0.36317 -0.480513 0.0657017 0.334981 0.276683 -0.180772 -0.115518 -0.440065 -0.32221 0.803276
2311 0.296897 -0.375835 0.155968 0.307437 0.318932 -0.193925 -0.0557875 -0.302848 -0.304299 0.810721
557 0.499542 -0.422955 0.394934 0.180107 0.34279 -0.115227 -0.136969 -0.523512 -0.266936 0.842553
2253 0.38865 -0.656692 0.174651 -0.051791 0.864722 -0.257335 -0.127854 -0.640771 -0.494727 0.621787
122 0.34876 -0.364888 -0.118408 0.469333 0.254451 0.162759 -0.195299 -0.59975 -0.433386 0.873703
608 0.722712 -0.677495 -0.324829 0.892992 0.571525 0.592477 -0.458137 -0.978525 -0.480655 0.822282
763 0.584017 -0.920266 -0.400017 0.649752 0.703853 0.501738 0.0675588 -1.17416 -0.221443 0.776701
514 0.406817 -0.743103 -0.155057 0.683354 0.555153 0.435366 0.038421 -1.09374 -0.120737 0.811249
321 -0.346744 -0.860427 -0.283599 0.507975 0.661506 -0.18588 0.904953 0.559362 -0.725105 0.997168
2407 0.0856595 -0.40887 0.196415 0.441905 0.317636 -0.352218 -0.0586153 -0.0963147 -0.521721 0.777864
1172 0.10428 -0.291339 -0.115191 0.258977 0.18416 -0.25904 0.0709261 0.06367 -0.472577 0.918399
3583 0.168143 -0.382317 0.00260579 0.317136 0.178718 -0.293973 -0.0217906 -0.263081 -0.283437 0.786762
3582 0.247324 -0.421765 0.106687 0.319358 0.171375 -0.224468 -0.0886743 -0.282147 -0.315246 0.782189
979 0.273962 -0.472724 0.111366 0.258937 0.609448 -0.217251 0.146547 -0.365217 -0.322804 0.817548
3586 0.352337 -0.411795 0.190161 0.418309 0.264669 -0.262315 -0.187802 -0.200511 -0.352946 0.759494
346 0.604406 -0.738313 -0.320404 0.659741 0.65018 0.279116 -0.26833 -0.920201 -0.265695 0.724112
120 0.993615 -0.834012 -0.444648 0.649076 0.702609 0.625003 0.241285 -0.783633 -0.50035 0.699214
1476 0.733636 -0.401523 0.647451 0.578164 0.281192 -0.187682 -0.0732942 -0.232662 -0.336831 0.795049
1148 0.206276 -0.493529 -0.076738 0.275501 0.317099 -0.321134 -0.081509 -0.375854 -0.174524 0.622019
2221 0.28625 -0.557748 -0.0613415 0.426123 0.499026 -0.274174 -0.265617 -0.499628 -0.15955 0.628648
924 -0.166841 -0.538122 0.0586042 0.437259 0.489944 -0.413667 0.248898 0.260573 -0.639944 0.642721
923 -0.000285723 -0.612752 0.00907199 0.403299 0.586509 -0.405659 0.438249 0.379251 -0.752716 0.807981
2901 0.31004 -0.506537 0.0098864 0.39981 0.371495 -0.296321 -0.147734 -0.19005 -0.3382 0.677388
2903 0.216708 -0.334673 -0.024159 0.323726 0.273888 -0.31339 -0.19842 -0.15821 -0.415954 0.758676
2948 0.215398 -0.52653 -0.0798931 0.167284 -0.00476091 -0.304966 0.475806 -0.166123 -0.336973 0.876511
854 0.142788 -1.23266 -0.259841 0.0942613 0.0790224 -0.411731 1.37511 -0.160478 -0.54913 0.90771
3267 0.143933 -0.754369 -0.119594 0.171508 0.0670359 -0.468379 0.709413 -0.0160984 -0.487904 0.768975
3266 0.203821 -0.669395 -0.111609 0.0817167 0.0625389 -0.3781 0.737872 -0.0964709 -0.532724 0.819683
1506 -0.0230345 -0.614333 -0.504915 -0.2686 1.06596 -0.423648 0.350989 -0.524771 -0.230907 1.02622
3630 0.390022 -0.473735 0.242968 0.431362 0.121065 -0.192589 0.228837 -0.117104 -0.448309 0.690952
3701 0.364629 -0.43561 0.156247 0.181474 0.450806 -0.199663 -0.201244 -0.452345 -0.340356 0.757271
4809 0.271896 -0.361695 0.152563 0.152193 0.263515 -0.233173 -0.155274 -0.327352 -0.348934 0.781792
3498 -0.0500568 -0.458682 0.0227685 0.277728 0.189475 -0.154507 0.249306 0.0739415 -0.387263 0.711979
2917 0.31138 -0.301273 0.129244 0.168164 0.199211 -0.187265 -0.153601 -0.502788 -0.347297 0.842795
1062 0.392956 -0.436865 0.324549 0.390986 0.086776 -0.193367 0.00639858 -0.115921 -0.444444 0.8523
1064 0.471226 -0.42055 0.32671 0.450574 0.0911075 -0.0997579 -0.0235503 -0.250629 -0.303144 0.777431
913 0.957902 -0.368058 1.17814 0.845487 0.255229 -0.152457 -0.144387 0.162771 -0.263494 1.03709
297 0.234624 -0.707623 0.12337 0.515052 0.799588 -0.782741 -0.371262 -0.00270388 -0.476964 0.453092
551 0.363988 0.0491895 0.534081 -0.38339 0.805292 -0.206964 -0.559621 -1.20623 -0.182643 1.47822
1894 0.471989 -0.471858 -0.295976 0.742659 0.355427 0.571414 -0.219198 -0.89696 -0.409984 0.872603
4363 0.32998 -0.431432 -0.0394847 0.426225 0.163215 0.0386295 -0.0721589 -0.382712 -0.321169 0.674971
1825 0.550773 -0.537688 -0.0485109 0.603435 0.40083 0.40142 -0.356257 -0.618356 -0.484547 0.727425
2575 0.364577 -0.550821 0.151279 0.527964 0.488292 -0.281974 -0.267914 -0.293083 -0.235211 0.66301
4627 0.187271 -0.42902 -0.0141371 0.350995 0.186727 -0.241696 -0.057773 -0.214053 -0.27824 0.679825
2477 0.585921 -0.451577 0.626805 0.530641 0.181523 -0.274136 -0.00271779 -0.082137 -0.309252 0.716091
1871 0.655613 -0.469305 0.445967 0.545034 0.240209 -0.29376 -0.141551 -0.15654 -0.315206 0.669408
2834 0.232168 -0.495189 0.172174 0.350424 0.535324 -0.427346 -0.190957 -0.201325 -0.513283 0.639884
1728 0.334769 -0.394541 0.0510337 0.497459 0.31539 0.126662 -0.135433 -0.713157 -0.268077 0.661478
573 0.45364 -0.584125 0.260186 0.463018 0.194984 -0.335497 0.175809 -0.0752851 -0.498824 0.797361
1809 0.591071 -0.538781 -0.125311 0.503587 0.462688 0.138222 -0.233973 -0.993879 -0.207047 0.881893
7 0.709641 -1.0139 -0.154654 0.121519 0.873993 -0.399225 0.128009 -1.09081 0.236 0.823644
349 0.608168 -0.762537 -0.0323603 0.223379 0.833732 -0.114673 -0.137129 -1.26428 0.0978092 0.987228
3347 0.241798 -0.400572 0.0490114 0.0753874 0.37745 -0.184795 -0.16127 -0.634777 -0.190665 0.95095
3345 0.217392 -0.510716 -0.0570412 0.155049 0.355627 -0.21265 -0.123336 -0.578958 -0.155851 0.935488
2142 0.372044 -0.64906 -0.0400634 0.164629 0.0257554 -0.280514 0.550318 -0.194135 -0.3845 0.79701
109 -0.0206906 -0.579733 0.0354966 0.442437 0.298862 -0.279379 0.396939 0.324693 -0.653863 0.808502
1983 0.0326544 -0.497064 -0.000914053 0.316771 0.387417 -0.253177 0.358372 0.201434 -0.486606 0.799285
4573 0.377517 -0.484295 -0.0977688 0.481678 0.200906 0.0773687 -0.154986 -0.506111 -0.42041 0.72375
932 0.426385 -0.515319 -0.289363 0.565191 0.464064 0.36809 -0.135357 -0.843602 -0.272229 0.751453
325 -0.345697 -1.03328 -0.111794 0.688103 0.607139 -0.0825988 1.03253 0.61497 -0.801617 0.962668
1714 0.250818 -0.640571 -0.107085 0.197939 -0.0247805 -0.329316 0.59019 -0.17719 -0.366614 0.717298
420 0.306866 -1.01552 -0.164618 0.118275 -0.0993522 -0.614876 1.2183 -0.0119949 -0.603479 0.926697
1485 0.781743 -0.513173 0.866716 0.524121 -0.0261325 -0.0701821 0.0310172 -0.101416 -0.451524 0.80512
252 0.957709 -0.529993 1.16277 0.787151 0.160322 -0.310542 -0.0381311 0.0743158 -0.111075 1.06945
1722 0.242926 -0.514848 0.102338 0.439689 0.441139 -0.14584 -0.0128681 -0.076216 -0.519844 0.604427
589 0.428268 -0.368189 0.23583 0.392057 0.0262009 -0.152046 -0.25921 -0.0609008 -0.396998 0.882694
3182 0.14422 -0.381931 -0.0571892 0.308826 0.190109 -0.139677 -0.0133351 -0.148906 -0.286801 0.629493
3198 0.0316424 -0.456079 -0.011176 0.354213 0.289257 -0.276792 0.00951434 -0.0918552 -0.424865 0.67706
4525 0.210124 -0.318617 -0.036441 0.320239 0.136087 -0.023193 -0.111953 -0.335777 -0.345133 0.784884
2349 -0.169082 -0.279717 -0.340338 0.0716145 -0.257467 -0.0460903 -0.260466 0.0555311 -0.608972 1.25954
2106 -0.319843 -0.302063 -0.422784 0.166238 -0.252 -0.0658988 -0.14712 0.213219 -0.651279 1.35886
2174 0.41909 -0.607042 -0.118438 0.0701979 0.0205676 -0.424018 0.730968 -0.214751 -0.457996 0.888416
2692 -0.130747 -0.343025 -0.379398 0.107 -0.0970116 -0.0831741 -0.0602354 0.171119 -0.499792 1.20583
1763 -0.21407 -0.376582 -0.513551 0.0729878 -0.324317 -0.234563 -0.112187 0.412178 -0.800618 1.59669
2691 -0.0448437 -0.351272 -0.283302 0.146064 -0.150568 -0.10158 -0.152976 -0.00809087 -0.435043 1.00111
2694 -0.0193353 -0.357849 -0.28241 0.130171 -0.0933735 -0.102147 -0.0846262 0.0854023 -0.499694 1.16057
965 0.409908 -0.590968 -0.316065 0.0913307 0.639081 0.169688 -0.200323 -1.06869 -0.196139 0.951304
465 0.549935 -0.563588 -0.404774 0.326942 0.74663 0.504249 -0.254119 -1.0007 -0.389481 0.9414
4241 0.197643 -0.594335 0.42244 0.523452 0.387433 -0.407114 0.123982 0.0743119 -0.533737 0.591307
2534 0.308139 -0.401188 0.106967 0.390114 0.263126 -0.280474 -0.149837 0.0143145 -0.520449 0.802971
2881 -0.0078877 -0.458302 -0.0888343 0.295549 0.283297 -0.295331 0.298245 0.232917 -0.50505 0.762825
884 -0.37937 -0.0614362 -0.227206 0.356412 -0.45148 -0.468043 -1.1801 0.0653313 -0.632257 1.73945
881 -0.283243 -0.0371483 -0.30622 0.427277 -0.62099 -0.43688 -1.06776 0.01592 -0.786285 1.81827
95 0.296634 -1.05511 -0.439197 0.714501 0.784505 -0.116956 0.786088 0.387374 -0.725304 0.582096
4254 0.190286 -0.384506 -0.0816773 0.304327 0.107959 0.055695 -0.194109 -0.389861 -0.326672 0.772076
4414 0.259816 -0.445521 0.00266003 0.377749 0.188658 -0.110194 -0.0691945 -0.234526 -0.470052 0.722763
4413 0.227669 -0.409736 -0.0153967 0.292864 0.165204 -0.0842454 -0.0484946 -0.317987 -0.45511 0.81106
1452 0.588392 -0.445167 0.710462 0.544676 0.237186 -0.219126 0.0563374 0.0468101 -0.403252 0.668823
3972 0.479347 -0.376587 0.403382 0.461092 0.0784775 -0.227839 -0.11308 -0.0672653 -0.324647 0.812505
4675 0.137452 -0.352989 0.0766756 0.335188 0.0700668 -0.130756 0.0573379 -0.0652849 -0.353172 0.710763
171 0.710029 -1.01991 -0.175874 -0.387332 0.627122 -0.922464 -0.0974209 -0.951605 0.463616 1.10315
2428 0.311907 -0.576561 0.0130645 0.100841 0.591122 -0.246869 -0.148699 -0.777368 0.00175548 0.837976
857 0.298757 -0.648687 0.0265615 0.16524 0.407995 -0.226774 0.0112004 -0.393092 -0.416783 0.739896
4240 0.127935 -0.669783 0.311786 0.470047 0.467043 -0.461493 0.406949 0.114571 -0.565386 0.609069
2153 -0.00498141 -0.373677 -0.267958 0.104265 -0.159809 -0.167041 -0.156602 0.115617 -0.394737 1.19321
2111 -0.136019 -0.570874 -0.233635 0.319424 0.447444 -0.23611 0.508134 0.368792 -0.533997 1.02393
3396 0.26775 -0.382008 0.0795253 0.358703 0.140894 -0.210701 -0.0283259 -0.105793 -0.308922 0.748008
1536 0.453463 -0.572966 -0.0647626 0.112115 0.552514 0.0630436 -0.0225198 -0.888343 -0.221205 0.896059
2487 0.193379 -0.538745 -0.116912 0.194252 0.170236 -0.372354 0.418374 0.0267679 -0.464284 0.746263
2486 0.261932 -0.582685 0.0489911 0.17276 0.125788 -0.351332 0.465137 -0.0844978 -0.392373 0.758132
610 0.753832 -0.720205 -0.2097 0.75773 0.656162 0.541849 -0.168085 -1.00803 -0.329582 0.808774
1038 0.0743529 -0.48343 0.146141 0.422361 0.432122 -0.390757 0.411868 0.387822 -0.500694 0.834844
3437 0.101102 -0.562149 0.126167 0.355233 0.415796 -0.222753 0.218611 0.0688695 -0.463689 0.746816
1974 -0.13846 -0.509564 0.0496008 0.278821 0.374592 -0.21551 0.418474 0.254701 -0.509006 0.7784
1816 0.430736 -0.592829 -0.0837836 0.382897 0.413708 0.0415339 -0.257679 -0.894849 -0.174592 0.878144
1813 0.547036 -0.582087 0.0820837 0.386314 0.53163 -0.07168 -0.322922 -0.835342 -0.211438 0.847327
1815 0.412874 -0.51778 -0.104014 0.487537 0.376041 0.183934 -0.31904 -0.919928 -0.219698 0.87787
1889 0.178648 -0.516865 0.0827888 0.462591 0.337932 -0.336823 0.0766196 0.180902 -0.56281 0.783674
3665 0.291003 -0.251376 0.0662996 0.162341 0.312355 -0.120271 -0.311399 -0.573686 -0.266351 0.889302
867 0.60795 -0.55473 -0.15145 0.737645 0.54223 0.647439 -0.252455 -1.11151 -0.318674 0.940503
2391 0.468247 -0.547735 -0.157658 0.556889 0.392704 0.352305 -0.249821 -0.821283 -0.39196 0.898358
1498 0.716331 -0.453289 0.0537568 0.788008 0.326345 0.643238 -0.180212 -1.07749 -0.504471 0.789492
1500 0.483409 -0.416292 -0.0941901 0.647263 0.218546 0.406975 -0.125227 -0.827821 -0.398576 0.825688
609 0.755097 -0.671516 -0.174798 0.755466 0.455725 0.531528 -0.184776 -0.881064 -0.472834 0.725522
432 0.806003 -0.895463 -0.285129 0.951303 0.607711 0.568474 -0.0467707 -1.00043 -0.203609 0.812617
1794 0.631155 -0.514298 -0.155732 0.757551 0.430731 0.37702 -0.396583 -0.848557 -0.380119 0.801425
1009 0.0697677 -0.448576 -0.122615 0.071379 0.0256468 -0.109392 0.313111 -0.2176 -0.286733 0.807435
750 0.323807 -0.912026 -0.30338 0.0908939 -0.110649 -0.349706 1.16592 -0.334344 -0.419645 0.934576
849 0.3354 -0.988078 -0.459157 0.0124018 0.162898 -0.382346 1.16985 -0.155555 -0.663449 0.885766
2021 -0.0890961 -0.542637 0.00604208 0.336548 0.35135 -0.39794 0.274916 0.282396 -0.576179 0.746421
1360 0.483837 -0.742489 -0.149272 -0.381772 0.816627 -0.61545 0.0366847 -1.06522 0.291718 1.20555
2812 0.255411 -0.601887 -0.12459 0.537025 0.449437 -0.487592 -0.469795 -0.589119 0.141945 0.859238
806 0.354104 -0.627644 -0.0756045 0.72481 0.490436 -0.525456 -0.452846 -0.618132 0.112611 0.752599
607 0.498243 -1.32525 -0.260643 1.18038 1.04194 -0.806485 -0.160202 -0.526198 0.611864 0.679832
874 0.647469 -0.738706 -0.168636 0.682264 0.506097 0.602277 -0.272187 -0.777967 -0.450727 0.772631
248 0.645792 -0.332177 0.614971 0.425914 0.208451 -0.310432 -0.140133 -0.104348 -0.406813 0.775269
4456 0.254815 -0.298253 -0.00665249 0.290747 0.218319 -0.25799 -0.304824 -0.224874 -0.370846 0.838238
711 0.418696 -0.505546 0.588815 0.538808 0.157985 -0.28959 0.000318402 0.0315156 -0.369916 0.75939
715 0.442861 -0.435258 0.390733 0.368326 0.0940869 -0.223259 0.0148413 -0.148792 -0.381678 0.73963
3687 0.388207 -0.484406 0.469209 0.542688 0.0543631 -0.312936 -0.0379842 0.0114261 -0.366818 0.729552
4255 0.397614 -0.532541 -0.0290413 0.530614 0.411466 0.0678215 -0.206008 -0.636648 -0.372391 0.734072
4981 0.300071 -0.46691 -0.0971898 0.42015 0.301257 -0.0767648 -0.105534 -0.536882 -0.28778 0.800702
4256 0.443236 -0.451022 -0.00117713 0.532674 0.366271 0.00891506 -0.279342 -0.660743 -0.328702 0.743249
815 0.817437 -0.736286 -0.289185 0.938266 0.643697 0.63654 -0.321274 -0.993646 -0.427004 0.801268
3322 0.269199 -0.423382 -0.0114997 0.389986 0.240271 0.0312542 -0.0414547 -0.449494 -0.389595 0.731345
1229 0.479644 -0.523498 -0.108416 0.591565 0.344273 0.430903 -0.242058 -0.754336 -0.461198 0.759206
2783 0.155863 -0.343705 -0.057075 0.347119 0.0956521 -0.000274735 0.00622716 -0.319836 -0.276056 0.673748
1455 0.173572 -0.413943 0.0829642 0.388746 0.367682 -0.206505 -0.122636 -0.150673 -0.527952 0.777975
456 0.140367 -0.62134 0.641854 0.426811 0.60971 -0.633261 -0.044357 0.142028 -0.570055 0.592617
311 0.156972 -0.562837 0.218888 0.428094 0.441372 -0.481483 0.0494519 -0.0580559 -0.59048 0.57736
261 0.427391 -0.560942 0.0194492 0.207392 0.408269 -0.264364 -0.325718 -0.601614 -0.215323 0.800284
266 0.302818 -0.506181 -0.0131686 0.334785 0.35445 -0.199356 -0.135285 -0.343645 -0.276743 0.75636
4924 0.130756 -0.333978 -0.0426762 0.277347 0.189606 -0.176895 -0.075124 -0.224128 -0.21037 0.693903
4 0.260045 -1.24843 -0.441248 1.01762 0.995986 -0.826648 -0.617985 -0.250705 0.175023 0.521694
968 0.0849114 -0.794426 0.224317 0.337811 0.469782 -0.565224 0.28697 0.118581 -0.446832 0.571036
41 0.16086 -0.480137 -0.0721923 0.22358 0.309672 -0.180515 -0.0566095 -0.549659 -0.131092 0.801413
2063 -0.268036 -0.387591 -0.612541 -0.0781667 -0.383823 -0.253726 -0.395388 0.286428 -0.757902 1.6266
4899 -0.172028 -0.354105 -0.40296 0.0323605 -0.205856 -0.129363 -0.16586 0.244708 -0.730356 1.34693
1045 0.582839 -0.633447 0.157302 0.425124 0.506752 -0.348781 -0.130155 -0.161717 -0.527057 0.72852
313 0.577732 -0.55198 0.128431 0.315396 0.473405 -0.42573 -0.39181 0.138941 -0.528975 0.721731
1973 -0.363099 -0.695352 -0.128277 0.291327 0.688412 -0.367194 0.870024 0.304049 -0.603583 0.977976
660 0.14228 -0.435289 0.0937442 0.37116 0.257768 -0.263512 -0.040708 -0.110055 -0.46452 0.688848
142 -0.491519 -1.20718 0.0365483 0.764085 0.862489 -0.312189 0.590635 0.687359 -0.817653 0.749519
408 0.602322 -0.931294 -0.216889 0.0948296 0.0522041 -0.525573 0.896802 -0.168922 -0.348435 0.766281
920 0.403614 -0.617912 0.121136 0.345258 0.188542 -0.356672 0.379279 -0.0791305 -0.441615 0.732424
553 0.267233 -0.0845235 0.368536 -0.111254 0.606512 -0.103782 -0.60375 -1.39659 -0.146921 1.41042
1389 0.365702 -0.557211 0.083916 0.421228 0.535672 -0.406357 -0.317718 -0.267609 -0.433223 0.753379
1637 0.516978 -0.543921 0.178342 0.522031 0.492234 -0.483075 -0.349239 0.0166576 -0.511436 0.632478
3077 0.516782 -0.465107 0.28799 0.402764 0.316643 -0.272095 -0.130973 -0.205264 -0.376567 0.68648
2057 0.380598 -0.491026 0.402261 0.3608 0.541719 -0.250055 -0.113749 -0.357221 -0.355799 0.778971
4949 0.200091 -0.33806 0.0312078 0.272042 0.182265 -0.181022 -0.0596352 -0.236772 -0.234081 0.761197
1076 0.925288 -0.682772 0.30718 0.602314 0.160765 -0.43794 0.34459 0.0491195 -0.5192 0.634242
4160 -0.336646 -0.31096 -0.295016 0.229239 -0.414241 -0.215938 -0.549561 0.215719 -0.683588 1.56189
3802 -0.27343 -0.417258 -0.440885 0.11099 -0.264267 -0.135196 -0.230867 0.322577 -0.562867 1.42011
1028 -0.520015 -0.158735 -0.511592 0.119561 -0.448428 -0.0382546 -0.281208 0.298491 -1.02127 1.83681
1352 0.246071 -0.623783 -0.218047 0.128885 0.351096 -0.335875 -0.129314 -0.529919 0.04765 0.871485
970 0.21037 -0.632388 0.294927 0.610465 0.475005 -0.20985 0.391264 0.3873 -0.581502 0.755222
1262 0.44383 -0.547747 0.0227073 0.30313 0.591208 -0.250012 -0.209899 -0.901339 0.049897 0.874098
382 0.32146 -0.440333 0.454095 -0.231404 0.937027 -0.548228 -0.49897 -0.665527 -0.388819 0.936186
1039 0.40484 -0.332653 0.223739 0.184132 0.696823 -0.377957 -0.420078 -0.355052 -0.566697 0.760282
1072 0.511814 -0.471374 0.415932 0.47024 0.138294 -0.245917 0.2214 -0.0645863 -0.408532 0.802678
4433 0.104297 -0.436541 0.0861973 0.32006 0.177012 -0.304127 0.131928 -0.094509 -0.416832 0.750483
3221 0.0443197 -0.608567 -0.132258 0.281162 0.41684 -0.288184 0.566147 0.178573 -0.442292 0.805217
3824 0.395585 -0.7585 -0.152066 0.132194 0.0377809 -0.360312 0.857734 -0.139878 -0.43648 0.786371
4052 0.257453 -0.300973 0.0568788 0.308928 0.0651348 -0.223007 -0.0401652 -0.186934 -0.306132 0.64393
240 0.484564 -0.530329 -0.0592118 0.407838 0.530467 -0.287019 0.0235826 -0.25183 -0.434562 0.743182
140 0.13744 -0.942443 -0.0477463 0.422728 1.35786 -0.644853 -0.193496 0.214648 -0.881999 0.455293
4791 0.300641 -0.436779 0.109719 0.344802 0.400639 -0.280199 -0.115777 -0.299806 -0.375993 0.727131
1150 -0.259096 -0.825308 -0.0785918 0.631889 1.05991 -0.659303 -0.326196 0.0911451 -0.342146 0.588652
3518 0.533155 -0.367644 -0.142312 0.301414 0.292919 -0.284594 -0.18498 -0.190259 -0.418214 0.864256
331 1.15055 -0.515544 -0.662268 0.280508 0.688646 -0.769681 -0.349203 0.362439 -0.792825 0.711204
1776 0.766497 -0.458265 -0.193917 0.343403 0.347626 -0.564268 -0.338663 0.081846 -0.543375 0.730015
282 0.0715479 -0.646835 -0.100554 0.354789 0.403228 -0.339565 0.455992 0.185713 -0.496318 0.799129
3289 -0.005232 -0.313781 -0.136755 0.18897 -0.01331 -0.108193 -0.137771 -0.0448726 -0.455768 1.02151
1029 -0.43082 -0.261037 -0.505903 0.07648 -0.313784 -0.150016 -0.10494 0.497888 -0.906959 1.66205
3270 0.317968 -0.750201 -0.363185 0.181307 0.153841 -0.487813 0.904267 -0.173444 -0.454224 0.860761
540 0.207859 -0.688269 -0.16704 0.156083 0.24556 -0.375535 0.721782 0.0775451 -0.512578 0.859158
3822 0.254942 -0.773585 -0.216599 0.12218 -0.162751 -0.416975 1.15868 -0.0325779 -0.697087 0.969742
1256 0.131291 -0.593979 0.581114 0.380672 0.720101 -0.613779 -0.121474 0.0494555 -0.527563 0.640265
1350 0.779809 -1.06191 -0.263411 0.105854 -0.0418853 -0.430673 0.882467 -0.223305 -0.459044 0.663102
1680 0.0559546 -0.899597 -0.292861 0.075335 -0.0120805 -0.406066 1.04581 -0.106343 -0.529524 0.888856
1390 0.336747 -0.549486 0.0397187 0.449275 0.393263 -0.350162 -0.173878 -0.153446 -0.388513 0.752245
1639 0.384877 -0.56334 0.172551 0.453208 0.447319 -0.629572 -0.474162 0.0709501 -0.570192 0.65239
402 -0.357319 -0.889031 0.00598761 0.477815 0.579189 -0.574123 0.64207 0.732006 -0.883258 0.877824
2293 0.246497 -0.249709 0.0321699 0.232118 0.159818 -0.139459 -0.0240247 -0.358402 -0.320117 0.704989
2677 -0.133617 -0.561459 -0.250728 0.210449 0.427818 -0.258964 0.301796 0.155602 -0.486044 0.88636
2699 0.333354 -0.436895 -0.0877176 0.357325 0.296211 -0.008597 -0.109266 -0.357277 -0.373679 0.764086
2701 0.314671 -0.407136 -7.56146e-05 0.457907 0.200243 0.132391 -0.13043 -0.500915 -0.345119 0.716575
1382 0.472427 -0.443344 0.0418256 0.501574 0.229266 0.150761 -0.133709 -0.689737 -0.304294 0.800674
2245 0.502151 -0.408343 -0.00161038 0.520022 0.319841 0.327643 -0.268835 -1.06584 -0.268422 0.864513
394 -0.0801157 -0.876078 -0.251747 0.439444 0.991976 -0.350975 0.49752 0.49755 -0.679565 0.801157
1751 -0.233704 -0.609333 -0.136181 0.343267 0.460613 -0.367842 0.566228 0.379382 -0.683111 0.842374
678 0.447636 -0.982647 -0.0202279 0.057763 -0.241417 -0.669914 1.00562 -0.0316836 -0.571412 0.804362
690 0.0436463 -0.878079 -0.0512119 0.198331 -0.0631791 -0.508908 0.917284 -0.0451842 -0.599994 0.84468
487 0.647098 -0.987093 0.878454 0.713531 0.274476 -0.609365 0.486529 0.0488348 -0.308291 0.629055
2470 -0.0496361 -0.28823 -0.194258 0.139593 -0.0380069 -0.111402 -0.0794251 0.0674479 -0.38187 0.932003
1768 -0.0310242 -0.387186 -0.663531 -0.161408 -0.312007 -0.221567 -0.503856 0.335724 -0.987718 1.45016
1697 -0.308041 -0.0268291 -0.269782 0.0774939 -0.300435 0.0968022 -0.419954 -1.02413 -0.296711 1.68297
1698 -0.247268 -0.0333801 -0.232639 0.0664298 -0.140584 0.159748 -0.375788 -1.68515 -0.0270424 2.03844
2511 0.231678 -0.396238 -0.00410979 0.390016 0.301058 -0.34674 -0.375664 -0.025684 -0.40973 0.797431
2033 0.213494 -0.415581 0.0367946 0.29604 0.233762 -0.182903 -0.10444 -0.331778 -0.450718 0.947964
834 0.41247 -0.428281 0.0675984 0.298377 0.311903 -0.216988 -0.129509 -0.320232 -0.42758 0.969431
3311 0.397441 -0.412919 -0.0424419 0.289534 0.107508 -0.180656 -0.0436538 -0.10817 -0.510068 0.981131
501 -0.29065 -0.504119 -0.641522 0.00152705 -0.254599 -0.197087 -0.088731 0.414997 -0.892341 1.6094
1847 -0.173081 -0.505649 -0.356335 0.127024 -0.0825705 -0.147272 -0.0875001 0.236176 -0.619122 1.26814
3312 0.304332 -0.486823 0.0650082 0.303965 0.205359 -0.145296 -0.0361034 -0.171782 -0.516378 1.0068
388 0.97135 -0.641508 -0.198048 -0.0671527 0.330602 -0.125487 0.12609 0.0893441 -0.457216 1.02439
224 0.669751 -0.578484 0.691076 0.592729 0.203415 -0.363737 0.204054 0.0758253 -0.395229 0.738019
192 0.549916 -0.722538 0.458261 0.221149 0.880145 -0.492952 0.136244 0.124048 -0.358033 0.72507
4225 0.260665 -0.411953 0.0500337 0.35952 0.301736 -0.290771 -0.151306 -0.315674 -0.262873 0.712126
9 0.286525 -0.358773 0.0443666 0.324203 0.292983 -0.206465 -0.0827287 -0.347383 -0.217372 0.72338
2884 0.283174 -0.390407 0.0342345 0.361534 0.352454 -0.207502 -0.250466 -0.334646 -0.211519 0.717495
5 0.36441 -0.976543 -0.249299 0.875559 0.970827 -0.864818 -0.537168 -0.266126 0.211839 0.688841
738 0.212926 -0.505222 0.0725289 0.324477 0.45777 -0.369618 -0.0680919 -0.117402 -0.511023 0.62238
306 0.106101 -0.552049 0.452952 0.308607 0.706546 -0.506166 -0.274306 -0.115661 -0.633248 0.625824
3388 0.275029 -0.483742 0.0147116 0.256616 0.378289 -0.126307 -0.117126 -0.456505 -0.275276 0.725081
269 0.815154 -0.645286 0.0561292 0.289149 0.344385 -0.39053 -0.224489 -0.364548 -0.357252 0.695086
4441 0.200872 -0.339672 0.059845 0.261038 0.116422 -0.139268 0.121276 -0.222876 -0.271583 0.707318
4542 0.557351 -0.554369 -0.117492 0.672389 0.39186 0.375465 -0.269873 -0.826001 -0.356561 0.701618
1687 0.266067 -0.359642 -0.015011 0.394651 0.257026 0.0911092 -0.160737 -0.505507 -0.321688 0.731261
3081 0.162182 -0.474725 -0.149475 0.243842 0.0315217 -0.198224 0.373203 -0.145738 -0.338088 0.875172
3085 0.122808 -0.594147 -0.09489 0.261785 0.0822501 -0.260474 0.44443 -0.0317258 -0.450489 0.914518
404 1.0128 -1.33899 -0.403642 -0.116732 0.171325 -0.527607 1.04445 -0.239123 -0.516288 0.639829
2496 0.442896 -0.936307 -0.209704 0.127305 -0.0614496 -0.35106 1.02359 -0.158996 -0.436396 0.875237
2495 0.270443 -0.849326 -0.0949531 0.118533 0.0153186 -0.504207 1.05147 -0.119939 -0.44792 0.883186
4296 0.0878579 -0.532904 -0.174929 0.152829 -0.0137379 -0.320128 0.614846 -0.110137 -0.450195 0.88726
2902 0.249366 -0.444773 0.0597073 0.399115 0.169903 -0.30376 -0.21232 -0.226484 -0.362333 0.701565
1428 0.357599 -0.559489 0.00231841 0.428686 0.390409 -0.255979 -0.128588 -0.349803 -0.119942 0.696115
4209 0.0464642 -0.326323 -0.0434945 0.301148 0.261949 -0.139364 0.0417052 -0.160268 -0.436232 0.670668
2062 -0.190102 -0.277247 -0.538661 -0.00465341 -0.198275 -0.270308 -0.297679 0.359286 -0.865003 1.55564
202 0.257392 -0.612694 0.157783 0.297398 0.73852 -0.382652 -0.159122 -0.171956 -0.543018 0.562491
1245 -0.058353 -0.69414 0.0859608 0.494504 0.640415 -0.364908 0.417919 0.508167 -0.711338 0.787337
152 0.214159 -0.819802 -0.126246 0.48768 1.17665 -0.281093 0.349318 0.598051 -0.485652 0.776271
4294 0.268788 -0.419512 0.119798 0.374048 0.209426 0.0199343 -0.00975973 -0.306867 -0.404374 0.721015
194 0.55367 -0.481262 -0.167832 0.95672 0.288865 0.799905 -0.176803 -1.04642 -0.419045 0.947573
897 -0.248299 -0.0775844 -0.247812 0.217026 -0.675034 -0.261048 -0.838364 0.0794315 -0.768049 1.79978
411 0.344912 -0.633857 -0.146162 0.233834 -0.0576686 -0.47171 0.72333 -0.15882 -0.483596 0.79068
1341 0.468079 -1.01348 -0.212925 0.017286 -0.0406467 -0.645022 1.09124 -0.19063 -0.447041 0.863961
4624 -0.213869 -0.317399 -0.40088 0.070004 -0.273432 -0.100754 -0.152356 0.237886 -0.68781 1.25728
1789 -0.294545 -0.343669 -0.416645 0.183383 -0.252712 -0.226855 -0.207677 0.222272 -0.594309 1.5356
4621 -0.236008 -0.378021 -0.42744 0.141002 -0.256552 -0.1394 -0.0346763 0.323691 -0.618959 1.36378
379 0.326918 -0.46139 0.0936891 0.29641 0.4459 -0.245293 -0.135366 -0.25441 -0.488146 0.819383
340 0.657942 -1.48653 -0.514339 1.04347 0.942252 -0.782073 -0.330906 -0.249931 0.648722 0.71011
2799 0.317526 -0.473235 0.352764 0.521185 0.138193 -0.188937 0.0399961 0.00766105 -0.408332 0.738547
1629 0.664602 -0.805484 1.05274 0.740811 0.395075 -0.422282 0.295994 0.0277582 -0.437182 0.653335
1374 0.360836 -0.350048 0.221774 0.362447 0.109232 -0.152565 -0.0547904 -0.139593 -0.358229 0.763963
223 0.806366 -0.61362 0.983643 0.769238 0.182951 -0.280581 0.152237 0.17075 -0.397272 0.809593
1724 0.44457 -0.488848 0.57857 0.511139 0.082776 -0.183718 -0.00369288 -0.096118 -0.404861 0.793713
635 -0.319822 -0.906237 -0.149036 0.47439 0.578337 -0.370506 0.918246 0.471407 -0.697071 0.929211
2204 0.200755 -0.323193 0.0153129 0.301633 0.207794 -0.163458 -0.143209 -0.256498 -0.349597 0.80886
2663 0.16978 -0.403428 -0.072408 0.393489 0.243214 -0.245022 -0.154643 -0.376411 -0.0980965 0.700128
2892 -0.185303 -0.44666 -0.358046 0.0772078 -0.206163 -0.0766818 -0.0636338 0.221949 -0.617496 1.34289
2896 0.000674827 -0.327148 -0.236983 0.201281 -0.0784744 -0.107777 -0.0930587 0.0822281 -0.418023 1.01919
2894 -0.071357 -0.361219 -0.263786 0.180297 -0.0286407 -0.113064 -0.0401217 -0.0283263 -0.491572 1.04956
1204 -0.233231 -0.441534 -0.346452 0.0810189 -0.0873418 -0.28053 -0.0248072 0.398494 -0.763337 1.25531
395 -0.0479032 -0.957795 -0.220358 0.441067 1.03999 -0.451237 0.595447 0.729988 -0.711351 0.804962
4161 -0.351285 -0.234432 -0.311861 0.190731 -0.463854 -0.18065 -0.504328 0.159319 -0.6719 1.46905
2919 -0.0823692 -0.360374 -0.190219 0.259193 -0.266382 -0.252145 -0.341292 0.180539 -0.535547 1.10773
516 0.14274 -0.418371 -0.0824571 0.322296 0.0317603 -0.181884 -0.159471 -0.0805639 -0.485276 0.895738
1694 0.23032 -0.57017 0.115446 0.370528 0.797358 -0.413777 -0.217328 -0.303453 -0.7977 0.3934
4867 -0.211005 -0.413561 -0.434157 0.090374 -0.234029 -0.0540932 -0.19158 0.241949 -0.581846 1.3546
1939 -0.0367594 -0.406718 -0.178088 0.21736 0.255875 -0.265222 0.381526 0.135766 -0.445607 0.909961
642 -0.417898 -0.406149 -0.548578 0.13215 -0.272552 -0.0904057 -0.061648 0.436337 -0.919028 1.74481
1719 -0.158456 -0.194417 -0.11894 0.105316 -0.136708 0.0609957 -0.292497 -0.868048 -0.234589 1.39965
1700 -0.170919 -0.109904 -0.261261 -0.0851965 -0.0562432 0.171458 -0.327458 -1.66159 -0.120437 1.96666
4183 0.195277 -0.376459 -0.022297 0.30493 0.154308 0.0429625 -0.227998 -0.591167 -0.274531 0.950036
741 0.624784 -0.679146 -0.144613 0.401809 0.148116 0.250533 0.400952 -0.645911 -0.424598 0.65971
3143 0.12671 -0.751981 -0.174503 0.215755 0.0190223 -0.419171 0.818879 0.147824 -0.548278 0.864189
3338 0.286047 -0.582193 -0.0507907 0.160901 0.0920395 -0.307218 0.502923 -0.0837219 -0.42322 0.774965
3340 0.305121 -0.67198 0.00134042 0.212321 0.00716184 -0.317206 0.57603 -0.0667736 -0.400828 0.741945
4242 0.254819 -0.485694 0.06835 0.294142 0.300038 -0.241357 0.106401 -0.128139 -0.403481 0.650785
4239 0.253492 -0.405809 0.0621609 0.258942 0.177776 -0.192738 0.116469 -0.155479 -0.378844 0.723117
2707 0.434723 -0.393782 0.0511615 0.411209 0.0544364 -0.212597 0.114405 -0.0818065 -0.422237 0.775083
405 0.558985 -0.970052 -0.335678 0.0123979 -0.0786645 -0.395039 1.10375 -0.345052 -0.413487 0.795193
3291 -0.0666004 -0.37335 -0.146158 0.167991 0.0203501 -0.213927 -0.0263011 0.103065 -0.404743 0.993184
1486 0.875787 -0.535162 0.785174 0.586961 0.19253 -0.25621 0.0126866 0.00875137 -0.386573 0.835267
2966 0.319844 -0.266502 0.088402 0.104324 0.382195 -0.195217 -0.330911 -0.597235 -0.240446 0.885703
4229 0.164138 -0.397838 0.00985383 0.330737 0.331262 -0.267411 0.0805865 0.0274635 -0.390065 0.778549
4228 0.0453023 -0.470837 0.0359792 0.380397 0.32913 -0.21957 0.265286 0.0294044 -0.434604 0.722147
1014 -0.0718479 -0.876757 -0.104382 0.534955 0.904105 -0.345978 0.543391 0.497269 -0.676816 0.794619
4461 0.370843 -0.433616 0.224995 0.40931 0.212728 -0.25508 -0.110593 -0.189385 -0.32315 0.793354
1921 0.563996 -0.454087 0.463704 0.519665 0.188374 -0.173564 -0.10648 -0.105403 -0.434437 0.76589
1713 0.342604 -0.652018 -0.00381125 0.231029 0.123593 -0.396474 0.676606 0.0332521 -0.404926 0.752346
4907 -0.183207 -0.28378 -0.27714 0.0712423 -0.150572 -0.172778 -0.286124 0.0681909 -0.516373 1.13779
2545 0.107056 -0.547538 -0.10711 0.259523 0.112798 -0.355252 0.67513 0.159122 -0.480932 0.838435
3178 0.37524 -0.373576 0.329927 0.449825 0.0900346 -0.17516 -0.0908417 -0.11842 -0.358712 0.835381
1554 0.13254 -0.503368 -0.0709015 0.333545 0.325856 -0.259926 0.178259 -0.0382706 -0.412234 0.699563
2631 0.0840205 -0.522963 0.171653 0.373095 0.45687 -0.253537 0.283484 0.188597 -0.567517 0.661599
991 0.215304 -0.726348 0.427889 0.678809 0.652338 -0.387444 0.368474 0.52208 -0.69861 0.665152
1079 0.561984 -0.449697 0.308115 0.0697231 0.657057 -0.221164 -0.304919 -0.517037 -0.247849 0.851423
157 0.573488 -0.680838 -0.0355047 0.366787 0.697909 -0.600142 -0.571996 -0.417849 -0.117514 0.72525
3524 0.0892533 -0.410592 0.0958398 0.275832 0.208141 -0.223723 0.0122668 -0.143717 -0.440994 0.723285
2968 0.168628 -0.312853 0.0854713 0.29968 0.16445 -0.071789 -0.0847418 -0.310558 -0.315186 0.664057
2923 0.168191 -0.351649 -0.0260315 0.375557 0.200031 0.00707218 -0.0499528 -0.396119 -0.284843 0.610536
695 0.776091 -0.671205 -0.00655661 0.147728 0.259558 -0.453684 -0.27786 -0.719367 -0.298664 0.764381
4010 0.224235 -0.512199 -0.0612829 0.423574 0.236729 -0.325636 -0.240587 -0.468217 -0.0284309 0.767848
1839 0.599904 -0.588013 0.910872 0.710719 0.373119 -0.436299 0.0863877 0.233813 -0.550578 0.685019
26 0.993372 -0.620967 1.054 1.02584 0.331778 -0.325707 0.0235341 0.393685 -0.366876 0.87655
1743 0.509678 -0.419375 0.041299 0.547972 0.293888 0.0842424 -0.213994 -0.616862 -0.415356 0.680805
1736 0.578328 -0.536455 0.0173569 0.62522 0.440908 0.283366 -0.147659 -0.679335 -0.435803 0.711369
2243 0.385971 -0.462634 -0.0307359 0.381353 0.297012 0.0464397 -0.17187 -0.919729 -0.115169 0.859303
3887 0.326196 -0.353637 -0.0816037 0.389247 0.22689 -0.0194673 -0.193684 -0.523172 -0.338683 0.755206
956 0.374526 -0.629811 -0.0112329 0.473415 0.74071 -0.436169 -0.286207 -0.0919062 -0.251408 0.708695
4565 0.132743 -0.468491 -0.117405 0.206302 0.0651212 -0.242685 0.507838 -0.00934202 -0.425341 0.897243
3142 -0.0706938 -0.570174 -0.0707143 0.207859 0.294242 -0.351109 0.629708 0.326736 -0.569259 0.871578
2249 0.370648 -0.429812 0.306137 0.501868 0.332387 -0.18423 -0.0559779 -0.328974 -0.277928 0.659833
4401 0.287942 -0.431537 -0.0410871 0.2883 0.218807 -0.0790115 -0.0697265 -0.586985 -0.195444 0.678989
1053 -0.00307586 -0.721281 -0.148117 0.378297 0.944115 -0.288756 0.635779 0.385404 -0.624285 0.84417
1050 -0.162785 -0.776791 -0.198286 0.381076 0.548066 -0.334695 0.84033 0.474306 -0.746948 1.02947
1272 -0.403387 -0.741461 -0.290948 0.394371 0.430738 -0.2368 0.754007 0.220515 -0.693195 0.909024
853 0.294949 -0.847558 -0.155898 -0.0519614 -0.0995575 -0.428672 1.24937 -0.163516 -0.420431 0.951715
1004 0.29115 -0.722421 -0.255352 -0.0238311 0.025723 -0.257724 0.982255 -0.432557 -0.46498 0.856809
2197 0.079981 -0.398778 -0.0595202 0.250514 0.121014 -0.210232 -0.208654 -0.115319 -0.278266 0.888171
472 0.385313 -0.538745 -0.068543 0.494965 0.377388 -0.74563 -1.4121 0.102124 -0.305375 1.00223
473 0.0987621 -0.613467 -0.177388 0.510514 0.371103 -0.557022 -0.956733 0.224331 -0.419669 0.902324
4930 0.196726 -0.342534 0.0321148 0.232153 0.313272 -0.156337 -0.0918627 -0.289542 -0.312787 0.684369
2406 0.10669 -0.495854 0.0287074 0.351328 0.323463 -0.269652 0.000304466 -0.126934 -0.257242 0.719339
520 0.320092 -0.520179 -0.13923 0.486434 0.468382 -0.350473 -0.25131 -0.469241 -0.065154 0.687797
901 0.20077 -0.579076 -0.0763431 0.472855 0.396794 -0.378926 -0.281284 -0.402147 -0.139903 0.614469
2854 0.186417 -0.460345 -0.0439143 0.369671 0.238094 -0.240612 -0.157196 -0.322522 -0.280073 0.792436
533 0.192279 -0.454724 -0.0374975 0.355632 0.444095 -0.372196 -0.332412 -0.186262 -0.456013 0.706958
1177 0.0964246 -0.499918 0.0287911 0.377903 0.479053 -0.362705 -0.0469876 -0.078439 -0.506045 0.727885
823 0.00717985 -0.62547 -0.139932 0.327464 0.604708 -0.424775 0.387968 0.231189 -0.592742 0.837002
59 -0.273341 -0.995343 -0.24937 0.556271 0.846049 -0.392429 0.677097 0.782132 -0.948965 0.908747
1310 -0.217835 -0.298195 -0.283214 0.118853 -0.329006 -0.146445 -0.470081 0.161695 -0.683051 1.4669
1024 -0.291494 -0.374582 -0.75538 0.0434157 -0.318937 -0.254659 -0.110677 0.539936 -1.05281 1.75113
1788 -0.0923638 -0.392883 -0.243689 0.148838 -0.0468035 -0.197729 -0.12652 0.155697 -0.571892 1.12215
4958 -0.191305 -0.281995 -0.305689 0.111756 -0.196135 -0.161408 -0.0956151 0.211184 -0.588423 1.32288
1315 -0.552956 -0.255442 -0.589722 0.112245 -0.265655 -0.268234 -0.43353 0.305529 -0.954227 1.75868
2934 0.351719 -0.440493 -0.0206675 0.534307 0.147089 0.16574 -0.127935 -0.611869 -0.420923 0.735678
975 0.699322 -0.556245 -0.00184247 0.74864 0.3954 0.488657 -0.279311 -1.06193 -0.457041 0.766506
2025 0.0578457 -0.541345 -0.0885437 0.426739 0.467655 -0.333584 0.20994 0.279004 -0.594671 0.754617
3743 0.251854 -0.406061 0.0291612 0.429513 0.334368 -0.295073 -0.0942818 -0.329821 -0.0973802 0.595473
166 0.402874 -0.832022 -0.137054 0.508624 0.554216 -0.787087 -0.333815 -0.815354 0.300078 0.804241
670 -0.216549 -0.845282 -0.244429 0.378021 0.830211 -0.364893 0.796906 0.445337 -0.598642 1.01586
681 0.269216 -0.690847 -0.178887 0.186638 -0.177064 -0.398291 0.747411 -0.291537 -0.425113 0.795262
685 0.0772758 -0.540573 -0.115999 0.244005 0.0504921 -0.304898 0.335581 -0.0151044 -0.403252 0.83044
684 0.224651 -0.724277 -0.0662155 0.0666118 -0.0627033 -0.484079 0.888691 -0.206685 -0.437477 0.862494
3732 0.269006 -0.517193 -0.0601146 0.384493 0.348379 -0.307309 -0.239957 -0.419252 0.047384 0.722394
2818 0.248775 -0.567311 -0.0930486 0.517337 0.405029 -0.363054 -0.19076 -0.556944 0.0708223 0.843436
3877 0.20667 -0.455918 -0.0253206 0.313986 0.257725 -0.258638 -0.159812 -0.374804 -0.146768 0.624314
43 0.249016 -1.17985 -0.471631 0.833286 0.877391 -0.552291 -0.250091 -0.853442 0.618752 0.898619
3301 0.238102 -0.369732 0.0417813 0.337201 0.308468 -0.175418 -0.0990079 -0.335617 -0.235895 0.64008
1565 0.0650234 -0.358242 -0.0412918 0.203073 0.0447947 -0.176023 -0.120687 -0.0820023 -0.397647 1.02145
2572 0.117081 -0.317521 -0.0675488 0.217285 0.032096 -0.159941 -0.234841 -0.0026927 -0.470761 1.0618
868 0.331723 -0.551315 -0.159162 0.477725 0.492148 0.161008 -0.146104 -0.771633 -0.238638 0.758068
1747 0.206812 -0.40955 -0.0604806 0.243463 0.151048 -0.215273 -0.0724082 -0.224875 -0.352925 0.695387
1746 0.255937 -0.333689 0.0260413 0.25714 0.128849 -0.233902 -0.105077 -0.36735 -0.327839 0.774195
1196 0.335206 -0.539486 0.0106705 -0.0329209 0.022168 -0.361952 -0.244992 -0.760096 -0.134309 1.00221
3263 0.236319 -0.365346 0.137207 0.36401 0.220614 -0.281551 -0.0325933 -0.224718 -0.333437 0.827055
3989 0.359348 -0.464132 0.0574941 0.357676 0.290432 -0.246529 0.0123954 -0.224599 -0.344617 0.657687
1330 0.853244 -0.659639 0.593554 0.681413 0.210598 -0.440663 0.251274 0.00216338 -0.501714 0.674231
1616 0.469388 -0.553876 0.479389 0.5264 0.321417 -0.363128 0.22043 0.0301142 -0.434316 0.73144
997 0.365834 -0.538774 -0.0830673 0.156315 0.2475 -0.19332 -0.179333 -0.567235 -0.214957 0.850383
273 0.210897 -0.311513 0.013803 0.318819 0.130294 -0.207011 -0.035282 -0.19913 -0.412292 0.736832
272 0.166393 -0.441292 -0.0780009 0.27009 0.210094 -0.25755 -0.0272787 -0.169897 -0.447312 0.854472
3319 0.221124 -0.370484 0.0619907 0.197652 0.0450807 -0.269056 0.00716126 -0.304417 -0.334269 0.833992
1048 0.305733 -0.546202 -0.0213583 0.211301 0.221834 -0.288153 0.245116 -0.304724 -0.243128 0.875381
1623 0.103937 -0.681428 -0.0992319 0.212373 0.203392 -0.286215 0.838206 0.00705525 -0.526878 0.850098
3405 0.112156 -0.308914 -0.048788 0.265515 0.114056 -0.241934 -0.271977 -0.196159 -0.372135 0.867046
