5003 36
1860 -0.177419 -0.00140326 -0.0433194 0.186002 0.0798892 -0.012617 0.26075 -0.371884 0.169134 0.232911 0.00707929 0.339084 0.0155351 -0.0751293 0.181295 -0.185167 -0.313396 0.0944413 -0.110289 -0.252805 -0.089848 0.434795 -0.21602 -0.486577 -0.0674619 -0.140333 0.113702 0.228531 -0.158447 0.109416 -0.417744 0.0106389 -0.237551 0.0572031 -0.0785419 -0.116911
1859 -0.282833 0.264304 -0.180961 0.344283 -0.0563783 0.183883 0.172372 -0.519104 0.104778 0.0172419 0.140251 0.139545 0.00624741 -0.157315 0.202489 -0.459297 -0.22795 -0.2276 -0.279246 -0.307094 -0.14968 0.764788 -0.342821 -0.801767 -0.0216366 -0.550946 0.258912 0.51744 -0.201688 0.296699 -0.578047 -0.0665807 -0.384616 0.0983258 -0.191324 -0.0561248
1848 -0.277513 0.288281 -0.484396 0.389092 0.236875 0.385097 0.118793 -0.127418 0.414437 0.0655872 0.0856853 0.158126 -0.246479 0.364871 0.263895 -0.467081 -0.294736 -0.372797 -0.0427911 -0.295155 0.165574 0.39739 -0.16396 -0.508811 0.291215 -0.0580405 -0.391863 0.538456 0.23621 0.0348734 -0.463609 0.228782 -0.0963256 -0.179089 -0.529016 0.0814457
2 0.0418764 0.25003 -0.0493911 0.333127 -0.384231 1.01833 -0.436208 -0.978388 0.406082 0.343831 0.344673 -0.0908627 0.313253 0.278386 -0.406997 -0.892237 -0.407752 0.130463 -0.481599 -0.608672 0.605776 0.588392 -0.0783332 -0.0557313 0.229802 -0.280637 0.303551 0.341131 -0.242738 0.698601 -0.477288 0.175921 -0.456471 0.157884 0.552186 -0.183579
1 -0.311593 -0.0518851 -0.203754 0.0705864 0.00537419 0.530113 -0.333016 -1.169 0.463626 0.630972 -0.157213 -0.105009 0.106886 0.221489 -0.11222 -0.86223 -0.269917 0.510473 -0.447747 -0.599798 0.117245 0.715667 0.19224 -0.6127 0.410277 -0.146761 0.150896 0.307904 0.0770029 0.207584 -0.747837 -0.327256 -0.562005 0.171327 0.737365 0.093956
3073 -0.274633 0.672219 -0.300393 0.135547 0.312761 0.0906653 0.0362176 -0.500635 -0.279379 -0.185179 0.455083 0.361116 -0.238859 -0.0111096 0.0866201 -0.219658 -0.282489 -0.364009 -0.524885 -0.197629 -0.0546845 0.456751 -0.238876 -0.774242 0.181446 -0.278974 0.216188 0.394037 -0.183731 0.0213394 -0.5424 -0.247352 -0.411899 -0.217997 -0.296305 -0.167306
1162 -0.0902417 0.976731 -0.48954 0.533934 0.00397904 -0.458587 0.13882 -1.04941 -0.329265 -0.338215 0.355745 0.321161 -0.287516 -0.408309 -0.8898 -0.392323 -0.617688 -0.148343 -0.632531 0.0359024 0.410724 0.501313 0.0679234 -1.32389 -0.0202602 -0.9396 0.364424 -0.193992 0.0104958 -0.207975 -0.168965 0.0433762 -0.161973 -0.713595 -0.358818 -0.717247
132 -0.163742 0.0823481 -0.0904097 1.12909 0.0461455 -0.692529 0.444558 -0.677495 0.893311 0.633845 0.286715 0.783426 -0.16784 -0.487986 0.218359 -0.475793 -0.642576 0.378938 -0.65313 -0.717465 -0.415508 0.616237 -0.0942159 -1.53167 -0.091154 -0.41256 0.189578 -0.0618243 -0.429123 0.166464 -0.989689 0.276854 -0.398588 0.178605 -0.0698255 -0.214365
30 0.0388385 -0.109577 -0.14948 0.843462 -0.065062 0.903141 0.661895 -0.906642 0.773582 0.392807 0.17747 0.4409 -0.581382 -0.426943 0.0695912 -0.622064 -0.382507 0.641516 0.00854471 -0.922856 -0.207651 0.592554 0.273526 -0.368397 -0.0918217 -0.720657 0.0694724 0.2249 0.34933 0.226101 -1.06987 -0.0953099 -0.334273 0.285859 -0.0205769 0.0210606
3965 -0.244786 0.436295 -0.175358 0.18561 0.0353419 0.173909 0.179014 -0.184449 -0.0638905 -0.0965124 0.266525 0.172601 -0.136648 -0.0544637 0.0400313 -0.303735 -0.0786085 -0.12964 -0.461657 -0.295212 -0.256506 0.14183 -0.396193 -0.506594 0.062359 -0.45763 0.300442 0.337549 -0.0517984 0.0549301 -0.326095 -0.0801957 -0.149998 0.0390807 -0.190631 -0.162991
1230 -0.417976 0.757267 -0.271694 0.0898171 0.00429464 0.400186 0.292783 -0.23345 -0.26672 -0.0960158 0.356804 0.179144 -0.426403 -0.348189 0.25198 -0.272103 -0.0994845 -0.123146 -0.505134 -0.421212 -0.570054 0.13811 -0.765953 -0.648254 0.169359 -0.680398 0.371145 0.455361 -0.183365 -0.0176108 -0.38943 -0.0350715 0.130586 0.159186 -0.299918 -0.203897
4393 -0.115393 0.452264 -0.477406 0.313321 0.250063 0.485044 -0.00635474 -0.140188 0.0925822 -0.0588658 -0.226307 -0.0571284 -0.326269 0.248427 0.27584 -0.275671 -0.192715 -0.332359 -0.0694271 -0.214193 0.234561 0.435398 0.0324 -0.313871 0.369832 0.12455 -0.499209 0.473672 0.230243 0.0645542 -0.389804 0.490275 0.16971 -0.234805 -0.337918 -0.005198
1027 -0.561683 0.605731 -0.914062 0.753857 0.823915 0.799592 -0.348948 0.0118117 0.331852 -0.220029 -0.629693 -0.218112 -0.370248 0.58759 0.576083 -0.691824 -0.831711 -0.770863 -0.526773 -0.585146 -0.166705 0.778998 -0.0798664 -0.366667 0.310742 -0.597177 -0.533979 1.03521 1.23249 0.0383099 -1.2846 1.20282 0.0847123 -0.437278 -0.695715 0.463521
14 -0.320237 -0.0534979 -0.169974 0.872091 -0.0694974 1.03353 0.270341 0.289066 0.630206 0.470145 -0.22024 -0.16209 -0.0576977 1.29764 -0.260567 -0.347609 0.170236 -0.14337 -0.245805 -0.696733 0.064905 1.06083 -0.11371 -0.373124 0.161923 -0.822745 -0.168934 0.217014 0.257204 0.120924 -0.336092 0.251463 -0.119541 -0.884874 -0.455714 1.34313
3043 -0.0974776 0.0939842 -0.0993494 0.507594 0.126188 0.263341 0.23688 -0.598905 0.0401388 0.144952 -0.0237648 -0.0663722 0.137373 -0.0133679 0.135661 -0.50291 -0.41125 -0.0306351 0.0516278 -0.308611 0.202603 0.92551 -0.212059 -0.717637 -0.00232342 -0.393509 0.0146347 0.458331 -0.186301 0.43787 -0.611102 0.124109 -0.345773 0.143871 -0.304012 0.00686832
37 -0.203679 0.213927 -0.124675 0.439749 -0.017639 0.373122 0.361688 -0.508236 0.233793 0.185065 0.122415 -0.0637502 0.128429 -0.0980354 0.123029 -0.508961 -0.43838 -0.126487 -0.150541 -0.147528 0.0851668 0.795746 -0.232023 -0.750336 -0.147136 -0.52003 0.0579131 0.44105 -0.0862353 0.407858 -0.572192 0.126924 -0.252736 -0.0318194 -0.156172 0.0744133
2873 -0.0414752 0.0386294 0.0169225 0.249985 0.0512178 0.237223 0.0503219 -0.23313 -0.102383 0.0658927 -0.23698 -0.0840254 0.12852 -0.191592 0.00354527 -0.309963 -0.241267 -0.0683157 0.0114453 -0.0988398 0.215718 0.450224 -0.224067 -0.193736 -0.0442421 0.0118691 0.104025 0.154979 -0.0867079 0.157896 -0.349075 0.0895005 -0.0237223 -0.0673117 -0.111317 -0.0206637
2427 -0.277659 -0.118323 -0.321896 0.526502 -0.10069 0.163647 0.606433 -0.604098 0.24863 0.295116 0.0457534 0.478916 0.0406997 -0.144483 0.234913 -0.489556 -0.624265 0.0777659 0.00216709 -0.539708 0.0569687 0.775917 -0.276785 -0.735686 0.113595 -0.616687 -0.018943 0.405588 0.0308197 0.273789 -0.712915 0.113926 -0.209182 0.0743149 -0.339203 -0.00993201
507 0.0405366 0.2256 -0.449429 0.920157 -0.69473 0.094573 0.684815 -0.603501 0.140274 -0.0306772 -0.0903092 0.463443 0.310857 -0.0156479 0.38017 -0.639343 -0.779505 -0.427138 0.487589 -0.0736425 0.178163 0.52393 0.34923 -0.443927 0.542608 -0.835068 0.00500245 0.831347 0.375159 -0.0160271 -1.32679 0.271626 -0.617286 0.574258 0.0435378 0.560194
2020 0.00537287 0.261702 0.161627 0.234138 0.505216 0.340034 0.0725436 -0.50904 0.21164 0.196128 0.441105 -0.298782 0.263875 -0.117735 0.159056 -0.38949 -0.52199 -0.138752 -0.244269 -0.013325 0.146843 0.177337 -0.277276 -0.32642 0.0605857 -0.230016 -0.175308 0.214857 0.427161 0.295857 -0.641142 0.233836 0.0211689 -0.696064 0.132265 0.0302332
2019 -0.018388 0.295426 0.216632 0.184232 0.361706 0.246434 0.0690147 -0.464273 0.101084 0.180392 0.245201 -0.344482 -0.0166781 -0.128703 0.0640753 -0.309701 -0.32037 -0.013698 -0.139411 -0.0288477 0.200197 0.300427 -0.0896957 -0.456819 0.202275 -0.128502 -0.239844 0.186982 0.130993 0.175229 -0.432225 0.405425 0.00173829 -0.481547 0.174428 0.0300718
1125 -0.665425 0.684682 -0.246428 -0.142993 0.579602 0.402682 0.0941391 -1.1423 -0.102373 -0.757849 0.15449 -0.484876 -0.236232 0.0428203 0.236453 -0.15276 -0.313391 0.0293092 -0.345094 -0.562671 -0.148773 0.759626 -0.876602 -0.838735 0.155146 -0.233387 -0.191737 -0.202046 -0.00345444 0.134852 0.217328 0.326182 -0.43565 -0.918807 0.124477 -0.122472
304 0.10271 -0.00970395 0.837944 0.0140742 0.735729 0.491467 0.327339 -0.528608 -0.0863339 0.376989 -0.42317 -0.476977 -0.164974 -0.494376 0.230634 -1.04677 -0.233089 0.414639 -0.165942 0.049391 -0.0513043 1.10428 0.114983 -0.649004 0.23723 -0.205339 -0.801624 0.0968087 0.0296177 0.777026 0.0960959 0.352039 -0.125264 -1.17257 0.32372 0.271069
1099 0.100986 0.275501 -0.00735351 0.172928 0.0246425 0.152908 -0.0219421 -0.999979 0.186447 -0.0482979 -0.150232 -0.607214 0.46135 -0.626347 0.0203586 -0.71828 -0.708084 0.336262 -0.178958 0.127116 0.0946743 0.510838 -0.233495 -0.398143 0.17604 -0.303028 -0.275476 0.60445 -0.0107092 0.050988 0.151689 0.207109 -0.488517 -0.613808 -0.0660034 0.339804
790 -0.14385 0.501999 0.0597794 0.395265 -0.166263 -0.0362955 0.384349 -0.532258 -0.38074 -0.00676125 -0.197364 -0.103117 -0.113706 -0.694255 0.188779 -0.204077 -0.210486 0.408068 -0.130662 -0.182578 0.354983 0.703654 -0.471379 -0.620812 0.0732798 -0.418648 -0.127237 0.139368 0.242113 0.429642 -0.109092 0.445799 0.263616 -0.6562 1.01376 0.215863
3129 -0.118507 0.424454 -0.218268 0.349429 0.31128 0.499749 0.174484 -0.388881 0.0311362 0.116202 -0.0455492 -0.125155 -0.16309 0.0847679 0.310346 -0.374479 -0.337667 -0.117509 -0.302204 -0.264718 0.18316 0.725536 -0.240559 -0.621175 0.150212 -0.168105 -0.239283 0.375457 0.0674973 0.226965 -0.44438 0.376331 0.0165653 -0.387321 -0.274689 0.15132
3131 -0.120765 0.452779 -0.257041 0.291529 0.487143 0.630861 0.165779 -0.406492 0.0379403 0.120818 -0.0340864 -0.195635 -0.157957 0.14004 0.291537 -0.452201 -0.449979 -0.14673 -0.281099 -0.218366 0.142199 0.656905 -0.329709 -0.563398 0.102041 -0.203377 -0.278354 0.374741 0.262402 0.185783 -0.623952 0.348831 0.0481585 -0.534546 -0.278461 0.0553732
3559 -0.0904649 0.135938 -0.0807503 0.470423 0.155145 0.331448 0.131209 -0.291669 -0.200626 -0.0813189 -0.362605 -0.0511865 0.0927083 -0.174511 0.244375 -0.325612 -0.156737 -0.0994244 0.000110707 -0.216447 0.13279 0.680605 -0.410176 -0.504812 -0.0855252 -0.297327 -0.048855 0.253008 -0.0740844 0.341839 -0.330887 0.217891 -0.199957 -0.12141 -0.167894 0.249037
773 -0.12915 0.0285425 0.0448286 0.577186 0.649216 0.447316 -0.316275 -0.0554289 0.593069 0.280647 -0.0283963 -0.600421 0.247438 0.0123861 0.078601 -0.834891 -0.402558 -0.404964 -0.485792 0.133509 0.171228 0.400009 -0.333929 -0.408523 -0.0724649 0.207782 0.433948 0.180007 0.144556 0.129389 -0.740388 0.202343 -0.331351 -0.0752071 -0.25101 -0.0127276
819 -0.200624 0.284792 0.234499 -0.0309046 0.446295 0.276198 0.106109 -0.561876 0.39127 0.450399 0.569217 -0.543588 0.0113369 -0.357545 0.128739 -0.47368 -1.04178 -0.148905 -0.027529 0.285248 0.17834 0.283702 -0.634589 -0.536781 -0.0291742 0.0949355 -0.0255152 0.136263 0.583998 0.0978639 -0.724915 0.316116 0.554254 -0.76746 -0.126017 -0.0530352
58 -0.25724 -0.378165 0.36179 -0.0029461 0.0865795 0.415367 0.0388674 -0.321857 0.5363 0.876546 0.988727 -0.42151 0.214319 -0.175354 -0.173798 -0.473175 -0.923025 0.421886 -0.289579 -0.505812 0.351083 0.0573857 -0.319167 -0.313991 -0.104753 -0.502135 -0.158904 0.596685 0.296925 0.160763 -0.807349 0.265895 -0.0223946 -0.821461 0.117386 0.408759
1540 -0.0327363 -0.625091 0.245238 0.791144 -0.251549 0.265801 0.786337 -0.509679 0.419814 0.744245 0.0407033 0.330962 0.00861177 -0.386469 0.415772 -0.606612 -0.414731 0.0790615 0.362988 -0.507836 0.0765138 1.15651 -0.601713 -0.959553 -0.129579 -0.532363 0.154727 0.61604 -0.57346 0.422931 -0.688522 -0.0666516 -0.278608 0.525419 -0.554403 0.148472
3 0.338334 -0.163195 0.200267 1.12232 -0.0593233 0.022037 -0.128122 -0.948938 -0.117644 0.326549 0.13734 -0.368918 0.146064 0.443007 0.0935419 -1.3313 -0.334786 -0.162318 0.61171 -0.640241 -0.120374 1.21399 -0.230242 -0.980076 -0.222454 -0.669526 0.186081 0.398872 -0.388957 0.47944 -0.674433 -0.0993651 -0.626746 0.624568 0.208674 0.238293
542 -0.56582 -0.271309 0.0821882 0.381511 0.0900143 0.510114 0.00196488 -0.357345 0.03964 0.247313 -0.280365 0.129786 0.989744 -0.269768 0.182518 -0.804605 -0.616117 -0.692703 0.000861765 0.239749 -0.36455 0.601365 -0.298293 -0.525709 0.0606704 -0.454604 0.210205 0.454666 -0.384877 0.116982 -0.616342 0.158143 -0.595707 0.304157 -0.497461 0.670138
24 0.774617 0.776634 0.348797 0.333577 0.171191 0.000501622 -0.317371 -0.548159 0.473836 0.575623 0.727035 -0.352001 -0.17362 -0.283146 -0.327083 -0.17802 -0.0818925 -0.569791 -0.330412 0.133586 0.330454 1.13075 -0.328505 -1.43548 0.00775121 -0.447609 -0.119596 -0.0962624 0.209511 -0.239948 0.0736659 1.03359 -0.512287 -0.933106 0.709954 0.277756
4924 -0.177831 0.0105433 -0.180765 0.36824 0.0645141 0.0673047 0.290292 -0.24457 0.141264 0.0809644 -0.0921872 -0.0878363 0.0753981 -0.115297 0.282286 -0.152693 -0.200278 -0.13532 0.258829 0.0480839 -0.0194892 0.804346 -0.318817 -0.44255 -0.160157 -0.229642 -0.0401334 0.502458 -0.245982 0.398964 -0.236608 -0.167508 -0.234429 0.265947 -0.300306 0.0775886
67 -0.509169 -0.530854 -0.671621 0.272704 -0.160306 -0.369602 0.763153 -1.03179 0.498961 0.487425 0.595537 0.843387 0.903779 0.550609 0.315465 -0.304623 -0.881646 -0.902325 -0.049935 -0.806709 0.335791 1.1124 0.0425059 -0.939454 -0.357067 -0.890382 0.231082 0.322758 0.259291 0.929013 -0.902945 0.605468 -0.628374 -0.343101 0.089583 0.0321732
2108 -0.113335 -0.02988 -0.366822 0.0325513 0.0530538 0.640081 0.0783923 -0.0646925 0.268944 0.361508 -0.230615 0.0759071 -0.303275 0.151886 -0.313683 -0.313804 -0.0933659 -0.157601 -0.241256 -0.219707 0.0427614 0.414794 -0.130072 -0.484435 -0.0736037 -0.572662 -0.0478305 0.268116 -0.248075 -0.189502 -0.561327 0.168446 0.30518 -0.419508 -0.453132 0.222903
190 0.436478 0.661964 -0.575142 0.860419 -0.239011 0.387182 0.431629 -0.446754 0.697739 0.0592984 0.185932 -0.210433 0.123658 -0.486673 -0.562884 -0.348001 -0.603923 0.469604 -0.128791 -0.0524241 0.549804 0.621017 -0.00584116 -0.738282 -0.601891 -0.972403 0.808877 0.444889 0.337273 0.485452 0.431177 0.462398 -0.252256 -1.04455 0.2657 0.527796
1155 -0.15027 0.468215 0.0353733 0.2976 0.154971 0.209091 -0.132054 -0.477859 -0.258101 0.310275 0.115283 -0.671467 -0.106821 -0.101221 0.237085 0.184282 -0.0208689 -0.0096054 -0.423648 0.0446374 0.0506395 0.579178 -0.186496 -0.515367 0.260967 -0.106948 -0.474557 0.226502 -0.201383 0.438243 -0.144105 0.406412 -0.175204 -0.26432 0.0513233 0.149545
1152 -0.263592 0.564997 -0.116382 0.0182472 0.192501 0.202603 0.0363919 -0.612707 0.00315006 0.270068 0.180578 -0.452947 -0.0609244 -0.139718 0.250806 0.0470828 -0.15971 -0.176774 -0.411955 0.223119 0.0706457 0.64158 -0.146372 -0.721402 0.363894 -0.156494 -0.464474 0.283434 -0.404832 0.239264 -0.160669 0.423855 -0.298126 -0.309985 0.00267161 0.139645
3365 0.121345 0.131667 -0.127447 0.278444 0.296204 0.173632 0.218781 -0.280761 -0.0318626 0.341856 0.693856 -0.436822 0.0521291 -0.0214169 0.0738974 -0.353313 -0.257775 -0.0733462 -0.482496 0.161989 0.410506 0.370454 -0.22243 -0.629754 0.283206 -0.26617 -0.260663 0.272767 0.20951 0.449736 -0.74726 0.0764873 0.0684392 -0.398909 -0.176522 0.33311
55 0.180901 0.304429 0.611944 0.504316 0.547106 0.518046 -0.299045 -1.60424 0.256548 0.306863 0.609083 -0.645882 0.210901 -0.918927 0.381368 -0.525079 -1.21753 -0.103708 -0.108511 -0.673589 0.317272 0.517967 0.000733008 -1.05948 0.514083 0.371293 -0.318761 0.278783 0.948402 0.580795 -0.348257 0.247226 0.636914 -0.525872 -0.17583 -0.102257
53 -0.202004 1.03378 0.0766559 0.156591 0.763147 1.14996 0.188289 -0.567562 0.0619454 0.210926 0.574033 -0.538049 -0.51361 -0.0404219 -0.0815751 -0.932553 -1.13343 -0.114691 -0.0163993 -0.788889 0.67866 0.326086 0.0289223 -0.814234 0.418489 0.23674 -0.107426 -0.153598 1.1513 -0.161471 -0.27977 0.622299 0.0523937 -0.422621 0.0892498 0.674682
3772 -0.112628 0.145898 -0.0375682 0.189788 0.188211 0.277354 0.194883 -0.265395 0.12015 0.147499 0.17501 -0.166069 0.0853605 0.0247675 0.0525488 -0.264991 -0.369478 -0.0242962 -0.214191 -0.0769936 0.176632 0.309223 -0.253988 -0.361215 0.0386211 -0.157237 -0.119373 0.231833 0.21124 0.17064 -0.426945 0.23162 0.123106 -0.366709 -0.0603967 0.0527663
1965 0.107659 0.649689 -0.408378 0.437553 -0.436763 1.5566 -0.0656624 -0.413437 0.210178 0.343242 -0.0656422 0.246435 -0.0710942 0.548716 0.36836 -0.887904 -0.765475 -0.47232 0.175548 -1.12463 0.181609 0.258152 -0.2397 -0.585432 0.505913 0.102133 -0.637053 1.23385 0.677221 -0.323497 -0.454739 0.71953 -0.537737 -0.630171 -0.453961 0.0611613
4728 -0.210562 0.35296 -0.190405 0.136609 0.171946 0.527169 0.0971964 -0.487827 0.240133 0.159846 0.216634 0.0723986 0.164936 0.124431 0.325729 -0.474773 -0.35854 -0.162769 -0.273916 -0.36552 -0.0727223 0.544059 -0.207945 -0.65761 0.162336 -0.122622 -0.186456 0.494632 -0.122125 0.284657 -0.330259 0.32862 -0.109384 -0.357159 -0.497063 0.222512
71 0.0909193 0.242979 0.185524 0.917869 0.120384 0.0649704 0.241812 -0.250916 0.279525 -0.343012 0.691538 0.537439 0.0039924 0.288232 -0.200541 -0.989038 -0.212934 0.0500714 -1.19825 -1.09973 0.160756 0.46772 0.227742 -1.30738 0.0251196 -0.630273 0.312248 0.982087 -0.409841 0.374795 -1.07395 -0.427653 -0.559578 -0.0729941 0.465189 0.0695013
4256 -0.101474 0.206035 -0.0756287 0.407585 -0.145227 -0.0845686 0.205727 -0.181392 0.138346 0.122298 0.112033 0.157414 0.0525333 -0.00718023 -0.20385 -0.357485 -0.231025 -0.0740656 -0.317836 -0.204708 0.119853 0.735562 -0.0958223 -0.703187 -0.135455 -0.516318 0.179015 0.228075 0.0248878 0.161088 -0.739998 -0.0720044 -0.418813 -0.0106311 -0.139146 -0.0616137
4982 -0.16875 0.37982 -0.186914 0.487832 -0.0159747 0.0432117 0.173226 -0.234149 0.0209749 0.0579865 0.315819 0.154726 -0.123237 0.0250118 0.083415 -0.445936 -0.108715 -0.19079 -0.516432 -0.368575 -0.0683953 0.407991 -0.247624 -0.78925 0.0779841 -0.549911 0.152039 0.400833 -0.161508 0.299957 -0.667805 -0.222869 -0.0993543 0.0906455 -0.117079 -0.0736646
2855 -0.250096 -0.225506 -0.117522 0.303255 0.173504 0.504378 0.024881 -0.125182 -0.0178719 0.324655 -0.042094 -0.0718956 0.174554 -0.163307 0.0644006 -0.343115 -0.205544 -0.29552 -0.340104 -0.296401 -0.07733 0.62421 -0.284535 -0.38774 0.0974548 -0.259305 0.0734076 0.200087 -0.066596 0.111296 -0.319535 0.0797508 -0.00979603 -0.272687 -0.121917 0.416533
2215 -0.079658 -0.105584 -0.0807216 0.207033 0.366814 0.519385 -0.0556013 0.110878 0.256895 0.382264 -0.152611 -0.13728 -0.215581 0.478056 0.0662718 -0.438439 -0.143064 -0.32104 -0.214492 -0.0837314 0.224257 0.5407 -0.101515 -0.478879 -0.0888817 -0.130808 0.0527286 0.135063 -0.2151 -0.00554981 -0.272089 -0.223695 -0.0109578 -0.273312 -0.605542 0.311902
714 -0.213712 0.398236 0.141391 0.296146 0.259403 0.260215 0.191192 -0.561765 -0.0538902 0.308007 0.201227 -0.294594 -0.0145636 -0.00232941 0.213947 -0.013972 -0.134025 0.0307389 -0.424548 0.0521111 0.267674 0.512842 -0.161848 -0.656133 0.120458 -0.306707 -0.167376 0.119869 -0.199689 0.38897 0.0107475 0.271625 0.0295166 -0.215302 0.0767384 0.0670784
191 0.454141 0.529078 0.0334654 0.627742 -0.406837 -0.226333 0.132854 -1.22263 0.0317855 0.103325 -0.257536 -0.676217 0.58069 -0.296744 0.073949 -1.2226 -0.646203 0.792288 -0.354488 -0.109181 0.320153 0.688426 0.18452 -0.637749 0.0608803 -0.367526 -0.315986 0.771471 0.048197 0.0150305 0.179339 0.300981 -0.690334 -0.585491 0.0662276 0.622971
4643 -0.238284 0.468872 -0.48718 0.298633 0.234896 0.739417 -0.0431423 -0.0980944 0.206237 0.138926 -0.306337 -0.0709856 -0.347734 0.632967 0.487679 -0.399305 -0.505763 -0.557602 -0.0649012 -0.354637 0.19693 0.622296 -0.132154 -0.419466 0.124596 0.111058 -0.508946 0.680039 0.339028 0.0769957 -0.410067 0.560834 0.179033 -0.334651 -0.442734 0.0234457
3803 -0.292649 0.388114 -0.323888 0.356573 0.274271 0.469115 0.0785144 -0.167831 0.193449 0.209052 -0.10024 -0.0563541 -0.202505 0.492242 0.327989 -0.355242 -0.405054 -0.39243 -0.142584 -0.239455 0.210812 0.399799 -0.0801364 -0.408556 0.209127 -0.00784828 -0.409991 0.497306 0.269037 0.183319 -0.440847 0.385902 0.0528921 -0.224232 -0.32844 0.0724814
1516 -0.105985 0.75559 -0.987161 0.798351 0.167296 0.956876 -0.224957 -0.0307714 -0.157757 0.249164 -0.195701 -0.47277 -0.212128 0.553601 0.687686 -0.725282 -0.350776 -0.490097 0.358281 -0.635427 1.1284 0.991009 0.322403 -0.725429 0.477461 0.532404 -0.773046 1.02308 0.226343 0.57588 -0.273663 0.724567 -0.169952 -0.455024 -0.710258 0.226026
3250 -0.0253453 0.408091 -0.617311 0.646033 0.233195 0.64838 -0.101905 0.0470601 0.29867 0.0860681 -0.0952719 -0.135886 -0.225442 0.457624 0.152438 -0.469501 -0.0917202 -0.542158 -0.133075 -0.245306 0.484411 0.395671 0.188966 -0.522813 0.30888 0.0417691 -0.666938 0.528501 0.278015 0.232351 -0.596867 0.391165 0.0607448 -0.360108 -0.323546 -0.0413971
3414 -0.214454 0.519867 -0.538001 0.255939 0.195034 0.44053 0.0392842 -0.0523646 0.0402666 -0.131881 -0.238363 -0.00940199 -0.225991 0.396437 0.21767 -0.114125 -0.126483 -0.182804 -0.152779 -0.105145 0.232481 0.439321 0.0284887 -0.291892 0.307095 0.0873343 -0.358446 0.512601 0.310552 0.160104 -0.46913 0.513171 0.0687818 -0.226555 -0.307124 -0.0959104
3413 -0.194983 0.415495 -0.396659 0.233321 0.395138 0.360853 0.0755634 -0.0487774 0.152374 -0.0568394 -0.183221 -0.0410321 -0.299586 0.338626 0.325918 -0.275548 -0.284304 -0.277557 -0.135445 -0.109234 0.122887 0.419211 -0.09101 -0.299711 0.14484 -0.00482874 -0.328703 0.442601 0.35344 0.122067 -0.441214 0.400356 0.126176 -0.321579 -0.375515 -0.026228
4163 -0.158878 0.334361 -0.340626 0.0432106 0.267882 0.633957 -0.000971673 -0.0227154 0.307217 0.0634522 -0.10792 -0.166623 -0.434861 0.606755 0.0901416 -0.372034 -0.160964 -0.193775 -0.201188 -0.204218 0.105015 0.4397 -0.10855 -0.400549 0.07208 -0.325841 -0.280822 0.289077 0.168422 -0.0402739 -0.386936 0.205765 0.219011 -0.486151 -0.356666 0.216413
2791 -0.0758342 0.274254 -0.337352 0.189464 0.0812486 0.545975 -0.145566 -0.0835913 0.174374 0.241757 -0.258388 -0.156284 -0.388707 0.334709 0.0860006 -0.38074 -0.209134 -0.340339 -0.0638823 -0.188349 0.190124 0.516681 0.0224951 -0.500658 0.123195 -0.15122 -0.592774 0.441548 -0.0748425 0.0163404 -0.432612 0.384332 0.115078 -0.364616 -0.403975 0.264798
1251 -0.191464 0.161234 -0.0958355 0.372082 -0.163363 0.0544499 0.358386 -0.277536 0.146052 0.101688 0.253644 0.266915 -0.0944235 -0.051035 0.206259 -0.3504 -0.25088 -0.0533509 -0.118985 -0.30519 -0.212499 0.739957 -0.348476 -0.610957 -0.0696934 -0.427198 0.430434 0.73346 -0.147691 0.120228 -0.424006 -0.0963291 -0.520467 0.395472 -0.164374 -0.084834
289 0.569331 -0.125011 0.486084 0.596981 -0.408872 -0.0799229 0.151945 -0.627076 0.708372 -0.12717 0.245684 -0.136058 0.429579 -0.00511381 0.128426 -1.28118 0.0815644 -0.595751 -0.00990982 -0.324776 0.457683 1.38559 -0.491641 -1.24297 -0.472762 -0.663644 0.378227 0.908882 -0.0644818 0.560343 -0.587434 -0.582182 -0.0149309 0.5107 0.330793 0.655074
3382 0.0109826 0.288187 -0.00691406 0.198219 0.214822 0.341503 0.152435 -0.383944 0.181347 0.154233 0.115933 -0.177238 0.0878789 0.0179179 0.0626573 -0.374815 -0.440887 -0.033279 -0.203032 -0.080797 0.169104 0.336451 -0.100418 -0.438002 -0.0658217 -0.208856 -0.114966 0.217554 0.217105 0.218702 -0.481078 0.293686 0.111484 -0.403346 0.015848 0.0652955
52 0.113301 0.39562 0.389405 0.186969 1.11205 1.7021 -0.215068 -1.32466 0.524047 -0.0969144 0.176715 -0.282646 -0.0622483 -0.271155 -0.213563 -0.243364 -0.938454 -0.340988 0.0399737 -0.271656 0.450759 0.283083 0.0463042 -0.956935 0.68675 0.293837 -0.472328 0.450575 1.11802 -0.0322134 -0.343348 0.565443 0.149664 -0.557804 -0.427832 0.555023
394 -0.442306 -0.0676782 0.418287 -0.00151242 0.25421 0.541511 0.0846632 -0.734046 0.106663 0.501287 0.464041 -0.193315 0.525642 -0.474397 0.227868 -0.429008 -0.702265 -0.12206 0.0516834 -0.339345 0.101617 0.0400116 -0.507373 -0.248775 0.110861 -0.253674 -0.318877 0.723393 0.315327 0.694279 -0.959541 0.664039 0.175732 -1.01573 0.595526 0.454577
29 -0.204196 0.0964699 -0.142969 0.403334 0.0928273 0.454954 0.373431 -0.509279 0.39631 0.246517 0.110518 -0.0433674 0.326837 -0.200259 0.123645 -0.662451 -0.49045 -0.122089 0.0513261 -0.206168 -0.226509 0.975561 -0.267289 -0.760425 -0.130497 -0.607921 0.300165 0.655343 -0.26974 0.435737 -0.337188 -0.120146 -0.427203 0.21099 -0.163526 0.0837441
3776 -0.298525 0.131262 -0.168998 0.36639 -0.0148468 0.111399 0.454668 -0.313882 0.196561 0.2424 0.0748991 0.24954 0.0186054 -0.00443024 0.127124 -0.399043 -0.41423 0.0360632 -0.142505 -0.148372 0.140282 0.596867 -0.258518 -0.721147 -0.0592367 -0.559761 0.0776116 0.433392 0.0483982 0.383754 -0.743272 0.243478 -0.109965 -0.0649597 -0.393318 0.0990379
508 -0.834377 -0.190579 -0.129407 0.560946 -0.492262 -0.0559219 0.631312 -0.175665 0.425053 0.413707 -0.0136794 0.733402 0.37861 -0.0918599 0.385249 -0.768333 -0.670539 0.0186837 0.022202 0.205044 0.137982 0.397968 -0.280755 -0.939005 0.236332 -1.0214 0.635219 1.07489 -0.0818934 0.525903 -1.11994 0.173381 -0.0279526 0.55824 -0.705109 0.388213
4876 0.0174498 -0.139065 -0.0492234 0.267012 -0.127728 0.0221109 0.172848 -0.0818807 0.0767093 0.202151 0.143721 0.0045382 0.191057 -0.0137713 -0.0920611 -0.34263 -0.107317 -0.0583333 -0.0706863 -0.207367 0.155508 0.306244 0.0545957 -0.41606 -0.0512844 -0.371062 0.0234879 0.19663 0.00197457 0.330342 -0.370861 0.1382 -0.108413 -0.0742164 0.029891 0.172256
66 -0.65078 -0.212234 -0.356587 0.64774 -0.435398 -0.119175 1.15582 -1.05401 0.420722 0.22014 0.263917 0.811086 0.553708 0.418091 0.561292 -0.468096 -1.13788 -0.072599 0.152872 -0.876015 0.430571 0.907481 0.319268 -0.56807 0.213751 -0.830713 -0.313791 0.228207 0.365984 0.687526 -1.08146 0.396462 -1.00171 -0.0154146 0.308476 0.317734
2925 -0.323039 0.378463 -0.489328 0.421891 0.175817 0.242256 0.568143 -0.0855936 0.196036 0.0920186 0.0141143 -0.264875 0.087883 0.185734 0.182503 -0.0956511 0.0583104 -0.285345 0.0389017 0.315571 -0.0407839 1.25732 -0.240448 -0.737613 -0.58551 -0.602393 0.290387 0.771251 -0.504526 0.700539 -0.0421497 -0.454237 -0.22331 0.27868 -0.439888 0.0565602
803 -0.547645 -0.0729725 -0.576419 0.740957 -0.186216 0.04015 0.518039 -0.196647 0.0260954 0.136829 -0.136287 0.116887 0.330995 -0.113663 0.436131 0.0762172 -0.201159 -0.526663 0.168682 0.182364 0.207511 1.65632 -0.421799 -0.962313 -0.543991 -0.778373 0.264849 0.547646 -0.767537 0.577163 0.00813495 -0.621725 -0.319779 0.516565 -0.274565 0.398475
2138 0.449611 -0.155067 -0.483867 0.614856 -0.101427 0.244806 0.0657931 0.106315 -0.247281 0.647535 0.242803 -0.467102 0.148037 -0.289683 -0.386825 -0.159299 -0.337722 -0.201008 -0.824972 0.309003 0.560916 0.659598 -0.38781 -0.884709 0.304623 -0.148997 -0.209925 -0.207585 -0.0359706 -0.0634292 -0.235578 0.0572112 0.0933776 -0.469581 -0.420677 0.283356
3106 0.412241 0.135993 -0.801513 0.418473 0.2482 0.0156911 -0.144092 -0.116189 -0.152026 0.395028 0.419365 -0.306571 -0.159077 -0.614519 0.0947172 -0.0420745 -0.245916 -0.313974 -0.450683 0.517071 0.560728 0.870934 -0.00170644 -0.744103 0.0494234 -0.287786 -0.307465 -0.28251 -0.0240723 0.24061 -0.578452 0.21262 0.290904 -0.460477 0.0355874 0.260875
3493 -0.351476 0.605513 -0.506218 0.449751 0.264823 0.631452 0.0979091 -0.159266 0.221445 0.0538689 -0.13312 -0.110025 -0.351289 0.436281 0.3775 -0.355559 -0.266198 -0.302303 -0.229533 -0.254564 0.282749 0.63469 -0.231613 -0.625148 0.267972 -0.00366545 -0.416998 0.594587 0.221814 0.169025 -0.460348 0.403197 0.00920109 -0.320683 -0.582256 0.0692895
426 0.171362 0.864279 0.434682 0.0982974 0.222506 0.774119 0.77009 -1.23242 -0.537736 0.156425 -0.0898881 -0.995 0.304851 -0.394477 -0.673859 -1.05943 -0.787572 0.107377 -0.157173 -0.302879 -0.20072 0.205666 -0.530634 -0.645233 -0.488456 -0.257113 -0.179303 0.450081 0.0318374 -0.35545 -1.08212 0.719005 0.337749 -0.212331 -0.326504 -0.819738
724 0.468034 0.869063 0.546352 0.822144 0.255797 1.44782 -0.0746493 -0.465301 -0.568689 0.0313838 -0.174219 -0.947852 0.285166 -0.193032 0.180234 -0.683615 -0.123027 0.157093 -0.892811 -0.0966878 -0.0414226 0.292739 0.0883395 -0.445031 -0.138347 -0.530425 -0.248323 0.656786 0.12775 -0.0863999 -0.556456 0.917856 -0.120814 -0.74268 0.615699 0.0414912
1282 -0.258472 0.32844 0.154652 0.199493 0.131042 0.29285 -0.00958363 -0.696572 -0.248383 0.425708 0.220854 -0.509956 -0.0424128 -0.172621 0.323092 0.189411 -0.196121 0.0461633 -0.275746 -0.0495027 0.0463869 0.804037 -0.356013 -0.499623 0.187991 -0.183833 -0.357839 0.274419 -0.321814 0.5426 0.0149227 0.189904 -0.245764 -0.438829 0.0825331 0.0531397
21 -0.102798 0.102558 0.0516879 0.660977 0.268523 -0.0754548 -0.280464 -0.534096 0.0976694 0.352576 -0.0669788 -0.853726 0.454016 -0.153839 0.361743 -0.657395 -0.121873 0.0411198 -0.665757 -0.0850635 0.10498 -0.141633 0.272848 -1.2322 0.135256 -0.572716 0.430685 0.440147 -0.418666 1.031 -0.338155 1.01455 -0.29015 -0.604945 0.879845 0.595277
624 0.0507814 0.219355 0.640853 0.0659767 0.463661 0.375219 0.282135 -0.464788 -0.0957687 0.868523 0.572934 -0.438758 0.725472 -0.199199 0.30114 -0.329421 -0.0169859 -0.207018 -0.222321 -0.357865 -0.151057 0.399967 -0.489258 -1.14215 0.664448 0.0323511 -0.335338 0.706973 0.157895 0.87479 0.218651 0.884695 0.116462 -0.733382 0.210578 0.325097
184 0.034553 0.0541732 -0.245205 0.744861 -0.541903 0.195332 -0.0194854 -0.56779 -0.320407 0.273338 0.245457 -0.720805 0.128673 -0.568841 -0.0528872 -0.454512 0.0810077 -0.13139 -1.03806 -0.0727062 0.293915 0.571537 0.178146 -1.04131 0.393051 -0.505694 -0.428595 0.102925 -0.636341 0.562331 0.185533 0.602596 0.268634 -0.163153 0.420676 0.657921
3499 -0.29785 0.0151798 0.0343976 0.701706 0.644624 0.351463 0.218459 -0.191356 0.505717 0.606389 0.00971348 -0.165266 0.0546002 -0.0561433 0.433958 -0.638619 -0.605245 -0.125142 -0.274153 -0.0312961 0.057868 0.697807 -0.360451 -0.421139 -0.04629 0.141998 0.326532 0.426932 0.0443839 0.169849 -0.323241 0.110426 -0.0732463 -0.242757 -0.282114 -0.0677422
1439 -0.200586 0.0488821 0.144217 0.47579 0.824632 0.292956 0.548198 -0.307408 0.363478 0.654492 0.0459168 -0.0257439 -0.0525927 -0.0773549 0.691801 -0.643116 -0.602973 -0.119623 0.128631 0.0155084 0.0208993 0.604895 -0.215271 -0.39054 -0.0514994 0.132901 0.146715 0.373111 0.00972335 0.306154 -0.460382 -0.019156 -0.0953501 -0.357495 -0.165944 -0.144021
1549 -0.263818 0.35142 0.109942 -0.129464 0.198156 -0.10882 -0.0881006 -0.890233 -0.0662639 0.456288 0.159834 -0.769387 0.017715 -0.161123 -0.143105 -0.190403 -0.14127 -0.0442474 -0.59364 0.282603 -0.0358629 0.754309 0.0747666 -0.774147 0.331738 -0.347002 -0.624198 0.335275 -0.941238 0.755319 -0.0802491 0.056223 -0.734051 -0.689872 0.163747 0.228072
219 0.00256407 -0.116729 1.03812 0.753281 -0.0108042 -0.00570532 0.0641741 -0.109923 0.185278 1.19137 0.376408 -1.26831 -0.0684402 -0.250777 0.0454726 -0.201202 -0.120435 0.338236 -0.813106 -0.490146 -0.102879 0.478952 -0.204041 -0.767321 -0.223093 -0.616556 -0.283953 0.767859 -0.06139 1.53695 -0.403602 0.355648 -0.395939 -0.546044 0.349159 0.176466
529 -0.136699 -0.0202291 -0.473704 0.68325 -0.158502 0.297681 0.106684 -0.491756 -0.65541 -0.104928 -0.94234 -0.0312173 -0.0939145 -0.619886 -0.221262 0.0687761 -0.38448 -0.25874 -0.289986 -0.270783 0.214284 1.29065 -0.953908 -0.500866 -0.182319 0.05998 0.208946 0.628555 -0.192981 -0.0747339 -0.772725 0.316554 -0.278593 0.052463 -0.468584 -0.158664
4 0.00307746 -0.0967978 -0.012174 0.943592 -0.0382371 -0.101845 0.133128 -0.424298 -0.39258 -0.029596 -0.161081 0.00578485 0.599393 0.211281 -0.195411 -1.24405 -0.0903528 0.035094 0.384494 -0.564896 0.274376 1.31122 -0.256375 -0.88726 -0.604454 -0.166701 -0.0746631 0.46816 -1.03722 0.881608 -0.33857 -0.710638 -0.560438 -0.716678 -0.35633 0.564376
1182 0.0639561 -0.190379 0.11142 0.542533 -0.0239272 0.435373 0.0225702 -0.143288 -0.202352 0.233191 -0.36075 -0.164998 0.474459 -0.222906 -0.153597 -0.851298 -0.135094 -0.0120833 0.0249878 -0.250487 0.360588 0.808622 -0.221521 -0.649271 -0.120283 -0.198487 0.237716 0.240649 -0.410651 0.431967 -0.253953 -0.130672 -0.075022 -0.129447 -0.0725308 0.240679
603 0.193667 -0.584317 0.0772341 0.405429 -0.107307 0.130405 0.686003 -0.754863 0.189148 0.32422 -0.0877935 -0.204611 0.0322237 -0.471565 -0.0746876 -1.02733 -0.0963509 -0.347701 0.585255 -0.536211 -0.289192 1.2798 -0.399239 -1.00465 -0.254249 -0.599919 0.101108 0.576865 -0.79889 0.4392 -0.329428 -0.348487 -0.162286 0.0177453 0.142744 0.238322
1727 0.0356707 0.0457047 -0.00678985 0.306156 -0.264696 0.255484 -0.112837 -0.192151 -0.00916881 0.122384 -0.100579 0.0379174 0.0136728 -0.11579 -0.155569 -0.406658 -0.043773 0.217167 -0.192479 -0.248886 0.154434 0.403379 -0.164242 -0.432924 -0.0452126 -0.21708 -0.034299 0.174577 -0.0383623 0.28111 -0.310105 0.0223641 -0.126106 -0.20359 -0.0342354 0.208924
169 0.131872 0.167218 0.358034 0.894488 -0.876188 1.25633 -0.43198 -0.177975 -0.220153 0.910863 -0.384459 -0.234884 -0.0246989 -0.489501 -0.25864 -0.824967 -0.156433 0.45943 -0.0116156 -0.670865 0.536343 0.743161 -0.249014 -0.798203 -0.16226 -0.31274 -0.0736794 0.363246 0.214424 0.58838 -0.358597 -0.0488533 0.1072 -0.648278 0.212783 0.515494
644 -0.223601 0.350004 -0.546246 0.326875 0.165813 0.775165 -0.306146 -0.0804141 0.588995 0.388722 -0.139509 -0.0324032 -0.404026 0.63319 0.376334 -0.891583 -0.419209 -0.904412 -0.0736521 -0.348785 0.0326192 0.55413 0.16312 -0.725325 0.394217 0.00472521 -0.821703 0.391067 -0.0232334 -0.028524 -0.289603 0.187741 0.614749 -0.527202 -0.609143 0.475886
4161 -0.360207 0.798257 -0.872224 0.292006 0.269626 0.518568 0.0368326 -0.117444 -0.0109937 -0.0191462 -0.308371 -0.207155 -0.735166 0.551166 0.141966 0.0942638 -0.070228 -0.343014 -0.286697 0.0725082 0.42375 0.724438 -0.000236096 -0.448175 0.316089 -0.201298 -0.784624 0.572427 0.199211 0.134213 -0.763034 0.631469 0.340494 -0.328414 -0.761387 0.151246
651 -0.331655 0.729533 -0.799281 -0.363405 1.03549 0.36302 -0.0583001 -0.413321 0.590142 -0.0426401 -0.14662 -0.542024 -0.321219 0.999722 0.0622994 -0.52282 -0.650736 -0.599049 -0.275343 0.153542 0.0632541 0.718436 0.0666383 -0.35372 -0.561206 0.152394 -0.58498 0.497502 0.118053 0.204666 -0.794776 0.295764 0.0815148 -0.667458 -1.12812 -0.0197207
2774 -0.273549 0.166636 -0.307873 0.207478 0.146874 0.866178 0.0968643 0.0709057 0.203593 0.472599 -0.104609 -0.0390887 -0.412466 0.732183 -0.150915 -0.135634 0.20771 -0.132701 -0.279113 -0.31089 0.113681 0.77962 -0.207111 -0.525388 -0.164283 -0.97147 0.0106222 0.364127 -0.0737638 0.211439 -0.374666 -0.10221 0.337986 -0.467897 -0.458574 0.470194
473 -0.0624732 -0.127198 -0.18475 0.216017 0.215148 1.27837 0.133302 0.0650008 0.00648333 0.655073 0.237642 -0.409522 0.00270335 0.662409 -0.26292 -0.570319 0.521809 -0.0134549 0.137447 -0.343861 0.21259 0.973396 -0.530583 -0.505276 -0.212355 -0.993294 0.434985 0.199629 0.181666 0.85604 -0.385456 -0.149815 0.60231 -0.795666 -0.0187471 0.934004
472 -0.0927807 -0.265387 0.331803 0.222507 0.158258 1.02978 -0.071415 -0.0844081 -0.0459806 0.81846 -0.207865 -0.183686 -0.0822532 0.565704 -0.0213916 -0.0726872 -0.126084 -0.157436 -0.457328 -0.413861 -0.105213 1.03511 -0.461092 -0.18429 -0.602683 -1.15543 0.479839 0.288796 -0.326185 0.259139 -0.373387 -0.0646815 -0.0543383 -0.726965 0.0608622 0.871395
1112 -0.466402 -0.0814753 -0.257431 -0.902268 0.281106 0.248591 0.48681 -0.586059 0.107409 0.830401 0.0906659 0.27035 -0.264125 -0.107962 0.0137276 0.120629 -0.542067 0.0795882 -0.174867 -0.195364 0.0955313 0.787829 0.157332 -0.479247 -0.196701 0.0258796 0.269933 0.646364 -0.986565 0.462245 -0.640028 0.948946 0.363882 0.133163 -0.551325 0.00880653
31 0.380004 -0.143841 -0.229505 0.839697 -0.136209 -0.102044 0.138924 -0.782868 0.75981 0.545194 -0.163917 0.575596 0.0012499 -0.405561 -0.0886463 -1.19786 -1.08889 -0.0360278 0.213215 -0.653297 -0.276956 0.583296 0.389888 -1.29712 -0.19675 -0.627998 -0.579307 -0.0272145 0.152424 0.596623 -0.746961 0.305332 -0.201713 0.0918372 -0.157943 -0.269868
3589 -0.162306 0.139673 -0.224341 0.0949751 -0.094773 -0.00938153 0.43624 -0.129566 -0.0321122 0.00843469 -0.0651838 -0.098506 -0.200425 -0.0315971 -0.0269016 -0.233942 -0.296308 0.0654068 -0.00227937 -0.0124318 -0.117621 0.16577 -0.234452 -0.41429 -0.0597547 -0.430014 0.0171546 0.278678 -0.0139478 0.227973 -0.784522 0.26107 0.0488247 0.260902 -0.188734 -0.201946
2963 -0.368018 0.0768706 -0.513286 0.383353 -0.108294 0.033238 0.78109 -0.427858 -0.13712 0.0900727 -0.362148 -0.0361354 -0.228823 0.117758 0.12639 -0.0152819 -0.272685 0.0700583 -0.191632 0.095419 0.109118 0.60596 -0.593037 -0.60945 -0.0692762 -0.532656 0.0514933 0.369923 -0.154091 0.333586 -0.857001 0.345837 -0.156361 0.469376 -0.642812 -0.0813566
2962 -0.331362 -0.200753 -0.190479 0.351779 -0.289056 -0.015648 0.497372 -0.432515 0.0548337 0.151272 0.019333 0.0909847 0.0827898 -0.091477 0.0310837 -0.255286 -0.298088 0.0219909 -0.00958379 -0.145079 0.00539736 0.362384 -0.399111 -0.701647 0.201655 -0.562742 -0.053634 0.395667 -0.0711857 0.293567 -0.688422 0.260355 -0.342654 0.246437 -0.375985 -0.050366
763 -1.07004 1.01256 -0.722285 0.551523 -0.527866 -0.149956 -0.174222 -0.450016 -0.236303 -0.280275 0.243373 0.815369 -0.264287 -0.136746 0.689556 -0.473056 -0.822588 -0.418434 -0.160491 -0.958078 -0.464364 1.12487 -0.812686 -0.919264 0.0482985 -0.71904 0.349929 1.2685 0.353268 0.302717 -0.477649 -0.497612 -0.372949 -0.356173 0.107228 -0.0868503
356 0.125549 0.636438 0.265956 0.28289 -0.188454 0.531546 0.883238 -0.154311 -0.246591 0.231156 0.993539 0.815722 -0.186522 -0.447824 0.628907 -0.846468 -0.159664 -0.514734 0.104674 -0.593006 -0.29014 0.638217 -0.508368 -1.21884 -0.0823173 -0.851302 1.09578 1.26579 0.359454 0.809593 -0.576691 -0.171089 -0.213268 -0.00993137 0.102319 -0.428633
565 -0.477944 0.709039 -0.657523 0.605805 -0.507203 -0.31814 -0.113732 -0.236605 -0.131406 -0.0964425 0.654857 0.513807 -0.263298 -0.247088 0.207653 -0.941383 -0.645484 -0.637421 -0.0649274 -0.586711 -0.601579 1.36067 -0.162848 -1.4929 -0.269486 -0.884126 0.453431 0.818212 -0.331022 0.542459 -1.41075 -0.570673 -0.853723 0.525173 -0.366047 -0.210766
552 0.0465314 -0.0863002 -1.01675 -0.225384 -0.122053 0.255407 0.335864 -0.697651 -0.112769 -0.509678 -0.283037 0.211869 -0.0605606 -0.277553 -0.187363 -0.362291 0.403901 0.328771 -0.403538 0.086325 0.519438 0.768113 -0.251226 -0.618285 -0.590799 -0.725263 -0.0768991 0.478352 -0.263033 0.533164 -0.756476 0.197887 0.468855 0.0347081 -0.996467 0.157752
75 0.0794481 0.257738 -0.227291 0.127884 -0.620777 0.0890435 -0.105551 -0.681567 0.588837 -0.25327 -0.0601187 0.319471 0.154905 -0.969834 -0.424819 -1.84504 -0.304672 0.326098 -0.588251 -0.564018 0.0323571 0.500156 -0.0632045 -0.544673 -0.909379 -0.831088 0.166895 0.523838 -0.11714 0.84036 -0.707948 0.12306 0.0479521 -0.957359 -0.506137 0.468388
3830 -0.0849169 0.170064 -0.0754241 0.353635 -0.0934219 0.331156 0.200844 -0.468329 0.0807372 0.162935 0.0626915 -0.171622 0.135332 -0.11031 0.0864491 -0.458006 -0.215893 -0.0461537 -0.171288 -0.186444 0.0679576 0.818176 -0.298439 -0.685178 -0.0285407 -0.374955 0.0246913 0.487027 -0.212473 0.256227 -0.430396 0.0386265 -0.235732 0.0452403 -0.289381 0.196671
4509 -0.0704657 0.372203 -0.441764 0.266786 0.109482 0.217795 0.276654 -0.412927 -0.141558 0.161517 -0.0770474 -0.119412 -0.192931 0.018156 -0.1167 -0.110025 -0.208072 -0.0163118 -0.41733 0.167275 0.370533 0.764196 -0.0530889 -0.807876 0.0419357 -0.459444 -0.255691 0.278133 -0.417279 0.205164 -0.119226 -0.0550832 0.0364874 -0.292158 -0.16661 -0.0659685
2611 -0.0228043 0.698902 -0.349898 0.352063 -0.102964 0.253172 0.249969 -0.383245 -0.407193 0.0304172 0.10423 -0.256919 -0.189415 0.138066 -0.0791954 0.171996 -0.0176906 -0.00721702 -0.650501 0.088877 0.366061 0.848507 0.00678821 -0.848714 -0.00899832 -0.47204 -0.127453 0.231342 -0.323066 0.270367 -0.169336 0.128157 -0.0663466 -0.161247 0.0234492 -0.0594862
1169 -0.372745 -0.140836 -0.220041 0.466697 -0.0165486 0.356543 0.357343 -0.105759 0.47664 0.266219 -0.129355 0.539265 -0.110704 0.128265 0.441547 -0.259278 -0.375042 -0.115727 -0.0242024 -0.479939 -0.154033 0.324107 -0.460812 -0.452639 -0.168713 -0.303428 0.305226 0.317637 0.0354037 0.107407 -0.339537 0.183399 0.060784 0.182216 -0.330483 -0.0380375
4216 -0.279889 0.245898 -0.37948 0.265801 0.110177 0.715617 0.00932817 -0.00369059 0.186167 0.301164 -0.229144 -0.0522348 -0.411858 0.642383 -0.0500326 -0.0502621 0.0738819 -0.0710974 -0.2452 -0.361212 0.17927 0.800414 -0.343872 -0.381067 -0.014878 -0.522108 -0.215686 0.40373 0.00691878 0.109175 -0.294313 0.0377762 0.146406 -0.458923 -0.600615 0.360072
883 -0.248778 0.731602 -0.756797 0.299997 0.156791 1.20629 -0.108764 -0.200172 0.23598 0.181928 -0.0763214 0.145765 -0.69013 1.27491 -0.0996261 -0.033388 0.0717739 0.236248 -0.438335 -0.707196 0.429631 0.997544 -0.0552595 -0.487208 0.437385 -0.656172 -0.756266 0.45906 0.212407 0.153539 -0.482874 0.197775 0.0372467 -1.21548 -0.984774 0.828652
897 -0.390587 0.431915 -0.593183 0.334588 0.347478 1.12777 0.319735 0.154485 0.147885 0.555417 -0.303971 0.0148521 -0.585651 0.971876 0.084214 0.198311 0.234657 0.0185112 -0.338823 -0.607441 0.303737 0.930254 -0.118748 -0.508046 -0.120861 -0.474918 -0.182291 0.558731 0.17482 0.147379 -0.376319 0.0995596 0.439852 -0.659391 -0.826993 0.200754
1000 0.101563 0.308027 -0.00109701 0.0277688 0.248732 0.365762 0.212749 -0.271746 -0.0908888 0.143023 0.0495715 -0.313167 -0.0353271 0.0847827 -0.00432428 -0.115112 -0.146932 0.00983969 -0.129217 0.0831696 0.115035 0.253378 -0.0886171 -0.251594 -0.0423262 -0.0681022 -0.190264 0.116889 0.18331 0.102962 -0.354398 0.162067 0.170478 -0.21276 -0.146084 -0.12111
646 -0.61572 0.407197 -0.581811 0.344293 0.140042 0.891863 -0.124405 -0.0544906 0.257668 0.184035 -0.244391 0.144386 -0.47944 0.672779 0.723799 -0.613614 -0.768484 -0.649242 -0.0983267 -0.40829 0.191915 0.660569 -0.293414 -0.833787 0.317125 0.343197 -0.822284 0.651938 0.178294 0.0337522 -0.181725 0.517178 -0.0223776 -0.306752 -0.841101 0.21824
320 -0.235638 0.941628 0.166368 0.0707414 1.16353 0.485558 0.703146 -0.725104 0.114381 0.605213 0.68874 -0.334054 0.13568 -0.316642 0.422933 -0.278033 -0.926264 -0.341934 -0.495968 0.432758 0.257159 0.266916 -0.694004 -0.375154 0.167823 0.201927 -0.279676 0.350661 0.768201 0.158608 -1.12339 0.833546 0.603715 -1.05072 0.0751591 -0.188426
1475 -0.0933551 0.265906 0.129102 0.145423 0.132797 0.287818 -0.0338193 -0.477196 -0.0490586 0.323901 0.0709939 -0.413154 -0.0107521 -0.153259 0.139238 -0.137537 -0.246777 -0.00430298 -0.188631 -0.0889746 0.100128 0.527161 -0.0719648 -0.423081 0.11813 -0.139458 -0.148489 0.375421 -0.350079 0.35433 -0.319545 0.413602 -0.271333 -0.354024 0.0685885 0.121747
1335 -0.27071 0.312182 0.221465 0.263395 0.304526 -0.22272 -0.152807 -0.803183 0.078779 0.618682 0.470508 -0.750323 -0.434617 -0.306638 0.230685 -0.0834702 0.047262 -0.448517 -0.480053 0.0538953 -0.163635 0.725604 -0.0889686 -0.546477 0.296851 -0.334351 -0.627449 0.585075 -1.05534 0.650834 -0.296875 -0.0482242 -0.367938 -0.423275 0.368538 0.225183
848 -0.401815 0.57774 0.0387596 0.335625 0.242783 0.215461 0.0729582 -0.465997 -0.108875 0.213248 0.0262004 -0.14701 -0.114226 -0.0377219 0.261951 -0.0473875 -0.111763 -0.0482538 -0.169302 -0.00489875 0.15357 0.592984 -0.280457 -0.559616 0.317753 -0.28269 -0.279373 0.354216 -0.265705 0.342279 -0.0352487 0.102905 -0.282924 -0.498404 0.115245 0.0834919
211 0.165119 0.613886 -0.271407 0.137118 0.662035 0.673938 0.0608389 0.0462754 0.582491 0.0200004 -0.0241101 0.0726748 -0.710787 0.695593 0.576077 -1.74322 -0.639101 -0.897144 0.0105447 -0.629404 0.156569 0.952748 0.371904 -0.656217 0.362582 0.348694 -0.111067 1.13724 0.357621 0.138144 -0.847175 0.729851 0.403002 -0.522062 -0.565503 0.929895
4626 -0.244849 -0.15102 -0.0315116 0.306564 -0.165225 0.168234 0.159281 -0.384606 0.106583 0.215064 -0.00299881 0.0806288 0.163208 -0.0431023 0.242534 -0.249159 -0.247626 0.0771728 0.0180177 -0.116812 0.0885918 0.754858 -0.27528 -0.556626 0.0427043 -0.353979 0.0216993 0.389783 -0.238589 0.280057 -0.212507 0.0404259 -0.250498 0.12249 -0.258508 0.231382
42 0.243661 -0.54253 -0.257706 0.241694 0.134469 -0.0498448 0.943458 -0.908696 0.711609 0.151861 0.246965 0.237982 -0.29925 -0.610523 -0.0398181 -1.06705 -0.940849 -0.284204 0.403089 -0.456989 -0.272271 0.521584 -0.0770639 -1.10569 0.671736 -0.683546 0.03971 0.224048 -0.0344519 -0.00282629 -1.33214 0.297206 -0.524201 0.0821697 -0.418407 -0.434292
368 -0.666421 -0.453462 -0.494437 0.242744 -0.242485 -0.00497949 1.01966 -0.793906 0.498411 0.368469 -0.244413 0.952087 0.184634 -0.220381 0.351147 -0.560473 -0.882423 0.131412 0.434518 -0.591614 -0.100139 0.747572 -0.44665 -0.647412 0.0739695 -0.743573 0.0398777 0.532333 -0.0379997 0.22067 -0.987368 0.197609 -0.212631 0.0936419 -0.66136 0.0263833
3607 -0.198958 1.19467 0.237446 -0.11697 0.288227 0.278272 0.422594 -0.585662 -0.106688 -0.0915621 -0.0700331 -0.19409 -0.27938 0.0651064 -0.170778 -0.241134 -0.0202664 0.283143 -0.318283 0.208601 0.304763 -0.157857 -0.195638 -0.604345 0.212656 -0.279486 -0.335603 0.601083 0.0419061 0.434244 -1.19106 0.656774 -0.0434763 -0.146199 -0.421723 -0.0176466
3835 -0.0656847 0.568818 -0.12604 0.253619 0.408643 0.500986 0.263519 -0.503409 -0.0117341 0.22314 0.136632 -0.319436 -0.143682 0.0425438 0.127803 -0.424673 -0.447727 -0.0929103 -0.370083 -0.0735234 0.144954 0.607084 -0.339392 -0.688901 0.0134726 -0.359482 -0.248881 0.347961 0.194172 0.244865 -0.778073 0.368773 0.0854471 -0.421432 -0.249252 -0.0429985
54 0.344794 0.328874 0.322839 0.114556 0.877252 0.941869 0.000550494 -1.46648 0.628425 0.418028 0.565928 -0.784888 0.317385 -0.669932 0.246869 -1.03651 -0.513152 0.0416606 0.176306 -0.103764 0.170824 0.201757 -0.904044 -0.75604 0.755347 0.012512 -0.24459 -0.228542 0.628316 0.157857 -0.780219 0.935348 0.375019 -0.249246 -0.366314 -0.0542102
234 0.597785 1.19627 0.981677 0.621067 0.273653 0.564515 0.434123 -0.710638 -0.113137 1.16402 -0.0505972 -0.982108 0.347152 -0.290374 -0.281801 -0.973541 -0.00839328 0.0416286 -0.503322 -0.0619755 -0.619441 0.199481 -0.131077 -0.675521 -0.413266 -0.554431 -0.470922 -0.0504385 0.364587 0.366455 -1.34752 0.63472 -0.316675 -0.0164673 0.107862 0.109704
3269 0.0445249 0.411122 -0.0460317 0.0153266 0.240875 0.398831 0.18845 -0.353765 -0.0469745 0.152045 -0.0462568 -0.404343 -0.0561966 -0.0426982 -0.0512905 -0.343033 -0.260927 -0.0758475 -0.174498 0.118256 0.0645346 0.185957 -0.132679 -0.284193 -0.0710492 -0.122035 -0.197529 0.206139 0.0749429 0.129186 -0.465087 0.26743 0.202096 -0.214308 -0.189303 -0.108203
683 0.201333 1.00617 0.343549 -0.10303 0.524959 1.25599 0.786411 -0.808833 -0.347029 0.362407 0.121587 -0.479977 0.0916652 0.458172 -0.0547351 -0.375636 -0.0422474 -0.116463 -0.0773518 0.0177037 0.162103 -0.00297988 -0.137214 -0.761284 0.0904217 -0.825482 -0.322442 -0.151131 0.365366 0.27083 -0.726477 0.755334 0.120743 -0.557237 -0.265558 -0.382176
3765 -0.266465 -0.224467 -0.269691 0.325157 -0.160915 -0.00404269 0.70565 -0.385362 0.278161 0.267189 -0.155664 0.156729 -0.0934551 0.0185026 0.0119327 -0.333178 -0.48957 0.0760961 0.0450585 -0.18463 0.0617217 0.664439 -0.373273 -0.744144 -0.00820067 -0.604299 -0.100876 0.225046 0.045896 0.313788 -0.657012 -0.0140616 0.0738731 0.281627 -0.422089 -0.144072
7 -0.925283 -0.0321549 -0.22272 0.517855 -0.800359 -0.204879 0.51925 -0.15706 -0.118781 0.00142058 -0.227293 -0.418635 -0.206596 -0.0158871 -0.44701 -0.363554 -0.496089 0.128823 0.183439 -0.0562366 -0.368099 0.612478 -0.570774 -0.940308 0.0614744 -0.598118 0.152995 0.575646 -0.430939 0.751548 -1.57884 0.716615 -0.801704 0.509742 -0.119119 0.0158421
635 -0.0520261 0.507404 0.342155 -0.0373166 0.721142 0.308307 0.395311 -0.744778 -0.032251 0.264384 0.32256 -0.175317 0.11169 -0.329789 0.433113 -0.392464 -0.685817 0.143879 0.15266 -0.0900759 0.302336 0.412785 -0.496714 -0.280826 0.0625606 0.0221615 -0.331745 0.320053 0.419327 0.32152 -0.484626 0.247462 0.107596 -0.951448 -0.200747 0.109611
393 0.140353 -0.0876426 0.534226 -0.0942397 0.379631 0.742153 -0.0638961 -0.573715 0.0074961 0.204369 0.537634 -0.40039 0.612939 -0.130019 0.0948409 -0.793552 -1.0301 0.0239983 0.182897 -0.645631 -0.1982 0.750249 -0.30908 -0.45268 0.733118 0.103817 -0.218842 0.916055 0.751262 0.285065 -1.0409 0.631013 -0.390563 -1.03804 0.579319 0.33702
1181 -0.511736 0.38797 0.161399 0.533785 0.087174 -0.0539013 -0.0357002 -0.337651 -0.106295 0.272759 0.16677 -0.544539 0.128328 0.0706751 0.337155 0.00103484 -0.258615 -0.114943 -0.250608 0.137881 0.281039 0.715432 -0.31984 -0.631527 0.412612 -0.147355 -0.621021 0.317627 -0.151542 0.676101 0.106543 0.122986 -0.491138 -0.512881 0.13677 0.452576
793 -0.731634 0.900396 0.286974 0.414061 0.547542 0.315559 -0.135972 -0.672926 -0.229926 0.217857 -0.193319 -0.73184 0.0068599 -0.113537 0.821111 -0.0963998 -0.493293 -0.263281 -0.213833 0.260495 0.171207 1.18177 -0.545315 -0.608205 0.390968 0.195847 -0.733894 0.766666 -0.416253 0.889887 0.237577 0.382717 -1.027 -0.728217 0.056132 0.387009
4607 -0.0952235 0.292565 -0.13534 0.148812 0.2685 0.250573 0.0870618 -0.292706 0.0466457 0.21537 0.151651 -0.186148 -0.0186436 0.0399376 0.135291 -0.3265 -0.348667 -0.076312 -0.198364 0.00686415 0.169175 0.412034 -0.129694 -0.482779 0.18785 -0.124778 -0.200588 0.310436 0.0954583 0.156329 -0.430855 0.223337 0.081645 -0.407363 0.0444925 0.0825316
4241 -0.0761222 0.326275 0.255187 0.351058 0.343028 0.287182 -0.0456444 -0.423922 -0.370401 0.229043 -0.0622255 -0.434682 0.129874 -0.420782 0.147343 -0.198723 -0.317901 -0.0494261 -0.116432 -0.020375 0.243665 0.658384 -0.384055 -0.350559 0.343481 -0.039894 -0.332473 0.143901 2.68288e-05 0.208236 -0.0734368 0.238363 -0.182259 -0.762693 0.298504 0.299376
150 0.075094 0.496661 0.480869 0.147202 0.538946 0.799039 0.305904 -0.953797 -0.251404 0.433707 0.425007 0.179965 0.234225 -0.505223 0.0315317 -0.535842 -1.01728 -0.307628 -0.15876 -1.03873 -0.241984 0.1366 -0.425686 -0.556656 0.608186 -0.269488 -0.292351 0.237324 0.372778 0.0237426 -0.516587 0.275916 0.233893 -1.64367 0.475951 -0.0823663
401 -0.278463 0.41387 0.338004 -0.109903 1.01127 0.375893 0.53693 -0.973249 0.0942409 0.243924 0.454883 0.0148041 0.454226 -0.247346 0.550051 -0.310236 -0.827989 -0.125395 0.122636 -0.257597 -0.0384588 0.241443 -0.587313 -0.22909 0.155056 0.0152577 -0.236905 0.494468 0.668147 0.444974 -0.594643 0.511533 0.127162 -0.962633 -0.0867592 0.139381
498 0.107681 0.568022 -0.498368 1.06592 -0.215971 1.08948 -0.383125 -0.0350726 -0.0341111 0.21743 -0.144978 -0.200561 -0.279919 0.328071 0.669142 -0.745085 -0.626209 -0.748059 -0.233294 -0.706837 0.375346 0.758357 0.233565 -0.589921 0.559901 0.18728 -0.847129 0.690115 0.220758 0.0965829 -0.414858 0.80976 0.228886 -0.133105 -0.0660149 0.197288
4015 -0.141051 0.357009 -0.24329 0.493949 0.159676 0.320295 -0.00359868 0.137292 0.0581436 0.047737 -0.0946404 -0.136891 -0.235557 0.140829 0.252515 -0.372451 -0.109079 -0.278943 -0.193142 -0.0589318 0.314264 0.440664 0.0278853 -0.470319 0.295493 0.0270445 -0.344148 0.341481 0.214928 0.285173 -0.429231 0.338496 0.105504 -0.369455 -0.131749 0.246463
4666 0.0290838 0.330247 0.0589768 0.113427 0.423984 0.188574 0.302606 -0.563799 0.349345 0.271207 0.37643 -0.118059 -0.0361124 -0.0705083 0.144895 -0.186917 -0.414827 -0.0275994 -0.211748 -0.0944466 0.167097 0.174879 -0.0963647 -0.346229 -0.0705868 -0.330814 -0.0945443 0.220021 0.351367 0.231388 -0.570098 0.510371 0.25102 -0.374569 0.0116656 -0.0848752
620 -0.0219701 0.839876 0.320764 0.58337 -0.642399 0.020788 -0.179049 -0.771963 0.402432 0.808458 0.439369 -0.663628 0.141674 -0.0405681 0.416287 -0.0330848 -0.28286 0.305395 -0.410642 -0.511238 -0.146989 0.874241 -0.474387 -1.17225 0.799745 -0.320958 -0.804343 0.709979 -0.0689426 0.355706 0.441279 0.52897 -0.653236 -0.114684 0.667796 0.182123
2541 -0.0430956 0.690536 0.190848 0.152309 0.446228 0.38101 -0.183062 -0.927815 0.103398 0.28262 0.170972 -0.628157 -0.00935362 -0.339583 0.176935 -0.364982 -0.310523 -0.13041 -0.441348 0.207786 0.0889312 0.580417 -0.174236 -0.887931 0.420108 -0.137821 -0.616952 0.0417132 -0.517041 0.0862033 -0.211878 0.304958 -0.392548 -0.45201 0.158939 0.261958
1920 0.0821907 0.416978 -0.114086 0.284608 -0.101425 0.162486 -0.0651403 -0.479147 -0.190868 0.239146 0.0304508 -0.402224 -0.0259852 -0.14653 -0.105791 0.0197774 -0.0600135 -0.0396979 -0.442247 0.21553 0.370259 0.768336 0.00711623 -0.81597 0.0815802 -0.355837 -0.325659 0.0449551 -0.452307 0.173907 -0.00437024 0.262813 -0.0566215 -0.266345 -0.0227862 0.226243
3263 0.341826 0.00397381 -0.605887 -0.665295 -0.53212 0.484313 0.852413 -0.847286 0.20502 0.370162 0.317771 -0.121353 0.0549071 -0.476231 -0.405167 0.0416774 -0.282466 0.322848 0.0871858 0.16778 0.432235 0.751213 0.0717376 -0.692339 0.093176 -0.472967 -0.285129 0.549809 -0.319408 0.199625 -0.204254 0.469445 -0.142688 0.0476627 -0.424823 0.396746
256 0.423493 0.193833 0.159087 -0.611291 -0.554029 0.694527 0.74753 -0.652114 0.0368921 0.427927 0.145453 -0.38141 -0.0691168 0.0691651 -0.13725 -0.369566 -0.436918 0.00740512 -0.0169105 -0.183115 0.929267 0.865242 0.663223 -1.0038 -0.0204903 0.183872 0.0757079 0.28734 -0.644225 0.35179 -0.834495 0.76385 -0.156473 0.161614 -0.041381 0.55826
1372 -0.216251 0.246004 -0.405948 0.477085 -0.179245 0.216856 -0.0516997 -0.351674 -0.159828 0.0880702 -0.0286643 -0.17284 -0.115226 -0.508681 -0.190856 -0.295141 -0.464203 -0.0504141 -0.317048 0.0273438 0.154237 0.717969 -0.38754 -0.550569 0.00709569 -0.201223 0.220811 0.480582 -0.259555 -0.12598 -0.360166 0.0522952 -0.00357554 -0.29389 -0.135265 0.0379678
2424 -0.67231 0.28868 -0.747558 0.107165 0.190555 -0.0661227 -0.0556322 -0.367535 -0.320087 -0.0846551 -0.261496 -0.167129 -0.30923 -0.504339 -0.151427 0.128727 -0.58014 -0.229834 -0.305877 0.412898 0.0323573 0.599113 -0.526737 -0.312425 -0.0779564 -0.0952457 0.0978949 0.553954 -0.329785 -0.244046 -0.190408 0.101123 0.0748517 -0.265776 -0.58403 -0.470244
4734 -0.172052 0.21934 -0.153405 0.308561 0.204354 0.169306 0.387464 -0.365106 -0.215208 0.138948 -0.277224 -0.0156699 0.0747141 -0.11605 0.07298 -0.148756 -0.239668 -0.0363566 -0.0764611 -0.105913 0.131594 0.701003 -0.40183 -0.435733 -0.153592 -0.211854 -0.0790332 0.295478 -0.0199644 0.365839 -0.475717 0.0937664 0.0808652 -0.18016 -0.323322 -0.0314618
4733 -0.165306 0.205579 0.10354 0.572355 0.0416485 0.269056 0.110989 -0.308714 -0.342098 0.105212 -0.248555 -0.266355 0.292902 -0.280623 -0.0286963 -0.44978 -0.234124 -0.15968 -0.0655009 -0.228623 0.15994 0.796747 -0.480087 -0.51723 0.0677716 -0.217066 -0.0844676 0.346549 0.0339651 0.406339 -0.419882 0.0520592 -0.085783 -0.220022 -0.112096 0.224807
61 -0.148331 0.128768 0.480502 0.675801 -0.286077 0.744134 0.234906 -0.0982626 0.023177 0.742901 -0.492011 -0.217488 0.50119 -0.202845 -0.847642 -0.933989 -0.553432 -0.161993 -0.222202 -0.583271 0.48021 1.13312 -0.836645 -0.641891 -0.384231 0.0401609 0.238562 0.200099 0.153421 0.118568 -0.718389 0.2887 -0.36666 -0.46105 0.613673 0.439519
3093 -0.391754 -0.127099 -0.220399 0.292605 0.0338842 0.440548 0.023869 -0.110484 0.169248 0.194649 -0.276113 -0.142911 0.251291 0.135232 -0.0656269 -0.339154 -0.177365 -0.325801 0.203171 0.0212353 -0.111694 0.980518 -0.207099 -0.449253 -0.0993005 -0.547855 0.0882997 0.495104 -0.37102 0.258499 -0.204493 -0.228633 -0.178057 0.0121903 -0.172813 0.335662
3045 -0.234294 0.382771 -0.213489 -0.256437 -0.119323 0.275445 0.276532 -0.451881 0.188152 0.54453 -0.0212141 0.126193 -0.0307015 -0.226679 -0.104387 -0.0236053 -0.205821 -0.0877315 0.1739 0.189757 0.472062 0.590897 0.200317 -0.605413 -0.0708527 -0.502926 -0.040035 0.647817 -1.02394 0.362425 -0.959049 0.169761 0.274781 0.366147 -0.701176 0.239921
3603 -0.181544 0.888539 -0.377705 -0.177372 0.45017 0.205228 0.426989 -0.519489 -0.248259 0.222231 -0.0440678 -0.575068 -0.323349 0.462393 -0.0321545 0.101898 -0.447739 0.0582858 -0.541169 0.252734 0.247412 0.439804 -0.134715 -0.258087 -0.267067 -0.211551 -0.465046 0.559964 0.348511 0.248644 -1.04977 0.513299 0.127652 -0.227966 -0.36203 -0.329414
3832 0.105083 0.33944 0.0520734 0.46159 0.133913 0.324518 0.295001 -0.0364701 -0.076835 0.24284 0.183089 -0.433188 0.0360947 0.21971 -0.148306 -0.443035 -0.0735147 -0.139786 -0.41843 -0.00923099 0.200678 0.183393 -0.0587072 -0.529352 -0.0365423 -0.342626 -0.279903 0.033403 0.301893 0.265835 -0.65508 0.223378 0.171345 -0.238255 -0.0106466 0.0704644
743 0.296135 1.3295 0.775113 0.436961 0.0167363 1.169 0.44298 -0.382151 -0.197938 0.15853 0.0284588 -0.694757 0.327112 0.0789752 -0.519816 -0.872725 -0.50793 -0.0677508 -0.137147 0.0823141 0.461062 -0.138733 0.0436115 -0.847309 0.187843 -0.231554 -0.572665 0.367755 0.383853 0.316995 -1.1082 0.447824 -0.651204 -0.210415 0.104528 -0.155457
4075 -0.18793 0.0105958 0.0192961 0.350161 0.507172 0.131296 0.0966822 -0.183555 0.372257 0.408335 0.120489 -0.199955 0.177147 0.00223528 0.243667 -0.434929 -0.381906 -0.25644 -0.375046 0.0956216 -0.0682548 0.448982 -0.234939 -0.302146 -0.219935 0.0403033 0.413478 0.261587 -0.135148 0.269317 -0.300143 0.0167024 -0.0795527 0.0113007 -0.0395506 0.0536897
69 0.4333 0.0239711 0.458028 0.524491 0.242753 0.819538 -0.154487 -0.187041 0.670949 0.527139 -0.311135 -0.448387 -0.0982442 -0.0661346 0.596184 -1.03123 -0.410145 -0.349634 -0.710222 0.10447 0.269154 0.834592 0.187247 -0.934977 -0.16009 0.768529 0.672947 0.180553 -0.123692 0.233116 -0.594651 0.554828 -0.422936 -0.233233 -0.00103365 0.222614
1901 -0.337346 0.466221 -0.497639 0.520939 0.123453 0.0821634 -0.0192366 -0.062349 -0.0339672 -0.192737 0.477649 -0.0952357 -0.457804 -0.240553 -0.0104378 -0.41936 0.0797143 -0.211198 -0.866855 -0.229294 -0.210781 0.268439 -0.456589 -0.86391 0.310221 -0.617914 0.224137 0.451958 -0.336911 -0.00824411 -0.534793 -0.229514 -0.0471782 0.00669993 -0.16381 0.0980538
1722 -0.631445 0.378386 0.0357443 0.205884 -0.254658 0.385706 -0.220339 0.0677434 -0.401136 -0.0412914 0.404995 -0.144098 -0.462812 0.0171373 0.09702 -0.424712 -0.144257 -0.0793018 -0.3818 -0.3413 -0.265984 0.39738 -0.641249 -0.743366 0.273929 -0.361612 0.233484 0.28893 -0.0511592 0.262396 -0.416705 -0.352506 0.216101 0.0462466 -0.054792 0.185585
1762 -0.229504 0.524013 -0.638629 0.528717 0.545297 0.669222 0.0778283 -0.0542257 0.297725 0.29882 -0.0856201 -0.26741 -0.638045 0.338361 0.575977 -0.268719 -0.563094 -0.282051 -0.209558 -0.163518 0.669126 0.434854 0.0677559 -0.527211 0.37965 0.409514 -0.811479 0.284036 0.479817 0.145843 -0.935824 0.75245 0.312686 -0.560399 -0.57497 -0.253479
2690 -0.199211 0.62896 -0.34661 0.0977419 0.773987 0.446025 0.232128 -0.422681 0.280925 0.168632 -0.144884 -0.204312 -0.429214 0.504099 0.536425 -0.319117 -0.550007 -0.431771 -0.118541 -0.0622371 0.210637 0.504671 -0.177295 -0.244708 -0.0620968 0.192582 -0.563955 0.423682 0.454509 0.341451 -0.589416 0.605056 0.562236 -0.380534 -0.469348 -0.0269328
47 0.567357 0.292315 0.211584 0.46892 0.266786 0.3037 0.138387 -1.12228 0.684607 0.399264 0.779967 -0.0538567 0.588061 0.115637 -0.0809457 -1.20848 -0.840187 -0.070956 -0.601662 -0.529679 0.59979 0.372434 -0.238322 -0.771006 0.253469 -0.627451 -0.211286 0.0295204 0.725662 -0.038754 -0.583644 0.864111 0.612569 -1.0272 0.607297 0.446539
355 -0.0338316 0.130567 0.0480619 0.0723309 0.0609479 0.183011 0.0400116 -0.260915 0.027321 0.18577 0.276751 -0.116524 0.136672 -0.19218 0.0402352 -0.223833 -0.270634 0.0308325 -0.0707852 -0.0319732 0.106063 0.249815 -0.152764 -0.347242 0.0733355 -0.164387 -0.0718245 0.24735 0.155942 0.181417 -0.417006 0.232954 0.0844529 -0.241584 0.0839998 0.0896026
2096 -0.188009 0.363254 0.0341584 0.388337 0.00268511 0.386166 0.0862976 -0.379628 -0.151194 0.322742 -0.187892 -0.151699 0.0717789 -0.267551 -0.0259852 -0.181656 -0.136236 0.0719913 -0.276944 -0.0130574 0.225332 0.624612 -0.320349 -0.650728 0.0863232 -0.195093 -0.139545 0.168168 -0.195429 0.244735 -0.0945925 0.0738573 0.0489293 -0.364472 -0.0138796 0.053444
1916 -0.0408848 0.281968 -0.0788122 0.257182 -0.393843 0.132487 -0.227903 -0.566211 -0.0061064 0.213006 -0.259093 -0.237796 0.0389165 -0.502769 -0.0127115 -0.103586 0.055149 0.386319 -0.300915 0.195593 0.158461 0.464102 -0.13189 -0.84608 0.204821 -0.473392 -0.259626 0.243724 -0.555976 0.291852 -0.0855761 0.295423 -0.105861 -0.0155814 -0.061043 0.265652
4816 -0.143411 0.108631 -0.0616111 0.397241 0.0820549 0.209491 0.283251 -0.484112 0.18712 0.202756 0.149757 -0.0100438 0.0712191 -0.138398 0.191015 -0.370031 -0.310377 -0.0504687 -0.0692173 -0.215539 0.13387 0.748312 -0.181471 -0.594216 0.0192497 -0.386781 -0.0664307 0.324511 -0.163758 0.234496 -0.511636 0.142056 -0.233256 0.0165231 -0.22468 0.0214766
437 -0.0730328 -0.192758 0.219808 0.942194 0.126179 0.0656483 -0.00712476 -1.22646 0.176139 0.120307 -0.0572169 -0.4433 0.477598 -0.308139 0.358942 -0.880632 -0.106478 -0.565379 0.543529 0.0166023 0.613662 1.99539 -0.320786 -1.11077 -0.121415 -0.450739 -0.0363081 0.686443 -1.05646 0.890772 -0.634149 -0.356922 -0.881445 0.940796 -0.529791 0.215721
2771 -0.0760351 0.241054 -0.104374 0.417507 0.0201948 0.0986691 0.0514077 -0.211201 -0.0465428 -0.0593086 0.253385 -0.058276 -0.117876 0.0399146 -0.0457332 -0.429823 -0.126717 -0.051926 -0.272652 -0.243955 -0.00179898 0.367673 -0.128987 -0.58544 0.0741316 -0.475329 0.116912 0.348201 -0.129434 0.177844 -0.549846 -0.0986021 -0.141199 0.128037 -0.0230889 -0.0576832
610 -0.562468 0.496181 -0.696482 0.369095 -0.00998878 0.193058 -0.182767 -0.0901585 -0.109081 -0.275109 0.488758 0.326041 -0.0369748 0.0369273 0.131265 -0.501924 -0.215964 -0.340491 -0.862743 -0.395839 -0.631414 0.548547 -0.793841 -1.20175 -0.261086 -0.937347 0.528573 0.296201 -0.303213 0.333078 -0.527171 -0.489259 -0.199456 0.0693124 -0.0543093 -0.0492829
436 -0.177843 -0.0604182 0.206069 1.47099 -0.743753 0.115282 -0.206075 -0.674163 0.321066 -0.0631158 0.442172 -0.230888 0.603423 -0.064981 0.460642 -0.991978 -0.422864 -0.406048 0.32746 -0.0877578 0.567455 1.43567 -0.245604 -1.0055 0.307365 -0.773974 -0.249464 0.592249 -0.411305 0.842418 -0.70777 -0.286427 -0.93252 0.862699 0.145791 0.604527
3439 -0.184449 -0.2106 -0.126537 0.516703 -0.21531 0.140954 0.203425 -0.240793 -0.0356121 0.209204 -0.179335 -0.124616 0.14315 -0.0834484 0.14572 -0.239397 -0.0792086 -0.107688 0.238924 0.0283978 0.153687 1.00123 -0.342348 -0.50934 -0.0585195 -0.22544 -0.0644833 0.451173 -0.409827 0.357881 -0.182473 -0.120117 -0.199237 0.28586 -0.348695 0.193322
4202 -0.148962 0.418382 -0.166046 0.119371 0.0464733 0.383089 0.159261 -0.565312 -0.0798702 0.181121 0.106521 -0.156719 -0.0302129 -0.079298 0.167316 -0.142237 -0.234528 0.0294328 -0.298862 -0.0763877 0.092597 0.655805 -0.270009 -0.651259 0.0640849 -0.306907 -0.12175 0.33737 -0.220299 0.186095 -0.359953 0.294236 -0.0791991 -0.288547 -0.093069 0.0771597
2446 -0.140544 0.225948 0.136015 0.340255 0.225842 0.340195 0.106365 -0.250017 0.1031 0.227277 0.0245788 -0.145361 0.171655 -0.126046 0.149274 -0.397903 -0.428623 -0.137057 -0.202486 -0.111491 0.13128 0.546327 -0.324498 -0.505428 -0.0237442 -0.0576479 0.0887906 0.25314 0.0875446 0.126652 -0.452096 0.217961 -0.0902298 -0.37131 0.0973476 0.0713537
6 -0.405814 -0.131954 0.0195381 0.845169 -0.0909036 -0.0697807 0.0605299 -0.658125 -0.0205461 0.0903095 -0.278512 -0.125027 0.54879 -0.100943 0.241168 -0.46306 -0.500281 -0.519078 0.251273 -0.0595101 0.197076 1.91869 -0.620378 -0.749961 -0.424569 -0.506324 0.34908 0.721252 -0.655475 0.460831 -0.326818 -0.476427 -0.504576 0.171627 0.0118855 0.349714
806 -0.172997 -0.0403984 0.0383233 0.751927 -0.0280009 0.164001 0.023384 -0.579176 -0.0689951 0.131819 -0.0232211 -0.227231 0.217165 -0.0147048 0.172053 -0.595017 -0.258041 -0.126591 0.213241 -0.362022 0.114168 1.16355 -0.276208 -0.714963 -0.0609692 -0.429474 0.0668404 0.58727 -0.389119 0.481572 -0.362157 0.0172154 -0.459993 0.317547 -0.136412 0.187299
120 -0.400247 0.400256 -0.105167 0.472482 0.189177 0.673063 -0.369571 -0.148651 0.287637 -0.0505514 0.858626 0.103042 0.318409 -0.174723 -0.0496155 -1.2119 -0.381779 -0.320106 -0.728881 0.114742 -0.169804 0.359023 -0.254651 -1.44164 -0.170021 -0.807989 0.907591 0.591301 -0.322557 0.218798 -0.787682 -0.463266 -1.12429 -0.165263 0.361584 -0.232431
1386 -0.328688 0.00467693 -0.110305 -0.350571 0.224363 0.801732 0.286921 -0.2121 0.183628 0.671321 0.0369197 -0.109593 -0.42241 0.779907 0.0159815 0.196137 -0.0694425 -0.0323159 -0.327774 -0.106436 -0.210346 0.577309 -0.431368 -0.381851 -0.494349 -0.821899 0.206989 0.368323 -0.314706 0.14225 -0.39434 -0.00986091 0.379515 -0.4891 -0.767311 0.390894
403 -0.332771 -0.0141398 0.0628589 -0.304876 0.838952 0.516391 0.221638 -0.774976 -0.232867 0.182595 0.678697 -0.438527 0.602379 -0.243167 0.310812 -0.225253 -0.966692 -0.262149 0.234145 0.00254378 0.270384 0.591759 -0.50499 -0.319455 0.272943 0.22499 -0.173808 0.111094 0.445291 0.250608 -0.687872 0.187088 -0.0663662 -0.965695 0.0574022 0.203236
486 0.0939725 1.14215 0.703016 0.625483 0.883877 -0.0845252 -0.101623 -0.765185 0.663732 0.293499 0.162511 -0.458365 -0.171161 -0.171414 0.293575 -0.792478 -0.137534 -0.262979 -0.0681738 -0.078257 0.145325 0.403439 0.224003 -0.833058 0.526196 -0.231849 -0.716841 0.00599047 -0.697964 0.874306 -1.01026 0.278663 -0.243377 -0.890117 1.11806 0.381131
492 -0.462864 0.722945 0.612151 0.231624 0.819865 0.0866305 -0.226912 -1.13368 0.298495 0.449769 0.0148987 -1.00878 0.0153409 -0.288215 0.13129 -0.732969 -0.172342 -0.153264 -0.269827 0.194289 -0.137636 0.512376 -0.00816072 -0.691818 0.909299 -0.472389 -0.701039 0.542277 -0.917997 0.854041 -0.505101 1.11843 -0.665885 -0.967071 0.564735 0.536275
2864 -0.107695 -0.145545 -0.250586 0.265746 -0.0263136 -0.00671188 0.736085 -0.394288 0.180863 0.266315 -0.114896 0.362551 -0.174986 -0.0313991 0.100077 -0.334345 -0.479969 0.154099 0.172684 -0.288932 -0.0239188 0.450036 -0.208352 -0.553701 0.0129043 -0.459741 -0.04366 0.289609 0.0226245 0.140485 -0.838442 0.146942 -0.0755925 0.214074 -0.266633 -0.270014
273 -0.0537385 0.2308 -0.0437234 0.155301 -0.0384292 0.313672 0.230926 -0.305994 -0.0367023 0.227162 0.0196485 -0.107667 0.0212156 0.0792419 0.0572578 -0.149922 -0.194994 0.048716 -0.290054 -0.160922 0.127178 0.4629 -0.0978078 -0.460151 -0.118972 -0.264315 -0.0324677 0.255475 -0.0825123 0.27644 -0.405547 0.264235 -0.132337 -0.199428 -0.0766384 0.110104
188 0.00901393 0.00984449 0.116056 0.391857 0.283713 0.233877 0.251925 -0.197902 -0.296911 0.229103 -0.114085 -0.653859 0.00902621 0.0370491 0.190546 -0.0645863 0.00748745 0.136703 -0.195155 -0.270025 0.162551 0.848 -0.350685 -0.239799 -0.0339119 0.0897014 -0.272957 0.0806868 -0.187974 0.366419 -0.150416 0.0723061 -0.221364 -0.251879 -0.0498863 0.228489
4833 -0.26828 -0.140264 -0.138199 0.437026 0.468052 0.284345 0.203714 -0.151607 0.0551318 0.252479 -0.356775 -0.00137157 0.087932 -0.241552 0.243425 -0.282709 -0.416482 -0.296707 -0.294146 0.0425792 -0.0375364 0.68465 -0.590214 -0.318924 -0.296483 0.00248973 0.247804 0.0282583 -0.26196 0.0831587 -0.373811 0.120169 -0.0369128 -0.142518 -0.443905 0.0625515
2549 -0.140889 0.0608846 0.0418529 0.783818 0.594256 0.848325 0.0927543 -0.180539 -0.492583 0.129306 -1.38743 -0.205788 0.160127 -0.539137 0.693619 -0.490154 -0.160717 -0.60935 -0.0386461 -0.0612895 -0.172155 1.16085 -0.910437 -0.376762 -0.365061 -0.826534 0.092652 0.323864 -0.205211 0.284094 -0.27037 0.219035 -0.336768 -0.0890484 -0.58547 0.822252
2399 -0.354826 0.243233 -0.549551 0.555473 -0.257406 0.550281 0.237195 -0.188779 -0.0484061 0.298724 -0.382332 0.187886 -0.359342 0.487946 -0.0967186 0.306886 0.0900687 -0.149122 -0.378971 -0.441068 -0.0830004 0.864789 -0.569425 -0.951131 -0.195394 -0.766159 -0.473917 -0.288185 -0.0432018 -0.0332709 -0.133514 -0.119263 -0.242916 -0.484455 -0.650826 0.209059
2920 -0.0934783 0.347985 -0.364323 0.24779 0.035039 0.466701 0.0947951 -0.301377 -0.175503 0.184489 -0.274072 -0.136195 -0.280196 0.117974 0.148112 0.0657838 -0.0135272 -0.120212 -0.372886 -0.0390846 0.232772 0.95432 -0.218593 -0.719446 -0.0785226 -0.559978 -0.339626 0.210228 -0.4364 0.0444518 0.200736 0.0498417 -0.17748 -0.453151 -0.352605 0.291153
22 -0.0916148 0.305516 0.472918 0.183141 -0.589769 0.818287 -0.226322 -0.878729 0.364798 0.711289 0.575313 -0.613492 0.306435 0.145932 0.366475 -0.880784 -0.213422 0.339008 -0.489332 0.0797825 -0.346612 0.40149 -0.25652 -1.06711 0.0684438 -1.05698 0.1273 0.383486 -0.737135 0.201581 0.243275 0.365065 -0.30476 -0.635243 0.688245 0.767928
728 -0.511782 0.859572 0.554052 -0.036552 0.628114 0.102618 -0.296316 -0.907195 0.580738 0.474735 0.669088 -0.0392463 0.448315 0.222232 0.458644 0.227605 -0.551356 -0.15218 -0.719972 0.0851322 -0.160455 0.688382 -0.95509 -1.0851 -0.428883 -0.16255 0.231672 0.0868432 0.0578525 0.473374 -0.00501397 0.291525 -0.422143 -0.758434 0.116573 0.103537
1008 0.10342 0.693437 -0.000275344 0.0367099 0.430388 0.63589 0.337729 -0.498573 -0.235156 0.240031 0.030727 -0.43824 -0.0780791 -0.0436716 0.0541719 -0.242991 -0.231973 0.113011 -0.171646 0.0716285 0.0350973 0.272368 -0.249131 -0.382514 -0.127897 -0.277803 -0.139506 0.189792 0.320178 0.153763 -0.722824 0.375826 0.259817 -0.169753 -0.282912 -0.398993
750 -0.0995852 0.705729 0.163855 0.0604925 0.794914 0.692174 0.42847 -0.26389 -0.113442 0.51546 0.163397 -0.51973 -0.295046 0.100962 0.0697308 -0.216944 -0.477822 0.0778014 -0.39292 0.343541 0.0700767 0.130755 -0.308135 -0.768242 -0.191331 -0.211831 0.125647 -0.263865 0.464535 0.12256 -1.16909 0.314395 0.159583 -0.191911 -0.343216 -0.612433
853 -0.0297483 0.433363 0.115786 0.0808129 0.543654 0.387656 0.42974 -0.545502 -0.097715 0.235217 -0.00719878 -0.326023 -0.0767456 -0.0544781 0.0394743 -0.481376 -0.431713 0.210568 -0.242908 -0.0412177 0.0120947 0.274135 -0.219707 -0.475937 -0.123031 -0.326862 -0.13908 0.0922943 0.260128 0.0716396 -0.907698 0.260018 -0.0176938 -0.234833 -0.316388 -0.167343
679 -0.085687 0.449579 0.0342318 0.179604 0.962486 0.659758 0.616793 -0.490428 0.0469608 0.593499 -0.202762 -0.738577 0.348797 0.286684 -0.215424 -0.883518 -0.380926 0.0379447 -0.646123 -0.125097 -0.31009 0.595889 -0.0946963 -0.281968 -0.550707 0.0132216 0.112025 -0.0530246 0.0958083 0.227363 -1.118 -0.0387526 -0.245083 -0.100589 -0.178292 -0.643396
3442 -0.298956 0.168532 -0.108211 0.577432 0.165676 0.287172 0.133155 -0.166529 -0.156539 0.154607 -0.532197 -0.00343745 0.0726773 -0.232717 0.0594582 -0.267468 -0.161269 0.0630102 -0.100902 -0.0429701 0.00501428 0.730635 -0.580145 -0.377944 -0.248913 -0.208531 0.0357346 0.300207 -0.30829 0.25913 -0.0574133 0.0711354 -0.00218109 -0.345097 -0.0907773 -0.0401792
70 -0.00969508 -0.454658 0.0162077 1.008 1.08982 0.651065 0.132734 -0.404177 -0.0932904 1.00693 -0.151815 -0.587306 0.550963 0.0345862 0.403504 -0.872867 -0.629357 -0.215004 -0.620469 0.290898 -0.0371602 1.12046 0.0778229 0.00834724 -0.0830031 -0.457238 0.243005 -0.00933459 0.0805707 0.0650303 -0.262591 0.206476 -0.214498 -0.125495 0.231528 0.257864
3031 -0.169072 0.0986924 -0.0062915 0.36688 0.0527057 0.125508 -0.00994899 -0.162129 -0.0464651 0.0264382 -0.0240367 -0.00423562 0.0215833 0.00193212 0.227956 -0.374555 -0.239937 -0.278276 0.151919 -0.172406 0.167807 0.678894 -0.243745 -0.396144 0.0175493 -0.134901 -0.170154 0.227023 -0.143913 0.1739 -0.0698503 -0.197684 -0.242344 -0.170368 -0.292531 0.185544
119 0.0536944 0.438966 -0.242809 0.398595 0.11305 0.615704 -0.343843 -0.322936 0.33084 -0.0934058 -0.355914 0.283666 -0.198238 0.413589 0.0543754 -1.11153 -0.751754 -1.05611 0.319547 -0.618408 0.0119155 0.923179 0.550351 -0.804611 -0.0183632 -0.239699 -0.0711317 0.372544 -0.17298 -0.196889 -0.410812 -0.410831 -0.384961 -0.428788 -0.0271395 0.0829443
678 0.352709 0.979624 0.278312 0.128375 0.205646 0.931187 0.717048 -0.669519 -0.41509 0.45034 -0.292043 -0.729919 0.548129 0.203624 -0.3096 -0.578399 -0.160031 0.314691 -0.0638658 0.0881844 0.0306203 0.31207 -0.0347163 -0.220984 -0.306387 -0.246349 -0.319855 0.295347 0.240115 0.304308 -0.563109 0.0355435 0.0201107 -0.145729 -0.313141 -0.252389
59 -0.0231907 0.231667 0.468113 -0.109395 0.791028 0.762251 0.0289042 -0.818791 -0.0415276 0.160037 0.314371 -0.461376 0.557172 -0.00946865 0.414169 -0.582702 -1.19473 -0.177497 -0.141146 -0.257393 0.0377654 0.501467 -0.375644 -0.360822 0.134412 0.0573343 -0.351148 0.160042 0.84858 0.160445 -0.887917 0.496725 -0.330806 -0.984724 -0.108208 0.445747
595 0.159708 0.771828 0.0700563 -0.0144402 0.294772 0.512048 0.359829 -0.620554 -0.40766 0.29975 -0.13079 -0.825228 0.115935 -0.14413 -0.501543 -0.585732 -0.283716 0.0966224 -0.383772 0.322505 0.0352116 0.0576529 0.031794 -0.293753 -0.159991 -0.523805 -0.4553 0.27719 0.129128 -0.00100729 -0.889506 0.256873 0.0113557 -0.118236 -0.460559 -0.278781
278 0.245062 0.249151 -0.0501864 0.521319 0.680937 0.106487 -0.347267 -0.503791 0.255186 -0.0182445 0.739242 -0.639963 0.363734 -0.361105 -0.21233 -0.878647 -0.809448 -0.512711 -0.56337 -0.082944 0.311132 0.263974 -0.453674 -0.554947 -0.0499651 -0.324418 -0.228265 0.153418 1.00703 0.290079 -1.06339 0.274924 0.166442 -0.879083 0.288033 0.321615
2854 -0.13582 0.0484836 -0.143001 0.271819 0.0728374 0.110357 0.205457 -0.262232 -0.249002 0.0242662 -0.241521 0.0121932 0.151719 -0.100949 0.0576821 -0.113215 -0.125162 0.0192775 -0.0464828 -0.0547591 0.116624 0.722397 -0.377177 -0.431281 -0.2266 -0.0510403 0.055093 0.203652 -0.305578 0.209403 -0.186306 0.00567876 -0.110982 -0.116699 -0.247176 0.0825917
518 -0.175327 0.0353001 0.577508 1.18043 0.497732 0.610035 0.293734 -0.130744 0.739909 0.814719 0.169383 -0.288329 0.252601 0.215684 0.367869 -1.39149 -0.721949 0.270834 -0.139421 -0.173003 0.296021 0.65761 -0.391601 -0.770963 -0.413782 0.465108 0.794228 0.19407 0.0665317 0.286044 -0.286857 -0.162518 -0.195828 -0.549719 -0.00825068 -6.38117e-05
2327 0.108646 -0.31518 0.181544 0.0310998 0.777966 1.03466 0.5165 -1.07312 -0.576675 0.405913 -0.0048811 0.0993033 0.0340113 -0.876706 0.360022 -0.349455 -0.716252 0.261852 -0.153624 -0.529629 -0.322235 0.717523 -0.632784 -0.218823 -0.0785743 -0.493899 0.273017 0.0761951 -0.301062 -0.172398 -0.0360088 0.443737 -0.440097 -1.3644 -0.0954581 0.607295
4140 -0.00815424 0.336774 -0.0173038 0.107674 0.061375 0.11492 0.0579722 -0.552522 -0.062947 0.148768 0.142613 -0.166917 0.0354005 -0.235751 0.109934 0.105994 -0.23887 0.0572955 -0.252478 0.111869 0.183464 0.448044 -0.0991899 -0.409529 0.080344 -0.146083 -0.154162 0.0209291 -0.0996456 0.0875837 -0.00967069 0.269219 -0.0314206 -0.272622 0.127614 0.0154331
1609 -0.28601 0.688399 0.194096 0.29026 -0.13648 0.356223 0.566039 -1.06081 -0.227495 0.496878 -0.0131876 -0.203998 0.250866 -0.906886 0.135207 0.0424121 0.130595 0.395983 -0.98244 0.478698 -0.0459987 0.863902 -0.0628905 -1.34262 0.0817683 -0.603686 0.036874 0.111728 -0.801994 0.46473 0.515617 0.539508 -0.156451 -0.564606 0.0384039 0.130038
3447 -0.0284509 0.0374917 -0.0615928 0.33388 0.118267 0.102874 0.0902771 -0.145537 0.193634 0.234909 0.0622613 -0.0331967 -0.0306136 -0.104206 0.0698985 -0.370796 -0.203537 0.0139416 -0.191153 -0.121621 0.0802033 0.350349 -0.00782041 -0.446164 0.00464052 -0.197666 0.0620176 0.162479 -0.0237633 0.163353 -0.383686 0.0900002 -0.135815 -0.0165248 -0.15261 0.0827308
700 -0.228448 0.783745 0.506275 0.450978 0.0274367 0.375912 -0.233494 -0.810419 0.261198 0.793677 0.38508 -0.496917 0.202713 0.220306 0.592739 -0.0493318 -0.0389931 0.00566203 -0.661502 -0.227163 -0.0202646 1.21058 -0.476263 -1.1676 0.183292 -0.183479 -0.380397 0.112588 -0.678708 0.609974 0.528344 -0.0128303 -0.612078 -0.42918 0.362071 0.35121
721 -0.0635712 0.401145 0.456839 0.076159 0.157326 0.634103 -0.166832 -0.440343 0.146951 0.864995 0.3721 -0.52676 0.225583 -0.155638 0.000583692 -0.305613 -0.244976 0.218351 -0.84438 0.128977 -0.0947648 0.916122 -0.213617 -1.44948 0.294789 -0.237197 -0.168422 -0.106524 -0.859336 0.0158583 0.195333 0.260463 -0.675971 -0.576408 0.412004 0.223164
1647 -0.163178 0.0473951 -0.0290233 0.276241 0.0563803 0.371528 0.12146 -0.226739 0.0787564 0.256017 0.0968407 -0.255557 0.0236321 0.269866 0.0902189 -0.338153 -0.0939465 -0.202919 -0.269081 -0.0445459 0.118774 0.622006 -0.242816 -0.532257 -0.179158 -0.466796 0.0463595 0.259231 -0.244415 0.326842 -0.362001 -0.00936746 0.0532563 -0.162815 -0.197769 0.354462
1646 -0.607921 0.0368778 -0.0175935 0.528102 0.101282 0.37726 0.118979 0.0731891 0.338447 0.556077 -0.266829 -0.359204 -0.516022 0.129533 0.0296711 -0.10722 0.0169633 -0.507595 -0.150483 0.572004 0.21214 0.835233 -0.640629 -0.549997 0.157248 -0.501381 0.156812 0.658395 -0.483938 0.000626336 -0.438273 0.00915779 -0.0440041 0.163739 -0.21858 0.293806
2739 -0.102026 0.957518 -0.459494 0.294715 -0.184979 0.42043 0.262883 -0.840175 -0.323216 0.254025 0.0995662 -0.435024 -0.273373 -0.399787 0.252735 0.285419 0.107577 0.232185 -0.88746 0.507651 0.371938 1.16256 -0.135274 -1.1262 0.399273 -0.460405 -0.345856 0.477018 -0.661815 0.419246 0.521763 0.294776 -0.051887 -0.370822 0.0988513 0.418776
185 -0.0217211 0.48633 0.216522 0.245555 -0.305196 0.576732 -0.125012 -0.561524 -0.594295 0.592146 0.0854451 -0.852139 0.202671 -0.639026 0.0511969 0.03985 0.119811 0.0246912 -0.659862 0.514854 0.269069 0.916225 0.0508547 -1.15412 0.479463 -0.574076 -0.395641 0.46041 -1.03935 0.130127 0.128124 0.706618 -0.219178 -0.319185 0.0273474 0.460297
3310 -0.887702 0.360982 -0.741786 0.435725 0.153664 0.57019 0.50633 -0.13335 0.0239886 0.1829 -0.422322 0.125358 0.0747879 0.359538 0.365727 0.487396 -0.0537337 -0.435808 -0.0944492 -0.108454 0.0710188 0.671988 -0.911474 -0.465742 -0.317466 -0.400662 0.0659458 0.605426 0.218059 0.512805 -0.157384 0.259381 0.699273 0.127564 -0.22608 -0.0659996
1165 0.261087 0.235706 -0.0289441 0.51141 -0.0389875 0.478757 -0.285199 -0.333563 -0.00856248 0.245173 0.151746 -0.341703 0.0918488 -0.099702 0.0463741 -0.429124 -0.358185 -0.150209 -0.426416 -0.1964 0.406155 0.715415 -0.0341151 -0.58034 -0.0408715 -0.29597 -0.0060015 0.0164355 -0.106027 0.0992945 -0.663516 0.315875 0.0590585 -0.318778 0.184342 0.208479
3889 -0.0127809 0.203608 -0.0721607 0.336071 0.146108 0.358917 0.114644 -0.373424 -0.05809 0.298294 0.0605361 -0.137802 0.0932255 -0.172772 0.079191 -0.399493 -0.29659 -0.140205 -0.320627 -0.114665 0.147968 0.687187 -0.245294 -0.661043 0.00752387 -0.243735 -0.00145774 0.223571 -0.128056 0.203066 -0.522007 0.195936 -0.14876 -0.263154 -0.215966 0.181015
4090 -0.105484 0.48672 -0.133931 0.192835 0.0277381 0.239608 0.126445 -0.317119 -0.159295 0.0486877 0.407057 0.0864608 -0.148631 0.0871732 -0.015501 -0.428909 -0.103326 -0.178701 -0.440489 -0.276148 0.0214056 0.370389 -0.0674329 -0.752448 0.157653 -0.327321 0.0151036 0.268636 -0.216116 0.10855 -0.47538 -0.232397 -0.270502 -0.181264 -0.236858 0.0479439
73 -0.322676 0.82776 -0.41415 -0.175098 -0.486968 0.283826 -0.215236 -0.578478 -0.377223 -0.160088 0.852005 0.549136 -0.483309 0.215752 0.232331 -0.426043 -0.411179 -0.370108 -1.00154 -0.74778 -0.20007 0.793201 -0.0251345 -1.71452 -0.0579234 -0.599962 0.528183 0.279001 -0.614164 0.263547 -0.732067 -0.380384 -0.941833 -0.46521 -0.453973 0.127803
693 -0.500432 0.789018 -0.668907 0.176462 0.0507833 0.0299269 -0.0990538 -0.487743 -0.141267 -0.367999 0.20921 0.489501 -0.519551 0.0400479 -0.100546 -0.28876 -0.255549 -0.227659 -0.762758 -0.446958 -0.298272 0.548614 -0.3376 -0.926082 -0.057201 -0.937094 0.432379 0.636105 -0.0799957 0.028797 -0.485989 -0.158114 -0.283204 -0.15722 -0.245959 0.0604846
4573 -0.119585 0.330475 -0.177338 0.128094 -0.178276 0.33143 0.182832 -0.274762 -0.0060023 0.112212 0.295986 0.0370043 -0.12146 0.0990185 0.0532074 -0.363547 -0.108113 -0.0401592 -0.358576 -0.252822 -0.0990217 0.398316 -0.156162 -0.633004 -0.0438403 -0.462729 0.15468 0.374473 -0.211642 0.179356 -0.429238 -0.0255097 -0.322142 -0.0418093 -0.251827 -0.033646
1957 -0.214377 0.46234 -0.451226 0.162048 0.127719 0.46084 0.039096 -0.124477 0.0996027 0.0518278 -0.117892 -0.00529003 -0.393962 0.528003 0.0340224 -0.0197599 -0.03364 -0.076756 -0.222805 -0.204434 0.183411 0.531673 -0.0894133 -0.379982 -0.0180205 -0.367551 -0.254079 0.342891 -0.0429074 0.0961904 -0.319336 0.131097 -0.0102958 -0.382509 -0.49166 0.122962
4673 -0.0964071 0.304815 -0.0957767 0.0987487 0.570217 0.147824 0.134604 -0.455057 0.19469 0.275157 0.433224 -0.378724 0.0582208 -0.105995 0.0777085 -0.388043 -0.700961 -0.102456 -0.417985 0.0954459 0.273673 0.394187 -0.356841 -0.391338 0.0726788 -0.148372 -0.17814 0.406912 0.39739 0.0639522 -0.906595 0.26947 0.139213 -0.635523 -0.0602227 0.0439919
106 -0.316008 0.570026 0.239606 -0.00777901 -0.279504 0.587596 -0.237216 -0.553324 -0.295191 0.90276 0.953195 -0.850485 0.831962 -0.515402 0.0460112 -0.555944 -0.927352 0.0887049 -0.433041 0.282346 0.0169671 0.925224 -0.356739 -0.650068 0.617221 -0.411322 0.0816487 0.937891 0.413426 -0.287074 -1.01588 0.238732 -0.0917855 -0.810516 1.31985 0.376079
95 -0.228771 0.305524 0.473213 0.077081 0.116941 0.0834848 0.0406695 -0.793481 -0.255713 0.591109 1.11695 -0.566423 0.766615 -0.107886 0.20182 -0.817327 -1.2502 -0.0238663 -0.671301 0.0340384 0.315468 0.870148 -0.207957 -0.540381 0.435196 -0.200868 -0.0269319 0.975867 0.610611 -0.203079 -1.18852 0.380289 -0.0407024 -0.858565 0.759286 0.354431
2346 -0.261807 0.460813 -0.635727 0.0341459 0.317341 0.435258 0.0922204 -0.235619 0.197563 -0.0107581 -0.0743321 0.0044894 -0.226625 0.448654 0.331557 -0.317795 -0.353638 -0.273501 -0.103205 -0.174049 0.128441 0.510609 -0.138931 -0.391156 0.104183 0.050236 -0.50318 0.549309 0.15238 0.133893 -0.44103 0.262778 0.00662366 -0.319259 -0.700672 0.0236441
1024 -0.23507 0.975114 -0.238267 0.46037 0.334567 0.553516 -0.177899 -0.529675 0.724661 -0.0879247 -0.274755 0.00792723 -0.417213 0.546679 0.737538 -0.965871 -0.488976 -0.476046 -0.145698 -0.459325 0.230459 0.56877 0.493414 -0.370768 0.312149 -0.120646 -0.68184 0.894669 0.581951 0.684145 -1.00139 1.16093 0.706474 -0.451322 -0.0202908 0.32256
1054 -0.0240741 0.259647 -0.347745 0.307127 0.183629 0.452493 0.0514259 -0.111835 -0.0784725 0.0997394 -0.129995 -0.0866701 -0.192437 0.223811 0.206712 -0.126861 -0.0724171 -0.107634 -0.323347 -0.217996 0.231224 0.703649 -0.126621 -0.502154 0.124995 -0.129167 -0.162628 0.277494 0.0897273 0.148361 -0.326066 0.286677 -0.0914587 -0.376229 -0.143939 0.180763
204 -0.329445 0.63548 -0.907988 1.11045 -0.206296 1.1072 -0.0929928 0.384031 0.26976 0.213495 0.068527 -0.157932 0.147201 0.780344 0.243259 -0.817515 0.172805 -0.754338 0.43749 -0.575299 0.785989 0.6835 0.791697 -0.859362 0.325365 0.140426 -0.486781 0.851383 -0.0840938 0.389015 -1.04183 0.78238 -0.523199 -0.613647 -0.331971 0.424609
4250 -0.163781 -0.053204 -0.312057 0.338694 0.0632708 0.0731861 0.365635 -0.263744 0.235832 0.114921 0.0155037 0.2174 0.00792255 0.0376485 0.162078 -0.476936 -0.432473 -0.171279 0.129987 -0.244016 0.121042 0.451424 -0.209792 -0.500926 -0.0326302 -0.445704 -0.122476 0.380276 0.204965 0.242949 -0.676949 0.170419 0.00719663 0.0627469 -0.498653 0.075731
1764 -0.284017 0.139851 -0.367897 0.65653 0.320504 1.13516 -0.190566 -0.139006 0.487878 0.645545 -0.153047 -0.0319618 -0.29484 0.560461 0.469618 -1.34677 -0.863461 -0.875349 0.270108 -0.766432 0.209867 0.315323 -0.0640021 -0.50471 0.457893 0.118965 -0.617782 1.15812 0.420458 -0.0854502 -0.75642 0.711685 0.101139 -0.292308 -0.463802 0.433734
4912 -0.215149 0.414896 -0.0749629 0.181935 0.243389 0.0748731 0.135325 -0.334947 -0.11786 0.168781 0.115503 -0.242153 -0.0938514 -0.0431053 0.171548 0.148265 -0.011412 0.0431756 -0.397665 0.202971 0.16215 0.633085 -0.275165 -0.571472 0.065598 -0.142662 -0.10272 0.180868 -0.260095 0.288687 0.120496 0.00804934 -0.154546 -0.334982 0.0740227 0.0478146
1134 -0.285823 0.736675 0.391258 0.230802 0.378991 0.0179433 0.00923286 -0.656402 -0.34523 0.428174 0.540043 -0.642549 -0.200793 -0.353566 0.188493 0.336025 -0.0544668 0.274379 -1.01449 0.15683 0.169619 1.26583 -0.237977 -0.85184 -0.114201 -0.325692 0.117922 0.313152 -0.720537 0.832436 0.177134 -0.0118656 -0.604172 -1.16514 0.391488 0.0994265
4619 0.0661723 0.200318 0.0529074 0.296476 -0.129071 0.151298 -0.0220504 -0.240619 0.115893 0.126413 0.0631381 -0.123439 0.0212689 -0.0244678 0.00177544 -0.148371 -0.143941 -0.0737921 -0.237818 -0.102217 0.160142 0.404216 0.0643075 -0.37722 -0.0812205 -0.184618 -0.0635258 0.0158237 -0.0888929 0.157397 -0.228898 0.237522 -0.155476 -0.158805 0.0966799 0.147989
312 0.352218 0.186021 0.0618566 0.624688 0.563723 0.465247 -0.543144 -0.657928 0.456233 0.54096 0.0154665 -0.442988 0.0406645 -0.0696268 0.190563 -0.624925 0.172344 -0.37064 -0.316619 -1.16385 0.102301 1.17755 0.158859 -0.788815 -0.899489 -0.47685 -0.364383 -0.520685 -1.01407 0.236245 -0.216618 -0.0847358 -0.702092 -0.67749 -0.175697 0.400307
114 -0.228786 0.331272 0.718659 0.00509733 0.623468 0.343285 -0.226468 -0.416621 -0.569565 1.01579 -0.0241177 0.652681 -0.131832 0.0801847 -0.133489 -1.12847 -0.0333106 -0.0575759 0.349794 -0.104704 0.428415 1.05904 0.407089 -0.156734 0.40027 -0.590174 -0.640026 0.643653 0.0324104 -0.373209 -0.0809086 0.11555 -0.775684 -0.853415 0.0299982 0.0239913
2724 -0.417285 0.941302 0.0425062 -0.0681057 0.247262 0.228526 -0.17579 -0.716684 0.251708 0.397082 0.260467 -0.600058 0.167568 0.0268453 0.215177 0.132058 -0.137666 -0.233378 -0.680933 0.396464 -0.252293 0.763573 -0.307889 -0.878266 0.145742 -0.0295237 -0.368234 0.140101 -0.645519 0.283107 -0.152961 0.57351 -0.672132 -0.382706 0.414463 -0.022895
271 0.0150136 0.147238 0.186084 0.163923 0.284028 0.452625 0.927924 -0.493092 -0.920208 0.442239 -0.388243 -0.0981556 -0.016867 -0.0299164 0.280934 0.435937 -0.294422 0.283702 0.0313676 -0.497798 0.296792 0.887839 -0.295568 -0.223841 -0.217204 0.0137707 -0.455386 0.442727 0.0583277 0.509014 -0.576249 0.210002 -0.213775 -0.360757 -0.318023 -0.0389476
1300 -0.538092 0.28813 0.103358 0.221652 -0.342844 0.343401 -0.101918 -0.141731 0.595117 0.560839 0.201403 0.167397 0.441163 -0.169192 0.270174 -0.36486 -0.453961 0.275285 0.0729265 0.148225 0.727324 0.297736 0.0817696 -0.468026 0.257067 -0.028032 -0.242209 0.68318 -0.531237 1.0412 -1.113 0.518702 0.383777 0.506271 -0.318594 0.925034
257 -0.156707 -0.384011 -0.101497 -0.0921328 -0.244066 0.467687 0.67182 -0.175094 0.349137 1.19529 -0.0957922 0.0621698 -0.0995845 0.087735 -0.51259 -0.575861 -0.692043 0.421627 -0.305029 -0.109463 0.634959 0.901699 0.617963 -1.10091 -0.27133 0.0862202 0.00130926 0.332584 -1.2229 0.647287 -1.10427 0.698152 -0.0572364 0.0209096 -0.654976 0.294364
4586 0.0192862 0.176351 0.181597 0.426584 0.236231 0.273911 0.204264 -0.373249 0.116944 0.353621 0.194659 -0.432103 0.0620926 -0.155269 0.0186689 -0.307373 -0.278756 -0.0660269 -0.233394 -0.00498677 0.107231 0.300222 -0.119952 -0.428795 0.056551 -0.249592 -0.300521 0.148927 0.173906 0.453054 -0.383078 0.189925 0.0119258 -0.435957 -0.0393909 0.0623398
576 0.105858 0.423297 0.194992 0.185872 0.590748 0.43899 0.00584632 -0.457808 0.168815 0.335261 0.332376 -0.417512 -0.0949709 -0.285907 0.287691 -0.422825 -0.64359 -0.0502792 0.013635 0.116423 0.297166 0.35647 -0.321286 -0.476441 0.125944 0.152337 -0.339426 0.13814 0.515473 0.157425 -0.673626 0.454475 0.396076 -0.744513 0.0157966 -0.0358439
1018 0.133443 -0.0318962 0.125578 -0.164303 0.506958 0.263197 0.353517 -0.687959 -0.225434 0.289224 0.273738 -0.161613 0.0968782 -0.351307 0.135205 -0.163237 -0.600031 0.177647 -0.192301 -0.254044 0.0695168 0.400793 -0.0582894 -0.303362 0.218388 0.015709 -0.212316 0.229969 0.252589 0.0975435 -0.675238 0.592613 -0.139035 -0.915646 0.184792 0.4974
2518 -0.360533 0.289734 -0.172096 0.451007 0.0938649 0.0979219 0.0609369 -0.119795 -0.0808193 0.0700687 -0.0143359 0.00160749 -0.151175 -0.258334 -0.0657314 -0.307644 -0.337531 -0.0845873 -0.42924 -0.163938 -0.146394 0.458291 -0.582201 -0.496563 -0.0282075 -0.390928 0.392294 0.264426 -0.301879 -0.0164403 -0.436027 -0.138387 0.112921 -0.0288886 0.0381437 -0.163114
160 0.169214 0.239151 -0.155596 1.22142 -0.791462 0.337591 -0.231935 -0.0793856 0.340386 0.698966 0.265352 -0.482389 0.231929 -0.764951 -0.519477 -1.01545 -1.10964 -0.0832416 -0.148825 -0.490867 -0.0708958 0.70971 -0.379632 -0.503541 -0.175975 -0.0189373 0.181433 0.457819 -0.166518 -0.568667 -1.1004 0.209584 0.266386 -0.42528 0.49741 -0.0987715
2136 -0.212851 0.204098 -0.150663 0.217992 -0.0625489 0.254069 0.307253 -0.192399 0.107058 0.153565 0.0500369 -0.0708721 -0.154794 -0.0288646 0.108291 -0.445404 -0.236363 0.0407093 -0.0793625 -0.0180112 -0.0825405 0.397197 -0.394976 -0.556647 0.000664261 -0.517321 0.172042 0.489092 0.0857479 0.423449 -0.706325 0.227148 0.119443 0.289086 -0.309827 0.0411513
10 0.151392 -0.0960566 -0.0486973 0.402737 -0.718622 0.239543 1.28286 -0.564531 -0.252178 0.0459419 -0.44319 -0.528994 -0.0522408 0.30772 -0.0932797 -0.375884 -0.288225 0.313044 -0.326177 0.0444482 -0.223227 0.677681 -0.831879 -1.07023 -0.237375 -0.973782 0.0610432 0.114681 -0.362563 0.444079 -1.30782 0.448384 -0.607032 0.793515 -0.192724 0.219796
3635 -0.0688121 0.0792352 -0.131681 0.212213 -0.10125 0.111049 0.120264 -0.148039 0.0162603 0.0531063 0.100948 0.0104319 0.112177 -0.0186165 0.0428041 -0.333471 -0.139971 -0.0408993 -0.227136 -0.158992 -0.0661104 0.314783 -0.260397 -0.552138 -0.0435049 -0.32259 0.108323 0.223897 -0.051128 0.197005 -0.300012 -0.0402626 -0.147186 -0.0547839 0.0963762 0.198507
1519 -0.0808611 0.0307083 -0.192886 0.644942 -0.0650953 0.116692 0.661383 -0.374635 0.13189 0.335992 0.141559 0.211347 0.0145873 -0.220962 0.188192 -0.559633 -0.441266 0.0595157 -0.239237 -0.315544 0.130782 0.691255 -0.314399 -0.866176 0.135086 -0.544095 -0.0712092 0.455081 0.0357679 0.253176 -0.771433 0.126475 -0.133993 0.0211019 -0.5035 0.0790971
1292 -0.481765 1.06532 0.159214 -0.263295 0.476117 0.125487 -0.113183 -0.772061 0.136502 0.0444805 0.0656845 -0.711238 -0.220429 0.166878 0.208602 -0.135454 0.163523 -0.163363 -0.559774 0.34156 -0.082686 0.477666 -0.0052999 -0.749269 0.417056 -0.191627 -0.749473 0.714015 -0.86048 0.621026 -0.419471 0.701432 -0.747588 -0.516749 0.142879 0.260694
1051 0.0125745 0.21124 -0.0764934 0.162694 0.292184 0.293976 -0.195251 -0.379756 0.380536 0.179822 0.417714 -0.24751 0.112291 -0.267472 0.0720682 -0.560325 -0.412483 -0.391409 -0.149322 0.0152045 0.295949 0.459985 -0.127153 -0.522686 0.215651 -0.168931 -0.39618 0.42322 0.295217 0.187311 -0.700433 0.397434 0.533718 -0.754653 0.362531 0.293646
142 0.178097 0.5104 0.668637 0.125941 0.94456 0.712602 0.361729 -0.83274 -0.350118 0.254043 0.432694 -0.323178 0.623407 -0.465147 0.629644 -0.849057 -0.837818 -0.276114 0.127598 -0.397447 0.0793651 0.0772017 -0.6295 -0.643085 0.671435 0.0172721 -0.0542729 0.892083 0.37001 0.606204 -0.254854 0.767336 -0.257299 -1.49567 0.230526 0.399087
2537 -0.0109693 0.102279 -0.033959 0.246337 0.13498 0.142479 0.167079 -0.286258 -0.0705288 0.12232 -0.0437138 -0.164109 0.200941 -0.181996 0.00458456 -0.336332 -0.254072 -0.0422146 -0.0850749 -0.116562 0.0987965 0.553709 -0.228616 -0.440177 -0.0696938 -0.116169 -0.0579134 0.181291 0.0308215 0.10625 -0.292833 0.100803 -0.0151833 -0.227257 -0.0405118 0.122197
4011 -0.0941746 0.119221 0.0139881 0.00414982 0.303231 0.29501 -0.00721262 -0.361021 0.190012 0.174617 0.279307 -0.205797 0.030041 -0.135332 0.114481 -0.37024 -0.491481 -0.0115652 -0.0631874 -0.0902716 0.107028 0.265355 -0.260327 -0.347455 0.0778534 -0.164372 -0.173249 0.2678 0.299053 0.128414 -0.564073 0.215978 0.101009 -0.476153 -0.110441 0.0622478
370 0.156033 0.691103 0.660537 0.232145 0.84423 1.6248 0.229574 -0.21275 -0.485286 0.502404 -0.338627 -1.14108 0.0248104 -0.16371 -0.114182 -0.737578 -0.52262 0.269692 -0.265526 0.760352 0.157082 0.0296401 -0.302659 -1.15777 0.0647638 -0.432023 -0.277043 0.213784 0.00471037 -0.0287961 -0.897983 0.380514 -0.0390114 -0.518424 -0.0669697 -0.147971
408 0.365168 0.89806 0.166288 0.276003 0.344116 0.859732 0.13685 -0.662465 -0.69623 0.0645009 -0.258595 -0.862088 0.215914 -0.0209959 -0.475018 -0.628596 0.149847 0.277604 -0.558954 -0.428584 0.0588125 0.146824 0.143304 -0.118215 0.1946 -0.476118 -0.719816 0.560147 0.326672 0.0383818 -1.10962 0.385171 -0.129072 -0.109261 -0.102291 -0.0753308
3120 -0.222093 0.396108 -0.248221 0.344458 0.188557 0.373864 0.106434 -0.352079 0.0861767 0.167286 0.0698848 -0.200722 -0.101484 -0.0543488 0.210289 -0.385557 -0.304114 -0.143392 -0.230665 -0.0576989 0.232098 0.544133 -0.271305 -0.641219 0.162947 -0.3096 -0.244731 0.49635 0.039644 0.354315 -0.66215 0.285818 0.111357 -0.179029 -0.324907 0.229079
3121 -0.126045 0.329184 -0.178128 0.328976 -0.0267809 0.533077 0.0367251 -0.187352 0.185427 0.374564 0.0579199 -0.00145178 -0.0128562 0.178699 0.229748 -0.438331 -0.4183 -0.210789 -0.18929 -0.263125 0.166068 0.385897 -0.0739019 -0.5474 0.180707 -0.105951 -0.383021 0.464421 0.100092 0.158389 -0.377347 0.312279 -0.0273143 -0.259229 -0.472443 0.257302
2871 0.0297424 0.274403 -0.31791 0.470166 0.192607 0.330927 0.134452 -0.33002 -0.29919 0.272232 0.233061 -0.40572 -0.0844427 0.0892906 0.229791 -0.0460499 -0.27994 -0.00182618 -0.355528 0.158538 0.470384 0.796935 -0.318648 -0.557937 0.019687 -0.136075 -0.198937 0.180928 0.13664 0.418329 -0.521146 0.142536 -0.0206585 -0.434183 -0.139608 0.268661
2870 -0.0906065 0.328326 0.00793271 0.524434 0.123808 0.359095 0.103053 -0.382652 0.00155611 0.223823 -0.114234 -0.236862 0.0650017 -0.153159 0.14496 -0.284548 -0.377848 0.117286 -0.2646 -0.220236 0.218293 0.633771 -0.201381 -0.412578 -0.0143877 -0.173195 -0.238587 0.220294 0.0950242 0.230999 -0.240126 0.242165 -0.0666127 -0.467448 -0.20245 0.209389
1724 -0.150687 0.519653 -0.0806717 0.151998 0.0842702 0.286853 0.173892 -0.56156 -0.3242 0.164535 -0.0288616 -0.278683 -0.033725 -0.121014 0.174905 0.00386791 -0.027082 0.141184 -0.288047 0.0400087 0.161364 0.721989 -0.153162 -0.605899 0.172666 -0.331128 -0.252027 0.185023 -0.34081 0.242917 0.242889 0.154412 -0.153921 -0.526309 0.137549 0.277007
18 0.465685 0.211411 0.322316 0.542473 -0.526995 0.690707 -0.0692711 -0.248157 0.281844 0.861034 0.401435 0.666326 0.686192 -0.505688 0.294611 -0.514508 -0.704748 0.148673 -0.320516 -0.80526 0.26972 0.774496 0.507037 -0.97827 0.168527 0.122084 0.0109701 0.397392 -0.78148 0.343017 -0.906778 0.0735697 0.289969 -0.115441 -0.114489 1.03448
837 -0.518944 0.618466 -1.02815 0.360937 0.0388154 0.866073 0.84382 -0.338722 0.167804 0.21382 -0.137732 0.00566633 0.0980501 0.201154 0.325952 0.794382 -0.250844 -0.0651042 -0.208065 0.0783357 0.231489 1.05726 -0.754976 -0.632153 -0.547902 -0.533329 0.256029 0.543636 0.361313 0.587704 0.400335 0.321846 0.523371 -0.326947 -0.199394 -0.0780063
1843 -0.170126 0.4463 -0.293623 0.208553 0.0710014 0.131363 0.0978092 -0.58056 -0.111034 0.263763 0.230018 -0.501219 -0.14487 -0.137586 -0.14781 0.205647 0.161011 0.104381 -0.513518 0.321057 0.275386 0.828977 -0.258989 -0.6502 0.180712 -0.373261 -0.219652 0.410512 -0.624264 0.3895 0.408853 -0.0356102 -0.196703 -0.305626 0.00656185 0.149837
25 0.325079 0.846606 0.594089 0.189605 0.468886 -0.0557972 -0.124139 -0.417948 0.655703 0.0273876 0.625483 -0.675036 0.149112 -0.224618 -0.0218509 -1.0617 -0.237825 -0.312126 -0.763659 0.274897 0.0440091 0.467702 -0.721331 -1.58933 0.385262 -0.0121291 -0.685689 0.467921 -0.224045 0.270448 0.316021 0.0436816 -0.783359 -0.686062 0.747506 0.649664
1772 0.267874 -0.233672 0.118768 0.532565 0.226207 0.335075 0.110234 -0.225394 -0.545623 0.240593 -0.0879181 -0.285873 0.203201 -0.510006 -0.111436 -0.60111 -0.251133 -0.185464 -0.315775 -0.558972 0.136707 0.755478 -0.510723 -0.429469 0.268699 0.065319 0.0596644 0.28761 -0.075261 -0.0586916 -0.60402 0.428886 -0.013595 -0.277605 0.0944407 0.108107
515 0.035785 0.1804 -0.0604332 0.472928 0.154469 0.274969 0.0884578 -0.17921 0.0925781 0.31123 0.0603682 -0.168042 -0.0500441 -0.0332086 0.0551465 -0.410404 -0.0620615 -0.138268 -0.310507 -0.199373 0.192705 0.712602 -0.14056 -0.706177 -0.0113007 -0.326993 -0.259496 0.0383994 -0.201087 0.216091 -0.288325 -0.0726269 -0.0973719 -0.252996 -0.2179 0.304975
388 -0.465212 0.492687 -0.619639 0.872114 0.170438 1.08646 0.408681 -0.239028 0.551232 0.364202 -0.380925 -0.0493453 0.449646 0.435091 0.306367 -0.101209 -0.0655505 -0.53844 -0.251666 -0.399387 -0.122527 0.48697 -0.860186 -0.940063 -0.242572 -0.456011 -0.0731757 0.173765 0.817726 0.58434 0.0745297 0.549194 0.663462 0.214242 0.397508 -0.00694895
46 0.0235715 0.16302 0.156548 0.0518537 0.0229307 0.460732 -0.528134 -0.576746 0.402475 0.62542 0.988145 -0.115861 0.345517 0.117586 -0.132156 -0.707319 -0.253479 0.344813 -0.106691 -0.0727196 0.850969 0.573892 -0.0815603 -0.28848 -0.278038 -0.55496 -0.267571 1.1804 0.330246 0.352708 -1.42716 0.191235 0.0130674 -0.811079 0.830707 0.470128
3816 -0.111969 -0.0851627 -0.0213046 0.446064 0.0138418 0.224304 0.308215 -0.314291 0.312169 0.331959 0.128615 0.213762 0.153014 -0.382882 -0.0724916 -0.482253 -0.684143 0.0448548 -0.128684 -0.292179 0.113367 0.551192 -0.198726 -0.523878 0.166179 -0.198971 0.104273 0.0942457 0.0440664 -0.137932 -0.420821 0.0910567 -0.0395314 -0.231832 -0.245171 -0.0131086
4663 0.0415141 -0.135995 0.0230481 0.435832 -0.186888 0.0929762 0.0616135 -0.314786 0.298257 0.383348 -0.0195972 0.154313 0.194151 -0.358873 -0.0903223 -0.559336 -0.566171 -0.107989 0.0740356 -0.254935 0.046936 0.362776 -0.0027505 -0.496716 0.0770709 -0.197128 0.0573126 0.0863631 -0.253251 0.0710746 -0.56834 -0.0368631 -0.00860469 0.0338138 -0.050133 0.0721835
2127 -0.21373 0.255466 -0.286241 0.425083 0.0809827 0.171998 0.0524768 -0.420259 -0.0264076 0.0129708 -0.0990805 -0.288025 0.000213174 -0.313509 -0.117486 -0.349055 -0.424073 -0.0756752 -0.139775 0.0263126 0.23821 0.646073 -0.32124 -0.522834 0.263124 -0.148013 -0.165833 0.384999 -0.0916296 0.00441352 -0.423657 0.306919 0.146516 -0.343492 4.13174e-05 0.082795
577 0.412017 0.119278 0.0575881 0.517408 0.310071 0.238745 -0.245122 -0.449242 0.242995 0.566 0.397168 -0.292512 0.193958 -0.673987 -0.443474 -0.615878 -0.64438 -0.108703 -0.349781 -0.0539692 0.375018 0.0356285 0.236434 -0.449906 -0.0663856 -0.0842511 -0.0384951 0.756332 0.562663 0.37108 -1.41873 0.3658 0.430575 -0.624892 0.405046 0.385644
3989 -0.0596514 0.169392 0.0241523 0.331144 -0.04327 0.0838895 -0.0242411 -0.23115 0.0340969 0.209422 -0.0617334 -0.129707 0.150978 -0.195709 -0.0253562 -0.259789 -0.332825 0.0206142 -0.145186 -0.0424032 0.0622562 0.456886 -0.166264 -0.361479 0.0422496 -0.0985031 0.026529 0.239004 -0.00845729 0.0256006 -0.14479 0.100644 -0.100865 -0.255853 0.171833 0.142792
1255 0.0496483 0.296877 0.00948386 0.606211 0.109005 0.203222 0.14164 -0.147505 -0.161273 0.236876 -0.0944743 -0.257199 0.0570577 -0.226307 0.0526612 -0.465016 -0.231615 -0.0975079 -0.210973 -0.130062 0.33682 0.718888 -0.296561 -0.732316 0.162446 -0.131984 -0.369835 0.112331 -0.0402426 0.238157 -0.0710889 -0.0151493 -0.0486612 -0.53659 -0.0265791 0.31763
434 -0.100799 0.0874841 0.235815 0.728017 -0.360171 0.315823 -0.198571 -0.772719 0.283499 0.0457011 -0.353913 0.267644 0.344142 0.0518288 0.405012 -0.903878 -0.0639642 -0.404671 0.624124 -0.225481 0.533004 1.29835 -0.176443 -0.989995 -0.124233 -0.360044 -0.365254 0.576642 -0.937603 0.83346 -0.382466 -0.280682 -1.03461 0.309278 -0.105052 0.478713
168 0.0689839 0.265786 0.425003 1.34656 -1.01904 0.797455 -0.0501199 -0.217982 -0.310531 0.216288 -0.672029 -0.192471 0.314062 -0.463388 -0.254068 -1.27771 -0.239415 0.51061 0.0342031 -0.786434 0.591722 0.594389 -0.125259 -0.886142 0.136621 -0.751848 -0.811257 0.10624 0.0847559 0.737912 -0.0687327 0.120471 -0.0268855 -0.764281 0.225895 0.552218
1341 0.450956 1.11614 0.0793901 0.124218 -0.0321352 0.991966 0.360383 -0.854221 -0.932264 0.303674 -0.265236 -0.941442 0.120947 0.114479 -0.172847 -0.569316 -0.234282 0.157447 -0.0746408 -0.216854 0.366449 0.442215 0.290153 -0.230642 0.0634953 -0.302741 -1.06293 0.800673 0.319343 0.183017 -1.07298 0.723048 0.170767 -0.442412 -0.138613 0.10117
3389 -0.257413 0.0496037 -0.194729 0.0941193 0.0398526 0.143078 0.514329 -0.172989 0.194729 0.400435 0.0459807 0.313966 -0.109952 0.0119768 0.0853231 -0.182012 -0.318663 0.154247 -0.193094 -0.183593 0.140131 0.490689 0.00960408 -0.509759 -0.202546 -0.28357 0.0837381 0.250387 -0.459331 0.32676 -0.629064 0.111172 0.147201 0.115189 -0.588529 -0.0291504
965 -0.690468 0.197726 -0.172602 0.486122 0.361293 -0.193245 0.76921 -0.0419723 0.338575 0.572204 0.0361841 0.648286 -0.390329 -0.0720941 0.408057 -0.415236 -0.454397 0.190153 -0.367121 -0.308628 0.0139372 0.252507 -0.375445 -0.850682 -0.162625 -0.552867 0.205336 0.257706 -0.428772 0.481256 -0.934954 -0.224776 0.382847 0.342234 -0.729767 -0.0136346
4778 -0.11676 0.0793356 -0.00607017 0.397898 -0.0487775 0.0872326 0.0982706 -0.287836 0.0841957 0.178016 -0.0610387 0.0174321 0.169954 0.0654121 0.0160825 -0.342383 -0.297903 -0.0712741 -0.143403 -0.193378 0.0466689 0.590691 -0.15055 -0.502527 -0.158885 -0.225577 -0.00762191 0.246578 -0.105453 0.32425 -0.380724 0.00777219 -0.242297 -0.118849 -0.0325221 0.197546
