5003 36
4261 0.109918 0.161163 0.253559 0.217562 0.0450293 0.114254 -0.0388481 0.0569484 0.0740964 -0.168963 -0.451718 0.113946 0.096136 -0.200413 0.0798649 -0.371766 0.0918575 0.180617 0.226221 -0.116511 -0.0590166 -0.0156233 -0.0491706 0.103311 0.0218169 -0.065989 0.0413644 -0.362887 0.303741 -0.166924 0.200913 -0.0702881 0.263202 0.152146 -0.104305 -0.0300709
1734 0.230903 0.338171 0.348266 0.334217 0.075212 0.307693 0.0290737 0.0555865 0.044316 -0.135962 -0.704199 0.172925 -0.0527512 -0.551483 0.315662 -0.479784 -0.0094736 0.454196 0.597886 -0.322072 0.109368 -0.0481336 0.029051 0.15143 0.0358473 0.0622187 -0.225818 -0.617298 0.618129 -0.458966 0.177405 -0.0485724 0.417615 0.0773791 -0.291506 -0.16169
1 -0.0603996 -0.389166 0.794252 -0.0890363 0.20773 0.923625 0.547176 0.768953 -0.384973 -0.581578 -0.811815 -0.707311 0.110672 -0.111505 0.123228 0.0676416 0.255278 0.59278 0.358875 -1.22413 -0.0686752 0.932435 -0.140203 0.0789498 -0.231932 0.141937 -0.309685 -0.658511 0.443367 0.069795 -0.239924 -0.403525 0.758628 -0.0214332 0.682308 -0.530362
123 0.0729287 0.355741 0.505869 0.277113 0.0488658 0.556389 -0.0507046 0.193498 -0.208685 -0.264796 -0.716165 0.0440472 -0.0262397 -0.66648 0.408652 -0.374039 -0.118534 0.597963 0.566389 -0.498579 -0.0180036 -0.283765 -0.155269 0.155911 0.150676 -0.0239934 0.0590242 -0.656782 0.762714 -0.281491 0.294333 0.139153 0.322958 0.0790534 -0.256951 -0.00611204
71 -0.15237 0.188339 0.662688 0.184271 -0.00140262 0.924333 0.27915 0.517524 -0.231159 -0.365134 -0.533558 -0.334279 0.0759116 -0.733362 0.520064 -0.0699033 -0.103246 0.796238 0.706397 -0.966398 0.276414 0.0365047 0.10376 0.19663 0.225254 -0.14889 -0.304841 -0.883811 0.967863 -0.0714627 0.0921087 0.0433077 0.595102 0.0593436 0.0295496 -0.0816336
4480 0.0980259 0.188982 0.321804 0.205258 0.0604668 0.15041 -0.0278377 0.0563204 0.0778655 -0.192835 -0.503145 0.134565 0.0695101 -0.223624 0.162738 -0.363517 0.0841101 0.273058 0.277677 -0.164321 -0.0913427 -0.054502 -0.0831687 0.121433 0.0201626 -0.116729 0.0591036 -0.403987 0.380291 -0.139641 0.206175 0.0148753 0.292906 0.120797 -0.128815 -0.0171419
1825 0.179461 0.239913 0.3257 0.286505 0.0151935 0.209744 0.00401693 0.122998 0.0778492 -0.20659 -0.606804 0.123212 -0.011462 -0.355856 0.218135 -0.431142 0.0914931 0.29951 0.407872 -0.274207 0.0515532 -0.0295324 0.00640124 0.175709 -0.0160581 -0.0401149 -0.13588 -0.627264 0.529779 -0.290465 0.179855 -0.0046681 0.318926 0.0661387 -0.298758 -0.0868376
960 0.223071 0.190355 0.390362 0.211341 0.11815 0.105075 0.0696975 0.179198 0.150555 -0.247652 -0.540285 0.00138008 0.130738 -0.283427 0.257001 -0.367862 0.131519 0.223928 0.35064 -0.252564 -0.00816373 -0.00563021 0.0148187 0.144224 -0.0885128 -0.0807028 -0.0653033 -0.532481 0.402187 -0.327665 0.316733 0.0750118 0.468486 0.0997556 -0.174842 -0.142132
3950 -0.197862 -0.0265663 0.229758 0.440181 -0.149689 0.25692 0.000463334 0.182311 0.0893939 0.040937 -0.250711 0.0379238 0.354088 -0.156375 -0.292127 -0.650792 0.174582 -0.0703658 -0.111492 -0.154787 -0.116907 0.169712 -0.0414126 -0.0587541 -0.034615 -0.00908937 0.0234317 -0.427688 0.285487 -0.130735 0.00866218 -0.234 0.152629 0.325819 0.0789846 0.186031
1315 -0.237378 -0.20243 0.223362 0.639555 -0.435505 0.196384 0.0403684 0.105349 0.33894 0.0651534 -0.426237 0.1687 0.553306 -0.125151 -0.704315 -1.07379 0.356266 -0.251059 -0.29667 -0.0530619 -0.0122567 0.423964 0.031953 -0.114706 -0.0394354 0.0657622 -0.272712 -0.836102 0.449912 -0.441337 -0.0669966 -0.214354 0.191214 0.294222 -0.0732145 0.432943
1313 -0.224865 -0.0922891 0.316567 0.701226 -0.320885 0.163009 0.0453487 0.169088 0.24601 -0.0781341 -0.363517 0.175179 0.411856 -0.197749 -0.509499 -0.982837 0.288683 -0.215672 -0.280894 -0.223643 0.0377941 0.281383 0.00762438 0.0209966 -0.130469 -0.00957544 -0.244349 -0.8149 0.471238 -0.319373 -0.0170132 -0.134459 0.14076 0.233595 -0.0899052 0.307003
52 -0.205972 -0.376641 0.23736 0.135065 -0.201601 0.748939 0.230222 0.712634 -0.047703 -0.127836 -0.855822 -0.621066 0.644777 0.0404083 -0.430281 -0.324591 0.386404 0.396509 0.0464108 -0.212364 -0.15703 0.707823 0.0243196 -0.262146 0.137472 0.205135 -0.0620642 -0.383719 0.296522 -0.222275 -0.280402 -0.960598 0.503331 0.541911 0.626398 0.148807
150 0.104196 -0.0961185 0.111421 -0.0507743 0.0874453 0.568593 0.273188 0.643116 0.278297 0.148823 -0.247862 -0.299154 0.885935 0.00637648 -0.243013 -0.504049 0.332367 0.0359355 0.186558 -0.0628377 -0.322114 0.465884 0.215894 -0.453896 0.218369 -0.157941 0.216877 -0.392224 0.125766 -0.132321 0.19748 -0.695254 0.557924 0.755427 0.224175 0.026233
1053 0.0960945 -0.000614924 0.156727 0.0484451 0.106936 0.429417 0.118686 0.542139 0.129162 0.00795793 -0.0846384 -0.36787 0.562868 -0.163708 -0.119297 -0.565146 0.273586 -0.183496 0.0867575 -0.132727 -0.153608 0.233007 0.125614 -0.307517 0.0869397 0.015197 0.207546 -0.423668 0.143079 -0.352093 0.304509 -0.467972 0.366005 0.53439 0.122075 0.00638169
67 0.357517 -0.155655 0.630611 -0.137149 0.244162 0.0648952 0.0473627 0.467636 0.322432 -0.710514 -0.705341 0.0845855 0.573152 0.153048 0.516372 -0.145368 0.33623 0.258088 0.236572 -0.611783 -0.195315 0.357927 -0.170616 0.194804 -0.233884 -0.598729 0.0726258 -0.670589 0.249803 -0.279869 0.349097 0.307009 0.910809 0.0748754 0.109244 -0.283992
66 0.10765 -0.465168 0.760198 -0.256965 0.233296 0.341846 0.0860736 0.690733 0.301299 -0.888726 -0.713671 0.0886764 0.815162 0.107525 0.410123 -0.000577669 0.272003 0.33236 0.206335 -0.952652 -0.166821 0.401351 -0.213605 0.0964989 -0.185596 -0.653055 -0.0558284 -0.798776 0.264304 -0.167891 0.189448 0.560419 0.961317 0.118366 0.428783 -0.135779
2352 0.0502485 0.204643 0.301325 0.26286 0.031321 0.140774 -0.0932864 0.0478108 0.0771471 -0.190562 -0.499537 0.179269 0.101602 -0.206127 0.0952104 -0.454553 0.0871712 0.230678 0.226522 -0.114534 -0.111578 -0.0430493 -0.0876879 0.106962 0.0127102 -0.137595 0.0926333 -0.40373 0.340733 -0.124106 0.16726 -0.056754 0.236672 0.152059 -0.111639 0.0120717
193 0.104946 0.30326 0.459076 0.270356 0.0805858 0.372936 -0.138599 0.14013 -0.0802054 -0.244593 -0.657354 0.144646 0.00265943 -0.555965 0.464504 -0.543991 -0.0880756 0.58542 0.577619 -0.33881 -0.00359202 -0.286912 -0.112287 0.174024 0.126717 -0.0279798 0.00769686 -0.569277 0.689689 -0.334416 0.271568 0.228798 0.363579 0.0446307 -0.272272 0.0502198
2 -0.0350993 -0.275126 0.693706 0.0211518 0.100527 0.910136 0.53162 0.95749 -0.412722 -0.591811 -0.85085 -0.786625 -0.0317645 -0.241315 -0.064982 0.286572 0.364668 0.413203 0.393415 -1.30309 0.0615862 0.860158 -0.303162 0.106695 -0.309663 0.357847 -0.135645 -0.674563 0.596707 0.0307305 -0.314165 -0.309834 0.816775 0.00347866 0.674629 -0.414569
211 -0.186864 -0.409968 0.101535 0.706687 -0.410241 0.296307 0.279084 0.484571 0.499237 -0.114772 -0.307427 0.0162654 0.891542 -0.0412462 -0.667037 -1.1089 0.46161 -0.0556088 -0.298349 0.000942848 0.193902 0.550039 0.0667774 -0.361975 -0.0694218 0.00861574 -0.297634 -0.88987 0.329134 -0.477303 -0.0871874 -0.192584 0.321201 0.44034 -0.244718 0.436629
53 -0.0783391 -0.354785 0.249924 0.0649681 -0.262962 0.739467 0.250474 0.697725 0.0049094 -0.0914888 -0.790402 -0.610312 0.63476 0.00834553 -0.45043 -0.330687 0.414901 0.259647 -0.0492439 -0.134161 -0.254747 0.725305 0.0436179 -0.409836 0.0735877 0.169237 -0.0686577 -0.439656 0.355487 -0.245382 -0.23994 -0.936804 0.564723 0.460788 0.613053 0.227243
591 -0.271207 -0.151624 0.267776 0.554119 -0.2449 0.273278 0.0126797 0.261853 0.172967 -0.0812355 -0.341302 0.15995 0.515396 -0.0887831 -0.378707 -0.875589 0.217546 -0.0771138 -0.279803 -0.192265 -0.0553866 0.197039 -0.0207543 -0.0672925 -0.0180192 -0.120627 -0.144682 -0.718331 0.40298 -0.182511 -0.0535512 -0.103076 0.100825 0.23388 -0.0121849 0.363768
645 -0.30051 -0.132897 0.195486 0.693192 -0.319309 0.35853 0.117587 0.329388 0.198179 0.139257 -0.291125 0.061645 0.651772 -0.173919 -0.594962 -1.1012 0.304033 -0.260376 -0.282018 -0.117606 -0.057636 0.283931 0.0606664 -0.1877 -0.0156878 0.0511281 -0.14231 -0.718071 0.411443 -0.308382 -0.00843237 -0.383093 0.135496 0.520681 -0.0371471 0.391172
210 -0.128975 -0.437634 0.168061 0.62559 -0.467763 0.245702 0.240751 0.378447 0.336127 -0.0545631 -0.359793 -0.00525094 0.911407 -0.114757 -0.863083 -1.01584 0.458239 -0.154012 -0.306685 0.0232481 0.176968 0.546131 -0.03466 -0.282319 -0.0621021 0.0397374 -0.319888 -0.908898 0.288192 -0.457701 0.0219506 -0.151305 0.300977 0.424794 -0.309572 0.447366
3131 -0.197537 -0.0203927 0.224617 0.47963 -0.173721 0.267425 0.0212032 0.244337 0.170498 -0.00569884 -0.231924 0.0644798 0.438251 -0.184981 -0.340956 -0.709458 0.188975 -0.0799284 -0.106971 -0.178046 -0.0766561 0.182173 -0.000908454 -0.0511936 -0.0130223 -0.0827942 -0.00777682 -0.498492 0.316496 -0.153297 0.0176298 -0.229907 0.162951 0.3633 0.027483 0.221591
3134 -0.20129 -0.0120538 0.214139 0.425626 -0.134249 0.216278 0.0258904 0.13506 0.0951513 -0.00514179 -0.246991 0.0890009 0.349803 -0.156613 -0.288578 -0.638576 0.153028 -0.0461684 -0.11049 -0.128537 -0.0845452 0.145461 -0.0496494 -0.058453 -0.0178928 -0.0473625 0.00134923 -0.409217 0.27774 -0.121863 0.0359664 -0.184325 0.118818 0.313606 0.0560137 0.197669
358 -0.241958 -0.0673447 0.297796 0.653891 -0.260081 0.203717 0.0786137 0.291636 0.211775 0.00395211 -0.243675 0.0745687 0.440811 -0.178227 -0.513566 -0.99703 0.298374 -0.236469 -0.246856 -0.236515 0.0203962 0.286027 0.0573391 0.0114376 -0.121766 0.0296847 -0.256896 -0.755107 0.415104 -0.183113 -0.0292977 -0.309137 0.173321 0.346091 -0.00303944 0.240806
2251 -0.175585 -0.043575 0.354491 0.633291 -0.277665 0.0656727 -0.00797023 0.0614437 0.182246 -0.131461 -0.333449 0.210594 0.260245 -0.18385 -0.450142 -0.89832 0.232899 -0.170316 -0.256508 -0.216826 0.0438992 0.215255 -0.0139236 0.123224 -0.174202 0.00237654 -0.296367 -0.685638 0.380688 -0.202123 -0.0274034 -0.14252 0.11312 0.173349 0.0266873 0.213766
2105 -0.332891 -0.0779521 0.247245 0.598058 -0.266775 0.31504 0.0338434 0.232255 0.156128 0.0427536 -0.277779 0.0737141 0.490729 -0.205518 -0.429847 -0.85389 0.196387 -0.0997186 -0.210803 -0.182481 -0.0830029 0.223576 -0.0147855 -0.0858769 -0.021467 0.00946677 -0.0578194 -0.55477 0.37306 -0.192594 -0.065609 -0.24591 0.14185 0.36469 0.100781 0.338488
209 -0.114518 -0.447082 0.180937 0.554403 -0.449228 0.253821 0.236465 0.43427 0.445047 -0.154183 -0.342662 0.018176 0.910366 -0.0306631 -0.756981 -0.952654 0.477686 -0.118335 -0.269569 0.0183519 0.166438 0.608424 -0.0143257 -0.276839 -0.0211596 -0.0940908 -0.266713 -0.864743 0.230637 -0.35748 -0.054846 -0.136824 0.322802 0.425316 -0.217327 0.37578
1023 -0.277439 -0.347627 0.249013 0.598333 -0.341311 0.30366 0.0691958 0.321388 0.395475 -0.109169 -0.259075 -0.00995793 0.810917 -0.12498 -0.572281 -0.984636 0.408789 -0.294874 -0.323139 -0.144355 0.0259877 0.563589 0.0964378 -0.215497 -0.00121054 -0.0551027 -0.24664 -0.903398 0.457134 -0.471365 -0.121317 -0.0861791 0.395749 0.191569 -0.0479535 0.41976
4405 0.23868 0.214811 0.335234 0.220525 0.126835 0.00138832 0.0265332 0.243151 0.246489 -0.34602 -0.262497 -0.0229012 0.214477 -0.141344 -0.0352695 -0.314003 0.298583 -0.0861098 0.220443 -0.230697 -0.00802003 0.182705 0.0628975 0.267146 -0.0773585 -0.244357 0.0808448 -0.486788 0.17826 -0.090005 0.308447 -0.262515 0.442348 0.222217 -0.0469391 -0.231447
3 0.310781 0.0144459 0.640164 0.0279514 0.326615 0.35731 0.138223 0.625119 0.202957 -1.07952 -0.507304 -0.411836 0.265241 -0.368488 -0.154051 0.218379 0.518154 0.206363 0.525446 -0.946592 0.129228 0.569672 0.0896579 0.61517 0.212861 -0.325113 0.0623444 -0.922284 0.133788 0.10852 0.179367 -0.311279 0.743495 0.127217 0.335086 -0.281676
803 0.530935 0.31146 0.485931 0.212913 0.113309 -0.201659 -0.141014 0.165917 0.473944 -0.760053 -0.482779 0.163453 0.133929 -0.162331 -0.151068 -0.176243 0.463719 -0.0360442 0.4069 -0.303941 0.124604 0.301147 0.0603121 0.679376 -0.0368088 -0.549162 0.0648911 -0.7209 0.153749 0.0365937 0.296859 -0.196675 0.538295 0.0883136 -0.138352 -0.302162
1878 -0.16363 0.013604 0.435563 0.629953 -0.220778 -0.0356239 -0.0705955 0.00928958 0.178964 -0.165979 -0.346206 0.175368 0.10374 -0.211128 -0.362956 -0.863749 0.247956 -0.216845 -0.261064 -0.24959 0.00956365 0.155395 -0.0928967 0.245544 -0.257906 0.0064332 -0.252903 -0.703739 0.40721 -0.187366 0.0729303 -0.0322269 0.148668 0.096973 -0.0128663 0.155724
14 0.0524238 0.10143 0.686542 0.544969 -0.291444 -0.221182 -0.101472 0.255383 0.287101 -0.131788 -0.166504 0.0683592 -0.102084 -0.0841165 -0.46755 -1.10631 0.419717 -0.655257 -0.397829 -0.347006 0.00793628 0.397922 -0.102811 0.453844 -0.566497 -0.100493 -0.37401 -0.753393 0.405767 -0.0185872 0.183819 -0.147817 0.169274 0.00297899 0.00872065 -0.235465
3093 0.313485 0.239368 0.37466 0.20673 0.111774 -0.0784672 -0.0507838 0.135799 0.23882 -0.431366 -0.381598 0.0691244 0.123045 -0.149482 0.00823568 -0.276406 0.298074 -0.00747528 0.269623 -0.24713 -0.00626716 0.163182 -0.00593673 0.363359 -0.104827 -0.256903 0.0414731 -0.490384 0.187409 -0.109995 0.317219 -0.154537 0.454182 0.140192 -0.0597316 -0.241062
806 0.451948 0.315517 0.475351 0.217891 0.157069 -0.186422 -0.0903765 0.0985857 0.403514 -0.631358 -0.390247 0.0708251 0.0933902 -0.246155 -0.09125 -0.196161 0.376104 -0.0449821 0.378393 -0.31544 0.109284 0.205505 0.0618921 0.594517 -0.0719374 -0.388529 0.0397202 -0.60737 0.177504 -0.0487321 0.402146 -0.188245 0.552774 0.118621 -0.0269852 -0.316835
736 0.195534 0.212321 0.36433 0.142377 0.312805 0.0656742 0.112523 0.417048 0.00519144 -0.319784 -0.353888 -0.222048 0.197368 0.0588076 0.386545 -0.304493 0.305294 0.0653908 0.196871 -0.381808 -0.21055 0.113488 -0.0308284 0.153716 -0.192702 -0.134042 0.197274 -0.325246 0.271356 -0.176545 0.407894 -0.323461 0.590818 0.277254 -0.0328636 -0.292925
4010 0.212597 0.182306 0.363407 0.180741 0.110777 0.0429654 0.0262587 0.158432 0.16977 -0.338746 -0.395787 -0.0138608 0.211746 -0.155384 0.0906989 -0.365788 0.221062 0.0425087 0.208448 -0.206196 -0.0520283 0.0549532 -0.0410592 0.171047 -0.0912646 -0.169023 0.0789876 -0.432306 0.251836 -0.235212 0.367313 -0.0911944 0.438704 0.193698 -0.0710099 -0.143039
4009 0.166077 0.15598 0.34441 0.226712 0.0818968 0.0369963 -0.0164785 0.144222 0.173479 -0.292829 -0.391172 0.0448206 0.255671 -0.134969 0.0311918 -0.382639 0.222573 0.0641779 0.190709 -0.156985 -0.102091 0.0796664 -0.0649857 0.164151 -0.0827846 -0.192806 0.11886 -0.403898 0.213269 -0.154367 0.328025 -0.111575 0.391641 0.22803 -0.0256387 -0.115686
13 0.201203 -0.00719584 0.616199 0.0354277 0.212763 0.117433 -0.028216 0.391744 0.318147 -0.71266 -0.560088 0.0112452 0.39459 -0.0740639 0.309251 -0.119423 0.281759 0.283036 0.333548 -0.627833 -0.0739039 0.35354 -0.0390056 0.322682 -0.0608467 -0.501201 0.0470036 -0.618822 0.270097 -0.148591 0.226228 0.141435 0.779439 0.0281691 0.178517 -0.181561
18 0.00971022 0.125134 0.546289 0.353707 0.117364 0.108834 0.404111 0.679762 0.248572 -0.0652473 -0.560736 -0.761683 0.243549 -0.106109 0.285035 0.00998516 0.18475 0.192746 -0.0115339 -0.705846 0.0965373 0.492285 0.298157 0.209906 -0.533756 -0.17373 -0.248314 -1.06833 0.540941 -0.313341 0.0659038 -0.0584572 0.645506 -0.151448 -0.0373051 -0.333119
2142 -0.120991 0.124388 0.432667 0.288342 -0.00916626 0.10986 0.125485 -0.00627734 0.376609 -0.0703717 -0.427365 -0.0896042 0.313022 -0.323124 -0.0815749 -0.401968 0.110391 0.0803588 0.301946 -0.102768 -0.209505 0.126633 -0.144854 0.0050405 -0.073676 0.0502449 0.261167 0.0141803 0.244896 -0.236277 0.30069 -0.174158 0.652249 0.434863 0.470537 0.0931673
396 0.0812412 0.0181608 0.197575 -0.0333847 0.196847 0.569761 0.177153 0.767701 0.196696 0.0332204 -0.0203913 -0.516342 0.770552 -0.168038 -0.0521949 -0.537835 0.320474 -0.188864 0.181907 -0.159608 -0.205438 0.310914 0.223031 -0.367487 0.145434 -0.0193197 0.23899 -0.385126 0.164521 -0.322181 0.377583 -0.550533 0.579741 0.634068 0.202597 -0.0151836
54 0.105532 -0.134574 0.164809 -0.323289 0.0160946 0.668673 0.318223 0.586623 0.115675 0.314196 -0.585735 -0.541754 0.607012 -0.00523693 -0.268875 -0.252408 0.284302 0.564576 0.18315 -0.433527 -0.463616 0.821571 0.0746595 -0.294176 0.331346 0.175869 0.247975 -0.426076 0.393568 -0.205676 0.0873618 -0.817975 0.870542 0.634426 0.631099 0.156285
4951 0.0883795 0.122551 0.219358 0.209515 0.0436939 0.0752718 0.0348501 0.134287 0.0969213 -0.123668 -0.281448 0.0359687 0.155737 -0.119779 0.00810793 -0.344169 0.141659 0.0379934 0.113665 -0.101753 -0.0724127 0.0350806 -0.0331652 0.0809278 -0.0661744 -0.0832098 0.0296885 -0.313729 0.216055 -0.127967 0.243339 -0.154576 0.256896 0.205272 -0.0782726 -0.0834022
110 0.20727 0.0743288 0.357106 -0.0128145 0.22799 0.365299 0.657349 0.788064 0.164757 -0.0836058 -0.259918 -0.466024 0.108026 0.048499 0.0811025 -0.198929 0.307831 0.0233194 -0.0188736 -0.624098 0.097486 0.333426 0.408682 0.0903613 -0.355797 0.0162738 -0.514265 -0.9318 0.612872 -0.0727291 0.239508 -0.553499 0.631068 0.238209 0.0608722 -0.350461
565 0.256227 0.403514 0.554595 0.31636 0.122653 0.367741 -0.171128 0.137851 0.109873 -0.530914 -0.705641 0.220241 -0.0666984 -0.689485 0.217107 -0.401826 0.0220086 0.585145 0.77409 -0.455922 0.138849 -0.123188 0.0544514 0.405654 0.230335 -0.261881 -0.0995976 -0.849146 0.62442 -0.105365 0.193952 0.0807378 0.41302 0.0735943 -0.243138 -0.0981831
30 -0.303987 -0.106636 0.554551 0.202475 0.369327 0.283396 0.0576229 0.737244 -0.0437321 -0.38508 -0.796317 -0.226068 0.670586 0.18017 0.461483 -0.311653 0.14618 0.536026 0.373011 -0.513832 -0.245053 0.501551 -0.250933 0.136225 0.122623 -0.570728 -0.0844382 -0.488455 0.487131 0.100868 -0.00298445 0.312471 0.747265 -0.207547 0.172718 -0.188345
75 0.0325286 0.56961 0.584445 0.376093 0.382966 0.214459 0.067971 0.73098 0.0565931 -0.481929 -0.164371 -0.305795 -0.0664588 0.149237 0.994354 -0.377158 0.376843 0.258913 -0.268255 -0.722094 -0.402054 0.0815796 -0.0888379 0.217495 -0.170495 -0.4308 0.471929 -0.287439 0.834801 0.158176 0.425252 -0.447312 0.75612 0.0610688 0.15229 -0.330255
2638 0.0317511 0.15904 0.268993 0.223332 0.102894 0.133083 0.017994 0.182139 0.0335846 -0.108534 -0.277232 -0.0568027 0.199649 -0.102355 0.0731233 -0.402343 0.16733 0.0426527 0.117589 -0.150983 -0.179996 0.0600465 -0.0648026 0.021298 -0.102002 -0.0597312 0.187301 -0.238004 0.204277 -0.148059 0.256158 -0.237453 0.310347 0.295569 0.0175329 -0.103016
55 0.150888 -0.0574719 0.062247 -0.322887 0.146488 0.798288 0.370574 0.654573 0.0566619 0.298563 -0.581441 -0.486792 0.628978 -0.0321984 -0.248481 -0.2275 0.318944 0.454683 0.147666 -0.441873 -0.488915 0.567621 0.16354 -0.336616 0.428172 0.0904317 0.135454 -0.530535 0.428424 -0.250285 0.110471 -0.888832 0.607433 0.658574 0.497109 0.0831417
319 -0.00644356 0.0769578 0.154471 0.0451507 0.0598328 0.461112 0.0370869 0.525963 0.0616316 0.206613 -0.184271 -0.370795 0.75262 -0.0834301 -0.102845 -0.563037 0.289867 -0.192017 0.118211 -0.078836 -0.396122 0.258217 0.105969 -0.283839 0.151931 -0.035112 0.436782 -0.2024 0.150543 -0.411188 0.356483 -0.643807 0.462841 0.673544 0.296033 0.066073
4663 0.101446 0.120578 0.330277 0.193295 0.0982815 0.064417 0.0157402 0.157316 0.113745 -0.246982 -0.452067 0.0395793 0.218756 -0.0375241 0.129513 -0.411292 0.196635 0.0925974 0.192884 -0.166233 -0.14643 0.0515117 -0.0716198 0.103435 -0.0933362 -0.176993 0.10977 -0.421136 0.244011 -0.187106 0.279709 -0.0413786 0.412674 0.189711 -0.0836334 -0.0765414
64 0.0997703 -0.00369083 0.0637289 -0.053623 0.126058 0.562277 0.189232 0.573819 0.153146 0.126213 -0.209008 -0.382766 0.738593 -0.0454453 -0.277572 -0.530918 0.340616 -0.122036 0.150593 0.0221436 -0.354025 0.297866 0.172463 -0.433921 0.235454 0.0116225 0.330616 -0.315291 0.0752865 -0.310444 0.315093 -0.79638 0.420739 0.798837 0.275058 0.0411532
21 0.185435 0.0166349 0.558649 -0.133935 0.570457 0.99312 0.700102 0.52995 -0.317842 -0.544885 -0.561245 -0.44008 0.0915577 -0.690018 0.00961504 0.0485262 0.0485879 0.0873324 0.0931351 -0.751533 -0.236797 -0.104005 0.0521322 -0.251747 -0.226579 0.195257 -0.0889164 -0.744029 0.366331 -0.00570913 0.582892 -0.194116 0.532746 0.233829 0.606947 -0.381955
1915 0.247441 0.245734 0.425578 0.155843 0.306812 0.198006 0.246261 0.20715 -0.289193 -0.260853 -0.387994 -0.252032 0.20127 -0.408456 0.0483904 -0.261062 0.0247179 0.0967693 0.270443 -0.267082 -0.129027 -0.163773 -0.133001 0.0240497 -0.236199 0.171864 0.0730071 -0.301043 0.1467 -0.394682 0.769955 -0.320288 0.390079 0.50356 0.0677637 -0.359105
4162 -0.19394 -0.031299 0.234952 0.511302 -0.212761 0.162002 0.00257402 0.109696 0.165274 -0.0443467 -0.297825 0.161652 0.350525 -0.176419 -0.393296 -0.741071 0.172839 -0.0803915 -0.129053 -0.127836 -0.0583345 0.184796 -0.0526542 -0.0149923 -0.0534145 -0.0351505 -0.0507238 -0.496609 0.284593 -0.15417 0.0136383 -0.166054 0.132478 0.298892 0.0219039 0.225084
4161 -0.267155 -0.0865324 0.302256 0.662378 -0.318077 0.170498 -0.0376938 0.109294 0.174864 -0.0806059 -0.430645 0.275761 0.337859 -0.124729 -0.507304 -0.972764 0.225509 -0.0440531 -0.242915 -0.147729 -0.0444792 0.202143 -0.0503965 0.0497343 -0.0749651 -0.065443 -0.177493 -0.728264 0.417458 -0.0589616 -0.100952 -0.177039 0.0538929 0.264236 -0.0348541 0.319536
884 -0.241197 0.0384089 0.545722 0.884449 -0.462889 -0.141155 -0.22544 -0.137905 0.346512 -0.0338594 -0.371267 0.280643 0.135929 -0.277574 -0.65254 -1.32489 0.363127 -0.509582 -0.359917 -0.109112 0.00756686 0.291165 -0.0800877 0.322589 -0.327389 0.00741646 -0.315048 -0.839145 0.536911 -0.323153 0.0576905 -0.0956343 0.113504 0.097773 -0.07652 0.229278
3934 -0.0695493 0.103999 0.297167 0.288154 -0.0154725 0.107585 0.0375238 0.0326641 0.191059 -0.0251847 -0.314261 -0.0378969 0.280351 -0.214366 -0.102226 -0.458845 0.112241 0.00396806 0.152187 -0.0848676 -0.151122 0.106799 -0.0690606 -0.0160776 -0.067352 0.0291851 0.145786 -0.163167 0.195736 -0.215634 0.232029 -0.185585 0.399082 0.351674 0.184806 0.0544252
991 0.245737 0.159425 0.223515 0.00812266 0.228325 0.550383 0.204084 0.480923 -0.11238 -0.0636969 -0.198998 -0.362728 0.453556 -0.452156 -0.105223 -0.312389 0.0906232 -0.00290817 0.290204 -0.225616 -0.109359 0.0339104 0.102019 -0.223464 0.0633063 0.145656 0.101933 -0.402515 0.151022 -0.356677 0.524624 -0.515627 0.357755 0.587037 0.149062 -0.232285
911 0.20131 0.268064 0.35745 0.307024 0.0363017 0.172874 -0.032917 0.0754913 -0.00470947 -0.280618 -0.669664 0.233071 -0.0198208 -0.405679 0.175603 -0.463657 0.0316986 0.422407 0.364543 -0.22403 0.031274 -0.138369 -0.0759559 0.207725 0.0133939 -0.0236794 -0.112242 -0.599238 0.511456 -0.250764 0.239958 0.0338375 0.287865 0.0970896 -0.271831 -0.0217365
608 0.224056 0.376992 0.453833 0.297618 0.0770141 0.288544 -0.166093 0.0608326 -0.0583216 -0.302365 -0.81671 0.278178 -0.07417 -0.541296 0.369043 -0.482764 -0.0140932 0.610924 0.678941 -0.325269 0.0217333 -0.162392 -0.104756 0.308903 0.124753 -0.0859523 -0.0656223 -0.704585 0.64668 -0.275983 0.239727 0.144043 0.356127 0.0488257 -0.354979 -0.0667569
2764 0.278211 0.25523 0.428878 0.185095 0.0725632 0.135843 -0.0681666 0.114069 0.101501 -0.412212 -0.729241 0.160797 0.0565771 -0.292232 0.255658 -0.372819 0.142965 0.392332 0.474283 -0.238053 -0.0246148 -0.0494531 -0.0810857 0.242906 0.0269274 -0.173654 0.00283126 -0.624755 0.461275 -0.196239 0.282347 0.100258 0.420435 0.0492699 -0.287509 -0.0982328
1795 0.274596 0.222353 0.358744 0.270354 0.0371165 0.10769 -0.0644797 0.0426087 0.105155 -0.378201 -0.718584 0.22838 -0.00466722 -0.347577 0.184487 -0.453849 0.0961725 0.406999 0.420495 -0.220133 0.0479053 -0.0358344 -0.0725533 0.242178 0.0163818 -0.0791144 -0.106798 -0.616993 0.459022 -0.295603 0.220254 0.0615367 0.37675 0.0291515 -0.271679 -0.0838952
4272 0.0891319 0.108957 0.298175 0.216383 0.0391381 0.0848346 0.0565853 0.108924 0.0416278 -0.171314 -0.348583 0.0206065 0.167581 -0.200824 -0.00878264 -0.346605 0.108492 0.0536265 0.148897 -0.18191 -0.0484952 0.0246856 -0.0611748 0.071404 -0.117511 -0.0301006 -0.00232962 -0.341564 0.218021 -0.237577 0.30002 -0.0852837 0.277864 0.194321 -0.0169523 -0.0728638
1076 0.260843 0.159276 0.428325 0.231448 -0.0316514 0.0652898 0.453066 0.236265 0.100998 -0.079647 -0.403977 -0.195516 0.309732 -0.341373 0.00921862 -0.109991 0.0709868 -0.0693359 0.159102 -0.352002 -0.00109674 -0.0319716 -0.0975702 0.118964 -0.352032 0.139884 -0.116045 -0.131289 0.259778 -0.422612 0.62672 -0.186215 0.521554 0.355068 0.0911536 -0.201197
2255 0.173556 0.126475 0.298069 0.183141 0.0792814 0.127733 0.148832 0.196685 0.0406857 -0.183328 -0.280895 -0.126519 0.248165 -0.237349 -0.0354401 -0.346201 0.130759 -0.0250878 0.132602 -0.156547 -0.0626733 0.0195115 -0.0489323 0.0357973 -0.118089 0.0299977 0.0557307 -0.321883 0.162719 -0.267653 0.438292 -0.235227 0.323188 0.353125 0.00660034 -0.132441
1075 0.294155 0.145241 0.475415 0.139435 0.0892038 0.237614 0.440931 0.335063 -0.0278535 -0.100674 -0.383046 -0.326386 0.420871 -0.518112 -0.0905227 -0.0514298 0.0428546 -0.0457145 0.259736 -0.449476 -0.016957 -0.049135 -0.064621 0.0904225 -0.301092 0.211896 -0.0649309 -0.172614 0.172277 -0.418727 0.695796 -0.316341 0.52692 0.47703 0.275411 -0.250964
1909 0.104868 0.138071 0.257048 0.156849 0.0873961 0.217865 0.12124 0.221981 -0.00825766 -0.0815605 -0.284593 -0.135376 0.297413 -0.191015 -0.0140862 -0.33751 0.113354 0.0210203 0.176883 -0.161416 -0.14906 0.0369369 -0.0369561 -0.0496992 -0.0624607 -0.000212542 0.138692 -0.264267 0.18891 -0.225252 0.395099 -0.28503 0.341729 0.381655 0.0651137 -0.139704
25 0.191971 0.261849 0.552651 -0.0366371 0.493982 0.95385 0.442211 0.600214 -0.564408 -0.510302 -0.475998 -0.418868 0.318327 -0.773607 -0.186713 0.0836724 -0.0356516 0.189855 0.241978 -0.634181 -0.280002 -0.382649 0.0505143 -0.0263063 -0.0216302 0.202311 0.158691 -0.551473 0.21328 0.0354286 0.763324 -0.588351 0.177679 0.614589 0.465855 -0.257852
492 0.275504 0.150492 0.663445 0.126874 0.398184 0.663204 0.507574 0.356604 -0.226596 -0.450524 -0.415141 -0.282553 0.452974 -0.81973 -0.225578 0.0226904 -0.132487 0.169228 0.492862 -0.239251 -0.18219 -0.326334 -0.275806 -0.211941 -0.212201 -0.0272003 0.262206 -0.30603 0.0315599 0.104367 0.933188 -0.217223 0.370518 0.772369 0.217287 -0.52008
487 0.382409 0.138122 0.562677 -0.0786902 0.411387 0.494501 0.397671 0.349091 -0.288359 -0.415695 -0.402417 -0.305726 0.606128 -0.620601 -0.0669189 -0.0628678 -0.106445 0.256538 0.40648 -0.167302 -0.249697 -0.21263 -0.247216 -0.188579 -0.0642426 0.0150615 0.263816 -0.22031 -0.0565014 -0.228353 1.05753 -0.292975 0.453598 0.727947 0.252004 -0.45537
494 0.156276 0.180371 0.313178 0.197631 0.184414 0.241526 0.180522 0.145162 -0.149033 -0.150688 -0.319164 -0.116466 0.299821 -0.332179 -0.122492 -0.334695 0.0103706 0.0529215 0.229314 -0.085886 -0.163783 -0.0830497 -0.164028 -0.0819232 -0.128219 0.0430927 0.17476 -0.2315 0.0499475 -0.225873 0.569472 -0.323146 0.270464 0.533203 0.0655342 -0.278977
425 -0.284484 0.0856461 0.524389 0.381951 -0.0599358 0.146734 0.227851 -0.0969739 0.529084 0.0364021 -0.364728 -0.182618 0.394693 -0.494373 -0.183643 -0.40925 0.0805246 0.00252906 0.334052 -0.159285 -0.200873 0.258252 -0.130368 -0.0634103 -0.126653 0.175112 0.242221 0.162502 0.2247 -0.287272 0.305416 -0.190307 0.846857 0.522356 0.780509 0.174815
3528 -0.183144 0.16692 0.557599 0.287898 0.0232822 0.144068 0.218076 -0.0538018 0.42504 -0.0066357 -0.485353 -0.19647 0.347554 -0.426761 -0.136631 -0.289143 0.0933764 0.130455 0.414697 -0.12693 -0.312322 0.153732 -0.22802 3.7562e-05 -0.122734 0.136125 0.406805 0.291531 0.186352 -0.188926 0.365627 -0.331664 0.841387 0.617983 0.79438 0.109689
415 -0.291087 0.114745 0.526517 0.338034 -0.0311121 0.161853 0.156627 -0.0218246 0.492418 0.065416 -0.473921 -0.143609 0.454336 -0.354687 -0.112358 -0.434615 0.131549 0.0773637 0.350063 -0.0917508 -0.321604 0.241205 -0.184913 -0.0793869 -0.0779683 0.100144 0.392453 0.267606 0.211624 -0.253989 0.257161 -0.277505 0.845831 0.569474 0.794439 0.202205
88 -0.0321985 -0.0242176 0.382546 0.451406 -0.0439726 0.226665 0.205997 0.442792 0.0427028 -0.394096 -0.223974 -0.230522 0.218934 -0.283096 -0.10226 -0.533728 0.297827 -0.125086 -0.259619 -0.598488 0.203344 0.161411 0.0715137 0.113239 -0.246428 0.133518 -0.380421 -0.83682 0.489438 -0.429904 0.174512 -0.089968 0.328503 0.0578986 -0.0170534 0.0236757
274 -0.061254 0.0631329 0.620398 0.376421 0.0923565 -0.0874312 0.0957933 0.0133444 -0.0591873 -0.296655 -0.566598 -0.083639 0.140272 -0.142676 0.0473376 -0.328651 0.157759 0.0892406 0.0210686 -0.491523 -0.132476 0.0504238 -0.319503 0.40974 -0.453272 0.0389348 0.0450258 -0.301139 0.267682 -0.205571 0.371723 0.0300926 0.520844 0.168825 0.30534 -0.0751679
99 0.203356 0.014295 0.247406 -0.218463 0.0846791 0.508505 0.205528 0.748306 -0.273112 0.109965 -0.393602 -0.422105 0.627231 -0.0298521 0.0643027 -0.439488 0.216974 -0.0318648 0.110518 -0.468224 -0.164114 0.174341 0.267015 -0.104063 0.198816 0.327826 -0.130872 -0.556537 0.409191 -0.786788 0.474649 -0.592779 0.389017 0.419961 0.138932 -0.0304031
24 -0.0518064 0.185783 0.56752 -0.186859 0.366189 0.781025 0.347549 0.854116 -0.927358 -0.151952 -0.594152 -0.370353 0.358829 -0.256599 -0.0945919 -0.0812725 0.0487971 0.219998 0.182209 -0.955755 -0.33064 -0.125524 0.0783721 0.391 0.0749206 0.313811 -0.0445736 -0.486776 0.277362 -5.6463e-05 0.548377 -0.735243 0.222272 0.573498 0.568433 -0.0360539
789 0.401668 0.260927 0.375849 0.138193 0.179595 -0.0426567 -0.000436202 0.227087 0.226054 -0.478095 -0.393707 0.0173178 0.151956 -0.119421 0.0649641 -0.165473 0.324703 0.0606166 0.335349 -0.25417 0.008494 0.143668 0.00496662 0.38913 -0.0681052 -0.310316 0.0679413 -0.476235 0.183506 -0.0555451 0.365296 -0.198908 0.48623 0.16938 -0.113797 -0.301695
436 0.63177 0.405238 0.605376 0.0927071 0.389282 0.0560093 -0.124009 0.409153 0.518156 -0.99975 -0.252566 -0.245944 0.193623 -0.575132 -0.234497 0.032431 0.503628 -0.035439 0.654934 -0.567294 0.201889 0.342809 0.223721 0.754009 0.158761 -0.369762 0.166527 -0.73294 0.110485 -0.00543329 0.482308 -0.53111 0.78307 0.28825 0.302409 -0.372349
1180 0.24405 0.191145 0.406068 0.152531 0.213232 0.165437 0.215496 0.20107 -0.199667 -0.228815 -0.374402 -0.193294 0.230339 -0.405091 -0.0204213 -0.25544 0.0410548 0.053953 0.233084 -0.282189 -0.0741629 -0.0838861 -0.141793 0.0656933 -0.194803 0.124924 0.0243146 -0.342234 0.173167 -0.384782 0.688997 -0.200411 0.377333 0.412276 0.0504181 -0.319604
2360 0.164146 0.200905 0.388632 0.129551 0.285721 0.346401 0.227051 0.191845 -0.232757 -0.152213 -0.300478 -0.249417 0.415763 -0.446291 -0.137934 -0.288965 -0.0152262 0.0574813 0.353873 -0.0999943 -0.240473 -0.150816 -0.163257 -0.129617 -0.121502 0.0832916 0.281962 -0.171514 -0.0162249 -0.260226 0.787075 -0.445773 0.372568 0.750089 0.172669 -0.361576
2724 0.294179 0.212984 0.490584 0.0921807 0.288624 0.338578 0.329504 0.243056 -0.173054 -0.31411 -0.353894 -0.254139 0.391208 -0.606794 -0.23971 -0.161408 -0.0639608 0.112756 0.403822 -0.102052 -0.148996 -0.190155 -0.186892 -0.10408 -0.141939 0.12023 0.191167 -0.219549 -0.0305926 -0.214095 0.903782 -0.350061 0.379219 0.702925 0.192509 -0.387468
2059 0.0627509 0.111376 0.250957 0.207374 0.0319997 0.114152 0.00393324 0.123591 0.113339 -0.148821 -0.308885 0.0292771 0.199299 -0.141255 -0.0165547 -0.404788 0.150279 0.0353648 0.11921 -0.116478 -0.108818 0.0570952 -0.0477017 0.0346348 -0.0470519 -0.0884887 0.0899121 -0.340464 0.214529 -0.156886 0.200315 -0.140703 0.277988 0.214626 -0.0328863 -0.0367113
65 0.0142427 0.0303958 0.128052 0.0200913 0.127872 0.544182 0.131714 0.536775 0.182979 0.164254 -0.162026 -0.379521 0.663861 -0.0996278 -0.168067 -0.550672 0.288701 -0.155419 0.149745 -0.0804588 -0.372563 0.299184 0.140819 -0.386273 0.172897 0.00434711 0.422732 -0.282061 0.154816 -0.302063 0.292148 -0.699161 0.457318 0.734817 0.292223 0.0413919
59 0.124738 -0.0480811 0.127841 -0.0681132 0.10616 0.507303 0.102511 0.614581 0.237142 -0.00501198 -0.159416 -0.341257 0.759464 -0.0363387 -0.195436 -0.577609 0.333193 -0.0357289 0.0778322 -0.0820563 -0.237753 0.420955 0.230091 -0.371222 0.273223 -0.0431786 0.250177 -0.440742 0.122058 -0.397393 0.222876 -0.681409 0.489593 0.650507 0.35369 0.087704
138 0.0471143 0.00706579 0.149387 0.0297443 0.148047 0.506301 0.0939832 0.634094 0.0921939 0.0369619 -0.105752 -0.365808 0.668693 -0.080638 -0.161845 -0.575285 0.308481 -0.158026 0.102129 -0.128389 -0.277678 0.289357 0.161859 -0.298294 0.165933 -0.0470837 0.283988 -0.422482 0.126972 -0.228427 0.278769 -0.619226 0.392984 0.666526 0.170809 0.00110826
236 -0.0295942 0.134139 0.510834 0.152831 0.0837585 0.220671 0.111094 0.0115175 0.296006 -0.0706602 -0.415561 -0.191374 0.404715 -0.449121 -0.0800353 -0.2262 0.0446035 0.0888855 0.419573 -0.0926252 -0.281282 0.0954694 -0.206103 -0.0337559 -0.0615329 0.0101112 0.442339 0.132107 0.086869 -0.239299 0.476483 -0.224681 0.706215 0.521185 0.591947 -0.0442767
235 -0.0581526 -0.0100718 0.640363 0.242048 0.00806339 0.166508 0.364887 0.134913 0.537526 -0.100184 -0.418149 -0.275738 0.567752 -0.537095 -0.231111 -0.181884 0.101652 0.168982 0.400691 -0.254028 -0.115982 0.311104 -0.167524 -0.02546 -0.132361 0.14257 0.189483 0.175526 0.196176 -0.290702 0.419793 -0.20572 1.00289 0.515093 0.824668 0.116071
2424 0.0606925 0.166963 0.320882 0.312297 0.0963741 0.0578273 0.0109585 0.105026 -0.0501215 -0.216828 -0.441682 0.0902104 0.111028 -0.087492 0.0959953 -0.465176 0.133936 0.127288 0.124478 -0.233569 -0.163499 -0.0240137 -0.127974 0.15912 -0.112095 -0.0753599 0.0827401 -0.36796 0.283241 -0.145901 0.290349 -0.153913 0.261278 0.236423 -0.116496 -0.108766
2422 0.0461303 0.184194 0.240933 0.270873 0.0874818 0.161975 0.0661951 0.139271 -0.0217433 -0.0953668 -0.317508 0.0222957 0.209744 -0.177526 -0.0063323 -0.432852 0.108881 0.058781 0.162744 -0.136435 -0.122613 -0.0126527 -0.0508032 0.038557 -0.0591866 -0.0449026 0.0681166 -0.321326 0.212753 -0.159673 0.305687 -0.26761 0.228999 0.347644 -0.0459447 -0.097469
114 0.14097 -0.182311 0.505793 0.0782178 0.201997 0.55473 0.668287 0.795926 0.0846803 -0.620787 -0.370075 -0.260806 0.159109 -0.0896331 -0.367712 -0.277866 0.161924 0.472756 0.052747 -0.401211 -0.0409059 0.254811 -0.187453 -0.2365 -0.364363 -0.0238096 -0.149769 -0.480802 0.0942336 0.749146 0.122728 -0.550367 0.350411 0.759351 0.398178 -0.337737
175 0.112768 0.12212 0.374816 0.271403 0.0280774 0.129833 -0.0325915 0.179044 0.134327 -0.331568 -0.488864 0.24227 0.15471 -0.148631 0.0637167 -0.388696 0.0545867 0.457605 0.270975 -0.160435 -0.113492 0.0267289 -0.233372 0.109933 -0.0430604 -0.312799 0.169812 -0.32925 0.299627 0.16574 0.129072 -0.0738524 0.290554 0.262333 -0.0797358 -0.0532137
598 -0.267935 0.0657918 0.570166 0.294666 -0.0546021 0.151047 0.200236 -0.044027 0.519636 0.000370181 -0.485677 -0.173651 0.442565 -0.425711 -0.108089 -0.37539 0.0665167 0.133915 0.331985 -0.149529 -0.286951 0.22902 -0.169738 -0.0614933 -0.0683435 0.142846 0.300951 0.19708 0.254696 -0.317831 0.30548 -0.139017 0.874813 0.474687 0.870509 0.260147
2358 -0.00956249 0.0917738 0.323484 0.214788 -0.0275131 0.153998 0.135635 0.109025 0.186535 0.0226039 -0.314291 -0.178304 0.419147 -0.316371 -0.198796 -0.392094 0.122018 -0.0735924 0.232661 -0.017729 -0.185814 0.107473 -0.113569 -0.0992445 -0.0413307 0.0985735 0.223862 -0.0787426 0.123772 -0.3215 0.422121 -0.248512 0.460308 0.473792 0.280957 0.0334868
1047 0.105014 0.150244 0.563889 0.253793 0.128574 -0.0427874 0.0808605 -0.0129994 0.320855 -0.324359 -0.658998 -0.00852749 0.197187 -0.147525 0.252738 -0.228283 0.200747 0.150976 0.286354 -0.276823 -0.173798 0.0610612 -0.175001 0.284862 -0.302151 -0.184364 0.152884 -0.254906 0.302737 -0.187701 0.350328 0.0714769 0.717684 0.167813 0.215754 -0.108802
256 -0.100204 -0.115454 0.684299 0.575274 0.187492 0.0717095 0.447002 0.0817826 0.257249 -0.112549 -0.757701 -0.373829 0.392151 -0.171695 0.318107 0.0383097 0.287264 0.0271131 0.0516925 -0.63364 0.0489931 0.0686011 -0.0358253 0.429689 -1.06512 -0.141284 -0.184145 -0.45585 0.278648 -0.0312647 0.0964504 0.146544 0.720869 0.120679 0.42915 -0.29562
281 0.0249959 0.0393071 0.0732419 0.0261711 0.0747608 0.546038 0.181019 0.487511 0.133183 0.236742 -0.261407 -0.321301 0.654365 -0.0686175 -0.121994 -0.545779 0.291328 -0.133795 0.140302 -0.0820506 -0.377985 0.254658 0.178459 -0.373754 0.172657 0.0251234 0.36443 -0.265292 0.198965 -0.399135 0.28875 -0.70607 0.444771 0.678351 0.263953 0.0875612
317 0.0545033 0.0196107 0.179944 -0.0505281 0.0724837 0.551695 -0.0717067 0.600369 0.140794 0.047237 -0.166347 -0.428221 0.711078 -0.179999 -0.0384403 -0.542438 0.300975 -0.110048 0.136677 -0.102129 -0.256686 0.329173 0.169724 -0.322006 0.267639 -0.0123202 0.380481 -0.326081 0.185558 -0.506565 0.239618 -0.523224 0.473274 0.486047 0.287086 0.183997
316 0.00431986 -0.0549853 0.245158 -0.0317022 0.0461746 0.632695 0.135708 0.609252 0.237958 0.0767349 -0.238498 -0.445636 0.775905 -0.254511 -0.0927207 -0.487046 0.312347 -0.125932 0.163546 -0.163297 -0.26193 0.316974 0.142836 -0.384084 0.182818 0.0596298 0.29853 -0.366999 0.230498 -0.462229 0.256463 -0.420465 0.599866 0.558531 0.358312 0.199079
1272 -0.0746619 -0.0015134 0.138942 0.070528 -0.0147352 0.450604 0.00784973 0.352958 0.277247 0.180295 -0.280952 -0.1891 0.68097 -0.0924894 -0.233578 -0.645362 0.263663 -0.0205267 0.161158 0.0529762 -0.381955 0.34276 0.0745138 -0.353694 0.238241 -0.0493093 0.460588 -0.185072 0.15239 -0.29196 0.146827 -0.55372 0.483115 0.650938 0.348688 0.229174
427 -0.13339 -0.0130218 0.524883 0.191037 -0.00568222 0.164392 0.275601 -0.0323898 0.645387 -0.0322581 -0.643678 -0.173129 0.514518 -0.284674 -0.168726 -0.279309 0.217806 0.17642 0.419884 -0.0982185 -0.373103 0.371874 -0.132471 -0.125726 -0.116491 0.101034 0.449606 0.26279 0.188324 -0.239382 0.236484 -0.396108 1.02617 0.627416 0.881291 0.205213
1268 -0.0748468 0.0030796 0.183161 0.0383414 -0.0275261 0.597893 0.000203519 0.589488 0.258804 0.231862 -0.21353 -0.396141 0.785435 -0.115698 -0.0621833 -0.550765 0.333947 -0.170492 0.213762 -0.120852 -0.367735 0.360647 0.141139 -0.322035 0.222743 -0.0863637 0.421836 -0.27909 0.259193 -0.342607 0.167348 -0.488554 0.540937 0.551903 0.291704 0.171442
2223 -0.168473 0.0103639 0.2241 0.434132 -0.141432 0.146164 0.0162566 0.103406 0.134004 -0.0088425 -0.279954 0.11523 0.271502 -0.152309 -0.262423 -0.623436 0.137815 -0.0608243 -0.0882355 -0.129721 -0.0677693 0.128831 -0.0357852 0.00886436 -0.0541398 -0.00808627 -0.0296637 -0.391801 0.266219 -0.135271 0.0307642 -0.166494 0.141024 0.263656 0.0532824 0.166362
2224 -0.181852 -0.00347224 0.279614 0.484974 -0.175445 0.174901 -0.0246243 0.115475 0.150451 -0.000449258 -0.303129 0.108864 0.314488 -0.182733 -0.348352 -0.757666 0.194553 -0.121566 -0.129504 -0.139463 -0.0882602 0.164172 -0.0348393 -0.0122081 -0.0564602 -0.013874 -0.0233943 -0.509312 0.327935 -0.172835 0.0456309 -0.213249 0.13316 0.289099 0.0600712 0.208631
204 -0.135526 -0.459342 0.228456 0.688134 -0.399846 0.21843 0.288949 0.355005 0.304081 -0.399799 -0.343334 -0.057684 0.796339 -0.158289 -0.657802 -0.896585 0.301888 0.0227225 -0.316517 -0.127405 0.403619 0.453695 -0.119982 -0.37654 -0.132342 0.0749182 -0.39408 -0.962286 0.212262 -0.583761 0.0218237 0.0449288 0.172059 0.375972 -0.249514 0.28194
31 -0.153099 -0.097604 0.575753 -0.0939226 0.452193 0.54847 0.0320514 0.93841 -0.173516 -0.55162 -0.620834 -0.318092 0.812709 0.142558 0.599681 -0.1907 0.21587 0.489705 0.458829 -0.713067 -0.20183 0.28036 -0.00684864 0.186688 0.155086 -0.698489 0.0485352 -0.797123 0.330579 0.194378 0.199742 0.368269 0.795077 0.0115049 0.211983 -0.204909
1163 0.0202174 0.414264 0.425457 0.441673 0.0546944 0.243584 -0.317658 -0.138172 -0.114808 -0.297909 -0.814185 0.401579 -0.216759 -0.497851 0.308416 -0.69927 -0.0611544 0.667526 0.522444 -0.272484 -0.100386 -0.318601 -0.180924 0.318835 0.168354 -0.116079 0.0832016 -0.694638 0.706406 -0.106791 0.141819 0.120654 0.194789 0.0659175 -0.315927 0.081897
61 -0.0612 0.0650123 0.273137 -0.087597 0.631649 0.599516 0.743384 0.643236 0.0436813 -0.324949 -0.52759 -0.478329 -0.111598 0.105432 0.228464 -0.154705 0.570512 0.0223557 0.475066 -0.903674 -0.224809 0.224057 0.509382 0.12181 -0.13152 0.28581 -0.375954 -0.751644 0.385572 0.190755 0.0553247 -0.70026 0.797703 0.529125 0.477348 -0.312891
19 0.215952 0.181145 0.423114 0.309204 0.128111 -0.00686559 0.3402 0.626722 0.275892 -0.10337 -0.440754 -0.367942 0.261251 -0.0244731 0.3388 -0.179768 0.244242 0.0505639 0.102118 -0.691005 0.164476 0.411323 0.289028 0.336879 -0.411138 -0.200157 -0.410101 -0.911167 0.533243 -0.380532 0.189363 -0.126454 0.67505 -0.083091 -0.192106 -0.393057
1998 0.142176 0.270819 0.381069 0.392383 0.00141426 0.175489 -0.0654316 0.0172899 -0.00197896 -0.296254 -0.66352 0.251641 -0.0487967 -0.348304 0.145238 -0.500322 0.0699002 0.369805 0.314363 -0.260212 -0.015427 -0.121163 -0.131957 0.214617 -0.00765569 -0.0781421 -0.0320529 -0.617168 0.524716 -0.150345 0.193966 -0.000476105 0.234127 0.108173 -0.28087 -0.0429883
1999 0.123125 0.252406 0.371267 0.369207 0.0121246 0.141336 -0.000614817 0.00760966 0.0593471 -0.253453 -0.622178 0.212856 -0.0211122 -0.338156 0.174478 -0.475159 0.0785834 0.327082 0.33553 -0.245993 -0.00679278 -0.0774466 -0.0740267 0.205934 -0.0319825 -0.0490569 -0.0502085 -0.546547 0.483895 -0.221193 0.215051 -0.00477593 0.316003 0.113494 -0.208233 -0.0384882
134 0.00910607 0.208399 0.520489 0.235126 0.119098 0.656407 0.0418065 0.386209 -0.00931386 -0.283486 -0.557079 -0.0965062 -0.0588732 -0.623193 0.44065 -0.389232 -0.036412 0.628416 0.603133 -0.631963 0.156865 0.0683395 0.126068 0.0826644 0.11868 -0.0605205 -0.274357 -0.841754 0.800202 -0.217358 0.00860074 0.0553938 0.513028 -0.020909 -0.0839449 -0.10134
666 0.0484565 0.434532 0.459549 0.453732 0.0934116 0.225147 -0.195394 0.0570917 -0.0436108 -0.246011 -0.753302 0.274165 -0.106016 -0.338093 0.611606 -0.610046 0.00765183 0.546381 0.407533 -0.289536 -0.163898 -0.238098 -0.183651 0.246612 0.00899436 -0.209143 0.146771 -0.523795 0.746145 -0.202657 0.227941 0.130082 0.330324 -0.0209634 -0.348095 -0.0526103
3503 0.0232255 0.129353 0.332052 0.374871 -0.0783633 0.0717428 -0.145649 0.0108751 0.130031 -0.282724 -0.619034 0.347302 0.112329 -0.0998915 0.134581 -0.600567 0.142955 0.278429 0.0972449 -0.136865 -0.130018 -0.019221 -0.163982 0.177186 0.0169446 -0.283132 0.057052 -0.592602 0.466515 -0.113642 0.091244 0.129084 0.219037 0.00885452 -0.284882 0.134248
3504 0.0534596 0.136519 0.339754 0.334555 -0.0628053 0.0616359 -0.136893 0.0089794 0.165216 -0.245056 -0.657862 0.32056 0.120088 -0.0592713 0.208282 -0.5838 0.180824 0.267686 0.157874 -0.0831084 -0.175363 -0.0364565 -0.167705 0.142841 -0.0115348 -0.26303 0.112583 -0.537886 0.471856 -0.10665 0.13463 0.151561 0.280319 0.0486653 -0.272571 0.0938782
665 0.0646393 0.359645 0.532669 0.33565 0.121062 0.418608 -0.0661311 0.28763 -0.186685 -0.360318 -0.846942 0.121268 -0.0449248 -0.443464 0.611989 -0.4018 -0.0412996 0.757909 0.505759 -0.579417 -0.0605067 -0.179852 -0.194199 0.273753 0.068329 -0.115182 0.0318454 -0.592116 0.793614 -0.202577 0.204525 0.125586 0.428788 0.00839132 -0.209473 -0.0511345
1082 0.241057 0.25046 0.38601 0.31137 0.0286775 0.194939 -0.0489276 0.0554757 0.0494784 -0.326632 -0.780603 0.258888 -0.0507972 -0.352814 0.34916 -0.438461 0.069928 0.493848 0.444264 -0.320733 0.000867695 -0.076966 -0.0978869 0.234521 -0.00164096 -0.0875893 -0.083409 -0.638904 0.596142 -0.261211 0.170797 0.08008 0.361595 0.0168446 -0.356435 -0.0707537
3218 0.0841755 0.127195 0.278016 0.262652 0.0428682 0.0843814 0.0412591 0.143431 0.125382 -0.15595 -0.367522 0.0421486 0.19691 -0.0989329 0.0490115 -0.424734 0.174712 0.0495005 0.13617 -0.155773 -0.109045 0.0537248 -0.0441124 0.0615041 -0.0753951 -0.102616 0.0566516 -0.369696 0.285245 -0.148578 0.225111 -0.139762 0.303257 0.21577 -0.0832043 -0.0464803
535 0.25509 0.362759 0.457206 0.172989 0.239581 0.0922798 -0.0483595 0.457677 0.261634 -0.400754 -0.605377 0.0304703 0.233715 0.306283 0.9248 -0.383529 0.377043 0.371215 0.116156 -0.267781 -0.501149 0.141101 -0.169295 0.0929043 -0.0447426 -0.613648 0.604103 -0.20328 0.559162 -0.0627812 0.317347 -0.221755 0.753343 0.101999 -0.138233 -0.222006
502 0.22329 0.320604 0.358888 0.152257 0.275408 0.114042 0.0892358 0.516809 0.113341 -0.309881 -0.304864 -0.217674 0.176328 0.167244 0.63499 -0.401122 0.347387 0.132481 0.0998901 -0.246154 -0.351873 0.126603 -0.0749902 0.0127142 -0.155231 -0.315188 0.442461 -0.227693 0.414906 -0.0882422 0.404125 -0.370837 0.621216 0.267094 -0.103659 -0.315364
1740 0.149268 0.180259 0.326595 0.244329 0.0289994 0.120453 -0.050688 0.0482191 0.0735947 -0.251138 -0.569433 0.155352 0.0573958 -0.269692 0.138628 -0.443347 0.0888474 0.296914 0.300541 -0.164828 -0.0384952 -0.0450588 -0.0949665 0.143134 -0.0139168 -0.0812678 -0.00472942 -0.486136 0.385334 -0.224334 0.23537 -0.00219104 0.325577 0.134402 -0.148922 -0.03612
1744 0.152653 0.21321 0.344184 0.265776 0.0270875 0.105094 -0.0174035 0.0627921 0.107366 -0.263204 -0.577217 0.160939 0.0471333 -0.314659 0.149652 -0.467788 0.0927177 0.320342 0.351435 -0.185124 -0.022843 -0.0369767 -0.0738922 0.170354 -0.00630536 -0.0668014 -0.0307965 -0.48031 0.419661 -0.228922 0.218401 0.0338676 0.367781 0.127526 -0.16108 -0.0201453
1302 0.188651 0.151728 0.291725 0.400387 0.0973299 0.0361191 0.37397 0.395453 0.110967 -0.138387 -0.183264 -0.07641 0.220354 -0.0460478 -0.0166785 -0.483699 0.270457 -0.233159 -0.0231137 -0.386779 0.107793 0.183315 0.131574 0.172437 -0.337225 -0.0499422 -0.341783 -0.589887 0.325885 -0.250188 0.377207 -0.383258 0.363999 0.277763 -0.163363 -0.346667
3793 -0.0307663 0.0864695 0.273583 0.250821 -0.0181795 0.14187 -0.0258228 0.103008 0.109032 -0.0404703 -0.309331 -0.00259415 0.278742 -0.178912 -0.0788711 -0.434223 0.104371 0.0337182 0.12223 -0.0636232 -0.144397 0.0820136 -0.0696047 -0.00173904 -0.0110116 -0.0466596 0.181556 -0.208122 0.187845 -0.1858 0.221497 -0.187255 0.2821 0.313165 0.0986121 0.0452868
941 -0.164845 0.122025 0.417202 0.290454 -0.0398001 0.0903063 0.0541763 -0.0415792 0.406904 -0.0152524 -0.379021 -0.0473791 0.313958 -0.291603 -0.0904292 -0.426794 0.112601 0.055488 0.270102 -0.0977307 -0.237746 0.185656 -0.125099 0.0254498 -0.0121831 -0.00813378 0.281027 0.0142716 0.229059 -0.181555 0.227589 -0.150201 0.633592 0.394114 0.48002 0.162048
47 0.0379523 -0.0589277 0.229942 -0.0229012 0.0686369 0.699234 -0.009609 0.773393 -0.0960558 0.12717 -0.249481 -0.481648 0.822714 -0.266844 -0.0386808 -0.484046 0.341505 0.217074 0.183339 -0.439497 -0.171057 0.610333 0.140785 -0.242707 0.257228 0.12579 0.160975 -0.324409 0.233141 -0.474112 0.0441708 -0.716648 0.551375 0.490078 0.393193 0.152969
937 -0.198158 0.100831 0.483032 0.335688 -0.00478521 0.181693 0.177007 -0.0145931 0.392179 0.0246273 -0.365904 -0.135897 0.369488 -0.390893 -0.13941 -0.43477 0.0898378 0.036572 0.306981 -0.146952 -0.225441 0.192535 -0.142443 -0.042169 -0.120067 0.110083 0.281734 0.0717589 0.216448 -0.211034 0.293387 -0.205751 0.683768 0.491736 0.624528 0.0818021
428 -0.130151 0.0861815 0.553121 0.252304 -0.0786146 0.150794 0.355439 0.0222118 0.702475 0.0846437 -0.601608 -0.273979 0.424084 -0.320582 -0.164689 -0.283014 0.227899 0.0642197 0.516609 -0.147774 -0.294692 0.41433 -0.1303 -0.0606203 -0.202285 0.160702 0.390787 0.23234 0.306631 -0.311655 0.252928 -0.344654 1.12367 0.611705 0.847563 0.154499
744 -0.127625 0.0837498 0.505161 0.209047 -0.0615583 0.170302 0.211423 0.0176842 0.52506 0.0763853 -0.499521 -0.228311 0.474018 -0.456708 -0.0703458 -0.311991 0.0753526 0.142238 0.367057 -0.11674 -0.242849 0.237735 -0.125269 -0.105872 -0.0512572 0.172796 0.275482 0.193471 0.275335 -0.460077 0.341005 -0.225195 0.904962 0.495225 0.782312 0.224806
426 -0.147284 0.0178041 0.566479 0.209413 -0.0943368 0.313544 0.522231 0.0359707 0.657528 0.122658 -0.718413 -0.179011 0.479253 -0.373313 -0.170354 -0.177633 0.172776 0.249311 0.450131 -0.228785 -0.308384 0.279752 -0.0714861 -0.140838 -0.0625492 0.224749 0.26598 0.235556 0.40248 -0.268973 0.225695 -0.419981 1.08 0.671772 0.874666 0.29322
234 -0.218074 -0.0525159 0.913322 0.169949 0.127384 0.395782 0.397655 0.421532 0.377933 -0.377407 -0.742137 -0.467218 0.393548 -0.440667 -0.00924004 -0.0799876 0.167293 0.425655 0.605106 -0.261678 -0.0408142 0.320754 -0.102015 -0.154101 -0.204257 0.190797 0.0778448 0.213809 0.414426 -0.267971 -0.0386594 -0.32275 1.03276 0.369589 1.04047 0.187608
3095 0.0879263 0.14309 0.273067 0.220694 0.0471695 0.0381654 -0.0110073 0.134941 0.103114 -0.224655 -0.359394 0.0553378 0.157458 -0.023346 0.142002 -0.366768 0.177329 0.0784959 0.0864309 -0.116913 -0.140803 0.0345996 -0.0843224 0.0866526 -0.0819134 -0.186468 0.166206 -0.318693 0.255431 -0.120705 0.242668 -0.0937115 0.299122 0.157311 -0.0610514 -0.0751523
458 0.285666 0.248395 0.443511 0.158357 0.270615 0.0281834 -0.0498906 0.513172 0.194011 -0.565406 -0.425246 -0.0573851 0.271944 0.217636 0.47933 -0.372447 0.459467 0.146599 0.132561 -0.362833 -0.243402 0.183998 -0.0488128 0.285114 -0.0591919 -0.547374 0.322227 -0.534322 0.347506 0.0478473 0.361235 -0.23649 0.621998 0.17385 -0.164298 -0.288363
860 0.478201 0.313787 0.530927 0.140766 0.182245 0.0245865 -0.105215 0.354961 0.445871 -0.738458 -0.542575 0.0699385 0.172771 -0.233064 0.0146231 -0.105068 0.466334 0.107042 0.500755 -0.450432 0.0813552 0.304755 0.139705 0.634625 0.104265 -0.530063 0.0453868 -0.774156 0.289471 0.0760327 0.253476 -0.176868 0.64448 0.0531627 -0.0490483 -0.274275
2813 0.171122 0.184259 0.288387 0.210214 0.0940428 0.0403051 0.00394096 0.171794 0.163816 -0.245611 -0.294654 -0.00246217 0.214276 -0.117338 0.00187088 -0.345496 0.24283 -0.0358893 0.214878 -0.190015 -0.0659966 0.129263 0.0191865 0.191822 -0.0662191 -0.193787 0.0813766 -0.399527 0.186786 -0.102383 0.251469 -0.23511 0.367347 0.235663 -0.0232696 -0.162655
861 0.560461 0.356452 0.532156 0.0795591 0.205995 0.00302285 -0.0886783 0.29476 0.419836 -0.759996 -0.585298 0.0185026 0.164628 -0.304877 0.0345668 -0.146002 0.41024 0.179966 0.629173 -0.328145 0.0415091 0.185111 0.0686698 0.552812 0.126575 -0.45703 0.126412 -0.665024 0.220014 -0.0457859 0.399793 -0.134211 0.671889 0.147233 -0.0601269 -0.280637
3394 0.337694 0.223102 0.41457 0.169031 0.106379 -0.000409143 -0.0277778 0.138704 0.20227 -0.455144 -0.568798 0.104416 0.132997 -0.17645 0.161274 -0.321759 0.240064 0.187964 0.314122 -0.209099 -0.0507675 0.0492097 -0.0447097 0.265737 -0.0302217 -0.261499 0.0570827 -0.529367 0.301284 -0.208421 0.364488 -0.0400624 0.473826 0.0985434 -0.168228 -0.172164
89 0.249221 0.34244 0.556137 0.298427 0.29679 0.01516 0.13662 0.492075 -0.00676752 -0.523902 -0.382127 -0.18944 0.161204 0.0854164 0.567502 -0.285002 0.350455 0.112244 0.00956247 -0.48634 -0.287356 0.0703523 -0.193762 0.255672 -0.31975 -0.406989 0.350215 -0.397255 0.435537 -0.0643774 0.549608 -0.273979 0.609629 0.175975 -0.13896 -0.474594
74 0.0995673 0.434888 0.517758 0.326782 0.321199 0.382545 0.376953 0.99726 0.0488939 -0.654045 -0.160076 -0.38691 -0.0455021 0.0910441 0.805101 -0.199832 0.384721 0.39215 -0.503389 -0.882157 -0.304391 0.0280024 -0.0877539 0.180908 -0.13222 -0.374142 0.313287 -0.392193 0.927137 0.295631 0.423527 -0.492507 0.596257 0.0926377 0.194617 -0.235715
4569 0.203677 0.181021 0.322848 0.205163 0.0598362 0.0305604 -0.0599083 0.0988688 0.169633 -0.332143 -0.429777 0.0713 0.130977 -0.130143 0.0523312 -0.33345 0.222471 0.126793 0.245203 -0.166451 -0.0779904 0.0755304 -0.0573988 0.207287 -0.0471773 -0.204598 0.108464 -0.440831 0.251169 -0.116351 0.241105 -0.0799576 0.355935 0.16977 -0.0993795 -0.106942
342 0.262535 0.197343 0.368818 0.191749 0.0887794 0.0285382 -0.0679934 0.172111 0.208854 -0.433006 -0.445073 0.079508 0.180484 -0.15424 0.0556532 -0.306416 0.263338 0.104382 0.278743 -0.215239 -0.0688777 0.105141 -0.0260838 0.294231 -0.0160183 -0.308871 0.136796 -0.521712 0.230385 -0.0746887 0.291118 -0.0786238 0.418271 0.153767 -0.106679 -0.154756
341 0.173055 0.176178 0.30782 0.2357 0.0605297 0.0507616 0.0166493 0.133388 0.153478 -0.267606 -0.365556 0.0482006 0.171741 -0.14255 -0.0299813 -0.358171 0.210439 0.0263957 0.21743 -0.156361 -0.0708781 0.0676346 -0.0238281 0.175736 -0.0523629 -0.165808 0.0721951 -0.410242 0.219497 -0.107902 0.28173 -0.200382 0.360958 0.251851 -0.0652977 -0.115538
338 0.278258 0.16284 0.345036 0.175978 0.0682744 -0.011852 -0.066526 0.129057 0.212704 -0.39426 -0.462384 0.114668 0.149557 -0.159354 -0.0226689 -0.294966 0.230048 0.102461 0.270086 -0.1538 -0.0167104 0.0676626 -0.0310201 0.274068 -0.026095 -0.235005 0.0681878 -0.513084 0.241961 -0.0870122 0.257403 -0.0547052 0.353289 0.130803 -0.128505 -0.106131
2685 0.233755 0.208178 0.33985 0.206161 0.0656431 0.0179931 -0.0806303 0.0627802 0.203596 -0.335672 -0.458597 0.113217 0.115975 -0.212054 0.0417163 -0.31634 0.199816 0.163407 0.309827 -0.160188 -0.0490404 0.0676871 -0.0516657 0.235127 0.0119969 -0.199842 0.0891204 -0.429127 0.262961 -0.133656 0.238188 -0.0583987 0.376732 0.124752 -0.0885864 -0.0891287
81 0.193349 0.464848 0.503139 0.274216 0.350152 0.00984016 -0.0561471 0.450584 0.0731609 -0.492744 -0.560136 0.0685603 0.19852 0.349014 0.93002 -0.446668 0.347326 0.361715 0.0121527 -0.321408 -0.536036 -0.0613882 -0.279858 0.193574 -0.136149 -0.6709 0.668856 -0.274893 0.550932 0.143388 0.505214 -0.157164 0.631574 0.154443 -0.210032 -0.322823
82 0.154757 0.47493 0.543343 0.322047 0.36568 -0.0763277 -0.10696 0.408177 0.0451824 -0.528511 -0.485385 0.0683472 0.152155 0.331308 0.960412 -0.497185 0.336003 0.297077 -0.0766687 -0.3217 -0.537738 -0.120846 -0.306002 0.239316 -0.199775 -0.680652 0.66003 -0.274043 0.533103 0.141294 0.560173 -0.0900568 0.594021 0.113788 -0.230596 -0.36564
4214 0.0454757 0.100866 0.267603 0.22219 0.0593101 0.152769 0.0620915 0.0916307 0.0361544 -0.0819986 -0.291427 -0.0171637 0.240671 -0.236445 -0.099966 -0.395529 0.0668725 0.0413872 0.141972 -0.0913476 -0.12335 0.00792028 -0.0841392 -0.00535128 -0.0466598 0.00523488 0.10616 -0.237611 0.160254 -0.199006 0.314043 -0.198121 0.262111 0.33849 0.0806663 -0.0580717
525 -0.129001 0.10201 0.583685 0.214067 0.0888787 0.230474 0.189444 0.0184641 0.302547 -0.0802809 -0.461665 -0.268092 0.469499 -0.447325 -0.0494356 -0.265794 0.0373805 0.115182 0.448788 -0.15805 -0.302829 0.189218 -0.272318 -0.100074 -0.130914 0.103965 0.44535 0.20937 0.114683 -0.289516 0.496737 -0.214022 0.851834 0.613157 0.708896 -0.0356654
493 0.236429 0.220099 0.552634 0.0973077 0.349812 0.58243 0.349046 0.277275 -0.211865 -0.270065 -0.376141 -0.263994 0.536482 -0.760731 -0.234272 -0.0872459 -0.144185 0.160877 0.468484 -0.134086 -0.315898 -0.290086 -0.266075 -0.199616 -0.0824872 0.0177845 0.373996 -0.131174 -0.0241195 -0.0207674 0.935901 -0.383344 0.378254 0.869203 0.355116 -0.406382
1173 0.234203 0.151675 0.363504 0.141146 0.200735 0.279259 0.214365 0.232211 -0.190712 -0.168888 -0.285338 -0.307247 0.311374 -0.458908 -0.10127 -0.319772 0.0638081 -0.0482621 0.245352 -0.210493 -0.0734772 -0.0535672 -0.0957787 -0.0809521 -0.176355 0.148202 0.0566748 -0.361715 0.106595 -0.41427 0.696271 -0.289204 0.335524 0.483566 0.00894287 -0.335373
2157 0.12764 0.153422 0.317855 0.23675 0.0569384 0.0714807 0.0219599 0.16469 0.109093 -0.228159 -0.422927 0.0158262 0.173276 -0.0720912 0.145676 -0.398385 0.196197 0.098367 0.16141 -0.175738 -0.14085 0.0541629 -0.0715467 0.107096 -0.0842163 -0.159948 0.132887 -0.354858 0.276355 -0.169508 0.273823 -0.118934 0.36682 0.200616 -0.0740591 -0.0843706
1859 0.273001 0.181183 0.361032 0.184884 0.0425961 0.0454459 -0.0905194 0.124144 0.184382 -0.413855 -0.546912 0.169233 0.111598 -0.176224 0.0998826 -0.320535 0.202118 0.244398 0.306372 -0.208228 -0.0274265 0.0640736 -0.0624614 0.271741 0.0315568 -0.293548 0.0706901 -0.568285 0.329436 -0.0978921 0.167112 0.0265211 0.341071 0.058624 -0.211174 -0.0998808
1764 -0.193209 -0.25073 0.174895 0.633451 -0.433888 0.325154 0.247738 0.392098 0.362894 -0.00418396 -0.286427 0.130657 0.815889 -0.118423 -0.586341 -0.982981 0.257017 -0.121918 -0.293385 -0.0328204 0.0994511 0.288317 0.00779767 -0.336967 -0.00874076 -0.0991896 -0.194234 -0.743232 0.315308 -0.313945 0.00323469 -0.235173 0.120644 0.507284 -0.174701 0.424134
1765 -0.31766 -0.079546 0.238475 0.580459 -0.249655 0.257738 0.0484929 0.162085 0.118836 0.0437579 -0.288692 0.0820525 0.445146 -0.188638 -0.412674 -0.81793 0.151025 -0.104228 -0.199211 -0.154477 -0.0669351 0.204048 -0.0461333 -0.118013 -0.0563193 0.0326603 -0.0720434 -0.513211 0.34691 -0.203639 -0.032555 -0.196865 0.134172 0.376703 0.096065 0.305996
3251 -0.263222 -0.175054 0.259319 0.617132 -0.307481 0.200213 0.0961513 0.157924 0.191312 -0.0715458 -0.376709 0.191625 0.490796 -0.100421 -0.377925 -0.86258 0.224395 -0.0258269 -0.26582 -0.185848 0.0112269 0.262451 -0.0551802 -0.121612 -0.0845935 -0.00626065 -0.175296 -0.638259 0.360543 -0.293969 -0.0682853 -0.0923467 0.141047 0.301414 0.00481011 0.371038
1969 -0.143067 -0.190989 0.201882 0.710213 -0.375779 0.307733 0.183727 0.38051 0.215416 -0.0235542 -0.336682 0.166793 0.677515 -0.176654 -0.701781 -1.09928 0.293484 -0.15777 -0.325083 -0.145714 0.101209 0.32097 0.024113 -0.189808 -0.0442236 -0.035297 -0.291495 -0.921748 0.397885 -0.297859 0.00486683 -0.37012 0.0401659 0.508393 -0.185312 0.28677
2414 -0.308465 -0.167582 0.243477 0.621201 -0.351828 0.315945 0.0736354 0.225113 0.26493 0.0485177 -0.386327 0.144865 0.586571 -0.174801 -0.533671 -0.923654 0.233797 -0.0612583 -0.216445 -0.165373 -0.0420814 0.326719 0.0165373 -0.12861 0.00540423 -0.0285334 -0.12763 -0.688894 0.442775 -0.241376 -0.107509 -0.209854 0.183717 0.349598 0.058704 0.428513
1028 -0.369814 -0.216015 0.230281 0.702475 -0.452783 0.261123 0.0591456 0.172492 0.377189 0.126542 -0.439123 0.11509 0.643489 -0.153276 -0.636317 -1.22443 0.320362 -0.215229 -0.376916 0.0187755 -0.0713174 0.333146 0.00207966 -0.239421 -0.0549485 0.112819 -0.178782 -0.750247 0.526869 -0.480074 -0.0658062 -0.203807 0.19992 0.366617 0.00227971 0.547191
3507 0.0928775 0.146914 0.319301 0.288523 -0.00037725 0.0852348 -0.0721174 0.0399764 0.106228 -0.202132 -0.492371 0.17379 0.112826 -0.200051 0.0823741 -0.486345 0.112075 0.198994 0.189447 -0.127367 -0.100108 -0.0105913 -0.1115 0.117028 -0.0261046 -0.107114 0.0630205 -0.431871 0.335318 -0.178149 0.193231 -0.0302696 0.297118 0.142961 -0.12362 0.0266885
3500 -0.121509 0.0537553 0.212473 0.242009 -0.0196974 0.31613 0.0505415 0.264099 0.15325 0.100685 -0.192339 -0.152444 0.476167 -0.193726 -0.148928 -0.514554 0.147347 -0.140382 0.0762639 -0.0940906 -0.208854 0.133779 0.00109428 -0.172228 0.0206382 -0.00153766 0.220938 -0.195632 0.184193 -0.250035 0.209571 -0.328404 0.338191 0.44292 0.195399 0.112139
56 0.0804907 -0.0816176 0.0301722 -0.190819 0.0432381 0.722242 0.281048 0.566504 0.188092 0.272347 -0.482564 -0.417554 0.683195 0.0328846 -0.150013 -0.405462 0.362537 0.173711 0.126359 -0.191751 -0.498366 0.394117 0.179131 -0.46715 0.326359 0.025463 0.379034 -0.453734 0.364452 -0.334605 0.110343 -0.813225 0.544165 0.703209 0.366647 0.237008
397 0.0974946 0.0896547 0.103659 0.0271673 0.152874 0.668849 0.260702 0.685468 0.247491 0.181321 -0.25728 -0.346798 0.747227 -0.0749074 -0.192291 -0.514503 0.370745 -0.0453227 0.258355 -0.0933696 -0.384543 0.385874 0.267553 -0.378109 0.211804 -0.0732933 0.271017 -0.304044 0.189998 -0.13978 0.187356 -0.932531 0.55231 0.82408 0.313214 -0.00538225
139 -0.00484184 0.0696307 0.146975 0.146397 0.1065 0.515884 0.143898 0.534331 0.193225 0.227516 -0.038466 -0.351602 0.740762 -0.146749 -0.205773 -0.612761 0.270397 -0.235999 0.146644 -0.0744174 -0.300678 0.311174 0.177402 -0.35011 0.117375 -0.0417287 0.318256 -0.283863 0.133154 -0.251297 0.295116 -0.726837 0.431134 0.763913 0.20859 -0.0485503
2887 0.097752 0.00504399 0.300975 0.442408 -0.0500296 0.0172852 0.209152 0.35208 0.124633 -0.344794 -0.209887 0.0321999 0.335908 -0.124835 -0.378159 -0.579945 0.254499 -0.125691 -0.103439 -0.264131 0.184893 0.179444 0.0120417 0.175603 -0.219094 -0.0976059 -0.325226 -0.663141 0.202428 -0.100857 0.265454 -0.235484 0.215739 0.321487 -0.121091 -0.0676331
12 0.240596 0.0110104 0.554916 0.0837996 0.186712 0.13305 -0.146433 0.512848 0.291902 -0.754388 -0.457515 -0.0510331 0.387107 -0.127912 0.0809291 -0.0967689 0.406789 0.0289406 0.351807 -0.702535 0.0423756 0.417026 0.00352339 0.456835 -0.0756418 -0.502235 0.0805656 -0.758319 0.205497 -0.0244857 0.118923 0.0942022 0.68104 0.0573637 0.142119 -0.230019
328 -0.0480623 0.0129463 0.195009 0.0789012 0.0459898 0.52841 0.0255959 0.529813 0.119939 0.120038 -0.0516812 -0.39612 0.61454 -0.20394 -0.0306788 -0.64898 0.221721 -0.222772 0.0479746 -0.231164 -0.228975 0.293102 0.151387 -0.311159 0.111869 0.0599871 0.290379 -0.363021 0.23641 -0.532571 0.268616 -0.452193 0.428457 0.513101 0.243353 0.0747012
323 -0.0980878 0.0453217 0.163526 0.13598 0.0188395 0.555634 0.10537 0.310496 0.102085 0.265558 -0.272779 -0.308304 0.700748 -0.26626 -0.375439 -0.670856 0.193895 -0.106324 0.133771 0.0305627 -0.422802 0.242272 0.0360323 -0.424092 0.168426 0.117862 0.471735 -0.153788 0.106522 -0.361782 0.337944 -0.734065 0.388944 0.859793 0.42992 0.12263
2776 0.199978 0.186937 0.31709 0.197618 0.118301 0.158974 0.0813128 0.167797 -0.060076 -0.179591 -0.35316 -0.08354 0.280074 -0.308351 -0.0740737 -0.382621 0.109428 -0.00263117 0.219426 -0.123297 -0.0831716 -0.0598659 -0.0930891 0.0395258 -0.106482 0.033276 0.0839107 -0.334599 0.14594 -0.310397 0.545706 -0.231763 0.306342 0.387277 -0.0302145 -0.215424
970 0.158743 0.143163 0.24546 0.0150342 0.255001 0.488747 0.055945 0.402828 -0.188689 -0.0674024 -0.184503 -0.32133 0.463694 -0.313364 -0.0650701 -0.365677 0.118572 -0.0795969 0.235158 -0.175986 -0.216771 0.0403429 0.00515161 -0.180392 0.05328 -0.00600424 0.29026 -0.39451 0.0825997 -0.325445 0.534831 -0.458806 0.283761 0.564525 0.0616469 -0.251876
2052 0.0548261 0.130336 0.22186 0.176957 0.0605426 0.0903006 0.0302757 0.0790545 0.0700695 -0.112167 -0.250422 -0.0239746 0.164924 -0.150843 -0.0137898 -0.300419 0.0945319 0.0215436 0.141086 -0.0733524 -0.116278 0.0170522 -0.0729007 0.0281953 -0.0467048 -0.042449 0.118226 -0.196344 0.151711 -0.138278 0.272617 -0.131603 0.265528 0.253457 0.0418905 -0.0720034
414 -0.211939 0.0667077 0.565865 0.317329 -0.0555221 0.197015 0.253039 -0.0163893 0.612232 0.0269082 -0.446451 -0.150104 0.55711 -0.526042 -0.26824 -0.409306 0.101361 0.090477 0.385191 -0.0585711 -0.249683 0.207947 -0.165404 -0.118816 -0.0424952 0.168786 0.365649 0.261747 0.21802 -0.268334 0.316611 -0.260428 0.926296 0.634497 0.918405 0.319036
370 -0.157447 0.00438017 0.575636 0.30213 -0.0085953 0.209949 0.42766 0.0768546 0.569187 -0.0135246 -0.664326 -0.202326 0.607242 -0.319304 -0.19409 -0.153583 0.167285 0.151149 0.406091 -0.0895738 -0.344581 0.236474 -0.225687 -0.1293 -0.153134 0.0429473 0.385956 0.301835 0.186033 -0.177822 0.257446 -0.285131 0.973789 0.612768 0.850068 0.178503
4970 -0.219812 -0.0427274 0.272888 0.51929 -0.18154 0.274353 0.00899184 0.182693 0.119682 -0.0222327 -0.311656 0.0665495 0.408294 -0.201052 -0.307631 -0.781923 0.188787 -0.0835569 -0.127388 -0.188296 -0.0805784 0.167376 -0.041655 -0.0526686 -0.0528157 -0.014777 -0.0334204 -0.555671 0.372531 -0.208952 0.0218315 -0.182007 0.177559 0.320052 0.0301597 0.228627
3623 -0.205643 -0.101278 0.222035 0.491657 -0.215884 0.303781 0.0711921 0.276418 0.176157 -0.0350198 -0.310527 0.0908649 0.489182 -0.136815 -0.370068 -0.735554 0.227512 -0.0537219 -0.160228 -0.192092 -0.0203717 0.224958 0.00561084 -0.0771382 -0.0249378 -0.060824 -0.0986032 -0.593499 0.355885 -0.166518 -0.0362856 -0.217407 0.143391 0.336374 0.0129475 0.282188
1004 -0.174945 0.0754258 0.398747 0.194812 -0.0809738 0.293926 0.106106 0.129653 0.493939 0.171402 -0.484923 -0.117176 0.488666 -0.247962 0.0749681 -0.334552 0.144649 0.137017 0.366991 -0.0995624 -0.342009 0.21545 -0.0933 -0.123068 0.034563 -0.0544237 0.43037 0.138257 0.311652 -0.219534 0.176495 -0.193298 0.746543 0.427696 0.520606 0.225993
746 -0.232382 0.139256 0.408321 0.319877 -0.0600826 0.198327 0.109073 -0.0221701 0.478153 0.139987 -0.392454 -0.125208 0.433688 -0.371214 -0.155473 -0.479271 0.120304 0.00620029 0.350405 0.000222932 -0.284443 0.191305 -0.103509 -0.102321 -0.0131347 0.0967326 0.363984 0.15977 0.213729 -0.260646 0.262663 -0.290093 0.715503 0.546848 0.596134 0.187892
409 -0.295747 0.0763907 0.512516 0.381567 -0.107475 0.161778 0.155239 -0.0688671 0.516179 0.146044 -0.479893 -0.190952 0.478278 -0.41916 -0.239098 -0.490914 0.107276 0.0170655 0.356845 -0.0567238 -0.276613 0.299869 -0.159809 -0.109011 -0.104412 0.181342 0.356658 0.228809 0.205657 -0.318576 0.229166 -0.299265 0.834432 0.578044 0.829742 0.207819
408 -0.141415 0.160099 0.451338 0.281799 0.00664527 0.0995011 0.0941983 0.0284059 0.399218 -0.00102415 -0.372014 -0.187627 0.336718 -0.352774 -0.0650895 -0.367616 0.126181 -0.013462 0.345458 -0.086019 -0.217869 0.148117 -0.109663 -0.0106973 -0.0933269 0.0767443 0.315193 0.110425 0.188345 -0.256599 0.333177 -0.210008 0.68087 0.44434 0.551263 0.0762987
3209 -0.0800804 0.0691766 0.172441 0.235844 -0.01861 0.284568 -0.0107841 0.229472 0.048897 0.0754089 -0.208074 -0.0812094 0.402826 -0.117213 -0.0897025 -0.50315 0.154819 -0.0347255 0.0511799 -0.0899482 -0.223532 0.117007 -0.0148506 -0.11617 0.0703568 -0.043612 0.21273 -0.246461 0.216822 -0.195694 0.166532 -0.338435 0.224711 0.389476 0.0843856 0.0722233
821 0.0174657 0.0410118 0.257368 -0.0115752 0.129777 0.535305 0.124098 0.623954 0.293115 0.0603498 -0.0656451 -0.54633 0.673387 -0.223169 0.0730403 -0.484862 0.28008 -0.208634 0.197678 -0.291609 -0.22238 0.362657 0.205354 -0.305093 0.105923 -0.0153312 0.342149 -0.322057 0.239918 -0.547829 0.320635 -0.442984 0.665461 0.503307 0.354109 0.0462775
1381 0.127418 0.22305 0.385799 0.260986 0.039417 0.215726 -0.0463409 0.0362562 0.0390274 -0.252813 -0.65792 0.180233 0.0433638 -0.384207 0.173148 -0.425928 0.0455589 0.39404 0.368519 -0.23535 -0.0384716 -0.0757116 -0.101887 0.136841 0.0191669 -0.0398124 -0.030253 -0.51926 0.474118 -0.288933 0.214947 0.0409737 0.316926 0.106058 -0.1609 -0.0293548
2700 0.187415 0.201957 0.349741 0.246595 0.056065 0.117355 0.000885726 0.0600997 0.0374658 -0.283893 -0.577366 0.165927 0.0528767 -0.281991 0.150378 -0.400246 0.0768303 0.311722 0.32815 -0.173679 -0.0245154 -0.0851817 -0.0903545 0.157113 -0.0307554 -0.0686321 -0.0410534 -0.474011 0.380929 -0.219543 0.272715 0.0251571 0.296523 0.129791 -0.200304 -0.0828588
974 0.301461 0.367854 0.433771 0.257633 0.094064 0.152382 -0.0809911 -0.0298752 0.0392361 -0.316109 -0.776305 0.229432 -0.0903321 -0.478284 0.336293 -0.437491 0.0233244 0.502828 0.546907 -0.231196 0.000232044 -0.130566 -0.0897306 0.257755 0.0280575 -0.0410874 -0.0365986 -0.558092 0.565608 -0.3598 0.296757 0.054016 0.408423 0.0567354 -0.266695 -0.13163
1081 0.205306 0.266073 0.443572 0.305473 0.0573445 0.113911 -0.0900777 0.0569352 0.0280831 -0.405484 -0.746802 0.248867 -0.0856036 -0.351577 0.324508 -0.482139 0.0528289 0.471112 0.390067 -0.27808 0.0250029 -0.136187 -0.15062 0.268424 -0.0128418 -0.100699 -0.0649756 -0.625867 0.564723 -0.282591 0.238466 0.184939 0.343818 -0.0297132 -0.306958 -0.0378651
1813 0.234005 0.226019 0.416099 0.175861 0.128356 0.0636968 -0.0718031 0.0825957 0.115803 -0.404659 -0.671564 0.181696 0.07037 -0.134144 0.393517 -0.396989 0.16724 0.33328 0.334754 -0.214071 -0.151353 -0.0415442 -0.104669 0.223735 -0.0334941 -0.277241 0.1223 -0.549923 0.434256 -0.190927 0.324408 0.107452 0.462715 0.0657272 -0.207016 -0.123008
1817 0.114841 0.155784 0.328839 0.228672 0.026546 0.1236 -0.0331752 0.0928749 0.0982102 -0.247215 -0.476329 0.111874 0.17961 -0.198626 0.0940529 -0.41839 0.14819 0.151205 0.207148 -0.164739 -0.0883362 -0.010067 -0.0930757 0.116183 -0.0476766 -0.121806 0.0672306 -0.441989 0.289191 -0.188358 0.273171 -0.0181046 0.320242 0.167233 -0.11345 -0.0508764
1815 0.235212 0.198051 0.401468 0.192956 0.0552772 0.0950122 -0.0918572 0.0145036 0.131242 -0.366239 -0.684911 0.214426 0.0840131 -0.216886 0.259698 -0.375913 0.131048 0.34845 0.34792 -0.191415 -0.0973233 -0.00197653 -0.129243 0.207722 -0.0163679 -0.22087 0.0624756 -0.547192 0.407224 -0.20412 0.234546 0.118598 0.406827 0.0307838 -0.20035 -0.0498206
432 0.164313 0.488534 0.482528 0.33217 0.0680244 0.52299 -0.168904 0.0667868 0.0820225 -0.216064 -0.779328 0.220034 -0.240198 -0.718465 0.373448 -0.368655 -0.00274463 0.543464 0.748857 -0.47756 -0.0153274 -0.161208 0.0885123 0.297084 0.211855 -0.167857 0.000818943 -0.893576 0.854842 -0.13841 0.0642052 0.0277773 0.354119 0.00294156 -0.322209 -0.044049
3954 -0.0104847 0.126977 0.261425 0.222233 0.0382458 0.116366 -0.00172457 0.110515 0.0373531 -0.0716617 -0.27384 -0.0402713 0.228317 -0.136127 0.00211827 -0.421002 0.103652 0.00399865 0.110286 -0.133869 -0.128618 0.0423021 -0.0700126 0.0254577 -0.028966 -0.0371409 0.13469 -0.249909 0.2087 -0.227034 0.271141 -0.163536 0.289799 0.272386 0.0414103 -0.0100688
1796 0.145169 0.218388 0.451613 0.285657 0.195174 0.0539175 0.234377 0.13949 -0.383826 -0.196019 -0.435085 -0.149805 0.159739 -0.240866 0.0135688 -0.357566 0.0388607 0.088127 0.106384 -0.363107 -0.072195 -0.125398 -0.243275 0.201741 -0.330975 0.202712 0.00182852 -0.266494 0.15818 -0.423027 0.709475 -0.318397 0.351918 0.447736 0.061534 -0.310522
3233 0.046198 0.190058 0.36642 0.31732 0.149173 0.122417 0.152504 0.0644924 -0.363508 -0.180127 -0.448481 -0.051612 0.173254 -0.253429 -0.143288 -0.398291 0.0163186 0.154057 0.116591 -0.211314 -0.16518 -0.115115 -0.257339 0.09476 -0.226647 0.141264 0.121859 -0.247042 0.102989 -0.249077 0.566173 -0.389196 0.21412 0.563717 0.0657862 -0.236485
3155 0.11422 0.166458 0.354506 0.26373 0.143768 0.0218974 0.117529 0.0953983 -0.129936 -0.181412 -0.364498 -0.0601964 0.187724 -0.200485 -0.039002 -0.405012 0.106993 0.0389523 0.121296 -0.174492 -0.131346 -0.0334974 -0.164414 0.0986267 -0.226553 0.060355 0.0819253 -0.270923 0.14162 -0.294274 0.514203 -0.24904 0.326458 0.409767 0.0231128 -0.189403
1488 -0.0211771 0.297375 0.568027 0.26129 0.302305 0.024181 0.110294 0.231545 -0.64579 -0.293704 -0.495913 -0.255304 0.0799098 -0.248705 0.0714627 -0.381197 0.0376405 0.165772 0.190415 -0.587543 -0.0943778 -0.138784 -0.345228 0.440531 -0.31952 0.295497 0.0949722 -0.235856 0.152009 -0.41907 0.741744 -0.32945 0.429962 0.503103 0.253251 -0.251771
1490 0.0521055 0.285717 0.569771 0.362608 0.33867 0.00976213 0.18456 0.0776984 -0.661192 -0.413032 -0.598768 -0.0875804 -0.00667122 -0.276453 -0.0445054 -0.386912 -0.00655689 0.295261 0.114562 -0.473718 -0.139401 -0.213548 -0.414647 0.370914 -0.453311 0.207519 0.0913672 -0.287076 0.109107 -0.198333 0.742987 -0.417058 0.296395 0.607074 0.222651 -0.390014
344 0.299309 0.243606 0.456801 0.0823517 0.0432056 0.51875 -0.0450569 0.459764 0.198711 -0.394396 -0.694432 0.0224078 0.0742305 -0.585195 0.28094 -0.270661 0.122018 0.577582 0.764256 -0.459072 0.167328 0.0278966 0.0959635 0.25419 0.257622 -0.163595 -0.168323 -0.792641 0.680102 -0.131519 0.0764476 0.0818596 0.51224 0.0428883 -0.255288 0.0133661
404 -0.113528 0.129205 0.672801 0.250492 0.0247157 0.0638183 0.285151 0.00799037 0.735114 -0.166588 -0.494753 -0.271994 0.252337 -0.478706 0.0991811 -0.307161 0.118727 0.146202 0.533451 -0.209662 -0.0894958 0.276601 -0.0452177 -0.0173746 -0.201189 0.20907 0.137195 0.228627 0.326332 -0.400272 0.284809 -0.0858588 1.08674 0.395639 0.880644 0.0929945
2097 -0.0252602 0.127053 0.270621 0.257312 0.0272902 0.101319 0.0521079 0.097086 0.170457 -0.0624189 -0.273631 -0.015488 0.232627 -0.158228 -0.0377122 -0.363278 0.129613 0.024195 0.150047 -0.0969682 -0.134525 0.0767437 -0.0619528 0.0216532 -0.0684036 -0.0431156 0.151976 -0.151007 0.192736 -0.135304 0.227646 -0.170058 0.342166 0.29922 0.144955 -0.0115571
690 -0.207147 0.0810729 0.416283 0.338286 -0.0425365 0.178296 0.195103 -0.0094539 0.387307 0.0753622 -0.356459 -0.0977417 0.448286 -0.328424 -0.27839 -0.450287 0.0943341 0.0115071 0.259106 0.0226927 -0.268083 0.145796 -0.15105 -0.138995 -0.0812871 0.0675646 0.333533 0.150432 0.124449 -0.171968 0.268949 -0.37853 0.565153 0.635404 0.585427 0.156825
934 -0.147238 0.0692042 0.430736 0.207161 -0.0100683 0.203721 0.121393 0.0762974 0.497348 0.0144536 -0.399442 -0.15033 0.512376 -0.292008 -0.122381 -0.463826 0.172953 0.0377406 0.337818 -0.0546279 -0.286612 0.273778 -0.0923401 -0.13263 -0.0038801 0.0279598 0.37766 0.0984267 0.155035 -0.272167 0.279906 -0.290907 0.758226 0.581745 0.638484 0.18493
407 -0.111177 0.128664 0.447456 0.278695 0.0526597 0.0899045 0.203786 -0.00457574 0.536597 -0.000276929 -0.382852 -0.181108 0.311723 -0.349621 -0.123379 -0.443176 0.162581 0.0154611 0.43471 -0.0866303 -0.229181 0.240918 -0.133142 -0.0761416 -0.154628 0.150633 0.356681 0.146286 0.173421 -0.229974 0.301282 -0.259143 0.854936 0.595326 0.666001 0.0648553
688 -0.0043265 0.0571467 0.276356 0.262831 0.0786717 0.316317 0.359751 0.349181 0.481585 0.00998587 -0.186903 -0.201974 0.57136 -0.211834 -0.292955 -0.497332 0.23102 -0.101342 0.288408 0.0162635 -0.186498 0.267926 0.0499032 -0.289737 -0.0914352 -0.000651935 0.263351 -0.0354354 0.0641511 -0.0873814 0.271369 -0.578803 0.617298 0.804841 0.439807 -0.0399018
678 -0.178048 0.0735009 0.510099 0.306546 -0.0221804 0.139991 0.213212 0.00816344 0.519385 -0.0611472 -0.400246 -0.140829 0.404199 -0.320992 -0.176149 -0.457758 0.148904 0.0368732 0.291558 -0.0632476 -0.229876 0.210135 -0.117882 -0.107218 -0.0907889 0.0926389 0.304947 0.107613 0.199725 -0.222056 0.285278 -0.238646 0.776515 0.554129 0.63864 0.169597
405 -0.143451 0.0920685 0.51771 0.287264 -0.0061711 0.118951 0.210684 0.04884 0.531835 -0.0238778 -0.403187 -0.201034 0.413751 -0.365727 -0.100609 -0.380898 0.108101 0.0294938 0.368966 -0.120285 -0.183054 0.22088 -0.113567 -0.0622508 -0.113113 0.0875462 0.272338 0.127851 0.191895 -0.313185 0.337232 -0.198646 0.848846 0.528678 0.664897 0.130782
2585 0.147612 0.189826 0.320468 0.270963 0.144811 0.078483 0.156043 0.217814 0.0719196 -0.199689 -0.325921 -0.0690137 0.206183 -0.143834 0.0511345 -0.39899 0.197005 -0.0300481 0.162638 -0.229174 -0.0964352 0.0252987 -0.0295381 0.0993877 -0.184058 -0.0837321 0.0474136 -0.35364 0.234159 -0.167166 0.3969 -0.265118 0.390404 0.353014 -0.0548552 -0.20603
298 0.20027 0.29603 0.206567 0.243651 0.310435 0.247942 0.41471 0.686823 0.160321 -0.18194 -0.117363 -0.324604 0.160243 -0.00357475 0.0210054 -0.29027 0.491257 -0.13385 0.102683 -0.546047 -0.0868956 0.274187 0.299001 0.191657 -0.126543 0.0513735 -0.173328 -0.46703 0.340038 0.0510222 0.220085 -0.877166 0.557276 0.498523 0.181336 -0.309075
1748 0.0265869 0.0988396 0.185342 0.138974 0.0895859 0.384167 0.122424 0.487764 0.156728 0.122341 -0.0629639 -0.343688 0.585142 -0.178702 -0.0781305 -0.48899 0.25638 -0.258651 0.166568 -0.135341 -0.193031 0.267296 0.165853 -0.205364 0.051097 -0.00732747 0.223488 -0.257708 0.13685 -0.336882 0.31782 -0.50716 0.440306 0.554542 0.15957 -0.0395596
1022 0.154762 0.179578 0.216585 0.0828294 0.23703 0.377696 0.188255 0.471336 0.14789 0.0439688 -0.105328 -0.367084 0.375359 -0.211071 0.151029 -0.421973 0.222057 -0.159497 0.372289 -0.215938 -0.102939 0.20361 0.244867 -0.137519 -0.0216211 0.0547506 0.12789 -0.28572 0.179374 -0.362925 0.368038 -0.526278 0.539389 0.50298 0.0631318 -0.253825
63 0.247277 0.210361 0.134749 0.0549668 0.287244 0.502461 0.452214 0.728299 0.174556 0.0609885 -0.153398 -0.327058 0.45926 -0.0875922 0.0736328 -0.348004 0.341404 -0.104601 0.374883 -0.264591 -0.144352 0.231501 0.433879 -0.180351 0.0733267 -0.0422155 -0.140703 -0.497934 0.338593 -0.0345569 0.277278 -0.770155 0.519871 0.599645 -0.011795 -0.333275
4604 0.13692 0.208285 0.341546 0.241726 0.157106 0.0641479 0.0915325 0.109056 -0.0797369 -0.232847 -0.424564 -0.0232393 0.176271 -0.176706 0.01078 -0.368845 0.10318 0.101658 0.183457 -0.191373 -0.1257 -0.0498381 -0.151457 0.126383 -0.168157 -0.0180386 0.110994 -0.321685 0.194045 -0.196535 0.464747 -0.223364 0.320098 0.369345 -0.0306755 -0.215404
2013 0.0459655 0.245475 0.516578 0.337881 0.24636 0.0956957 0.261978 0.122921 -0.570769 -0.17988 -0.528552 -0.124591 0.234228 -0.338705 -0.132241 -0.278615 -0.0528621 0.100381 0.0750918 -0.374032 -0.19353 -0.251941 -0.39219 0.216905 -0.404194 0.193737 0.123787 -0.20973 0.10053 -0.223727 0.838961 -0.374638 0.277602 0.615422 0.168337 -0.334437
182 -0.184874 0.0481461 0.732117 0.136863 0.548582 0.377606 0.288111 0.641333 -0.719279 -0.607558 -0.505647 -0.375332 0.166497 -0.320922 0.165476 -0.291328 -0.104246 0.587157 0.130943 -0.847388 0.0141758 -0.0475411 -0.343213 0.345221 -0.41564 0.292886 -0.0580079 -0.304584 0.150515 0.0452948 0.530778 -0.294913 0.559789 0.642098 0.725926 -0.215754
4627 0.123593 0.101604 0.276257 0.189132 0.078105 0.0581321 0.00672735 0.148917 0.106179 -0.223862 -0.319449 0.00852107 0.167765 -0.118878 0.073598 -0.346009 0.147879 0.0406155 0.123609 -0.133468 -0.0633425 0.0211156 -0.0366927 0.0927292 -0.072522 -0.102278 0.0383577 -0.355935 0.209559 -0.187885 0.267241 -0.0447241 0.297198 0.145487 -0.0657933 -0.0768908
2575 0.105495 0.124137 0.251385 0.236178 0.0697976 0.101612 0.115663 0.201828 0.0949517 -0.110353 -0.307311 -0.0870984 0.209221 -0.137842 0.0252536 -0.372435 0.165264 -0.0326233 0.153653 -0.145036 -0.0669658 0.0938485 0.00152069 0.0311813 -0.140773 -0.0562936 0.023913 -0.391939 0.223477 -0.224148 0.292117 -0.189554 0.327317 0.2574 -0.0467221 -0.145541
800 0.18662 0.204139 0.339705 0.271216 0.159079 0.0630399 0.164613 0.307367 0.0988494 -0.216304 -0.320221 -0.100854 0.196912 -0.0905499 0.153196 -0.360811 0.232444 -0.0281749 0.159815 -0.311776 -0.0582428 0.105017 0.056021 0.192785 -0.194109 -0.142291 -0.0276555 -0.46665 0.298548 -0.206326 0.368068 -0.24906 0.441243 0.227081 -0.100221 -0.273513
463 0.254484 0.156202 0.405002 0.132634 0.147849 -0.0368884 -0.00298574 0.173664 0.202544 -0.449837 -0.457788 0.0801864 0.208536 -0.0807375 0.123789 -0.273776 0.233475 0.114485 0.257151 -0.216545 -0.0537569 0.0774118 -0.0495267 0.262412 -0.100306 -0.300341 0.0716514 -0.528264 0.20941 -0.115934 0.323494 0.0091629 0.464544 0.0981591 -0.0944113 -0.174079
1530 0.261522 0.029618 0.45074 0.0487548 0.168566 -0.0237053 -0.05375 0.275235 0.290871 -0.558278 -0.598984 0.144716 0.409674 0.139139 0.322667 -0.28317 0.313039 0.242083 0.237404 -0.283268 -0.178411 0.196051 -0.122093 0.232926 -0.106321 -0.569377 0.172507 -0.526026 0.214292 -0.0970131 0.27086 0.118527 0.633906 0.0927985 -0.0576246 -0.162906
172 0.279641 -0.0761679 0.541183 -0.0217048 0.177617 0.023805 -0.0417049 0.323702 0.281848 -0.621133 -0.642776 0.166219 0.509841 0.161095 0.481873 -0.334543 0.32273 0.207919 0.210973 -0.363729 -0.198397 0.168461 -0.148992 0.132454 -0.137106 -0.623918 0.147441 -0.685733 0.262582 -0.21063 0.348162 0.359175 0.675432 0.0254843 -0.16379 -0.166428
174 0.332516 -0.0912266 0.603969 -0.0639127 0.176375 0.0744125 -0.0314814 0.413707 0.301898 -0.694394 -0.843526 0.298284 0.549703 0.24296 0.46515 -0.135994 0.367274 0.372687 0.30975 -0.538742 -0.285789 0.272465 -0.229844 0.306809 -0.16517 -0.78282 0.201571 -0.685399 0.274259 0.00681072 0.236004 0.277613 0.809692 0.100173 -0.00901358 -0.204071
4890 0.0569678 0.151062 0.317166 0.274686 0.0426085 0.0453682 0.0314471 0.0993072 0.124329 -0.194773 -0.371656 0.0216462 0.157022 -0.0915474 0.0609876 -0.397675 0.187131 0.0913974 0.106584 -0.154016 -0.139823 0.0683766 -0.107759 0.0801124 -0.0898728 -0.0855995 0.132051 -0.288628 0.274595 -0.14383 0.250108 -0.143012 0.355818 0.218809 0.00563949 -0.0417211
2589 0.0124001 0.147728 0.321207 0.28297 0.0279283 0.0804682 0.0548539 0.13707 0.149625 -0.150372 -0.374438 -0.00401281 0.20808 -0.133532 0.0961659 -0.413489 0.168129 0.0828976 0.123705 -0.166964 -0.15348 0.0623439 -0.10879 0.0700842 -0.107277 -0.0987794 0.167305 -0.240495 0.288356 -0.15168 0.262896 -0.135862 0.411495 0.230216 0.0494383 -0.023326
91 0.148071 0.214745 0.384557 0.296399 0.174235 0.12055 0.109736 0.385927 -0.0232699 -0.360055 -0.347288 -0.120256 0.159401 -0.00695542 0.343481 -0.444938 0.265753 0.0500364 0.0253899 -0.301239 -0.16414 0.00962851 -0.113843 0.0550581 -0.189196 -0.176784 0.167208 -0.42077 0.37656 -0.164582 0.38881 -0.18482 0.409705 0.195886 -0.166509 -0.227497
111 0.117513 0.17151 0.296545 0.335218 0.0731759 0.0746256 0.0779665 0.270454 0.154558 -0.230939 -0.283207 -0.0481209 0.186291 -0.0927516 0.020796 -0.454727 0.274018 -0.0875622 0.12759 -0.240493 -0.0326736 0.123009 0.0333187 0.127227 -0.136488 -0.134483 -0.0168113 -0.49167 0.285704 -0.159587 0.245709 -0.23608 0.364189 0.238669 -0.104891 -0.140159
22 0.227139 0.0917976 0.479832 0.0603039 0.234705 0.514513 0.32195 0.376371 -0.275382 -0.326192 -0.353805 -0.373784 0.178225 -0.678591 -0.0787059 -0.237063 -0.00191935 0.0802166 0.192333 -0.58179 0.0816879 -0.0503411 -0.0868451 -0.060365 -0.237674 0.332971 -0.119106 -0.516292 0.305399 -0.496428 0.596989 -0.142473 0.393443 0.33931 0.240706 -0.276683
3937 0.107808 0.149998 0.285524 0.226054 0.0474325 0.121402 -0.0393673 0.103032 0.0888146 -0.220386 -0.459915 0.119646 0.146424 -0.173484 0.0873678 -0.401706 0.121044 0.199367 0.221204 -0.109496 -0.0990952 0.00107842 -0.0836058 0.106694 0.00193175 -0.140377 0.0822291 -0.404161 0.305017 -0.129252 0.199317 -0.0573417 0.264191 0.158181 -0.117297 -0.00381161
1812 0.242303 0.209922 0.424257 0.170867 0.0687718 0.134635 -0.130671 0.106453 0.18121 -0.39331 -0.697393 0.205565 0.0972503 -0.220704 0.274143 -0.352148 0.157576 0.369922 0.397898 -0.23547 -0.0977711 -0.00747926 -0.106803 0.23918 0.0560451 -0.309818 0.117146 -0.58653 0.453473 -0.13575 0.209934 0.143606 0.441823 0.0429755 -0.211436 -0.023114
992 0.195771 0.143914 0.273384 0.0446093 0.228811 0.442022 0.160765 0.428526 -0.0455793 -0.109613 -0.181556 -0.396505 0.467781 -0.349586 -0.0143367 -0.357032 0.127515 -0.102128 0.251767 -0.184281 -0.174137 0.0838158 0.0317543 -0.232372 -0.028218 0.058847 0.208886 -0.338666 0.125435 -0.403263 0.577843 -0.432427 0.433693 0.557176 0.161554 -0.252111
1632 0.224224 0.16838 0.260199 0.135717 0.193247 0.38317 0.230924 0.281176 -0.175185 -0.0381732 -0.297546 -0.262382 0.336854 -0.400374 -0.119473 -0.346928 0.0994404 -0.0853571 0.289188 -0.160559 -0.122821 0.00616664 0.0110687 -0.162321 -0.093075 0.155119 0.0785959 -0.366156 0.145925 -0.385343 0.58283 -0.430451 0.324952 0.512104 0.0328754 -0.305806
46 0.27915 -0.232237 0.199665 -0.421428 0.402964 0.83697 0.202363 0.80809 0.124258 -0.581067 -0.365334 -0.713691 0.104928 -0.102179 0.249447 -0.476624 0.30471 0.46538 0.0170174 -0.787254 -0.033678 0.514255 0.174909 -0.438978 0.0134269 0.2884 0.349436 -0.680845 0.371647 -0.766336 -0.16353 -0.535698 0.639652 0.395633 0.768023 0.180109
1184 0.0378833 0.087031 0.228496 0.0687163 0.102849 0.334723 0.0392417 0.418947 0.190544 -0.0203274 -0.073388 -0.359513 0.456004 -0.141405 0.0796047 -0.521862 0.238304 -0.139479 0.0642073 -0.203324 -0.176688 0.246338 0.11359 -0.210599 0.0441626 0.0210541 0.272283 -0.273825 0.212133 -0.43702 0.314447 -0.402623 0.487225 0.41538 0.225152 -0.00163064
1986 -0.0139585 0.113507 0.23084 0.192473 0.0430356 0.287275 0.064937 0.247363 0.106144 0.0394321 -0.21147 -0.17451 0.401062 -0.207163 -0.0823211 -0.489576 0.166822 -0.0917706 0.155132 -0.10295 -0.179084 0.129436 0.0494055 -0.121925 0.0259527 0.0186251 0.197459 -0.260312 0.197939 -0.293579 0.289617 -0.373413 0.3577 0.455622 0.161267 0.0010288
320 -0.0402726 -0.0485094 0.0766311 -0.00216145 -0.0105423 0.626347 0.137386 0.377379 0.0815779 0.301456 -0.342781 -0.297003 0.733473 -0.165222 -0.295884 -0.669316 0.254021 -0.00697179 0.107255 -0.053215 -0.390039 0.356208 0.107196 -0.50301 0.260146 0.136142 0.348234 -0.37734 0.208974 -0.467397 0.212813 -0.652957 0.413661 0.741339 0.325047 0.182824
58 0.116331 -0.0457565 0.23389 -0.111871 0.0223101 0.554803 0.0562295 0.501792 0.407408 -0.0150586 -0.190935 -0.508497 0.542464 -0.257048 0.190766 -0.425429 0.279502 -0.0837571 0.255462 -0.347405 -0.109079 0.449266 0.143047 -0.33366 0.103664 0.0296144 0.348632 -0.383238 0.317321 -0.711691 0.193138 -0.238011 0.710956 0.323565 0.270177 0.114982
50 -0.0745685 0.313211 0.452148 0.305456 -0.100204 0.61285 -0.0264407 0.647469 0.279156 0.100776 -0.386899 -0.1492 0.154825 -0.351761 0.4752 -0.115205 0.101004 0.443474 0.374501 -0.708454 -0.117053 0.260903 0.0269602 0.178931 0.136877 -0.351695 0.290176 -0.199545 0.864678 0.0356225 -0.214078 -0.256168 0.577001 0.0129856 0.141344 0.105364
594 -0.156855 0.119085 0.554605 0.29243 -0.0223958 0.0693147 0.204349 -0.000577296 0.549604 -0.0423126 -0.380656 -0.194002 0.394889 -0.407154 -0.0849537 -0.382692 0.0899136 0.0391401 0.374499 -0.112178 -0.178903 0.167607 -0.125375 -0.0101991 -0.144037 0.12612 0.269562 0.190707 0.205213 -0.295026 0.379788 -0.139839 0.854216 0.490579 0.715881 0.148549
4114 0.0819179 0.106899 0.321849 0.319129 -0.00572784 -0.0050705 0.0279686 0.0247489 0.209325 -0.218986 -0.452388 0.15399 0.202465 -0.0726588 0.0659411 -0.412455 0.204527 0.0718896 0.104516 -0.120115 -0.0713251 0.0233099 -0.089992 0.154371 -0.177733 -0.195075 0.0403444 -0.394084 0.276552 -0.127514 0.189163 0.0244796 0.323667 0.146876 -0.0930757 -0.0427393
1083 -0.166136 0.0380741 0.273934 0.249513 0.0167546 0.391764 0.0121832 0.322016 0.158086 0.112197 -0.135008 -0.240224 0.599513 -0.223432 -0.16309 -0.604663 0.174701 -0.122193 0.13336 -0.109874 -0.276585 0.259727 0.0413221 -0.210412 0.0824739 -0.0526288 0.310667 -0.204309 0.164594 -0.242629 0.241006 -0.43189 0.423548 0.582379 0.28998 0.0808597
168 0.176146 0.276707 0.310608 0.316405 0.39734 0.173224 0.567544 0.619626 0.20647 -0.261572 -0.172545 -0.294198 -0.0205097 0.0464913 0.373664 -0.33196 0.34108 0.0507676 0.337214 -0.486018 -0.0205813 0.192026 0.233395 0.041495 -0.37505 -0.00720945 -0.086019 -0.348748 0.323707 0.0974706 0.243872 -0.673077 0.711286 0.545944 -0.0336753 -0.477915
95 0.291546 0.0546335 0.111821 -0.237029 0.178588 0.560408 0.18777 0.481584 0.287835 -0.0283531 -0.288788 -0.514615 0.443404 -0.210492 0.037347 -0.457069 0.272357 0.000787651 0.288091 -0.181599 -0.17509 0.322009 0.24203 -0.415792 0.144928 0.198839 0.297475 -0.376298 0.26077 -0.71825 0.32678 -0.607544 0.631981 0.563304 0.337818 -0.00976686
2783 0.0870145 0.158354 0.318393 0.250101 0.0352204 0.0991536 -0.0357529 0.104199 0.105439 -0.224787 -0.446663 0.100033 0.1426 -0.200684 0.0628498 -0.429049 0.128635 0.15704 0.191406 -0.170559 -0.0864999 0.0402792 -0.0546507 0.133438 -0.0389732 -0.120809 0.0530361 -0.411742 0.302319 -0.190164 0.202274 -0.0774446 0.316485 0.14877 -0.0630525 -0.0239192
2784 0.0725029 0.144229 0.253961 0.225981 0.0257776 0.0999893 0.0155596 0.101609 0.0792245 -0.142233 -0.365146 0.0795618 0.157316 -0.164611 0.0605586 -0.397822 0.111154 0.119784 0.177419 -0.0983509 -0.109303 0.00135023 -0.0566088 0.0655879 -0.0453416 -0.0791489 0.067836 -0.328039 0.275196 -0.158207 0.20193 -0.0965342 0.273713 0.200716 -0.0655961 -0.0207027
3873 0.131809 0.149814 0.366475 0.278078 0.0514028 0.0245332 0.0529774 0.0741436 0.132276 -0.263536 -0.442161 0.0411365 0.194129 -0.160305 0.0439905 -0.403564 0.182823 0.0557368 0.141322 -0.174768 -0.07275 0.0225455 -0.0664521 0.166612 -0.15407 -0.122212 0.04635 -0.393847 0.266644 -0.209593 0.318923 -0.103404 0.369234 0.212076 -0.0228224 -0.0885769
257 0.118619 0.0125715 0.5609 0.619795 0.0611718 -0.0734032 0.567778 0.110101 0.34535 -0.131984 -0.760368 -0.174653 0.262589 -0.10743 0.281466 -0.175272 0.302942 -0.015737 0.016462 -0.458265 0.112096 -0.0320169 -0.0294468 0.413849 -1.01477 -0.0813114 -0.332756 -0.470277 0.367241 -0.145465 0.261442 0.0834447 0.619965 0.12749 0.07181 -0.286749
1537 0.10756 0.117446 0.364183 0.240472 0.0380877 0.101501 0.010255 0.185703 0.147584 -0.290653 -0.633673 0.133481 0.203975 -0.0620496 0.352194 -0.370734 0.185064 0.277868 0.217797 -0.237557 -0.12158 -0.00250961 -0.0867303 0.18417 -0.0743961 -0.291464 0.0386308 -0.515349 0.43717 -0.137229 0.175818 0.141878 0.412851 0.00574775 -0.201994 -0.0229933
1116 0.225218 0.155737 0.373092 0.220479 0.111643 -0.0641371 0.0712 0.235849 0.245763 -0.37179 -0.411629 -0.0524666 0.164415 -0.0492131 0.203369 -0.282063 0.263005 0.0149458 0.148978 -0.267683 0.0099662 0.115631 0.0287792 0.256348 -0.211076 -0.245285 -0.0312158 -0.572208 0.304979 -0.191517 0.291885 -0.0125035 0.48014 0.0396395 -0.150088 -0.216236
4764 0.0317529 0.103483 0.305626 0.282614 0.0134199 0.070373 0.0530317 0.0688862 0.121935 -0.136015 -0.370961 0.042828 0.214189 -0.16269 -0.0403184 -0.422714 0.149996 0.0417804 0.123589 -0.125352 -0.0903352 0.0544342 -0.0508655 0.0933396 -0.105407 -0.0394802 0.0419523 -0.309662 0.249518 -0.181459 0.239423 -0.136626 0.305252 0.248027 0.0316784 -0.0189034
2640 0.122302 0.179503 0.335534 0.249248 0.0750441 0.114038 -0.015866 0.077712 0.022965 -0.26616 -0.510567 0.103439 0.0896975 -0.214223 0.157998 -0.426226 0.0878012 0.241355 0.240563 -0.205487 -0.0573611 -0.0569133 -0.107794 0.137342 -0.05827 -0.0977474 0.0466305 -0.465575 0.345731 -0.213164 0.2695 -0.00294915 0.320777 0.134487 -0.15931 -0.0829106
611 0.279868 0.262125 0.416762 0.244529 0.05623 0.182307 -0.0407875 0.0832739 0.0646532 -0.334501 -0.685714 0.194414 0.00654555 -0.379613 0.380022 -0.413298 0.0658482 0.418652 0.456075 -0.318883 0.0296423 -0.0547417 -0.0600285 0.197772 0.0193531 -0.118072 -0.103337 -0.586019 0.545225 -0.375167 0.282143 0.0837981 0.417023 -0.00378055 -0.300946 -0.134498
1188 0.204415 0.19523 0.262649 0.175068 0.152978 0.108081 0.227661 0.304264 0.0761154 -0.101972 -0.318036 -0.158502 0.250018 -0.112883 0.0503036 -0.352841 0.234367 -0.0865603 0.261638 -0.219982 -0.0908729 0.100288 0.0732889 0.0794817 -0.144268 0.0183985 -0.029414 -0.359332 0.234124 -0.294542 0.463212 -0.3408 0.467674 0.357462 -0.0598806 -0.279448
1189 0.107836 0.114404 0.233922 0.17865 0.073195 0.241311 0.183814 0.423721 0.0246035 -0.00660213 -0.248077 -0.221058 0.423156 -0.118191 -0.0306554 -0.391402 0.205019 -0.116093 0.138396 -0.223706 -0.124623 0.122782 0.0526917 -0.0427877 -0.0668756 0.0141027 0.0574661 -0.343689 0.207663 -0.283261 0.393703 -0.398193 0.371037 0.439777 0.0270925 -0.135343
2076 0.197262 0.10652 0.350762 0.131184 0.0708023 0.0367259 0.0101013 0.17535 0.162259 -0.337161 -0.474345 0.0455866 0.248817 -0.0489369 0.162096 -0.345711 0.222145 0.100688 0.171538 -0.179247 -0.145042 0.0703847 -0.102809 0.118469 -0.0801736 -0.236276 0.136542 -0.470314 0.280742 -0.174178 0.298176 0.016881 0.4316 0.143714 -0.122523 -0.0855702
468 0.375823 0.0705484 0.51474 0.0441758 0.178303 -0.0647672 -0.0708729 0.308938 0.395677 -0.675385 -0.596124 0.106186 0.435436 0.0751808 0.248463 -0.234896 0.412986 0.134502 0.373227 -0.300722 -0.11472 0.302495 -0.0542144 0.335064 -0.0697727 -0.636595 0.184127 -0.642737 0.166101 -0.119153 0.337425 0.148677 0.724691 0.0444634 -0.111959 -0.26026
612 0.0305049 0.3591 0.443398 0.388205 0.0782585 0.363348 -0.10451 0.127532 -0.0688875 -0.252412 -0.646703 0.208029 -0.106343 -0.540583 0.378638 -0.584649 -0.0407089 0.514367 0.524425 -0.395354 0.0330296 -0.213671 -0.00548326 0.242959 0.105254 -0.0684016 -0.135547 -0.69477 0.745143 -0.247414 0.1514 0.0868764 0.317493 0.0431441 -0.252724 0.0218046
635 -0.0224964 -0.0177495 0.136144 0.146215 -0.0345673 0.502643 0.151311 0.548002 0.207665 0.211399 -0.124087 -0.342067 0.730035 -0.166655 -0.27205 -0.626175 0.265544 -0.212111 0.0588655 -0.0928322 -0.241995 0.345847 0.136793 -0.358624 0.0911422 0.029402 0.290987 -0.293262 0.162445 -0.360318 0.219156 -0.639557 0.396394 0.696728 0.282928 0.106061
80 0.0633028 0.155644 0.322952 0.251193 0.0660357 0.0628724 -0.010803 0.11189 0.101096 -0.199026 -0.382914 0.0488274 0.188419 -0.0940392 0.111976 -0.420804 0.174333 0.118307 0.127595 -0.135627 -0.153667 0.0555869 -0.102986 0.0960538 -0.0922606 -0.145383 0.161552 -0.289004 0.257574 -0.141178 0.273306 -0.128002 0.345141 0.209919 -0.021932 -0.0729225
491 0.171771 0.16627 0.332089 0.17202 0.188953 0.203317 0.119498 0.185423 -0.13116 -0.171266 -0.349298 -0.131488 0.250194 -0.269592 -0.0206593 -0.300352 0.092446 0.0605608 0.219811 -0.173552 -0.162926 -0.0300492 -0.119917 -0.0016314 -0.116787 0.0228856 0.19386 -0.265582 0.136918 -0.225219 0.491957 -0.308468 0.321966 0.422801 0.027393 -0.238397
489 0.0407318 0.129382 0.547569 0.105604 0.286683 0.366083 0.426986 0.224053 0.0402768 -0.152043 -0.419277 -0.341847 0.49148 -0.53914 -0.150519 -0.124637 -0.0213038 0.154742 0.473186 -0.185201 -0.262989 -0.0291087 -0.220481 -0.129923 -0.173096 0.19768 0.268804 0.116468 0.0298476 -0.12942 0.703061 -0.362603 0.671275 0.774716 0.598906 -0.193518
1293 0.312474 0.253539 0.520761 0.0819465 0.394829 0.413144 0.373433 0.29739 -0.241587 -0.350581 -0.371137 -0.265045 0.439446 -0.632683 -0.220795 -0.1007 -0.0710487 0.139012 0.470293 -0.166793 -0.212049 -0.286063 -0.20341 -0.0773283 -0.154652 0.0606206 0.275325 -0.204408 -0.0573132 -0.0683267 0.966961 -0.410002 0.416869 0.825624 0.235347 -0.449008
2361 0.239426 0.262171 0.448775 0.137212 0.342455 0.320277 0.280991 0.121927 -0.317263 -0.222202 -0.411754 -0.225391 0.320542 -0.577027 -0.234538 -0.217101 -0.0363061 0.0571532 0.356609 -0.144868 -0.268497 -0.225487 -0.257756 -0.082859 -0.19976 0.190309 0.297323 -0.155597 -0.0322369 -0.239604 0.896598 -0.443242 0.352976 0.767429 0.264685 -0.415874
2789 0.236203 0.195343 0.393391 0.138417 0.24641 0.203886 0.189406 0.135127 -0.100643 -0.224842 -0.314455 -0.165496 0.328086 -0.440458 -0.10849 -0.225612 -0.0195865 0.0843751 0.324388 -0.112265 -0.159918 -0.0872821 -0.156629 -0.0220337 -0.141195 0.0418497 0.179147 -0.187529 0.0139828 -0.258715 0.72956 -0.314761 0.375501 0.557471 0.154924 -0.36263
3108 0.0439223 0.120156 0.236537 0.202935 0.0280117 0.110305 0.0169072 0.103555 0.0578483 -0.0844379 -0.282049 -0.0121973 0.177121 -0.149623 0.00273746 -0.37155 0.103825 0.0281985 0.0986875 -0.106248 -0.112735 0.018619 -0.0351535 0.0285103 -0.037744 -0.00323773 0.0759317 -0.261456 0.203084 -0.203357 0.254661 -0.158007 0.251499 0.25144 -0.00675017 -0.0346143
102 0.215841 0.0163438 0.161783 -0.264874 0.08046 0.661606 0.164112 0.873826 -0.191748 0.167599 -0.300497 -0.419555 0.641896 -0.0905662 -0.091662 -0.492274 0.268847 -0.0841182 0.230498 -0.462476 -0.200669 0.262194 0.215134 -0.144921 0.295187 0.278206 0.131504 -0.559474 0.331942 -0.505026 0.380486 -0.641716 0.333366 0.585454 0.068521 0.0365499
1821 0.00505341 0.0771354 0.247146 0.242882 -0.00450255 0.144417 0.0486839 0.14997 0.0692088 -0.0694183 -0.292254 -0.0183953 0.223176 -0.154517 -0.0981624 -0.443699 0.147649 -0.00871954 0.066625 -0.134159 -0.08656 0.0757847 -0.0420773 0.0220368 -0.0649573 -0.000125697 0.0214093 -0.338013 0.221512 -0.222998 0.240219 -0.198536 0.263375 0.295095 0.0191951 0.0154508
1540 0.411116 0.0739993 0.497651 0.00728906 0.184595 -0.00941941 -0.0401243 0.362547 0.337928 -0.633611 -0.603608 0.019824 0.412335 0.112515 0.308137 -0.306864 0.463607 0.062803 0.311538 -0.255626 -0.167676 0.233922 -0.100516 0.284208 -0.0748888 -0.599146 0.231136 -0.726812 0.247499 -0.0936508 0.376713 0.169948 0.691018 0.0431728 -0.235634 -0.208916
33 0.13484 -0.116338 0.51454 -0.0952373 0.196408 0.15235 -0.122491 0.529204 0.27255 -0.649292 -0.500352 -0.0576508 0.714161 0.189356 0.286109 -0.263813 0.413802 0.0529609 0.262395 -0.429372 -0.219934 0.303435 -0.0628741 0.270554 0.0662294 -0.740697 0.240024 -0.762286 0.158014 -0.0285308 0.283409 0.33291 0.72663 0.0473251 -0.0145791 -0.0853646
1929 0.11366 0.147067 0.315412 0.158368 0.118044 0.202344 0.0856258 0.1459 -0.00370765 -0.101049 -0.370384 -0.100061 0.27349 -0.253436 -0.0118458 -0.376706 0.0944239 0.071762 0.26266 -0.0986767 -0.161116 0.00131226 -0.0947501 -0.0214655 -0.0493646 0.0378588 0.178374 -0.235296 0.169631 -0.28291 0.439873 -0.261336 0.379028 0.437877 0.0981567 -0.101022
3762 0.130334 0.111567 0.349805 0.163854 0.0430108 0.0980354 -0.0695279 0.161456 0.18404 -0.305143 -0.522027 0.138963 0.303908 -0.0115861 0.17907 -0.423238 0.225753 0.17531 0.179845 -0.153011 -0.219615 0.0828105 -0.135962 0.115193 -0.0102979 -0.363116 0.225697 -0.458821 0.275982 -0.0783752 0.220742 0.0270304 0.397121 0.122105 -0.111633 -0.0239829
4916 0.0825133 0.134446 0.272464 0.256368 0.0311126 0.0756139 0.00926915 0.123208 0.113482 -0.18175 -0.323135 0.0471556 0.197689 -0.1764 -0.0412809 -0.403612 0.158152 0.0272063 0.150384 -0.163546 -0.0524672 0.0600923 -0.0445611 0.131288 -0.0509122 -0.0903181 0.0316746 -0.393271 0.237555 -0.141715 0.240912 -0.163355 0.288489 0.224427 -0.0378504 -0.063023
3332 -0.0686892 0.124884 0.354706 0.264036 0.0157045 0.116437 0.0703164 0.032788 0.211565 -0.0575155 -0.329659 -0.0618536 0.274678 -0.298461 -0.0933638 -0.3961 0.0796407 0.0276997 0.221992 -0.0976024 -0.161632 0.0687876 -0.101607 -0.00805519 -0.0623657 0.0215856 0.1997 -0.0682564 0.179261 -0.1975 0.287618 -0.206943 0.432492 0.391885 0.303268 0.0184204
1713 -0.0720812 0.0956226 0.367747 0.259663 0.0281367 0.189397 0.108365 -0.00195893 0.199853 0.0274964 -0.327658 -0.134723 0.367277 -0.375966 -0.173412 -0.364033 0.0345926 0.0275627 0.257912 -0.0824282 -0.206911 0.141357 -0.120016 -0.081188 -0.0718103 0.097704 0.227184 0.0244825 0.0965417 -0.29817 0.349526 -0.2951 0.510042 0.490335 0.455804 -0.0297816
2486 -0.0978387 0.100384 0.361173 0.23214 -0.0123678 0.124688 0.0914249 0.0436795 0.244828 -0.0431234 -0.334431 -0.0901199 0.275264 -0.26193 -0.0546054 -0.322568 0.104557 0.0277494 0.218152 -0.127533 -0.161612 0.0934179 -0.101214 -0.00152705 -0.0708547 0.0502274 0.208254 -0.0525468 0.190385 -0.201778 0.276159 -0.153902 0.500255 0.365899 0.335884 0.0414327
388 -0.0242989 -0.0267857 0.517577 0.285038 -0.0080358 0.323508 0.17808 0.333969 -0.0375712 -0.221786 -0.428558 -0.285252 0.327416 -0.417602 -0.0962561 -0.244071 0.0651559 0.0186444 0.177512 -0.662986 0.086708 0.183154 0.00649637 0.176011 -0.17032 0.153804 -0.1892 -0.574403 0.393341 -0.513383 0.230645 -0.071519 0.465866 0.128072 0.179952 -0.0443084
3315 0.171489 0.180511 0.348626 0.138352 0.152114 0.206043 0.13 0.133771 -0.124729 -0.146462 -0.352056 -0.158947 0.255802 -0.348414 -0.03384 -0.30551 0.0658343 0.0359148 0.244273 -0.174715 -0.119688 -0.04855 -0.114491 -0.0248355 -0.125404 0.0956517 0.105517 -0.302017 0.164424 -0.334002 0.547352 -0.249263 0.343659 0.403328 0.068752 -0.225227
250 -0.187419 0.334287 0.607655 0.324939 0.49183 0.168593 0.127971 0.501534 -0.917914 -0.497629 -0.392993 -0.26312 0.039247 -0.206423 0.102256 -0.422813 -0.0221378 0.289247 -0.00544335 -0.873899 -0.159205 -0.276839 -0.255381 0.501974 -0.353222 0.277392 0.0463451 -0.345867 0.20092 -0.100669 0.632951 -0.593947 0.258084 0.627511 0.459301 -0.191768
1693 0.182562 0.186354 0.272485 0.232088 0.162905 0.0915088 0.182963 0.291565 0.129452 -0.163962 -0.36331 -0.0877867 0.230068 0.00257497 0.193407 -0.367378 0.300738 -0.102806 0.272849 -0.230326 -0.111676 0.100603 0.0716063 0.113916 -0.181355 -0.145737 -0.000664774 -0.443712 0.275779 -0.200549 0.339352 -0.232418 0.483299 0.283451 -0.170885 -0.266051
448 0.0845273 0.175557 0.236382 0.197345 0.200703 0.330414 0.269765 0.448507 0.0238513 -0.0207998 -0.277176 -0.251832 0.189738 -0.125222 0.231047 -0.447173 0.26865 -0.112701 0.274737 -0.362054 -0.116402 0.0609111 0.192896 -0.0199692 -0.142554 0.0826514 -0.0410548 -0.393462 0.320615 -0.30054 0.301015 -0.414089 0.4602 0.400796 -0.0531449 -0.202454
3328 0.0222634 0.104323 0.191633 0.19072 0.053332 0.244767 0.0758307 0.263171 0.156709 0.0353093 -0.22725 -0.134516 0.364255 -0.13726 -0.0499603 -0.422184 0.209406 -0.0999342 0.180417 -0.0898138 -0.165158 0.110127 0.0446603 -0.0612146 -0.010692 -0.0597636 0.141492 -0.250707 0.18468 -0.188672 0.248318 -0.33784 0.353937 0.416722 0.0601583 -0.0319051
3526 0.0359042 0.128561 0.257721 0.239523 0.0443905 0.119387 0.0489068 0.137369 0.115859 -0.123917 -0.305718 0.0236301 0.222513 -0.139429 -0.0175058 -0.436933 0.143782 0.0181066 0.144877 -0.095124 -0.109717 0.0509846 -0.0324514 0.0243169 -0.0541536 -0.05839 0.0708745 -0.304285 0.227617 -0.179537 0.250839 -0.195894 0.28248 0.289018 0.00889822 -0.0302725
160 -0.177349 0.116184 0.28257 0.159161 0.319051 0.401481 0.664309 0.434921 0.171196 0.0491998 -0.474795 -0.40537 0.156088 0.186591 0.595782 -0.225346 0.432193 -0.228586 0.599754 -0.607226 -0.271838 0.0923555 0.469095 0.0776255 -0.160468 0.0457141 -0.281164 -0.444532 0.431572 -0.227143 0.259511 -0.303383 0.927613 0.403481 -0.0299001 -0.183835
541 0.307072 0.158254 0.442429 0.259389 0.0409614 -0.010943 0.0734374 0.309534 0.327941 -0.433874 -0.379097 0.000132256 0.219544 -0.192331 -0.0902692 -0.307575 0.368772 -0.142244 0.179214 -0.380322 0.10796 0.252353 0.0934121 0.381888 -0.162418 -0.245476 -0.154251 -0.675867 0.29846 -0.204989 0.272952 -0.148587 0.515829 0.0954852 -0.0519369 -0.196881
