4181 10
3262 0.18751 0.254058 -1.38432 -0.342817 0.678314 -1.04299 -0.438692 0.143682 0.598715 -0.244514
3261 0.133373 0.194473 -1.2868 -0.386271 0.647814 -1.04109 -0.39836 0.140663 0.545739 -0.286317
1834 -0.634161 0.144343 -1.01465 -0.0841982 0.699711 -0.462692 0.0686735 1.1447 -0.568424 -0.81305
390 -0.785675 0.410662 -1.89495 0.00691649 1.17217 -0.0156392 0.492434 2.46667 -1.12839 -1.58414
660 -0.688306 0.360946 -0.957352 0.0892277 0.264093 -0.285459 0.801728 0.762769 -0.530913 -0.470213
3960 -0.903883 0.29167 -1.5866 0.0267523 0.83566 -0.489079 0.214926 1.45054 -0.5773 -1.47029
4811 0.11443 0.0942158 -0.59131 0.161065 0.352996 0.104621 0.498033 0.103093 0.015944 -0.193835
625 0.679882 0.0523263 -1.71063 1.29551 1.15408 0.824207 1.96523 0.0155746 0.0241768 -0.698567
622 0.717355 0.0685791 -1.68167 1.22764 1.16776 0.799809 1.88657 0.0348327 0.112366 -0.702465
771 0.250684 0.153772 -0.953366 0.444557 0.527968 0.406576 0.84168 0.142649 0.168185 -0.46582
630 0.285426 0.261399 -1.44194 0.703935 0.814946 0.778973 1.38817 0.163166 0.246247 -0.620736
1840 0.817645 0.331352 -2.16083 0.413132 0.520501 0.80802 1.16275 0.0362135 1.1666 -1.37831
4782 -0.229635 0.340488 -1.32292 -0.478825 0.688306 -0.397872 -0.275537 0.488015 -0.177478 0.818727
3848 -0.37752 0.319394 -1.39758 -0.574996 0.992619 -0.430767 -0.483462 0.800335 -0.30585 1.07118
2057 -0.237963 0.201051 -1.67982 -0.959716 1.94039 -0.386727 -0.93774 1.38896 -0.324761 1.69198
2056 -0.236083 -0.00233524 -0.906244 -0.515682 0.995226 -0.302405 -0.463466 0.786096 -0.146677 0.701064
3139 0.0637489 0.0252767 -1.15579 -0.0934184 0.665308 -0.366631 0.846232 0.204435 -0.370411 0.473963
1271 0.860474 -0.826616 -1.20342 -0.120607 1.7573 0.0529257 1.47384 0.344198 -0.951427 1.07247
1683 1.0397 -0.590634 -1.02279 -0.753068 1.29824 0.0511395 0.445495 0.455799 -0.370825 0.744798
1976 1.28509 -0.665496 -1.32021 -1.15764 1.44677 0.178802 0.798034 0.617472 -0.259274 0.997598
1684 0.928 -0.678875 -0.981444 -0.696321 1.34916 0.0338553 0.502949 0.412247 -0.371966 0.723324
1682 1.11555 -0.698994 -1.08664 -0.856752 1.5047 0.152072 0.537802 0.464455 -0.486923 0.81765
4117 -0.569636 -0.215666 -1.37708 -0.579037 0.618107 -1.32983 1.15979 0.258427 -1.07982 0.564896
258 -0.495368 0.0794197 -2.24509 -0.436084 0.456783 -1.29364 1.72348 -0.366006 -1.40839 0.824692
4494 -0.369097 -0.0940086 -1.69522 -0.332687 0.536008 -1.04012 1.18732 0.0144385 -1.17114 0.485204
2978 -0.183579 0.121824 -1.29258 -0.197255 0.39767 -0.62391 1.00184 -0.147278 -0.811741 0.4818
267 -0.324902 0.226209 -1.50222 -0.151178 0.26415 -0.786124 1.18228 -0.162932 -0.826386 0.606783
1059 -0.244537 -0.0674957 -1.45606 -0.190591 0.418803 -0.855491 0.950237 0.211052 -0.775026 0.330303
3631 0.354778 0.125434 -1.50839 0.148605 0.909091 -0.270012 -0.0318121 0.291817 0.0330877 0.176415
3629 0.382621 0.0396174 -1.47239 0.289857 0.780286 -0.249462 -0.0020853 0.254895 0.0774435 0.167357
4368 0.637113 -0.322587 -1.66861 0.986051 0.462941 -0.139698 -0.0161141 0.0157918 0.418857 0.442054
3663 0.13165 -0.48987 -1.11478 -0.141859 1.29467 -0.215736 0.444414 0.410918 0.0206021 0.61011
2548 0.224469 -0.662234 -0.710697 -0.11447 1.44877 -0.261638 0.955807 1.07995 -0.235018 0.735307
1620 0.556555 -1.31671 -0.780782 -0.0897998 1.90493 -0.9992 0.780034 0.6403 0.186134 0.923984
1627 0.644252 -1.26247 -0.726891 -0.182666 1.92976 -1.0199 0.977638 0.736733 0.258302 0.970091
455 0.513236 0.00475893 -0.699882 -0.776079 1.46531 -0.171095 0.651222 0.69833 0.0615457 1.14655
1625 -0.0163323 -0.980409 -0.701313 -0.242921 1.54583 -0.617558 0.594318 0.374601 0.488757 0.855596
1618 0.0418076 -1.07025 -0.722623 -0.0644313 1.59957 -0.705195 0.656628 0.296436 0.475528 0.882745
848 0.289124 0.11622 -1.63708 0.640406 0.684054 1.06262 1.16893 0.225382 0.536038 -0.581875
843 0.571719 -0.607363 -2.05239 0.63962 1.44028 1.47746 1.61464 -0.0691823 0.881202 -0.490503
1282 0.41817 -0.723311 -1.41073 0.220423 0.623178 0.653134 0.926374 -0.209902 0.349213 -0.203157
3313 -0.00889506 -0.584708 -2.19448 0.997307 0.802503 1.00411 1.23609 -0.0404501 0.959717 -0.592189
621 0.0555566 -0.477772 -1.99587 1.04146 0.716164 1.03619 1.46416 -0.0846202 0.612662 -0.386258
1839 0.483387 0.43858 -2.29785 0.333974 0.672919 1.15234 0.977905 -0.144847 1.16356 -1.15728
244 0.163682 0.148979 -1.86473 0.117151 0.6741 0.752384 0.883827 0.42489 1.65255 -0.919721
248 -0.00543091 0.242891 -1.66894 0.309012 0.755201 0.727993 0.882175 0.073555 1.3369 -0.816706
2664 1.53017 0.146861 -1.41187 -0.719507 2.03016 0.0388073 0.514463 -0.465083 1.2371 0.537868
2663 1.40749 0.143179 -1.32802 -0.691703 1.95772 0.0559224 0.513919 -0.34374 1.13557 0.543266
2662 1.35386 0.117885 -1.36663 -0.755661 1.80512 0.0164793 0.578978 -0.446866 1.07207 0.643352
199 1.46029 0.283035 -1.44479 -0.782325 1.91767 -0.120551 0.710597 -0.377062 1.24041 0.979564
1823 0.162448 1.12264 -0.998682 0.546638 0.858604 -0.909464 -0.411813 1.6668 -0.253356 -0.462797
1822 0.0937746 1.18804 -0.930889 0.565455 0.961521 -0.927886 -0.382906 1.70957 -0.22134 -0.420502
3747 0.562133 1.23654 -0.822465 -0.415756 1.05358 -0.319432 0.929809 0.261484 -0.702672 0.0485022
3381 1.17862 2.0477 -1.44158 -0.774624 1.7045 -0.531781 1.4783 0.508511 -1.2168 0.226514
4984 0.661452 1.13827 -0.896832 -0.524069 1.13787 -0.358287 0.89763 0.341956 -0.713646 0.0959859
4346 0.547841 0.977441 -1.00196 -0.355043 1.09273 -0.403059 0.848601 0.313785 -0.681226 -0.00136612
3382 0.567906 1.03208 -0.915243 -0.477212 1.1341 -0.319984 0.875065 0.259305 -0.680532 0.0187405
4328 0.455497 0.0372612 -1.12815 -0.234192 0.209479 0.185482 -0.0590961 0.372806 0.299689 0.734423
1334 1.68167 0.00152984 -2.52359 0.122473 0.321342 0.709735 0.342858 1.00878 0.0744502 1.66854
1335 1.52764 -0.250637 -2.86621 -0.359355 0.558453 1.0606 0.203159 0.554522 0.852363 1.51737
1929 0.858621 0.174202 -1.51872 0.236703 0.384277 1.08131 1.07995 0.256966 0.284458 0.439194
1931 0.743959 0.0938297 -1.5869 -0.0475492 0.404122 0.764725 0.291608 0.372102 0.590849 0.804716
1930 0.758089 0.0912916 -1.69482 -0.119424 0.332521 0.728726 0.319597 0.329427 0.667313 0.909869
4357 0.0614601 0.029443 -1.75708 -0.494221 0.287517 0.0708545 0.596494 -0.239898 0.461281 1.26879
4356 0.0765899 0.0553061 -1.96187 -0.547216 0.223056 0.105651 0.598217 -0.184791 0.537133 1.41459
4355 0.0370718 0.0498606 -2.01263 -0.528235 0.305589 0.148156 0.695479 -0.206667 0.609212 1.54005
4091 -0.0424813 -0.522641 -2.1206 -0.101976 -0.258969 -0.757761 1.18842 -0.66668 0.495854 -0.646255
4090 0.0324774 -0.471563 -2.10598 -0.0879022 -0.240476 -0.807537 1.24109 -0.693785 0.469947 -0.616997
1805 -0.876721 -0.746264 -1.59182 1.04332 0.862236 -0.518451 0.183459 0.472134 0.417676 -1.27768
1808 -0.771122 -0.899993 -2.17597 1.15825 -0.0099657 -0.0573337 -0.126742 0.750947 0.199592 -0.360923
1807 -0.64775 -0.907936 -2.07199 1.10992 -0.0135905 -0.165389 -0.113364 0.841199 0.0995707 -0.367183
1806 -0.560985 -0.557464 -1.16304 0.722571 0.513072 -0.327357 0.104652 0.316066 0.325388 -0.854976
783 -0.979501 -1.10842 -2.09787 1.33052 0.737813 -0.580526 0.190652 0.629865 0.658207 -1.27706
2035 0.084595 0.577158 -1.10434 -0.0124667 0.14811 -0.635471 0.203969 -0.190089 0.109183 0.334616
1530 0.142001 1.41937 -2.15244 0.157486 0.00611312 -1.4618 0.592285 -0.610764 0.359888 0.573736
2526 0.0218876 0.772483 -1.46424 -0.07476 0.115256 -0.981804 0.350737 -0.258086 0.259344 0.39225
1917 0.320212 0.97245 -2.88983 -0.085137 -0.627432 -1.82426 1.28441 -0.211922 0.585941 -0.175646
2078 0.323888 0.266009 -1.97314 -0.308542 -0.483405 -1.21584 0.861857 -0.175708 0.177068 -0.397473
4805 -0.14574 -0.0925611 -1.10074 -0.222663 0.584059 -0.893863 0.467692 0.24348 0.108013 0.748319
2685 -0.212073 -0.0155063 -1.4326 -0.462859 0.849378 -1.60065 0.498917 0.0905669 0.385479 1.08891
2996 -0.20663 -0.0453763 -0.993499 -0.258472 0.488799 -1.00929 0.153361 0.205141 0.198705 0.457682
338 0.345499 0.578102 -1.18032 -0.350022 0.88522 -0.926935 0.774771 -0.428919 0.48728 0.990368
343 0.332877 0.646241 -0.919979 -0.244392 0.71833 -0.497672 0.510404 -0.404441 0.343288 0.444931
2077 -0.259521 0.404465 -2.26216 -0.403906 -0.485401 -1.14671 1.1058 -0.196483 0.790568 -0.0949197
2319 -0.516147 0.0864864 -1.93506 -0.356701 -0.388162 -0.73823 0.816108 -0.135717 0.816708 0.143183
2317 -0.383093 0.0797091 -1.76059 -0.298159 -0.199243 -0.718556 0.734441 -0.035646 0.629036 0.088474
2316 -0.62613 0.0160739 -2.23266 -0.388595 -0.530706 -0.720845 0.974686 -0.0638207 0.910703 0.163725
2320 -0.341566 0.152631 -1.79772 -0.324435 -0.230952 -0.676876 0.720349 -0.0451506 0.627482 0.0462187
2462 0.233979 -0.839789 -1.87838 0.410204 1.05091 0.579959 -0.0048107 -0.604362 0.797694 -0.0840115
4606 0.176842 -0.0215273 -0.787284 0.23019 0.509093 0.107174 0.293498 0.103328 0.286421 -0.15778
1549 1.05738 -0.36967 -1.38957 0.916783 1.07558 0.805538 0.88551 0.428706 1.11298 -0.145362
1617 0.785264 -0.0244602 -1.56271 0.571815 0.930815 -0.0118366 -0.61394 0.106197 0.732997 0.306749
1616 1.13982 -0.0850152 -1.86136 0.771134 1.20422 0.027855 -0.829025 -0.119669 0.985065 0.323933
2542 0.947252 0.0290279 -1.79677 1.0088 1.23935 -0.313549 -0.837977 -0.123336 0.875349 -0.331371
1896 0.46877 -0.00787861 -1.30735 0.385512 0.705582 -0.164259 -0.371893 0.139681 0.359988 0.118341
3664 0.115917 -0.426269 -1.08986 -0.107788 1.22536 -0.156992 0.408593 0.282918 -0.0466579 0.601237
2744 -0.0269795 -1.30734 -1.4508 0.0232105 1.99189 -0.118251 0.509849 0.074829 -0.161772 1.70005
3268 0.335589 -1.14263 -1.10626 -0.119661 2.57296 0.0861679 0.344126 -0.278221 -0.502879 0.643359
3266 0.391724 -1.02547 -1.03103 -0.116322 2.59896 0.110217 0.329534 -0.291561 -0.500132 0.602915
2831 0.2074 -1.12993 -1.37025 -0.213889 3.16149 0.182032 0.456375 -0.579457 -0.587321 0.515391
4582 -0.0426411 -0.399865 -0.789896 -0.203038 1.86875 -0.0276864 0.150625 -0.267029 -0.191864 0.0468608
3214 -0.00415033 -0.250724 -1.20981 -0.410429 0.841355 0.859343 0.193969 0.761799 -0.0493589 0.128836
3212 -0.0263046 -0.274093 -1.34165 -0.432118 0.920924 1.07285 0.135852 0.816351 0.0536935 0.126883
3215 -0.0741179 -0.341868 -1.37994 -0.392693 0.973055 1.02383 0.132614 0.919808 -0.0199155 0.14797
3213 0.247673 -0.345108 -1.56828 -0.55096 1.05389 1.43687 0.393653 1.01332 0.0645426 0.227824
3210 0.165321 -0.419258 -1.74621 -0.66932 1.31153 1.59323 0.319832 1.15511 0.0904743 0.261936
4770 -0.808429 -0.694782 -1.35168 -0.364402 0.547371 -0.457486 0.351576 0.209981 0.574821 -0.842247
2321 -1.25713 -1.03738 -2.31979 -0.652006 0.927885 -0.790465 0.834408 0.52387 1.1866 -1.8307
2687 -0.868505 -0.646859 -1.45104 -0.381154 0.697472 -0.479425 0.375829 0.325383 0.609513 -0.890908
549 0.371063 0.0792139 -1.32551 0.272584 1.05626 0.102971 1.64472 0.850415 0.656129 -1.98572
4358 0.298868 0.0284512 -1.06429 0.205454 0.674661 -0.0464891 0.776482 0.718028 0.155358 -1.04775
550 0.648738 0.16823 -1.32223 0.369267 0.539963 0.231048 1.10936 0.568182 0.467056 -1.4505
698 -0.366527 -1.106 -1.42421 -0.163463 0.9292 -0.175302 0.81393 0.37899 0.271287 1.1559
697 -0.357556 -1.99312 -2.26704 0.027637 1.31494 0.244771 1.32864 0.444166 0.249064 1.64716
4435 -0.0644951 -1.0477 -1.12765 -0.026473 1.30914 -0.054054 0.463375 0.316516 0.162347 1.11879
2825 -0.331997 -1.99239 -2.19361 -0.368868 0.536493 -0.375285 1.15864 0.645963 -0.147121 0.842214
2827 -0.224328 -1.44658 -1.6042 -0.275381 0.422473 -0.339451 0.916644 0.38217 -0.128247 0.615654
2826 -0.255377 -1.50659 -1.75255 -0.391167 0.507288 -0.278152 0.915771 0.452437 -0.0868888 0.75195
3416 -0.424183 0.599999 -1.09246 0.147662 0.42908 -0.684811 -0.237737 -0.357732 0.146122 0.144544
4112 -0.663242 0.559265 -2.28225 -0.0691735 0.301873 -0.758459 -0.683699 -0.509163 0.523327 -0.411088
1286 -0.231746 0.646457 -0.828666 0.505823 1.42998 -0.774947 0.789887 0.242771 -0.251788 1.14707
1852 0.264723 0.130369 -2.65708 1.01136 0.155847 0.695594 -0.35796 0.531513 -0.669186 0.295849
3250 0.303976 -0.843379 -2.72886 0.794863 -0.239529 0.129357 -0.128118 0.790248 0.379531 0.490064
1967 0.110262 -1.09227 -3.21026 1.19501 -0.354856 0.112566 -0.154271 1.05312 0.570191 0.205847
2063 0.391009 -0.660546 -3.16162 0.788377 -0.206654 0.758438 -0.430081 0.849693 0.0966438 0.428673
2337 0.84854 -0.17417 -4.03382 0.68263 0.289865 1.20241 -0.766919 -0.00847254 -0.262759 0.116606
2340 0.996543 -0.124713 -4.03761 0.569285 0.206422 1.1665 -0.68995 -0.0804901 -0.344749 0.127142
4079 0.423826 0.00781751 -1.8153 0.401169 0.207889 0.405151 -0.388545 -0.112155 -0.0588471 0.0736673
1592 0.751807 1.39355 -1.84517 -0.748495 0.189382 -0.576879 -0.0161291 1.69697 -0.957495 -0.304499
4050 0.654802 1.08491 -1.58721 -0.880263 0.385463 -0.488498 -0.20484 1.40358 -0.474728 -0.576303
1598 0.0647165 -0.304487 -0.80863 -0.0671243 1.3066 -0.456536 0.844494 1.04954 -0.555854 0.404597
1599 0.135601 -0.224891 -0.774416 -0.0324599 1.1291 -0.38639 0.71442 0.86519 -0.479469 0.398923
1596 0.0923867 -0.269223 -0.7055 -0.0842157 1.12118 -0.387687 0.605418 0.818787 -0.444292 0.355806
1051 0.372162 -0.271625 -0.525827 -0.00990206 1.35993 -0.613387 0.972566 1.04477 -0.845298 0.334662
375 0.631287 -0.561234 -1.03183 0.122844 2.01972 -0.537253 1.64433 2.52898 -0.958662 0.408227
2545 0.181806 -0.629803 -0.802738 -0.137247 1.34709 -0.315521 0.87167 0.960815 -0.241766 0.682663
2943 0.093383 0.0774388 -1.14547 -0.374977 0.545328 0.463558 0.797824 0.989525 -0.634363 -1.01245
967 1.45285 -0.387384 -1.42048 -0.782784 1.41717 0.721304 1.22727 -0.00797969 -0.74156 -0.692156
2164 1.40402 -0.504827 -1.56211 -0.459283 0.749279 0.383391 1.38973 -0.253176 -0.530217 -0.630545
271 0.736857 0.305836 -1.54476 -0.593463 1.50899 0.371464 1.50277 -1.08362 -0.872034 0.121486
2166 1.59138 -0.733679 -1.77299 -0.544228 0.849447 0.560042 1.22705 0.0709566 -0.351917 -0.828417
4087 1.24752 -0.503939 -1.33282 -0.259843 0.559547 0.24473 0.910738 0.0564772 -0.128551 -0.577168
2529 0.531074 0.126021 -0.903805 -0.394135 0.88901 -0.334745 0.767804 -0.249544 -0.406895 -0.723833
1943 1.17258 0.275334 -1.67108 -0.701345 1.62812 -0.628189 1.60667 -0.584485 -0.716709 -1.54147
1944 0.95263 0.17233 -1.29306 -0.591803 1.28033 -0.466948 1.1694 -0.443806 -0.639895 -1.27598
3722 -0.339866 -0.199488 -1.09202 0.254195 0.148576 -0.745686 0.79064 0.60013 -0.226179 0.00394336
2774 -0.75115 -0.415527 -1.73133 0.466474 0.0915858 -1.29115 1.58598 0.974506 -0.374976 0.0564013
3003 -1.02037 -0.674008 -1.7044 0.565405 0.305634 -1.48293 1.74836 1.2688 -0.437331 0.00106483
2195 -0.404289 -0.697535 -0.900865 0.761844 0.897219 -1.21393 0.671443 1.39277 0.181449 -0.296678
4048 -0.717744 -0.347887 -1.23552 0.393983 0.206681 -0.952881 1.19501 1.00256 -0.41433 -0.0896815
1386 -1.08715 -0.339602 -1.73472 0.157171 -0.047986 -0.981248 1.77993 0.954788 -0.0927685 0.396291
1393 -0.617725 0.0528771 -1.03434 0.140541 0.0806812 -0.267108 1.14103 0.427202 -0.199658 0.133766
1391 -0.941962 -0.0139351 -1.38559 0.454168 0.259529 -0.367056 1.87177 0.467324 -0.357531 0.1139
2487 0.578629 -0.546647 -0.717635 0.236882 1.10315 -0.759606 0.410985 0.327289 -0.0842068 0.0196078
853 1.14231 -0.507909 -1.39982 0.800278 1.16716 -1.4883 0.502046 -0.540136 -0.325745 -0.780093
1600 0.713724 -0.304263 -1.16294 0.233963 0.943346 -0.926077 0.359312 -0.641204 -0.48387 -0.134603
851 0.608304 -0.404033 -0.943628 0.185492 0.993809 -0.892941 0.311136 -0.454005 -0.255573 -0.199237
4072 0.34703 -0.242549 -0.982347 0.0133122 0.818538 -0.640782 0.420327 -0.513312 -0.42917 0.128903
4070 0.550622 -0.37371 -1.13803 0.058575 1.04325 -0.74446 0.444436 -0.628404 -0.33337 0.00577391
4195 0.879576 -0.18902 -0.928519 0.792223 1.46764 -0.590395 -0.353149 0.584046 0.111802 0.101268
241 1.52421 -0.326437 -1.69237 1.64093 2.21329 -0.879162 -0.409701 1.23727 0.683311 -0.189051
4196 0.996918 -0.150322 -0.978052 0.907841 1.5282 -0.579366 -0.39691 0.581236 0.0508828 0.220473
583 1.33437 -0.172974 -1.70775 1.31154 0.973069 -0.344108 -0.465142 1.5925 0.656409 -0.976537
3185 -1.01307 -0.255977 -1.60948 0.744023 1.41163 -0.244144 1.28861 -0.290545 0.927537 -0.792342
3186 -0.815263 -0.225751 -1.38084 0.672674 1.22343 -0.171652 1.14253 -0.238993 0.81378 -0.651135
4193 -0.0218187 -0.281088 -0.875254 0.428398 0.45446 -0.00432168 0.180466 -0.138102 -0.0865922 0.106935
496 -0.250746 -1.05364 -2.23673 1.39015 0.95448 0.426524 0.342817 -0.77447 -0.29423 0.579642
491 -0.173189 -0.873285 -2.22074 1.53492 0.978081 0.399711 0.315159 -0.773678 -0.24095 0.590713
494 0.20085 -0.496097 -1.6871 1.0231 0.709508 0.22499 0.00348903 -0.245087 0.150906 0.744634
3676 -1.12319 -0.181595 -1.76605 -0.549903 0.951742 0.112352 0.205937 1.15639 -0.612944 -0.280387
361 -1.84206 -0.312859 -2.71897 -0.774405 1.0579 0.458452 0.484769 1.34085 -1.28996 -0.291153
593 -0.220564 0.519014 -2.5775 0.425604 -0.188316 0.84005 0.167532 0.573959 -1.09033 0.195678
2790 -1.07077 -0.0886798 -1.87 -0.804957 0.988938 0.613614 0.0432842 1.50064 -0.795162 -0.265688
885 -1.18314 -0.0720344 -2.43988 -1.31771 1.90497 1.41638 -0.205438 1.65326 -0.195635 -0.587333
4749 -0.615944 -0.0113259 -1.3351 -0.675178 0.991613 0.776616 -0.0139094 0.970652 -0.211983 -0.253205
4390 -0.323976 0.535221 -1.46414 -1.23472 1.04987 -0.540091 -0.283608 0.0834981 0.917087 0.147268
2905 -0.621882 0.727314 -1.56125 -1.64766 1.05232 -0.236042 -0.133452 0.182383 0.985938 0.321255
4918 -0.52551 0.527406 -1.06931 -0.92772 1.20953 -0.160544 -0.136862 0.142857 0.595564 0.181318
4495 -0.533036 0.64655 -1.57578 -1.4031 1.34774 -0.372373 -0.424444 0.146806 1.08133 0.293963
3919 -0.403421 0.449541 -1.30347 0.182721 0.409297 -0.162971 1.27984 0.420857 -0.0975099 0.421155
3920 -0.283326 0.530703 -1.26335 0.229395 0.396931 -0.0584794 1.51821 0.486807 -0.292652 0.346123
2560 -1.1848 -0.229153 -1.47505 -0.641498 0.707138 0.190743 0.356842 0.944743 -0.608975 -0.145481
726 -1.21173 -0.27821 -1.72485 -0.48071 0.93987 0.13194 0.213501 1.30077 -0.470185 -0.224268
2792 -1.13785 -0.0696576 -1.88066 -0.845716 1.07086 0.600672 0.0198833 1.49278 -0.677368 -0.305392
4161 -0.878433 0.00551711 -2.00764 -0.894843 1.17303 1.02413 -0.0259293 1.49578 -0.613587 -0.317952
4908 -0.365628 0.108461 -1.37415 -0.530658 0.549652 0.489777 0.0412893 1.04176 -0.576459 -0.0759889
2919 -0.205198 0.850677 -1.4415 -0.910048 0.305536 0.0861238 0.317339 1.67155 -0.804151 -0.353194
2359 0.677027 0.0356753 -1.4903 -0.0764005 0.38489 0.553394 0.136246 0.293614 0.526193 0.886784
1331 1.00368 -0.17555 -2.10605 -0.280514 0.485441 0.665939 -0.04716 0.504554 0.683568 1.49987
1336 1.569 -0.386262 -2.7883 -0.39727 0.495109 0.937448 0.133747 0.687745 0.788236 1.52187
1474 1.16722 -0.643183 -2.16411 -0.459387 0.396656 0.795265 0.51992 -0.129841 0.417714 0.372057
1473 1.16191 -0.541285 -1.99885 -0.473549 0.349304 0.690191 0.412221 -0.0869532 0.394546 0.435814
1308 0.988343 -0.436654 -1.79756 -0.456636 0.154385 0.556362 0.3098 0.128996 0.336338 0.504733
222 1.64587 -0.552993 -2.49482 -0.411066 0.604849 1.29611 1.21162 -0.322352 -0.0708185 -0.0689677
4000 0.763732 -0.143813 -1.50887 -0.195823 0.395392 0.664446 0.472477 -0.128276 0.425438 -0.193188
3999 0.976271 -0.364155 -2.00658 -0.17235 0.483294 0.849362 0.612887 -0.227203 0.429284 -0.211768
4047 -0.69204 -0.398598 -1.39381 0.454814 0.0916311 -1.05602 1.31721 0.941803 -0.433835 -0.0552689
3004 -0.901296 -0.724438 -1.6944 0.718783 0.339114 -1.56918 1.73134 1.38539 -0.465022 -0.188063
1390 -0.781856 -0.186394 -1.38684 0.446264 0.222802 -0.567118 1.85262 0.638188 -0.544162 0.175617
511 -0.553964 0.660411 -1.70714 0.413463 0.502001 -0.464903 2.24289 0.371017 -1.28531 0.100871
531 -0.413239 -0.240579 -1.49712 0.528462 0.910385 -0.219383 2.247 -0.208198 -1.19456 0.349656
532 -0.209085 -0.414499 -1.24919 0.451563 1.01313 -0.232195 1.96493 -0.191847 -1.17608 0.394956
510 -0.350522 0.957896 -1.56025 0.299592 0.859664 -0.387074 2.25479 0.200488 -1.3952 0.00948541
2580 -0.47389 1.13337 -1.26044 0.717303 0.448445 -0.514956 1.94758 1.09556 -0.321101 0.381842
4485 0.309429 -0.403403 -1.33121 0.0993422 0.755793 -0.464033 0.384414 0.424969 -0.0554281 0.0417629
1636 -0.0598385 -0.409757 -0.810132 0.596737 0.882479 -0.204025 0.505809 0.602158 0.422063 -0.353015
3078 0.194538 -0.402126 -0.906367 0.558305 0.968488 0.074845 0.368893 0.462926 0.904028 -0.629031
3077 0.104805 -0.481797 -0.889268 0.586655 1.10256 -0.0629974 0.240719 0.546769 1.01337 -0.658184
2479 0.399077 -0.367919 -1.1648 0.357347 0.987855 0.386874 0.297763 0.355871 1.15138 -0.655432
4714 0.681402 -0.245043 -0.731567 0.713073 1.18042 -0.3824 -0.283207 0.631049 0.409587 -0.00529722
240 1.69912 -0.476762 -2.04219 2.24162 2.39317 -0.990434 -0.377868 1.74916 0.58352 -0.173246
3908 0.776715 -0.542677 -1.27637 1.24209 2.41959 -0.696353 -0.192628 0.932799 1.32775 0.289075
2821 0.950148 -0.276187 -1.1873 1.04117 1.68242 -0.53072 -0.331221 0.868826 0.535668 0.0661097
3009 -0.350902 -0.0618818 -1.02799 -0.00997535 0.70789 -1.03887 0.0380819 0.725388 0.347923 0.425144
2766 -0.56471 -0.172952 -1.27455 0.0891037 0.851832 -1.54436 -0.10498 1.08789 0.518441 0.878638
2767 -0.398617 -0.298598 -1.35612 0.0992385 0.786615 -1.79492 -0.163299 1.09283 0.568473 0.865063
2494 -0.0524071 0.696292 -1.79689 -1.02517 0.571331 -0.300751 0.14586 0.19478 0.685205 0.988782
1825 -0.472888 0.99235 -2.14213 -1.7251 1.02972 -0.445231 -0.222025 0.244996 1.21482 1.0867
4059 -1.03869 -0.603243 -0.58109 -0.296483 2.3254 -0.400879 0.257326 0.46957 0.381677 -0.163475
4058 -0.987344 -0.495417 -0.566896 -0.259612 2.33398 -0.463823 0.265471 0.426878 0.348708 -0.227826
1031 -0.299509 -0.31952 -2.03766 0.955969 0.889075 -1.00702 1.12639 -0.24011 2.22431 0.120924
3376 -0.0830494 -0.251727 -1.12713 0.892594 0.646607 -0.503372 0.550459 -0.0731331 1.04872 -0.00600409
1093 -0.764168 0.0603698 -1.73007 0.924112 0.853496 -0.573134 1.02236 -0.00629816 1.8326 0.258617
1881 -0.706816 -0.419284 -2.82482 1.02051 0.647299 -1.21336 0.984447 -0.927256 2.23299 -0.0761303
4983 0.674298 1.09899 -0.85298 -0.540038 1.09856 -0.446511 0.931341 0.440681 -0.786241 0.135333
3744 0.693318 1.48603 -0.90222 -0.372844 1.13978 -0.398884 0.924006 0.492407 -0.917373 0.0556778
3746 0.702979 1.42366 -0.928739 -0.3404 1.13379 -0.365726 1.0138 0.406023 -0.967332 0.00292425
3495 0.240485 0.055315 -0.573345 -1.01086 1.70721 0.0253239 -0.0949071 1.08985 0.762386 -0.538187
3494 -0.333338 -0.35618 -0.838002 -0.451153 0.918331 -0.209316 0.310032 0.5918 0.694106 -0.907628
2322 -1.48521 -1.23586 -2.43682 -0.573409 0.979476 -0.838012 0.745822 0.48591 1.11782 -1.64622
606 0.452263 1.14902 -1.32844 -0.4777 0.627941 -0.108375 0.884951 0.149754 0.391388 0.319131
2469 0.427828 1.18499 -1.25259 -0.465614 0.572697 -0.167153 1.01872 0.0142374 0.463731 0.349605
2468 0.462026 1.29874 -1.35195 -0.557955 0.598232 -0.140117 1.00828 0.105484 0.393161 0.346026
342 0.882788 1.63325 -1.7219 -0.22079 1.17731 -0.623987 0.921802 -0.893381 0.612293 0.616225
1555 0.562498 1.54675 -2.29489 0.510616 1.28946 -1.34931 0.567944 -1.67427 0.292811 0.384458
1520 0.189673 0.444267 -1.99286 0.163115 1.84098 -1.09408 -0.0874848 -1.53624 0.107111 0.751933
4410 0.791631 0.81989 -1.11036 1.10193 0.491884 -0.0181094 0.321013 0.61568 0.342597 -0.060668
589 0.708402 0.744041 -2.11453 1.77421 0.0726265 -0.389025 0.449862 0.246335 -0.358408 0.163551
274 0.510509 1.21637 -2.15861 2.26083 0.359051 -0.285477 0.757252 1.0669 -0.430146 0.406432
3263 0.709375 0.815755 -1.95059 1.89395 0.342195 -0.53302 0.42569 0.540253 -0.227602 -0.0568682
3353 0.54527 0.829997 -1.75969 1.35633 0.298549 -0.335304 -0.00610988 0.148759 -0.176582 0.0318409
4411 0.619887 0.704827 -1.25659 1.16041 0.382964 -0.126798 0.250256 0.478015 0.143192 -0.0397101
505 -0.126427 -0.029917 -1.37501 0.546356 0.874956 -0.39681 0.889259 -0.262353 1.27598 0.558535
2198 -0.734025 0.363618 -1.28123 0.603387 0.616447 0.0160856 0.394786 -0.202897 0.593544 0.574358
503 -0.18158 -0.242524 -1.53714 0.710017 1.33774 -0.898173 1.92289 -0.595252 1.65189 0.799049
2280 0.381455 0.0642369 -1.15931 0.227398 0.515947 0.512361 0.996013 0.265077 0.019817 -0.612984
2776 0.728416 0.456533 -1.85195 0.497501 0.414896 0.701654 1.52124 0.526953 0.0790552 -1.44833
2464 0.49299 0.424743 -1.72983 1.20164 0.806154 0.98218 1.42122 0.196447 0.125153 -0.348768
585 0.19326 0.0741273 -1.54539 1.23483 1.09651 0.650395 1.62201 -0.00838502 -0.239407 -0.751936
964 -0.00707733 0.24486 -1.53975 -0.0430547 0.727246 -0.649599 0.912369 0.267493 -0.444069 0.487854
966 -0.0197863 0.183182 -1.53955 -0.0916578 0.750845 -0.574467 0.862904 0.257005 -0.358412 0.381159
4279 0.568961 0.390488 -1.46482 0.298152 0.167037 -1.07588 0.433633 0.653239 -0.257515 -0.943174
3605 0.922374 0.623457 -2.20461 0.546555 0.201311 -1.80053 0.676867 1.10276 -0.591034 -1.58584
3604 0.947345 0.550458 -2.01561 0.44054 0.158905 -1.71716 0.686384 0.973377 -0.46216 -1.49949
3601 0.888548 0.505273 -1.98694 0.438699 0.190544 -1.64633 0.645776 0.923731 -0.467261 -1.43489
3603 0.955517 0.606126 -2.00011 0.44751 0.184038 -1.65074 0.673111 0.95225 -0.469855 -1.48791
3607 0.966002 0.545151 -1.96141 0.42548 0.23592 -1.68964 0.664164 0.947255 -0.378385 -1.44002
3608 0.699326 0.49175 -1.58365 0.32701 0.229835 -1.32144 0.453129 0.783794 -0.373025 -1.12616
3606 0.708375 0.408012 -1.53393 0.401966 0.214572 -1.24466 0.49405 0.794602 -0.349934 -1.07007
2180 0.129628 -0.021215 -0.731998 0.120576 0.513606 -0.0981668 0.157966 0.127159 0.202806 -0.243573
2181 0.43025 -0.567662 -0.868409 0.225854 1.20157 -0.288754 0.258196 -0.090527 0.753858 -0.638137
4376 0.299401 -0.540597 -0.759932 0.131556 1.11421 -0.560481 0.149355 -0.106349 0.400618 -0.357921
4375 0.272512 -0.377067 -0.808181 0.162029 1.07306 -0.503471 0.138098 -0.116259 0.212207 -0.266288
3307 -0.486708 -0.687989 -1.46701 0.0466219 1.0164 -0.131713 -0.474813 0.127986 0.0786029 -1.14218
3308 -0.672263 -1.00858 -2.03614 0.0637057 1.43388 -0.124845 -0.641926 0.192329 0.0781527 -1.62657
791 -0.811745 -1.36928 -2.56701 0.148556 2.17206 -0.272298 -0.7574 0.564186 -0.0113348 -2.29177
3306 -0.463703 -0.726376 -1.56694 0.0997068 1.09264 -0.18128 -0.50892 0.211885 0.00411988 -1.1777
2087 1.07363 -0.444882 -1.20161 0.125786 0.403547 -0.69015 0.424931 0.197454 0.0284601 -0.533197
1714 1.4278 -0.430445 -1.31151 -0.133504 0.649632 -0.427811 0.675824 0.137185 -0.212165 -0.693912
599 2.40218 -0.946045 -2.10245 0.107613 0.984983 -0.556929 1.07273 -0.0938565 -0.241125 -1.27384
4476 0.380236 -0.0652665 -0.841671 0.200788 0.383957 -0.524158 0.172151 0.0589903 -0.0790553 -0.308511
857 1.11646 -0.225572 -1.711 -0.30758 0.428868 -0.619831 1.066 -0.579241 -0.733345 -0.496415
1588 0.335254 0.419446 -0.769558 -0.243586 0.766111 -0.402663 0.557235 0.104076 -0.766915 -0.228938
823 0.781081 0.384378 -1.255 -0.632605 1.17211 -0.279055 0.751584 0.105333 -1.91852 -0.210712
4682 1.00116 0.241531 -1.10022 0.300136 1.3696 -0.704873 0.0629113 0.193134 -1.33444 0.0821349
1531 1.42308 0.186148 -1.45698 0.617608 1.95766 -1.19398 -0.0614234 0.281152 -1.59169 0.556027
1653 1.65555 0.320565 -1.49687 0.757358 1.69025 -0.745193 -0.026405 0.151517 -1.11922 1.04806
1662 1.17036 0.221069 -1.13178 0.176894 1.50175 -0.686558 -0.695032 0.329971 -0.89816 0.631274
737 0.793451 0.558501 -1.14326 1.42996 1.37691 -0.141813 -0.267418 0.680275 -0.0538648 -0.134343
1594 0.956217 1.0052 -1.02139 0.679635 2.10318 0.091441 -0.250695 1.74114 0.709205 -0.184811
3105 0.537649 0.469616 -0.783327 0.446669 1.36494 0.0297033 -0.45604 0.847886 0.192149 -0.0548284
1410 0.778916 -0.398614 -1.76262 0.82074 1.32716 -1.27833 -0.10982 0.0331757 -1.4091 0.86246
3756 0.953685 0.234629 -1.09721 0.695726 1.01326 -1.08148 -0.0909389 0.274129 -0.709329 0.29436
4479 0.557278 0.0545913 -0.783549 0.376432 0.664734 -0.732199 0.0397189 0.316023 -0.0920688 0.200591
2680 0.763679 0.0500289 -0.744952 0.529569 0.743892 -1.12342 0.0944772 0.363647 -0.0456576 0.35563
2679 0.830767 0.110867 -0.806589 0.577945 0.812834 -1.19925 0.13443 0.420509 -0.153526 0.377581
1409 0.327281 0.183856 -1.13117 0.349388 0.912678 0.0552534 1.01223 0.396803 -0.440869 -0.433813
1909 0.382772 0.189692 -1.28487 0.322968 0.543194 0.471689 1.31898 0.402433 -0.0698146 -0.823535
586 0.302546 0.263649 -2.05911 0.773415 1.11858 0.739916 2.33778 0.671749 -0.564192 -1.62993
729 0.143451 0.584015 -1.61053 0.313053 0.122728 0.68943 1.17166 0.540423 0.177924 -0.830709
1242 0.181984 0.306688 -1.02009 0.879215 1.43046 0.271619 1.62735 0.125053 -0.650015 -0.877594
1241 0.218836 0.380879 -1.00669 0.912261 0.896955 0.244 1.22633 0.218699 -0.458986 -0.7893
3304 0.171455 0.458568 -1.01473 -1.10562 1.52384 0.381381 0.784949 0.0978705 -0.73719 0.119337
1221 0.223816 0.687283 -1.76061 -1.99042 2.48032 0.594199 1.34525 0.178056 -1.18335 0.260934
1088 -0.280957 0.463672 -1.2848 0.302098 0.385173 -0.0628865 1.01673 0.353975 -0.232566 0.190702
1087 -0.434825 0.789198 -1.56594 0.585599 0.274357 0.0773114 1.62434 0.406972 -0.380719 0.477393
1089 -0.241527 0.468331 -1.3551 0.425628 0.434172 -0.0127324 1.04839 0.358191 -0.193439 0.183831
4477 -0.356985 0.621299 -1.4188 0.516591 0.26977 0.115147 1.41109 0.337925 -0.223496 0.360494
1457 -0.851919 1.82708 -1.67575 -0.0964212 0.560208 -0.362267 1.49107 0.924172 -0.942878 -0.399408
4905 -0.479194 0.627609 -0.957035 0.134159 0.416395 -0.356917 1.23471 0.41363 -0.556757 0.210847
2329 -0.515203 0.885488 -0.995788 0.159039 0.976274 -0.697668 2.05953 0.259956 -0.325449 0.302588
4927 -0.0278937 -0.106131 -0.779248 0.0349796 0.407223 -0.160841 0.163683 0.661359 -0.40484 -0.409305
2516 -0.18693 -0.699243 -1.72753 0.654658 0.946451 -1.37465 -0.123432 1.86848 -1.25819 -0.462959
2513 -0.0780835 -0.916545 -1.48623 0.78871 0.915943 -1.42777 -0.3513 1.25862 -0.619805 -0.0644886
4412 -0.254571 -0.256735 -1.01072 0.429288 0.64776 -0.829963 -0.0540247 1.05826 -0.627424 -0.276781
2512 0.00749444 -1.14264 -1.83325 0.962343 1.05893 -1.69835 -0.483803 1.3774 -0.631049 0.00689314
4786 -0.00245675 -0.581717 -0.902435 0.465356 0.608079 -0.872245 -0.230624 0.687412 -0.371465 0.0763758
85 0.0222267 -1.3209 -2.16511 1.11047 1.15998 -1.83472 -0.512959 1.73837 -0.978368 0.123693
4369 0.0270123 -0.828774 -1.30279 0.707335 0.803297 -1.2459 -0.337921 0.95986 -0.435542 0.100913
391 -0.672358 0.235982 -1.32731 -0.0319656 0.933737 -0.425444 0.103406 1.3961 -0.577348 -1.05724
392 -0.431179 0.156972 -1.10628 -0.110355 0.726218 -0.378602 0.154836 0.941753 -0.403214 -0.701253
649 -0.609515 0.481761 -2.37449 -0.779646 0.673118 0.772528 0.353663 1.84735 -1.30796 -0.514338
4519 0.39782 0.418283 -0.719864 0.311072 1.08478 -0.0423871 -0.0981471 0.768242 0.392665 -0.0306546
4520 0.375563 0.442844 -0.714488 0.331274 1.08884 -0.0101277 0.0121211 0.712661 0.404634 0.074496
4334 0.544853 0.664008 -0.757651 0.429764 1.32808 -0.0359531 -0.0143352 1.18566 0.671141 -0.0358031
3843 -0.764171 0.238086 -1.1921 -0.0120024 1.48388 -0.355488 0.516435 0.444028 -0.166183 0.14012
3842 -0.649805 0.203764 -1.36123 0.0410532 1.34954 -0.333254 0.501209 0.391776 -0.0900208 0.117173
3686 0.248163 0.360064 -1.51409 0.140222 0.800114 0.932665 0.710547 0.0562459 0.947448 -0.80592
4240 0.896898 0.222403 -1.53066 0.377869 0.407525 0.137005 1.13147 -0.250788 0.609772 -0.999156
4241 0.593761 0.227395 -1.42822 0.296935 0.536905 0.411614 0.900198 -0.149021 0.671512 -0.94983
1780 0.225216 0.010381 -1.35641 0.146877 0.619853 0.569131 0.756487 0.385403 1.03785 -0.737876
1640 0.0576068 -0.835829 -1.24237 -0.322698 0.859638 0.105023 1.13535 1.74267 1.58598 -0.0279695
3107 0.602325 0.62852 -0.816792 0.700737 1.30841 0.0212392 -0.184829 0.791193 0.19062 -0.16462
3102 0.480387 0.373252 -0.821654 0.5662 1.23335 -0.0240654 -0.28127 0.569078 0.0203368 -0.186824
2163 0.438616 1.0158 -1.91565 0.26116 0.0666916 -0.692458 0.422977 0.402765 -1.47694 -0.35001
3916 0.345584 0.73935 -1.68968 0.166271 0.199149 -0.595716 0.385174 0.354308 -1.07318 -0.284161
2162 0.488007 1.00971 -2.03262 0.228705 0.0660723 -0.790727 0.460967 0.48701 -1.53242 -0.326787
3656 0.0424347 -0.770012 -1.60019 -1.01398 0.747972 -0.533312 0.50913 -0.462798 0.390604 -0.631855
3657 0.0506187 -0.827429 -1.57604 -0.973692 0.735647 -0.385404 0.535933 -0.405521 0.279532 -0.674342
1063 0.12086 -0.447451 -1.24995 -0.904514 0.900609 0.00486791 0.641695 -0.184269 0.598137 -0.726432
1065 0.225041 0.925727 -1.522 0.2476 1.40539 1.31648 0.944239 0.730385 1.17375 -0.25786
1060 0.203183 0.865579 -1.40194 0.191366 1.40134 1.3076 0.837079 0.798201 1.17086 -0.383813
717 0.323378 0.437503 -1.10204 0.218684 1.04763 0.831224 0.711755 0.554239 0.856474 -0.223012
913 0.676666 0.753437 -1.25202 0.0515604 1.84305 1.35809 0.754575 1.25755 1.26214 -0.243649
706 0.300478 0.520678 -1.22191 -0.249988 1.49109 1.28188 0.82121 0.645836 1.09883 0.29173
1508 0.987036 0.742616 -1.15345 -0.0121723 1.48191 0.722021 0.255832 1.34127 1.13728 -0.389272
1949 0.194709 -0.850455 -1.98771 0.298918 0.680992 0.692178 -0.500672 1.66794 -0.166217 0.0592131
1785 1.02788 -0.485416 -2.3755 0.313024 0.447978 0.64944 -0.714042 0.750112 -0.173034 -0.124638
1789 0.843126 -0.421006 -2.14502 0.278897 0.439465 0.609897 -0.651672 0.721367 -0.130292 -0.0930774
4624 0.343128 -0.444363 -1.60655 0.185775 0.500291 0.503212 -0.351772 1.01364 -0.072868 0.0114839
4620 0.554256 -0.60006 -1.83375 0.169442 0.537587 0.567609 -0.562947 1.14797 -0.105132 0.00312366
1952 0.244781 -0.778381 -2.03704 0.321574 0.671573 0.699452 -0.464435 1.92912 -0.146416 0.112843
4621 0.322741 -0.387489 -1.47026 0.179304 0.522969 0.473813 -0.318557 0.918759 -0.095735 -0.00142027
3590 -0.359542 0.531104 -1.31711 0.431362 1.6353 0.264993 -0.192547 0.598463 -0.655956 0.435178
2137 -0.687674 0.94064 -1.82218 0.818009 2.62076 0.555956 -0.368536 0.980667 -1.28197 0.725142
2209 -0.613659 0.860831 -1.51329 0.468426 1.62395 0.22477 -0.453088 0.636777 -1.03745 0.807854
3340 0.079445 -0.836064 -1.20677 -0.224275 0.97747 -0.757741 0.422622 -0.126911 -0.789639 -0.21662
3143 0.491047 -1.05609 -1.16811 -0.855006 1.60669 -0.842161 0.839093 0.116157 -1.13973 0.453452
1884 1.22376 -0.967648 -1.30199 -0.742336 2.1041 0.0575261 0.877459 0.295203 -1.02226 0.749696
3145 0.606352 -0.608344 -0.921658 -0.669412 1.46354 -0.334348 0.542496 0.206403 -0.730089 0.607912
3142 0.613806 -0.598469 -0.907705 -0.704372 1.43112 -0.264495 0.701053 0.333478 -0.698771 0.585601
1680 1.10863 -1.24838 -1.4054 -0.566227 2.5748 0.338779 0.944617 -0.188678 -0.943252 0.716637
3082 0.875805 -0.606092 -1.28256 -1.15852 1.74085 -0.256007 0.785755 0.264489 -1.04181 0.749729
2439 0.156641 0.596657 -1.59982 -0.0583901 0.808935 -1.16664 0.0931175 -1.0076 0.128158 0.659024
2440 0.0776984 -0.203014 -1.71141 -0.19971 1.70044 -0.962924 -0.299435 -1.2187 -0.0183786 0.807138
1518 0.267269 0.266574 -2.7372 -0.170816 2.38684 -1.58525 -0.11128 -1.93011 0.191456 1.14392
1521 0.2515 0.49882 -1.63829 0.100898 1.43388 -0.939779 -0.0218734 -1.22916 0.216502 0.545781
4249 0.0789797 0.009578 -1.65791 -0.170592 1.54409 -0.92832 -0.197803 -0.988759 -0.0260354 0.561684
3839 0.540848 0.727078 -1.95165 1.45852 0.409536 -0.45068 0.292399 0.333072 -0.225488 0.0629611
3837 0.5728 0.666476 -1.65682 1.23796 0.313367 -0.42973 0.253233 0.223448 -0.120553 0.0700212
557 0.322089 0.888961 -1.4788 1.73829 0.619517 -0.771044 0.277942 0.496931 0.745617 -0.597227
1231 0.707888 1.98243 -3.29621 2.0081 0.720235 -0.309239 -0.664759 0.307743 0.0735742 -0.0834984
1235 0.460434 0.831791 -1.71538 1.24977 0.295416 -0.237141 0.019853 0.183348 -0.101811 -0.0229224
865 -0.573613 0.812145 -1.36441 -1.05926 1.23304 -1.89084 0.212149 0.374029 -0.295074 -0.765787
869 -0.293937 0.469313 -0.86196 -0.689349 1.21727 -1.31091 0.457511 -0.110058 0.0753119 -0.567215
864 -0.353952 0.53011 -0.914143 -0.738636 1.48206 -1.33025 0.511537 -0.125219 0.000102424 -0.690104
863 -0.305234 0.422082 -0.958657 -0.798332 1.88472 -1.36748 0.995477 -0.198631 0.00640605 -0.829564
867 -0.564839 0.736557 -1.67083 -1.07995 2.0461 -2.69942 0.677727 -0.503597 0.340912 -0.767355
1859 -0.755289 0.555085 -1.27359 0.106623 2.19015 -1.57601 0.708739 -0.545352 -0.6058 -1.03956
3383 0.832092 1.48083 -0.984737 -0.438423 1.43092 -0.911578 1.04677 1.26097 -1.57523 -0.00252262
3745 0.557028 1.17295 -0.843104 -0.344905 1.00911 -0.278764 0.906856 0.271625 -0.690579 0.041961
3679 1.60392 -0.625774 -1.92079 -0.261541 0.313031 0.881745 1.08276 0.259548 0.130955 0.108458
3452 0.838153 -0.0671515 -1.99563 -0.547322 0.321378 0.471573 -0.0060017 0.419177 0.634573 1.28792
2363 0.779309 0.0891806 -2.04371 -0.312551 0.647939 0.702216 -0.0455571 0.297917 0.796303 1.53174
1327 0.364007 -0.472563 -0.918999 -0.107044 1.75934 -0.367922 1.62587 2.19171 -0.928014 0.44025
1326 0.165357 -0.282731 -0.632772 -0.145528 1.10628 -0.274687 0.960472 1.2677 -0.518316 0.27109
377 0.55152 -0.682928 -1.17992 0.0643841 2.0816 -0.410648 1.82727 2.61947 -0.904697 0.688326
1328 0.178008 -0.311325 -0.668001 -0.0361039 1.20124 -0.332801 1.01367 1.54621 -0.588388 0.291859
1329 0.431112 -0.412693 -0.865032 -0.0539054 1.64937 -0.41763 1.51927 1.93642 -0.81303 0.493274
545 -0.301415 0.371332 -0.473585 0.311468 1.30329 -0.580871 0.426845 0.326258 -0.158502 0.603849
546 -0.329613 0.261593 -0.474042 0.293279 1.28329 -0.589937 0.435809 0.397686 -0.24154 0.583417
543 -0.638734 0.924593 -0.865917 0.66853 2.41508 -1.3064 0.988924 0.490501 -0.344283 1.32203
468 -0.650298 1.66517 -1.56382 0.0904777 0.953587 -1.62724 1.15238 -0.557158 -0.172539 0.786672
4696 0.826669 1.14804 -1.52165 -0.405129 1.57949 -0.747347 0.664228 -1.00881 0.990957 0.508167
301 -0.453083 -0.00686341 -1.29133 0.540228 0.454945 -0.529611 0.904879 -0.378998 1.15317 -0.354769
2596 -0.637478 0.484348 -2.06145 0.659884 0.143454 -0.46014 -0.434289 -0.042798 0.169751 -1.46246
831 -0.359876 -0.773835 -1.57776 0.294991 0.00416953 -0.289795 0.00606769 -0.257681 -0.377809 -0.3917
1722 0.501071 -0.068067 -1.49603 -0.897169 0.805285 0.918875 1.24325 0.392975 -0.399114 -1.22305
852 0.807272 -0.255572 -1.03668 0.0402193 0.763973 -0.331596 0.596689 -0.00465231 -0.231993 -0.633601
759 0.275798 -0.164876 -1.32372 0.0392942 0.752876 -0.880703 1.05935 -0.810268 -0.803802 0.406501
855 0.585438 -0.457985 -1.01347 0.284157 1.08278 -1.04022 0.620766 -0.633587 -0.426026 -0.0294131
1601 0.826674 -0.342146 -1.16839 0.218929 1.02788 -0.972963 0.335276 -0.627025 -0.534517 -0.117512
2295 0.130957 -1.06642 -0.87723 0.209598 1.05209 -0.224384 0.705666 0.0615243 -0.141159 0.413707
539 0.356333 -1.21068 -0.69299 0.386808 1.43562 -0.372506 0.728595 0.362215 -0.189685 0.396865
540 0.461314 -1.38185 -0.814995 0.325799 1.56857 -0.408265 0.761268 0.440854 -0.0533207 0.753256
990 0.125224 -0.726707 -0.712587 0.658676 1.06155 -0.270833 0.594789 -0.00707113 -0.45356 -0.112615
282 -0.107561 -0.906949 -1.31065 -0.335538 0.548379 -0.163882 0.446971 0.254501 -0.16408 0.58742
3454 0.476072 0.0532188 -1.2682 0.580444 0.803769 -0.156588 -0.38283 0.100151 0.586387 -0.126803
1285 0.145522 -0.538141 -1.27136 -0.509123 1.44109 0.921285 1.56232 0.207042 0.499388 -1.24969
993 0.356309 -0.118835 -1.72365 -0.889908 1.23879 1.38006 1.66643 0.579269 -0.122378 -1.22451
3006 0.0443239 0.364738 -1.09649 0.0994884 0.825839 0.778351 0.786242 0.539881 0.361494 -0.432198
1489 0.0417084 0.130894 -1.37413 -0.925348 1.38257 0.923918 0.597407 1.19923 0.178414 -1.07458
3935 -0.406522 -0.183871 -1.01709 0.156403 0.161407 -0.271408 0.442082 0.508584 -0.00303553 0.180513
181 -0.81403 -0.448228 -0.683581 0.356241 0.999674 -1.13808 0.606049 1.11574 0.000311537 -0.718542
4309 -0.294386 0.48229 -0.889235 0.0395822 0.523933 -0.223519 1.02042 0.0989908 -0.487051 0.139671
1186 0.0333677 0.948443 -0.985094 -0.0454085 0.96299 -0.462593 1.30126 0.112509 -1.02626 -0.280194
2177 -0.58557 -0.0621267 -1.31547 0.312583 0.571639 -0.429968 1.93153 0.232738 -0.765295 0.286181
4467 -0.683393 0.0583478 -0.816984 0.214927 0.698147 -0.241037 1.29456 0.238392 0.1891 0.00280278
2441 0.0560321 -0.00285529 -1.21307 -0.122087 1.04903 -0.705359 -0.122955 -0.758718 0.0124918 0.452678
1583 0.00231716 -0.208416 -2.53106 -0.304583 2.27387 -1.64967 -0.331468 -1.63773 0.144751 1.11394
3417 0.0643878 0.199399 -1.23483 -0.227414 0.330019 -0.131387 0.219172 0.0758568 0.548601 -0.308658
1379 0.145127 0.699802 -2.04773 -0.691024 -0.0851513 -0.17265 0.320921 -0.261322 1.31833 -0.749212
2600 0.739867 0.435824 -0.961931 0.0563338 1.54404 -1.36399 0.518384 -0.491734 0.747835 -1.02871
4762 0.289504 0.142826 -0.586968 0.0475109 0.920407 -0.625634 0.265029 -0.102812 0.446221 -0.531769
2364 1.16653 0.219896 -0.793787 0.510631 1.66694 -1.35081 0.166234 0.164262 -0.781465 0.0207233
2365 1.02876 0.110225 -0.797601 0.508428 1.50652 -1.20857 0.0969266 0.284349 -1.04401 0.134477
3800 0.385149 0.541157 -1.38851 1.11501 0.265972 -0.0885676 0.0415029 0.293566 -0.358262 0.00933074
809 0.665457 0.349725 -1.06763 0.973601 0.80821 -0.237058 -0.216467 0.416758 -0.200615 -0.037345
3066 0.600221 0.125713 -0.990166 -0.136555 1.24226 -0.235853 -0.823997 0.511906 -0.515136 0.322071
662 0.840614 0.0376527 -1.45219 -0.276088 2.31925 0.0366305 -1.74737 0.87021 -0.142024 -0.169555
2912 0.320677 0.0196559 -0.906802 -0.714668 1.22179 -0.211551 -0.577019 0.585469 -0.392155 0.576796
3529 1.73675 -0.63367 -1.73256 -0.0673255 0.493035 -0.0652363 0.874545 0.0478521 -0.229995 -0.617419
225 1.25088 -0.929466 -2.39251 -0.0973393 0.542116 0.921816 1.21986 -0.328789 0.256217 -0.042131
1397 0.578973 -0.468888 -1.35837 0.00717445 0.418357 0.44057 0.639109 -0.143711 0.110229 -0.134507
623 0.233705 -0.136217 -1.25689 0.604454 0.662986 0.482635 0.97949 0.0057755 0.197975 -0.362143
793 0.621006 -1.77085 -2.54473 0.640225 1.16241 0.965826 1.78915 -0.252118 0.254643 -0.209655
2623 0.499747 -0.430205 -1.94789 0.0787977 0.418143 1.17425 1.475 0.214353 -0.0154804 -0.15413
1180 0.77964 -0.958659 -2.60863 0.16003 0.681145 1.22644 1.28548 -0.576797 0.635704 0.0958777
3094 -0.158029 0.680381 -0.601342 0.485661 2.07378 -0.860585 0.781261 0.841719 -0.254545 1.06287
805 -0.295844 0.724714 -0.645838 0.470016 2.40628 -0.956376 0.910723 0.943982 -0.255697 1.19007
3093 -0.215144 0.692126 -0.652401 0.538059 2.11554 -0.828875 0.752854 0.81148 -0.283705 1.11363
28 0.0117987 1.29825 -1.27669 1.0693 2.83272 -1.17736 1.08 0.648138 -0.337047 2.03883
4239 0.36128 0.138887 -0.916078 0.134054 0.445422 0.100727 0.426581 0.0330269 0.191128 -0.515682
3687 0.303417 0.450279 -1.64264 0.251443 0.867548 1.02578 0.701517 0.147976 1.06262 -0.850116
3432 -1.06297 0.0871083 -1.17267 0.662052 0.980196 0.130887 0.289838 -0.591976 0.258498 0.491396
1652 0.545891 -0.0884163 -1.36922 0.0857057 1.89522 -0.16423 0.594453 -1.36538 -0.562472 0.791004
2748 0.363577 -0.0699036 -1.06706 -0.105216 1.32707 -0.202392 0.586568 -0.447078 -0.339421 0.42472
3273 0.315686 -0.990853 -1.07136 -0.177043 2.40132 0.129947 0.31014 -0.412738 -0.416549 0.583716
3271 0.293917 -0.967327 -1.01739 -0.0980742 2.30959 0.0638223 0.349523 -0.295333 -0.518578 0.656223
3597 0.890667 -0.412458 -1.62237 -0.408134 0.0821397 -0.553755 0.934019 0.312104 -0.298071 0.62785
2964 1.22823 -0.83704 -2.18539 -0.319923 -0.328254 -0.501545 0.897505 0.422403 -0.246475 0.776465
1212 1.4061 -0.606246 -2.60798 -1.38898 -0.29708 -0.791477 0.940519 0.687789 -0.250864 1.05437
3446 1.03027 -0.374884 -1.51091 -0.786299 0.194358 -0.485332 0.796184 0.572569 -0.190442 0.708192
976 -0.238622 -0.214909 -2.14675 0.0347851 0.471154 -2.24054 -0.511363 0.976141 0.785442 1.18029
610 -0.359836 0.00559486 -2.05858 -0.246642 0.91542 -2.91186 -0.219169 1.03877 0.528672 1.14725
617 -0.965485 0.0673567 -2.03548 -0.699385 0.644856 -2.4461 -0.150844 0.369534 0.523845 0.493577
3371 -0.341554 0.175913 -1.10306 -0.11053 0.868803 -1.59299 -0.343309 0.788142 0.46595 -0.0284199
1249 -0.455316 0.778407 -1.83222 -0.540352 0.43846 -1.32693 -0.811924 0.466115 0.000835495 0.380224
1251 -0.522927 0.624996 -1.85217 -0.572805 0.432203 -1.44674 -0.710612 0.50622 0.141029 0.377716
1367 -0.0456918 0.673862 -2.06269 1.12303 0.822005 1.45532 1.54809 0.803121 0.652074 -0.474835
4408 -0.00692096 0.713399 -1.11622 -0.181831 1.4491 0.881948 0.623351 0.57012 0.930747 -0.640244
4497 -0.0544284 0.448942 -0.929509 -0.187076 1.23068 0.362643 0.485456 0.36676 0.599563 -0.407415
2688 -0.863126 -0.658578 -1.50461 -0.348046 0.603956 -0.508311 0.334384 0.309741 0.604553 -0.839292
766 -0.172691 -0.543638 -1.79815 -0.572934 0.546882 -0.657199 0.144476 -0.0914143 1.25564 -0.969679
2577 -1.28333 -1.04432 -2.11493 -0.515089 0.745313 -0.62594 0.549367 0.362001 0.914902 -1.28343
4715 0.927856 -0.232281 -1.15556 0.0367273 0.293608 -0.585823 0.453132 0.105251 -0.161665 -0.568161
719 1.41633 0.134488 -1.96729 0.565719 0.0340443 -1.037 0.831745 0.323955 -0.325206 -1.0972
1685 0.960013 -0.640032 -0.936155 -0.731154 1.42741 0.112298 0.572568 0.430448 -0.431939 0.719473
1681 0.852162 -0.689192 -0.913637 -0.430516 1.56622 0.0578776 0.620464 0.306818 -0.575522 0.685455
1677 1.0642 -0.726182 -1.0341 -0.584926 1.77953 0.0878047 0.793671 0.25856 -0.630624 0.752232
1678 1.30648 -0.956596 -1.40688 -0.822384 2.25554 0.103551 0.943323 0.307613 -1.1676 0.777418
3697 0.706885 0.448067 -0.949109 -0.40691 1.31955 0.0595798 0.644525 -0.144973 0.70469 0.683912
2878 0.175741 0.710022 -0.798946 -0.205411 1.18617 0.0867011 1.30552 0.0490859 0.503103 0.848702
3698 1.061 0.301879 -1.17682 -0.498508 1.50247 -0.0110306 0.531297 -0.107216 0.863638 0.626742
2579 -0.627472 1.00714 -0.739625 -0.267237 0.950822 -0.0699611 1.32209 0.25509 0.0353458 0.393891
4213 -0.27438 0.670627 -0.711842 -0.026548 0.717453 -0.174179 1.37187 0.45054 0.224477 0.666942
731 -0.894055 1.45096 -1.22919 -0.536801 1.09754 -0.0253555 1.29418 0.447798 -0.609764 -0.120387
4394 -0.879067 1.59148 -1.33824 -0.504203 0.923272 -0.121056 1.26167 0.710996 -0.77891 -0.435906
2138 0.789732 0.976214 -0.902225 0.484968 1.77702 -0.0369725 0.0560338 1.75724 0.925339 -0.087091
2305 1.29201 0.810364 -1.27798 0.376605 1.82757 0.181189 1.04701 2.3668 1.31834 -0.707984
2490 0.375842 0.209721 -0.977342 0.07484 0.883475 -0.100776 0.727911 1.08768 0.766638 -0.345133
2489 0.375375 0.251852 -0.848252 0.0701011 0.950395 -0.0691651 0.678857 1.08588 0.757147 -0.260815
2491 0.303051 0.0746582 -1.02651 -0.011894 0.833814 -0.0355161 0.594797 0.978035 0.832993 -0.236425
2492 0.337375 0.165846 -1.0318 0.120072 0.968504 -0.0353354 0.951116 1.24071 0.866191 -0.250856
1658 1.20933 0.2818 -1.37505 0.775093 1.55783 -1.18591 -0.174335 0.206731 -1.29779 0.321731
1657 1.18409 0.321795 -1.32353 0.715043 1.57632 -1.09543 -0.198854 0.0875253 -1.26121 0.386505
687 1.84933 -0.0506787 -1.65795 0.959567 1.84775 -1.04006 -0.0605639 0.750043 -1.53576 0.554595
2444 0.884178 -0.396689 -1.0107 0.85471 1.5663 -0.545486 -0.326618 0.800681 0.560021 0.0828876
3885 0.524992 -0.305995 -0.73658 0.737344 1.20809 -0.314471 -0.204977 0.633338 0.541115 -0.129258
457 -1.12239 0.947959 -1.58192 -0.393401 0.664718 -1.81167 0.315793 -0.144763 0.0884673 0.339344
537 -0.84288 1.04697 -2.27632 -0.104624 0.140129 -1.3897 -0.318401 0.511982 -0.0968912 1.29619
2728 -0.336264 0.635287 -1.30872 -0.142563 0.0931187 -0.731927 -0.129706 0.274572 -0.00446615 0.589598
536 -1.05974 1.22441 -2.62581 -0.179658 0.369018 -1.50008 -0.459311 0.505708 -0.372868 1.40352
8 -0.0639905 1.97835 -3.16781 0.742449 0.163315 -0.557535 -0.703668 0.626525 0.957451 1.26892
3766 0.0322178 1.1591 -2.53048 0.318358 0.225896 -0.12795 -0.749034 0.847812 0.666551 0.898988
2647 -0.485201 1.0459 -2.07205 -0.339151 0.15945 -1.04377 -0.359174 0.487491 -0.177192 1.15567
1644 0.670737 0.207418 -0.810417 -0.997815 2.19537 0.0913962 -0.442007 1.5035 0.218816 0.282572
1422 0.973665 1.04119 -0.801437 -0.213104 1.65666 -0.0500205 0.750406 1.26805 1.24619 -0.28321
561 1.15808 1.2673 -1.2186 -0.0635833 2.36985 -0.461943 1.47107 1.40604 2.16209 -0.118736
3496 0.237715 0.0740397 -0.488602 -0.952506 1.64464 0.0341057 -0.0601562 0.992876 0.637677 -0.480925
1569 0.436278 -0.489858 -1.49918 0.030823 1.05629 0.178264 -0.395038 1.33577 0.919701 -0.836967
1085 0.229066 -0.221624 -1.33988 0.452649 1.11341 -0.0757419 0.0771904 1.42969 0.771558 -1.43688
1086 0.261532 -0.211727 -1.10318 0.423365 1.02309 -0.0574327 0.138682 1.11116 0.646891 -1.32304
4710 0.696732 -0.0728392 -1.58119 -0.224403 0.39057 -0.578976 -0.770652 0.668007 0.533222 -0.868394
4711 0.689076 -0.0349883 -1.70394 -0.218139 0.444497 -0.574853 -0.794442 0.741148 0.505312 -0.827358
4713 0.443901 -0.00133472 -1.33801 -0.0994896 0.338409 -0.426287 -0.535345 0.543416 0.32983 -0.564264
1185 0.14148 0.807131 -0.752202 -0.0542503 0.82596 -0.537129 0.845873 0.0557013 -0.724287 -0.32255
1189 0.533675 1.64487 -1.42482 -0.344057 1.60679 -0.774831 1.42255 -0.0834718 -1.52583 -0.936827
4229 0.2821 0.595702 -0.831673 -0.258377 0.977268 -0.405336 0.488604 -0.0592996 -0.606724 -0.500099
4228 0.230703 0.407179 -0.761195 -0.211836 0.893374 -0.304213 0.447315 -0.0447266 -0.519969 -0.449921
1605 0.492631 1.24311 -1.10105 -0.285681 1.47775 -0.598778 0.719157 -0.164275 -1.15702 -0.961641
1602 0.586463 1.58825 -1.26422 -0.33761 1.65085 -0.662176 1.00363 -0.158305 -1.26442 -0.992842
1898 0.442742 0.365559 -1.20716 -0.772138 0.931773 -1.02995 0.572305 -0.131211 0.5466 -0.257201
907 0.0852839 0.387017 -1.69688 -0.37264 -0.207094 -0.931785 0.670011 -0.496222 0.857537 -0.356925
3594 0.119185 0.287215 -1.23383 -0.279857 0.0680375 -0.733328 0.83639 0.0403999 0.172613 0.853509
3593 -0.0208562 0.321263 -1.29027 -0.283028 0.0432718 -0.847632 0.948718 -0.0225848 0.0778188 0.653971
1899 0.289963 0.301012 -1.1105 -0.62189 0.785251 -0.988068 0.462575 -0.151549 0.535091 -0.226556
2976 0.455496 -0.668308 -2.24533 -0.296215 0.523735 0.064062 0.119388 -0.247229 1.43261 -1.26127
4008 -0.442971 -1.03871 -1.37687 0.156619 1.61867 -0.73711 -0.162031 0.14846 -0.275748 1.09962
4010 -0.373071 -0.846618 -1.18508 0.0640105 1.34245 -0.787965 -0.0904443 0.00999875 -0.200589 0.894442
4009 -0.330303 -0.741279 -1.07077 0.0855668 1.19946 -0.663247 -0.0240019 0.0637863 -0.188776 0.74093
4007 -0.475752 -1.06446 -1.39319 0.198882 1.5675 -0.799389 -0.129794 0.0204201 -0.252159 1.08081
2611 -0.136883 -0.461145 -1.44356 -0.96382 0.264973 -0.757885 0.248707 -0.158594 0.342489 -0.0292133
2609 -0.174535 -0.256964 -1.23387 -0.690415 0.228119 -0.875763 0.146412 0.183481 0.552512 0.0566247
2272 0.203645 -1.16906 -2.10893 -1.55116 1.00873 -0.960022 0.65949 -0.334612 1.22468 -0.703141
4209 -0.162663 -0.503841 -0.948817 -0.219854 0.308771 -0.0129253 0.524544 0.418037 -0.0942517 0.349566
2756 -0.217447 -1.95507 -2.5092 -0.877349 0.295875 -0.160276 1.25407 1.17389 -0.19299 0.951567
4703 -0.0412745 -0.822115 -1.26688 -0.395533 0.397851 -0.0519327 0.627245 0.560293 -0.0760098 0.606816
788 -0.374658 -2.21937 -2.49567 -0.320198 0.405806 -0.774655 1.66826 0.0783567 -0.150849 0.163081
2356 -0.0801114 -0.755369 -1.42098 -0.21627 0.369604 -0.503933 0.761804 0.0375315 -0.060696 0.0583048
1439 0.0470182 -1.7713 -2.52906 -0.641141 0.229341 -1.02134 1.45364 -0.25723 -0.179449 0.0481128
3285 -0.369796 0.617009 -1.27805 0.237444 1.15206 -0.428126 -0.306301 0.483733 -0.08586 0.383391
3283 -1.01274 0.957766 -1.32317 0.5924 1.82035 -0.478906 -0.621469 0.511653 -0.230749 0.514643
4797 -0.299352 0.471497 -1.36758 0.260326 1.31031 -0.366766 0.00643301 0.45954 -0.135059 0.224712
4796 -0.290886 0.408647 -1.28104 0.244112 1.24289 -0.377025 -0.0593317 0.435402 -0.12436 0.193157
3807 -0.180911 -0.158078 -1.45155 0.262042 0.291666 0.302707 -0.157168 0.567568 0.258306 -0.0737018
3806 -0.373294 -0.209319 -2.15348 0.429294 0.368911 0.688907 -0.30679 0.920576 0.439692 -0.246698
4252 0.517555 -0.572813 -2.90095 0.640601 -0.125876 0.549325 -0.432034 0.395057 0.169587 0.28444
3248 0.424886 -0.976415 -2.9895 0.818146 -0.327125 0.170184 -0.0269019 0.882323 0.370271 0.667192
1968 0.184651 -0.652368 -2.04355 0.657362 -0.128739 0.0427945 -0.130272 0.690387 0.406569 0.331877
1970 0.0457241 -1.24584 -3.55622 1.23531 -0.398238 0.00695172 -0.112539 1.37133 0.797792 0.394088
1966 0.141853 -1.11707 -3.56687 1.08478 -0.312714 0.151147 -0.231039 1.14376 0.778131 0.430282
453 0.304225 0.593451 -1.14139 -1.06241 1.99128 0.348112 0.501021 1.1502 -0.398642 1.62034
449 0.192202 0.29727 -0.737682 -0.713902 1.14072 0.0239435 0.34665 0.505304 -0.159946 0.878575
454 0.477633 0.786651 -1.2595 -1.11437 2.04466 0.643151 0.622046 1.05938 -0.258435 1.61005
450 0.531446 0.834491 -1.37676 -1.24331 2.32286 0.752631 0.685654 1.31621 -0.195146 1.79302
530 -0.459564 0.000728383 -1.04865 0.265548 0.841356 -0.15226 0.661776 -0.23346 0.829076 -0.0717222
528 -0.767913 -0.195175 -1.43793 0.457633 1.20688 -0.245723 0.993403 -0.431353 1.32185 -0.0817819
4067 0.0142388 0.382651 -1.1559 -0.639486 0.597223 0.61495 0.608417 0.44333 0.163428 -0.397901
2574 0.71364 -0.139881 -1.49794 -0.421431 0.500832 -0.36856 0.996525 -0.681303 -0.709366 -0.100393
782 1.63792 -0.714506 -1.53216 -0.0368276 0.525033 -0.191777 0.76782 0.0109926 -0.145649 -0.660079
269 -0.124825 0.164127 -1.86362 -0.22382 0.52697 -0.50919 1.34253 -0.831805 -1.16013 0.524933
4712 0.71955 -0.072674 -1.77144 -0.213364 0.498168 -0.645582 -0.954129 0.814556 0.562344 -1.01043
2930 0.0960331 -0.0126 -1.20161 -0.0437153 1.16948 -0.66062 -0.173615 -0.79821 0.0256374 0.409162
1524 0.144102 0.00469464 -1.83632 0.175898 1.76704 -1.04456 -0.392597 -1.25907 -0.0505298 0.716759
1032 -0.0630509 -0.628727 -2.22914 -0.268059 2.21645 -1.06479 -0.432671 -1.44006 -0.174451 1.22936
1745 0.0606896 -0.249086 -0.923684 -0.129788 0.936469 -0.498708 -0.142868 -0.55322 -0.147491 0.468821
1033 -0.0377165 -0.59423 -2.15547 -0.237767 2.13427 -1.08081 -0.42398 -1.37827 -0.135549 1.11423
4773 0.124425 0.0226269 -0.712161 0.0054959 0.332843 0.127491 0.262219 0.159416 0.293717 -0.254052
479 0.649713 0.128513 -1.64973 0.282456 1.03906 0.853745 1.1732 0.297733 1.49703 -0.821826
1449 0.514055 0.216019 -2.16057 0.197305 0.808835 1.01666 0.685448 -0.268813 1.2263 -1.37842
1450 0.177931 -0.185586 -1.8609 0.458163 0.86126 0.931921 0.629015 0.0226687 1.22996 -0.994188
1452 0.218358 -0.00913107 -1.7745 0.392474 0.852716 0.911777 0.616699 0.058543 1.19266 -0.983966
2962 -0.25752 0.547772 -1.39892 -0.344314 -0.0267475 -0.602555 0.270398 0.100945 0.265403 0.246044
1832 -0.51294 1.05756 -2.0814 -0.446853 0.08087 -0.67237 -0.121628 0.105831 -0.465432 0.934699
352 -0.0672072 1.13529 -2.31716 -0.860837 0.705216 -1.17248 -0.335187 0.196414 -0.0157458 1.8978
1104 0.121195 0.86345 -2.24031 -0.965102 0.129225 -0.6602 0.303315 0.0658247 0.0860965 1.63112
2001 -0.259107 1.0299 -1.91971 -0.706262 0.360468 -0.450314 -0.266877 0.504076 0.11609 1.04089
1999 -0.301243 1.44327 -2.35272 -0.768824 0.328762 -0.493145 -0.597851 0.763347 0.0993107 1.08365
2431 -0.266763 1.12709 -1.82397 -0.58924 0.225587 -0.514712 -0.608434 0.561267 0.0604756 0.696536
4785 -0.0111047 0.24419 -0.60414 -0.4657 0.993175 -0.781804 0.306327 -0.12914 -0.0199121 -0.543246
1635 0.0561327 0.488925 -1.27542 -0.943322 1.53792 -2.49171 0.190866 0.177497 0.158228 -0.213729
2265 0.329035 0.418952 -1.01003 -0.942588 1.68918 -1.39313 0.339781 0.0453582 -0.110648 -0.813108
4780 -0.326746 0.269161 -0.688301 -0.492564 0.667013 -0.549286 0.679686 0.449937 0.0410387 -0.578121
3228 -0.645116 0.654121 -1.15901 -1.15824 1.12157 -1.26961 1.17535 0.873758 0.209185 -1.04726
2307 1.41026 0.746152 -1.30499 0.446425 1.79247 0.169406 0.727036 2.03719 1.09869 -0.748418
3178 0.964162 0.666171 -0.834086 0.225301 1.48616 -0.164998 0.386439 1.75572 0.897992 -0.356867
4492 0.762491 0.524596 -0.927634 0.297067 1.19151 0.427506 0.550452 1.1291 0.936577 -0.41706
2306 1.22651 0.794677 -1.15404 0.355556 1.63541 0.286165 0.804593 1.60544 1.11826 -0.714159
3180 1.03737 0.703827 -0.819637 0.152732 1.48473 -0.126177 0.45046 1.79684 0.945194 -0.39237
2304 1.3772 0.746683 -1.32999 0.469849 1.70358 0.364325 0.95104 1.83794 1.19 -0.744724
2901 -0.367592 -0.659417 -2.1705 -1.0437 1.22281 0.225044 0.402189 -0.880301 0.964439 1.00181
276 -0.13164 0.482469 -1.38222 -1.01592 0.748143 -0.632681 1.22836 -0.350167 0.442276 1.46737
2362 0.793449 0.0643722 -1.92825 -0.296571 0.690732 0.576969 0.0960966 0.245372 0.8281 1.54308
3824 0.277282 -0.846764 -0.971823 -0.0680152 0.974382 -0.00394344 0.271761 0.344997 0.363351 1.11651
4097 0.942246 -0.298103 -1.38347 -0.282994 0.422966 0.135357 0.222509 0.152653 0.215847 0.513824
4096 0.465736 -0.127358 -1.2656 0.00113807 0.602578 -0.201129 0.389835 0.220875 -0.0456944 -0.102936
2368 -0.549169 -0.190062 -0.756527 -0.252775 1.04066 -0.313923 -0.444996 0.698144 -0.203489 0.29861
155 -1.5659 0.611825 -1.21868 0.745523 1.21519 -0.535267 1.14837 -0.0313981 0.0453863 -0.435653
789 -0.290532 -0.849988 -1.05435 -0.185479 1.34429 -0.0141889 -0.824653 0.835632 0.0219233 -0.634637
2721 -0.283157 -0.383469 -1.04903 0.0259493 0.782018 0.0921793 -0.349803 0.409905 -0.332829 -0.624488
4166 0.102189 -0.256116 -1.10417 0.130715 0.749891 0.454494 0.147763 0.365894 0.851251 -0.493792
2312 -0.319659 -0.297967 -1.49441 -0.96798 2.07407 -0.57054 -1.16297 1.57796 -0.299508 1.08245
2058 -0.483928 -0.189945 -1.55288 -0.810567 1.67751 -0.512096 -0.956437 1.42806 -0.294908 1.22139
2556 -0.246828 -0.167618 -0.916873 -0.412704 0.754121 0.32144 0.909814 0.771068 -1.12898 -0.584872
4680 0.862973 0.413013 -1.34074 0.453612 0.795055 0.40228 1.76301 0.244382 -0.37156 -0.743378
722 0.706003 -0.748205 -1.90963 0.543256 1.21425 0.533572 0.705873 0.173822 1.47003 -1.4536
2480 0.72486 -0.12582 -1.80998 0.371318 1.15913 0.871271 0.661356 0.143217 1.42522 -1.13118
2477 0.294468 -0.361099 -1.17389 0.391908 0.820921 0.26921 0.450407 0.204116 1.0602 -0.572338
1641 0.733156 0.348475 -0.870008 -0.953024 2.35898 0.301379 -0.441479 1.64927 0.455512 0.178005
1357 0.805409 0.585435 -1.41576 -1.37397 2.28839 -0.182184 -1.00801 1.40956 -0.223431 1.10303
1643 0.69938 0.211002 -0.914367 -0.997971 2.30595 0.0770998 -0.508735 1.58974 0.317269 0.165078
652 -0.36252 0.284672 -3.07812 -0.277618 0.419295 1.17927 0.223991 1.30148 -1.7222 0.15192
212 -0.0448558 0.146146 -2.15735 -0.59493 0.660942 0.805645 0.0453161 1.29424 -1.10344 0.241051
643 -0.395541 0.391408 -2.58562 -0.794019 0.757446 0.877116 0.123935 2.02591 -1.50218 -0.362814
4397 -0.291255 0.295248 -1.17569 -0.443377 0.608515 -1.00171 0.0494881 0.190941 0.357638 0.249737
2640 -0.441494 0.224177 -1.07065 -0.469404 0.530436 -0.993265 -0.251646 0.138571 0.358503 0.0657391
1728 -0.673933 0.00453393 -1.26009 -0.231639 0.521187 -1.65744 -0.198693 0.453894 0.29449 0.137326
2393 -0.272416 0.192529 -1.38399 -0.580742 0.405817 -1.50482 0.025009 0.124467 0.681846 0.455496
618 -0.436775 0.238432 -1.5754 -0.512114 0.854926 -2.42461 -0.151848 0.541824 0.45662 0.376397
1851 0.0112552 0.216624 -1.81257 0.827631 0.177043 0.486751 -0.288269 0.500094 -0.674814 0.120295
1847 -0.256893 0.547869 -2.75323 0.808447 0.523719 0.90759 -0.283196 0.733977 -1.51882 -0.0554617
2801 -0.0283374 0.211098 -1.4688 0.339488 0.329968 0.396135 -0.106427 0.387409 -0.623706 -0.0522595
1853 -0.164451 0.585911 -2.82756 0.928653 0.49436 0.869219 -0.258063 0.652334 -1.46589 0.0331467
1849 0.174026 0.544304 -2.5028 1.53561 0.40789 0.383951 -0.282224 0.503841 -1.09723 -0.05553
1120 0.522072 0.650834 -1.7595 1.43619 0.387131 -0.155648 0.0944049 0.411404 -0.313597 0.171883
2650 -0.507869 -1.16485 -2.3746 0.383783 0.840392 0.413986 -0.779857 0.987327 -0.611189 0.186657
1313 -0.56239 -0.55415 -2.11893 -0.798396 1.61597 1.6237 0.0381187 1.40717 0.00482481 -0.145923
2654 -0.482773 -0.891111 -1.87059 0.141802 0.715781 0.561746 -0.508408 0.888087 -0.403353 0.137657
4541 -0.124662 -0.00226492 -1.29124 -0.424852 1.12952 -2.36613 -0.275204 0.862652 0.44267 0.0433461
1481 0.355424 0.0920641 -1.27897 -0.530503 1.06946 -2.41855 0.373858 0.865403 0.450565 0.764237
4400 0.103937 0.0737418 -1.07858 -0.171529 0.590942 -1.26774 0.235361 0.558147 0.258136 0.495753
1887 1.01569 -0.829503 -1.14815 -0.647758 2.05807 0.197886 0.835827 0.116365 -0.903957 0.612983
417 0.727104 -0.84166 -1.04723 -0.349811 1.36529 -0.610027 0.344536 0.0569344 -1.13168 0.204958
1885 1.09928 -0.95902 -1.09948 -0.549374 1.93227 0.0117443 0.681386 0.282409 -0.768123 0.693327
1272 0.89502 -0.860681 -1.00496 -0.135677 1.73535 0.0035933 1.36049 0.307664 -0.76404 0.75681
1674 0.465588 0.543691 -0.519163 0.130301 1.09185 -0.491574 0.496131 0.507642 0.73642 0.210437
1673 0.861695 0.77297 -0.715129 0.38776 1.47031 -0.772094 0.39923 0.702031 1.23996 0.1992
925 0.471456 -0.00933272 -1.32495 1.15302 1.23602 -0.922509 1.81135 -0.194148 1.66271 0.745097
1882 -0.437394 -0.144011 -1.84711 0.230436 0.210309 -0.643955 0.347226 -0.824246 1.06257 -0.00268669
2401 -0.540729 0.213194 -2.1993 -0.338848 0.074965 -0.55923 0.405347 -1.19699 0.2593 0.0314191
3202 0.147844 0.508042 -1.75662 0.717992 0.183645 0.84582 0.988533 0.690277 0.0712837 -0.751574
3201 0.196331 0.543388 -1.90484 0.483852 0.50871 0.795358 1.92165 0.821301 -0.320997 -1.16866
971 -0.208218 0.855828 -2.34859 1.00465 0.728856 1.53044 1.93181 0.938307 0.485542 -0.577072
4395 -0.45335 0.837737 -1.31601 -0.618913 0.609314 0.0985389 0.925825 0.979067 -0.892921 -0.832067
4311 -0.528953 0.66878 -1.24633 -0.395183 0.38821 0.0542319 0.666776 1.06028 -0.91266 -0.597369
2344 -0.368043 0.123554 -1.81102 -0.614969 0.613238 0.744014 0.0359734 1.30232 -0.975807 0.0666107
648 -0.503862 0.356093 -2.54449 -0.931222 0.837982 0.875738 0.352256 1.95368 -1.45269 -0.487805
2346 -0.371926 0.174096 -1.78805 -0.594204 0.59431 0.772843 0.0862963 1.28765 -0.893958 0.0177995
1247 0.157884 0.187285 -1.08226 0.703808 0.96483 0.338479 1.22175 0.173151 -0.288378 -0.738388
2618 0.0121339 0.259804 -1.02594 0.442832 0.616817 0.247097 0.877444 0.154238 -0.242713 -0.238041
587 0.184718 0.0876848 -1.38975 0.942369 1.11766 0.643962 1.77937 0.118193 -0.331321 -0.863179
588 0.142051 -0.114004 -1.31345 0.600016 0.634671 0.667896 1.33932 0.121584 0.0707332 -0.46792
4792 -0.220385 0.250905 -0.655575 -0.393179 0.66207 -0.720302 0.154738 0.187882 -0.0531785 -0.454773
1704 0.299483 0.663601 -1.30284 -1.25327 2.42095 -1.93694 0.748862 -0.368716 0.297295 -1.17912
4681 0.0723407 0.275687 -0.924376 -0.705119 1.37635 -1.29954 0.276823 -0.0925251 0.116692 -0.564356
2910 0.781751 0.152236 -1.36962 -0.986146 1.8343 -0.236242 -1.04987 0.726291 -0.763933 0.610053
822 0.729957 1.33689 -1.59539 -1.26951 1.76948 0.840974 0.156928 -0.395473 -0.454609 -0.611257
968 1.02553 -0.168358 -1.07894 -0.877677 1.3068 0.549238 0.84678 -0.0461896 -0.719143 -0.304435
1787 0.822496 0.00458386 -2.36169 0.356865 0.311284 0.586742 -0.538031 -0.0171756 -0.0898941 0.0133843
1786 0.983755 -0.12053 -2.49168 0.395065 0.294549 0.662046 -0.60482 -0.0798374 -0.131393 -0.00716214
1790 0.856162 -0.072034 -2.30585 0.332413 0.22988 0.525643 -0.474934 0.0312225 -0.108336 -0.0175184
3625 0.881879 -0.00711091 -3.11958 0.556201 0.17206 0.802898 -0.660805 -0.189678 -0.103623 -0.000572793
1791 0.784016 0.0456798 -2.29158 0.400751 0.253604 0.482974 -0.434156 -0.0521144 -0.173249 0.0161522
1788 0.724258 -0.0120021 -1.86861 0.309215 0.310001 0.397597 -0.372661 0.0881984 -0.0969978 -0.0202637
2106 -0.34701 0.266614 -1.80218 -0.583637 0.717731 0.754909 0.0606863 1.4181 -0.970328 0.0903349
651 -0.357999 0.423491 -2.8711 -0.00934145 0.286157 0.948426 0.391275 1.48767 -1.71243 0.276801
1206 -0.248604 0.127414 -1.99139 -0.323828 0.501679 0.896907 0.161699 1.25571 -1.11965 0.255195
1202 -0.280263 0.210726 -2.35553 -0.344282 0.511116 0.947421 0.265809 1.46203 -1.34384 0.23436
1205 -0.28706 0.106459 -2.2564 -0.532323 0.631125 0.991781 0.192466 1.40747 -1.16107 0.411812
1203 -0.438466 0.113596 -2.43205 -0.535127 0.561627 0.932081 0.358222 1.49865 -1.34604 0.414389
3899 0.532384 0.645049 -1.88736 0.680431 0.598756 -0.430494 0.411104 -0.00558692 -0.0742331 0.168557
1352 0.872322 1.47306 -2.30046 1.12837 0.318216 -0.842269 0.77415 -0.814909 -0.170582 0.368574
3897 0.762071 0.755881 -1.92298 1.01874 0.348334 -0.459753 0.397285 -0.163113 -0.113196 0.137934
275 0.657231 1.22171 -2.62264 1.9985 0.338844 -0.0941298 0.422679 0.372488 -0.761314 0.471553
3054 0.521807 1.18312 -2.12146 1.38694 0.533858 -0.0705222 -0.384997 0.152666 -0.006483 -0.498208
3053 0.542055 0.985035 -2.03171 1.30383 0.575244 -0.00618634 -0.393257 0.0776533 -0.038083 -0.460614
3502 0.208014 0.155795 -0.880219 -0.407302 0.885812 -0.338134 0.276471 0.485298 0.135721 0.314374
3501 0.621597 -0.0460134 -1.17034 0.246479 0.723493 0.111789 -0.0410506 0.125812 0.681522 0.283689
2434 0.557541 0.250815 -0.753061 -1.37303 1.59841 -0.619139 0.66417 1.2331 0.296224 0.910132
2435 0.570048 0.355248 -0.755593 -1.34099 1.48815 -0.519144 0.572648 1.25858 0.273952 0.811464
4449 -0.363457 0.635242 -1.40327 -0.183418 0.897458 -0.191418 0.824389 0.264337 0.0741795 -0.163218
384 -1.26062 1.58326 -1.6847 -0.286868 1.0607 0.251313 2.0669 0.182436 0.273016 -0.867568
386 -1.32663 2.09503 -2.23808 -0.966744 1.25285 0.0816517 1.37232 -0.0451469 0.397334 -1.22151
383 -1.08455 1.45917 -1.48957 -0.245435 0.926467 0.0374321 1.2634 -0.162306 0.421697 -0.630899
385 -1.00154 1.21032 -1.24109 -0.127716 0.791074 0.107598 1.3956 0.0466379 0.23137 -0.646988
3705 0.164289 0.0478734 -1.2935 -0.153441 0.11726 -0.414499 -0.232364 1.09534 0.389326 -0.841423
1091 -0.0403702 0.291054 -2.38237 -0.113958 -0.081482 -0.68109 -0.48213 1.83654 0.876385 -1.63722
3049 0.0187621 0.141543 -0.889301 -0.0923497 0.131575 -0.27139 -0.0547511 0.686359 0.225508 -0.467481
1092 -0.0142942 0.225167 -1.8307 -0.257548 -0.0304964 -0.499483 -0.158617 1.717 0.680591 -1.18051
1131 0.471047 -0.0124516 -1.86147 -1.02281 0.474654 -0.899709 -0.970064 1.52091 0.422787 -0.975213
2257 -0.427897 0.0135638 -1.12528 -0.355344 0.603392 0.288539 0.00349784 0.723537 -0.349001 -0.12257
2258 -0.234639 -0.102655 -1.69927 0.00507708 0.578682 0.519075 -0.253637 0.716414 -0.342617 -0.0549474
2259 -0.309413 0.0023751 -1.25902 -0.280313 0.633601 0.256311 0.0147347 0.646487 -0.213788 -0.0822297
2251 -1.00489 -0.00505374 -1.89305 -0.83002 1.12265 0.715456 -0.101795 1.46909 -0.540368 -0.340163
886 -0.812832 -0.253706 -2.17892 -1.13256 1.77781 1.34005 -0.144476 1.37982 -0.0572001 -0.502232
4748 -0.59053 -0.128865 -1.53406 -0.72999 1.07984 0.900894 -0.0347637 1.02671 -0.108281 -0.268674
1314 -0.685784 0.0157072 -1.5917 -0.836107 1.19299 1.03579 0.0696733 1.12841 -0.194479 -0.348488
4160 -0.753572 0.0560362 -2.00539 -1.04055 1.2261 0.998245 -0.0343273 1.51373 -0.654999 -0.351437
3797 1.06641 0.320764 -1.0701 -0.528037 0.551583 0.0912853 0.39794 0.0710387 -0.193315 -0.297107
2673 2.22414 0.728408 -1.85 -0.958081 0.999525 0.210772 0.707716 0.180422 -0.324027 -0.573819
2674 2.0515 0.655163 -1.80387 -0.900003 0.989314 0.251184 0.665029 0.15839 -0.324814 -0.552633
2676 2.28823 0.745634 -1.95696 -1.03051 1.07558 0.211818 0.768253 0.150276 -0.458794 -0.630961
3918 -0.0857243 -0.380455 -1.0499 0.131459 0.644282 0.177488 -0.119145 0.464149 0.580162 -0.312039
1710 0.426712 -0.389941 -1.76248 0.0940034 1.75323 0.934072 0.329543 0.835381 2.23343 -0.435685
1711 0.299413 0.211186 -0.880831 0.0984007 0.880307 0.48723 0.512063 0.582752 1.09285 -0.267398
3884 0.607811 0.558944 -0.777583 -0.0185597 1.35707 0.0786029 0.683747 0.930619 1.27524 -0.0752422
563 1.06279 1.14894 -1.15414 0.018409 2.23149 -0.881166 1.36906 1.33155 1.97738 0.0984512
3247 0.758615 0.939556 -0.74026 -0.119121 1.77192 -0.692253 0.872821 0.875157 1.24732 0.340257
2147 0.147816 0.370879 -0.648707 -0.595609 1.09827 0.19663 0.34152 0.53578 -0.141447 0.801769
2051 0.355528 0.350617 -0.83876 -0.859453 1.53045 -0.09062 -0.0660551 0.817323 -0.355739 0.889064
4013 0.501038 0.561632 -1.61899 0.762968 1.2334 -0.408525 -0.962942 -0.246575 0.166045 0.299443
1262 0.791545 1.48225 -2.49524 0.982391 0.916937 0.0985925 -1.20504 0.764097 0.488121 0.340733
3397 0.616991 1.32491 -2.37065 1.43383 0.628592 -0.193728 -0.566426 0.374068 0.0216429 -0.0836361
1650 0.335331 1.47331 -2.46639 1.19947 0.457824 -0.24006 -0.726134 0.363653 0.0974463 0.167725
1895 0.600697 0.0203348 -1.3543 0.537748 0.95792 -0.187769 -0.598992 0.0356812 0.48012 -0.0129973
237 1.13903 0.0478267 -1.42394 0.882468 1.22628 -0.673309 -0.567283 0.102296 -0.299657 -0.0572721
3127 -0.461653 0.202479 -1.02649 -0.211747 0.297792 -1.10948 -0.0479125 0.206133 0.213825 0.314454
3126 -0.479501 0.281359 -1.02088 -0.221945 0.33117 -1.07176 0.0936608 0.197956 0.193164 0.37592
1273 -0.532319 1.29548 -2.33579 -0.982942 0.448108 -0.639381 -0.430736 1.01499 0.823682 1.18775
3011 -0.338651 0.732494 -1.34589 -0.179441 0.571238 -0.436626 -0.363766 0.461149 0.269179 0.638668
1294 0.933503 -0.22617 -2.08489 0.365434 0.882457 0.640712 -0.162746 0.340069 1.14163 1.21089
1511 1.1383 0.328999 -1.76902 -0.580409 -0.041631 -0.893572 -0.0207058 0.410103 -0.287275 -0.276329
1512 1.31632 0.430444 -2.03673 -0.737931 -0.0558705 -1.01652 0.00983679 0.506537 -0.340368 -0.288771
1434 1.16362 0.403895 -1.77304 -0.259691 -0.255597 -0.584599 0.35635 0.385717 -0.135421 -0.664771
1510 1.25788 0.296886 -1.85071 -0.577939 -0.0505021 -1.04346 0.0234075 0.383588 -0.425163 -0.271734
4978 -0.521607 0.396923 -0.872983 -0.0809004 1.561 -1.26228 0.344657 -0.326467 -0.244921 -0.697663
2391 -0.20407 0.641314 -1.08485 -0.671015 1.93201 -1.73755 0.700859 -0.581943 0.0185143 -0.6985
4256 -0.957657 0.668645 -1.19882 -0.346888 1.64496 -1.86763 -0.056098 -0.339157 -0.113876 -0.51693
4255 -1.02466 0.448765 -1.12149 -0.116295 1.6181 -1.80851 -0.0254894 -0.242845 -0.105171 -0.365475
4274 -0.229398 0.113822 -0.669297 -0.0624056 0.803379 -0.697301 0.136826 -0.0685901 -0.0701989 -0.13498
975 -0.613513 0.941649 -2.05608 -0.614225 0.763894 -2.01642 -0.569979 0.13304 0.77541 0.324233
2187 0.00615992 -0.278287 -1.24651 -0.537954 1.12011 -2.44457 0.0561313 1.03333 0.36468 0.185521
2190 -0.0687399 -0.237579 -1.13787 -0.50772 0.924385 -2.06767 -0.00847199 0.884294 0.311414 0.148893
1738 -0.42996 0.651133 -1.77018 -0.44816 0.325068 -1.49897 -0.0129238 0.417182 -0.196601 0.940777
619 -0.515921 0.318055 -1.70321 -0.58033 0.752853 -2.44288 -0.199445 0.530291 0.330441 0.422942
953 0.565424 0.454873 -0.972076 -0.588 1.15796 -0.175459 0.523604 0.604158 -0.459242 0.123794
1774 0.0987789 0.450694 -1.10319 -0.437678 0.925814 -0.179755 0.837165 0.579907 -0.436581 0.165398
3147 0.700426 -0.491567 -0.955723 -0.71034 1.38505 -0.241716 0.631582 0.260614 -0.724863 0.542837
1886 1.2347 -0.828219 -1.14346 -0.61601 2.03918 0.134721 0.745834 0.199478 -0.852304 0.518057
3144 0.637335 -0.662019 -0.931523 -0.610887 1.49287 -0.0898367 0.628585 0.241714 -0.681479 0.554158
2740 0.77025 -0.605449 -1.21768 -1.02554 1.67215 -0.292164 0.801834 0.287344 -1.00877 0.757191
1248 0.273163 0.20688 -0.94755 0.575452 0.71102 0.307339 1.12289 0.1915 -0.242083 -0.668984
1127 0.735185 0.460258 -1.26488 0.590526 0.726406 0.351361 1.37701 0.116316 -0.0379647 -0.584943
2133 0.205278 -0.220545 -1.27376 0.466209 0.946716 0.912789 1.63558 0.208256 -0.115383 -0.577429
2134 0.303116 -0.228503 -1.32423 0.33378 0.957952 0.869084 1.75109 0.273792 -0.177878 -0.727151
3391 -0.352906 0.450099 -1.27263 -0.113223 0.290323 -0.995311 -0.175564 0.216708 -0.0449841 0.0226501
3390 -0.241584 0.510666 -1.61035 -0.249963 0.509691 -1.09813 -0.0399438 0.295511 -0.0537943 0.245784
125 -0.67879 0.769206 -1.86083 -0.287211 0.211367 -1.72974 -0.376884 0.353811 -0.0742502 -0.0396736
611 -0.469249 0.61427 -1.80905 -0.529931 0.381456 -2.37936 0.507137 0.250109 0.330968 0.530364
1424 -0.187158 0.296596 -1.62847 -0.631718 0.00132997 -1.34404 0.86191 0.081403 0.683773 0.850764
4536 -0.134538 -0.264424 -1.46896 0.948555 0.341771 -0.518763 0.51325 0.952365 -1.38087 -0.603154
4537 -0.045362 -0.171224 -1.4091 0.991094 0.362223 -0.456085 0.528173 1.01851 -1.35862 -0.58278
3520 -0.346523 0.569821 -1.44313 -0.261033 0.290543 -0.575947 0.0565247 0.226943 -0.144928 0.696235
2906 -1.01366 1.06864 -2.27645 -0.541506 0.54353 -1.14402 -0.175037 0.267137 -0.200229 1.40372
350 0.630859 0.531346 -1.33322 -0.54119 0.936653 -0.259985 0.0301233 -0.158186 0.531586 0.84515
1451 0.456197 0.253596 -2.15953 0.196448 0.809878 0.949529 0.707201 -0.288194 1.27525 -1.30503
2576 0.464844 -0.0246319 -1.62738 0.233309 0.769336 0.787754 1.03452 -0.0766525 0.982636 -0.926018
1854 -0.14049 0.48688 -2.23677 0.759615 0.46607 0.754516 -0.234698 0.658848 -1.20459 0.00558725
682 0.937786 0.231655 -1.47757 0.773284 1.52314 -1.47864 -0.42901 -0.17386 -1.08578 -0.19109
410 0.884245 -0.16284 -1.28019 0.521576 1.42211 -1.01489 -0.456793 -0.0261627 -1.01769 -0.0148595
413 0.566346 -0.182109 -0.896819 0.183805 1.03082 -0.507608 -0.0951947 0.128276 -0.510258 0.0611481
419 0.600184 -0.220795 -0.948001 0.168775 1.15956 -0.587598 -0.17744 0.102098 -0.620807 0.168244
4297 0.44593 -0.0406266 -1.06562 0.666687 1.08684 -1.02108 0.125822 -0.475033 -0.451 -0.305608
2172 0.326232 0.0762438 -1.26271 1.16617 1.18565 -0.995065 0.253159 -0.651072 -0.450933 -0.682262
4296 0.314931 0.100122 -1.07889 0.679182 0.979296 -0.984115 0.0760393 -0.462695 -0.356656 -0.303777
2174 0.447464 0.00915816 -1.42069 1.22224 1.37578 -1.19587 0.344864 -0.667324 -0.700623 -0.751908
4298 0.388738 -0.0723058 -0.928192 0.616535 1.05013 -0.907082 0.0957239 -0.353862 -0.255811 -0.334788
4307 0.793108 0.230515 -1.80125 -0.479189 0.384161 -0.849146 0.0785436 0.397669 -0.294223 -0.181377
4306 0.876965 0.275511 -1.88459 -0.540799 0.39344 -0.842294 0.0522202 0.42287 -0.283703 -0.145837
1509 1.87178 0.426531 -2.75779 -1.04658 0.198277 -1.48245 -0.206279 0.520024 -0.873061 -0.277934
1513 1.22696 0.356992 -1.86034 -0.570466 -0.08944 -0.931257 0.128447 0.468554 -0.308736 -0.343053
3260 -0.150565 -0.872401 -1.14989 -0.166721 0.973224 0.241553 0.414968 0.502293 0.823579 -0.460133
3259 -0.1901 -0.813073 -1.07962 -0.168676 0.890304 0.211834 0.429368 0.496433 0.789094 -0.417772
3258 -0.250858 -1.0364 -1.23695 -0.214946 1.08866 0.261173 0.44653 0.583436 0.930383 -0.445214
2759 0.0103511 0.390767 -0.880102 -0.579754 1.46138 -1.14164 0.458262 -0.070385 0.0155031 -0.612959
2761 0.0308865 0.411904 -0.943333 -0.649789 1.70199 -1.2565 0.572706 -0.141762 -0.0695038 -0.803283
2758 0.0225778 0.41556 -0.887429 -0.686676 1.61699 -1.31235 0.573662 -0.174023 0.0150448 -0.692127
2763 -0.0147918 0.395627 -0.948265 -0.591547 1.6712 -1.18692 0.53035 -0.132386 -0.100757 -0.816109
2762 0.0562073 0.411038 -0.997143 -0.607769 1.70312 -1.2785 0.493224 -0.134743 -0.0493569 -0.810213
3752 -0.946156 -0.176489 -1.64281 -0.425682 0.898014 0.10405 0.249228 1.1622 -0.403525 -0.187328
3751 -1.0937 -0.184544 -1.69015 -0.461909 0.847547 0.216514 0.241469 1.22567 -0.497315 -0.23053
2605 -0.646045 -0.105161 -1.55354 -0.339733 0.804668 0.0386375 0.214193 0.879371 -0.331383 -0.145727
2606 -0.506713 -0.0485198 -1.62878 -0.244261 0.875969 -0.03592 0.21152 0.819409 -0.311919 -0.133358
3680 0.664328 -0.688598 -1.31351 0.0890348 0.450814 0.54507 0.949388 0.0481345 0.0862186 -0.0012978
3233 0.128815 -0.449613 -1.47897 -0.529933 0.507538 -0.215526 0.688269 1.44339 1.76685 -0.569523
1921 -0.0347587 -0.286641 -1.41787 -0.454244 0.317237 -0.2114 0.627662 1.25398 1.50552 -0.498668
2098 0.0139591 -0.632102 -1.45809 -0.493623 0.57186 -0.191256 0.872546 1.58571 1.74918 -0.33532
4461 0.0746387 -0.365531 -1.10891 -0.412868 0.366703 -0.253898 0.451912 0.748824 1.07073 -0.378033
3649 0.0632629 -0.337202 -1.22634 -0.488582 0.452568 -0.0406046 0.462548 0.979272 1.13982 -0.47827
4342 0.529704 -0.645107 -1.08764 -0.5441 0.419985 -0.389215 0.343404 0.746383 1.04848 -0.40428
4001 0.0608205 -0.0158573 -0.900499 0.224501 0.645839 -0.17855 0.317599 0.0512437 -0.167082 -0.162542
982 0.0183533 -0.314613 -1.16187 1.00955 1.21346 -0.216465 0.654393 -0.322717 -0.661571 -0.731709
980 0.0494209 -0.997295 -1.60004 1.58275 1.99732 -0.377344 1.20067 -0.318285 -1.03748 -0.79614
4668 -0.0152335 -0.372293 -0.905043 0.7277 0.926768 -0.164993 0.528052 -0.256543 -0.511231 -0.417584
984 -0.0369429 -0.854479 -1.74052 1.47393 1.89285 -0.354545 1.00655 -0.457677 -1.16894 -1.01285
2871 0.147082 -0.141764 -1.16688 1.25589 1.61546 -0.126543 0.611724 -0.340672 -0.764744 -0.829598
2872 -0.0489239 -0.166165 -1.34686 1.20206 1.60647 -0.187739 0.843694 -0.585838 -0.837037 -0.989102
2038 -0.383619 -0.0826389 -1.15876 -0.0610212 0.503582 -1.24229 -0.114348 0.566587 0.285188 0.369843
2279 -0.355537 -0.0220959 -1.33768 0.0557702 0.4435 -1.289 -0.273559 0.778943 0.38762 0.65484
2278 -0.460954 0.0478449 -1.54045 -0.0161195 0.469266 -1.40496 -0.247246 0.819856 0.446568 0.648987
2932 -0.209755 0.228741 -1.46695 0.399438 0.823903 -0.0938452 -0.429623 -0.0993221 -0.910491 -0.00604897
2931 -0.278174 0.283651 -1.74642 0.544284 0.897137 -0.0736699 -0.580736 -0.140743 -1.13609 0.027491
3039 -0.141415 0.485846 -2.19615 1.07514 0.874812 0.10202 -0.511111 0.0548904 -1.34101 0.0357016
3993 -0.000450029 1.03259 -2.12034 0.388106 0.254606 -0.182216 -0.699156 0.727899 0.394678 0.741477
3992 0.0326156 1.13479 -2.32745 0.484304 0.227014 -0.0826224 -0.824089 0.860487 0.47516 0.680434
5001 0.0746873 0.861083 -1.75534 0.269446 0.247301 -0.159542 -0.538932 0.638581 0.285739 0.528327
3209 0.152714 0.469041 -1.14722 0.288592 0.925853 -0.153276 0.320742 -0.0706594 -0.410054 0.0840136
3208 0.30085 0.533233 -1.13655 0.437781 1.06075 -0.109179 0.375825 -0.228032 -0.556886 0.157715
2092 0.232385 0.86742 -1.21113 0.647689 1.32076 0.00763402 0.517054 -0.414622 -0.788887 0.216243
2091 0.254403 0.816097 -1.12046 0.619218 1.3164 0.0210578 0.424873 -0.3962 -0.694574 0.250936
2088 0.26514 0.555834 -1.0386 0.438979 1.06286 -0.049163 0.416189 -0.241026 -0.63188 0.166979
699 -0.189223 -0.607416 -1.25767 -0.110036 0.604225 -0.00603878 0.610518 0.258798 0.0929842 0.66228
2117 -0.342963 -1.61907 -1.86487 -0.29223 1.13614 0.0725126 0.964745 0.358078 0.323538 1.38313
4535 -0.108505 -0.814578 -1.56188 -0.103339 0.417533 0.104582 0.86726 0.471375 0.0632814 0.990223
4653 0.102477 0.0700543 -1.29804 -0.160281 1.11021 -0.280397 0.427474 0.0912471 -0.371587 -0.360257
4656 0.108092 0.100808 -1.34844 -0.25002 1.12261 -0.260867 0.368359 0.179574 -0.309345 -0.222408
4654 0.115082 0.147357 -1.49365 -0.212962 1.21456 -0.346459 0.524435 0.0442421 -0.386995 -0.393747
4172 0.29929 0.0736981 -0.78817 -0.255313 1.07037 -0.868673 0.75218 0.96474 0.181428 -0.809379
3442 0.311504 0.0541318 -0.784639 -0.320432 1.40092 -1.05854 0.916396 1.12286 0.0660354 -1.20894
930 0.145201 -0.235228 -1.04237 -0.164112 2.22223 -1.34126 1.31049 1.53367 0.124047 -2.096
4828 -0.232272 0.0697124 -0.431177 0.143731 0.889521 -0.679709 0.53666 0.317146 -0.136644 -0.699074
4446 0.487292 0.255148 -0.789596 -0.441944 1.3944 -0.719031 0.994205 1.13267 0.288506 -1.1916
4046 -0.510838 0.120625 -0.97792 0.146126 0.334625 -0.404331 0.666169 -0.150286 0.273862 -0.406726
167 -1.09494 0.145501 -1.39312 1.34689 1.44744 -0.525862 0.233837 -0.393591 -0.353293 -0.0107869
2332 -0.86721 -0.0468229 -1.50839 1.15475 2.00616 -0.300159 -0.54916 -0.259895 -0.186258 0.932366
3195 0.815817 0.214088 -1.45378 0.263259 1.23603 -0.272578 0.434023 0.0394565 0.533416 0.323626
3193 1.87521 0.580302 -1.60631 0.792488 1.5012 -0.11683 0.594766 -0.46075 0.911292 0.707478
3474 1.18263 0.236387 -1.01163 -0.144046 1.38868 -0.0280335 0.388399 -0.215747 0.806775 0.410468
3473 1.5558 0.245311 -1.22348 -0.114326 1.7593 -0.0134117 0.534127 -0.370252 0.954298 0.448843
4244 0.118181 -0.0752191 -1.88994 0.345561 0.414184 0.338224 -0.248118 0.45782 -0.264988 0.115916
2256 -0.141714 0.0308657 -1.7438 -0.0660238 0.504949 0.697163 -0.330873 0.706233 -0.469028 -0.102978
4243 -0.0605455 -0.112764 -1.73795 0.248901 0.495158 0.378878 -0.192779 0.553227 -0.322459 0.0914711
2287 -0.138371 1.12626 -1.41743 -0.670878 0.80444 -2.24499 0.322687 0.599318 0.050177 -0.0317241
2669 0.073383 0.502609 -0.989648 -0.517714 0.883975 -1.37449 0.260478 0.174407 0.00731921 -0.169958
2267 0.274975 0.319233 -0.779979 -0.823969 1.48923 -1.69173 0.380516 0.177011 -0.00507217 -0.580435
3614 0.335935 0.130196 -0.825972 -0.501356 0.915991 -1.66087 0.340973 0.49353 0.23765 0.203971
3362 -0.464292 0.0563628 -1.36337 -0.1975 0.337429 0.495307 0.0544925 0.724793 -0.619133 0.0106725
653 -0.473599 0.231895 -2.64296 -0.291978 0.302426 0.925908 0.0846082 0.917128 -1.38476 0.0317372
4100 -0.205787 0.0559995 -1.3674 0.143048 0.382226 0.449492 -0.0463555 1.14625 -0.081075 0.173797
4101 -0.256116 0.129359 -1.58889 0.169361 0.318717 0.547244 -0.0319688 1.43735 -0.107883 0.166738
3489 -0.712401 -0.0453212 -2.60416 0.326826 0.649242 1.15163 -0.408227 1.65417 0.509607 -0.305672
4642 -0.436821 -0.0295416 -2.09115 0.330525 0.48564 0.790385 -0.29015 0.907374 0.350786 -0.338692
2028 -0.113132 -0.624359 -2.42045 0.839739 0.0741708 0.486098 -0.471947 0.386325 0.20416 -0.110437
2026 -0.104266 -0.660951 -2.6785 0.913277 0.115137 0.5866 -0.51318 0.322003 0.351257 -0.154094
4138 0.0358539 0.0926506 -0.80792 -0.344714 0.778876 0.301823 0.242369 0.563939 0.17544 -0.39648
1491 0.149809 0.101486 -1.33741 -0.954449 1.40158 0.873061 0.604037 1.1597 0.189472 -1.13105
1321 -0.435604 -0.0279696 -0.978561 -0.581603 0.675153 -1.17159 0.153677 0.414472 -0.224065 -0.429543
910 -0.54824 0.0467439 -1.28081 -0.750059 0.871499 -2.14201 0.0391066 0.392259 0.0883052 -0.437055
1323 -0.848094 -0.0842351 -1.6597 -1.19529 1.1626 -2.09114 0.246805 0.713414 -0.506832 -1.05394
1324 -0.540357 -0.00762603 -1.17159 -0.936739 0.971193 -1.51231 0.233951 0.378518 -0.34298 -0.788602
1325 -0.513918 -0.021593 -1.11415 -0.694061 0.736584 -1.39828 0.204253 0.442116 -0.332324 -0.563343
3917 0.339632 0.746951 -1.70461 0.15395 0.222189 -0.535071 0.394821 0.412057 -1.09458 -0.247244
36 0.532171 1.35904 -1.34106 1.17537 2.04564 -0.558805 0.591841 0.0805799 0.0466072 1.54889
39 0.575981 1.28752 -1.35436 1.04792 1.87164 -0.406778 0.489858 0.0425032 0.0717303 1.44865
3043 0.542066 0.772967 -1.01397 0.718832 1.10637 -0.314891 0.212244 -0.113425 0.0256144 0.840404
35 1.16014 1.45358 -1.94888 1.73032 2.04065 -0.354026 0.567499 0.116052 -0.527938 1.66437
3370 0.1183 0.214357 -1.51691 0.00351017 1.14653 -0.618215 0.103563 -0.472398 0.0168616 0.211776
3369 0.0895706 0.157578 -1.63899 -0.136058 1.35214 -0.771668 0.0364759 -0.630923 0.0776899 0.344971
509 0.00482367 0.126553 -1.62143 0.413207 1.11088 -0.803561 -0.18635 -0.707109 -0.00344791 0.191814
4604 0.688427 0.451108 -0.809312 0.184417 1.07909 0.240356 0.505522 1.04576 0.783281 -0.406755
914 0.703056 0.390036 -1.01786 0.399643 1.21988 0.539669 0.63616 0.925817 0.996909 -0.31865
4603 0.521246 0.454197 -0.720949 0.188432 0.908581 0.243799 0.478084 0.733902 0.649102 -0.285673
3277 0.852175 -0.423098 -0.879357 0.560434 1.52997 -0.376238 -0.230999 0.746552 0.549965 0.133228
367 1.39854 -0.879634 -1.19531 -0.131338 2.27545 -0.114801 -0.210538 0.995024 0.798075 0.597724
366 1.35844 -0.901129 -1.17921 -0.1221 2.313 -0.135966 -0.171514 1.01956 0.851193 0.640736
2735 0.559987 -0.387204 -1.01746 -0.0346619 1.22643 -0.48235 -0.438124 0.753241 0.873164 0.715138
3759 0.670069 0.20139 -1.09166 0.532287 0.89349 -0.892702 -0.0594632 0.141339 -0.785324 0.29603
2064 0.979502 0.201943 -1.50079 0.822074 1.39949 -1.3479 -0.250551 0.0107683 -1.11392 0.219806
4685 0.955166 0.2445 -1.14991 0.459956 1.41111 -0.763845 -0.0133472 0.230132 -1.17878 0.0532425
4683 1.00801 0.245326 -1.08568 0.525353 1.46478 -0.764931 0.0242542 0.248962 -1.19656 0.136019
1534 1.092 0.188102 -1.2644 0.586353 1.47643 -0.975467 -0.0700968 0.189191 -1.3678 0.382898
4216 0.138765 1.07566 -1.17708 0.586499 1.59043 -0.0475125 0.160751 0.518114 -1.6397 0.0319664
3125 0.177906 0.778024 -0.98358 0.482862 1.16882 -0.066268 0.0615882 0.356011 -1.16697 0.063162
2534 0.502962 0.979987 -1.3043 -0.684853 0.402255 -0.319987 -0.121275 1.29958 -0.38974 -0.462432
2430 0.692514 1.53308 -1.70892 -0.906461 0.675778 -0.721893 -0.21571 1.21293 -0.228978 -0.963945
517 0.729028 1.04531 -1.72606 -1.09949 0.510853 -0.499662 -0.385618 1.52689 -0.480892 -0.738279
2387 0.232934 -0.08304 -0.938073 0.388163 0.997404 -0.251517 0.958033 -0.139907 0.881496 0.559212
3393 -0.265653 0.348167 -1.48318 0.920141 0.532161 -0.365515 -0.177376 -0.0175217 0.138832 -0.616272
4386 0.111769 0.0724125 -1.24953 0.12229 0.402068 -0.160659 0.192299 0.721553 -0.189122 0.179887
2794 0.0681581 0.154993 -1.85628 0.53249 -0.137471 -0.226085 0.307302 1.77801 -0.808383 0.912337
2840 -0.514001 0.0532679 -1.08994 0.2881 0.266472 -0.450471 0.258397 1.07624 -0.611483 0.0202086
2693 -0.21554 0.0614946 -2.29393 -0.238132 0.394561 0.956167 0.215612 1.58156 -0.955977 0.467511
3113 -0.303606 0.124921 -2.05563 -0.341123 0.497812 0.782659 0.1699 1.19034 -0.975094 0.231565
1911 0.634125 0.517333 -1.87517 0.691078 -0.115524 -0.208429 0.543861 1.42226 -0.80301 0.585794
1591 1.02193 0.554169 -2.20388 0.406742 -0.221691 -0.283841 0.79976 1.62084 -1.01933 1.2453
1590 1.12482 0.465062 -2.5207 0.627595 -0.161364 -0.36175 0.94505 1.90777 -1.25802 1.34339
4821 0.399824 0.421952 -1.64519 0.603442 -0.0182468 -0.286292 0.571711 1.29356 -0.863636 0.388555
2813 -0.354834 0.449644 -0.500882 0.364794 1.57211 -0.655786 0.616838 0.517011 -0.207975 0.797637
2812 -0.296152 0.683506 -0.74774 0.556458 2.41741 -0.981918 0.933116 0.9707 -0.283077 1.25792
2810 -0.205972 0.461006 -0.579919 0.42374 1.59083 -0.607173 0.508506 0.385266 -0.199075 0.747603
2814 -0.186083 0.572357 -0.575984 0.428214 1.5814 -0.577867 0.561122 0.512596 -0.207971 0.865235
542 -1.05872 0.50641 -1.02195 0.844288 3.13349 -1.58786 1.29001 0.997174 -0.475232 1.39109
2706 -0.24109 0.104559 -0.869736 0.119921 0.483664 -0.312924 0.682988 -0.126914 0.528929 -0.128398
303 -0.776412 0.453374 -1.12578 0.251514 0.576809 -0.155628 1.45793 -0.152772 0.51659 -0.122554
300 -0.691673 0.0905083 -1.6787 0.379 0.438363 -0.812898 1.37852 -0.460007 1.38979 -0.573209
3480 -0.0857645 -0.0436958 -1.50702 0.099389 0.298835 -0.380242 0.369276 0.238423 0.322277 0.344063
3481 -0.237685 -0.00321692 -1.63568 0.086612 0.0164829 -0.497521 0.396475 0.1169 0.486261 0.468852
3482 -0.204432 -0.00845036 -1.5155 0.0331027 0.210324 -0.456028 0.390563 0.18403 0.299375 0.362097
2318 -0.484003 -0.0439161 -2.02555 -0.102901 -0.308783 -0.743379 0.677425 -0.0618353 0.755445 0.299835
978 -0.264912 -0.304022 -0.835061 0.389228 1.46921 -0.227723 1.24346 2.33046 -0.82546 -0.546598
979 -0.368505 0.0424712 -0.893347 0.718002 0.888579 0.40914 1.17728 1.82383 -0.163755 -0.884802
2712 -0.798482 -0.278613 -1.01248 0.921885 2.05327 0.175746 0.292826 -0.286216 -0.294874 -0.658783
2713 -0.878848 -0.230461 -1.0198 0.934181 1.97507 0.196078 0.293395 -0.303496 -0.264435 -0.618097
2715 -0.892835 -0.237058 -0.970905 0.881013 1.92081 0.157658 0.245582 -0.214244 -0.196771 -0.633066
2745 0.453778 -0.131013 -0.928399 -0.112162 1.1543 -0.0271147 0.606739 -0.132189 -0.245829 0.309593
2749 0.405378 -0.0578609 -0.978996 -0.12609 1.21822 -0.0697754 0.535302 -0.519756 -0.300791 0.530888
2751 0.422233 -0.344157 -1.02092 -0.0408067 1.314 -0.0766813 0.516774 -0.198242 -0.22416 0.48961
2308 1.1194 0.780338 -1.11155 0.362071 1.69682 0.275264 0.980185 1.6495 1.18424 -0.787407
4849 0.617826 0.537981 -0.614001 -0.00257208 1.11625 -0.320421 0.510172 0.986097 0.824588 -0.196384
2482 -0.793824 -0.0073105 -1.46133 -0.67428 0.535153 -1.09276 -0.157629 0.578166 0.801012 -1.24089
2481 -0.800512 -0.0541732 -1.41268 -0.61149 0.609645 -1.11279 -0.146385 0.57825 0.745954 -1.22085
1624 0.242774 -1.03543 -0.712794 -0.0484558 2.1485 -1.22397 0.402223 0.0158181 0.508034 0.555609
1623 0.254034 -0.983623 -0.721623 0.0101504 2.19471 -1.3031 0.301307 -0.00622526 0.482702 0.418042
1621 0.163598 -1.06182 -0.673315 -0.237763 2.07172 -1.086 0.32981 0.249341 0.547943 0.686609
4523 0.287448 -1.35292 -0.912546 0.112894 1.54254 -0.189973 0.624491 0.564516 0.401343 0.921427
4436 -0.104234 -0.787331 -1.04878 -0.388939 1.04548 0.0178014 0.260347 0.412271 -0.0634857 1.0161
4077 0.369415 -0.605274 -1.20396 0.146329 0.486186 0.369146 0.691198 -0.142805 0.214333 -0.145019
3437 0.747456 -0.910261 -1.8361 0.0125967 0.467546 0.517826 1.49344 -0.114282 -0.0114236 -0.187807
1730 0.695556 -0.506645 -1.58168 -0.33738 0.210039 0.352358 1.39258 0.0797896 -0.0508714 -0.101501
1038 0.931119 -0.945952 -1.92108 -0.0218906 0.453626 0.583463 1.48529 -0.128777 0.0912025 -0.0354405
2269 0.687891 -0.589849 -1.69034 0.0628879 0.33071 0.698283 0.86377 -0.204982 0.15691 -0.0998846
221 0.710332 -0.493437 -1.44099 0.0525284 0.432678 0.66235 0.876708 -0.283402 0.170163 -0.251538
2425 0.263661 -0.72975 -1.44883 0.122752 0.0849809 -0.739672 0.124947 0.667266 0.120846 -0.672568
2424 0.32371 -0.96403 -1.99521 0.187938 0.0869249 -1.10352 0.169571 0.97515 0.254601 -1.0652
2426 0.520486 -0.507305 -1.30094 0.49841 0.272859 -0.684143 0.0593382 0.4854 -0.134284 -0.443033
899 0.41166 -0.967162 -1.4046 0.297266 0.181598 -0.68468 0.333104 0.514303 -0.302174 -0.221579
2422 0.886903 -0.396626 -1.19081 0.533266 0.517818 -0.804714 -0.168573 0.449668 -0.545424 0.0528944
1660 1.09566 0.3302 -1.23567 0.642947 1.46228 -0.978487 -0.147803 0.0631623 -1.23871 0.371428
1779 -0.140701 0.367136 -1.10908 0.49797 1.08797 -0.283033 1.05059 -0.313762 0.833992 0.711303
1298 -0.8377 0.726985 -1.88796 0.706101 1.4802 -0.492385 1.2215 -0.676751 1.41439 0.877368
79 -0.518298 0.362204 -1.82311 0.905612 1.347 -0.425408 1.34586 -0.599848 1.56489 0.926505
1010 -0.107161 -0.170695 -1.27065 0.486741 0.624916 -0.500311 0.730192 -0.295114 1.26341 0.262333
80 -0.460192 0.429323 -1.58873 0.744661 1.26265 -0.320867 0.984762 -0.64038 1.32436 0.872379
1577 -0.77254 0.841655 -0.928126 0.179041 1.23963 -0.994525 1.83619 0.790696 -0.585915 -0.254431
3921 -0.462423 0.467312 -0.693152 0.107252 0.798107 -0.488471 1.20168 0.265103 -0.222105 0.111707
3199 0.114317 0.538536 -0.612833 -0.341454 1.16812 0.213681 1.06398 -0.0615978 -0.197884 -0.233596
3386 -0.319779 0.161184 -0.69684 0.0224736 0.83503 -0.440798 1.29453 0.279638 0.10754 -0.0357045
3523 -0.455713 0.500801 -0.74197 0.0147038 0.944127 -0.50192 1.16784 0.267485 -0.216439 -0.0406793
2914 0.40795 0.380288 -0.803459 -0.562435 1.30555 0.368449 0.859018 -0.131269 -0.340118 -0.206503
4040 0.258423 0.200569 -1.00186 -0.159287 0.907082 -0.0628648 0.683193 -0.183638 -0.216339 0.107368
4483 -0.107021 -0.424355 -1.37951 -0.0517908 0.847174 0.158287 0.552777 0.283423 0.172161 0.550098
2121 -0.235244 -0.745739 -1.42857 -0.0684688 0.785356 0.382149 0.820394 0.271845 0.440752 0.832534
632 -0.0698334 -0.801489 -1.17576 -0.0257506 0.798057 0.190274 0.703383 0.269548 0.163118 0.801099
633 0.0731733 -0.679974 -1.0968 -0.158117 0.814168 0.210382 0.727681 0.275411 0.0474169 0.764785
637 -0.447872 -0.0490038 -1.59194 0.734265 1.09816 -1.53822 0.283013 2.28875 -1.59224 -0.446764
640 -1.15819 -0.0620797 -2.03113 1.14841 0.21387 -0.792461 0.854161 2.08278 -0.985199 0.164368
641 -0.634316 -0.181262 -1.29336 0.515379 0.57571 -0.846725 0.192913 1.51405 -0.925699 -0.244045
638 -0.739739 -0.0832355 -1.17217 0.427979 0.423345 -0.664514 0.368291 1.33885 -0.791377 -0.148004
2457 -0.57192 -0.44584 -1.35529 0.722767 1.06194 -1.25592 0.145973 1.83642 -0.961808 -0.621985
29 0.0866441 1.06309 -0.986759 1.05016 2.07866 -0.743081 0.661611 0.284842 -0.0942487 1.46135
37 0.529743 1.20748 -1.26787 0.951986 1.83271 -0.46246 0.479584 0.0232972 0.173016 1.41283
1319 0.449446 0.887032 -1.02615 0.682919 1.28291 -0.326664 0.256475 -0.00960508 0.147488 0.996641
2212 0.547492 0.0217624 -1.05454 0.516197 0.297034 0.230382 0.242694 0.148893 -0.235312 0.318682
1175 -0.00844355 0.0822946 -1.48127 1.40365 1.09831 0.214658 1.14203 -0.455434 -0.353827 -0.988443
1173 -0.20762 0.100121 -1.74413 1.6535 1.23684 0.0730001 1.31758 -0.343589 -0.522444 -1.08808
810 -0.183598 0.570358 -1.44209 0.101098 0.72042 0.616209 1.7297 0.287669 -0.53374 -1.15419
1098 -0.661058 0.762334 -1.19721 0.25579 0.604017 -0.0463858 1.83277 0.0758888 0.19312 -0.0573406
3354 -0.148501 0.10094 -1.79604 -0.122011 0.661359 0.253353 0.256616 0.878647 -0.464809 0.0391737
3355 -0.162973 0.0861349 -1.63605 -0.150104 0.620435 0.265594 0.246178 0.791977 -0.371737 0.0440816
4283 0.10737 0.280272 -0.775136 -0.169491 0.682779 0.382663 0.266973 0.440553 -0.181323 0.4205
1432 0.165333 0.846637 -1.52624 -0.480752 1.40495 1.25194 0.685624 1.06077 -0.730062 1.1529
2085 0.326867 0.198518 -1.08605 -1.07427 1.82959 -0.161397 -0.501497 1.1988 -0.389853 1.19209
2838 0.214449 0.544129 -1.02213 -0.775651 1.40797 0.487756 0.629408 0.785693 -0.273991 1.15102
145 0.205967 0.646174 -2.44055 -1.56251 0.139351 -1.29126 1.31704 0.0251859 0.904945 1.38836
146 0.850316 0.524178 -2.29249 -1.67559 0.7516 -1.64583 0.946973 -0.414337 0.940237 1.18982
1103 0.239675 0.961259 -2.4854 -1.02263 0.0335255 -0.534336 0.339934 0.00477101 0.0429374 1.72405
147 0.781989 0.50669 -2.47541 -1.55066 0.447639 -1.62187 1.12418 -0.245285 1.19654 1.43004
1729 0.747244 -0.0491405 -1.23556 -0.392901 0.355344 -0.416694 0.746828 -0.247566 0.185285 -0.134394
3945 0.928536 0.10302 -1.30867 -0.439936 0.466857 -0.786812 0.682215 -0.278602 0.265215 -0.165279
3946 0.876565 0.13844 -1.18349 -0.427714 0.45792 -0.797357 0.594924 -0.312577 0.247721 -0.145416
824 0.858717 0.38657 -1.31724 -0.623197 1.12883 -0.159103 0.673478 0.154736 -1.84481 -0.167493
2835 0.320052 -0.841329 -0.745751 -0.599399 0.781297 -0.532084 0.163967 0.926027 0.400559 -0.652622
958 -0.379802 -0.58728 -1.15824 -0.590439 0.617817 -1.16816 1.18812 0.411101 -0.914286 0.0767061
1748 0.262539 0.0509746 -0.711744 -0.198663 0.894409 -0.562303 1.01878 0.144188 -0.943681 0.149694
2072 0.655351 -0.629328 -1.38786 -0.174486 0.359239 0.148749 1.15334 -0.0926595 -0.247346 0.00330709
1750 0.236231 0.0816149 -0.714862 -0.0846245 0.862696 -0.503746 1.13136 0.195427 -0.844202 0.160576
2993 -0.306712 0.7872 -1.18168 -0.436073 0.494622 -1.18338 0.0231008 0.43579 -0.121647 -0.0181976
2994 -0.323797 0.739213 -1.09192 -0.444182 0.517987 -1.20648 0.0218041 0.396337 -0.0909872 -0.164224
1359 -0.589189 1.36559 -1.88898 -0.479088 0.354392 -1.96184 -0.110277 0.658294 -0.123352 0.471141
3628 0.00750632 -0.107624 -1.49699 -0.893541 1.0479 -0.506283 0.513233 -0.319466 0.210218 0.114079
3627 -0.0255933 -0.0631796 -1.37315 -0.856506 0.951411 -0.491132 0.471853 -0.274532 0.255751 0.0638619
2033 0.0156684 -0.269024 -1.78857 -1.69528 1.2439 -0.529748 0.537759 -0.951381 0.33093 -0.215368
2145 -0.278451 0.633452 -0.84099 -0.152108 0.568395 -0.673009 0.432434 -0.20952 -0.0630848 0.202547
4086 0.947947 -0.367386 -1.163 -0.35981 0.555531 0.422588 0.613673 0.0256139 -0.103622 -0.238627
1337 0.784508 -0.10499 -0.901408 0.101574 0.905088 -0.585869 0.290387 0.138253 -0.817452 0.269803
1344 0.815839 0.378113 -1.24372 0.579303 0.876007 -0.875157 0.185611 0.379463 -0.601013 0.313573
1342 1.17002 0.458377 -1.58045 0.887604 1.22791 -1.47864 0.110128 0.539938 -1.08273 0.478592
3615 0.744597 -0.332252 -1.00879 0.343805 1.37616 -0.8478 -0.169604 0.0461432 -0.574862 -0.132375
3618 0.809472 -0.30938 -0.993294 0.29083 1.42207 -0.992713 -0.169301 -0.044187 -0.536917 -0.0727239
3617 1.06112 -0.495246 -1.08732 0.444611 1.69569 -1.09921 -0.328345 0.0430906 -0.686754 -0.228109
3932 0.975653 -0.107962 -1.34237 0.525765 1.6046 -1.09075 -0.342911 0.120356 -0.922197 -0.00658305
3934 0.814138 -0.36271 -0.995775 0.382377 1.32085 -0.864514 -0.192365 0.0231361 -0.549276 -0.0855404
4989 0.610419 0.118048 -1.25479 0.464598 1.12623 -0.803462 -0.169853 0.202833 -0.687671 0.11479
2372 0.182107 0.249299 -0.664435 -0.523156 1.031 -0.764268 0.30379 0.0877874 -0.0147648 -0.478904
2268 0.191307 0.409711 -0.829433 -0.904905 1.62041 -1.56891 0.333155 0.00030295 -0.0860408 -0.726633
2266 0.10673 0.39296 -0.912576 -0.729316 1.50962 -1.50361 0.345245 -0.0635177 -0.0278691 -0.782183
4686 0.174726 -0.163707 -0.948793 0.32576 0.523243 0.488429 0.96853 0.113693 -0.000365029 -0.285486
3333 0.0973426 0.366535 -1.015 -0.0430434 0.867082 0.594029 1.2261 0.497257 -0.131677 -0.786019
994 0.336567 -0.0982843 -1.2383 -0.246212 1.19329 1.01432 1.48136 0.433929 -0.0251652 -0.995304
1631 0.317333 0.518076 -1.94531 0.423948 1.17521 0.77598 2.65025 1.0622 -0.653013 -1.55755
2538 0.249456 0.23756 -1.24572 0.292377 0.900196 0.530904 1.82909 0.591987 -0.536405 -1.00074
3872 -0.223806 -0.0373215 -0.725052 -0.0312558 0.452026 -0.640169 -0.063503 0.300553 0.136316 0.274263
2764 -1.09254 0.0544404 -1.59251 0.125715 1.30853 -2.20795 -0.242806 0.867762 0.307672 0.796648
2771 -0.77641 -0.0286095 -1.54227 0.467427 0.568998 -1.71229 -0.562808 0.811013 0.291836 0.389846
121 -1.02516 0.608967 -2.40989 0.716608 0.157504 -1.41449 -0.650454 0.0866292 -0.200089 -0.779974
2146 -0.504097 0.472198 -1.98027 0.549277 0.121227 -0.871119 -0.452706 -0.199039 0.041716 -0.849383
873 0.83589 -0.417327 -2.67409 -1.1676 0.310507 -0.456665 -0.610142 -0.476555 0.402687 0.218249
2539 0.694058 -0.250893 -1.96727 -0.869636 0.208859 -0.321492 -0.379627 -0.298287 0.289529 0.141808
872 1.07483 -0.501737 -2.9967 -1.37821 0.37481 -0.496305 -0.648566 -0.501542 0.423455 0.264745
2837 0.162449 0.410105 -0.903574 -0.625147 1.16152 0.336293 0.448205 0.623589 -0.341185 0.906701
1255 0.309114 0.375731 -0.856446 -0.335501 1.05779 0.643907 0.489408 0.436266 0.24102 0.519651
1257 0.690446 0.549271 -0.970853 -0.401411 1.52365 0.558271 0.288961 0.593946 -0.383242 1.26956
1517 -0.407311 -1.06462 -2.27996 -0.0156056 0.622663 -0.114108 -0.926398 0.800132 -0.963487 -0.162037
4741 -0.154984 -0.343461 -1.11825 0.144368 0.404752 0.177559 -0.15524 0.482809 -0.150033 0.0608992
1515 -0.468769 -1.30428 -2.53861 -0.0613879 0.707424 -0.0289996 -1.04796 0.835175 -0.939103 -0.154905
362 -1.12604 -0.210293 -1.51784 -0.378084 0.645919 0.0983675 0.198388 0.884923 -0.690785 -0.106691
3287 0.140336 0.130005 -0.875567 0.149771 0.500052 0.180952 0.643644 0.305276 -0.0447908 -0.388815
1408 0.350404 0.164986 -1.24824 0.193258 0.779022 0.0273802 0.741952 0.341091 -0.275767 -0.305707
4293 -0.402535 0.55494 -1.95818 -0.0142238 0.269365 -0.753444 -0.675065 -0.373797 0.550144 -0.458333
2593 -0.67668 0.670029 -2.38674 0.49663 0.328524 -0.612763 -0.501225 -0.773905 0.414004 -1.02564
2598 -0.463487 0.324292 -1.69668 0.441265 0.310461 -0.222228 -0.447589 -0.151476 -0.142796 -0.911708
2597 -0.530068 0.314912 -1.77417 0.644394 0.290283 -0.284731 -0.404713 -0.0713749 -0.203621 -1.03132
4114 -0.468871 0.487491 -1.95541 -0.253305 0.188487 -0.454495 -0.174402 -0.654203 0.271395 -0.249957
1194 -0.841062 0.407946 -2.90409 -0.149008 0.126615 -0.751216 -0.018126 -1.29623 0.568549 -0.283017
579 -0.913288 0.550912 -2.99402 -0.112942 0.174312 -0.501556 -0.410258 -0.919931 0.49825 -0.579006
2016 0.0707471 -0.579039 -1.73643 0.538971 -0.0752005 0.0735715 -0.148265 0.662345 0.395847 0.234794
1564 0.107215 0.0147426 -2.04165 0.527499 -0.122347 0.469823 0.132733 1.76841 -0.060993 -0.654436
3863 -0.0458234 0.294276 -0.87795 -0.101763 0.975783 0.0884031 0.987544 1.37382 1.37237 -0.109273
1796 0.0446145 -0.35708 -1.52268 -0.470262 0.448186 -0.22502 0.932206 1.48158 1.76894 -0.551972
4110 -0.0801957 0.0928229 -0.869156 -0.113488 0.667948 -0.00573448 0.639118 0.793329 0.746494 -0.201614
713 0.596244 0.10939 -1.41436 0.0330802 0.80389 1.11792 0.70605 0.218531 0.908225 0.0520363
609 -0.371943 0.2437 -2.09983 -0.26857 0.823707 -2.69374 -0.392469 1.06193 0.47013 1.26298
2645 -0.48895 0.321662 -1.9798 -0.151946 0.197516 -1.81358 -0.353127 0.652685 0.0728135 1.05681
1742 -0.587105 1.17299 -2.45069 -0.237658 0.141891 -1.3828 -0.385335 0.587393 -0.292823 1.36728
2646 -0.362965 0.139567 -1.97107 -0.11503 0.214842 -1.83576 -0.313014 0.651235 0.0839726 0.980631
3530 1.41257 -0.509414 -1.47145 -0.0762704 0.391027 -0.0739439 0.747782 -0.0569177 -0.256397 -0.487707
781 1.74421 -0.770309 -1.65693 -0.11673 0.471427 -0.109985 0.804234 0.048151 -0.138864 -0.561885
4264 0.952546 -0.390557 -0.816117 -0.201802 0.725231 -0.169115 0.554032 0.145189 -0.231353 -0.268189
4781 -1.19095 0.652801 -0.852389 -0.653063 1.69075 -0.199248 0.302229 0.402953 0.0512103 0.134088
735 -1.37473 0.573309 -1.0593 -0.800433 1.08974 -0.963606 1.18373 0.832831 -0.322962 -0.272824
534 -1.11917 1.19668 -0.986825 -0.43141 1.16034 -0.152818 1.78156 1.00382 0.0313155 -0.208712
1177 0.00686252 1.11833 -0.960399 -0.502063 1.04782 -0.410539 1.76192 0.273537 -0.908452 -0.198821
923 -0.698113 2.06815 -1.30404 -0.572562 2.09661 0.627437 0.764383 0.358609 0.231047 -0.0558143
559 -0.335744 1.76252 -1.1836 -0.638956 2.15336 0.860857 1.07033 -0.00996448 -0.0943165 -0.0146812
2325 0.146589 0.194243 -0.867745 0.141757 0.63656 0.352276 1.19673 0.359894 -0.264768 -0.772105
2324 0.0861526 0.176103 -0.893728 0.115801 0.584819 0.332849 1.11534 0.355334 -0.212588 -0.627489
1632 0.389986 0.513421 -1.83316 0.522097 1.30546 0.719227 2.51286 0.981566 -0.535735 -1.51918
1630 0.00816165 0.592757 -1.87341 0.28 1.3282 0.792326 2.64583 0.935073 -0.563627 -1.59784
4338 -0.82719 -0.178467 -2.49043 0.441076 0.574155 0.99981 -0.408703 1.32305 0.509872 -0.529146
